#ifndef LAYER_014_DEPTHWISE_CONV_2D_H_
#define LAYER_014_DEPTHWISE_CONV_2D_H_

#include <stdint.h>

// op_index=14 op=DEPTHWISE_CONV_2D
// input:  idx=71 name=sequential_1/mobilenet_1.00_128_1/conv_pw_6_relu_1/Relu6;sequential_1/mobilenet_1.00_128_1/conv_pw_6_bn_1/batchnorm/add_1;sequential_1/mobilenet_1.00_128_1/conv_pw_6_1/convolution; shape=[1, 8, 8, 512] dtype=int8
// weights: idx=31 name=tfl.pseudo_qconst29 shape=[1, 3, 3, 512] dtype=int8
// output: idx=72 name=sequential_1/mobilenet_1.00_128_1/conv_dw_7_relu_1/Relu6;sequential_1/mobilenet_1.00_128_1/conv_dw_7_bn_1/batchnorm/add_1;sequential_1/mobilenet_1.00_128_1/conv_dw_7_bn_1/batchnorm/mul_1;sequential_1/mobilenet_1.00_128_1/conv_dw_7_1/depthwise; shape=[1, 8, 8, 512] dtype=int8

#define L014_DW_OUT_CH (512)
#define L014_DW_KH     (3)
#define L014_DW_KW     (3)
#define L014_DW_STRIDE_H (1)
#define L014_DW_STRIDE_W (1)
#define L014_DW_DILATION_H (1)
#define L014_DW_DILATION_W (1)
#define L014_DW_DEPTH_MULTIPLIER (1)
#define L014_DW_PAD_H (1)
#define L014_DW_PAD_W (1)

static const int32_t L014_dw_input_offset = 128;
static const int32_t L014_dw_output_offset = -128;

static const int8_t L014_dw_weights[4608] = {4, -18, -16, 1, -7, 3, -34, 19, 66, 20, -43, 15, 2, -3, -6, 127, -16, 21, 4, -15, -16, 5, -1, 4, -18, -127, -13, -15, -10, -10, -65, -10, -15, 47, 19, 91, -44, -4, -20, -8, -9, 11, -13, -19, 3, -3, 3, 5, 1, -2, -127, 16, -2, 87, -35, -19, -11, -24, 39, 21, -15, -41, 35, -6, 11, -27, -3, -26, -89, -13, -11, 35, 3, -25, -2, 24, -31, 8, 3, -7, 1, 4, 1, 15, 57, 9, 7, -21, -42, -82, 25, 9, -16, 7, -36, -36, -21, -7, 1, 4, -27, -11, 0, -13, -11, 12, -115, -2, 14, -2, -24, 16, -11, -12, 14, -62, 1, -6, -18, 0, -26, -22, 2, -10, -20, -13, 8, 18, -3, 5, -2, -3, 5, 4, 7, -43, -57, -1, 3, -7, 3, 9, 45, -18, 18, 1, -32, -3, -2, 21, -16, 33, 40, -6, 4, -127, 7, -15, 9, -14, -127, -8, 8, 0, 4, -18, -6, -75, 2, -2, -1, 6, -8, -5, 11, -14, -11, 9, 0, -108, 13, -5, -127, 2, 27, -3, -6, 8, 3, -20, -48, -8, -57, 12, 2, -61, -45, -11, -3, -10, 39, 9, 19, -16, -17, 9, -24, 6, 7, 13, 24, 10, 1, 84, -12, -8, 40, 23, 20, -11, -3, 4, -7, -102, 24, 1, 1, -3, -3, -4, -2, 34, -127, -5, -16, 23, 3, -6, 1, -5, -3, -22, 1, 11, 127, 59, 25, 33, 46, -2, 3, -26, -8, -23, -27, -36, 18, 9, -30, 4, -23, -48, 93, 40, -2, -101, -101, 5, 9, 8, 7, 0, 9, 3, 8, -8, -18, -13, 13, -4, 8, -9, -16, 0, 1, -12, 37, -13, 9, -94, 11, -24, 2, 19, 5, -7, 127, 4, 9, 10, -1, -4, 13, -29, -10, -16, -13, -3, -14, 9, 7, -1, 6, 2, 29, 22, 4, -50, -4, -32, -20, -51, 13, -3, 5, -18, 2, 5, 28, -17, 0, 48, 4, 7, -18, 25, 31, -1, -5, -5, 15, 14, 13, -12, 0, -7, 22, -4, -1, 4, -5, 2, -13, 31, 12, 5, -1, -4, -11, 16, -18, 0, 10, 28, 12, -23, 42, 17, 1, 59, -9, 1, -9, -13, 13, 14, -14, 3, 5, 43, 4, 34, -10, -32, 8, -4, 14, 0, -57, 14, -127, -4, -54, -11, 25, 5, -13, 3, 8, 35, 17, 37, 5, 13, 12, 25, 27, 79, -5, 1, 20, -17, -1, -10, -67, -5, 5, -4, -13, -7, 11, -24, -8, 17, 8, 38, 20, -31, -3, -6, -7, 30, 7, 74, 11, -14, 13, -3, -9, -17, -10, -12, 0, 4, -7, 11, -1, 50, 6, 0, 8, 5, -14, -112, 12, -42, -20, -13, 18, 20, 18, 21, -19, -5, 9, -13, 4, -20, -2, -14, -1, -6, -3, -20, 0, 2, 5, 8, 32, -6, 23, -106, 37, 16, 6, 8, 35, 9, -6, 12, -32, -8, -65, 4, 127, -11, 16, 6, 10, 127, -24, -31, -9, 32, 24, 23, -13, -8, 11, 19, -33, 3, 93, -5, -91, 2, -7, -17, -22, 127, 42, -6, -7, 24, -9, -25, 5, 70, -18, 127, -9, -24, -97, -3, -79, 127, -27, -72, 4, 3, -6, -1, 127, -7, -85, -75, -12, -28, 104, -17, -71, -32, 36, 127, -76, -57, -14, 6, -4, 5, 27, -48, -93, -46, -16, -26, -126, 34, -11, 2, -35, -8, -18, 127, 19, -3, 16, -26, -32, -16, -127, 127, 26, 127, 12, -104, -3, 127, -127, 3, -25, -81, -34, -11, -33, -31, -40, 18, -6, -24, 8, -117, -13, -13, 18, 21, -127, -120, 67, -40, 0, -59, -127, -20, 26, -2, -22, -81, 27, -19, 33, -31, -15, -24, 1, -126, -15, 58, -28, -28, -47, -35, -28, -72, -6, -86, -23, -39, -127, 127, -36, -79, 15, -1, -12, 15, 12, -114, -96, 13, 45, 27, 5, 32, 66, -74, -24, 37, 127, 4, 51, -18, -33, 127, -40, 5, 127, -126, 9, 3, 7, -66, 107, -24, -5, -3, 127, -116, -26, -89, -14, -61, 31, -9, -32, 3, 127, -5, -15, -30, 11, -115, -1, 50, 118, -15, -40, -93, 9, -13, 12, -127, 127, -22, 59, 127, 8, 69, -15, 10, -23, -34, 107, -11, -9, 82, -4, -20, 45, -33, 14, 127, -26, 24, -7, -127, -31, -12, 127, 27, -20, -33, 32, -28, 7, -93, -86, -19, -90, -26, 7, 21, -26, -39, -30, 3, -18, -25, -29, 2, -32, 18, -48, -22, -47, 51, -34, 127, 127, 127, 127, 120, 4, -114, -18, -38, -19, -13, -13, -34, -112, 15, 23, -41, 77, 91, 16, -50, -127, -2, -5, -76, -29, -11, -51, 34, 42, -22, 34, -11, 8, -34, 66, -26, -17, 6, 4, -23, 5, -13, -18, -127, 8, 14, -4, 7, -9, -33, -16, 22, 17, -54, -24, -9, -32, -37, -17, 44, 1, -14, -60, 5, -3, 25, -30, -1, 127, 18, -4, -35, -16, -127, -110, -94, -6, -27, -88, 29, 25, -7, 7, -19, -24, 26, 3, -64, -79, 95, 24, 11, -53, 4, 127, -104, -17, -28, 47, -78, -41, 14, -64, 127, -104, -4, -53, 127, 53, 13, 16, 17, 10, -9, -39, 6, -39, 127, -16, -43, 47, 68, 14, 127, -11, -14, -15, -37, 44, -32, 11, -1, 20, 127, 127, 127, -6, -1, -83, -10, 127, 17, -120, 55, 65, 24, -48, -36, -33, -11, -27, -14, -88, -127, 127, -19, 15, -14, 3, -71, 19, -81, -17, 28, 127, -19, 48, -4, -109, 10, 28, -32, -91, 5, -48, 5, 10, 42, 127, -17, 127, 34, -7, -32, -7, 127, 32, 5, 21, 4, -59, 16, -5, -63, -14, -65, 20, -75, -30, -1, -17, 74, -1, -24, 14, 119, -63, -127, -26, 127, 15, 1, 127, -23, -17, -16, -24, -25, 15, 20, -8, -58, 9, 36, -19, -32, -6, -15, -39, -37, 21, -33, 127, 29, 1, -113, -127, -74, -24, 17, 33, 127, 14, -7, -48, 57, -127, 0, 46, 7, 127, 10, -3, -22, -67, 127, -44, 32, 127, 49, -37, 14, -9, -19, -24, 0, 5, 1, -109, 3, 15, 17, -23, 7, 14, -17, 13, 24, 7, -1, -8, -23, -16, 18, -1, -9, -20, -17, -1, 7, -7, -61, -19, -9, -13, -6, -56, -11, -1, -8, -9, -40, 14, -4, -4, 35, -46, 9, 4, -14, -4, -4, 2, 4, -2, 2, -89, 17, 24, 87, -26, -9, -23, -1, -7, -14, 18, -46, -3, 25, -31, -10, 9, -14, -99, -14, -4, 39, -1, -6, 3, 17, -36, 3, 2, -4, 8, 4, 4, -22, -25, -22, 7, -4, -9, -56, 10, -20, -16, 7, -30, -18, -46, -5, -1, 17, -27, -9, -7, -3, -7, 25, -96, 5, -55, 0, -17, -20, -3, -41, -1, -15, 13, -5, -17, -1, -22, -67, 0, -4, -14, -15, -4, 0, 1, 22, -5, -14, 1, 10, 6, -16, -63, -6, -6, -3, 1, 5, -8, -21, 7, 3, 36, -9, 3, -4, 0, 10, -4, -5, 6, -111, 12, -10, -12, -14, -18, -7, -3, -19, -3, -16, -20, -82, -2, -8, 14, -2, -10, -1, 3, -11, -10, 7, -13, -127, -13, 14, 10, -1, 6, -4, -10, 4, 1, -17, 107, 34, 37, 26, 2, 34, -5, -1, -1, 33, 20, 3, 9, -37, -13, -5, 7, 17, 7, 0, 26, 9, -3, 21, 25, -8, 29, -16, 18, -13, -1, 8, -2, -76, -45, 5, 1, -2, -1, -10, -9, -2, -110, -6, -11, -15, 63, 7, -11, -5, -5, 29, 6, -1, -94, 39, 51, 23, 45, -17, 4, -22, 15, 13, 16, -35, 7, 0, -26, -20, 14, -29, 29, 23, 5, -127, -61, 1, 1, 14, -6, 4, 6, 2, 6, -14, -4, -5, 6, 0, 41, -4, -16, 9, 0, 20, -33, 27, 7, -13, 41, -9, -7, -12, 12, 0, -2, 4, -2, -6, 32, -1, 18, -1, -4, 127, -16, 0, -16, -22, -2, 2, 4, 1, 14, 16, -5, -2, 2, -21, -19, -2, 8, -1, -2, -6, 2, 5, -12, -15, 19, -13, 4, -17, -21, 17, 7, -3, 6, -2, 21, 13, -4, -1, 6, -7, 18, -12, 0, -1, -6, 0, -4, 18, 7, 3, 1, -2, -15, -4, -12, -2, 31, 18, -17, -19, -16, 12, -4, 55, 32, -5, -1, -3, 13, -46, -11, -6, 11, 45, 5, 25, 10, 3, 24, -27, 15, -8, -23, 17, -2, -10, -36, -11, -1, -8, 21, 1, -21, -2, 11, -12, -9, -14, -7, 34, -29, -8, -1, 13, 27, 69, -4, -3, 53, -12, -1, 0, -18, -9, 21, 3, -7, 7, 9, -17, 16, -25, -4, -4, -7, 21, 13, -27, 11, 2, 6, -8, -3, -8, 14, -17, 0, -2, 2, -20, -4, 44, 7, -1, 5, 0, -8, -81, -6, 112, -19, -3, 11, -23, -18, 0, 41, -3, -20, -16, -4, -27, -3, 4, 0, 27, -4, -13, -14, -14, -2, 3, 29, -11, 14, -98, 48, 16, 7, -17, 19, 6, -5, -37, -15, -11, -48, -3, -16, -8, 12, -2, 21, -14, -34, -2, -29, -9, 23, -22, -2, -4, -12, -7, -9, 5, 29, 127, -100, -63, -114, -20, -14, -33, 54, 127, 127, 9, -1, -2, 14, 17, -15, -20, 127, -17, -6, 95, -35, -16, -21, 100, 17, -75, -10, 2, 20, -17, -37, 26, 127, 127, 96, 2, -24, -96, -36, -15, -14, -11, -22, 7, 35, 31, 33, 7, -74, -32, -124, -106, -5, 15, -21, 64, 127, 121, -95, -19, 102, -24, -53, -47, 4, -16, -83, -6, 16, 5, -14, -124, -23, -26, -13, -32, 127, -22, -53, -16, 35, -28, 127, 31, -32, -9, -87, -127, 127, 96, -10, 10, -4, 16, -51, -32, 15, 0, 1, 16, -54, 22, -20, -73, -41, -18, -45, -25, 44, 19, 7, -34, 127, 60, -79, -23, -6, 6, -23, -3, -21, 93, 14, -79, 36, -15, -8, -20, 17, 127, 10, 10, 22, -12, -127, 36, 41, 25, 14, 56, -64, -127, 127, 13, -104, -18, -22, 127, 8, -19, 127, 9, -15, -90, 18, 127, 13, -59, 124, -16, -95, 8, -26, -32, -18, -96, -50, -24, 10, -4, -25, 3, -2, -6, -3, -30, -37, -98, 126, 127, 103, -51, 127, -30, 14, 127, 13, 6, -13, -18, 14, -20, -4, -124, 127, 10, -29, -65, -8, -16, 1, 25, 12, 127, 13, -21, 18, -28, -28, 17, -23, -27, -53, -6, 75, -3, 127, -65, 15, 85, 11, -127, -51, -9, -20, -9, -3, 7, -18, 127, -60, 4, -6, 127, -31, 127, -9, 29, -17, -77, 7, 16, -65, -49, -77, -10, -28, 26, 24, -9, -113, 66, -1, -51, 127, -44, 11, 33, 28, -35, 127, 19, -21, -35, -111, 127, 127, -28, 127, -120, -13, 35, 1, -34, 23, -23, -27, -19, -46, -8, -62, 20, -116, -82, -116, -100, -4, -126, 16, 16, -3, -64, -74, 12, 35, -22, 32, -37, -67, 22, 81, 127, 127, -37, -2, -2, -27, 2, 127, 24, -79, 20, -17, -1, 7, 31, 5, 0, -22, -127, -49, -14, -32, 29, 20, 21, -64, -13, -57, 127, -6, 59, -10, 44, 73, 7, -48, 23, -17, -15, 127, -19, 45, -44, -50, -54, -27, -2, -24, 10, -75, -10, 62, 13, 25, 15, -47, 127, -14, 127, -52, -8, 127, -25, -21, 13, 20, 54, -28, 127, 127, -1, 43, 127, 19, -26, -1, -11, -2, -16, 127, 30, 127, 127, -24, 1, -52, 53, 88, 29, 13, -30, 127, 127, -83, 6, 127, 87, -23, 127, -7, 127, -43, -42, 18, -127, -14, -66, -24, -72, 2, 36, -50, 10, 21, 3, -16, -20, -46, -82, 5, 93, -13, 127, -26, 20, 1, -33, -7, -31, 2, 127, 24, -16, 8, 35, -5, -49, -127, -48, 32, -37, -48, -90, -22, 41, -9, 0, 4, -29, -29, -81, 127, -79, 25, -32, -34, 118, 90, 127, 9, -13, -68, 21, 19, 71, 32, 20, -15, -110, -3, 18, -11, -19, 56, -52, 2, -19, -82, -90, -127, 114, -5, -35, -113, -11, 30, 127, -77, 38, -55, -11, -14, 8, -17, -6, -17, -17, -13, -49, -75, 91, -20, 44, -62, 28, 127, 127, 22, 3, 64, 120, -127, 127, -19, -113, -106, -99, -127, -16, -10, 127, 127, 127, 127, -105, 127, -70, -27, 127, -6, -127, -127, -36, 127, -13, 127, 127, 127, 127, -3, 127, -50, -127, -67, -89, 127, 127, -47, -43, 127, -67, -48, 127, 127, 127, 127, 127, 127, 127, -112, -127, 22, -110, 7, 127, 127, 127, -51, -37, -21, -12, -127, -124, 127, -127, 127, 127, -60, -50, 127, -24, -127, -66, 127, -66, 125, -127, -48, -40, -127, -127, -127, -90, -120, 127, -127, 127, 127, -68, -121, -1, -37, -127, 24, 68, -96, -65, 127, -127, 78, 127, -127, 127, 127, -127, -22, 127, -127, 127, 127, -127, 127, -17, -40, 127, -32, 127, 127, 127, 127, 127, -127, -127, 127, 127, 22, -58, 127, -89, 127, -30, 127, 127, -127, -127, -103, 127, 127, 127, 127, 127, -127, 3, -89, 127, 48, 127, -127, -80, 127, -44, -85, 127, -98, 106, -127, -22, 127, -127, 14, 127, 127, 127, -29, -17, 127, -49, 127, -66, -127, 127, 127, 127, -26, 127, 127, -127, 127, 54, -2, 41, -113, 127, -50, -48, 127, -47, -127, 125, -17, -96, -127, -96, 127, 127, -32, 127, 127, -103, -127, -127, -127, -127, 127, -59, 127, -127, 127, -61, -127, -127, -69, 3, -62, 127, -21, 127, -89, 127, 127, -127, 127, -54, 5, -81, -18, 127, 127, 127, 127, -43, 33, 127, 127, -15, -127, -114, 127, 127, 127, -4, 127, -127, 9, -4, -65, -73, -85, 127, 127, 127, -13, 127, -71, -127, -40, 127, 127, 127, 127, 127, -92, -127, 127, 58, -121, -27, -42, 127, -113, -2, 127, 127, -127, 127, 127, 127, -127, 127, -127, -45, 127, 127, 127, -36, -15, -26, -127, 23, 127, 127, 127, -66, -49, 127, 5, 127, 127, 127, -62, 127, -127, 1, -20, -84, 127, 127, -116, 127, -8, 127, 127, 127, -121, -127, 127, -127, 127, 125, -19, 40, 127, 127, -54, 127, 127, 127, 127, 127, -53, -41, -127, 127, 127, 127, -127, 127, -127, 127, -16, -29, -46, 127, 127, -52, -127, 127, -58, -40, -15, 127, -127, 9, -127, 127, 127, 127, 127, -55, 127, -13, -76, -5, -33, -103, -127, -127, 127, -96, -102, -58, -50, 127, -127, -40, 127, -127, -127, -98, -30, -14, -11, 127, -54, 33, -94, 127, 62, 127, 25, 127, 127, -72, -89, -83, -63, 127, -7, -89, -56, -40, 127, -64, 127, -127, 127, 112, -127, 127, -16, -71, 127, 111, -127, 127, 127, 127, -33, 127, -71, 127, 127, 127, -23, -27, -33, 127, 127, -87, 127, -95, -127, -105, 127, 127, 127, 127, 127, -74, 35, -127, 127, -77, 127, 127, -127, -127, -127, 127, -127, -127, -27, 13, -30, 36, 127, 127, -79, -13, -127, -12, -99, 127, 127, 127, -18, 119, 127, 127, 127, 10, 127, 127, 127, 127, 127, 127, 15, -108, -127, -94, -94, -127, -127, 127, -127, -52, 127, -63, -127, 127, -87, 127, -25, 127, -49, 127, 127, -59, 127, 28, -127, -127, -110, 82, -109, 127, -1, -101, 127, 127, 17, -42, -69, -8, 127, 127, -7, -24, -40, -100, -19, 6, -13, -18, -8, -44, -20, -18, -116, -28, -6, 9, -40, -16, -34, -82, 13, -1, -18, -14, -6, 4, -22, 17, -82, -25, -92, -6, -15, 127, -98, -19, 127, -17, -45, -8, 10, 22, 6, -11, -67, -21, 127, -127, -5, 3, -24, 4, -75, -127, 127, 1, -26, 127, -46, -14, 14, -20, -61, -3, -5, -12, 67, -109, -23, -7, -19, -30, -28, -18, -29, 5, 42, -20, -19, -4, 2, -7, 33, -102, -34, -127, -24, 0, -1, 7, -47, -27, -4, -3, 2, -3, 8, -31, -37, -44, -14, 11, 127, -15, 18, 70, 2, 15, -78, -53, 127, -31, -29, 10, -18, -14, 3, -95, 16, 8, 2, -9, -18, -9, 0, 3, 1, 11, 30, -65, -106, -6, 34, 3, -5, -49, 10, 119, -35, -1, 10, -15, -11, -40, -1, -19, -51, 3, -16, -66, 46, -8, 2, -18, -28, -22, 71, 29, 21, -39, -17, -127, -51, -32, 12, -13, -28, -4, -4, -16, -13, -3, -34, -114, -127, 62, -19, -34, -91, -21, 4, -76, 12, 0, -19, 127, -20, -26, 1, 59, -28, -4, -25, 127, 4, -13, 5, 53, -5, -41, 0, -8, 15, -17, -15, 20, -31, -8, 127, -17, -18, 13, -39, -15, 18, -33, 4, -106, -11, 127, -20, -8, -4, -10, -8, -20, -59, -9, -8, -116, 93, 4, 13, 8, -16, 127, 8, 15, 62, -49, 26, -41, -19, 22, -2, -10, 127, 13, -24, -18, -87, -52, 42, 3, 9, -68, -51, -12, 4, -36, -55, -63, 8, -33, -38, 127, -4, 22, 16, -37, 22, -23, -10, -18, 109, 127, -16, -22, 52, 127, 127, 127, 1, -17, -17, -80, -12, 127, 127, -10, -26, 16, 9, 50, 127, 6, 10, -5, -34, 13, -14, -11, -13, 10, -115, 2, -37, 0, -10, 20, 1, -42, -20, -50, -22, 98, -56, -13, -17, 3, 2, 17, -4, -20, 127, -12, 9, 21, -7, 27, -38, 3, -31, 5, -17, -13, -89, -22, 23, -31, 7, -21, -16, -11, -21, -6, -73, -20, -23, 5, -2, 5, -42, -86, -25, 0, 127, -7, -114, -17, -1, 5, 11, 76, 127, -8, 4, -3, 55, -57, 0, 2, 3, -3, -2, -18, -121, -90, 20, -90, -9, -7, -127, 4, -20, 11, -6, -26, -29, -27, 127, -1, -22, -115, -27, -86, 5, -30, -26, 17, 30, 12, -7, 92, -11, 127, -16, -127, 0, -2, 27, -4, -28, -36, 127, 0, -7, -19, -9, -114, -23, 9, -7, -43, -15, -19, 64, -60, 22, -2, 3, 9, -11, -34, 111, -36, 28, -16, -18, 15, -3, -15, 4, -12, 13, -21, -26, -81, -85, 44, 11, -23, -16, -127, -32, -112, 127, -14, 21, 1, -3, 42, 7, 12, -20, 127, -15, 6, -3, -27, 25, -14, -1, -18, -57, -63, -89, -87, -4, -55, -65, -1, 16, -59, -32, 35, -83, -26, -12, -8, -22, -20, 4, -3, -16, 2, -51, -29, 2, -127, -42, 14, -109, -7, -7, -5, -9, -28, 21, -11, -11, -9, 56, -6, 6, 15, -46, 7, -3, -3, -9, -14, -15, 2, 20, -6, 23, -7, -21, -4, -11, 26, -2, 16, -16, -2, -3, 6, 36, -13, 27, 22, 53, -3, 25, -3, -7, -6, -10, -5, -3, -2, -8, -3, 4, -8, -81, 9, -16, 44, 27, 13, -22, -9, 33, 26, -6, -1, 37, -9, -24, 1, -1, -10, -70, 1, 0, -39, 10, 2, -11, -14, 1, 9, 18, 42, 4, 5, 7, -27, 72, -16, 13, -1, 7, -32, 21, 16, 2, 11, 34, 2, -33, 18, 5, 37, 13, -9, 36, -2, -16, 5, -118, 5, 8, -6, -34, -22, 0, 15, 22, -22, -10, -5, -21, -12, -16, -13, 1, 100, -18, -19, 13, -19, -14, 14, -2, 3, 8, 6, 9, -3, -65, -9, -3, 4, 1, -2, -29, -41, 23, -21, -30, -11, 18, 6, -2, -10, 25, 1, -9, -102, 19, -11, -9, -22, -28, -9, -3, -9, -9, 27, -20, -124, -14, 11, 10, -4, -10, -11, -7, -11, -11, 7, -10, -87, 21, -3, 29, -5, 15, 24, -1, 22, 3, 1, -21, -9, 25, -6, -12, -47, 25, 2, -9, -2, -9, 2, 0, -9, -14, -9, 1, 3, 9, 4, 22, 17, 8, -68, -3, -9, 28, -14, 13, -15, 8, 45, -12, -85, -26, -5, 19, 4, -6, 2, 3, 8, -115, -2, -18, 17, -23, 30, 16, -14, -4, -29, -15, -1, -13, -20, -35, -8, -25, -16, 6, 3, -15, -5, 127, 92, 17, -10, 22, -13, 6, -41, -56, 10, 9, -71, -64, 18, -4, 3, 3, 6, -2, 9, -5, -3, -13, -15, -7, -1, -12, -11, -23, -4, -52, -16, 55, -7, 5, -27, 17, -1, -7, 18, -14, 1, -7, 13, 2, 1, -7, -6, 7, -54, 11, 16, -7, -6, 56, -23, 17, 1, -7, -7, -5, 14, 4, 92, -12, 10, 14, -17, -10, 3, 16, -5, 4, 19, -23, -17, -6, 16, 0, -49, -7, 23, 34, -6, -9, -7, -11, -7, 9, 5, 14, 38, 17, 1, 24, -4, 13, -1, -23, -31, 33, -1, -5, -8, -16, 24, -17, 26, 2, -23, 24, 57, -28, 0, -5, 56, -13, 11, -27, 4, 16, 33, -10, -3, 3, -15, -5, -21, 13, 2, -12, -6, -3, 1, -59, 18, 17, -9, -18, 43, 41, 14, -14, 1, 9, 80, -10, 10, -22, 12, -2, 21, -14, 27, -5, -3, -21, -36, -3, -9, 15, -4, -2, 7, 14, 10, 1, -39, -15, 22, -9, 15, 0, -24, -5, 16, -9, -6, -3, -34, 6, -4, -7, -10, -1, 37, -26, -15, -3, 16, -12, -23, -8, 8, 5, -8, 7, 2, 27, -127, 27, 27, -23, -3, 2, 17, 47, 28, -25, -9, -1, -20, -37, 29, 3, -4, -6, -13, -10, -15, -6, -23, 9, 10, -38, -17, 12, -127, 33, 127, 8, 6, 52, -5, -2, 15, -27, -1, -53, -9, 7, -1, -8, -3, 23, -23, -10, 4, 11, 20, -4, -13, 127, 6, 26, 37, -12, 1, -127, -13, -41, 16, -17, -14, 127, -29, -42, -22, 9, 31, -13, -5, -4, -27, -16, -59, -21, -18, 127, 8, -71, -102, -23, 74, 14, -18, -56, -7, -15, -80, 127, -1, -15, -49, -96, -12, 127, -10, 14, -55, -4, 11, -27, -3, 9, 5, 18, -26, -47, -19, -25, -68, 127, 7, -24, -16, -25, -25, -27, -10, -23, -3, 0, -17, -16, -18, -95, -16, -4, -125, 36, -127, 34, -44, 53, -17, -9, 127, -43, -9, -28, 71, -30, 32, 4, -24, 26, -103, -37, -10, 127, -2, 87, 127, -127, 127, 3, 62, 73, 41, 83, 0, -10, -69, -41, 11, -33, -5, -107, -56, 11, 127, -46, -55, -24, -21, -58, -45, -24, 14, -1, 76, 34, -7, 31, -12, -32, 127, -1, -19, 21, 12, 27, 8, -77, 8, 2, 16, 12, 0, 49, 6, -26, -64, -114, -25, 68, -18, -14, -64, -8, 15, 6, -65, 38, -60, 1, -48, 3, -7, 33, 7, -15, 127, -31, -121, 25, 127, 10, -5, -36, 5, -22, -15, -12, -12, 7, -74, -29, 67, -32, -12, -21, 127, 4, -22, 10, -1, 3, -24, 52, -23, 0, -65, -8, 6, -28, -14, -27, -6, 78, -21, 16, -18, 30, -11, 8, -60, -16, 13, 127, 116, -33, -8, 6, 22, -20, -14, 25, 47, 2, -26, 127, -35, 127, -6, 16, 16, -37, -33, -62, -14, -7, -15, -45, -21, -44, 12, -18, -1, -27, 5, -1, -86, -97, -46, -13, -19, 12, 53, -10, -57, 27, 63, -29, 15, 14, 5, 8, -62, -46, -16, 6, -21, -90, -27, -6, -43, -14, -14, 13, 11, -8, -28, 24, -14, 3, 18, -58, -35, -24, 33, -6, -24, -5, -14, -9, -25, 5, -19, -4, 4, -47, -19, -7, 22, 18, -21, -30, 4, 6, 6, -2, -24, 4, -5, 127, 11, -4, 13, 0, -23, -25, 18, 1, 64, -20, 40, 127, 50, 17, -14, 127, -4, -10, 27, 66, -1, -31, 9, 18, -19, 6, 5, 14, -2, -15, 3, -105, 127, -16, 3, 60, 127, -9, 4, 127, 1, 127, -10, -54, -120, -27, 3, -9, 22, 21, -24, -31, -11, -16, -103, -10, 127, 65, -17, 16, 39, -32, -7, -2, -22, 43, -10, 6, -6, 7, -93, -101, -104, -4, -16, -8, -30, -21, -3, -49, 13, -20, 28, 23, 127, -36, -8, -26, -2, 24, 88, -61, -25, 32, -4, 6, -83, 18, -18, -35, 15, -106, -39, 13, -20, -67, -1, 26, 10, 127, 10, -31, 2, 3, 37, -3, -10, -79, 29, -3, 127, -11, -24, 2, 6, 35, 10, -4, 18, -5, 127, -12, -36, 14, 127, 2, -14, 4, -35, 6, -37, 5, -27, 127, -68, -26, -47, 5, 16, -38, -20, 56, -22, -14, -17, -14, -7, 127, 127, 8, 31, -18, -28, -5, 23, -12, -15, 26, 0, -123, 127, 60, -107, -77, 6, 24, -1, 57, -8, 10, -37, -87, 34, -31, -27, -29, -10, -78, 6, 7, -9, 16, -17, -79, 25, -22, -11, 89, 20, -17, -26, 26, -1, 22, -8, -3, 2, 23, 25, 30, -10, -20, -18, 5, 22, -5, 0, -4, 4, -16, 3, -10, -6, 16, -4, -12, -6, -8, 1, -5, -12, -22, -3, 18, -6, 24, 7, -16, -10, -82, -2, 19, 21, -14, -1, 3, 2, -1, 1, -7, -6, -1, -9, -48, 2, 29, 41, 25, -4, -20, 5, -19, -26, 32, 6, -41, 24, 13, 4, -18, -7, -44, -10, -3, -39, 6, 10, -7, -10, -1, 14, -14, 33, 6, 3, 1, 127, -37, 2, 0, -16, 19, -23, 9, -26, 19, 5, 21, -7, -19, 11, -6, 23, 18, -4, 28, -6, -10, 8, -127, -34, 15, -3, -18, 46, 3, 38, 6, 2, 30, -7, -8, -9, -19, 1, 2, -8, -18, -23, -8, -11, -19, 7, 5, -17, 1, 9, 9, 15, -46, -11, -7, -2, -11, -3, 2, 50, -3, -10, -15, -9, 17, -2, 3, 0, -16, 2, -2, -76, 16, -2, -11, -16, 9, -11, -12, 6, -4, 31, -22, -101, 0, 14, 6, -5, -14, -8, -8, -12, -8, 2, 1, -66, -32, 25, -10, 3, -2, 19, 0, -7, 2, -4, 2, 32, -22, -12, -3, -15, -24, -7, -6, -4, -7, -4, -4, 20, -16, 3, -7, -2, 8, 7, 22, 17, 9, -14, 14, -11, 15, -1, 6, -14, 19, 2, -5, -19, 40, 4, 20, -2, -1, -2, -3, 2, -104, -7, -18, 2, 57, -2, 1, -23, -2, 22, -6, -9, 20, 0, -4, -15, -21, -11, -1, -5, 19, 17, -19, 95, 1, -4, -6, -3, -13, -37, -31, 5, 2, -101, -20, -31, -1, 8, -7, -2, -7, 13, 6, -9, -22, -18, 12, -2, 35, 15, -22, -12, 0, 20, -49, 18, 7, -4, 39, -7, -3, -17, 20, 1, -17, 2, -1, -1, 28, -6, 3, 0, 2, -13, -1, -4, 43, -10, -8, 0, -5, -5, -2, 18, -7, -30, 5, -6, 11, 38, 2, -1, 28, -8, 2, 18, -4, -12, 32, -16, 0, 17, -5, 10, -8, -4, -9, -5, -14, -9, -1, 5, -7, 36, 5, -13, 10, -8, 10, -4, -24, -25, -7, -4, 0, -9, -9, -9, -19, -8, 4, -12, -20, 50, 19, -1, -10, 40, 34, -1, 6, 0, 10, -5, 7, -2, 5, -17, -4, -19, -11, -8, 4, -14, -12, -1, -42, 26, -12, -11, -12, 32, -15, 4, 17, 5, -36, 35, -8, -14, 3, -20, -1, 44, 14, -3, -2, -6, -12, 81, -1, -12, -11, -2, -6, 8, 21, -9, 12, 10, -12, -2, -7, -10, -1, -30, -7, 20, -6, -11, 21, 16, 9, -1, 5, -12, -3, 18, 21, -20, 0, 20, -4, 13, -8, -28, -2, -5, 6, -6, 26, -112, -21, -38, -16, -8, 6, -22, 11, -11, 29, -5, 1, -11, 5, 11, -6, -8, -5, 29, -11, -16, 2, -11, -1, 1, -31, -14, 13, -120, 21, -1, 2, -21, 41, -6, -6, -25, -28, -15, -25, -5, -14, -5, -6, 0, 32, -16, -3, 7, 8, 0, 5, -19, 120, -8, -25, -14, -14, -2};

static const int32_t L014_dw_bias[512] = {-9815, -5133, 12119, -7311, -697, -1027, 6715, 605, -1717, 579, 1742, -13313, 257, 2186, 1543, 12895, 14573, -1375, 1340, 4059, -1982, 9780, 15041, 1816, 10087, -378, -9837, 575, 3486, 2901, -130, 1830, 2066, 5771, 3877, -2225, -11342, -3777, -1001, -868, 1448, 940, 382, 639, 2031, -198, -7858, -1350, -4036, -2423, 64111, 13746, -2009, 6752, -1070, -9235, 79, -8245, -2068, -677, -1042, 4332, -4046, -5023, -4230, 38625, -6241, 7942, 25362, 3400, -3425, 108, 617, 22974, -6267, -376, -401, 11224, -2847, -3106, 19608, 26406, 9516, 15865, 4675, -9969, 10836, -3689, -3314, 30867, -33, 17794, -3235, 17031, -1602, 1354, 46020, 2, -2661, 2041, -1505, -617, 72, 1227, 6593, 17991, 15771, -4541, 2925, 10076, -200, 10642, -3680, -1812, -1162, -2278, -1887, 3719, -169, -2904, 788, 421, 17756, -51, -6574, 1048, 17058, -2741, -599, 320, -5018, -1500, -4265, -26564, 17399, 17982, 31979, -4689, -2805, -679, -1699, -1200, 8110, 3874, -951, -5926, 29798, 6332, 2813, -513, -5787, 706, 1652, -1990, -838, 41010, 9394, -2803, 1183, 21227, -4609, 8832, -4661, -9729, -3784, 342, 425, 25997, -1777, 2784, 12218, -2316, 14191, 2465, 4340, 5420, 8379, 17298, -2961, 41726, -12, -18382, 1590, 4813, -383, 2269, -6453, -2391, 18645, -2402, -1573, 871, 4282, 4163, -5034, 772, 5656, -8082, 1841, 348, 1258, 11305, 9225, 4017, -7444, 1987, -12052, 12962, -6662, 1360, 23413, 12265, 413, -244, 1415, 4817, -699, -10993, -2302, -1973, -9044, -1706, -16874, 19365, 1989, 1341, -2578, 354, -5780, -2560, 7323, -2099, 28026, -3923, 8537, 128, 3256, -1664, -3617, 3061, 6642, -776, -3297, 17011, -2055, 2680, -1971, -533, 1971, -7215, -10107, 80, -14, -7934, 9716, 194, 181, -214, -9047, -8865, -10525, 10236, 848, -3617, -2047, 13808, 29100, -1089, 1876, 796, 877, 337, -3608, -9846, 9505, 7854, -14967, 793, 12139, 10789, 3510, -284, -1351, -7383, -100, 660, -881, -1375, 11982, 33264, -16277, 9, -2272, -1139, -1271, -1932, -3124, -7462, -9677, -4185, -1800, 426, 2988, -1294, -959, 11257, -2100, 3852, 8383, -3133, -2868, -8017, -2176, -6323, 666, 28311, -3362, -1041, -1145, -1010, 1277, -803, -4296, 5236, 92, -8055, -6534, -10055, -10148, 3150, -37, 883, 12777, -16159, -2513, 1468, -5971, -1656, 18738, -2405, -277, 511, 1172, 2332, -8607, -134, 10516, -4902, 55, -4997, -804, 5515, 12247, 403, 4663, -6693, -4978, -6599, -4115, -158, -310, -7826, -457, 2777, -411, 524, 274, 181, -9700, 4485, 2183, 1101, 9204, -3970, 4444, -1221, 1718, 13013, 13702, -2048, 210, -1836, 148, -1337, 10062, 9695, -367, -1376, 20036, -3988, -515, -8896, 497, 2347, 2199, 9408, -989, -5739, -4460, -2909, -1684, 1000, -9825, 1753, -4805, 6081, -9749, 282, 20920, -13111, 2245, 1547, -5018, 411, 13751, -11020, -8902, -4780, 442, -4661, 1130, -2810, -2224, -13210, -3054, -34, -123, -8062, 1391, 4254, 3066, 1116, 10255, 10472, -8521, -4277, -7234, -7924, -1920, 1810, -48, 27177, -8231, 2534, 1950, -1612, 31896, 5492, 21139, 681, 18937, 2001, 4392, 29347, 760, 14281, -4082, -5031, -34, 1682, -2683, -1689, 1411, 2810, -3680, -3298, -5053, -1676, -5992, -15451, 3017, 2440, 2631, -4930, -5524, -355, -2821, -7398, -2280, 8768, 5922, 27312, 21649, -2099, 8898, -3836, 414, 1562, -10365, -436, 14195, -9789, 45815, 5438, 510, -7698, 2452, -3462, -1214, 842, 1705, -2526, 16854, 5526, -3427, 16723, 6406, -2959, 339, 2061, -3621, -3604};
static const int32_t L014_dw_bias_total[512] = {2729, 12019, -56361, 1521, -1977, -1155, 7611, -5539, -7733, -1597, 5454, 20607, 12033, 11146, 15239, 13535, 13933, -863, -2884, 4571, -62, 4532, -34495, -3560, 7271, -20090, 7571, 2623, 414, 13909, 2046, 2598, -878, -10485, 293, -2353, -1102, 6591, -2281, -2020, -2776, -1108, -3586, 2815, 3823, 15290, 13518, 22970, 23228, 1673, -30353, -11982, 423, -16032, -2478, 12141, -3633, 11211, -3732, -9509, -1682, 4972, -7502, -4127, -2566, 4961, 4511, 7942, -67822, 5448, 14751, -4116, -407, -47298, 5893, -248, -6545, -10408, 481, 734, -14568, 8230, -3028, 15225, 2755, 12687, -6060, -1001, 7182, -60013, -1697, 8066, 4829, 8327, -5698, 6346, -1724, -2558, 15259, -3847, -993, 15767, -824, 13003, 5825, -26041, -54245, 6467, -5139, 15196, -3528, -1902, 13856, -6292, -2570, 2842, -2143, 3847, -10025, 2344, -5484, -5851, -1060, -7859, 5970, -6632, 13602, -53, -855, -2496, 14694, 4772, 16471, -452, 16759, -27714, -62741, 14639, 27403, 23641, 17117, 21200, 942, -9310, -1207, 4954, 20326, 11580, 2173, -1537, 3429, 2498, 116, 17338, -454, -43086, 14258, -2547, 17439, -27925, 2559, 11776, 10827, 8959, 4664, -6442, -3799, -84595, 1167, -2464, 7738, 9332, 9583, 16417, 13556, 10156, 14011, -5358, 3695, -52354, -5644, 30002, -3658, 6605, -4095, -1443, 11595, -2903, 9557, -7138, 13915, 2919, -710, 1859, 10454, -2172, 5016, 8814, 2225, -8868, 234, -9559, 5641, 177, 3564, 323, 12524, -9566, 20602, -560, 8309, 12265, 1949, -2804, -2169, 10961, 35269, 11791, -254, -8757, 21676, -1322, -874, -68699, -955, -195, -18, 9954, 11116, 16256, 10779, 2253, -53126, 7725, 11737, -2048, -1736, 1792, 4319, 21877, 8434, 2168, 3615, 11891, -647, 4856, -8243, -1813, 5427, 22225, 12549, -304, -2062, 6530, 10868, -3646, 309, 682, -3671, 10463, 12387, -19716, 7248, 607, 16641, -48144, -66900, -961, 13012, -1764, -8083, -1199, 6376, 22922, 1697, 4270, 7177, 1433, -4373, 19365, 5558, 228, -10183, 12713, 1180, -2668, -113, -1503, -4530, -19216, 15339, 2185, 9120, 909, -4983, 7284, 8652, 16602, 17331, 4647, -2312, 17450, 300, -270, 5825, 14585, 8012, 14348, 5823, 10819, -1460, 16687, -4864, 8269, -614, 28055, 13022, -13713, 7431, -8818, -6403, -9123, 1592, 12532, -2084, 10761, 15738, 19641, 5340, 4814, 859, 19315, 617, -5663, -4305, 49212, -4691, 15240, -18510, 15899, -2453, -2433, -1900, 9756, 31713, -2438, -9708, 474, -585, 3451, -4004, 20107, -44841, -2285, 2487, 14299, 14478, 14265, -1811, -2718, -6454, 8174, -1609, 4697, -6427, 1036, -2286, -3659, 12060, 56965, 1927, 6989, 13428, 2686, 18524, -3269, 18998, -8235, 4230, -4864, -814, -2604, -1516, 583, 13390, 7007, -1263, 14880, -39740, 37868, 1277, 14784, -911, 4395, 919, 11072, -8797, 10389, -5228, -3933, -5524, -1816, 9247, 2521, 4027, -17215, 17131, -614, -6344, 12617, 197, 4491, 16102, -4453, -32713, 4468, 19898, 9940, -4294, 4427, -1942, -2554, 10064, 28262, 7186, -1954, 5, 5890, 13167, -1122, 10490, 92, 11663, 10728, 25527, 9291, 4542, 14092, 8960, -6254, -1072, -20951, 19673, -2586, 3486, 692, 8088, 7028, 6931, 5801, 10617, -8751, 6056, -69981, -2824, 32201, 9358, 2905, -418, -7662, 901, -1305, 4611, 7418, 5280, 9758, 5827, 35956, 16408, 10661, 8521, 2952, 11591, 7230, 108, -2531, 31227, -998, -744, 4032, -12382, -90192, -26351, -3379, -5566, -124, -8290, 9114, 12419, -9908, -46349, 22979, -27657, 11838, 9470, 4974, -748, 11642, 24898, -3766, -1367, 6306, -33706, 10006, -227, 17491, 15494, 21233, -813, 3213, 6107, 13164};

static const int32_t L014_dw_output_multiplier[512] = {1198360192, 1113455232, 1451648512, 1882745728, 2044043008, 2021279232, 1940894592, 1109063168, 1542573824, 1752770176, 1959742080, 2131665408, 1124273152, 1998870656, 1587910272, 1171803904, 1878849536, 1713014912, 1193562624, 1581938944, 1105584896, 1398775296, 1826940928, 1333442816, 1388844288, 1691769856, 1186646528, 1510256512, 1522180992, 1647528960, 1743482752, 1316965632, 2018187520, 1491176192, 1326581120, 1531989248, 1797273472, 1944245760, 1197230080, 1113121792, 1874964864, 1354040320, 1457090688, 1348736896, 2099755136, 2105166464, 1773483392, 1352293120, 2026624128, 1594929280, 1667407232, 2135376512, 1661031808, 1486959104, 1512219136, 1350038144, 1513069312, 1759053312, 1421942144, 1878831360, 1973435904, 1242516096, 1484299392, 1785024384, 2109392128, 1467353600, 1695073792, 1485580288, 1689526528, 1656339712, 1092907904, 1819282176, 1809304576, 1498232192, 2146348800, 1567047424, 1949098496, 1112649600, 1919494144, 2037020416, 2037502208, 1570226816, 1855784064, 1707861120, 1334026752, 1236768256, 1934307968, 1851470976, 1403057280, 1455112320, 1921385984, 1624225920, 1196118272, 1649976192, 1671924480, 1722169728, 1504371072, 1583166208, 1813831296, 1095157504, 1437674368, 1303497984, 1312642816, 1545537408, 1562277632, 1156369792, 2001296128, 1682520960, 1439230080, 1970906368, 1440873856, 1232559488, 2085370880, 1284556672, 1907383296, 1362871040, 1439689088, 2080801408, 1677948288, 1723274624, 1346501760, 1208013056, 1823984256, 1482950016, 1950494720, 1578920704, 1959817984, 1103004544, 1564353536, 1172498176, 1142623616, 1274843392, 2053803008, 1262131072, 1085518336, 1308294400, 1119030528, 1265053312, 1084115584, 1518704512, 1521899776, 2091676288, 1174232192, 1348763648, 2058794752, 1262769920, 1110211584, 2022341120, 1613251712, 2092450688, 1150110336, 1783508224, 1623914240, 1238044928, 1316069632, 1812692224, 1168935808, 1451114368, 1304456064, 2096449152, 1569675136, 1206018176, 1772754304, 2098809472, 2038195968, 1863139968, 1213335168, 1224144384, 1403527424, 1718030976, 1110142848, 2116272512, 1200104192, 1242265216, 1859755776, 1467973504, 1299746688, 1338906240, 1086305152, 1670700672, 1895931776, 1838755840, 1294882176, 1691321984, 1435169408, 1951440128, 1278724096, 1524611328, 1558266496, 2108462592, 1502762496, 1891326976, 1259450368, 1749552256, 1619475712, 1472566400, 1422126080, 1305384192, 1631306368, 1560537344, 2114249728, 1333232512, 1745962368, 1326215552, 2104785920, 1207885568, 1298174976, 1718272384, 1101547520, 1073773824, 2035396992, 1542224512, 1224150272, 1167589376, 1810210560, 1517063296, 2132844672, 1760045184, 1142316544, 2122453632, 1390196224, 1690428416, 1388244224, 1342318720, 1476583808, 1149754112, 1167145216, 1159774592, 1972393728, 1373071104, 1440829952, 1786996992, 1686671488, 1518936704, 1720502656, 1163318784, 1625005312, 1171164416, 1869911296, 1160216320, 1282753536, 1213975040, 2140695552, 1101973376, 1568159744, 2110296448, 1933478016, 1727502976, 1181191552, 1292548992, 1308263040, 1118393984, 1924945280, 1473950464, 1340345856, 1347327616, 1208641152, 1551299584, 1455938688, 1239738880, 1280017920, 1203737600, 1814295424, 1557797760, 1233606528, 1186237568, 1499937664, 1435428224, 1279225088, 1947257344, 1882675712, 1410723584, 1741194240, 1641893248, 1843824256, 2107456000, 1161396480, 1388436096, 1275573504, 1304722432, 1356181248, 1367706112, 1352588672, 1139359744, 1367670912, 1163824768, 1495534848, 1604500864, 1620646656, 1718437120, 1533053568, 1521612160, 1732017920, 1205501952, 1769640192, 2094946944, 1196746880, 1200967040, 2095628928, 1874953216, 1508432512, 1419114112, 1750443392, 1498178048, 1408715008, 1181632896, 1861567360, 1669250432, 1706844928, 1325391744, 1962313856, 1742046464, 1089960832, 1447718912, 1780826368, 1435051392, 1076782208, 1462820608, 2089940992, 1456771072, 1926893312, 1892190720, 1333451136, 1309536128, 1532824960, 1296865920, 1144284032, 1735767040, 1352728704, 1291647232, 1521287808, 1366866304, 2071265280, 1957720448, 1079078912, 1637989248, 1850622208, 1726837632, 1917915392, 1623219072, 1310369280, 1660423168, 1285465984, 1453583488, 1879888896, 2052004224, 1098184704, 1901160448, 1339552384, 1167342976, 1987239168, 1955501184, 1110704256, 1683010816, 1370446848, 1246346368, 1191866496, 1877845248, 1680032000, 1318700800, 1585327616, 1247705856, 2102435584, 1654899968, 2011214592, 1960610176, 1967386624, 1609464448, 1856892032, 1976667904, 1577979008, 1141620224, 1320125952, 1410500736, 1139709056, 1438271360, 1082962816, 1156229504, 1773742848, 1328097920, 1305459072, 1963144064, 1485835904, 1476768640, 1254799616, 1951686912, 1991413632, 1176650496, 1740959744, 1318371584, 1530688512, 1121158144, 1553427584, 1457347200, 2028029824, 1281030400, 1389448704, 1843111296, 1948832896, 1246527232, 1453949056, 1181528960, 1403233920, 1565473920, 2128767616, 1816726016, 1316814336, 2135741952, 1089078272, 1113177856, 2109157248, 1876154112, 1824435840, 1086132608, 1201167104, 1181834624, 1092488832, 1154056960, 1182716160, 1750918784, 1189784832, 1147264256, 1390705664, 1593455360, 1261939328, 1583333120, 1215313024, 1330167168, 1853706240, 2119412480, 1489792768, 1377832448, 1166276992, 1201150464, 1974447360, 1729402240, 1079192576, 1124271616, 1251892224, 1103619712, 1640010880, 1271741568, 1732152320, 1230662784, 1165062400, 1426588416, 1686852480, 1491319552, 1606105344, 1358400256, 1513678976, 1783244928, 1097902208, 1135373440, 1962178048, 1566975232, 1782618368, 1203801600, 1459869568, 1985609984, 1519956864, 1259251584, 1703925120, 1647638912, 1125234432, 1607812608, 1578300288, 1332738176, 1960516096, 1999334144, 1806635392, 1544309248, 1368508416, 1869654656, 1691924480, 1392780928, 1418270848, 1315854208, 1732916864, 1128334592, 1304392832, 1236306304, 2054615168, 1218925056, 1312957696, 1636404736, 1340719616, 2137095552, 1148622720, 1614171904, 1261451776, 1728556928, 1102068864, 1307978624, 1096260480, 1866116480, 1402821632, 1266996992, 1304395392, 1688274432, 1146270720, 1932283904, 1242179968, 1186071808, 1672856960, 1967824256, 1160657920, 1125396736, 2076971904, 1763528576, 1230631296, 1933302528};
static const int32_t L014_dw_output_shift[512] = {-6, -6, -7, -6, -7, -6, -7, -5, -6, -7, -6, -7, -6, -6, -6, -6, -7, -6, -6, -6, -6, -6, -7, -6, -6, -7, -6, -6, -6, -6, -6, -6, -7, -6, -6, -6, -7, -6, -6, -6, -7, -6, -6, -6, -7, -6, -6, -7, -7, -6, -10, -6, -7, -7, -7, -6, -6, -7, -6, -7, -7, -6, -6, -6, -6, -8, -6, -6, -8, -6, -6, -7, -6, -7, -6, -6, -7, -5, -6, -7, -7, -8, -7, -7, -6, -6, -6, -6, -6, -8, -6, -7, -6, -6, -7, -7, -8, -6, -7, -6, -7, -6, -6, -6, -6, -5, -8, -6, -5, -7, -6, -7, -7, -7, -6, -6, -6, -7, -6, -6, -6, -6, -6, -7, -7, -7, -7, -5, -6, -6, -6, -6, -7, -5, -6, -7, -8, -6, -7, -7, -7, -7, -6, -7, -6, -6, -7, -7, -6, -6, -5, -7, -6, -6, -5, -9, -6, -6, -7, -8, -6, -6, -7, -7, -6, -7, -6, -8, -6, -6, -6, -7, -6, -7, -7, -6, -6, -6, -5, -9, -7, -7, -5, -6, -6, -7, -6, -6, -6, -7, -7, -6, -6, -6, -6, -7, -7, -6, -6, -6, -7, -5, -7, -6, -7, -6, -6, -6, -6, -5, -8, -6, -5, -6, -6, -6, -7, -6, -5, -7, -7, -6, -6, -8, -7, -5, -6, -5, -7, -7, -6, -6, -8, -6, -7, -6, -6, -5, -6, -7, -6, -6, -6, -6, -6, -7, -7, -6, -6, -7, -6, -7, -7, -6, -6, -7, -6, -6, -7, -6, -6, -5, -7, -6, -6, -7, -8, -6, -6, -6, -6, -6, -6, -7, -6, -7, -5, -6, -6, -6, -7, -6, -6, -6, -6, -6, -5, -7, -6, -8, -6, -6, -6, -5, -6, -7, -6, -6, -7, -6, -6, -6, -6, -6, -6, -6, -7, -6, -7, -6, -7, -7, -6, -6, -6, -7, -6, -6, -6, -7, -7, -7, -6, -6, -6, -6, -6, -7, -6, -6, -6, -7, -6, -7, -6, -8, -6, -7, -7, -7, -6, -6, -6, -6, -7, -7, -5, -6, -6, -5, -7, -6, -7, -7, -6, -6, -6, -7, -6, -6, -7, -5, -6, -7, -7, -7, -6, -6, -7, -8, -6, -6, -6, -6, -6, -6, -6, -5, -6, -6, -6, -7, -6, -6, -6, -7, -6, -6, -8, -7, -7, -6, -7, -6, -6, -6, -6, -7, -7, -6, -6, -6, -6, -6, -6, -7, -6, -6, -7, -6, -7, -7, -7, -6, -7, -4, -6, -5, -6, -6, -5, -6, -6, -7, -6, -7, -6, -6, -6, -6, -6, -6, -6, -6, -8, -6, -5, -6, -6, -6, -7, -7, -7, -6, -6, -6, -8, -7, -6, -6, -6, -6, -6, -8, -7, -8, -7, -5, -6, -7, -6, -6, -6, -6, -5, -7, -6, -6, -7, -6, -6, -7, -6, -7, -6, -6, -6, -6, -7, -6, -6, -8, -7, -6, -5, -6, -6, -7, -6, -6, -7, -7, -8, -6, -6, -6, -6, -6, -5, -6, -6, -7, -7, -6, -6, -7, -7, -7, -7, -6, -6, -7};

#endif  // LAYER_014_DEPTHWISE_CONV_2D_H_
