#ifndef LAYER_011_DEPTHWISE_CONV_2D_H_
#define LAYER_011_DEPTHWISE_CONV_2D_H_

#include <stdint.h>

// op_index=11 op=DEPTHWISE_CONV_2D
// input:  idx=68 name=mobilenet_v1_eurosat_1/conv_pw_5_relu_1/Relu6;mobilenet_v1_eurosat_1/conv_pw_5_bn_1/batchnorm/add_1;mobilenet_v1_eurosat_1/conv_pw_5_1/convolution; shape=[1, 16, 16, 256] dtype=int8
// weights: idx=35 name=tfl.pseudo_qconst33 shape=[1, 3, 3, 256] dtype=int8
// output: idx=69 name=mobilenet_v1_eurosat_1/conv_dw_6_relu_1/Relu6;mobilenet_v1_eurosat_1/conv_dw_6_bn_1/batchnorm/add_1;mobilenet_v1_eurosat_1/conv_dw_6_bn_1/batchnorm/mul_1;mobilenet_v1_eurosat_1/conv_dw_6_1/depthwise;;mobilenet_v1_eurosat_1/conv_pad_6_1/Pad shape=[1, 8, 8, 256] dtype=int8

#define L011_DW_OUT_CH (256)
#define L011_DW_KH     (3)
#define L011_DW_KW     (3)
#define L011_DW_STRIDE_H (1)
#define L011_DW_STRIDE_W (1)
#define L011_DW_DILATION_H (1)
#define L011_DW_DILATION_W (1)
#define L011_DW_DEPTH_MULTIPLIER (1)
#define L011_DW_PAD_H (0)
#define L011_DW_PAD_W (0)

static const int32_t L011_dw_input_offset = 128;
static const int32_t L011_dw_output_offset = -128;

static const int8_t L011_dw_weights[2304] = {78, -69, -59, 85, -60, -63, 109, 88, -19, -70, 73, 54, 102, 83, -74, 69, 80, 77, -10, 85, 73, 75, 43, 68, 63, 74, 99, -84, -50, -49, 81, 84, 90, 45, -76, 127, 78, 105, 15, 75, 70, -73, -69, -67, -109, 80, 54, -99, 69, 81, 43, 86, -80, 60, 96, 99, 64, 82, -94, 61, 104, -17, 69, -59, 60, -91, -91, 98, 70, -77, 67, 87, -85, 75, -74, 59, 28, -94, -82, -68, 76, -89, 71, 71, -101, -87, -54, 83, -9, 117, 72, -94, -42, -1, 119, 110, -77, 19, -80, 76, 53, 65, 67, -83, 66, -78, 90, 100, 85, 70, 60, -51, 45, -78, -82, 91, -96, 64, -90, -65, 82, 77, -93, -80, -118, 86, 63, -69, -89, -127, -102, 120, 122, -32, 70, 85, -46, 127, 73, -49, 82, -61, 81, -74, -74, 77, 55, 66, 59, -114, 63, -1, -48, 61, 85, -88, 100, 84, 83, 77, 49, -57, 79, 80, -76, -73, -70, -66, 85, -78, 76, 58, 99, 104, 68, 87, -73, 71, -44, 82, 80, -73, 100, -92, -11, 76, 74, -76, -74, 87, -72, 79, 70, -107, 75, -127, -71, 70, 89, -52, 19, 59, 80, 53, 68, 79, -98, 71, -67, 118, -78, -69, 73, 73, -82, -77, -78, -75, -93, -75, 68, -62, 93, -3, 72, -53, -127, 97, -88, -71, -63, 74, 71, -64, -62, 80, 55, 72, 82, -85, 79, 75, 84, -71, -92, 127, 55, -70, 59, 79, 55, 68, -35, -59, -79, -86, 97, -89, -103, 106, -78, -108, 113, 105, 42, -99, 91, 79, 127, 113, -93, 89, 111, 106, 119, 84, 93, 91, 89, 66, 108, 89, 112, -109, -118, -123, 101, 96, 106, 104, -96, 120, 99, 127, 27, 108, 92, -91, -95, -90, -127, 102, 84, -121, 86, 88, 97, 106, -102, 36, 109, 111, 93, 98, -127, 87, 120, 89, 95, -84, 89, -123, -100, 86, 92, -92, 91, 89, -92, 92, 61, 88, 102, -107, -101, -91, 96, 106, 102, 92, -127, -102, -77, 97, -19, 125, 96, -109, 92, 126, 121, 127, -97, -59, -102, 94, 76, 84, 97, 25, 109, -97, 108, 27, 94, 94, 110, -51, 93, -100, -109, 104, -105, 89, -101, -93, 102, 95, -104, -92, -101, 108, 72, 87, 61, -59, -113, 126, 127, 106, 101, -74, -50, 72, 93, -78, 97, -95, 99, -96, -90, 97, 80, 94, 112, -127, 90, 91, -127, 87, 105, -100, 110, 106, 100, 101, 74, -76, 96, 94, -95, -102, -94, -89, 93, -107, 83, 85, 118, -26, 93, 107, -105, 83, -77, 106, 97, -95, 127, -108, 104, 92, 97, -99, -103, 102, -97, 127, 91, -107, 87, -79, -92, 95, 76, -81, 48, 81, 101, 127, 95, 100, -85, 92, -98, -83, -99, -96, 94, 100, -98, -91, -100, -90, -127, -93, 88, -103, 111, -33, 104, -73, -92, 89, -99, -88, 92, 97, 96, -95, -114, 101, 93, 91, 97, -106, 95, 114, 104, -93, -89, 3, 74, -88, 112, 103, 90, 94, 127, -95, -87, -105, 39, -45, -69, 47, -33, -89, -44, 33, 51, -41, 35, 40, 46, 63, -42, 41, 68, 62, 94, 23, 46, 34, 56, 23, 61, 37, 39, -49, -83, -85, 47, 38, 43, 82, -35, 56, 42, 54, 24, 55, 47, -55, -42, -43, -55, 47, 46, -50, 31, 33, 71, 50, -55, 5, 41, 32, 48, 43, -68, 47, 59, 88, 49, -41, 51, -77, -41, 24, 44, -34, 32, 33, -48, 35, 77, 44, 67, -50, -41, -39, 40, -38, 51, 43, -71, -45, -42, 39, 3, 71, 43, -45, -59, 127, 61, 43, -43, -61, -46, 40, 32, 47, 41, 41, 47, -45, 52, -36, 38, 38, 52, 71, 67, -53, -48, 54, -43, 37, -50, -43, 40, 41, -44, -46, -37, 57, 25, 17, 73, 18, -36, 59, 59, -21, 42, -19, -19, 17, 38, -38, 38, -52, 40, -44, -38, 40, 41, 49, 82, -60, 47, -86, -93, 39, 46, -53, 75, 60, 45, 53, 32, -30, 46, 44, -40, -57, -44, -36, 56, -49, 46, 52, 44, -5, 45, 51, -80, 38, -51, 44, 49, -40, 57, -33, 67, 42, 45, -46, -45, 39, -41, 57, 43, -33, 41, -8, -43, 46, 2, -39, 50, 39, 48, 83, 23, 40, 5, 41, -52, -39, -43, -50, 36, 39, -53, -36, -58, -44, -58, -41, 35, -53, 46, -22, 40, -28, -17, 23, -43, -38, 92, 42, 42, -45, -76, 46, 59, 33, 33, -50, 39, 36, 48, -32, -37, -23, 28, -42, 70, 58, 46, 39, 73, -57, -30, -48, 99, -103, -87, 96, -99, -110, 127, 105, 42, -94, 82, 87, -40, 103, -93, 99, 93, 82, -127, 107, 88, 104, 104, -59, 94, 95, 108, -106, -106, -113, 98, 109, 110, 83, -102, 121, 105, 116, 100, 102, 99, -105, -94, -110, 42, 108, 94, -107, 100, 97, 84, 108, -103, -47, 111, 74, 89, 75, 30, 99, 111, 31, 94, -88, 101, -115, -92, 92, 96, -102, 96, 94, -106, 98, 55, 83, 31, -107, -103, -90, 109, -102, 78, 95, 42, -101, -81, 112, 103, 127, 92, -113, -55, -77, 123, 125, -105, -52, -97, 99, 92, 97, 84, -127, 64, 72, 112, 127, 101, 98, 90, 22, 92, -107, -96, 90, -114, 96, -112, -91, 102, 100, -110, -101, -105, 100, 108, -50, -127, -107, -123, 123, 123, -34, 94, 127, -98, -2, 101, -116, 106, -76, 101, -106, -102, 99, 92, 89, 94, -6, 89, -6, 15, 85, 111, -110, -84, 100, 111, 97, 85, -101, 101, 96, -103, -103, -90, -99, 102, -101, 88, 86, 108, 127, 97, 104, -88, 100, -89, 103, 90, -91, -116, -114, -127, 104, 94, -96, -92, 104, -93, -6, 96, -121, 112, -88, -107, 90, 112, -81, 71, 80, 100, 77, 69, 104, -127, 95, -74, 127, -106, -100, 99, 93, -103, -108, -101, -111, 56, -104, 102, 68, 106, 73, 101, -90, -41, 103, -123, -103, -92, 103, 91, -85, -81, 99, 99, 102, 110, -110, 108, -122, 102, -103, -117, 120, 99, -101, 96, 110, 84, 92, -125, -89, -92, -109, 127, -127, -127, 127, -127, -127, 93, 127, 127, -127, 127, 127, -52, 127, -127, 127, 127, 127, -31, 127, 127, 127, 127, -127, 127, 127, 127, -127, -127, -127, 127, 127, 127, 127, -127, 116, 127, 127, 127, 127, 127, -127, -127, -127, 61, 127, 127, -127, 127, 127, 127, 127, -127, -127, 127, 127, 127, 127, 35, 127, 127, 127, 127, -127, 127, -127, -127, 127, 127, -127, 127, 127, -127, 127, 127, 127, 127, -127, -127, -127, 127, 127, 127, 127, 45, -127, -127, 127, 127, 125, 127, -127, 127, 49, 127, 114, -127, -127, -127, 127, 127, 127, 127, 10, 127, 105, 127, -3, 127, 127, 127, -127, 127, -127, -127, 127, -127, 127, -127, -127, 127, 127, -127, -127, -127, 127, 127, 127, 46, 13, -127, 127, 126, 127, 127, -35, -127, -124, 127, -127, 127, -127, 127, -127, -127, 127, 127, 127, 127, 23, 127, 127, -10, 127, 127, -127, -127, 127, 127, 127, 127, -127, 127, 127, -127, -127, -127, -127, 127, -127, 127, 127, 127, -33, 127, 127, -127, 127, -127, 127, 127, -127, -28, -127, 16, 127, 127, -127, -127, 127, -127, 12, 127, -127, 127, 19, -127, 127, 127, -127, 127, 127, 127, 126, 127, 127, -87, 127, -127, -127, -127, -127, 127, 127, -127, -127, -127, -127, 64, -127, 127, 73, 127, 127, 127, -127, 40, 127, -127, -127, 116, 127, 127, -127, -127, 127, 127, 127, 127, -127, 127, -127, 127, -127, -127, -59, 127, -127, 127, 127, 127, 127, 72, -127, -127, -127, 51, -62, -84, 59, -56, -93, -87, 40, 83, -59, 65, 58, -47, 66, -68, 56, 74, 80, 12, 56, 65, 60, 65, -80, 68, 51, 55, -61, -75, -62, 56, 47, 58, 67, -48, 41, 51, 49, 52, 56, 67, -73, -59, -64, 41, 54, 61, -55, 51, 65, 72, 58, -81, -60, 56, 78, 75, 75, 10, 65, 65, 110, 71, -62, 52, -103, -86, 50, 65, -49, 51, 69, -64, 53, 104, 62, 88, -53, -49, -50, 59, -35, 79, 54, 27, -52, -67, 42, 63, 72, 57, -47, -84, 95, 66, 16, -57, -58, -70, 56, 51, 73, 62, 71, 59, 45, 51, -40, 60, 54, 50, -36, 77, -82, -56, 80, -63, 52, -53, -60, 62, 58, -49, -72, -97, 65, 54, 3, 88, 79, -33, 61, 70, -28, 50, -37, -52, -88, 55, -54, 52, -83, 53, -63, -50, 57, 61, 67, 76, 17, 68, -117, -15, 60, 61, -69, -62, 67, 71, 63, 65, -54, 58, 64, -49, -67, -65, -55, 83, -50, 62, 71, 46, -11, 60, 59, -100, 54, -80, 54, 77, -57, 30, -51, 51, 58, 62, -58, -55, 52, -57, -27, 61, -33, 68, 62, -68, 62, 40, -59, 92, 69, 60, 81, 52, 57, 5, 61, -72, -46, -59, -69, 54, 53, -77, -50, -76, -55, 38, -50, 58, 34, 60, 43, 45, -55, 72, 61, -41, -55, 127, 55, 55, -59, -98, 52, 59, 47, 44, -57, 49, -27, 60, -47, -60, -68, 48, -72, 60, 62, 60, 56, 62, -62, -51, -63, 43, -56, -43, 41, -47, -76, 47, 36, 52, -37, 32, 39, -33, 53, -47, 49, 45, 29, -100, 55, 46, 65, 69, -76, 58, 44, 48, -51, -67, -86, 43, 41, 53, 48, -47, 49, 49, 43, 86, 48, 49, -51, -47, -77, 59, 52, 52, -34, 48, 35, 59, 54, -44, -51, 46, 15, 44, 12, 56, 55, 65, 58, 52, -46, 65, -61, -30, 31, 50, -49, 44, 35, -58, 54, 70, 44, 9, -44, -40, -42, 58, -62, 29, 49, 63, -49, -41, 57, 93, 58, 44, -49, -19, -53, 74, 51, -56, -57, -68, 43, 45, 56, 45, -59, 13, 94, 61, 58, 29, 45, 31, 68, 67, -69, -33, 34, -60, 49, -62, -46, 55, 51, -43, -52, -43, 42, 71, -20, -74, -22, -53, 55, 66, -27, 42, 61, -74, -16, 47, -84, 51, -36, 46, -58, -49, 44, 55, 46, 58, 48, 46, -6, 29, 41, 65, -62, -42, 60, 62, 50, 53, -56, 52, 45, -50, -55, -41, -52, 80, -40, 17, 46, 58, 79, 50, 50, -25, 49, -42, 43, 32, -38, -57, -60, -91, 56, 40, -63, -55, 46, -47, -19, 51, -41, 72, -2, -55, 38, 39, -38, 74, 36, 49, 37, 44, 52, -51, 40, -24, 63, -59, -55, 43, 40, -51, -50, -60, -61, 43, -45, 74, 81, 59, -64, 52, -48, 24, 35, -58, -45, -49, 53, 40, -37, -35, 44, 60, 53, 49, -47, 51, -114, 55, -59, -45, 36, 64, -62, 59, 69, 50, 43, -83, -55, -38, -55, 59, -71, -52, 57, -72, -78, 24, 48, 89, -51, 74, 56, -23, 63, -67, 68, 58, 57, -82, 86, 76, 73, 69, -102, 63, 56, 58, -67, -65, -72, 58, 51, 62, 52, -59, 31, 64, 31, 99, 56, 69, -68, -67, -93, 85, 63, 71, -44, 64, 65, 66, 60, -75, -118, 60, 52, 78, 58, 93, 68, 72, 76, 70, -70, 62, -87, -81, 63, 69, -61, 56, 74, -73, 69, 104, 62, 44, -48, -48, -61, 76, 56, 64, 66, 79, -62, -65, 67, 119, 69, 60, -48, 61, -41, 77, 18, -67, -59, -83, 61, 57, 80, 62, -6, 33, 127, 70, -32, 60, 61, 39, -58, 74, -79, -44, 65, -98, 63, -62, -62, 72, 64, -50, -74, -106, 61, 91, 48, -1, 57, -48, 59, 75, 73, 54, 12, -91, -96, 62, -94, 66, -64, 59, -80, -59, 61, 71, 64, 60, 59, 64, 62, 42, 65, 76, -77, -77, 69, 71, 63, 81, -74, 63, 63, -62, -72, -53, -69, 101, -53, 38, 60, 54, -29, 64, 64, -35, 68, -57, 52, 68, -54, -111, -71, -35, 70, 61, -74, -81, 63, -63, -21, 66, -42, 87, 66, -73, 62, 74, -54, 103, 65, 62, 56, 71, 63, -21, 58, -54, -60, -82, -77, 59, 54, -72, -61, -79, -74, 62, -55, 89, 127, 73, -62, 55, -65, 82, 79, -55, -57, 34, 66, 53, -52, -54, 57, 57, 65, 45, -69, 67, -115, 71, -73, -61, -61, 78, -79, 54, 65, 69, 60, -8, -57, -55, -66, 33, -37, -25, 23, -28, -27, -11, 14, 30, -27, 47, 26, -9, 27, -33, 32, 32, 39, -31, 45, 37, 40, 28, -27, 24, 28, 27, -28, -23, -16, 25, 23, 26, 9, -23, 1, 28, 13, 30, 23, 33, -41, -29, -44, 37, 32, 36, -27, 28, 44, 25, 24, -48, -53, 27, 45, 52, 42, 46, 30, 36, 40, 45, -39, 14, -45, -63, 39, 34, -26, 27, 47, -38, 35, 56, 35, 32, -22, -25, -26, 36, -8, 42, 30, 42, -30, -34, 23, 59, 37, 25, -25, -50, 7, 34, -15, -28, 11, -34, 31, 23, 44, 29, 35, 20, 51, 21, -12, 36, 30, 13, -82, 32, -52, -17, 46, -36, 23, -28, -28, 36, 33, -20, -37, -84, 34, 45, -17, 39, 43, -13, 32, 42, -24, 20, -48, -29, -54, 27, -37, 25, -41, 23, -33, -23, 24, 32, 31, 22, 21, 35, -73, 25, 33, 37, -35, -51, 39, 39, 38, 45, -17, 33, 29, -25, -35, -29, -34, 66, -16, 22, 35, 16, -13, 29, 26, -17, 28, -18, 19, 45, -31, -95, -25, -3, 32, 31, -39, -33, 28, -29, -22, 32, -16, 46, 24, -34, 35, 45, -25, 59, 39, 34, 40, 32, 29, -4, 29, -37, -29, -32, -38, 26, 24, -39, -23, -41, -30, 19, -23, 41, 41, 38, -19, 22, -32, 51, 49, -20, -27, 48, 31, 23, -24, -40, 29, 15, 26, 15, -24, 29, -4, 33, -22, -35, -31, 33, -42, 14, 15, 31, 27, -1, -26, -11, -30};

static const int32_t L011_dw_bias[256] = {-1316, 68523, 32956, 1850, 67028, 34673, 50, -546, 10058, 77942, -462, 976, -11921, 3516, 31902, 6091, -328, 3457, 50269, -469, -571, -277, -342, 26320, -717, -13915, -639, 28268, 26740, 30072, -1155, -1288, -469, 636, 56257, 2691, -1710, 602, 914, 599, 705, 42334, 56889, 37252, -2963, -869, 412, 43674, -1003, 5964, -6308, -1487, 40905, 61147, -219, 5065, -185, -213, 3187, -456, -139, -302, -2814, 35493, -450, 25128, 25541, 110781, -1460, 51236, 4110, -5810, 48986, -564, -399, 1967, 3097, 98862, 91028, 48332, 340, -2368, -440, 1340, 191, 48379, 81081, -559, -186, -226, 928, 82857, -4144, 18916, -174, 703, 43338, 52985, 34161, -1057, 1581, -408, 3924, 14310, -631, 16093, -282, -6501, -95, 3872, 36464, 23972, -501, 29412, 49278, -557, 30228, 6258, 46812, 58354, -1685, -1533, 94317, 36163, 36127, -795, 1504, -7151, -1970, 40790, 85629, -281, -7761, -15197, -1594, -5565, 48938, 18535, 78, 34741, -1221, 47984, -1050, 33401, 49912, -970, -1253, 782, -741, 7929, -411, -1097, 18076, -582, -1139, 34521, 8653, -480, -176, 1223, 4528, 60758, -907, 12800, 50300, 37223, 58806, 52608, -210, 46389, 21721, -4802, -580, -13983, 2240, -132, 22969, 7023, 56883, -1156, -586, 95575, 5551, 35040, 27528, -235, 1312, 52941, 29511, -1352, 49669, -10096, -177, 84811, -766, 20894, 40446, 579, -586, 82573, 562, 2901, -1155, 36455, 22212, -336, 23649, -894, 74628, 5667, 38229, 35261, -2519, -1173, 32935, 59980, 28993, 45219, 6354, 104831, -444, -4827, -375, -3512, 6409, 56751, 25243, -673, 88537, 106401, -12195, -975, 2891, 70429, 28193, -557, -616, -1161, -993, 31019, -921, 32166, -267, 32133, 44770, 776, -659, 28763, -792, -292, -1305, -918, 14913, 67948, 64233, 39895};

static const int32_t L011_dw_output_multiplier[256] = {1595337344, 1807381376, 1540054912, 1105664896, 1146349952, 1327712640, 2067654656, 1973358592, 1202732160, 1588681856, 1342920448, 2018959872, 1961108992, 1670192000, 1704137216, 2073341824, 1839833344, 1391784448, 1665480192, 1950533504, 2047324288, 2107433088, 1275094272, 1294048256, 2002515328, 1203322752, 2091982464, 1991154304, 1090386944, 1653924224, 1507298688, 1987131392, 1327058048, 1151549184, 1214846336, 1142821120, 1567958528, 1284483968, 1306590848, 1221692800, 1745600896, 1296572032, 1521269888, 1414681984, 1660510976, 2022252032, 2120719744, 1499409664, 1528833024, 1572488960, 1964286592, 1338010496, 1213992448, 2118397056, 1770031104, 1132554880, 2095086592, 1365698176, 1809781504, 1333354880, 1757467136, 1255959552, 1702962176, 1939115520, 1501030656, 1279904640, 1236559104, 1428806656, 1300189824, 1809918976, 2112138368, 1631440000, 1693947008, 1143167744, 1124156160, 1740138880, 1347059328, 1298836992, 1698655872, 1176246784, 1810685568, 1271522688, 1761307904, 1465622272, 1692493568, 1899282176, 2073143680, 1344406400, 1146805120, 1098010624, 1332040832, 1458568704, 1257672448, 1098928256, 1517111680, 1444174336, 1206690304, 1412734336, 1313401856, 2006382336, 1812750848, 1378453760, 1368104448, 1608090752, 1573411840, 1829459968, 1324751360, 1206938880, 1275657472, 1713561728, 1196206464, 1310513152, 1814027520, 1973184896, 1091375488, 1664530560, 2058847104, 1789641600, 1475715328, 1994648192, 1327117568, 1290963456, 1923138432, 1523384576, 1388584832, 1518601088, 2090432512, 1696316288, 1218250880, 1204823296, 1260464384, 1693848960, 1573978368, 2044116864, 1489705728, 1780161024, 1948173952, 1336023168, 1298138752, 1556901632, 1483984640, 1463761280, 1347729408, 1885021568, 1383190656, 1229034368, 1908677376, 1512261376, 1470261760, 1810318336, 1903317376, 2103419136, 1419426944, 2026349824, 2136427392, 1519375360, 1248987520, 1687476608, 1730519296, 1970427520, 1151485184, 2005188224, 1621375232, 2121069184, 1180491648, 1443611136, 1901524992, 1810293760, 1327461376, 1626307072, 1598870528, 1960282112, 1282881664, 1425040000, 1089713408, 2099112704, 1095093120, 1263950720, 1912678656, 1262403840, 1737651584, 1716839936, 1105022592, 1557440000, 1532269184, 1119197952, 2012612352, 1879114496, 1884918912, 1221559552, 1201684608, 1671537664, 2042705408, 1430947072, 1489609344, 1138460288, 1849448448, 1173663360, 1261225216, 1437510016, 2116876800, 1974921344, 1237753088, 1408238720, 1676548224, 1233493504, 1137884800, 2116578304, 1104029568, 1864899712, 1153576064, 1503174784, 1241806848, 2091447168, 1081753600, 2055541376, 1209579392, 1645458816, 1184011264, 1733771776, 1703354880, 1532603904, 1411176064, 1748101632, 2091904128, 1631899392, 1307484288, 1398034176, 1623470208, 1452472960, 1109304192, 1337807744, 2007929600, 1908348544, 2088647168, 1130215424, 1531759488, 1079800448, 1199036800, 1697890816, 2068464640, 1468055936, 1090756736, 1702925312, 1487538432, 1199966592, 1678874880, 1792397824, 1576510464, 2074810240, 1992563328, 1271369088, 1126655360, 1565053696, 1106035456, 1576398208};
static const int32_t L011_dw_output_shift[256] = {-7, -8, -8, -7, -7, -8, -2, -7, -7, -8, -7, -8, -7, -7, -8, -8, -7, -7, -8, -7, -8, -7, -7, -7, -8, -7, -8, -8, -7, -8, -8, -8, -7, -7, -7, -8, -7, -8, -7, -7, -7, -8, -8, -8, -7, -8, -8, -8, -7, -7, -8, -7, -8, -8, -7, -7, -8, -7, -6, -7, -7, -7, -8, -8, -7, -7, -7, -9, -7, -8, -8, -8, -8, -7, -7, -8, -8, -8, -8, -8, -8, -7, -8, -8, -7, -8, -8, -7, -7, -7, -7, -8, -7, -7, -7, -7, -7, -8, -7, -8, -8, -7, -7, -7, -8, -8, -6, -7, -7, -8, -8, -7, -7, -8, -7, -7, -8, -8, -8, -8, -7, -7, -8, -8, -8, -7, -8, -6, -6, -7, -8, -7, -7, -7, -7, -7, -8, -7, -7, -8, -7, -8, -7, -8, -7, -7, -8, -8, -7, -6, -8, -7, -7, -8, -8, -8, -7, -8, -7, -8, -7, -7, -8, -8, -7, -8, -8, -8, -6, -8, -8, -8, -7, -6, -7, -8, -7, -7, -7, -7, -7, -8, -7, -8, -7, -6, -8, -7, -8, -7, -7, -7, -8, -8, -7, -6, -8, -7, -7, -8, -8, -8, -7, -8, -8, -7, -7, -8, -7, -8, -7, -7, -7, -8, -7, -8, -7, -8, -7, -8, -7, -8, -7, -7, -8, -8, -7, -7, -8, -8, -7, -7, -8, -9, -8, -7, -7, -7, -7, -8, -8, -8, -7, -8, -8, -7, -8, -8, -7, -8, -8, -7, -7, -8, -8, -8};

#endif  // LAYER_011_DEPTHWISE_CONV_2D_H_
