#ifndef LAYER_007_DEPTHWISE_CONV_2D_H_
#define LAYER_007_DEPTHWISE_CONV_2D_H_

#include <stdint.h>

// op_index=7 op=DEPTHWISE_CONV_2D
// input:  idx=64 name=mobilenet_v1_eurosat_1/conv_pw_3_relu_1/Relu6;mobilenet_v1_eurosat_1/conv_pw_3_bn_1/batchnorm/add_1;mobilenet_v1_eurosat_1/conv_pw_3_1/convolution; shape=[1, 32, 32, 128] dtype=int8
// weights: idx=43 name=tfl.pseudo_qconst41 shape=[1, 3, 3, 128] dtype=int8
// output: idx=65 name=mobilenet_v1_eurosat_1/conv_dw_4_relu_1/Relu6;mobilenet_v1_eurosat_1/conv_dw_4_bn_1/batchnorm/add_1;mobilenet_v1_eurosat_1/conv_dw_4_bn_1/batchnorm/mul_1;mobilenet_v1_eurosat_1/conv_dw_4_1/depthwise;;mobilenet_v1_eurosat_1/conv_pad_4_1/Pad shape=[1, 16, 16, 128] dtype=int8

#define L007_DW_OUT_CH (128)
#define L007_DW_KH     (3)
#define L007_DW_KW     (3)
#define L007_DW_STRIDE_H (1)
#define L007_DW_STRIDE_W (1)
#define L007_DW_DILATION_H (1)
#define L007_DW_DILATION_W (1)
#define L007_DW_DEPTH_MULTIPLIER (1)
#define L007_DW_PAD_H (0)
#define L007_DW_PAD_W (0)

static const int32_t L007_dw_input_offset = 128;
static const int32_t L007_dw_output_offset = -128;

static const int8_t L007_dw_weights[1152] = {-60, -75, -61, -53, 69, -71, -83, -78, 77, -48, -44, -26, -60, 63, 64, -127, 96, -80, -72, 60, 53, -67, -70, -58, -54, -56, 91, -53, 98, -63, -73, -62, 52, 38, 66, 50, -22, -51, -76, -56, -72, -64, 76, -53, 61, -73, -61, 39, 69, -68, -63, 54, 68, 51, -109, 118, 86, -51, -68, -93, -58, 87, -127, -120, 70, -57, 63, -66, 54, 66, -70, -67, -64, 10, 127, -59, -59, -62, -19, 72, -62, 70, -104, 64, -63, 84, -60, 63, 63, 70, -71, 122, -52, 88, -30, 44, 40, 52, 65, 53, 95, 62, 63, -78, -101, 85, 58, -68, 57, 53, 62, -56, -49, 18, -79, 75, 63, 46, 62, 76, 78, 45, -64, 81, -50, 68, 127, -57, -82, -90, -82, -94, 90, -93, -89, -106, 85, -76, -95, -97, -79, 94, 93, -87, 90, 53, -94, 87, 78, -92, -94, -75, -76, -88, 108, -85, -43, -95, -92, -90, 76, 55, 83, 83, -62, -47, -94, -10, -83, -61, 99, -84, 85, -95, -81, 72, 86, -93, -87, -16, 88, 79, -99, 109, 99, -26, -87, -104, -94, 102, 0, -127, 85, -97, 91, -92, 82, 90, -91, -95, -85, -106, 107, -87, -83, -86, -127, 94, -127, 96, -127, 95, -96, 95, -64, 97, 89, 89, -88, 120, -76, 104, -76, 77, 83, 87, 86, 84, -24, 90, 89, -89, -110, 107, 82, -90, 86, 84, 83, -84, -62, 127, -102, 109, 84, -91, 80, 91, 92, 84, -84, -63, -84, 81, 49, -89, -43, -37, -38, -64, 38, -43, -41, -59, 44, -35, -48, -84, -44, 50, 48, -4, 14, 62, -52, 39, 36, -43, -37, -32, -28, -45, 54, -33, -14, -44, -34, -38, 40, 29, 25, 45, -48, -26, -48, 13, -39, 3, 40, -44, 45, -49, -40, 51, 39, -45, -36, -6, 35, 44, -13, 11, 36, 24, -37, -39, -58, 33, 13, -72, 33, -59, 38, -47, 39, 39, -45, -43, -36, -97, 42, -46, -44, -38, -98, 32, -62, 43, -66, 43, -60, 48, -42, 48, 42, 33, -35, 50, -37, 36, -44, 41, 46, 47, 28, 41, -63, 38, 40, -48, -42, 40, 39, -45, 42, 44, 40, -39, -30, 67, -36, 46, 38, 12, 32, 23, 32, 45, -35, -62, -44, 28, -37, -54, -89, -96, -88, -81, 101, -88, -114, -103, 115, -81, -66, -35, -98, 98, 96, -80, 127, -127, -104, 92, 85, -91, -82, -97, -80, -81, 102, -83, 127, -73, -98, -88, 70, 100, 92, 82, 119, 98, -104, -24, -91, -61, 99, -86, 92, -97, -91, 75, 94, -92, -92, 93, 88, 89, -127, 127, 110, -10, -99, -118, -104, 90, -77, 8, 92, -107, 98, -93, 89, 93, -100, -88, -98, 21, 7, -92, -94, -89, 53, 86, 49, 91, 73, 97, -91, 109, 96, 96, 85, 104, -100, 125, -81, 127, 118, 91, 73, 87, 79, 81, 127, 87, 92, -93, -100, 104, 84, -103, 87, 89, 90, -84, 85, -91, -98, 98, 95, 45, 94, 106, 103, 67, -91, 127, -98, 90, 28, -91, -127, -127, -127, -127, 127, -127, -127, -127, 127, -127, -127, -127, -127, 127, 127, 51, 127, 33, -127, 127, 127, -127, -127, -127, -127, -127, 127, -127, -40, -127, -127, -127, 59, 127, 127, 127, 84, 127, -127, 101, -127, -127, 127, -127, 127, -127, -127, 127, 127, -127, -127, 127, 127, 127, -126, 112, 127, 75, -127, -127, -127, 127, 98, 21, 127, -127, 127, -127, 127, 127, -127, -127, -127, -127, -81, -127, -127, -127, -28, 127, 40, 127, 96, 127, -127, 127, 127, 127, 127, 127, -127, 127, -127, 126, 25, 127, 127, 127, 127, 127, -50, 127, 127, -127, -127, 127, 127, -127, 127, 127, 127, -127, 127, 33, -127, 127, 127, -127, 127, 127, 127, 127, -127, -64, -127, 127, -77, -127, -67, -54, -59, -77, 53, -56, -55, -70, 71, -65, -57, -111, -64, 65, 62, 110, 29, 68, -71, 60, 63, -56, -68, -56, -60, -66, 61, -50, -12, -66, -56, -59, 8, 57, 51, 66, -20, 73, -64, 127, -66, -65, 53, -59, 60, -67, -69, 72, 64, -65, -59, 74, 62, 62, -14, 6, 43, 111, -57, -43, -69, 73, 56, 20, 59, -67, 52, -59, 56, 59, -65, -63, -54, -114, -68, -68, -61, -58, -43, 67, 20, 59, 38, 53, -81, 66, 73, 58, 61, 51, -54, 34, -66, 54, -51, 49, 72, 61, 53, 65, -91, 57, 56, -80, -57, 50, 66, -73, 62, 61, 59, -67, 73, 44, -42, 53, 51, 29, 58, 34, 57, 67, -65, -83, -49, 58, -76, -57, -46, -45, -40, -44, 49, -40, -55, -51, 53, -47, -36, 2, -61, 62, 57, -7, 51, -69, -61, 45, 44, -45, -23, -54, -31, -42, 48, -41, 48, -24, -50, -42, -84, 77, 49, 41, 127, -8, -51, -4, -48, 0, 43, -47, 47, -52, -53, 51, 43, -46, -41, -15, 30, 53, -50, 6, 43, 47, -54, -71, -62, 21, -8, 37, 39, -59, 51, -46, 50, 44, -59, -37, -35, 14, -46, -55, -46, -38, 33, 22, 62, 36, 29, 53, -59, 57, -53, 50, 36, 52, -50, 40, -38, 56, 127, 50, 44, 47, 26, 46, 48, 34, 45, -43, -16, 41, 44, -64, 46, 58, 43, -35, -48, -73, -39, 44, 47, 23, 47, 41, 43, 30, -44, 61, -55, 37, -35, -45, -66, -62, -60, -66, 64, -63, -65, -62, 60, -73, -61, -31, -69, 71, 75, 88, 57, -11, -71, 64, 66, -57, -52, -72, -60, -64, 60, -57, -29, -46, -61, -62, -127, 92, 74, 60, 125, -35, -64, 112, -73, -65, 51, -62, 67, -77, -80, 69, 58, -68, -68, 79, 61, 69, -54, -5, 52, 127, -72, -77, -72, 66, 93, 51, 65, -64, 63, -63, 61, 62, -76, -58, -41, -38, -111, -75, -67, -58, 32, 58, 88, 56, 40, 54, -76, 73, -81, 54, 56, 72, -66, 25, -62, 56, 51, 53, 66, 60, 56, 66, -46, 54, 65, -75, -43, 49, 71, -92, 63, 78, 67, -56, -75, -23, -46, 48, 60, -69, 67, 47, 61, 54, -68, -11, -55, 65, -73, -61, -37, -32, -27, -33, 26, -30, -18, -38, 37, -34, -27, -35, -26, 30, 33, 84, 24, 36, -39, 31, 32, -20, -29, -32, -32, -32, 29, -18, -11, -29, -21, -28, -70, 37, 32, 33, 8, -31, -29, 116, -36, -57, 23, -24, 27, -42, -41, 27, 31, -30, -31, 41, 39, 29, -13, -13, 24, 109, -27, -21, -29, 54, 17, 7, 36, -21, 27, -27, 23, 28, -40, -31, -22, -31, -54, -40, -26, -25, 14, 28, 41, 32, 26, 17, -46, 34, -62, 22, 31, 26, -28, 20, -34, 19, -40, 13, 38, 21, 33, 37, -48, 29, 29, -44, -30, 22, 34, -46, 27, 32, 29, -40, -52, 9, -17, 17, 20, 20, 30, 13, 30, 31, -40, -59, -10, 35, -6, -47};

static const int32_t L007_dw_bias[128] = {33883, 73707, 56447, 20408, 1496, 22664, 56712, 50025, 562, 28291, 102124, 63705, 124088, 139, 36, 25737, -17190, 392, 42400, -408, 571, 55405, 151231, 34050, 135264, 39642, -778, 51770, -12301, 113143, 45659, 27897, -1749, 45229, 25568, -32951, 9572, -12216, 48555, 15909, 93157, 81486, -818, 43989, 2932, 32908, 25117, 6205, -710, 22213, 52596, 5, 1317, -21229, 128097, -12547, 823, 60753, 25085, 79415, 31297, 1745, 20923, 16971, -885, 31720, 4280, 157477, 394, -795, 14269, 38788, 102466, 113824, 4918, 19760, 55519, 45744, 29025, 8212, 33760, 1733, 13, 1184, 16612, -480, 1882, 11036, 6211, 70416, 51145, -13536, 49087, 15796, 10387, 333, 32595, 5379, 6747, -251, 5524, -131, 615, 29160, 106684, -3265, 4272, 29102, -1602, 40362, -729, 113339, -3204, 23383, 154291, 516, -5293, 9022, 9867, -2226, 14379, 6737, 48763, 6590, 97930, -192, 52434, 65010};

static const int32_t L007_dw_output_multiplier[128] = {1684259840, 1230414592, 1755317760, 1431228800, 2091462272, 1252257536, 1391862784, 1114413696, 2085910144, 1119212416, 1720093056, 1725154816, 1425331712, 2099174400, 1083639680, 1252864512, 1751739136, 1401377152, 1679795328, 1382086272, 1267004544, 1267929600, 1518219392, 1974705280, 2067137920, 1468671744, 1242541312, 1509200384, 1366064000, 1818498816, 2017115520, 1096855680, 1432822272, 1421726720, 1695915776, 1180090112, 1406787456, 1647430016, 1682309760, 1970756480, 1486845952, 1506773632, 1382284288, 1923873024, 1080996480, 2138021248, 1100618624, 1339848960, 1222408192, 1959700480, 2054754304, 1785130112, 1114498176, 2143278976, 1947223424, 1085866368, 1751560192, 1183957120, 2065667456, 2028689536, 1359937280, 1130207616, 1613767680, 2074173568, 1368854400, 1470959360, 1655234176, 1278336128, 1307330560, 1247265792, 1569309184, 1661487744, 1191607808, 1913393664, 1317170304, 1141370496, 1152784896, 1358713728, 1665355520, 1323247232, 1089678336, 1081225472, 1184071680, 2137763840, 1836909568, 1810121984, 1104077568, 2055464448, 1670305024, 1454480640, 1323849984, 1077766528, 1649621632, 1279916416, 1537158784, 1096242304, 2133648768, 1175258496, 1270777344, 1076260224, 1490507776, 2040800000, 1870299520, 1507892352, 1778948096, 1332309632, 1465654656, 1902435968, 1257033600, 1145979392, 1322947584, 1527313024, 1888591488, 1202007296, 1951317760, 1482410368, 1662097408, 1527591040, 1153018752, 2128295936, 2078440576, 1603995776, 2050756224, 1246078464, 1308908800, 1215024000, 1418525056, 1139013632};
static const int32_t L007_dw_output_shift[128] = {-8, -7, -8, -7, -8, -7, -8, -8, -8, -7, -9, -7, -9, -8, -6, -7, -8, -6, -8, -7, -7, -7, -9, -8, -9, -8, -5, -8, -6, -8, -8, -7, -7, -8, -8, -7, -8, -6, -8, -8, -9, -8, -7, -8, -7, -7, -7, -7, -7, -8, -8, -2, -7, -8, -9, -7, -8, -9, -8, -9, -8, -7, -8, -7, -7, -8, -8, -8, -7, -7, -7, -7, -8, -9, -7, -7, -7, -7, -7, -8, -7, -7, -7, -8, -7, -7, -6, -8, -8, -9, -7, -6, -8, -8, -7, -8, -8, -7, -8, -7, -7, -8, -7, -8, -9, -7, -7, -8, -7, -7, -7, -7, -8, -7, -9, -7, -8, -6, -7, -8, -8, -8, -8, -7, -8, -7, -8, -6};

#endif  // LAYER_007_DEPTHWISE_CONV_2D_H_
