#ifndef LAYER_018_DEPTHWISE_CONV_2D_H_
#define LAYER_018_DEPTHWISE_CONV_2D_H_

#include <stdint.h>

// op_index=18 op=DEPTHWISE_CONV_2D
// input:  idx=75 name=sequential_1/mobilenet_1.00_128_1/conv_pw_8_relu_1/Relu6;sequential_1/mobilenet_1.00_128_1/conv_pw_8_bn_1/batchnorm/add_1;sequential_1/mobilenet_1.00_128_1/conv_pw_8_1/convolution; shape=[1, 8, 8, 512] dtype=int8
// weights: idx=23 name=tfl.pseudo_qconst21 shape=[1, 3, 3, 512] dtype=int8
// output: idx=76 name=sequential_1/mobilenet_1.00_128_1/conv_dw_9_relu_1/Relu6;sequential_1/mobilenet_1.00_128_1/conv_dw_9_bn_1/batchnorm/add_1;sequential_1/mobilenet_1.00_128_1/conv_dw_9_bn_1/batchnorm/mul_1;sequential_1/mobilenet_1.00_128_1/conv_dw_9_1/depthwise; shape=[1, 8, 8, 512] dtype=int8

#define L018_DW_OUT_CH (512)
#define L018_DW_KH     (3)
#define L018_DW_KW     (3)
#define L018_DW_STRIDE_H (1)
#define L018_DW_STRIDE_W (1)
#define L018_DW_DILATION_H (1)
#define L018_DW_DILATION_W (1)
#define L018_DW_DEPTH_MULTIPLIER (1)
#define L018_DW_PAD_H (1)
#define L018_DW_PAD_W (1)

static const int32_t L018_dw_input_offset = 128;
static const int32_t L018_dw_output_offset = -128;

static const int8_t L018_dw_weights[4608] = {-5, -64, -10, 17, 7, -8, 0, 24, 5, 9, 17, 6, -22, -47, 20, -37, -2, 12, -1, 20, 1, 3, -22, -24, -71, 14, 22, 9, 8, -4, 4, -31, -9, 16, 10, 70, -24, 30, -23, 2, 9, 24, -21, 34, 11, 42, 7, 17, 57, -47, 23, 11, 6, -55, 28, -20, -37, 35, 48, -71, 4, 4, 7, -102, 82, -88, 21, -3, -20, -53, 86, 11, 22, 11, -42, 127, 32, 16, -18, 3, 14, -6, -1, -1, -20, -25, -9, -19, -4, -23, 75, 8, -5, 19, 15, 49, 40, -18, -29, 18, -36, 0, -37, 5, -8, -40, 8, 0, -21, -46, -9, 26, -4, -14, 5, 12, 13, 3, -48, 11, 31, 39, 10, 0, -7, 22, -10, -23, 10, 15, 2, 65, -49, -68, -90, 1, -21, 13, 4, 5, 12, 1, -12, -48, 9, 74, -18, 30, -3, 34, 16, -4, -27, -3, -18, -7, -26, -2, 37, -44, -1, -45, -16, 13, 22, 3, -5, -3, 10, -58, 10, -11, 5, 45, 35, -29, -22, -90, 35, 19, 35, 1, -28, 0, 97, 8, 26, 20, 13, -43, 7, -75, -3, -54, 10, 12, 52, 8, 46, 26, 3, 31, 2, 35, 61, 11, 16, 26, 0, -44, 27, 4, 6, 19, 63, -16, 7, -102, -20, 17, -20, 22, -62, 14, 4, 26, -18, -13, -7, 19, 9, 8, 22, 6, -1, 8, 2, 34, -4, -3, -127, 31, -3, 25, -37, 15, 0, 34, -34, -82, -60, -42, 1, -4, -7, -14, 5, -60, 35, 14, -9, 13, 4, 25, 23, 51, 10, 16, 33, 27, 9, -1, 9, 61, 3, 1, 2, -3, -39, 36, 20, -2, 15, -105, 0, -11, 3, -56, 6, 25, 17, 30, 15, -19, 10, 7, -38, 16, -32, -3, -17, -5, 14, -14, 15, -12, -10, 0, -9, -13, 0, 1, 77, -11, -67, 0, -43, 12, 95, 24, 11, 8, 8, 15, -4, 37, 2, 64, -30, 34, -77, 12, -32, -1, 57, 12, 17, 6, 7, -113, 0, 95, 62, -40, 10, 10, 13, -30, 32, -27, 16, 16, 2, 26, 1, -70, -11, 27, -127, 84, -6, 33, -115, -12, -16, 9, 15, 4, 2, 6, 30, 16, -49, 28, 24, 25, 4, -69, 19, -127, -30, -4, -50, -16, -10, 5, 30, -2, -8, -19, -8, 40, 2, 20, 13, 25, 2, 15, -44, 11, 3, 3, -46, 3, 22, 18, -69, 8, 120, 69, 36, 23, -3, 8, -1, 12, 6, 15, 76, -26, -30, 6, -6, 58, 12, 1, 4, -37, -3, 23, 48, 10, -31, -25, 27, 12, -22, 6, 16, -3, -11, 29, 12, 11, -8, -11, 4, -22, -3, 66, 9, 10, 15, 5, -8, 20, -24, -37, 50, 0, 4, 3, 27, 14, 7, -2, 5, 63, 25, 25, 19, -13, 2, 6, -8, 43, 19, 18, 12, -2, 42, 4, -1, 6, -75, 11, -28, -51, 19, 6, -3, 64, 31, 9, 63, 62, -11, 16, -23, -8, -12, -9, -1, 3, 91, 4, 2, 20, 24, -28, -39, 17, -17, -5, 7, -95, 29, -27, -21, -11, -1, 25, 3, 16, -12, -31, 60, 16, -21, 9, -41, -12, -3, -15, -79, -48, -76, 7, 127, -66, 21, -26, 34, -20, -19, 32, -21, 26, -59, -23, -66, -1, 127, 127, -36, 103, 127, 127, 13, 15, -127, -78, 87, 2, 10, -103, 4, 65, -28, -68, 23, -22, -10, -7, 43, 0, 66, -87, 6, -30, -38, -127, 127, 12, 10, 23, 12, 12, 120, -57, -62, -22, -19, 24, -1, 2, -26, 53, -8, -19, -44, -127, 119, 16, 5, 15, -23, -3, 127, -104, 1, 30, -127, 32, -23, -34, -1, -8, 25, -12, -75, 13, -48, -24, -36, 0, 78, -41, 35, 0, -38, 37, 46, 46, -14, -25, -35, 34, 29, -57, 1, -6, -27, -64, -111, -61, 26, 0, -35, 60, -3, 51, 30, -29, -73, -82, 6, -46, -54, 61, -7, -27, 14, -29, -50, -38, -48, -8, 11, 6, 5, -67, -101, -127, -8, 23, 127, -47, 11, -95, -14, -100, 127, 22, -60, 98, -87, -29, -52, -110, 78, 14, 127, -30, -92, 17, -59, -22, 54, -8, -23, -26, -3, -72, -106, 5, 51, -32, -12, -10, 51, 53, 31, 41, -48, 14, 89, 31, 11, -37, -11, -76, 42, 18, 27, 3, 127, 16, 127, -127, 0, 47, -54, 127, 103, -32, -71, 14, -55, -70, -10, -20, -15, -28, -17, -8, -14, 18, -25, 127, -37, -11, -124, 127, -38, 44, -18, 14, 0, 79, -13, -94, -82, -38, -14, -19, -9, -10, 29, 35, 127, 0, -15, 20, -14, 127, 54, 127, 57, 24, -22, -10, 123, -9, 35, 107, 27, -12, 12, 4, 12, -37, 10, -39, 52, -73, -3, -30, 1, -84, 17, 127, 25, 127, 6, 20, 20, 9, -8, 20, -34, 21, -47, 19, -53, 127, 38, 9, -1, 0, -13, 91, -3, 55, 88, 23, -56, -22, -43, 20, -61, 35, -67, 42, -12, 20, -22, 88, -17, -15, -127, 4, -92, 14, 36, -1, -5, 61, 24, 18, 29, -100, 19, 66, 70, -23, -8, 17, 50, -127, 85, 24, 20, 19, -6, 57, 13, -42, -24, -11, -7, -74, -23, 78, -48, -98, -35, 13, 22, 4, -28, -10, 127, 14, -77, -127, 73, 37, -97, -127, -19, 72, -56, -1, -117, 70, -43, 22, 2, -46, 18, 33, -21, 91, 20, 10, 38, -13, -25, 64, -81, 14, -35, 36, -56, -34, 69, 58, -23, -44, 60, 77, -4, 27, -27, 4, -21, 93, -43, 3, -43, -86, -61, 28, -66, -18, 33, 13, -12, -19, -71, 29, 127, 50, 32, 29, 51, -29, -18, -5, 21, -15, -59, -14, 43, 18, -42, -8, -16, -88, 102, 101, 36, -6, 18, 46, 22, 23, -55, -92, -20, -16, 9, 27, 127, -38, -11, 0, 8, 109, 24, 127, 28, 48, -15, -38, 0, 127, 53, 43, -10, 5, -24, 14, -6, 2, -92, 30, -14, -38, 30, 9, 12, 127, -28, 43, -42, 61, -29, -6, -5, -3, -12, -27, 30, -6, 38, 127, 7, -25, 89, -63, 34, 19, 0, 20, 13, 19, -25, 5, 20, -21, 6, 9, -16, 0, 1, 24, 20, 17, -1, 9, 2, 30, -1, 6, -12, 18, -19, -4, 13, 9, 9, 4, -3, 77, -13, 10, -8, -5, -8, 32, -6, 1, 4, 17, 4, 37, -11, 43, 6, 13, -99, -56, 12, 3, 6, -33, 20, 79, -20, -65, 23, 41, 9, 6, 50, 127, 71, -44, 12, 4, -9, -22, 87, 7, -6, 11, 28, -12, 6, -31, -14, 1, 17, -7, 5, 2, 24, 68, -9, -7, -5, -2, 35, 6, 4, 12, 6, 5, 21, -36, 66, 24, -52, 5, -5, 21, 2, -37, -1, -2, -18, 44, -3, -31, -2, -5, 6, 14, 5, 5, -70, -4, 32, 11, 0, -3, -11, 6, 10, -23, 7, 23, -1, 0, -63, -44, 92, -2, 11, 8, 3, 0, 8, -5, 10, -43, 17, 25, -23, 21, -7, 36, 19, -2, -16, 86, -7, -5, 33, 1, 32, -16, -2, -41, -19, 9, 14, 6, -8, -7, -4, -43, 14, 67, 5, 31, 36, -28, -20, -79, 10, 17, 13, -9, -56, -4, -101, 11, 15, 24, 0, -19, 7, -84, 0, 22, 12, 11, 60, 66, 51, 22, -8, 18, -2, 29, 39, 6, 17, 1, 2, -26, 25, 8, 1, 13, 43, 19, 20, -83, -14, 23, -14, 12, -34, 12, 1, 33, -10, -4, -7, -33, 14, 11, 1, -2, 0, 18, 4, 41, -2, -2, -93, 32, 1, 127, 1, 12, -2, 42, -43, -74, -46, 27, -2, 0, -6, 63, -38, 36, 20, 8, 6, 12, 4, 22, -20, 75, 13, 14, -11, 13, -5, 44, 8, 38, 5, 6, -63, 36, -31, 27, 21, 0, 7, -84, 3, -12, -1, -47, 5, 4, 10, 25, 19, -5, 10, 5, 52, 20, 1, 90, -13, -11, 17, -16, 14, 116, -11, 1, -9, -30, -2, 5, 12, -9, -42, -23, -11, 13, -11, -3, -93, 9, 6, 6, -7, 31, -3, -15, -23, 9, -63, 17, 16, 2, -8, 10, 11, 4, 5, -6, 1, -8, -85, 33, 36, 5, -17, -14, 26, 22, 14, 14, 1, 27, -2, 3, -6, -29, 117, -7, 0, 29, -83, -13, -14, 6, 15, 1, 6, 5, 26, 7, -39, 31, 19, 9, 16, -58, -27, 64, -23, -5, -30, -27, -27, -1, 6, -16, -2, 67, -5, -127, 18, 19, 11, 20, 2, -27, -78, -11, 9, 7, -43, 46, 29, 20, 14, 19, -127, 59, 5, -8, -5, 3, -2, 7, -17, 7, 52, -12, -52, 3, 0, -24, 11, 3, 5, -37, 0, 19, 34, 58, -15, 60, 5, 3, -21, 1, 13, -4, -11, -27, 12, 5, -13, -31, 2, -12, 7, 43, 1, 1, 6, 8, -6, -85, -58, -33, -28, -10, 1, -7, 15, 7, 7, -5, 2, 69, 18, 21, 10, -3, 13, -3, 54, 27, 13, 14, 1, -2, -34, 1, 4, 7, -70, 26, 49, -31, 4, 6, -9, 35, -51, 7, -2, 27, 0, 44, 18, -2, -8, -8, -3, 4, 108, 17, 3, 14, 17, -47, 31, -9, -12, -127, 73, 26, -35, -13, -45, 127, 6, 9, 7, -31, -100, -48, 29, -127, -15, 27, -42, 127, -13, -10, -19, -21, -117, 14, 7, -68, 38, -55, 24, -80, -12, 13, 1, 105, -16, 26, -58, 1, 46, -27, -48, 113, -12, -2, 30, -5, 65, -71, -21, 61, 12, -93, 33, -31, -25, 101, 74, -100, 2, 8, 44, -36, -12, -112, 42, 8, 127, -16, 41, 22, 45, 22, -21, 99, 42, 94, -110, -20, 27, -8, 23, 8, -46, 107, -9, 127, -11, -92, 27, 21, -52, 39, -11, 127, 8, -125, -122, 26, -85, 41, -76, 51, -22, -12, 25, -19, 7, -61, -10, 105, -26, 51, 36, -9, 7, 10, -57, 43, 34, 117, -33, -27, 29, 27, -51, -39, -5, 7, 9, 127, -127, -116, 67, 7, 127, 38, -6, 2, 33, -8, -99, -55, -22, 127, -31, 39, 78, 40, 127, 18, -17, 4, -24, -9, -50, -10, -16, -32, 0, -1, -5, 22, -11, 19, 11, -10, 117, -127, -18, -89, 32, -18, 27, -20, -25, -105, -40, 18, 41, -69, -110, -4, -92, -13, 20, 35, -94, 20, 23, -13, -26, -124, 17, -22, 91, -23, 48, 56, 20, 32, -72, 17, 84, 19, 38, 127, 1, -53, -19, -5, 11, 40, 35, 33, 8, -95, -2, 2, -19, -40, -7, -27, -41, 44, -38, -31, -3, 127, -14, -19, -70, -7, 18, 13, 30, -4, -36, -9, -16, -31, -36, -34, -89, 17, -6, 52, 36, -95, -95, -77, 21, -22, -14, -79, 88, -24, 4, 23, -86, 30, 3, -12, 14, -39, 10, 2, -23, 125, -72, -94, 27, 38, 16, 3, 61, -3, 25, -1, 26, 10, 45, -74, 13, -22, 11, -34, 10, 13, 48, 14, 17, -38, 54, 3, -122, 24, -18, -67, -25, -34, 57, -43, 14, -13, -16, -1, 29, -28, 25, 43, 87, -26, -41, -62, -51, 22, 127, 2, 60, 5, 52, 20, -14, 68, -3, 127, 8, 127, -121, 14, 2, -25, 106, -11, 28, 26, -53, -92, 26, -31, -22, -98, 127, 29, -87, 8, -41, 112, 27, 25, -5, 33, 8, -13, -25, 10, 58, -58, -11, -14, -58, 3, -22, 7, 9, 8, -38, 2, 35, 15, 13, 126, -97, 40, -46, -66, 127, 97, -41, -17, -90, 20, -54, -18, 127, 55, 19, -90, -36, 2, 9, 3, 13, 116, -6, -70, -11, -2, 26, 23, -12, -18, -15, -13, 127, 76, 113, 34, 127, 31, -33, 19, 14, 43, -51, 9, 68, -94, -127, 45, -7, 127, 26, -46, -2, 127, 32, 40, -3, 35, -33, -66, 14, -97, -57, 26, 8, 8, -13, 127, 18, 28, 10, -21, -5, -75, 72, -11, 0, -27, 2, 127, 12, -29, -70, -2, 127, 75, 6, 29, -11, 24, 20, -7, 11, -22, -25, 6, 23, 25, -100, 18, -9, -17, 28, 36, 127, 1, 127, 20, 24, 7, -45, 18, -122, -96, 27, 16, 27, 29, 101, 21, 127, 102, -41, 3, -127, -3, 22, -31, 8, 2, 127, -12, 8, -37, 53, -60, 83, -17, -127, 98, 127, 127, 47, 127, 127, -18, 127, 127, 127, 127, 127, -127, 127, 81, -127, 127, -127, 109, -127, 127, -127, -51, -127, 127, -19, -127, 127, -127, 127, -116, -127, 127, -7, 127, -105, 127, -127, -127, -49, 24, -127, 127, 2, -88, 127, -21, -46, -127, 104, 127, 127, -97, 127, 127, -127, -127, -127, -54, 127, 127, 127, -68, -40, -127, 127, 127, -105, -121, 10, 127, 127, 127, -21, -57, 127, -124, -109, 127, -4, -127, 127, 127, 42, 127, 127, -54, -95, -93, 127, 127, 127, 127, -127, -33, -46, -127, 65, 127, 41, 127, 22, -127, 127, -127, 127, -127, -85, -121, -47, -127, -127, 127, -127, 127, 127, 127, -127, 127, 127, -127, -127, -127, 127, 127, 127, -127, 127, 127, 127, 101, -127, -43, 127, 127, 86, 127, -127, 127, 127, -18, -127, -127, -127, 86, -127, 127, 127, 127, 28, 127, 127, -127, -127, 127, -123, -127, 126, -127, -127, 4, -77, 127, -111, 127, 127, 30, 127, -50, -50, 17, 127, -127, 127, -127, 127, -127, -36, 127, 57, -127, -127, -127, -127, 127, 127, 70, -127, -127, 127, 127, 127, 44, 127, -127, 65, -66, 29, 127, 127, 127, -127, -127, -127, 127, 127, 39, 127, 82, -127, 127, 127, 127, 49, 127, -62, -73, -5, 127, 127, -54, 127, -127, -127, 127, -127, -127, -58, -53, 127, 31, 127, -127, 127, 127, 127, 2, 127, 127, 45, -1, -127, -66, 127, 127, 127, -127, -127, -127, -127, -65, 127, 127, 127, -127, 127, 127, -10, 127, 17, 127, 127, 24, 127, 95, 127, 127, 112, 127, -127, -127, 127, -127, -127, 127, -17, 127, -127, 127, -127, -9, 127, -127, 127, -127, 127, -127, 127, 65, 127, -9, 127, 127, 127, 127, -51, 127, -127, -93, -127, 127, -127, -17, 127, -52, 127, 127, 127, -127, 36, 127, -127, 127, -127, -127, -127, 127, -12, 127, -82, 0, -73, 127, 127, -127, -127, 46, -11, -22, -127, 127, 127, 127, 113, 127, 127, 127, 127, -127, 127, 127, 127, -2, 122, 127, -108, -11, -127, 127, 127, 127, 127, 127, 127, 127, -127, 127, -19, -119, 127, -127, -33, -15, -127, 127, -69, 127, -75, 127, -71, 127, -55, -81, -127, 127, -127, -65, 42, 83, -127, -127, -127, 127, -127, 127, 23, -127, 127, -122, -127, 93, -1, 127, 127, 127, 127, 31, -25, 127, 127, 127, -127, -127, -88, -16, 42, -127, -123, -127, 127, 127, -127, 127, 127, 127, -127, 127, -127, -127, -72, 127, 127, -43, 127, 127, 127, 20, 127, 127, 38, 127, 127, 127, 127, -127, -127, 127, 127, -98, 99, -33, 127, 127, 127, -127, -127, -127, 127, -127, 127, -127, 127, 4, 127, -127, -127, -127, -29, -56, 127, 127, -3, 127, 127, 127, 127, -127, 119, -29, 127, 127, -21, 127, 67, -79, 127, 127, 1, -127, 21, 127, 127, 127, -43, 23, 1, -127, 127, 127, 127, -37, -127, 127, -22, -105, -127, -36, 13, -127, -127, -127, 127, 127, 10, -65, 127, 1, 127, -127, 127, 127, 3, 76, -32, 5, 127, -14, 74, -92, -5, 0, 17, -29, 11, 50, 15, 63, -16, 19, -31, 75, -7, -21, -18, 127, -65, -19, 3, -61, 24, -34, 1, 75, -4, 25, 127, -16, 16, 22, -44, 14, 58, -21, 36, -30, -8, -3, 30, -3, -18, -45, -32, 46, 9, -92, 9, 117, -37, -50, -24, 127, -10, -5, -50, 62, -3, -100, 19, -4, -91, 31, 33, 8, -8, 6, 127, -9, 31, -127, 127, -28, 11, 3, 9, -2, 127, -54, -19, -33, -9, -87, -4, 13, 60, -1, -20, -8, 6, -89, 127, 29, -74, 12, 127, 79, -20, 0, -6, -7, 9, 127, 0, -104, -15, -30, 38, -13, -6, 8, -32, 30, 33, -37, -26, -44, -24, 17, -15, -38, -10, 7, 4, -68, -108, -122, 11, -1, -59, 27, -6, -17, 27, -10, -79, -38, 7, -33, -14, 18, 13, 26, 118, -3, -21, 127, -40, -18, 127, 10, 127, -13, -5, -11, 8, 9, -13, 3, -6, 6, 82, -112, -13, 127, 28, -6, 10, -11, -44, -110, -29, 5, 22, -54, -104, 5, -62, -18, 17, 18, -111, 36, 14, -28, -28, 127, 7, -19, 94, 127, 45, 36, 4, 24, -50, 13, 79, 12, 33, -39, -11, 113, 9, -5, -10, 16, 13, -8, 4, -112, 1, -10, -24, -35, 12, -19, -28, 44, -36, -26, -4, -66, 63, -4, 120, -4, 16, 6, 16, -7, -39, -19, -7, -16, -23, 73, 7, 8, -14, 10, 26, -86, -123, 127, 12, -25, -12, 125, -100, 9, 5, -4, 127, 21, -14, -12, 99, 127, 29, -7, 127, 74, -66, 103, 11, 69, 35, -7, -127, 52, 35, 57, 24, 0, 40, -62, 1, -11, -1, -23, -3, 11, 18, 7, 1, -42, -9, -9, 127, 5, 67, 127, 0, -21, 75, -40, 16, 127, -27, -12, 2, -40, 9, -30, -37, -24, -29, -62, 78, 7, 41, 54, -60, 21, 55, 4, -24, 65, 11, -75, 10, -121, -89, 10, -4, -17, -127, 17, 11, 24, -39, 25, 10, 31, 57, 127, 60, 8, 2, 26, 1, -70, 14, 10, -7, 12, -6, 31, -7, -12, -41, -127, -22, 22, -51, 7, -15, -1, 15, -8, -33, -9, 43, 4, 18, 126, -85, 26, -23, -54, -79, -8, -23, -2, -79, 6, -25, -55, -23, -9, 6, 127, -25, 109, -37, 4, -3, 113, -15, 127, -127, 0, 15, 6, 13, 106, -1, -15, -24, 77, -116, 33, -27, 8, -18, 6, -15, 31, -40, -9, -3, -69, -24, 27, -15, -84, 8, -41, -11, -114, 12, 33, 43, -35, -18, 66, 4, -79, -56, 16, 3, 127, -5, 31, 3, 8, -12, -14, 0, -54, 68, 65, -1, -27, -7, -19, -4, 122, -42, 12, -82, 127, -6, 30, -9, 6, 9, -15, -7, 110, -29, 5, 15, 18, 127, 7, 127, -8, 21, 19, -115, 8, -99, -4, 3, -7, -44, -127, 127, -85, 8, 18, 10, 12, -85, -10, -34, 127, -25, 127, 99, 13, 56, -15, -7, -8, 31, -57, -9, 127, 33, -63, 17, -53, -2, -34, 18, 42, 9, 5, 17, -9, 8, 4, -5, 1, -8, 19, -52, -37, 5, 13, -17, 22, 1, -1, 25, -1, -47, -5, 0, -13, 14, 11, 11, 52, -29, -3, 7, -24, 37, 5, -20, -3, 24, 8, 11, 33, 5, -12, -2, 26, -35, 1, -127, 8, 15, -121, 7, -32, -22, 17, 36, -29, 8, -1, 48, -4, -114, -2, 5, 12, -42, 11, 14, 24, -12, -1, -17, 93, 29, -21, -33, 9, 100, -6, 9, 7, -13, 65, 2, 60, 39, -15, 3, 7, 11, -2, 4, 15, -8, -19, -26, 14, -47, 10, 5, 24, 13, -58, 9, -2, 51, -49, 19, 11, 5, -3, -24, 25, 5, 13, -26, 0, -2, 32, 8, -28, 22, 6, -2, -19, -1, 13, 3, -63, -65, -42, 106, 9, 87, 5, -1, -10, 20, 6, -2, -33, -3, -46, 2, 21, 43, 16, 18, -14, -13, -22, -16, 3, -42, 0, 43, -16, 12, -1, -59, 9, -11, 23, -6, 56, 28, -8, 7, -26, 29, -32, 21, -17, -11, -34, 8, 17, 57, -12, 21, 0, -122, 6, 5, 30, 25, 88, 8, -5, -4, -28, -10, 9, 101, -9, 37, -9, -6, 24, -22, 27, 5, 20, 22, -4, 9, -39, -7, -2, -3, 24, 17, 34, 3, -56, 33, 9, 10, -54, -49, 6, -4, 0, -19, 10, 22, -12, 19, 34, 19, -3, -5, 13, 13, 4, -6, -9, 23, -63, 7, -8, -42, 7, 9, 9, 56, 74, -72, -48, 7, -2, -1, 11, 6, -12, 5, 6, -2, 11, 4, -3, 22, 26, -26, 11, -11, 19, 32, -4, 11, 52, -7, 4, 5, 17, 79, 64, 23, 30, 0, -91, 4, -9, 4, -47, 9, 9, 1, 13, 13, -10, 10, 3, -7, 22, 7, -22, 9, 6, 5, 0, 15, -9, 5, -1, 31, -6, 34, -5, 37, -4, -19, -22, 15, 9, 73, -1, 127, 61, 19, -2, -4, 29, 0, 61, 34, 38, -18, 9, 8, -1, 31, -5, 25, 5, 15, 38, -1, 60, -4, 7, 2, 15, -127, 23, -27, 114, 20, 7, 6, 8, 0, 13, -21, -10, 83, -7, 14, -23, -127, 26, -14, 0, 21, 15, -16, 6, 40, 7, 68, 0, -1, 38, 9, -23, 76, 26, -8, -2, -7, -2, -17, 1, 18, 5, 33, -25, -11, -8, -89, 5, -3, 45, 7, 16, -20, -8, 24, 6, 13, 22, -82, -95, 19, 7, -11, 20, -35, -15, -4, 6, 4, -3, -10, 7, 78, 2, -36, 25, 16, 18, 17, 4, 5, 69, 14, 29, -7, 1, -40, 75, -11, -39, -5, 17, 11, 2, 105, 42, 2, 24, 12, -59, 7, 3, 29, -40, 4, 14, 12, 17, -10, -46, -32, 30, 13, 0, 5, 9, -15, 14, -3, 7, 6, 0, 65, -2, 16, -12, -21, 17, -24, -29, -18, 22, 8, -9, 12, 13, 16, 5, 43, 15, -31, -17, 13, 1, -16, 11, 24, -65, 53, 50, -4, 1, -23, -2, -21, -11, -2, 1, 112, -2, 6, -18, 15, -53, 17, 7, 13, 1, 16, 87, -5, -39, 22, -5, -14, 3, -2, 9, -26, 47, -63, -60, -12, 12, -71, -23, 57, -13, 69, -30, -21, 12, -2, -58, 15, -33, -5, 49, -21, 6, -20, -15, 127, 41, -23, 9, -3, 17, 10, 1, 18, -31, 31, 127, 53, -36, -97, 53, 13, 9, 4, -6, -22, 48, -17, -31, -1, -3, -27, 14, -53, -44, -65, 32, -66, 36, -7, 13, 13, 7, 16, 15, -78, -54, -94, -21, 127, 5, 30, -7, -24, -41, 5, 10, 127, -102, -23, 17, -21, -11, -16, 0, -5, -52, -10, -7, -39, 15, 17, 78, 10, -46, -13, -9, 127, -64, 127, 47, -21, -26, 27, 119, 2, -3, -27, -32, -40, -29, -31, -36, 43, 36, 16, 5, -10, 36, -7, 72, -72, -127, -32, 20, 114, -5, 4, -47, 43, 127, -61, -49, -29, 14, -18, 21, 16, -67, -7, -48, -7, 116, -37, -13, 12, -14, 12, -16, -107, -5, -127, -23, -75, 44, -18, 127, -78, -87, 22, 4, -11, -41, 51, -36, -22, -36, -127, 29, 48, -48, -48, -11, -45, -13, -30, 127, -15, 95, -3, 14, 108, -20, 3, -20, 127, -16, 127, -46, 10, 28, -56, 5, -13, -10, -24, -44, -1, 127, -44, -16, -21, 50, 17, 15, 12, -109, 127, 2, 12, -56, 110, -20, -21, -10, -32, 18, 127, -9, 9, 127, 127, -1, -34, 9, 44, -8, -55, -22, 44, -87, 1, -14, -42, 13, -8, -44, 103, 105, -26, -42, 19, -32, 1, 45, -12, -1, 6, 8, 2, 12, -29, -52, -22, -16, -42, 2, 76, -17, 88, 34, 6, 41, 84, -10, 36, 16, 55, 87, 10, 127, 19, -73, 5, 3, 10, -43, -9, -4, 38, 5, 0, 6, 4, -16, 6, 22, 66, 0, 34, 13, -22, -30, 17, 4, -21, -13, 44, -44, 127, -55, -23, -9, -60, -49, 49, 6, -66, 12, 91, 127, 127, -8, -105, 47, 8, -13, 76, -3, -87, 6, -29, 4, -22, -26, -6, 6, 21, 7, 10, 50, -28, -15, -5, 27, 26, 93, -8, 58, 8, 6, -9, 57, 9, 45, -34, 6, 21, -70, -9, -44, -28, 127, -8, -5, 127, 3, 127, -1, 87, 8, 127, 70, 37, 22, -45, -56, -23, 13, -23, 8, -116, -4, -37, 1, -32, -40, -6, -12, -12, -21, -127, 16, 25, -37, 4, -72, -21, -12, 61, -6, 54, 98, -127, -127, -34, -6, -31, -10, 110, 17, 13, 7, 0, -17, -46, 5, 124, -106, -45, 29, 35, -14, 27, 30, -34, 35, -28, 39, -39, 58, -95, 49, -47, -73, -45, 39, -14, 6, 127, -5, 5, 25, 70, -120, -3, -85, 39, -32, 65, -76, -3, -16, -21, 19, -44, 113, -10, -9, -18, 29, 6, 18, -52, -16, -5, 2, 127, 15, 12, -28, -27, 14, 0, -47, -22, 0, -10, 38, -14, 12, 34, -13, 127, 44, 0, -82, 13, 41, -11, 11, 101, -101, -43, 36, -7, -13, -7, 18, -2, -17, -31, -5, 81, -90, -19, -5, -92, -77, 31, 27, 3, 2, -5, 20, 17, 9, 10, 10, 4, 1, 34, 6, -7, 35, -45, -16, 1, 12, -11, 19, -6, -3, 18, -26, -53, 20, 5, -18, 1, 18, 16, 127, -20, 17, 17, -2, 29, 8, -23, -1, 16, -2, 15, -26, 6, -7, 3, 24, 54, 0, -101, 7, 10, -127, 1, -42, -25, 31, -16, -1, 5, -1, -64, 44, -127, 3, 19, 6, -29, -2, -3, 14, 15, 4, 57, 14, 28, -69, -20, 7, 103, 4, 14, 10, 19, 5, 5, -17, 33, -13, -3, -1, 3, -2, 7, 4, -12, -31, 49, 5, -41, 10, 64, 26, -2, -49, -3, -4, 41, 3, 1, 4, 0, 8, -27, 27, 6, 14, -31, -2, -3, -45, 6, 2, -1, 7, 4, -4, 2, 13, 0, 35, -38, -44, -7, 6, -32, 10, -10, -13, 8, -11, 19, -37, -5, -3, -1, 20, 53, 9, 11, -8, -3, 64, -25, -2, 25, 3, 19, -7, 14, 8, -32, 11, -3, 25, -2, 59, 15, -19, 9, 44, 18, -21, 19, -15, -10, -30, 22, 17, 39, -25, 8, 3, 49, 6, -1, 12, 24, 84, 5, -3, -12, 23, -6, 16, 106, 52, 37, 7, -5, 9, -12, 28, -2, 21, 23, 20, 7, 74, -3, 0, -3, 13, -4, -8, 1, -47, 22, 19, 0, -29, -19, 12, -9, 5, -12, 10, 14, 4, 40, -11, 99, 3, -3, 8, 8, 6, -4, -2, 16, -48, 16, 20, -20, 7, 8, -21, 40, 8, -25, 22, 1, -5, -2, 49, -26, -12, -4, 6, 29, 9, 7, -5, 32, -22, -7, 10, 66, 10, 28, 45, 2, 53, -13, 2, -6, 7, 70, 34, 21, 20, -7, -77, 0, -6, -1, -24, 5, 8, 15, 12, 7, 13, 8, 4, 20, 16, 26, 9, 2, -14, 3, -3, 17, 48, 10, 2, 17, 11, 10, 3, -35, 6, -14, -5, 14, 12, -24, 25, 46, 51, 13, -6, 8, 38, -5, -27, 29, -51, -15, 6, 6, -3, -13, -20, 12, 0, 7, -9, 0, -17, 42, 15, 33, 16, 40, 15, -27, -20, 17, 5, 2, 3, 0, 7, -10, 20, -112, -45, 9, 7, -108, 29, -13, -1, 10, 6, -22, 6, 44, 3, 38, -13, -9, 24, 30, -3, 3, -11, -13, -4, 14, -3, -21, -3, -9, -1, 4, 34, -3, 51, -39, 11, -2, 26, 8, 34, -3, 12, 9, 1, 19, 31, -81, -93, 20, 12, -75, 9, 43, 20, -6, 5, -2, 7, -10, 1, 109, 9, -44, 24, 13, -7, 14, -11, 11, -69, 18, 18, -8, 46, -42, -35, -6, -14, -17, 15, 2, 55, 90, -23, 3, 19, 0, -48, 8, 13, 29, 34, 3, 12, 9, 8, -17, 116, -38, 17, -12, -17, 1, 0, -11, 13, 1, 5, 5, 42, 27, 0, 15, -19, 30, 26, 47, -20, 5, 12, 8, -13, -19, 25, 9, 1, 24, 36, 36, -12, 5, 8, -11, 9, 56, -48, -3, 53, 1, 76, 24, -4, -21, -12, 1, -2, 85, -42, 1, -10, 21, -24, -11, -12};

static const int32_t L018_dw_bias[512] = {20650, 982, -4455, -935, -2941, -2877, 477, 14756, -2533, -5927, -4058, -9468, 183, -1717, -7577, 25518, 12712, -6366, 15027, -24294, 8327, 2389, 23400, -557, 22063, -2032, -2412, 23293, -9504, 16104, -2544, 25831, 17486, -2412, -2739, -1688, 10188, -14689, 20574, 11791, -9279, -5516, 20424, 564, -4752, 18812, -4815, -5732, 20950, 45739, -1008, -10821, -19017, 32291, -7049, -1371, 15688, 15585, 20346, 210, -1503, -5268, -16077, 2336, 10585, 22258, -4757, -2944, 15735, 24299, -10127, -7031, -8100, -10005, -9022, -4085, -4855, 15315, 15890, 2429, -4806, 21981, -8782, -6539, 9959, -8561, 3763, 13093, -3049, 18269, -5070, -11597, -160, 2770, 9576, 113, -2046, 33723, 12979, -14157, 20191, -9780, 18620, -234, -6511, 28627, -6417, 13459, 26871, 16877, 12522, 25508, 14983, 248, 13735, -3886, -8102, -5521, 27959, -8914, -5035, 5256, 10491, 16068, -882, -5481, -8715, 17483, -4894, -7497, -7514, -6300, 24702, 20655, -9914, -5108, -4265, -13726, 10836, 2506, -19747, 8569, 23063, 21002, 29575, 2424, 15734, -13886, -1797, -3404, -25312, -4557, 10308, -5069, 16318, 5555, 29906, 16897, -18756, 17565, 11502, 31967, 33306, -6583, 8002, -2035, 1574, 25779, -11819, 17312, -5490, 8675, -11778, 15345, -4902, 16825, 15364, 41328, 17786, -11907, -8472, 20618, 15875, 13311, 13060, 1466, -1991, -8082, 16851, 24308, -8042, -431, 9561, 20223, 3746, 9949, -10850, 19174, -23364, -2045, -881, -5082, 23694, 6296, -463, -8731, -4444, 4004, 1650, 797, 13213, 2747, 199, -14542, -15579, -7333, -3297, 20655, -1597, -9655, 1116, -950, -16321, 11925, 20086, -13833, 18630, 12479, -1417, 2557, -1053, -3528, -2882, 12572, -7078, -10901, -6526, -2332, 17715, 5847, 23345, 244, 13849, 9892, 20866, -6171, -694, 11293, 827, 13308, 21125, -102, -3350, 8498, -4968, 18768, -1956, -1328, -8052, -3605, 8184, -6612, 5064, 7776, -15428, -12898, -4324, -4959, -7701, -16906, 626, 28462, -9437, 16941, 13401, -2281, 19570, -6915, 5150, -10433, 1279, 8098, -3364, 35255, -6512, 35582, -3187, 36277, -5097, -12633, -19446, -2427, -7116, -8388, -3706, 1992, -2007, -7144, 23420, 28217, 17676, -6549, 11234, 5330, -14668, 3206, -1179, 603, -888, 12155, -8656, -5519, 5278, -5925, 33715, 16381, 21510, -10060, -11712, -10223, 26134, -823, 14579, -925, 6290, -2183, 15056, -11295, 27293, 21003, 34945, -3686, -6807, -4910, 11038, -3289, -9194, -6153, -7809, 14967, -16493, -1912, -6065, 13972, -19987, -9402, 23891, 1145, 22697, -4383, -10008, -10245, 2837, -2386, -9936, -1836, 18402, -7530, 13086, 15467, 4969, 14394, 15547, 17446, 14603, -5576, 6918, -3315, 9470, 942, -10237, -7930, 20178, -15913, 8917, -6753, 17525, 19955, 3340, -5915, 24173, 17168, 17744, -3863, 24492, -3911, -5328, 20201, -7282, 13039, 17902, -7863, 15789, -7844, -9010, -27094, 8563, 12219, 15938, -8012, -8210, -6614, 34894, 24858, 20103, 25402, -2027, 478, 6933, 8790, -10077, -18281, 23845, -7368, 842, -9851, 11023, -4834, 14958, 19505, 31472, -5927, 12010, -3085, -5760, -8746, -2971, 17548, -6175, -6074, -980, -4767, 29816, -11493, -8190, 23832, 16734, -4922, -3975, 13206, -1826, -6476, -2176, -5417, 903, 36561, 10546, 25283, -6773, -10542, -15337, 12780, -5873, -3669, -7457, -1622, 23076, 26322, 15121, 6248, 75, -19105, -3724, -3650, -8856, -2978, -1691, 18269, -14357, -890, -8001, -3179, 4210, -8540, -13761, 100, -6936, -1020, 15465, 8465, 20265, -9161, -13218, -1192, -53, -1504, 20154, 17295, -9125, -7456, -10778, -3356, 25612, -3399, 2631, -8445, 18292, -8903, 1132, 15265, 9067, 18904, -317, -522, -21200, 245, 225, 12706, -4606, 21059, -21334, -6996};
static const int32_t L018_dw_bias_total[512] = {2218, -3242, 22041, 30809, 18947, 2883, 26589, 15396, 14875, 18009, 19238, 3972, -4425, -11701, 6631, 12718, -11352, 24354, -28365, 22682, -4217, 11733, 2280, -7725, -54225, 19216, 17556, -27011, 23392, -15384, 24208, 42855, -15026, 28692, 10829, 32360, 9804, 19615, -29346, -1649, 20417, 15860, 456, 50740, 12912, 27644, 26545, 18972, 8662, -13013, -20464, 29883, 7607, -58845, 22775, 31525, -28216, 5601, 22906, -17710, 15649, 11116, 6707, 7072, -6055, -54670, 19051, 16512, -19209, -9365, 39537, 23433, 18268, 16875, 8770, 32011, 38281, -32429, -26734, 9597, 43322, 6877, 18738, 12149, 20583, 30479, 14643, 19237, 919, -52643, 40498, 15795, 16736, 27858, -11544, 20081, 14722, -43205, 28467, 19891, -38689, 22476, 30652, 15510, 6161, -19629, 15471, -9837, 31479, -2835, 16362, 13604, -13945, 14072, 15271, 29522, 16730, 17135, -30409, 17966, 27989, 6152, -16005, -20796, 17422, 30615, 5109, -24117, 10594, 22583, 6566, 19940, -72578, -64721, 28486, 16268, 31319, 22498, -7340, 15050, 19677, 15353, -31209, -44534, 10759, 27768, -20618, 31938, 38267, 21428, 18720, 179, 6852, 21427, -27458, 14259, 25682, -127, 30524, -25699, -29074, 3935, -9574, 19017, 194, 23949, 14886, 46643, 24405, -60000, 8334, 28515, 10366, 6257, 25690, -23111, 5252, -50960, 7674, 21757, 47720, -27126, -52733, -2177, -46076, 13242, 27833, 33902, -22573, 38132, 15638, -18223, 16729, 19583, 30754, -12067, 76702, 35686, 36924, 32771, 21647, 37670, -25842, 11544, 27057, 21605, 29220, 15396, 17394, 21021, 797, 19259, 17479, 24498, 30501, 19803, 12063, -82257, 16579, 20553, 3420, -14646, 6847, -11243, -17802, 22391, -25786, -17345, 8055, -2947, 31203, 15544, 51902, -5732, 6234, 17259, 21506, 22628, 10547, 12247, -7247, -6924, -12007, 31268, 6402, 21989, 13898, 15645, 6459, -34180, -62843, -17510, 18666, 10802, 4888, 26832, 8156, 11216, 16012, 20459, 17016, 26028, 16840, 22368, 26684, 41374, 17564, 20513, 36715, 30198, 1906, 27310, 20771, 59437, 16345, 12311, 7154, 25469, 15262, 39999, 4863, 25634, 34780, -62793, 12688, 6782, 16397, -25803, 16279, 20391, 18826, 26245, 19124, -1732, 26246, 19016, -4695, 27672, 17788, 36153, -5876, 3691, 7266, 722, 20276, 31110, 5989, 13787, 27144, -11653, 21552, 12913, 15390, 3419, -24525, -31235, 6278, 19124, 9024, 24977, 30358, 40649, 39539, 21603, 530, 33145, -2096, 8289, 22941, 22923, -53247, 23834, 9833, 5970, 27934, 17831, 22678, 21495, 7423, -33289, 8083, 45832, 21967, 14484, 28269, 23110, -2733, -1031, 11689, 39137, 23656, 19067, 17045, 42414, 9264, 11092, -15518, 8854, 9630, -38677, 15081, 9402, -67781, 24358, -19189, 14264, 28038, 17165, -386, 17838, 35971, 17798, 25810, 4567, -12331, 37791, -18187, -46733, 18572, 20837, -19859, -2544, -59312, 18025, -21716, 6201, 12848, -2967, 17166, 12143, -13842, 21577, -15443, 19676, 19022, 26922, 21875, 27323, -36542, 8756, 22382, 19370, 11214, 41114, -14969, -8262, 7189, 3294, -17387, 29782, 38819, 11159, -3035, 16312, 14154, 28549, -32241, 16286, 57710, -45647, -31376, 34265, 24426, -1421, 29440, 1494, 8933, 14348, 6753, 39622, 28844, 40033, 15096, 24347, 12802, -32872, -30370, 26054, 19961, 23190, 39390, 9780, 26624, 28503, 19335, -19631, -6094, -31933, 53387, 2130, 15895, -16148, 17039, 19371, 4703, 42, -39644, 11090, 16273, 18280, 16587, 12511, 12404, 20030, 4584, 9054, 17765, 49757, 30571, 20614, 25919, 15125, 2674, 13732, 18751, -284, 21992, 36228, 18281, -4463, 21801, 17975, 13662, 16088, -22453, 8224, 22458, -51697, 22363, 22240, 5350, 30052, 28428, -5575, 15047, 44419, -12812, 18233, -2836, 161, -6933, -13992, 15299, 14326, 66224, -15115, 16353, 21282, 32130, -48317, 15786, 6572};

static const int32_t L018_dw_output_multiplier[512] = {1379874560, 1813489792, 1769197952, 1549213184, 1098691584, 2016971392, 1183255936, 1485935104, 1762755200, 2103059072, 1231064832, 1412991872, 1235804416, 1395235840, 1319655680, 1250669184, 1643339904, 1165436544, 1386318464, 1345813760, 1754142848, 1821741184, 1357062912, 1650488064, 1824351744, 1129342464, 1119755264, 1530733824, 1343013248, 1794983936, 1316055040, 1708090624, 1486057216, 1349263872, 2012380928, 1092843392, 1343851776, 1323674624, 1417000576, 1964644224, 2087623296, 1114344192, 1869062272, 1149440256, 1211246464, 1180504320, 1651056384, 1176603648, 1517880960, 1261390336, 1370423040, 1119459328, 2025541376, 1271719040, 1629370368, 1948625280, 1603305600, 1118207872, 1419145728, 1110276992, 1215362176, 1732402560, 1265358848, 1103048448, 2136765312, 1806096640, 1731250304, 1831008000, 1087491072, 1306760192, 1974291328, 1712568576, 1185984000, 1216248576, 2020071936, 1657434496, 1349951232, 1430152704, 1919756288, 1222813440, 1434711040, 2042427776, 2071592960, 1183868416, 1843504000, 1728163840, 1174799872, 1502968576, 1477083776, 1170291456, 1892757120, 1347616640, 1624630016, 2022609408, 1770858752, 1511210624, 1239676928, 1161276672, 1862941056, 1155503488, 1142010624, 1132532736, 1991245440, 1132073728, 1804694400, 1632200448, 1269809536, 1231053824, 1255895168, 1497343232, 1131241728, 2102445312, 1855456128, 1255197824, 1647869568, 1449120896, 1782338816, 1246554496, 1180318336, 1120121600, 1587812736, 2002684800, 1241114624, 2072284160, 2013388928, 1323213056, 1661242624, 1203625216, 1202868608, 1395669504, 1684230784, 1376512128, 1324494592, 1841525632, 1133838976, 1098895616, 1393267712, 1252260096, 1278798080, 1270161664, 1737554560, 1149015424, 1845417856, 1854914816, 1321101952, 1937145856, 1269961088, 1136779392, 1483902080, 1567127680, 1499154176, 1321160192, 1897061888, 1327415040, 1123044736, 1127922560, 1509490816, 1506043904, 1444676224, 1513312256, 1875024640, 2023332864, 1425689088, 1488183808, 1352464512, 1187203584, 1734492928, 1527366656, 1711252096, 1171681920, 1705145856, 1146151680, 1115448704, 2079707264, 1560813184, 1723726080, 1564413056, 1876207360, 1556936960, 1859208320, 1796851840, 1099217920, 1372546944, 1757287296, 1674451072, 1235137536, 1762661376, 1254352128, 2096087296, 1494554240, 1173357696, 1750598784, 1415460352, 2103544192, 1329200768, 1182960128, 1710943488, 2055753216, 2036317952, 1557485696, 1698164096, 1894439296, 1659958912, 2081783936, 1295846400, 1698200704, 1698749056, 1247388544, 1374017664, 1279853568, 1923834496, 1565414528, 1148921600, 1840527360, 1953841408, 1164744832, 1289322752, 1256521856, 2049029248, 1977859200, 1669491584, 1756031616, 1203182080, 1536401664, 1603538176, 1179922048, 1101891584, 1696763904, 1282397696, 1293823104, 1404049920, 1742157312, 1158392192, 1948452096, 1607875968, 1682445312, 1717026816, 1601949312, 1075959936, 1372109568, 1800144256, 1095128832, 1617757824, 1131570176, 1262980736, 1198453632, 1158532224, 1977720448, 1711083264, 1288638080, 1123820672, 1396132736, 2091188736, 1115493248, 1166501376, 1661388544, 1423347712, 1866735488, 1439040000, 1287438976, 1447132032, 1589562112, 2062242688, 1176542464, 1413662720, 1988574848, 1638919808, 1131295232, 1903469184, 1190884352, 1135182976, 1265237760, 1503246720, 1621133952, 1102646528, 1548369664, 1589707264, 1591871360, 1268286080, 2064741760, 1221952768, 1373408384, 1908021632, 1481274240, 1302344832, 1799227136, 1715980928, 1566003840, 1285745792, 1727059968, 1234658816, 1342469120, 1722683264, 1792686976, 2046357632, 1349440000, 2124611712, 1816246656, 1155511936, 1296236160, 1924359040, 1135932672, 1928753408, 2025673344, 1498066304, 1589063040, 1636404736, 2119817984, 1560574336, 1121145472, 1940040320, 1633738112, 1706734720, 1283792512, 1469243648, 1934997248, 1496175616, 1113226880, 1262576128, 2000027520, 1922896000, 1828411776, 1399270656, 1415069440, 2001839872, 1904379264, 1674383616, 1222664960, 1134729728, 1649331328, 1235455616, 1721309056, 1219268864, 1575981312, 1159325184, 1956636416, 1536106880, 1245524096, 1609858944, 1608955520, 1176852480, 1441719040, 1144699392, 1500872832, 1182965248, 1915326976, 2136143104, 1130050304, 1514168576, 1128345856, 1999669248, 1192165760, 1084205952, 1707583872, 1461088768, 1258061312, 1428276864, 1465719936, 1825788160, 1087221888, 2073780736, 1546349056, 2125859456, 1336077184, 1204813824, 1262626688, 1848925056, 1973646848, 1611090816, 1765385984, 1102564480, 1522929408, 1775150976, 1699361920, 1734559104, 1848395904, 2068844160, 1687481728, 1483706752, 1076564096, 1328417024, 1707804288, 1147825024, 1537575808, 1976886016, 1939134976, 1942216064, 1290333824, 2079511040, 1581417344, 1615500032, 1617870592, 1852187008, 1815905024, 1319076864, 1198601728, 1818416128, 1934012160, 1186548352, 1780144000, 1586861312, 1286448000, 1933069184, 1193221888, 1988148096, 1433889408, 1868455808, 1700016768, 1423452928, 2141832704, 1364495488, 2083223936, 1834828928, 1305484288, 2030921600, 1378892928, 1292679296, 1387006208, 1376740992, 1170476800, 1412889856, 1207952128, 1368922624, 1537853440, 1987485824, 1922632832, 1778078464, 1503879296, 1442280320, 1861559808, 1124174848, 1744150400, 1225863936, 1602390784, 1199368448, 1214046336, 1934372096, 1755009664, 1940184960, 1181636992, 1496641792, 1990240000, 1513646336, 1570188416, 1317581824, 1768772352, 1109384064, 1367967744, 1815819136, 1850251520, 1386491776, 1751820416, 1095924224, 1131990656, 1532502400, 1735575936, 1417938304, 1699882112, 1419449728, 1454840704, 1804881536, 1412001920, 1234170240, 1224560384, 1508543616, 1828824448, 1644609536, 1564779264, 1209685760, 1507720576, 2134670208, 1705436288, 1880011008, 1337865728, 1510952832, 1107270656, 1534257664, 1973982336, 1256889344, 1783379712, 2115793152, 1799351808, 2073037312, 1913033728, 1565260416, 1133929984, 1885699328, 1633464192, 1821044992, 1349747968, 1312194304, 1533647360, 1080043008, 1974731648, 1324776192, 1204686976, 1617417984, 1737690880, 1234627584, 2016320000, 1217866368, 1761509760, 1839405696, 1515250560, 1412270720, 1225061248, 1564639360, 1376318336, 1365220352, 1569014912, 1489507072, 1560250112};
static const int32_t L018_dw_output_shift[512] = {-6, -7, -7, -7, -6, -6, -6, -7, -7, -7, -6, -5, -6, -6, -6, -7, -6, -6, -7, -6, -6, -6, -7, -6, -8, -5, -6, -7, -7, -7, -6, -8, -7, -6, -7, -6, -7, -6, -6, -6, -7, -6, -8, -6, -6, -7, -7, -6, -7, -8, -7, -7, -6, -7, -7, -6, -7, -7, -7, -6, -6, -6, -6, -7, -8, -8, -6, -7, -7, -7, -8, -7, -6, -6, -7, -8, -6, -7, -8, -5, -8, -7, -7, -6, -7, -7, -6, -7, -6, -6, -6, -6, -7, -7, -5, -7, -7, -7, -8, -6, -7, -6, -8, -6, -6, -8, -6, -6, -7, -8, -6, -8, -6, -6, -7, -7, -7, -6, -8, -6, -7, -7, -5, -6, -7, -6, -6, -7, -6, -6, -6, -7, -8, -8, -6, -6, -6, -6, -5, -6, -6, -6, -8, -8, -7, -7, -6, -7, -7, -7, -7, -6, -7, -6, -6, -6, -8, -6, -7, -7, -7, -8, -8, -6, -7, -6, -7, -8, -7, -7, -6, -7, -6, -8, -6, -7, -7, -9, -7, -7, -8, -6, -7, -6, -7, -6, -7, -7, -7, -8, -6, -7, -7, -8, -7, -5, -7, -8, -7, -7, -7, -7, -7, -6, -4, -7, -7, -6, -6, -7, -7, -7, -6, -6, -7, -6, -6, -7, -7, -7, -7, -7, -6, -5, -7, -6, -7, -7, -6, -6, -6, -7, -7, -6, -6, -6, -7, -7, -6, -6, -8, -6, -6, -7, -7, -6, -5, -7, -6, -7, -7, -6, -7, -6, -5, -7, -7, -7, -6, -6, -6, -7, -7, -6, -7, -8, -6, -6, -7, -6, -6, -7, -6, -7, -6, -6, -7, -7, -7, -8, -6, -7, -7, -7, -6, -8, -7, -8, -6, -7, -6, -7, -7, -6, -7, -6, -7, -7, -7, -8, -7, -5, -7, -7, -6, -8, -6, -6, -6, -6, -7, -6, -7, -5, -8, -7, -7, -6, -6, -7, -8, -7, -7, -7, -7, -7, -6, -6, -7, -7, -8, -7, -6, -5, -7, -6, -7, -6, -5, -7, -5, -6, -7, -7, -6, -7, -8, -6, -7, -7, -7, -6, -6, -7, -6, -6, -7, -6, -7, -7, -7, -7, -8, -7, -6, -6, -7, -7, -7, -6, -6, -6, -8, -7, -6, -7, -7, -7, -7, -6, -7, -6, -7, -6, -7, -6, -7, -7, -7, -7, -7, -7, -8, -7, -6, -6, -7, -7, -7, -6, -7, -6, -8, -7, -8, -8, -7, -7, -7, -8, -7, -6, -7, -6, -7, -6, -7, -6, -7, -7, -7, -6, -7, -6, -7, -6, -6, -7, -6, -6, -6, -7, -7, -7, -6, -7, -7, -7, -7, -7, -7, -6, -6, -7, -6, -8, -5, -8, -7, -7, -6, -6, -6, -6, -6, -7, -8, -8, -7, -7, -6, -6, -6, -6, -6, -6, -6, -7, -7, -7, -7, -6, -7, -6, -6, -6, -6, -7, -7, -6, -8, -6, -6, -6, -6, -6, -8, -7, -7, -6, -6, -7, -7, -7, -7, -7, -7, -7, -6, -6, -5, -7, -7, -6, -8, -6, -6, -7, -6, -8, -6, -6};

#endif  // LAYER_018_DEPTHWISE_CONV_2D_H_
