#ifndef LAYER_013_DEPTHWISE_CONV_2D_H_
#define LAYER_013_DEPTHWISE_CONV_2D_H_

#include <stdint.h>

// op_index=13 op=DEPTHWISE_CONV_2D
// input:  idx=70 name=mobilenet_v1_eurosat_1/conv_pw_6_relu_1/Relu6;mobilenet_v1_eurosat_1/conv_pw_6_bn_1/batchnorm/add_1;mobilenet_v1_eurosat_1/conv_pw_6_1/convolution; shape=[1, 8, 8, 512] dtype=int8
// weights: idx=31 name=tfl.pseudo_qconst29 shape=[1, 3, 3, 512] dtype=int8
// output: idx=71 name=mobilenet_v1_eurosat_1/conv_dw_7_relu_1/Relu6;mobilenet_v1_eurosat_1/conv_dw_7_bn_1/batchnorm/add_1;mobilenet_v1_eurosat_1/conv_dw_7_bn_1/batchnorm/mul_1;mobilenet_v1_eurosat_1/conv_dw_7_1/depthwise; shape=[1, 8, 8, 512] dtype=int8

#define L013_DW_OUT_CH (512)
#define L013_DW_KH     (3)
#define L013_DW_KW     (3)
#define L013_DW_STRIDE_H (1)
#define L013_DW_STRIDE_W (1)
#define L013_DW_DILATION_H (1)
#define L013_DW_DILATION_W (1)
#define L013_DW_DEPTH_MULTIPLIER (1)
#define L013_DW_PAD_H (1)
#define L013_DW_PAD_W (1)

static const int32_t L013_dw_input_offset = 128;
static const int32_t L013_dw_output_offset = -128;

static const int8_t L013_dw_weights[4608] = {9, -21, -32, 5, -5, 1, -34, 15, 64, 22, -45, 18, 1, -4, -7, 127, -14, 24, 2, -10, -18, 2, -5, 7, -15, -127, -11, -7, -12, -7, -59, -7, -8, 44, 23, 85, -44, 0, -11, -11, -3, 14, -10, -16, 2, -2, 8, 10, 2, 3, -127, 18, -4, 83, -33, -20, -9, -12, 46, 22, -13, -32, 40, -9, 8, -30, -7, -21, -101, -10, -7, 40, 2, -25, 3, 25, -31, 5, 2, -11, 2, 3, -5, 12, 52, 6, 3, -18, -40, -99, 24, 7, -21, 5, -37, -31, -29, -4, 5, 4, -26, -9, 0, -8, -9, 19, -127, -4, 18, -4, -16, 7, -7, -9, 14, -55, 2, -7, -17, 6, -24, -21, 0, -8, -18, -7, 8, 17, -6, 1, -5, -3, 5, 6, 7, -56, -73, 2, 6, 5, 5, 23, 41, -29, 20, 4, -43, -1, -4, 22, -13, 33, 37, -9, 8, -118, 11, -9, 3, -17, -121, -8, 14, -1, 7, -21, -5, -91, 7, 3, -3, 5, -10, 2, 18, -14, -12, 6, 7, -116, 15, 6, -127, 5, 23, -2, -2, 6, 1, -16, -40, -10, -58, 14, 4, -53, -35, -11, 0, -11, 36, 10, 10, -21, -4, 5, -24, 2, 7, 16, 18, 7, -1, 73, -7, -8, 42, 22, 20, -9, 3, 2, -5, -112, 24, -1, -3, -2, -5, 5, -1, 33, -127, -1, -14, 27, -2, -4, 5, -5, -5, -17, 4, 9, 127, 54, 19, 34, 49, 4, 0, -29, -7, -15, -20, -34, 15, 9, -31, 11, -18, -44, 92, 39, 2, -117, -93, 7, 9, 14, 8, 1, 11, 2, 9, -9, -9, -14, 8, -5, 0, -11, -20, -1, 4, -10, 34, -14, 8, -104, 17, -21, 0, 18, 3, -4, 127, 7, 5, 17, -2, -3, 15, -20, -8, -23, -9, -2, -16, 3, 2, 1, 11, 2, 24, 14, 9, -45, -1, -28, -15, -43, 15, -1, 4, -20, 2, 1, 25, -12, 0, 52, 4, 7, -22, 25, 34, -3, -13, -2, 15, 19, 14, -9, 3, -5, 20, -2, -1, 4, -3, 2, -10, 29, 11, 5, 1, -1, -4, 14, -13, 1, 7, 29, 11, -21, 35, 23, 5, 59, -9, 2, -8, -4, 16, 11, -11, 3, 7, 44, 2, 37, -9, -33, 2, -5, 15, 3, -50, 23, -127, -6, -48, -13, 23, 8, -18, 5, 13, 40, 19, 37, 5, 14, 12, 22, 24, 81, -8, 3, 24, -28, -2, -4, -57, -1, 15, 1, -15, 0, 10, -18, -4, 11, 4, 36, 21, -25, -5, -3, -9, 32, 10, 71, 13, -9, 13, -8, -1, -17, -9, -13, -2, 8, -4, 14, -3, 62, 6, -2, 8, 8, -11, -115, 14, -37, -15, -12, 17, 23, 20, 17, -22, -6, 13, -8, 3, -32, 2, -11, -2, -8, -1, -9, 1, -6, 11, 2, 30, -13, 19, -127, 38, 7, 2, 12, 29, 18, -2, 17, -34, -9, -78, 4, 127, -10, 15, 9, 6, 127, -24, -34, -36, 35, 26, 27, -16, -6, 16, 20, -30, 4, 124, -9, -98, 4, -7, -18, -20, 127, 44, -10, -7, 16, -11, -25, 5, 74, -16, 127, -8, -19, -106, -8, -92, 127, -25, -73, 8, 7, -7, 3, 127, -4, -78, -77, -8, -32, 100, -14, -73, -29, 33, 127, -71, -60, -15, 9, 3, 6, 20, -44, -83, -49, -17, -31, -124, 32, -5, 14, -28, -2, -16, 127, 18, -4, 14, -28, -32, -12, -127, 127, 24, 127, 12, -113, -4, 127, -127, 1, -19, -78, -32, -20, -38, -30, -39, 18, -10, -19, 10, -127, -10, -15, 12, 21, -127, -109, 63, -37, 6, -60, -127, -15, 20, 1, -20, -85, 6, -12, 38, -34, -8, -27, 5, -120, -16, 67, -26, -27, -48, -23, -25, -67, -5, -86, -21, -31, -127, 127, -37, -73, 14, -3, -11, 13, 13, -111, -89, 11, 53, 35, 4, 33, 63, -77, -27, 35, 123, 5, 49, -16, -30, 127, -39, 6, 127, -96, 7, 1, 1, -65, 112, -23, -3, 0, 127, -110, -21, -94, -5, -57, 27, -8, -35, 4, 127, -6, -16, -29, 17, -99, -1, 52, 124, -14, -46, -88, 12, -12, 9, -126, 127, -25, 57, 127, 4, 67, -13, 14, -23, -33, 103, -11, -14, 87, 6, -20, 54, -41, 18, 127, -34, 22, -11, -127, -28, -10, 127, 26, -28, -36, 36, -27, 8, -108, -77, -18, -95, -25, 3, 32, -22, -34, -26, 5, -16, -23, -29, 1, -31, 16, -47, -23, -45, 45, -33, 127, 127, 127, 127, 125, 2, -114, -16, -34, -19, -15, -17, -28, -113, 17, 25, -43, 81, 84, 21, -43, -127, -8, -9, -75, -26, -14, -44, 33, 42, -24, 41, -13, 3, -37, 67, -27, -22, 6, 5, -18, 1, -11, -19, -127, 6, 23, -7, 6, -11, -27, -11, 18, 21, -48, -22, -8, -30, -27, -10, 50, 4, -13, -60, 8, -2, 22, -32, 3, 127, 9, 2, -32, -16, -127, -104, -98, -3, -23, -84, 34, 22, -7, 10, -13, -26, 27, 2, -53, -79, 89, 27, 11, -50, 4, 127, -103, -13, -29, 41, -72, -41, 15, -66, 127, -104, -1, -66, 127, 50, 13, 26, 22, 11, -7, -36, 7, -41, 127, -15, -38, 39, 79, 18, 127, -14, -7, -14, -26, 47, -29, 9, -4, 18, 127, 127, 127, -10, 2, -90, -16, 127, 15, -110, 59, 71, 22, -51, -36, -31, -9, -20, -9, -83, -127, 127, -20, 14, -10, 8, -76, 22, -79, -17, 30, 127, -26, 50, -1, -93, 13, 34, -28, -84, 5, -45, 2, 10, 42, 127, -18, 127, 33, -8, -29, -8, 127, 37, -3, 25, 3, -52, 14, 0, -64, -12, -70, 20, -73, -25, 6, -19, 84, 0, -27, 17, 123, -61, -127, -25, 127, 20, 2, 127, -20, -18, -17, -27, -25, 15, 19, -6, -62, 11, 42, -20, -32, -3, -8, -34, -35, 33, -35, 127, 21, 2, -105, -127, -64, -31, 17, 21, 127, 18, -4, -47, 51, -127, -2, 40, 5, 127, 8, -7, -21, -68, 127, -71, 28, 127, 52, -42, 12, -8, -22, -20, 5, 8, 9, -127, 4, 16, 13, -24, 9, 13, -19, 10, 16, 5, 0, -5, -30, -13, 16, 5, -7, -16, -23, 6, 10, -11, -58, -13, -10, -9, -5, -52, -11, -2, -18, -4, -41, 7, -5, -5, 33, -47, 11, 6, -16, -6, -2, 8, 7, 1, 4, -80, 17, 21, 78, -22, -8, -13, 7, -3, -11, 19, -41, 2, 20, -29, -15, 11, -16, -104, -12, -1, 35, 13, -26, 5, 22, -34, 2, 7, -4, 6, -1, -7, -21, -25, -21, 3, -1, -13, -49, 7, -31, -16, 7, -29, -14, -45, -2, 5, 20, -26, -5, -17, 0, -5, 16, -112, 9, -54, -1, -12, -19, 0, -36, 2, -7, 17, -5, -17, 4, -17, -57, -3, 1, -11, -12, -4, 4, -4, 15, -6, -14, 3, 8, 6, -32, -69, 2, -3, 1, 2, 1, -7, -24, 3, 2, 34, -7, -1, -6, 2, 15, -3, -7, 6, -127, 15, -4, -7, -8, -15, -6, -2, -14, 2, -15, -16, -75, -2, -6, 8, 1, -10, 4, 9, -12, -9, 6, -10, -125, -5, 24, 16, 1, 3, -4, -6, 3, -1, -9, 103, 31, 37, 25, 4, 36, -7, -2, -2, 27, 18, 7, 9, -41, 3, -4, 14, 13, 6, 3, 16, 9, -5, 17, 27, -5, 31, -17, 11, -17, 2, 2, -3, -90, -39, 3, -1, -1, -1, -2, -5, -5, -125, -3, -11, -14, 76, 4, -11, -8, -4, 22, 4, -3, -91, 39, 49, 20, 43, -18, 5, -24, 19, 11, 14, -38, 5, 5, -27, -21, 15, -30, 25, 24, 7, -127, -73, 3, 3, 15, -2, 6, 11, 3, 8, -15, -2, -9, 5, -1, 39, -1, -17, 6, 3, 23, -34, 29, 6, -22, 38, -1, -9, -15, 12, 1, 2, 7, 2, 0, 37, 0, 17, 0, 1, 127, -10, 0, -16, -18, -1, 3, 1, 2, 12, 6, 1, -5, 3, -24, -14, -3, 7, 4, -1, -1, 4, 2, -7, -9, 18, -6, 3, -12, -23, 12, 10, -1, -10, 1, 20, 20, 0, 3, 3, -6, 15, -7, -1, 5, -4, 3, -17, 20, 1, 3, 5, -2, -3, 0, -7, -1, 30, 18, -13, -18, -17, 20, 0, 52, 31, -6, 2, 1, 16, -44, -9, -6, 10, 42, 4, 29, 9, 8, 24, -35, 14, -2, -21, 21, 13, -7, -39, -9, 0, -7, 27, 3, -19, 6, 12, -14, -11, -10, -3, 38, -27, -11, -7, 5, 27, 62, -3, -4, 39, -7, 0, 5, -14, -3, 22, -1, -5, 7, 8, -17, 15, -21, -5, -2, -7, 21, 13, -35, 17, -1, 9, -8, -1, -10, 10, -14, -1, -3, 5, -17, -7, 48, 6, -3, 7, -1, -6, -91, -3, 118, -14, -4, 13, -22, -19, -1, 39, -3, -21, -11, 4, -20, 3, 4, -1, 25, -1, -9, -11, -14, 11, 5, 28, -19, 8, -108, 41, 13, 3, -15, 17, 8, -4, -34, -26, -17, -58, -2, -14, -7, 11, 1, 14, -11, -30, -3, -44, -10, 21, -20, -3, -6, -7, -8, -7, 5, 39, 127, -111, -55, -114, -20, -12, -32, 50, 127, 127, 18, -4, -2, 19, 24, -12, -19, 127, -12, -12, 95, -40, -11, -23, 101, 16, -70, -9, 3, 25, -11, -34, 27, 127, 127, 105, 7, -19, -100, -26, -13, -11, -10, -22, 8, 32, 34, 31, 6, -81, -40, -127, -101, -11, 16, -20, 61, 127, 127, -99, -15, 113, -23, -51, -58, 3, -11, -93, -4, 21, 2, -18, -127, -16, -25, -12, -37, 127, -28, -51, -24, 33, -30, 127, 31, -34, -6, -93, -115, 127, 89, -15, 6, -6, 20, -50, -34, 18, -1, -2, 22, -55, 26, -14, -66, -41, -18, -41, -25, 45, 9, 10, -36, 127, 62, -78, -23, -13, 7, -22, -2, -19, 96, 20, -71, 37, -17, -10, -19, 17, 127, 11, 10, 19, -13, -127, 31, 43, 33, 15, 59, -71, -127, 127, 17, -118, -15, -19, 127, 6, -19, 127, 9, -12, -97, 22, 127, 11, -58, 127, -15, -83, 11, -18, -27, -19, -92, -44, -21, 8, -3, -29, 12, -1, -5, -4, -29, -33, -112, 127, 127, 102, -47, 127, -28, 18, 127, 11, 8, -10, -21, 10, -20, 3, -122, 127, 9, -25, -63, -12, -15, -3, 12, 10, 127, 16, -21, 16, -26, -32, 15, -24, -19, -52, -5, 74, -3, 127, -63, 22, 82, 20, -127, -46, -8, -21, -9, 1, 4, -16, 127, -49, 6, -6, 127, -34, 127, -4, 33, -18, -60, 10, 10, -63, -52, -74, -9, -30, 27, 19, -10, -109, 63, 4, -55, 127, -45, 12, 33, 29, -31, 127, 19, -11, -58, -83, 127, 127, -25, 127, -118, -14, 39, -1, -38, 26, -25, -33, -19, -55, -6, -68, 15, -107, -79, -115, -102, -4, -125, 30, 18, -4, -64, -71, 14, 33, -18, 32, -27, -64, 19, 77, 127, 127, -44, 1, 0, -26, 1, 127, 24, -73, 20, -19, -5, 7, 37, 5, -2, -17, -127, -40, -13, -33, 33, 20, 19, -68, -9, -59, 127, -5, 57, -9, 46, 79, 11, -52, 25, -18, -11, 127, -15, 41, -43, -52, -50, -27, -3, -23, 9, -74, -14, 61, 13, 28, 17, -37, 127, -14, 127, -52, -9, 127, -25, -25, 16, 21, 51, -27, 127, 127, 6, 44, 127, 21, -29, 0, -9, -2, -19, 127, 32, 127, 127, -25, 7, -65, 61, 94, 28, 19, -33, 127, 127, -77, 10, 127, 99, -20, 127, -8, 127, -42, -45, 20, -127, -26, -69, -23, -78, 9, 38, -38, 10, 22, 5, -14, -14, -43, -82, 11, 82, -2, 127, -25, 26, -1, -30, -8, -31, 4, 127, 20, -9, 10, 34, -2, -42, -127, -47, 35, -35, -38, -93, -26, 54, -7, -1, 4, -31, -27, -82, 127, -66, 26, -33, -34, 124, 85, 127, 9, -12, -57, 28, 23, 65, 32, 22, -14, -110, 1, 14, -4, -19, 59, -57, -10, -24, -87, -89, -119, 102, -8, -31, -113, -4, 25, 127, -79, 41, -58, -12, -7, 11, -18, 4, -15, -19, -7, -53, -86, 83, -17, 44, -64, 33, 127, 127, 24, 3, 85, 110, -113, 127, -19, -110, -104, -92, -127, -18, -10, 127, 127, 127, 127, -109, 127, -68, -22, 127, -10, -127, -127, -29, 127, -10, 127, 127, 127, 127, 7, 127, -43, -127, -58, -90, 127, 127, -50, -37, 127, -64, -44, 127, 127, 127, 127, 127, 127, 127, -95, -127, 16, -106, 10, 127, 127, 127, -55, -31, -20, -15, -127, -120, 127, -127, 127, 127, -77, -48, 127, -21, -127, -60, 127, -65, 125, -127, -50, -39, -127, -127, -127, -90, -114, 127, -127, 127, 127, -86, -113, -1, -32, -127, 27, 71, -101, -65, 127, -127, 70, 127, -127, 127, 127, -127, -17, 127, -119, 127, 127, -127, 127, -13, -43, 127, -31, 127, 127, 127, 127, 127, -127, -127, 127, 127, 26, -64, 127, -77, 127, -26, 127, 127, -127, -127, -77, 127, 127, 127, 127, 127, -127, -2, -93, 127, 43, 127, -127, -75, 127, -43, -82, 127, -97, 96, -127, -24, 127, -127, 19, 127, 127, 127, -29, -13, 127, -32, 127, -61, -127, 127, 127, 127, -19, 127, 127, -127, 127, 85, -1, 35, -109, 127, -49, -39, 127, -48, -127, 127, -23, -101, -127, -94, 127, 127, -23, 127, 127, -95, -127, -127, -127, -127, 127, -61, 127, -127, 127, -60, -127, -127, -70, 3, -61, 127, -18, 127, -97, 127, 127, -127, 127, -50, 6, -77, -19, 127, 127, 127, 127, -38, 55, 127, 127, -9, -127, -118, 127, 127, 127, 2, 127, -127, 11, -4, -61, -71, -86, 127, 127, 127, -13, 127, -75, -127, -40, 127, 127, 127, 127, 127, -71, -127, 127, 77, -100, -23, -40, 127, -106, -4, 127, 127, -127, 127, 127, 127, -127, 127, -127, -45, 127, 127, 127, -36, -12, -28, -127, 38, 127, 127, 127, -64, -46, 127, 10, 127, 127, 127, -62, 127, -127, 6, -12, -90, 127, 127, -111, 127, -9, 127, 127, 127, -115, -127, 127, -127, 127, 123, -19, 31, 127, 127, -51, 127, 127, 127, 127, 127, -53, -37, -127, 127, 127, 127, -127, 127, -127, 127, -18, -24, -42, 127, 127, -43, -127, 127, -58, -37, -12, 127, -127, 10, -127, 127, 127, 127, 127, -52, 127, -16, -77, -6, -29, -95, -127, -127, 127, -115, -99, -46, -49, 127, -127, -36, 127, -127, -127, -92, -26, -10, -7, 127, -61, 30, -92, 127, 58, 127, 28, 127, 127, -71, -87, -78, -59, 127, -5, -92, -54, -37, 127, -59, 127, -127, 127, 116, -127, 127, -18, -67, 127, 109, -127, 127, 127, 127, -28, 127, -68, 127, 127, 127, -18, -19, -37, 127, 127, -84, 127, -98, -127, -106, 127, 127, 127, 127, 127, -72, 32, -127, 127, -75, 127, 127, -127, -127, -127, 127, -127, -127, -24, 4, -29, 34, 127, 127, -77, -9, -127, -10, -101, 127, 127, 127, -13, 114, 127, 127, 127, 11, 127, 127, 127, 127, 127, 127, 7, -109, -127, -74, -88, -118, -127, 127, -127, -50, 127, -70, -127, 127, -100, 127, -23, 127, -49, 127, 127, -59, 127, 30, -127, -127, -109, 85, -111, 127, -3, -101, 127, 127, 26, -31, -88, -5, 127, 127, -5, -20, -42, -99, -17, 9, -14, -19, -3, -50, -18, -19, -108, -23, -3, 5, -44, -9, -36, -74, 13, 1, -20, -12, -5, 10, -19, 14, -75, -30, -88, -6, -20, 127, -96, -17, 127, -17, -42, -7, 8, 24, 7, -11, -54, -27, 116, -127, -9, 5, -21, 5, -75, -119, 127, 0, -22, 127, -45, -24, 18, -22, -83, -1, 2, -8, 73, -102, -21, -7, -21, -37, -25, -20, -28, -1, 35, -17, -18, 0, 1, -9, 29, -100, -35, -127, -21, 2, 0, 14, -45, -31, 5, 6, -5, 1, 4, -29, -33, -52, -14, 15, 127, -16, 20, 67, 1, 21, -80, -49, 127, -30, -32, 10, -15, -8, 0, -92, 22, 6, 7, -10, -21, -8, -1, 5, 3, 9, 28, -79, -98, -2, 32, 9, -3, -35, 9, 119, -38, 4, 3, -10, -12, -40, -1, -15, -48, 3, -14, -79, 49, -3, 7, -9, -23, -21, 68, 29, 15, -33, -16, -111, -46, -31, 8, -10, -27, 1, -2, -16, -14, -6, -29, -127, -123, 65, -19, -29, -91, -19, 6, -79, 11, -1, -13, 127, -25, -26, 3, 61, -24, -4, -24, 127, 3, -11, 2, 53, 2, -41, -4, -8, 12, -13, -23, 20, -29, -3, 127, -15, -11, 14, -44, -18, 13, -38, 6, -98, -7, 127, -24, -8, -5, -7, -5, -19, -56, -5, -7, -118, 107, 3, 14, 6, -16, 127, 5, 13, 63, -52, 21, -41, -17, 19, 2, -13, 127, 11, -26, -11, -90, -46, 43, 3, 13, -64, -46, -10, 7, -25, -66, -55, 17, -34, -41, 127, -5, 23, 16, -40, 23, -24, -13, -19, 107, 127, -17, -13, 48, 127, 127, 127, -1, -26, -21, -73, -14, 127, 127, -7, -19, 24, 4, 55, 127, 5, 4, 2, -29, 12, -9, -8, -10, 12, -113, 3, -32, 3, -12, 12, 1, -42, -20, -48, -17, 89, -50, -12, -16, 3, 7, 13, 3, -16, 127, -2, 10, 24, -3, 26, -33, 3, -35, 10, -18, -9, -84, -19, 24, -28, 6, -19, -16, -9, -18, -3, -78, -20, -28, 7, 3, 3, -27, -83, -23, 0, 127, -8, -113, -15, -5, 8, 12, 67, 127, -11, 7, 1, 60, -53, 1, -4, 5, -2, 0, -17, -117, -89, 21, -98, -9, -1, -127, 10, -14, 18, -2, -27, -26, -25, 127, 1, -17, -127, -25, -86, 6, -26, -24, 21, 27, 18, -17, 101, -10, 127, -18, -127, -5, 5, 26, 0, -27, -23, 127, -7, -3, -11, -5, -110, -24, 18, -7, -39, -16, -20, 67, -64, 19, 4, 7, 8, -8, -32, 111, -36, 25, -12, -10, 24, -6, -7, 5, -13, 12, -21, -24, -90, -79, 46, 16, -22, -17, -127, -36, -107, 127, -15, 18, 12, 4, 48, 12, 12, -20, 127, -9, 5, -2, -28, 29, -8, -6, -29, -64, -70, -93, -82, -7, -52, -68, 4, 13, -70, -34, 42, -104, -29, -12, -3, -23, -15, -2, -4, -13, -1, -56, -29, 4, -127, -40, 15, -112, -7, -5, -4, 13, -26, 11, -11, -13, -7, 52, -4, 3, 23, -40, 15, -4, -5, -6, -13, -16, 1, 17, -5, 24, -9, -14, -1, -13, 35, -1, 15, -18, -1, -3, 5, 34, -15, 25, 19, 54, -1, 32, -3, 3, -5, -10, -5, -3, -2, -2, 3, 3, -8, -96, 5, -11, 42, 25, 15, -19, -2, 38, 28, -8, 4, 34, -7, -24, -7, 1, -9, -85, 0, 1, -34, 12, 10, -10, -7, 0, 11, 19, 38, 8, 2, 2, -25, 72, -17, 8, 2, 3, -48, 24, 20, 7, 9, 34, 7, -42, 17, 7, 44, 14, -5, 39, 1, -11, 7, -96, 6, 5, -7, -37, -36, 6, 12, 23, -17, -13, -7, -23, -5, -13, -3, 1, 99, -12, -12, 12, -13, -18, 19, -3, 4, 8, 7, 8, -21, -71, -7, -3, 3, -2, 8, -30, -40, 29, -14, -37, -6, 22, 11, -4, -7, 25, 3, -9, -103, 25, -10, -4, -17, -31, -7, 6, -6, -3, 29, -17, -120, -15, 14, 9, -1, -14, -3, -4, -12, -7, 6, -7, -109, 22, -2, 28, -4, 15, 23, -3, 16, 1, 5, -20, -12, 25, -6, -3, -49, 31, -3, -11, 1, -13, 2, -1, -18, -7, -6, 1, 3, 7, 6, 16, 19, 6, -54, -3, -8, 34, -15, 13, -14, 14, 48, -5, -76, -24, -3, 16, 4, -4, 7, 2, 16, -125, -2, -18, 18, -27, 28, 20, -12, -5, -17, -9, -3, -11, -22, -30, -9, -26, -18, 3, 4, -10, -11, 127, 103, 17, -11, 23, -19, 5, -41, -40, 9, 13, -102, -48, 17, -4, 6, 4, 9, -2, 11, -7, -8, -9, -16, -11, -3, -17, -11, -20, -6, -45, -14, 50, -7, 4, -27, 25, -4, -8, 18, -15, 0, -2, 20, 5, 7, -8, -5, 4, -45, 12, 11, -6, -2, 55, -15, 15, 3, -8, -4, -6, 10, 5, 97, -11, 8, 19, -15, -6, 2, 15, -2, 2, 18, -29, -11, -7, 13, 2, -38, -2, 31, 46, -1, -9, -7, -7, -7, 9, 8, 6, 34, 13, 3, 23, -1, 8, 0, -33, -34, 32, -1, 4, -10, -9, 25, -14, 30, 2, -23, 27, 57, -29, -1, -4, 59, -12, 8, -23, 3, 19, 35, -4, -2, 5, -12, -3, -20, 12, 4, -14, -4, -5, 6, -60, 19, 24, -7, -14, 42, 41, 17, -12, 3, 12, 88, -11, 15, -21, 12, -4, 17, -16, 23, -13, -6, -18, -32, 3, 0, 8, 1, 5, 5, 15, 14, 3, -38, -9, 24, -5, 13, 0, -23, -7, 16, -9, -7, -2, -30, 13, -3, -1, -10, 3, 40, -25, -12, 3, 14, -9, -25, -13, 17, 7, -11, 7, -1, 30, -124, 28, 27, -15, -4, 2, 17, 45, 29, -26, -9, -1, -12, -27, 26, 3, -3, -5, -15, -5, -11, -5, -20, 15, 5, -40, -19, 10, -127, 17, 127, 7, 16, 56, -9, 0, 15, -42, -2, -65, -8, 14, 0, -8, 2, 25, -19, -8, 11, 6, 19, -2, -16, 127, 16, 26, 34, -9, 0, -127, -5, -58, 18, -17, -14, 127, -25, -41, -22, 14, 31, -12, -6, -4, -29, -15, -62, -16, -15, 127, 3, -68, -95, -23, 80, 14, -19, -57, -4, -8, -75, 127, -4, -14, -53, -91, -5, 127, -9, 15, -54, -6, 11, -27, -3, 15, 7, 8, -23, -62, -21, -25, -68, 127, 4, -19, -10, -26, -26, -29, -6, -28, 0, -8, -26, -5, -17, -109, -17, -4, -116, 31, -106, 43, -46, 64, -16, -9, 127, -34, -16, -34, 75, -29, 27, 2, -19, 26, -119, -28, -10, 127, -4, 95, 127, -127, 127, 9, 70, 69, 41, 84, 1, -2, -65, -41, 9, -33, -6, -109, -70, 19, 127, -50, -46, -25, -21, -63, -34, -24, 22, -3, 85, 34, -5, 29, -8, -31, 127, -2, -17, 23, 12, 25, -7, -70, 9, 3, 14, 13, -4, 46, 4, -24, -56, -127, -21, 72, -13, -15, -63, -14, 19, 6, -83, 42, -63, 4, -50, 6, -5, 39, 11, -9, 127, -30, -127, 25, 127, 5, 0, -39, 7, -18, -15, -10, -6, 9, -113, -25, 53, -31, -10, -21, 127, 5, -28, 7, 10, 3, -27, 47, -22, 3, -55, -5, 1, -28, -8, -31, -9, 72, -23, 14, -12, 29, -13, 6, -62, -23, 9, 127, 117, -30, -6, 12, 23, -22, -14, 25, 48, 8, -55, 127, -31, 127, -7, 14, 20, -32, -28, -60, -15, -7, -13, -41, -27, -45, 17, -18, 2, -17, 6, -4, -84, -92, -45, -15, -20, 10, 57, -9, -60, 27, 67, -28, 19, 16, 8, 11, -55, -29, -21, 2, -19, -86, -23, -3, -41, -11, -12, 16, 11, -11, -30, 29, -14, -2, 16, -60, -31, -23, 31, -7, -23, -2, -14, -10, -16, 2, -19, -6, 3, -44, -14, 0, 18, 24, -18, -28, 7, -4, 8, 2, -27, 2, -2, 127, 13, -6, 14, 1, -16, -16, 12, 8, 65, -15, 41, 127, 47, 19, -13, 127, -5, -11, 22, 71, 4, -33, 14, 19, -11, 9, 10, 17, 2, -10, 5, -102, 127, -15, 0, 44, 127, -13, 8, 127, 3, 127, -5, -78, -116, -32, 7, 0, 23, 21, -23, -28, -11, -19, -106, -10, 127, 66, -16, 18, 35, -32, -3, -5, -16, 46, -7, 8, -6, 9, -87, -103, -102, -3, -18, -11, -33, -22, -1, -47, 10, -11, 25, 27, 127, -33, -8, -25, 1, 23, 89, -64, -22, 39, 0, 7, -85, 20, -18, -47, 13, -104, -42, 18, -11, -66, 5, 27, 8, 127, 8, -28, -1, 7, 38, -2, -9, -83, 28, -4, 127, -13, -26, 4, 6, 33, 8, -1, 17, -3, 127, -10, -35, 21, 127, 5, -12, -8, -32, 6, -39, 7, -31, 127, -93, -20, -45, 11, 17, -42, -9, 56, -24, -17, -18, -11, 6, 127, 127, 14, 31, -18, -28, -1, 21, -10, -15, 30, 1, -124, 127, 57, -96, -80, 21, 21, -2, 56, -10, 10, -36, -86, 36, -53, -29, -21, -6, -75, 7, 6, -10, 15, -8, -97, 26, -26, -7, 88, 28, -18, -28, 29, 0, 30, 8, -13, 4, 18, 21, 31, -6, -11, -15, 5, 22, -5, -3, -3, 1, -16, 1, -6, -4, 17, -7, -20, -5, -9, 15, -2, -12, -19, 0, 18, 1, 27, 5, -14, -14, -74, 3, 18, 18, -12, -3, 5, 1, -1, 0, -3, 1, 2, -5, -52, 1, 26, 46, 22, -8, -23, 4, -19, -22, 28, 2, -44, 29, 4, -5, -6, -7, -64, -9, 3, -30, 18, 12, -7, -9, 5, 13, -8, 31, 3, -5, -6, 127, -34, 1, -1, -15, 22, -18, 3, -28, 19, 4, 25, -7, -34, 7, 4, 32, 16, -1, 26, -2, -5, 8, -115, -30, 16, -2, -14, 38, 5, 39, 3, 4, 30, -8, -12, -6, -21, 3, -2, -1, -9, -17, -5, -6, -18, 9, -1, -17, 6, 8, 6, -8, -58, -2, -3, 0, -6, 4, 1, 55, -5, -4, -18, -5, 17, -1, 2, -1, -14, 0, -5, -80, 18, -4, -6, -11, 10, -9, -9, 9, -5, 29, -21, -98, -2, 14, 2, -2, -15, -2, -8, -10, -9, 2, 4, -118, -27, 24, -2, 6, 0, 18, 1, -8, -2, 2, 8, 31, -22, -12, -3, -14, -19, -7, -6, -2, -10, -3, -4, 26, -6, 7, -9, -4, 7, 7, 14, 16, 9, -9, 16, -7, 19, 1, 3, -12, 15, -3, -4, -53, 48, 6, 17, -3, -3, 4, -3, 0, -127, -2, -18, 5, 69, -3, 2, -19, -5, 17, -5, -6, 19, -2, -8, -14, -22, -16, -1, -3, 20, 22, -23, 107, -1, 0, -3, 0, -10, -30, -21, -2, 4, -118, -37, -25, 3, 11, -8, 0, -4, 11, 0, -10, -17, -19, 7, -2, 38, 17, -19, -7, 0, 21, -46, 19, 4, -17, 43, -10, -3, -14, 18, 6, -12, 7, -5, 2, 30, -4, -1, 0, 3, -13, -3, 0, 47, -13, -11, 6, -6, 0, -6, 9, 0, -30, 9, -4, 16, 37, 6, 0, 26, -9, 2, 15, -2, -7, 29, -7, 2, 19, -1, 15, 1, 3, -9, -2, -13, -8, -2, 4, -7, 32, 2, -6, 11, -4, 11, 1, -35, -24, -10, 0, 7, -4, 0, -6, -19, -8, 7, -15, -19, 48, 17, 0, -3, 45, 32, -4, 3, 3, 16, -6, 4, -6, 4, -17, -4, -18, -9, -12, -5, -15, -8, 8, -43, 30, -4, -11, -9, 28, -13, 5, 18, 6, -32, 30, -10, -12, 6, -17, -2, 46, 13, 1, -4, -4, -12, 80, 0, -14, -8, 5, -4, 6, 18, 0, 16, 8, -6, 4, -8, -10, -1, -23, -5, 24, -6, -11, 24, 10, 15, 2, 8, -9, 3, 23, 26, -17, 5, 23, -1, 20, -15, -28, 1, -7, 5, -3, 31, -120, -17, -31, -13, -6, 2, -16, 10, -15, 29, -8, 1, -2, 12, 11, -5, -8, -4, 27, -3, -9, -3, -19, 5, 1, -29, -21, 3, -113, 15, 0, 2, -15, 41, -6, -4, -28, -27, -7, -42, -4, -14, 1, -6, 5, 24, -14, -2, 8, 5, 1, 1, -20, 123, 4, -22, -15, -10, -1};

static const int32_t L013_dw_bias[512] = {-7221, -5470, 13321, -8892, -495, -29, 5440, 781, 1023, -518, 1064, -11264, 164, 2853, 349, 15154, 14026, -424, 617, 3399, -1045, 11069, 15746, -262, 7227, -1334, -8989, -180, 3132, 650, -2325, 411, 1480, 7105, 2166, 641, -10566, -5290, -37, -224, 802, 638, -45, 153, 305, -366, -8157, -1158, -4554, -3278, 53088, 15972, 296, 8041, 781, -9802, -1362, -7648, -1950, -739, 826, 3984, -4367, -4765, -3391, 37948, -7504, 8089, 28561, 4327, -3935, -566, -549, 30284, -7792, -467, -754, 13811, -3174, -794, 20100, 29246, 12191, 12976, 4443, -10282, 11959, -4480, -3335, 33011, -732, 21599, -1959, 17820, -1200, 366, 44556, 1235, -3361, 1796, -111, -1191, 721, 36, 7205, 19161, 20107, -5097, 2247, 12136, -1052, 10976, -4806, 251, -148, -4009, -750, 3311, 861, -4790, 170, -571, 17666, 697, -7618, 176, 14142, -1904, -19, -347, -5116, -1708, -4622, -24609, 15059, 25572, 31415, -5313, -1634, -1947, -1119, -1332, 10255, 6172, -428, -6143, 31221, 5157, 2806, -2449, -6349, 685, 2014, -2338, -1337, 38845, 5700, -3164, -214, 21715, -5114, 5570, -4619, -8959, -4746, 535, 425, 29979, -3407, 1617, 13903, -2722, 14276, -300, 1355, 4280, 7421, 17565, -4925, 44983, -421, -14214, 810, 6417, 1490, 1801, -6228, -1338, 21238, -2606, -846, 2909, 4931, 5073, -5584, -162, 3054, -7244, 794, 633, 3509, 11216, 10972, 5581, -7272, 1511, -10999, 14546, -6323, 578, 23135, 13148, 1208, -330, 1292, 3436, -318, -9757, 434, -349, -6729, 30, -17089, 19540, 156, 892, -85, 1787, -5019, -3281, 4436, -1935, 30834, -4188, 6425, 291, 1878, -657, -4267, 1938, 4305, -1945, -4351, 20612, -1600, 2609, -1453, 50, 2082, -4582, -9420, 451, -669, -8380, 11815, 60, 873, -763, -7961, -8844, -10597, 10134, -23, -2357, -2700, 16977, 29010, -1831, 1749, 60, 944, 37, -3506, -8822, 10606, 7092, -15924, 651, 13158, 10617, 5016, 369, -646, -6523, -572, -101, -502, -557, 13123, 33105, -15784, -1050, -2208, -1115, 476, -2496, -4388, -7844, -8294, -5197, -2386, 99, 3783, -2946, -2277, 12363, -3230, 631, 6725, -3900, -677, -7038, -2353, -7873, 404, 20153, -3559, 16, -1691, -271, 465, 354, -6045, 7221, 407, -8609, -7134, -7323, -10976, 2209, 648, 267, 13277, -14908, -1894, -56, -6526, -1492, 20433, -2707, 201, -187, 240, 1883, -8456, 167, 11749, -5769, 1402, -5787, -30, 3527, 15761, 1521, 6585, -7434, -6208, -5830, -6881, 588, -323, -7211, 118, 3688, -250, 154, 1690, -265, -9681, 3491, 2318, 1002, 9669, -5698, 1982, -725, -108, 14532, 13662, -2608, -264, -1281, -74, -2279, 10132, 14497, 19, -1639, 23323, -2482, -1576, -9128, -456, 2880, 1825, 8830, -351, -5948, -3553, -3272, -707, 466, -9459, 720, -5179, 7530, -8728, -94, 25872, -11809, 1600, 2677, -5473, -90, 14400, -12532, -8958, -4578, 198, -7002, 444, -1511, -2676, -10412, -4220, 236, 851, -9602, 1812, 3926, 4920, 2993, 7926, 12157, -6688, -5992, -8417, -6873, -2458, 2917, -226, 27263, -8016, 2215, 1087, -2763, 31812, 2386, 22045, -104, 18339, 3153, 2336, 40959, 611, 8110, -4532, -5497, 268, 357, -1180, -751, 2590, 1677, -4656, -3800, -5782, -2968, -6052, -16765, 3397, 1130, 1895, -2358, -5539, 302, -4452, -6951, 176, 10767, 7907, 30254, 24308, -2178, 10647, -4576, 1052, 884, -10172, 157, 16261, -8319, 51622, 4454, 32, -7305, 2142, -4495, -1487, 1811, 409, -2826, 24507, 5177, -2709, 15363, 5942, -2925, -15, 2580, -4242, -2914};

static const int32_t L013_dw_output_multiplier[512] = {1607526656, 1111290240, 1137308288, 1773790592, 1314355968, 1315833472, 1229282176, 1303656064, 2098024704, 1931901312, 2082925440, 1260780928, 1130069888, 1870539008, 1624086144, 1914558080, 1770739968, 1935118080, 1645192832, 1556425728, 1281894784, 1316328064, 1639338112, 1493126272, 2013245952, 1649836160, 1316923392, 1545337728, 1548395648, 1859562880, 1454454784, 1304229376, 1257428352, 1740729600, 1589238400, 1889936896, 1949244416, 1958506240, 1359650560, 1355734272, 1209912320, 1851021184, 1571257216, 1465971200, 1515644032, 1950659328, 1697913216, 1440529280, 2014011648, 1722524416, 1467248512, 2097704960, 2136009344, 1694815360, 1703563520, 1325727488, 1474981120, 2047657216, 1684584064, 1197031296, 1208486912, 2029965824, 1496166912, 2003186560, 1244509312, 1583138944, 1810441344, 1281826176, 1381004416, 1497002752, 1163848064, 1102479232, 2023773312, 1812557568, 1861598208, 1801423744, 1271674240, 1493207168, 2088776960, 1421508608, 1265008512, 1661571328, 1977971456, 1074406016, 1575671424, 1307789952, 2088230144, 1087382400, 1353018368, 1419704704, 1153766400, 1503208320, 1625305600, 1554449920, 1924909696, 2100537216, 1593851520, 1090441600, 1775018752, 1288620416, 2123664512, 1342853376, 1168963072, 1410954112, 1215782272, 1285217024, 1078302464, 1827678720, 1636449152, 1796873472, 1605289216, 1651175424, 2067752704, 1746688896, 2029566976, 1327638912, 1809130496, 1318776704, 1550359424, 1562999680, 1335692288, 1342115328, 2005497728, 2002789504, 1911219968, 1894261888, 1096469504, 1477573120, 1981808384, 1436753280, 1253300480, 1479158144, 1099474944, 1251901824, 1339304192, 1961248512, 1431389696, 1242526080, 1216247808, 1616863616, 1593836672, 1214637440, 1915219072, 1503543424, 2006921088, 1482774144, 1089368960, 1226103296, 1423118208, 2093579904, 1125662848, 1961431936, 2086228096, 1894920832, 1315152768, 1172691584, 1778445056, 1533248512, 1743412224, 2141738240, 1534849920, 1564301952, 1844335488, 1153885824, 1093367680, 1223809152, 2010194944, 1382258944, 1300778880, 2048204288, 1990562944, 2129807616, 1310330752, 1694340608, 1963035392, 1768481152, 1472342528, 1514590720, 1779847552, 1609370752, 1250030336, 1238662272, 2089134848, 1314982912, 1809606016, 1393045376, 1330779392, 1512506624, 1362568064, 1176689920, 1700077952, 1967157888, 1469920256, 1938929024, 1573684608, 1560348160, 2129408000, 1480702720, 1078925312, 1929856384, 1220372736, 1498528128, 1651265920, 1121561984, 1216635520, 1422143616, 1490955904, 2003464960, 1081628800, 1178872832, 1191111680, 1534387712, 1350294144, 1263277824, 1147983872, 1556699776, 1259001216, 1513303936, 1238444032, 1543658368, 1907439616, 2143834752, 1534211072, 1702411904, 1950817792, 1166852736, 1356094208, 1969148800, 1167995392, 1578744064, 1557286144, 1151258240, 1423530752, 1758322432, 1101146752, 1322979200, 1436833280, 1281399808, 1772654976, 1267239808, 1808370560, 1328603648, 2036811776, 1885788288, 2065724928, 1196299136, 1148864768, 1086522368, 1470331904, 1769375616, 1383135872, 1366436480, 1237198464, 1403761408, 1082741248, 1226797056, 1459943296, 1325883264, 1787352960, 1348670848, 1418908800, 1371029120, 1699097856, 1830926976, 1949153920, 1213999744, 1829107840, 1558888576, 1094923392, 1778326784, 2093693952, 1590798464, 1444395904, 1853506176, 1537644544, 1443469312, 1172949760, 1524406016, 1389864704, 1288382208, 1856261504, 1766680320, 1334020864, 1224363264, 1499657984, 1340018944, 1614019200, 1698974848, 1834174464, 1793527808, 1636936704, 1272093568, 1724443008, 1365594112, 1262318464, 2023491712, 1201345024, 1244026752, 1197483520, 1693113472, 1675011200, 1365794304, 1796602880, 1286124928, 1287302144, 2094387840, 2030868608, 1872344064, 1118419840, 1139468544, 1262536960, 1109951872, 1162075264, 1575295616, 2068110208, 1107459840, 1141202688, 1790001792, 2098612608, 1817794048, 1298551168, 1089610496, 1330057472, 1125234176, 2129158784, 1304499712, 1277552512, 1319085824, 1418526720, 1090887296, 1763214080, 1386967552, 1981383168, 1326250880, 1297397504, 1644874112, 1889681024, 2084596864, 2105323520, 1693502976, 1654691200, 1596678272, 1527932928, 1290463616, 1913080832, 1524651008, 2113173632, 1634435840, 1782356736, 1223520896, 1292494720, 2031983872, 1205382144, 1712399744, 1355458432, 1190059136, 1292388608, 1100632832, 1708576640, 1791333376, 1168015744, 1327940864, 1994411648, 1752311168, 2126484736, 1233505280, 1130934784, 1971161600, 1110917504, 1794331520, 2133064320, 1343355392, 1259687424, 1290399360, 1183520640, 1596011904, 1288451968, 1223956096, 1909184896, 1486689920, 1316595328, 1175800192, 1557977216, 1463365504, 1425336064, 1649874304, 1223514624, 1894389120, 2020321920, 1123347968, 1699313152, 1128756736, 2070315520, 1080614272, 1148629248, 1409024768, 1806783872, 1097036928, 1190828800, 1349359104, 1752712448, 1294408192, 1610332416, 1684679552, 1143979520, 1871522560, 1490250880, 1186230912, 2103589504, 1252096768, 1315375104, 1972317824, 1929437696, 1256166016, 1364579328, 1206421504, 1192755456, 1827161856, 1280356608, 1596397568, 1413960960, 1335643776, 1284688256, 2126755584, 1380317312, 1791117312, 1562277760, 1246411776, 1823284352, 1120063744, 1354656768, 1944488960, 1416750464, 2144412160, 1169823488, 1785069568, 2090379648, 1247223040, 1165654784, 1390805504, 2078696832, 1182281088, 2030222848, 1497070848, 2083982592, 1430890496, 1189159424, 1459346688, 1472204672, 1741838720, 1497555712, 2124564864, 1349755136, 1801865856, 1326964352, 1132899584, 1750351872, 1223290112, 1537824384, 1114195968, 1869089280, 1524744576, 1802502016, 1923651456, 1143629824, 1861447168, 1623873920, 1486496768, 1114105472, 1153837696, 1782668288, 1639053440, 1995603328, 1835445120, 1762890496, 1655773440, 1761323008, 1357339008, 1161999616, 1115823488, 1488447744, 1088675584, 1225492864, 1529348864, 1431479424, 1763883520, 1359501568, 1171530880, 1180380800, 1698423808, 1568747264, 1115865344, 2048444032, 1399691264, 1098770944, 2129992448, 1521242752, 1262405504, 1992928768, 1242473088, 1169774080, 1106769536, 1233972096, 1241326208, 2143017088, 2005023872, 1529364992, 1299132288, 1223048192, 2074017024, 2126347776, 1184009216};
static const int32_t L013_dw_output_shift[512] = {-6, -6, -7, -6, -6, -5, -6, -5, -6, -7, -6, -6, -6, -6, -6, -7, -7, -6, -6, -6, -6, -6, -7, -6, -6, -7, -6, -6, -6, -6, -6, -6, -6, -6, -6, -6, -7, -6, -6, -6, -6, -6, -6, -6, -6, -6, -6, -7, -7, -6, -9, -6, -7, -7, -7, -6, -6, -7, -6, -6, -6, -7, -6, -6, -5, -8, -6, -6, -8, -6, -6, -6, -6, -7, -6, -6, -6, -5, -6, -6, -6, -8, -7, -6, -6, -6, -6, -5, -6, -8, -5, -7, -6, -6, -7, -7, -8, -5, -7, -6, -7, -6, -6, -6, -6, -5, -7, -6, -5, -7, -6, -7, -7, -7, -6, -6, -6, -6, -6, -6, -6, -6, -6, -7, -7, -7, -6, -5, -6, -6, -6, -6, -6, -5, -6, -8, -8, -6, -7, -7, -7, -6, -7, -7, -6, -6, -7, -6, -6, -6, -5, -7, -6, -7, -5, -8, -6, -6, -7, -8, -6, -6, -7, -6, -5, -6, -6, -8, -6, -6, -7, -7, -6, -7, -7, -6, -6, -6, -6, -9, -6, -6, -5, -6, -6, -6, -6, -6, -6, -6, -7, -6, -6, -6, -6, -7, -7, -6, -5, -6, -6, -5, -7, -6, -6, -6, -6, -6, -6, -5, -7, -6, -5, -6, -5, -6, -7, -6, -5, -6, -7, -6, -6, -8, -7, -5, -6, -6, -6, -7, -6, -5, -8, -6, -6, -6, -6, -5, -6, -7, -6, -6, -6, -7, -6, -6, -6, -5, -6, -7, -6, -7, -6, -6, -6, -7, -6, -6, -7, -6, -6, -5, -7, -6, -7, -7, -8, -6, -6, -6, -6, -6, -6, -7, -6, -6, -5, -6, -6, -6, -7, -6, -6, -6, -6, -6, -5, -7, -6, -8, -6, -6, -6, -5, -5, -7, -6, -6, -6, -6, -6, -6, -6, -6, -6, -7, -7, -6, -6, -6, -6, -6, -6, -6, -6, -6, -6, -6, -6, -7, -6, -6, -6, -6, -6, -6, -6, -6, -6, -6, -6, -7, -6, -6, -6, -8, -6, -7, -7, -7, -6, -6, -6, -6, -7, -6, -6, -6, -6, -5, -6, -6, -7, -7, -6, -6, -6, -6, -6, -6, -6, -5, -6, -7, -7, -6, -5, -6, -6, -8, -6, -6, -6, -6, -6, -6, -6, -5, -6, -6, -6, -6, -6, -6, -6, -7, -5, -7, -8, -7, -7, -6, -7, -5, -5, -6, -6, -6, -6, -6, -6, -6, -6, -6, -5, -7, -6, -5, -8, -6, -6, -7, -7, -6, -7, -4, -6, -6, -6, -6, -5, -6, -6, -7, -6, -7, -6, -6, -6, -5, -6, -6, -6, -7, -7, -6, -6, -6, -6, -6, -7, -7, -7, -6, -7, -6, -7, -7, -6, -6, -6, -6, -6, -9, -6, -7, -7, -5, -6, -6, -6, -6, -6, -6, -5, -7, -6, -7, -6, -5, -6, -7, -7, -6, -6, -6, -7, -6, -6, -6, -6, -8, -6, -6, -5, -6, -6, -6, -6, -6, -7, -6, -9, -6, -6, -6, -6, -6, -6, -5, -6, -6, -7, -6, -6, -7, -7, -7, -6, -6, -7, -6};

#endif  // LAYER_013_DEPTHWISE_CONV_2D_H_
