#ifndef LAYER_025_DEPTHWISE_CONV_2D_H_
#define LAYER_025_DEPTHWISE_CONV_2D_H_

#include <stdint.h>

// op_index=25 op=DEPTHWISE_CONV_2D
// input:  idx=82 name=mobilenet_v1_eurosat_1/conv_pw_12_relu_1/Relu6;mobilenet_v1_eurosat_1/conv_pw_12_bn_1/batchnorm/add_1;mobilenet_v1_eurosat_1/conv_pw_12_1/convolution; shape=[1, 4, 4, 1024] dtype=int8
// weights: idx=7 name=tfl.pseudo_qconst5 shape=[1, 3, 3, 1024] dtype=int8
// output: idx=83 name=mobilenet_v1_eurosat_1/conv_dw_13_relu_1/Relu6;mobilenet_v1_eurosat_1/conv_dw_13_bn_1/batchnorm/add_1;mobilenet_v1_eurosat_1/conv_dw_13_bn_1/batchnorm/mul_1;mobilenet_v1_eurosat_1/conv_dw_13_1/depthwise; shape=[1, 4, 4, 1024] dtype=int8

#define L025_DW_OUT_CH (1024)
#define L025_DW_KH     (3)
#define L025_DW_KW     (3)
#define L025_DW_STRIDE_H (1)
#define L025_DW_STRIDE_W (1)
#define L025_DW_DILATION_H (1)
#define L025_DW_DILATION_W (1)
#define L025_DW_DEPTH_MULTIPLIER (1)
#define L025_DW_PAD_H (1)
#define L025_DW_PAD_W (1)

static const int32_t L025_dw_input_offset = 128;
static const int32_t L025_dw_output_offset = -128;

static const int8_t L025_dw_weights[9216] = {83, -20, -113, -96, 127, -97, 6, -86, -127, -127, 31, 124, 127, 40, -127, 95, -108, 97, -63, 22, 115, 9, 123, -123, 90, -111, 66, -115, 124, -127, 102, -65, -127, 127, -127, -93, 127, 99, 118, -65, -127, 108, -97, 115, 102, -122, 81, 87, 119, 28, -15, -46, -110, 111, -22, 58, -103, -118, -101, -97, -99, -95, 64, 108, 127, 76, -127, -24, -125, -87, -108, -8, -100, 79, -101, 31, -106, 91, 120, -102, -44, -124, 27, -36, -127, -48, -127, -93, -57, 60, 68, 46, -73, -120, -114, -127, 15, 85, 120, -127, 61, -127, -78, -121, -88, 47, 112, 111, 127, 127, -127, 106, -9, -127, 104, 31, 78, -34, 38, -127, 117, -34, 109, -127, -98, 127, 58, -104, 73, 114, 105, 106, 56, -112, 127, 95, -108, -102, -57, 127, -94, -127, -127, 106, 127, -127, -17, 106, -57, 79, -75, -73, -26, -101, -120, 105, -103, -127, -99, 7, -108, 127, 102, 109, -127, -83, 41, -103, -12, -63, -127, -40, -33, 102, -90, 127, -72, -71, 62, 122, -89, 86, 76, -13, -127, 111, 55, 121, 80, -75, -69, 127, 66, 44, 49, -107, 83, 69, 101, 108, 40, -127, 74, -54, 98, -3, -117, 95, -60, -75, 127, 92, -127, 110, -111, 101, -34, -127, 115, -107, 127, -100, 109, -127, -73, -94, -48, -90, 127, 10, 16, -123, -110, -127, -106, -125, -123, 106, 15, 104, 88, -109, -52, -113, -125, 63, 75, 1, 118, 112, -83, -107, -78, 71, 70, 59, -127, 118, 119, 96, 127, 127, -83, 55, -114, -90, 127, -82, 107, -127, 86, -59, -125, 37, -124, 127, -84, 127, 68, -127, -122, 124, 112, -127, 127, -105, 127, 94, -78, -95, -127, 112, -28, -108, -109, -96, -40, -122, -104, 92, -107, 96, -127, -127, 117, -74, -21, 121, -36, -127, 70, -31, -124, 43, -77, -6, -104, 85, 119, -51, -55, -34, 52, 76, 61, 61, 66, 29, -114, 127, -124, 102, -68, 39, 15, 127, 127, 67, -89, -127, 127, -127, 13, -124, 71, 127, -46, 127, -125, 99, -104, -101, -25, 33, -54, 127, 127, -90, -87, -83, -125, -71, 125, 123, -86, 127, 127, -94, 127, -127, 127, -118, -76, -117, 27, 113, 127, 67, -127, -121, 127, -101, -96, -24, 103, 103, 110, 127, -127, -127, -38, -64, -127, 78, -103, -106, -60, -121, 96, -125, 2, 106, -106, 107, -117, -48, 123, 43, 34, 127, 86, -127, -95, 15, 41, 53, 57, -108, -126, 114, 127, -127, -35, 127, -120, -9, 84, 46, 39, 127, 110, 41, -127, 34, 94, -94, 28, -23, 28, 95, 126, 104, 75, 108, -39, 110, -115, -125, 105, -107, 65, 117, -98, 127, 33, -57, -109, -89, -49, 106, -127, -78, -127, 41, -116, 127, 127, -45, -49, -94, -64, -127, -80, -24, -127, -104, -77, -68, 38, -127, -127, 117, -48, 111, 73, 119, 81, 88, -66, 63, 127, -127, 127, -127, 127, 127, -127, 127, -28, -44, 91, 52, -75, 63, -117, -127, 77, -106, 36, -70, 93, -97, 59, 49, -99, -98, -127, -127, -127, 15, -26, 84, -110, 82, -117, -110, 61, -127, -121, -48, 98, -57, 66, 127, 62, 33, -38, 127, -113, -85, -88, 84, 85, -16, -67, -125, -97, 32, -36, -59, 127, 127, 127, 78, 125, -113, -127, 127, 89, 127, -127, -52, -57, -107, -76, 127, -127, 115, -95, 36, 127, -127, -111, -115, -112, 99, -127, 74, -103, -104, 95, -60, 89, -127, -64, 56, 111, -30, 95, 127, 125, -76, -85, -110, -58, 76, 122, -11, 73, -104, 72, -123, 127, -106, -127, -127, -127, -49, -127, -81, 124, -120, 127, -57, 127, 95, -98, -127, 101, -68, -127, 87, 46, -80, 64, -127, -115, -66, -91, -35, -69, -13, -108, -83, 127, 75, -127, 111, -127, -126, 111, 108, 101, 118, -107, -116, -77, -99, -98, 121, 126, 27, -107, -105, -55, 127, -35, 126, 73, 84, -119, 116, -110, -82, -36, -93, 127, 127, -62, -127, -46, 37, 127, -111, 93, -104, 95, 99, -2, 127, 84, 127, 104, -108, 64, -68, 39, -106, -3, 29, -108, 98, 127, -78, 98, 97, -127, -83, 97, 119, -117, 127, -74, 115, -108, 54, 119, -60, 88, 127, -98, 99, 69, -108, -127, 127, 45, -96, -127, -112, -108, -127, 104, -101, -95, 100, 89, 127, -106, 83, -41, 83, -127, -127, 90, -78, -122, -127, -53, 115, -95, -47, 29, -94, -36, -87, -70, 27, 67, -53, -44, -122, -39, 127, -53, -99, -127, 86, 114, -92, -127, -57, 78, -119, 127, 118, 20, -127, 90, 66, -34, 125, 78, -121, -75, 89, -127, -111, -76, -123, 119, -76, -23, 59, 127, 118, -127, -81, 90, -127, -72, -50, -13, 112, -101, 127, 108, -86, -127, 88, 101, 61, 98, 127, -61, -70, 127, -106, -67, -127, 35, 18, -83, 110, -125, -100, -114, -127, 41, 102, 118, 74, -126, 127, -127, 107, 127, 80, 56, -124, -93, 127, 127, -65, 27, 120, -2, 13, 85, -8, -103, 69, -104, 127, -56, 50, -110, -20, -121, -74, -114, 34, -126, 36, 71, 105, 74, -127, 72, 85, 55, 127, 3, -21, 98, -127, 40, 127, -66, -119, -127, -47, 92, -116, 81, 127, 127, -127, 85, -68, -86, 2, 127, 110, 24, 41, -116, 100, 109, 127, 105, 56, 92, -118, -102, -78, 63, -127, -127, -29, 122, 20, -81, 127, 98, 48, 81, 65, -83, 96, 20, -127, 34, 91, 127, -127, -7, -42, -127, -127, -115, -59, -126, 127, -31, 76, -127, -127, 105, 96, 90, 68, 127, -122, 24, 107, 4, -101, 58, 18, -127, 127, 20, 95, 72, -80, 114, -127, 39, 110, -28, 37, -127, -127, -127, -127, 110, 63, -127, 80, -68, 107, 64, 127, 112, -62, 125, 46, -41, -115, -49, -127, -111, 41, 121, -104, -71, -35, -108, 123, 105, 89, 127, -27, -40, 127, -61, -68, -64, 70, -79, -116, -111, -98, -117, 117, 106, 39, 33, 90, -54, 15, 20, 96, -79, 35, 127, -127, 65, 127, -9, -127, 80, -5, 27, -58, -78, -74, 93, -87, -107, -63, -127, -53, 127, -83, -111, -105, 109, -101, -127, -97, -106, -124, 37, 98, 102, 127, -103, 89, 12, 109, -112, 15, 117, 107, 107, -117, 123, -58, 127, -97, 123, -102, 95, -111, -114, 127, -82, -99, 40, 106, 97, -36, -105, 101, -101, 101, -116, -104, 77, 127, 125, 105, 93, -105, -104, 127, 110, 98, -121, -116, -80, -99, 27, 58, 81, 116, 102, -28, -114, -26, -115, -114, -83, 91, -110, 106, -91, 51, -95, 127, 103, -15, 92, -15, 100, -32, -99, -29, -117, -110, 98, 0, 100, 96, -108, -98, -117, -110, 119, 107, 110, -113, 98, -107, -48, 40, -35, 127, 91, 94, 116, 69, -117, 96, 100, -114, 109, 108, -127, -6, 110, -110, 95, -87, 102, -111, -98, 101, 87, -111, 122, 109, 76, 109, 103, -103, 72, 103, -112, -119, -45, 113, -82, -101, -111, 96, 91, 45, -65, 118, -42, 127, -83, -47, 77, -119, -122, 102, -116, -97, -103, 72, -85, 93, 118, 97, -118, 43, 120, -106, 126, -72, -109, -25, -27, 92, -8, 60, -107, -13, 109, 117, -75, 35, 109, 127, 63, 113, 87, 108, 88, -90, 75, 115, 127, 127, -22, -112, 92, 100, 111, 124, 101, -85, 108, -127, 127, 71, -117, 115, -41, 75, 72, 97, -93, 112, -95, 111, 78, -85, 127, -105, 108, -107, 115, -106, -56, -52, -24, -92, 68, 58, -35, -127, -115, -107, -116, -108, -110, 118, -32, 117, 111, -117, -85, -125, -127, 127, 62, 47, 107, 120, -85, -111, -49, 114, 112, 63, -114, 127, 102, -91, 92, 106, -87, 100, -112, 86, 104, -103, 98, -99, 126, -49, -103, 114, -127, 51, 81, 113, 117, -125, -75, 92, 127, -127, 109, -88, -16, 106, -44, -106, -114, 99, -7, -108, -104, -99, -40, -116, -94, 52, -119, 120, -107, -106, 112, -114, 19, 114, -41, -111, 125, 74, -121, 23, -127, -20, -117, 105, 29, -19, -44, 3, 61, 93, 108, 41, -45, -10, -101, 112, -127, 94, -82, 46, 121, 104, 41, 127, 66, -104, 88, -122, 14, -92, 123, 104, -58, 119, -99, 126, -110, -95, -61, 127, -89, 110, 94, -100, 46, 47, -127, -113, 100, 126, -95, 93, 117, -93, 74, -113, 91, -116, -36, -109, 127, 93, 80, 120, -105, -111, 98, -104, -88, 127, 113, 121, 127, 115, -115, -106, 116, -32, -92, 100, -103, -97, -46, -114, 90, -123, -92, 55, 55, 93, -100, -46, 107, -109, -97, 79, 124, -108, -101, -20, 121, 126, 124, -113, -102, 109, 44, -119, -91, 93, -127, -65, 127, 49, 54, 71, 116, 19, -119, -127, -127, -122, 109, -39, 56, 117, 127, 84, 68, 95, -39, 122, -127, -116, 105, -121, 108, 101, -124, 97, 13, -110, -93, 99, -27, 103, -77, -82, -107, 61, -123, 61, 102, -77, -32, -107, -64, -89, -19, 50, -106, -105, -127, -100, -63, -116, -126, 100, -110, 89, 113, 118, 72, 87, -73, -37, 109, -125, 92, -111, 99, 112, -119, 108, -16, -93, 127, -127, -85, 125, -106, -103, 120, -98, 127, -65, 122, 98, 56, 116, -111, -78, -100, -108, -28, 82, -125, -96, -102, 114, -115, -86, 99, -50, -98, -88, 103, -34, 60, 118, 83, 117, -37, 97, -101, -123, -110, 127, 108, 103, 2, -114, -112, 93, -34, -113, 86, 83, 119, 99, 122, -94, -93, 98, 125, 90, -111, -42, -40, -101, -41, 41, -82, 102, -93, 113, 99, -110, -97, -91, -112, 99, -109, 127, -100, -107, 60, -116, 115, -115, -48, 60, 107, 110, 115, 18, 102, -52, -101, 95, -26, 109, 119, 101, 115, -115, 108, -109, 81, -116, -99, -108, 35, -57, -85, -96, 90, -115, 125, -50, 106, 120, -92, -120, 84, -48, -109, 104, -127, 73, 80, -117, -104, -46, -106, -92, -106, 94, -97, -49, 96, 116, -106, 100, -92, -112, 122, 93, 106, 104, -127, -90, -112, 36, -61, 98, 118, -38, -96, 71, -30, 121, -39, 120, 91, 81, -110, 113, -65, 15, -95, -58, 87, 103, 68, -96, -29, 127, 113, -74, 79, -116, 102, 117, 75, 89, 113, 94, 105, -112, -63, -60, 127, -123, 127, 127, -94, 106, 124, -74, 125, 112, -117, -109, 111, 95, -65, 87, 127, 105, -110, 118, 127, -48, 100, 109, -106, 92, 127, -110, 34, 112, 121, -104, -117, -116, -93, 22, 102, -60, -10, 127, 102, 99, -115, 125, -40, 103, -105, -116, 97, -109, -127, -109, 122, 119, -82, 19, 20, -103, -26, -84, -18, -84, 14, -30, -29, -110, 51, 104, -106, -108, -113, 82, 90, -115, -109, 109, 68, -127, -9, 127, 18, 55, 127, 103, -125, 111, 127, -127, -121, 115, -104, -101, -44, -92, 114, -42, -15, 74, 119, 105, -85, -111, 117, -122, -78, -38, 54, 95, -113, 65, 118, 50, -88, 74, 93, 127, 121, 108, -42, -45, 125, -105, -73, -114, 117, 87, -45, 98, -109, -102, -101, -98, 113, 119, 104, 104, -101, 89, -90, 113, 106, 127, 104, -115, -126, 84, 106, -69, 17, 92, 124, 68, 106, 91, -105, 127, -112, 93, -112, 122, -106, -30, -116, -107, -114, 115, -113, 127, 111, 122, 122, -86, 127, 96, 102, 95, -44, 46, 105, -105, 109, 99, -23, -112, -98, -32, 45, -127, 122, 52, 116, -101, 107, -43, -122, 8, 111, 121, 43, 127, -99, 121, 123, 104, 88, 58, 117, -97, -106, -108, 96, -92, -100, 111, 104, 13, 91, 113, 110, 121, 88, 127, -60, 106, 108, -106, 127, 96, 126, -124, 12, -22, -107, -64, -96, -97, -119, 94, 83, 109, -101, -108, 127, 126, 96, 127, 110, -89, 19, 111, -33, 102, 30, -40, -86, 42, 97, 75, 97, -95, 125, -100, 127, 117, -27, 127, -104, -94, -121, -94, 106, -127, -87, 121, -79, 98, 79, 107, 120, 41, 88, 63, -24, 71, -38, -112, -107, 127, 110, -118, -55, 106, -113, 125, 118, 108, 65, -74, -44, 82, -62, 97, -48, -26, -97, -108, 98, -43, -94, 118, 101, 33, 28, 127, -94, 116, 110, 109, 43, 127, 102, -115, 127, 86, -41, -106, 111, -30, 15, -42, -120, -47, 123, -22, -55, -27, 43, -88, 66, 96, -94, -76, 80, -75, 6, -95, -107, -105, 26, 105, 104, 11, -106, 81, -104, 74, -44, 18, 95, -18, 106, -96, 57, -85, 52, -97, 106, -108, 87, -95, -109, 102, -112, -75, 112, 78, 98, -51, -102, 87, -79, 101, 83, -108, 67, 69, 98, 13, 62, -38, -95, 94, -76, 43, -81, -99, 75, -78, 71, -126, 57, 87, 97, 73, -111, -19, -104, -66, -93, -88, -85, 64, -78, 27, -89, 7, 107, -127, -41, -108, 26, -30, -110, -39, -111, -81, -76, -127, 50, 62, -60, -100, -89, -108, -14, 71, 98, -108, 44, -102, -68, -125, -71, 32, 94, 92, 104, 114, -122, 91, 43, -106, 87, 19, 2, -31, 36, -109, 100, 108, 95, -107, -82, 99, 67, -83, 70, 93, 95, 86, 45, -102, 111, 72, -81, -88, -45, 106, -86, -108, -109, 84, 109, 44, -11, 87, -45, -10, -63, -123, -42, -82, -95, 93, -89, -110, -74, -3, -92, 110, 76, 98, -102, -71, 33, -91, -18, -49, -109, -35, -28, 89, -35, 108, -54, -60, 58, 110, -74, 74, 63, -66, -114, 94, 36, 104, 66, -51, 62, 111, 44, 34, 48, -86, 74, 44, 79, 88, 1, -98, 57, -21, 84, 26, -94, 75, -49, -92, 112, 79, -109, 89, -88, 80, -50, -113, 90, -95, 103, -87, 91, -109, -51, -90, -41, -69, 124, 6, -2, -108, -89, -109, -84, -105, -105, 84, 13, 84, 73, -87, -40, -97, -103, 0, 64, 4, 104, 96, -65, -90, -67, 56, 43, 48, -99, 101, 103, 87, 103, 103, -70, 38, -99, -108, 112, -66, 98, -105, 63, -50, -103, 26, -96, 114, -97, 105, 43, -98, -95, 104, 98, -107, 110, -91, 125, 76, -63, -75, -102, 94, -29, -93, -92, -80, -31, -99, -82, 73, -102, 75, -107, -109, 95, -54, -21, 107, -28, -109, 44, -38, -105, -102, -58, 0, -81, 69, 112, -45, -44, -35, 48, 63, 53, 55, -109, 4, -95, 99, -104, 84, -54, -127, 1, 105, 114, 43, -96, -107, 107, -105, 11, -98, -49, 106, -36, 115, -110, 76, -78, -82, -17, 27, -41, 109, 105, -67, -79, 61, -94, -56, 108, 90, 92, 108, 113, -69, 105, -111, 94, -97, -65, -103, -4, 94, 103, 52, -107, -101, 111, -83, -77, -79, 82, 80, 87, 106, -99, -105, 1, -58, -106, -127, -81, -84, -50, -99, 83, -94, 12, 84, -111, 88, -99, -45, 97, 52, -81, 102, 73, -105, -82, 16, 61, 34, -65, -84, -112, 98, 118, -94, -21, 104, -98, -10, 69, 36, 33, 113, 90, -127, -97, 21, 79, -70, 11, -18, 27, 75, 103, 90, 68, 127, -30, 84, -94, -105, 90, -85, 49, 98, -75, 103, 28, -38, -97, -112, -43, 92, -107, -68, -105, 45, -94, 113, 83, -35, -40, -74, -53, -121, -95, 33, -101, -89, -52, -56, 43, -102, -105, 102, -117, 95, 45, 99, 71, 72, -67, 63, 113, -106, 108, -103, 93, 105, -100, 107, -21, -28, 79, 54, -57, 40, -95, -107, 52, -90, 36, -54, 80, -115, -109, 36, -84, -75, -105, -108, -127, 14, -87, -107, -88, 70, -101, -91, 45, -86, -100, -31, 77, -44, 54, 112, 52, 60, -31, 97, -93, -66, -105, 61, 73, 57, -70, -107, -75, 26, -33, -41, 105, 113, 110, 62, 103, -94, -104, 109, 69, 103, -103, -46, -54, -91, -66, 111, -101, 97, -78, 19, 122, -106, -97, -93, -95, 83, -100, 60, -86, -84, -91, -48, 71, -105, -56, -115, 89, -38, 73, 118, 109, -67, -68, -127, -47, 61, 95, -12, 57, -84, 51, -102, 99, -85, -104, -107, -99, -38, -103, -66, 114, -95, 115, -45, 104, 75, -82, -108, 90, -60, -107, 68, 53, -94, 59, -106, -91, -56, -74, -26, -127, -62, -88, -74, 117, 53, -98, 93, -113, -105, 89, 99, 87, 104, -86, -106, -59, -94, -79, 102, 110, 28, -89, -68, -46, 101, -25, 111, 55, 69, -103, 96, 87, -78, -33, -76, 107, 114, 46, -108, -41, 5, 111, -99, 78, -93, 74, 78, 46, 109, 68, 104, 92, -89, 60, -55, -3, -88, -29, 6, -95, 77, 103, -70, 79, 77, -98, -73, 79, 114, -95, 108, -92, 97, -91, 42, 92, -51, 70, 110, -81, 85, 54, -81, -118, 100, 44, -78, -112, -95, -105, -118, 89, -84, -92, 79, 71, 117, -85, 66, -38, 64, -104, -103, 77, -57, -96, -104, 67, 96, 88, -45, 26, -78, -32, -67, -58, -64, 61, -44, -42, -107, -14, 108, -42, -78, -103, 60, 96, -78, -111, -83, 67, -104, 121, 98, 15, 60, 76, 47, -36, 112, 53, -90, -59, 69, -109, -92, -69, -103, 101, -64, -19, 46, 105, 100, -103, -62, 75, -107, -61, -43, -41, 97, -77, 111, 94, 45, -109, 76, 127, 31, 81, 107, -51, -63, 103, -85, -75, -104, 28, 21, -65, 91, -104, -85, -94, -104, 16, 81, 94, 56, -111, 105, -109, 79, 110, 63, 44, -99, -78, 108, 109, -51, 24, 98, -39, 14, 58, -7, -82, 45, -93, 109, -127, 37, -98, -15, -104, -74, -92, 29, -101, 14, 50, 126, 57, -106, 50, 72, 37, 106, 4, -13, 82, -107, 32, 110, -43, -94, -105, -40, 85, -89, 60, 116, 106, -110, 71, -61, -65, 1, 105, 97, 18, 8, -92, 86, 86, 106, 92, 49, 81, -103, -85, -53, 48, -107, -110, -33, 107, 16, -87, 107, 86, 11, 70, -25, -66, 78, 15, -107, 62, 80, 110, -84, -5, -37, -106, -116, -98, -48, -106, 112, -40, 59, -105, -100, 80, 78, 72, 47, 104, -97, 19, 86, 9, -127, 46, 19, -104, 111, 52, 82, 59, -62, 98, -110, -20, 93, -24, 29, -97, -107, -106, -107, 90, 59, -105, 51, -59, 95, 49, 112, 91, -127, 127, -106, -33, -116, -41, -105, -92, 29, 105, -86, -61, 76, -86, 102, 85, 78, 110, -21, -29, 112, -54, -83, -53, 69, -66, -99, -120, -80, -102, 103, 85, 35, 27, 68, -44, -4, 10, 77, -72, 24, 111, -106, 46, 111, 45, -102, 72, -1, 19, -43, -59, -60, 72, -76, -84, -49, -121, -41, 112, -55, -127, 44, 21, -127, 22, -89, -126, -126, 41, -78, -88, 125, -126, 127, 63, 127, -127, 25, 127, 127, 127, -127, 127, -36, 127, -127, 127, -127, 127, -127, -118, 126, -103, -127, -17, 127, 127, -50, -108, 127, -127, 126, 120, -127, 127, 126, 126, 127, -127, 95, -127, 110, 89, 127, -127, -125, -127, -127, -127, 110, 127, 127, -105, -56, -127, -33, -117, -127, -110, 127, -127, 118, -127, -127, -120, 94, 127, 90, 127, 127, 127, -23, -118, -4, -118, -127, -32, 54, 127, -54, -127, -127, -127, -126, 127, 127, 127, -122, 127, -118, -81, 55, 127, 120, 127, 127, 107, 113, -127, 127, -127, -112, 127, 127, 89, 19, 127, -118, 127, -81, 127, -118, -127, -72, 64, -127, 119, 122, 122, 120, 111, -127, -29, 127, -127, -127, -34, 114, -127, -114, -127, 127, -25, -108, 127, 127, -66, 112, -103, -127, 19, -127, -127, 105, -127, -126, -65, 50, -127, 93, 127, 119, -123, 127, 121, -127, 127, -101, -125, -23, -27, 127, 43, 103, -112, 58, 127, 60, -46, 123, 127, 106, 39, 127, 110, 127, 127, -36, -127, 107, 123, 122, 7, -127, 127, 127, 127, 127, 126, -73, 127, 100, 110, 127, -127, 127, -14, -54, -73, 127, -80, 127, -127, 127, 1, -108, 125, -127, 123, -112, 127, -109, -22, -54, -30, -104, 52, 127, 123, 40, -127, -125, -127, -127, -127, 127, 52, 127, 127, -127, -78, -127, -124, 116, 70, 99, 127, 127, -91, -127, -72, 127, 127, 31, -115, 122, 127, 127, -98, -38, -127, 127, -127, -23, 123, -127, 127, -111, 127, -29, -127, 127, -124, -8, -64, -7, 127, -125, 121, -15, 115, -124, 124, -127, 74, 127, 127, -127, -118, 106, 4, -127, -127, -127, -38, -127, -127, 127, -127, 127, -111, -118, 126, -127, 127, 127, -24, -118, 127, 127, -127, 45, 53, -25, -127, 127, 38, 123, -67, -61, 127, 115, 107, 19, 108, 101, -127, -87, -125, 120, -89, 36, 116, -84, -29, 115, 4, -109, -18, -125, -127, 127, 74, 120, -122, 122, -101, 127, 46, -127, -84, 115, -10, 17, -70, -127, 127, -127, -99, -118, 127, 127, -102, -66, 79, -127, -90, -120, -47, -127, -99, -127, 117, 127, -102, 127, -121, -127, 108, -127, -127, 126, 127, 127, 123, 103, -114, -112, 127, -30, -99, 73, -127, -127, -91, -127, 89, -127, -63, -127, 61, -127, -127, -127, 127, 48, 50, -73, 127, -121, -127, -119, 127, 127, 109, -127, -127, 121, 125, -125, -117, -19, -117, 127, 119, 67, 51, -26, 127, 46, -127, 52, 114, -127, 127, -116, 48, 127, 112, 126, -10, 77, -113, 127, -106, -127, 127, -127, 127, 127, -127, 113, 17, -114, -127, -84, -64, 127, -59, -127, -112, -127, -127, -28, -45, -108, -82, -118, -70, -94, 92, -127, -100, -127, -125, -127, 35, -111, -125, 127, -127, 127, 127, 127, -29, 120, -57, -4, 104, -127, -51, -124, 3, 116, -125, 23, 5, -127, 124, 44, -91, 127, -127, -111, 127, -124, 121, -69, 127, 127, 50, 127, -127, -127, -108, -110, 82, 127, -110, 127, -127, 127, -127, -113, 127, 36, -127, -77, 127, -9, 35, 127, 101, 127, -86, -106, -127, -123, 57, 127, 127, 127, 2, -127, -127, 102, -15, -127, -8, 15, 123, 127, 127, -106, -111, 97, 127, -126, -109, -33, -39, -127, -75, -18, -105, 127, -127, 127, 94, -121, -127, -127, -127, 127, -117, 110, -127, -127, 126, -127, 127, -120, -26, 43, 127, 127, 127, -57, 127, -127, -89, -66, -121, 127, 127, 120, 127, -127, 127, -127, -117, -127, -116, -115, 110, -67, -96, -127, 127, -127, 72, -41, 126, 127, -127, -121, 127, -30, -31, 127, 34, -116, 74, -126, -127, -48, -127, -101, -103, 127, -127, -86, 112, 127, -116, 127, -123, -127, 127, 127, 117, 122, -110, -119, -127, 46, 113, 127, 127, 39, -127, -40, -20, 22, -37, 127, 127, 104, -127, 125, -127, 50, -127, -105, -25, 118, -127, -122, -27, 103, -77, 2, 70, -127, 109, 127, -127, -67, 127, -98, -78, -127, -7, -123, 107, -127, 126, 104, -127, 127, 116, -50, 127, 127, -119, -127, 127, 127, -30, -65, -67, 91, -127, 126, 111, -31, 127, 95, -127, 111, 123, -127, 60, -93, 127, -127, -122, -127, -90, 61, 127, -124, 80, 105, 127, 99, -127, 127, -23, 127, -104, -126, 127, -127, -127, -121, -127, 127, -127, 99, 26, -127, -41, -96, 94, 45, 86, -39, 34, -127, 126, 96, -127, -127, -121, 127, 127, -127, -127, 127, 112, -127, -7, 125, 23, -108, 121, 127, -105, 127, 120, -125, -119, 127, -112, -127, -42, -127, 127, -89, -127, 105, 126, 127, -104, -127, 127, -113, -76, -32, 119, 110, -127, -41, 127, -127, -106, 127, 88, 111, 127, 120, -27, -71, 121, -127, 51, -124, 127, 127, -21, 127, -127, -127, -127, -107, 127, 127, 123, 127, -127, -76, -109, 127, -25, 118, 127, -127, -127, -88, -27, -85, 26, 120, 127, 75, 127, 127, -127, 101, -119, -54, -116, 124, -127, -17, -127, 0, -127, 127, -127, 109, 127, 103, 127, -112, 115, 127, 127, 107, 18, 72, 127, -118, 127, -34, 56, -127, -92, -37, 6, -117, 127, -53, 113, -101, 126, -41, -127, 20, 126, 124, -127, 115, -127, 127, 127, 125, 127, 53, 127, -127, -127, -127, 127, -100, -94, 127, 127, 19, -11, -42, 127, 127, 76, 109, -66, 127, 99, -121, -40, 127, 112, 15, 38, -29, -114, -44, -127, -127, -127, 116, 127, 127, -115, -126, 126, 127, 101, 122, -52, -127, 28, 127, -29, -62, 77, 17, -94, 60, 20, 127, 127, -127, 127, -108, 112, 118, -114, 120, -122, -121, -123, -99, 127, 75, -102, 127, -127, 127, 127, 123, 127, 76, 48, 35, -98, 127, -24, -113, -127, 126, 127, -127, -38, 99, -99, 127, 127, 127, -45, -113, -102, -66, -67, 127, -82, -8, -127, -127, -47, 127, -127, 101, 127, 34, 32, 108, -127, 127, 127, 127, 105, 104, 6, -122, 125, 103, -127, -122, 127, -17, 24, -38, -127, -79, 127, 127, -108, -15, 66, -127, 68, -55, -87, 29, 101, -44, 13, 96, -90, -79, 127, -127, -69, 78, -70, 89, 127, 74, -104, 127, 73, 80, 103, -65, 80, -48, 109, -63, 62, -62, 76, -4, -59, 91, -58, -78, -42, 59, 57, -70, -86, 82, -91, 116, 91, -90, 59, 96, 79, 103, 60, 45, -75, 114, 71, 120, -83, -74, -39, -68, 69, 84, 50, 64, -83, -127, -106, -40, -74, -95, -59, 84, -102, 73, -116, -100, -36, 100, 79, 114, 89, 116, 82, -19, -70, -27, -69, -118, 127, -18, 92, 76, -109, -63, -49, -80, 70, 121, 109, -66, 93, -52, -95, 127, 109, 122, 68, 70, 70, 82, -72, 86, 89, -114, 64, 104, 71, 127, 69, -50, 52, -62, 104, -77, -62, -118, 64, -85, 127, 100, 71, 56, 127, -69, -43, 78, -55, -93, -43, 60, -109, -67, -55, 70, -38, 23, 91, 72, -116, 87, -127, 60, 127, -85, -76, 75, -54, -84, -3, 127, -59, 44, 89, 98, -74, 103, 127, -127, 67, -90, -59, -42, -29, 77, 123, 62, -127, 74, 75, 127, -9, 112, 89, 77, 20, 86, 127, 98, 118, -4, 51, 15, 81, 72, -127, -80, 85, 71, 64, 69, 61, -69, 122, 2, 96, 120, -98, 70, -47, 127, -85, 71, -54, 73, -66, 75, 127, -86, 76, -50, 26, -91, 88, -37, 6, -82, -32, -127, 26, 122, 77, 43, -111, -70, -58, -72, -60, 70, -127, 91, 105, -123, -127, -82, -59, 77, 39, 127, 48, 86, -127, -50, -96, 96, 71, 43, -65, 66, 84, 104, -83, -48, -101, 100, -106, 127, 79, -82, 103, -57, 68, -59, -55, 93, -75, -66, 127, -64, 81, -62, 127, -31, 84, -57, 91, -53, -41, 63, 66, -84, -70, 127, -88, -61, -49, -72, -46, -63, -74, 123, -90, 107, -62, -52, 102, -89, 125, 48, -39, -70, 73, 94, -66, 3, 74, -36, -69, 53, -127, 127, -55, 127, 120, 81, 127, -127, -9, -24, -81, -68, -112, 69, -79, 33, 127, -55, -54, 101, 127, -65, -87, -51, -83, 103, 79, 72, -111, 38, -75, 57, 68, -44, -127, 52, -25, -49, -36, -101, 126, 58, -79, -127, 64, 91, -71, -71, -31, -86, -84, -101, 93, -99, -84, -70, 65, 89, -69, 98, -83, -62, 65, -61, -62, 81, 44, 70, 68, 110, -45, -65, 101, -77, -52, 76, -53, -68, -83, -46, 82, -117, -124, -86, 99, -43, -50, -124, 84, -127, 11, -100, 99, -65, -61, -113, 87, 66, 68, -110, -85, 101, 108, -127, -127, -14, -99, 53, 74, 127, 127, -55, 83, 21, -91, 49, 110, -96, 82, -106, 127, 70, 48, 76, -9, 89, -116, 88, -127, -95, 96, -52, 69, 89, -57, 51, 127, -127, -68, 127, -61, 84, -39, -102, -50, 42, -78, -46, 80, -87, -64, -127, -65, 72, 87, 29, -65, -56, -113, -89, -127, -93, -33, 87, 40, 73, 79, 86, 47, 56, 127, -127, 64, -78, -87, -56, 89, 55, -93, -37, -115, -88, 104, -124, -127, 96, -67, -66, 86, -91, 67, -52, 125, 92, 39, 99, -34, -79, -69, -87, 103, 98, 52, -54, -42, 97, -75, -91, 66, -47, -122, -127, 88, -65, 52, 63, 127, 68, -77, -100, -50, -127, 43, 85, 79, 70, 127, -83, -66, 127, -56, -121, -74, -7, 91, 95, 97, -80, -72, 66, 58, -126, -66, -44, -42, -74, -55, -38, -52, 67, -74, 116, 87, -69, -123, -50, -112, 69, -83, 114, -34, -46, 127, -121, 117, -86, -42, 30, 106, 93, 89, -102, 107, -57, -127, 105, -83, 94, 88, 109, 55, -125, 81, -61, -90, -74, -58, -76, 86, -61, -50, -77, 76, -67, -60, -51, 105, 77, -49, -95, 27, -27, -9, 78, -125, 127, 43, -55, -98, -66, -57, -127, 35, 123, -52, -89, 74, 91, -40, 84, -58, -47, 70, 59, 127, 70, -61, -59, -120, 107, 127, 65, 108, -127, -60, 119, 12, 17, -40, 64, 80, 66, -64, 127, -49, 127, -117, -91, -50, 75, 43, -77, -59, 18, -37, -66, 52, -78, 79, 71, 54, -59, 53, -106, -59, -71, -127, -106, 71, -107, 85, 70, -66, 62, 66, -62, 69, 99, -126, -104, 84, 92, -97, -87, 83, 89, -65, 127, 113, -42, 84, 7, -57, 78, 86, -75, 121, -62, 103, -59, -77, -67, -88, 40, 74, -110, 127, 75, 33, 76, -67, 79, -47, 118, -53, -93, 102, -115, -119, -66, 92, 68, -46, 127, 127, -55, -46, -127, 65, 8, 127, -34, 127, -68, 117, 74, -108, -68, -76, 85, 67, -68, -87, 102, 127, -58, -57, 84, 127, 16, 80, 71, 43, 68, 70, -74, -127, 64, -84, -94, -55, -75, 77, -73, -125, 127, 93, 103, -71, -5, 85, -87, -63, -48, 98, 61, -89, -52, 75, 29, -46, 90, 102, 43, 103, 110, -25, -76, 84, -52, 13, -69, 94, 85, -92, 100, -70, -59, -52, -63, 71, 78, 127, 89, -91, -87, -98, 101, -113, 89, 74, -98, -112, -88, -92, -127, 127, 70, 107, 87, 71, 81, -79, 69, -127, -75, 40, 127, -61, -44, -46, 24, -56, 114, -70, 84, 66, 127, 114, -68, 56, 88, 82, 74, -127, 59, 81, -63, 107, -65, 67, -90, -66, -55, -127, -100, 114, -66, 87, -62, 62, -49, -96, 127, 84, 127, -87, 63, -95, 90, 77, 67, 73, 33, 83, -76, -113, -101, 72, -45, -45, 96, 69, 127, 127, -50, 73, 77, 61, 65, -62, 87, 127, -60, 122, 107, 125, -41, 127, -51, -61, -36, -74, -91, -68, 82, 91, 116, -74, -47, 73, 95, 72, 86, -42, -72, 127, 87, -42, 114, -127, -127, -62, 21, 81, 65, 74, -74, 125, -61, 80, 127, -89, 71, -55, -69, -79, -71, 69, 62, -58, 94, -76, 80, 87, 79, 70, 70, -46, 31, -90, 88, -47, -88, -64, 100, 84, -65, -23, 127, -107, 89, 62, 96, -57, -127, -85, -68, -59, 83, -91, -127, -79, -63, 127, 119, -97, 61, 81, 26, 127, 70, -108, 105, 121, 94, 84, 84, -54, -85, 72, 21, 82, -65, 94, -53, 127, -82, -90, -66, 108, 86, -87, -49, 125, -127, 112, 127, -119, -127, 64, -106, 19, 73, -113, -113, 26, -54, -69, 115, -118, 106, 40, 115, -105, 17, 116, 115, 108, -126, 121, -29, 106, -111, 116, -114, 112, 62, -102, 111, -91, -108, -12, 114, 123, -41, -88, 112, -101, 112, 111, -105, 114, 111, 127, 108, 65, 80, -110, 106, -116, 105, -110, -107, 101, -110, 66, 94, 99, 112, -82, -38, -104, -28, -103, -110, -92, 125, -107, 109, -106, -102, -110, -104, 118, -43, 93, 104, 108, -18, -100, 1, -110, -113, -41, -100, 108, 67, -109, -111, -113, -109, 116, 109, 104, -106, 110, -99, -61, 34, 103, 107, 113, 113, 101, 102, -118, 107, 62, -93, 119, 106, 104, 4, 110, -111, 123, 127, 99, -105, -110, -47, -127, -116, 63, 109, 111, 127, 92, -111, -23, 117, -112, -116, -25, 105, -110, -106, -116, 118, -18, 34, 116, 116, -41, 116, -81, 50, -3, -109, -116, 90, -119, -116, -59, 39, -114, 82, 115, 98, -108, 103, 96, -103, 117, -82, -110, -19, -22, 110, 94, 87, -94, 48, 110, 42, -32, 105, 110, 96, 34, 118, 94, 107, 102, -33, 49, 97, 120, 105, 7, -119, 108, 117, 114, 114, 127, -67, 113, 93, 89, 95, -115, 115, -12, -75, -60, 119, -68, 118, -112, 117, -20, -88, 111, -114, 123, -96, 116, -90, -20, -35, -25, -93, 47, 107, 115, 36, -116, -110, -124, -112, -110, 122, 60, 114, 105, -101, -59, -111, -119, 117, 60, 78, 115, 109, -78, -115, -62, 112, 127, 24, -101, 112, 108, 117, -76, -30, -107, 109, -112, -17, 111, -109, 113, -97, 113, -20, -115, 113, -117, -7, -95, -1, 115, -110, 91, -4, 104, -113, 105, -115, 76, 114, 108, -111, -104, 83, 8, -109, -110, -113, -30, -121, -99, 110, -118, 109, -102, -108, 111, -109, 109, 115, -18, -108, 123, 109, -109, -127, 43, -22, -108, 119, 55, 108, -52, -78, 104, 97, 89, 33, -127, 97, -110, -69, -106, 111, -74, -86, 98, -72, -22, 101, -17, -91, -6, -117, -99, 101, -127, 101, -94, 108, -90, 113, 42, -119, -69, 111, -11, 22, -57, -112, 103, 57, -85, -95, 118, 109, 127, -52, 73, -106, -69, -108, 66, -111, -78, -110, 105, 110, -81, 105, -102, -111, 99, -106, -112, 118, 120, 108, 123, 77, -103, -100, 105, -22, -85, -99, -117, -112, -70, -115, 83, -112, -46, -104, 39, -104, -118, -99, 117, 53, -127, -50, 106, -104, -116, -96, 110, 114, 127, -109, -112, 103, 109, -97, -102, -3, -100, 116, 101, 52, 35, -14, 125, -103, -107, 52, 105, -115, 107, -88, 33, 117, 101, 111, -8, -3, -86, 114, -90, -116, 110, -111, 111, 113, -109, 106, 8, -93, -110, -108, -47, 105, -49, -108, -106, 43, -119, -24, 64, -90, -59, -102, -56, 55, 77, 32, -96, -118, -105, -113, 37, -97, -118, 112, 40, 112, 110, 112, -28, 110, -60, -2, 90, -112, -37, -104, 69, 102, -102, 31, 13, -112, 103, 46, -76, 113, -115, -98, 112, -105, 103, -56, 108, 110, -116, 104, -116, -108, -99, -95, 69, 102, 49, -108, -114, 116, -111, -97, 112, 34, -105, -64, 110, -4, 27, 111, 81, 93, -62, -77, -105, -101, -127, 110, 105, 74, -5, -111, -112, 78, -7, -108, 3, 11, 101, 108, 113, -91, -100, 91, 123, -99, -98, -20, -31, -104, -63, -15, -88, 110, -112, 111, 63, -109, -115, -111, -107, 126, -97, 94, -111, -115, -56, -107, 104, -99, -20, -100, 108, 101, 114, -44, 109, -114, -74, -78, -97, 115, 112, 98, 110, -106, 111, -115, -91, -112, -106, -100, 95, -54, -86, -111, 109, -113, 64, -31, 108, 107, -112, -106, 118, -19, -20, 95, 41, -124, 63, -109, -115, -41, -113, -75, 38, 109, -106, -69, 99, 113, -106, 107, -105, -117, 115, 108, 103, 127, -102, -110, -101, 24, 92, 113, 113, 41, -111, 90, -20, 28, -32, 113, 115, 96, -114, 103, 104, 32, -103, -83, -13, 111, 31, -109, -19, 100, -61, 10, 59, -115, 98, 112, 60, -58, 120, -80, -70, -106, 5, -97, 100, -107, 109, 92, -124, 120, 101, -39, 114, 102, -103, -107, 113, 118, -28, -53, -68, 78, -125, 100, 93, -23, 104, 90, -110, 98, 106, -113, 41, -80, 105, -112, -105, -115, -81, 52, 111, -98, 61, 98, 120, 74, -114, 108, -11, 109, -87, -111, 111, -114, -109, -113, 64, 116, 94, 85, 21, -107, -29, -83, 78, -108, 74, -33, 32, -116, 94, 91, -106, -110, -105, 116, 118, -114, -111, 106, 98, -123, -8, 120, 16, 50, 106, 113, 44, 112, 105, -108, -90, 114, -98, -109, -33, -110, 109, -68, -97, 79, 117, 109, -86, -124, 113, -100, -62, -22, 104, 109, -110, -33, 104, 38, -94, 111, -56, 109, 108, 98, -15, -61, 113, -110, -127, -109, 108, 108, -20, 107, -113, -115, -101, -94, 120, 109, 110, 110, -108, -58, -96, 119, -11, 99, 115, -109, -109, -67, -12, -67, 22, 115, 127, 63, 123, 113, -109, 93, -97, -45, 38, 109, -120, -10, -115, -3, -108, 106, -109, 102, 107, 36, 110, -100, 102, 109, 117, 101, 25, 66, 115, -100, 107, -23, 52, -110, -82, -26, 7, -99, 106, -44, 95, -90, 116, -30, -107, 11, 116, 110, -101, 107, -105, 118, 109, 112, 111, 45, 110, -118, -112, -104, 113, -89, -81, 107, 113, 13, -31, -32, 111, 118, 74, 117, -51, 109, 74, -109, 72, 111, 88, 14, 24, -20, -98, -31, -116, -98, -121, 103, 111, 111, -97, -112, 115, 109, 84, 112, -37, -114, 22, 123, -26, -89, 94, 18, -86, 55, 55, 117, 108, -112, 110, -100, 114, 98, -88, 100, -113, -108, -106, -86, 116, 66, -91, 115, -107, 106, 115, 101, 113, 68, 50, -104, -77, 114, -16, -98, -102, 104, 107, -117, -28, 85, -77, 115, 113, 113, -33, -90, -78, -51, -56, 118, -64, -4, -114, -110, -59, 104, -112, 90, 116, 29, 18, 97, -102, 111, 108, 108, 93, 91, 10, -112, 119, 94, 78, -114, 104, -11, 15, -30, -111, -58, 111, 111, -85, -11, 52, -104, 104, -14, -110, 48, 81, -74, 47, -35, -61, -100, 24, -65, -89, 54, -102, -42, -57, 51, -79, 23, 74, 85, -3, -99, 64, 127, 46, 12, 83, -104, -75, -87, -79, 19, -118, -66, -11, 84, 35, 127, -107, -40, -58, -126, 127, -118, 65, 75, 62, 68, -48, -127, -76, 122, 57, 32, -92, -127, -74, -64, -68, 127, 15, 55, -29, 58, -115, 127, -127, -39, -127, 120, -94, 20, -96, 71, -127, -63, -54, 79, -65, -115, 65, 127, -99, 127, -110, -111, -38, 47, 85, -127, -78, -101, -90, -62, 66, 103, 63, -125, 66, -103, 127, -86, -127, 53, 45, 70, 88, 81, -83, 61, 13, -37, 72, 97, 85, -49, 68, -101, 103, 25, 0, -105, -90, -71, 38, -118, 80, -42, 13, 55, 41, -108, -20, 67, -88, -84, 127, -21, -106, -107, -90, 70, -54, -57, 107, 85, 127, -49, -64, -80, -19, -104, -108, -83, -83, -109, 127, 7, -98, -32, 82, 60, -106, 121, 77, -113, 91, 127, -99, 127, 124, -15, 52, 125, -20, 127, 101, -84, 127, 127, 83, 73, -114, 24, 70, -55, 64, 124, -90, 34, 58, 90, 44, -83, 74, 65, 81, 70, 85, -101, 49, 107, 113, 114, -108, 89, 127, -47, -48, 82, -118, 94, -110, 19, -18, -118, 106, -108, 91, -127, 124, -98, 127, 127, 127, -64, 124, 126, 127, 93, -113, -108, -83, -102, -98, 95, 9, 75, 66, 118, -46, -108, -91, 63, -24, -38, -8, -14, -50, -74, 127, 82, 23, -127, -122, 64, -108, 107, -46, -31, -63, 67, -101, -82, -2, -68, 54, -79, 110, 127, -71, 82, -99, -39, -76, -65, 36, -97, -119, -127, 73, -106, 12, -3, 94, 71, -68, -99, -98, 52, 127, -92, -78, -80, 127, -109, -88, 117, -102, 76, -96, -92, 47, -26, 26, 76, 127, -98, 77, 121, -114, 37, 118, 127, -87, 65, 102, -1, 127, -42, 124, 72, 49, 71, 32, 127, -100, -39, -93, 49, 127, -122, 88, -80, -12, 111, -95, -103, -44, -92, 102, -114, 65, 8, 127, -12, -127, 82, 127, -92, -23, 21, 127, -61, -34, -110, 107, -67, -88, -56, 73, 47, -44, -51, -44, -79, -76, -77, -111, -81, 127, -101, 81, 58, -34, 31, -21, -113, -27, -110, -52, 105, 93, 57, 49, 21, -97, -83, 93, 127, -107, 60, -109, -79, 127, -99, 46, -86, 127, -34, -127, 18, -74, 123, 53, 32, 52, -60, 73, -97, -108, -127, 110, 98, 82, -58, -112, 105, 118, -77, -54, -89, -80, 111, 25, 29, 34, -26, 80, -28, -106, 69, 89, -61, 106, 127, 35, 76, 95, 16, -34, 41, 127, 57, 2, -94, 4, -110, 81, -17, -113, 78, 20, -36, -62, -83, 127, 60, 84, -85, -97, -51, -122, -22, -82, 127, 127, -94, 127, -34, 127, -21, -91, -79, -34, -64, 35, -71, -103, -78, -115, 16, 48, 82, -96, -16, -82, 53, -124, -72, -57, -98, -124, 84, -44, -56, 127, -90, 54, 32, -60, 72, -79, -107, 70, -127, 95, 127, 85, 110, -127, 30, -84, -114, -113, -113, 63, 91, -127, 65, -117, 71, -104, -127, 47, 124, -12, -29, 96, 127, -127, -11, 48, -45, 127, -63, -116, -61, 70, 103, -3, -46, -67, -125, -83, 25, 127, -16, -40, -39, 13, 61, 59, -127, -83, 26, 79, -52, -93, 127, 127, -90, 127, -14, -79, 75, -105, 58, 61, -98, -65, -85, -94, 62, -88, 64, -90, -82, 91, -46, 32, -118, 127, -127, 51, 106, -35, -7, -58, -88, -56, -76, 127, 32, 22, 127, 57, -58, 88, -69, -62, 7, -115, -88, 112, 127, -75, -74, -84, -117, -37, 127, -24, 49, -105, -93, 80, 127, 77, -83, 37, -110, -127, -94, 8, 127, -96, -29, -106, 111, -95, 127, 86, 80, -92, 2, -119, -114, 64, -11, 102, 40, -92, -127, -41, -127, -24, -3, 86, 28, -90, -11, 127, 34, 127, 113, 86, 28, -126, -63, -78, -48, -32, 127, -28, 123, -79, -120, 127, 75, -100, 127, -127, -61, 127, 86, -54, -65, 113, -40, -74, -116, 76, 127, 76, -91, 88, 59, -119, 79, 88, 127, 90, 60, -103, -61, 66, 91, 127, -50, -59, -114, -98, 39, 79, 127, 57, -50, -107, -5, 40, -109, -117, -47, 76, -82, -84, -94, -127, -117, 49, 127, -76, 95, 44, 87, -84, 54, 127, 77, -98, -92, 43, -50, -88, -104, -70, 88, -57, 36, 33, -70, 127, -73, 127, 40, 96, 127, -41, -93, 127, 81, -51, -99, -107, 123, 60, -86, -102, 55, 75, -98, -13, 58, 37, -58, 78, 66, -127, 62, 64, -95, 0, 33, -91, -96, 127, -67, 57, 127, 120, 94, -6, 67, -87, -78, -27, -87, 127, 127, 127, 43, -82, -55, -78, -69, -89, 31, 71, 61, 83, -103, 127, 127, 63, -99, 39, -77, 79, 55, 127, -66, -121, -58, -90, -85, 29, 22, 83, 107, -125, -93, -96, 74, -54, 96, 106, -123, -99, -64, -86, -36, 26, 78, 62, 127, 99, 85, -112, 87, -87, -61, -104, 50, -118, 127, -66, 127, -100, 87, -104, 95, 38, -14, 79, -119, 78, 64, 58, 96, 105, 127, 95, -123, 72, -17, 127, -26, -98, 127, -5, -71, 20, -34, -93, -93, -75, 127, -84, -7, 63, 107, 92, 77, 1, 67, 113, 73, 8, -27, 61, -104, -93, -102, -6, -115, -107, 88, -45, 17, -75, -78, 50, 87, 7, 68, 127, 23, 41, -104, -39, -3, 58, 127, -30, 127, -100, 125, -106, -52, -120, -60, 68, 89, -98, -115, 107, 55, -127, 73, -60, -103, 32, 68, 127, -77, 64, 35, -109, 91, 127, 54, 44, -69, -54, -115, 83, 68, 127, 60, -109, -91, -112, -84, 57, 81, -105, 18, -60, 101, 81, -55, 103, 71, 76, -100, 127, 124, 127, -86, -83, 104, -43, -82, 127, 14, 127, -85, 66, 55, -47, -25, 127, -121, 127, 123, 127, 58, -76, -62, -85, -103, -123, -44, 75, 9, 16, 79, -61, 104, 107, 36, 127, 84, -16, -97, 71, 100, -7, -84, 62, 127, 17, 127, -98, 127, 61, -54, 127, 127, -80, -56, 89, -81, -91, 48, 102, -93, 44, 127, -91, -103, 27, -40, -65, 80, -102, 91, 41, 99, -92, 11, 121, 82, 127, -113, 106, 85, 118, -47, 99, -102, 53, 55, -92, -62, -72, -88, -20, 121, 64, 77, -94, 115, -84, 86, 108, -92, 106, 93, 112, 98, 65, 43, -91, 123, 62, 98, -81, -115, -87, -79, 29, 102, 103, 111, -42, -22, -87, 115, -111, -81, -93, 109, -93, 127, -84, 74, -108, 13, 114, 125, 101, -23, 97, 115, -83, 86, -109, -120, 82, -40, 92, 27, -89, -100, -101, -102, 101, 82, 88, -106, 116, -94, 87, 42, -66, 115, 88, 103, 114, 95, -80, 98, 89, -53, 108, 114, 93, -12, 96, -103, 118, -91, 91, -97, -84, -37, 83, -101, 115, 127, 127, 112, 94, -104, -23, 115, -105, -92, 68, -2, -74, -89, -95, 120, -38, -99, 97, 104, 109, 106, -82, 69, 56, -115, -118, 69, -109, -122, 119, 64, -87, -67, 97, 127, -101, 105, 113, -108, 78, 72, -103, 77, 127, 77, 127, 89, -68, 102, 88, -81, 102, 102, 105, 89, 46, 95, 108, 65, 115, 127, 57, -49, 101, 68, -19, -106, 90, 88, 87, 93, 108, -85, 122, 86, 102, 93, -91, 103, 86, 43, -79, 101, -90, 127, -98, 117, 67, -83, 110, -100, 105, -106, 125, -80, 109, 93, 60, -74, 65, 101, 94, 71, -120, -107, -99, -94, -95, 111, -16, 110, 79, 42, -73, -113, -99, 92, -127, 22, 84, -7, -74, -97, 91, 87, 91, 20, -90, 106, 108, 114, -29, -17, -89, 108, -95, 48, -69, -97, 101, -101, 97, 95, -104, 94, -118, -16, 65, -50, 94, -106, -86, -76, 82, -87, -91, -53, -10, 86, -68, -89, -96, 0, 64, -83, -91, -93, 79, -103, -87, 112, -109, 97, -82, -98, 127, -85, 84, 105, 71, -106, 108, 109, -100, -17, 94, 55, -105, 87, 46, 46, 89, 9, 106, 127, 94, 61, -49, 105, -91, -34, -87, 127, 71, -80, 113, -40, -33, 106, 49, -100, -26, -93, 62, -77, 104, 99, 104, -88, -112, 102, 84, -78, -65, 118, 92, -36, -35, -98, 104, 37, -79, -105, 69, 122, -87, -45, -67, -103, -35, -76, 0, -104, 73, -90, 94, 105, -28, 86, -77, -115, 62, -105, -91, 84, 96, 95, 100, 54, -101, -96, 105, 107, -84, 80, -101, -95, 108, -107, -127, -93, 32, -51, 32, 32, -110, 42, 107, -79, 12, -38, 97, -98, -95, -108, 104, 96, 92, -80, -102, 127, -13, -94, -86, -13, -87, 103, 89, 47, 46, -43, 102, -48, -96, 62, 107, -104, 85, 80, 39, 54, 93, 127, -127, 86, 100, 96, -9, -104, 100, -101, 89, 82, -108, 93, 5, -75, -97, 87, 72, 118, 83, -87, -96, 53, -88, -28, 84, 110, 83, -97, 88, 94, 105, 46, -90, -96, -88, -92, -84, -84, -110, 79, 64, 103, 93, 125, -127, 127, -66, -32, 64, -106, -41, -96, -23, 70, -72, -65, 98, -90, 95, -99, -69, 112, -87, -103, 119, -106, 97, 88, 85, 100, -81, 78, -91, -99, -83, -85, 85, 88, 71, -71, -105, 91, -102, -93, 103, 85, -68, -58, 82, 103, -100, 96, 94, 110, 126, -41, -90, -99, 87, 87, 104, 108, -19, -110, -97, 70, 76, -83, -25, -27, 105, 76, 78, -113, -69, -71, 99, -41, -90, 63, 89, -92, 64, -25, -78, 97, -95, 97, 92, -97, -63, -91, -89, 89, -87, 98, -100, -93, 60, -93, 91, -92, 114, -66, 97, 94, 115, -69, 77, -56, -93, 67, 84, 106, 109, 98, 83, -96, 80, -97, -32, -72, -107, -102, 99, 72, -70, -94, 81, -90, -80, 61, 127, 102, -100, -106, 92, 99, -7, 89, -89, 106, 35, -92, -46, 85, -104, -73, 66, 102, -83, 78, 96, 118, -81, 75, -95, -126, 109, 93, 111, 110, -94, -103, -83, 10, 76, 116, 107, -35, -90, 127, 95, 63, 74, 85, 98, 127, -111, 96, -71, 33, -106, 75, -27, 125, -68, -98, 95, 87, -72, 92, 22, -81, 70, 90, 65, -62, 83, -54, -127, -87, -10, 84, 70, -119, 90, 84, -90, 123, 93, 89, 95, 91, -92, -98, 124, 88, 105, -49, 101, 61, -98, 93, 104, 85, 70, -85, -105, 127, 84, -93, 31, -13, 98, -90, -98, -100, -90, 25, 107, 90, 5, 94, 90, 101, -101, 98, 97, 110, -83, -94, 119, -95, -94, -111, -71, 112, -58, 88, 11, -82, 47, -80, 91, 27, 64, 73, -19, -88, 112, -42, -111, -96, -79, 83, 88, -93, -106, 88, 107, -96, -13, 117, 27, -93, 93, 102, 28, 93, 106, -92, -64, 88, -88, -92, 84, -122, 118, 73, 119, 75, 116, 99, -86, -98, 93, -105, 55, 83, 122, 127, -92, -27, 105, -65, -77, 124, 100, 83, 87, 64, 89, 83, 76, -91, 44, -87, 95, 95, 98, 100, -104, -80, -78, -77, 90, 99, 104, 84, -94, -44, -99, 85, -21, 103, 88, -119, -121, -39, -53, -57, 18, 127, 123, 122, 114, 63, -108, 87, -89, -43, 55, 108, -96, 53, -88, 108, -100, 112, -88, 90, 122, 81, 100, -92, 62, 99, 70, 92, 67, 73, 89, -98, 87, -5, 87, -90, -84, 62, -8, -93, 112, -52, 23, -79, 127, 80, -110, 1, 111, 122, 107, 102, -49, 98, 116, 96, 107, -127, 97, -123, -85, -90, 62, -88, -82, 107, 78, 11, 71, -59, 96, 75, 67, 94, 104, 96, 89, -105, 91, 86, 63, 108, -10, 35, -93, 103, -96, -89, -100, -46, 78, 104, -92, -110, 88, 94, 72, 89, -76, -91, 21, 115, -10, 92, 24, -17, -75, 8, 81, 89, 89, -108, 74, -89, 80, 71, 102, 60, -99, -94, -107, -67, 73, 63, -91, 111, -80, 81, 87, 88, 113, 89, 104, -127, 98, 125, 88, -99, -77, 68, 96, -92, 91, 78, 24, 88, 106, 95, -47, -61, 83, -79, 74, 111, 90, -27, -104, -108, 63, -48, -95, -127, 66, -127, 28, 100, -94, 112, 81, 123, 97, 81, -49, -101, 121, 71, -36, -94, 98, 92, 8, 84, -102, 86, 101, -92, 78, 103, 41, -84, 79, 88, -91, -98, 45, -64, 39, 83, -41, -79, 22, -56, -73, 36, -89, -32, -57, 32, -70, 20, 56, 70, -4, -76, 47, 110, 43, 14, 69, -81, -85, 36, -62, 18, -103, -50, -10, 73, 5, 112, -94, -45, -50, -127, 111, -102, 49, 61, 24, 58, 42, -113, -59, 102, -127, 17, -78, -106, 53, -53, 71, 114, 31, 38, -23, 52, -88, 109, -108, -36, -104, 99, -78, -8, -82, 55, -99, -81, -103, -16, 42, -98, 49, 106, -78, 110, -92, -101, -51, -75, 72, -23, -62, -80, -74, -39, 48, 80, 46, -101, 45, -81, 106, -88, -103, 40, 35, 53, 69, 68, -63, 42, 52, -32, 55, 79, 74, -43, 55, -84, 82, 86, 0, -80, -71, -60, -45, -96, 84, -71, -16, 12, 30, -94, -16, 48, -70, -67, 112, -24, -85, -88, -72, 44, -45, -52, 102, 62, 106, -65, -55, 53, -29, -85, -89, -127, -70, -84, 107, -2, -76, -28, 69, 52, -91, 104, 68, -89, 75, 105, -84, 112, 103, 10, 76, 108, -14, 108, 85, -96, 108, 116, 73, 64, -105, 5, 59, -45, 50, 106, 47, 11, 41, 72, 44, -65, 59, 47, 63, 57, 72, -83, 36, 87, 97, 102, -98, 70, 111, -55, -42, 63, -101, 69, -96, -25, -26, -98, 83, -88, 68, -107, 100, -84, 109, 114, 113, -51, 111, 103, 114, 79, -89, -93, -67, -80, -87, 79, 4, 64, 53, 100, -35, -89, -67, 50, -14, -28, -11, -25, -34, -56, 117, 65, -16, -113, -97, 47, -52, 92, -40, -28, -51, 47, -83, -101, -54, -55, 44, -61, 82, 111, -55, 73, -76, -40, -79, -53, 24, -80, -96, -87, 55, -90, 18, 8, 89, 53, -53, -86, -83, 44, 117, -81, -66, -68, 107, -91, -66, 104, -85, 63, -78, -73, 30, -16, 24, 53, 111, -77, 61, 101, -96, -74, 103, 114, -69, 52, 87, 4, 104, -37, 98, 55, 41, 60, -86, 117, -85, -32, -80, 22, 106, -60, 73, -57, -7, 91, -99, -85, -37, -69, 84, -95, -27, 10, 102, 1, -112, 63, 112, -78, -20, 15, 116, -38, -31, -91, 93, 62, -79, -48, 56, 37, 68, -44, -28, -60, -61, -70, -91, -61, 107, -86, 66, 53, -31, 26, -13, -93, -67, -90, -41, 92, 71, 46, 1, 24, -81, -60, 76, 108, -92, -119, -92, -68, 102, -79, 30, -68, 112, -24, -120, 14, -56, 100, 40, 35, -118, -48, 58, -86, -89, -103, 92, 81, 66, -47, -94, 85, 104, -66, -43, -91, -63, 99, 27, 27, 27, -19, 63, -57, -86, 59, 76, -43, 89, 104, 34, 57, 78, 18, -30, 23, 97, 43, 5, -68, -9, -88, 77, -30, -85, 65, 18, -32, -48, -90, 108, 60, 68, -74, -83, 22, -100, -19, 43, 102, 102, -72, 113, 66, 118, 26, -75, -60, -25, -50, 36, -54, -84, -60, 51, 13, 33, 64, -70, -25, -68, 50, -94, -48, -47, -79, -121, 66, -32, -58, 114, -68, 49, 36, -49, 57, -59, -94, 55, -108, 79, 110, 77, 97, -68, 23, -70, -96, -97, -101, 52, 74, 51, -80, -95, 57, -83, -108, 36, 109, -9, -26, 79, 107, -105, 12, 42, 20, 100, -51, -100, -50, -41, 85, 9, 45, -72, -98, -67, 21, 111, -10, -29, -35, 22, 48, 43, -104, -66, 0, 60, -50, -77, 113, 113, -74, 110, -9, -67, 61, -83, 49, 34, -80, -64, -69, -79, 39, -72, 54, -79, -64, -95, -31, 25, -99, 109, -74, 35, 85, -69, 3, -59, -76, -44, -89, 99, 7, 8, 104, 48, -48, 74, -55, -50, 24, -95, -68, 99, 105, -57, -60, -47, -94, -26, 117, -5, 41, -86, -74, 68, 110, 68, 23, 41, -124, -112, -74, 9, 112, -77, -22, 53, 92, -82, 108, 75, 65, -78, 4, -86, -94, 44, 7, 94, -64, -76, -106, -36, -117, -20, -24, 72, 30, -73, 64, 112, 29, 114, 100, 71, 7, -102, -41, 67, -42, -24, 110, -23, 94, -88, -96, 113, 63, -88, 114, -51, -32, 106, 70, 34, -50, 93, -37, -61, -95, 68, 105, 69, -75, 77, 48, -100, 67, 73, 113, 75, 47, -90, -56, 39, 87, 112, -35, -68, -127, -91, 29, 63, 105, 44, -36, -83, -27, 33, -88, -103, -36, 68, -68, -65, -82, -109, -115, 39, 107, -68, 78, 26, 78, -62, 43, 111, 61, -83, -76, 23, -36, -80, -86, -93, 67, 66, 27, 22, -48, 115, -55, 117, -127, 88, 110, -40, -73, 105, 66, -33, -78, -93, 112, 44, -71, -83, 49, 65, -77, -11, 32, 33, -75, 70, 54, 40, 50, 43, -79, -1, 28, -75, -87, 112, -50, 33, 106, 94, 83, -20, 51, -70, -63, -53, -76, 118, 114, 104, -43, -63, -49, -58, -72, -74, 2, 95, 43, 63, -57, 111, 112, 50, -86, -104, -57, 65, 45, 112, -25, -107, -50, -75, -71, 8, 8, 68, 89, -102, -78, -83, 62, -49, 78, 90, -96, -82, -57, -75, -24, 18, 51, 19, 109, 77, 73, -92, 72, -74, -50, 46, 44, -98, 116, -53, 111, -86, 71, -85, 78, 27, -6, 64, -99, 64, 53, 42, 84, 94, 105, 81, -103, 58, -15, 114, -20, -82, 116, -5, -55, 2, -27, -69, -79, -101, 113, -64, -7, 52, 101, 73, 59, 13, 60, 91, 60, 5, -12, 52, -74, -79, -84, -7, -90, -88, 72, -51, 14, -78, -56, 30, 72, -127, 56, 106, 16, 43, -87, 27, 1, 49, 111, -20, 114, -84, 111, -89, -39, -97, -33, 51, 75, -80, -93, 86, 35, -50, 56, -47, -87, 26, 40, 119, -92, 46, 34, -93, 77, 85, 41, 37, -56, -71, -101, 68, 60, 98, 47, -92, -76, -85, -68, 44, 73, -83, -25, -54, 94, 70, -9, 80, 45, 77, -39, 103, 109, 111, -69, -71, 89, -20, -69, 111, 85, 121, -80, 55, 38, -37, -24, 100, -102, 111, 105, 112, 54, -59, -44, -89, -83, -99, -29, 56, 5, 15, 61, -48, 85, 98, 21, 108, 64, -15, -78, 20, 92, 45, -68, 56, 111, 17, 112, -81, 106, 46, -47, 105, 110, -79, -43};

static const int32_t L025_dw_bias[1024] = {-451, -4096, 37851, -570, -415, 17261, 262, -1814, 35806, 53288, -6598, 4157, 10548, -3578, 34481, -1581, 15362, -278, 31230, -5547, -270, -973, -955, 27543, -653, 2492, -660, 10337, -280, 21733, -722, -190, 27493, -3162, 17457, 39861, 6329, -364, -1250, 3093, 25160, -931, 27281, -549, -1632, 12503, -390, -643, -361, 8350, -1752, -1208, 30060, -1220, -893, -10797, 29802, 30256, -2312, 21409, -7944, -695, -797, -238, 4554, 27024, 37582, 9080, 21059, 21785, 18650, -3325, 31430, -671, 30898, -1444, 16577, -1088, -511, -1870, -785, -4079, -3239, 5131, 22034, 895, 21019, 53786, -8355, -2191, -1393, -1672, 54871, 24655, 36233, 26134, -520, -1117, -822, 31352, -6265, 21025, 4036, -2799, -2410, -14682, -750, -860, -1875, -12736, 22139, -291, -4028, 43754, -1620, -5129, -1018, -7105, -319, 35906, -56, -1604, -489, 34441, 25499, 3194, -156, 34579, -726, -339, -355, -471, -17434, 22559, 6483, -1943, 27785, 43762, 7085, -1172, 38941, 27607, 21262, -262, 3744, 33, -2618, -461, 1035, -162, 25611, -593, -13479, 33248, 38437, -520, 27542, 42375, 8099, -18416, 20567, -299, -1240, -1195, 29087, -964, -5129, 37640, -310, 10702, 16159, 3249, 7766, -1337, -4663, -3575, 26772, 352, -691, -585, 423, -1323, -595, -1846, 24218, -562, -18381, -409, -18179, 603, -2136, -100, -1145, -996, 591, 33600, -1308, -2526, -1231, -2550, -1087, 21697, -23955, 74, -9767, -889, 33046, -1065, 1354, -3147, 9627, -2507, 23494, -55, 24507, -588, -11781, 25046, -2044, 25060, 249, 30444, -1367, 15011, 1595, 755, 2774, 26093, -17895, -2535, -848, 93, 23071, 26378, 32428, 20247, 20077, -463, 5249, -691, -1234, 23872, 22892, 22978, 31447, -686, -1790, -16694, -2787, -1931, 27075, 18934, 3238, -984, -1019, 58, 22346, -1692, -407, -2564, 2329, 5029, 23039, -2900, 43268, -5839, -800, 29299, -2842, 37047, -125, 11958, 29389, -1092, 36703, 3530, -3218, 2318, -8555, 22004, 622, 1344, -141, 35720, -270, 26048, -24358, -409, -3517, 36247, 26657, -465, 2703, 17333, 16282, 25322, 12925, 36402, 26742, -607, 31449, -273, 25583, 36404, -276, 52281, -17139, -172, 6426, 35911, -206, -1808, 24368, -1098, -1309, 5718, 57357, -961, -19942, -19330, 4318, -2547, -489, -303, -12474, -6161, -3578, -262, 30513, 3081, 32973, -338, 13641, -177, -4156, 2580, 10277, -1567, -2914, 30392, 888, 32884, -80, 1185, -2146, -764, 6497, -1974, 45361, -550, -3175, 22197, 22386, -24713, 956, 95, 7000, 40780, -3579, -4930, 25659, 31529, -923, -436, -1070, 4469, -279, 40586, 3857, 24714, -744, 44169, 5281, 18907, -419, -963, 4384, -4595, 36867, 23414, -1211, 21694, 20799, -629, -519, -134, -633, -2001, 26074, 21632, -3020, 2356, 23370, -3784, 20012, 23894, 6031, 24029, -279, 31638, 22574, 8459, -1410, -2399, 21807, 12914, -541, 1797, 231, 1859, -435, 23310, 26919, 55840, -188, -398, -1444, 46048, 21082, -672, -5717, 29787, 26945, 730, 27211, -1234, -15351, -3031, -9772, 12482, -3587, -12, 37230, -729, -1047, 31198, -2485, 6129, -17232, -2109, 168, -315, 552, -336, 6451, -1460, 38896, 30055, -650, 30171, -1525, -380, 22013, -300, -6918, 26769, 29060, -2486, 3237, -469, 24721, 28975, 26259, -188, 29198, 12227, -621, 7866, 1840, 33604, 10891, -1333, -780, -369, 26817, 25680, 39632, 25663, -412, 40957, 29219, -600, -72, -2286, -2149, -2016, 175, -404, 10808, 1117, -331, 22029, 3378, 22063, -776, -513, 41605, 402, 379, 54648, -1018, 415, 26290, -7503, 19655, 36958, -738, 27413, -393, 7408, -1275, -653, -412, -3809, 19519, 20925, 35827, 25115, -1363, -1087, -915, -2243, 19005, -3401, 24165, 22237, -2457, 2, 48439, 24103, -1423, 1067, 14652, -1429, -17072, -342, -445, 4219, 18349, 33514, -730, -190, -1716, -530, -4045, 31538, 20468, -20513, 1220, 39714, 821, 9943, -783, -3214, -1129, 27402, 21178, -590, -600, 7516, 29208, 6099, 1249, 19791, 7570, 5229, 22152, -1703, 28522, -17793, -284, 22297, 38177, 20175, 28001, -615, 24213, -13785, 20219, 26485, -16945, 34441, -2537, 27986, 9091, -309, -694, 517, -1302, 16629, -660, 20290, 28967, -1163, 4047, -1538, 7561, -288, -1144, 30786, -2869, 33541, 5707, 29055, 38163, 26075, -543, 4549, 27586, 25023, -380, 24041, 336, 8173, -961, -1878, 20237, 24742, -1689, 1250, 745, -434, 4504, 657, -523, 29926, 31998, 5111, 21973, 29786, -896, -527, 17377, 6250, -344, -824, 14824, -1094, 22862, 41844, -473, -349, -816, -1373, 35433, 19845, 36726, 25929, -17060, -364, -820, -434, 18209, -2854, 3787, -8968, 8296, -453, -552, -485, 26270, -1053, -1120, 12692, 35509, 9025, 3449, -681, -189, 32644, 4428, -3324, 7441, 1163, -822, 19117, -3135, 152, -365, 10282, -623, 8343, 6171, 21765, 32, 8734, -419, 30193, -2182, -3049, 28474, -390, -88, 1226, -1115, -450, 46886, 48597, -605, -26263, 1398, 2405, -1926, -566, 19775, -4298, -560, 8130, -1216, -196, 22205, -423, -7747, 27140, 31839, 665, -1585, 23735, 27039, 35096, 39667, 6262, -4151, 6099, -4916, -51, -3751, 166, 25533, -621, 2951, -1103, 18102, 23329, -727, 27344, 32399, 38390, -1184, -470, -1440, -20065, -6448, 21878, 2521, 24493, -798, -478, -13368, 8947, -6579, 27644, -2854, -398, 46396, 27068, 19382, -763, -1027, 21881, 35897, -615, -3587, 35397, 2151, -758, -8963, -579, -540, -141, -174, -845, -956, 40168, 51581, -2343, 26097, 27084, 4196, 34399, -439, 5122, 1561, -2074, -699, -902, 26378, 18529, -938, 22804, 24562, 2025, -2812, -1086, 31711, 4566, -2141, -321, 22427, -918, -365, -597, -1116, -646, 486, 5107, -436, 17328, -165, 43779, -1431, -7828, 1715, -441, 21829, 20865, 17536, 19236, -2204, -795, -21072, -484, 27957, 4373, 26815, -1360, 1266, -626, -1029, 29007, 31646, 3615, 1226, 24467, -6041, -335, -3432, -15754, -250, -603, 30568, -508, 58112, 5336, -412, -27095, 23378, 4624, 25335, 24, 18920, -2740, 24202, -6536, 15562, -1104, -4418, 33120, -203, -6459, -2705, -2787, -5, -714, -1576, 19711, -7136, 1359, 832, 31140, 15719, 5684, 349, 36989, -7566, 5770, -1766, 18871, -507, 2848, 29467, -13716, -12731, -4303, -4394, -318, 30054, -591, -1603, -200, -1165, -129, -1750, 39182, 51144, 40683, -6143, 18502, 24110, -1668, -1584, -7286, -7347, 1285, -338, -1380, -507, -193, 10250, -1489, -19837, 24536, -2352, -12081, -618, 116, -13256, 5020, 26403, 4808, 26652, 47179, 21692, -715, -1122, -1249, 21863, 24122, -916, -740, -1738, -743, 4030, 24371, -8104, -1392, 6328, -2926, 30002, 59, 22202, 1536, -74, -917, -610, 26570, -1083, 22550, -119, -921, 3275, -642, 25507, 23973, 25833, 21826, -884, -138, 23162, -2456, 22025, -4089, -2585, -1850, -225, -479, -28820, 6, 3545, -2306, 3324, 24586, 16354, -945, -690, 21023, 520, -19557, 24914, -2245, -1949, -11777, 5332, 24492, 6010, 19555, 5372, -371, 6844, 2947, 26218, 35370, -3525, -6473, 27458, -137, -2368, 54, -11777, -926, 29020, -704, -3744, -3780, -1132, -1813, 1825, 30741, -356, -5482, -5161, 20265, -1181, 5469, -4671, 1287, 40289, 3622, -1304, -4756, 5150, 2864, 30101, 28711};

static const int32_t L025_dw_output_multiplier[1024] = {1361184512, 1098753024, 1744285440, 1165261056, 1416866176, 1540300672, 1399643392, 1896262784, 2076781824, 1439375232, 1227738624, 1231086464, 1410274688, 1510089472, 1100064128, 1407773312, 1509218304, 1212410240, 1496907776, 1299706496, 1790328064, 1969068672, 1304907648, 1829737088, 1346910080, 1429185152, 1649458688, 1144951680, 2025660544, 1989282688, 1845603072, 1104508672, 1597610752, 1568648448, 1346206592, 1331771264, 1426839424, 2125452672, 1307550848, 1780043264, 1224285952, 1599578496, 1245508096, 1673840256, 1263768576, 2004962304, 1340365824, 2027697664, 1131588480, 1122537472, 1478099584, 1973600000, 1653241728, 1436937600, 1147596544, 1147564672, 1638033664, 1584263808, 1342175616, 1236328064, 1765249024, 1521968128, 1094158848, 1131428992, 1471490304, 1352385024, 1242216192, 1966167680, 2018611200, 2142759424, 1902005504, 1610649216, 1696401536, 1297984256, 1190846976, 1090785792, 1557756288, 1906071552, 1802104576, 1558745728, 1106398464, 1262110720, 1373163648, 1650790528, 2007718528, 1733076096, 1079716224, 1334195840, 1497280384, 1665995264, 1141914240, 1082484096, 1401174144, 1739189504, 1835193728, 1964979584, 1308523264, 1787333888, 1084234880, 1358257024, 1826312576, 2046061696, 1432115584, 1213862016, 1597241216, 1666421760, 1186628864, 1489745536, 1242062592, 1641960064, 2000233344, 2084671744, 1252729472, 1475682944, 1237572864, 1268717824, 1220644992, 1505539200, 1304307328, 1829992320, 1122458752, 1223938944, 1462171776, 1471090432, 1986304512, 1372452608, 1682473728, 1694060672, 1253622912, 1643594880, 1523223168, 1577440768, 1412267136, 1900166272, 1287039104, 1812833152, 1597186816, 1412649088, 1236950528, 1762993536, 1467661440, 1152535040, 2109561216, 2145836416, 1088805120, 1169545984, 1775898752, 1154236160, 2041601408, 1670741248, 1677894272, 1674189568, 1157460352, 2030057472, 1803192448, 1906728832, 1977896064, 1745006720, 1476187648, 1284145920, 2084440448, 1122139776, 2088150528, 1334805376, 1724412160, 1660892032, 1944082176, 1639015808, 1338699008, 1080545152, 1297484416, 2031804160, 1208276608, 1681744640, 1574849408, 1253681536, 1752084224, 1624772992, 1146892800, 1462101888, 1375516288, 1129934848, 2126184960, 1112279296, 1158174592, 1347716736, 1846734464, 1608780928, 1739421184, 1349771904, 1427618560, 1873556736, 2052083968, 1556564352, 1675254912, 1745915392, 1872637312, 1323158016, 1191540608, 1176365568, 1514986624, 1078021248, 1117574912, 1611615360, 1210898688, 1913394560, 1401018240, 1226518656, 1634099968, 1110888064, 1488364672, 1502077184, 1804308352, 2025273984, 1097968896, 1713713024, 1351190656, 1857148544, 1178183552, 1604279040, 1108086912, 1611531264, 1627154688, 1341535232, 2077791232, 1582943488, 1211724544, 1972052096, 1343758080, 1268471296, 1427604864, 1255134464, 1343961856, 1766224512, 1489263744, 1117805312, 1262523008, 2065359360, 1890732800, 1153954688, 1642041088, 1102257792, 1204951552, 1713915904, 1125651328, 1616545280, 1735729920, 1538439808, 1745963648, 1549066112, 1568015616, 1332973056, 1217773568, 1177207040, 1292387200, 1841497216, 1834433024, 1754213248, 1578540288, 1543705856, 1198677504, 1150106752, 1474157696, 1179368960, 1186942208, 1997189248, 1560906112, 1248143872, 1290894208, 1168821248, 1079331968, 1953859072, 1666582528, 1376399616, 1354872960, 1689534976, 1892731776, 1406725120, 1186920960, 2002092160, 2008260480, 1102697216, 2027465472, 1982323840, 1719075712, 1076848256, 1138873600, 1284382848, 1337369216, 1660273792, 1964362752, 1763691136, 1276339968, 1320739328, 1278342656, 1267006592, 1868163456, 1971897088, 1783336448, 2139046912, 1698292608, 1617583872, 2001916160, 1746805248, 1137725312, 1628731264, 1156176128, 1414839424, 1185861632, 1988697216, 1178196736, 1408419968, 1097172096, 1398639744, 1798102656, 1578771456, 1323344768, 1286515328, 2080432512, 1348184704, 1175512064, 1166285568, 1986937344, 1796280704, 1820785792, 1575740288, 1429119872, 1554367104, 1578746368, 1251594496, 1963135232, 1311446912, 1593859456, 1301525504, 1969929344, 1346713216, 1243947776, 1432105216, 1213469440, 1924629248, 1403256576, 1769028864, 1666349184, 1221767680, 1712652032, 1227177728, 1169290240, 1932734080, 1690830592, 1127776768, 2139494912, 1586918016, 2096787200, 2006198784, 1288094848, 1560685696, 1841332864, 1779324032, 1280847360, 1247851776, 1419928832, 1264222848, 1223764352, 1222000256, 1584063744, 1780985344, 1867498368, 1727416960, 1406942464, 1876790656, 1395080192, 1382251520, 1273482624, 1095575680, 1600935424, 2004570368, 1582155904, 1533447552, 1761013632, 2016759168, 1761224704, 1872418304, 1706743808, 1593355008, 1097233152, 2073748736, 1376750208, 1323588096, 2021062272, 1084161024, 1301821824, 1239786368, 1828279168, 1479906304, 1228381696, 1819372160, 2073252352, 1908718208, 2033329024, 1683293952, 1385417728, 1737363328, 1603889792, 1524001920, 2056402816, 1571722112, 1173326592, 2076449664, 1903480192, 1463203456, 2087079680, 1841269888, 1108158592, 1337443968, 1373393024, 1173750144, 1643544576, 1600884608, 1925446528, 1280744960, 1142884224, 1266157312, 2072257152, 1579618816, 1933826944, 1153708416, 1252894336, 2070768384, 1307259136, 1545009920, 1082829824, 2025994752, 1214608512, 1919571968, 1764260992, 1316691072, 1216118912, 1556545280, 1397554816, 1669180416, 1742383104, 1530057856, 1251133184, 1889330176, 1892216960, 2145873408, 2040197760, 1504246784, 1472737024, 1499974016, 1463212800, 1588611328, 1295992192, 1315830272, 1317955328, 1904000384, 1262820096, 1409570432, 1645718016, 1467994752, 1324342016, 1816028928, 1208297856, 1268096256, 1852431232, 1150396672, 1363614336, 2020227584, 1704892672, 1818048256, 1441832576, 1457948032, 1717549184, 2066304512, 2140113792, 1833157632, 1884594560, 1503871744, 1842164224, 1723216000, 1892288256, 1487864064, 1723650688, 1289933568, 1311552512, 1141568128, 1274511744, 1539905152, 1459351040, 2086130304, 1718530560, 2051278720, 1243771392, 1488292480, 1301677056, 1302048384, 1632608384, 1368223616, 1128413184, 1288868736, 1872980608, 1245850880, 1725071104, 1077158528, 1156311936, 1667925504, 1112957696, 1444353408, 1234824448, 1653458176, 1662734464, 1636808576, 1573468544, 1256966528, 1143706752, 2075210240, 1818165120, 1769621376, 2129008256, 1262703360, 1437683712, 1390141056, 1591572864, 1094594304, 1636317696, 1950314496, 1732534144, 1465317888, 1710602496, 1587054208, 1209924736, 1279737728, 1799086208, 1467999616, 1420736768, 1941380992, 1142363008, 2074370944, 2035409664, 1270321536, 1559700096, 1181053568, 1263518720, 1234994432, 1432085632, 1668870272, 1993720832, 1366798080, 1092491264, 1077164032, 1706851200, 2071481856, 2019385216, 1875762816, 1117152384, 1131087744, 1716087808, 1426798592, 1243059968, 1666096640, 1473617024, 1403935232, 1499188480, 1130092928, 1112850688, 1789464832, 1835990912, 1264820608, 1090826240, 1240276096, 1355110400, 1737418368, 1670996864, 1521931520, 1885382144, 1160769408, 1882851072, 1302320512, 1264774912, 1596640128, 2109627264, 1166985472, 1176515200, 1529252864, 1115999616, 1836198784, 1287996544, 1386545408, 1479091456, 1616868992, 1484127104, 2055493248, 1574251904, 1731376896, 1756976896, 1197891840, 1171413760, 2109577728, 1300312064, 1340596352, 1231107840, 1162449792, 1468595712, 1964257408, 1760085120, 1872093824, 1434872192, 1148223104, 1124083072, 1402225536, 1707091840, 2021330176, 1449527296, 1119370240, 1267868928, 1105231744, 1507920896, 1803222272, 1948792576, 1170256640, 1202450048, 1846560896, 1636850816, 1474959360, 1526120960, 1900045440, 1140878592, 1097741824, 2080349312, 1607649664, 1830442368, 1411596544, 1487783808, 1229770624, 1202045696, 1348532096, 1437676288, 1480542976, 1721662080, 1155571072, 1119820800, 1655458688, 1308720768, 1654197248, 1810943488, 1114194048, 2012762752, 1433625600, 1459615616, 1333992576, 1130449920, 1358014592, 1162194944, 1552291840, 1467460992, 1657350528, 1251895808, 1641297536, 1543636736, 1423001856, 1542554112, 1084192000, 1540671232, 1401137792, 1147505408, 2003309952, 1911942784, 2033524992, 1795247744, 1995904640, 1588554240, 2051861632, 1756296960, 1519814144, 1244659712, 1087150720, 1088228224, 1874505472, 1515833984, 1765002624, 1176879104, 1202929408, 1727888896, 2111836928, 1709966336, 1434640000, 1630668544, 1145514624, 1430208128, 1488256256, 1480884992, 1217936256, 1107358208, 1345544576, 1151589504, 1079033984, 1457848064, 1487091712, 1268502144, 1585724800, 1506564352, 1327073664, 1922280320, 1982982912, 1173080064, 1963675904, 1898963712, 1976907264, 1210931968, 1280331264, 1357816832, 1462234112, 1452653056, 1607617792, 2078705408, 1407664640, 2103160320, 1993466112, 1581890944, 1211006336, 1125771520, 1172817664, 1197750016, 1262922880, 1588640896, 2075976064, 1104420736, 2047978240, 2034043648, 1132896768, 1341956352, 1639957632, 1301609344, 1878886528, 1584148480, 1993637760, 1371280128, 1481289600, 1896844672, 2140336640, 2104269056, 1186096128, 1933569664, 1942508160, 1107359488, 1100820736, 2030738176, 1465239936, 1850819456, 1199391360, 1268487808, 1853007360, 1150381824, 1467030912, 1752300928, 1764367488, 2010843136, 1269317760, 1388771328, 1554651776, 1683914112, 1807353600, 1092437376, 1926154624, 2107381376, 1181846144, 1082927104, 1558258048, 1884588928, 1597709312, 1418818176, 1926981376, 1367576960, 1435050240, 1844380800, 1474528512, 1767172608, 1640676736, 1195139584, 2102210176, 1112273408, 1126414720, 1538786816, 2086857216, 1421544704, 1965214464, 1734955264, 1252030336, 1388281472, 1436818816, 1167886464, 1278822272, 1665198720, 1922923776, 1918929152, 1459052160, 1160498304, 2131821952, 1671281152, 1375108224, 1777490048, 1165162368, 1092053248, 1298578688, 1764712704, 1267134848, 1243403520, 1170095616, 1100474112, 1903175424, 1982523392, 1739325312, 1432484736, 1543448320, 1970766976, 1490154880, 1241326848, 1134107264, 1686485376, 1799846016, 1183476736, 1308487680, 1655486464, 1102491136, 1332717440, 1200815744, 1455676032, 1107037824, 1218580992, 1954766208, 1592607872, 1214319744, 1304969984, 1912494464, 1154741632, 2016784256, 1278030208, 1108282624, 1258192640, 1288712832, 1438566528, 1394075264, 1207152256, 2074279680, 1117293440, 1177621888, 1786443904, 1656972160, 1086365568, 1461691392, 2116901504, 1995263872, 1763038336, 1200155008, 1235308800, 1229455232, 1980474624, 1818325120, 1464109056, 1278257152, 1400935680, 1379640064, 1962380288, 1143824000, 2045568384, 1121518336, 1203472512, 1414249600, 1890999552, 1563347072, 1299672320, 1695659776, 1607645056, 1664778112, 1202957312, 2128971008, 1527920896, 2126814208, 1522738048, 1485160832, 1329552256, 1883409024, 1787075456, 1266234368, 1479125376, 1517327232, 1158249088, 1355980288, 2029822464, 1149461760, 1509466368, 1263049600, 1958946816, 1926174720, 1405782272, 1700588672, 1921886976, 2108057984, 1663559808, 1298280448, 1472658432, 1681866240, 1464433280, 1152433024, 1198744704, 1656565504, 1182614656, 1564434688, 1888910848, 1281915904, 1593504256, 1995745024, 2076947456, 1654266880, 1461142656, 1270235008, 1882848768, 1582312320, 1754600320, 2136936064, 1675277440, 1657730432, 1924216576, 1895619328, 1922165120, 1247888768, 2063184896, 1991433728, 1908604928, 1129410944, 1967369344, 2019350016, 1143372288, 2007776512, 1314393216, 1154925056, 1724479232, 1208962176, 1555825024, 1368387968, 1083797504, 1776481664, 1954515328, 1140129280, 1169344640, 1815508096, 1468462208, 2062026624, 2095218816, 1366365568, 2031614208, 1254380928, 2055757440, 2046922624, 1670780032, 1146549504, 2038865024, 1342439296, 1809131392, 1476359680, 1465928064, 1515144960, 1084369792, 1514328448, 1495945472, 1388570752, 1866965120, 1211385472, 2086162560, 1997967232, 1416324864, 1754020224, 1291410432, 2117879808, 1418068096, 1872756352, 1491064960, 2073278592, 1108665600, 1472429952, 1348165760, 1706932224, 1190586112, 2018787456, 1479735424, 1103849984, 1093375872, 1176658688, 1118470528, 1626207744, 1403562112, 2143979648, 1786147584, 1093017472, 1564894592, 1075422976, 1357412992, 1669679360, 1660561792, 1212554112, 1145434624, 2074741888, 1404102272, 1349265536, 1522704512, 1833380480, 1695231360, 1470490880, 1216250752, 2060424832, 2094818432, 1126146432, 2035207936, 1870277632, 1115426688, 1566596736, 1593161728, 1342498688, 1131311360, 1381564800, 1295360640, 1747834880, 1938450560, 1474920448};
static const int32_t L025_dw_output_shift[1024] = {-7, -5, -8, -4, -7, -7, -5, -6, -8, -8, -6, -6, -7, -7, -7, -7, -7, -7, -7, -5, -8, -8, -7, -8, -7, -6, -7, -6, -8, -8, -7, -5, -8, -7, -7, -8, -6, -8, -7, -6, -7, -7, -7, -7, -7, -7, -7, -8, -7, -7, -5, -7, -8, -7, -5, -7, -8, -8, -6, -7, -6, -7, -6, -7, -6, -7, -8, -7, -8, -7, -8, -7, -8, -7, -7, -5, -7, -6, -7, -6, -6, -6, -7, -6, -8, -6, -7, -8, -6, -6, -7, -5, -8, -8, -8, -8, -7, -8, -7, -8, -8, -8, -6, -6, -6, -7, -7, -7, -7, -7, -8, -8, -6, -8, -7, -7, -6, -5, -7, -8, -7, -5, -7, -8, -8, -6, -6, -8, -7, -7, -7, -7, -7, -8, -6, -7, -8, -8, -6, -7, -8, -7, -8, -8, -6, -4, -7, -7, -6, -7, -7, -5, -5, -8, -8, -7, -8, -8, -7, -6, -8, -6, -8, -7, -8, -7, -8, -8, -7, -6, -7, -7, -6, -7, -6, -7, -7, -7, -7, -7, -6, -7, -8, -6, -6, -7, -7, -7, -8, -7, -5, -7, -8, -7, -6, -8, -8, -7, -7, -7, -7, -7, -7, -2, -7, -8, -8, -7, -6, -5, -7, -7, -8, -8, -7, -7, -5, -8, -7, -8, -7, -8, -8, -7, -7, -6, -5, -7, -7, -7, -7, -6, -7, -8, -8, -7, -7, -8, -5, -7, -8, -7, -6, -8, -7, -7, -6, -6, -7, -7, -7, -7, -6, -7, -7, -6, -8, -8, -7, -7, -6, -6, -7, -7, -8, -7, -7, -7, -7, -7, -7, -7, -8, -7, -8, -6, -6, -6, -7, -8, -6, -6, -8, -8, -7, -7, -6, -7, -6, -8, -8, -7, -5, -7, -7, -7, -7, -8, -8, -8, -8, -8, -8, -8, -7, -8, -6, -7, -6, -8, -7, -7, -7, -5, -7, -6, -8, -7, -7, -6, -6, -5, -8, -7, -7, -6, -6, -7, -8, -6, -8, -7, -7, -4, -8, -6, -6, -7, -6, -8, -6, -8, -6, -6, -6, -7, -6, -7, -8, -7, -7, -7, -7, -6, -6, -6, -7, -8, -7, -5, -7, -7, -7, -7, -6, -7, -7, -8, -6, -8, -6, -8, -6, -7, -7, -8, -6, -8, -8, -8, -7, -8, -7, -7, -7, -8, -7, -7, -8, -7, -7, -6, -8, -6, -7, -8, -7, -8, -7, -8, -7, -6, -7, -6, -8, -6, -7, -6, -5, -6, -8, -8, -7, -8, -7, -7, -7, -8, -8, -7, -7, -7, -7, -6, -8, -6, -7, -7, -6, -7, -7, -5, -8, -6, -7, -7, -7, -6, -6, -7, -8, -7, -5, -7, -6, -8, -8, -8, -7, -8, -7, -7, -7, -7, -6, -7, -7, -6, -6, -7, -7, -8, -7, -5, -8, -6, -6, -7, -6, -8, -7, -5, -7, -5, -8, -8, -8, -7, -6, -8, -8, -7, -5, -7, -7, -7, -6, -7, -7, -6, -7, -8, -6, -7, -6, -7, -8, -6, -5, -8, -8, -5, -7, -7, -7, -8, -7, -8, -7, -7, -8, -7, -5, -7, -7, -8, -8, -8, -7, -7, -5, -6, -7, -7, -8, -8, -7, -5, -8, -6, -7, -6, -7, -7, -7, -7, -6, -7, -8, -7, -5, -7, -7, -6, -7, -8, -8, -7, -6, -7, -6, -7, -8, -8, -7, -7, -7, -7, -7, -6, -8, -6, -6, -7, -6, -6, -8, -7, -7, -7, -7, -8, -8, -7, -8, -7, -8, -7, -7, -8, -7, -7, -7, -8, -6, -5, -7, -7, -7, -7, -7, -7, -7, -6, -6, -7, -7, -8, -7, -7, -7, -7, -6, -8, -8, -8, -7, -6, -7, -7, -7, -8, -6, -6, -7, -7, -7, -7, -7, -6, -5, -7, -6, -6, -6, -8, -7, -6, -8, -7, -5, -7, -7, -6, -7, -7, -7, -7, -8, -8, -7, -7, -7, -7, -8, -7, -8, -7, -6, -7, -7, -5, -7, -6, -6, -7, -6, -8, -7, -7, -8, -7, -6, -7, -7, -7, -6, -8, -5, -8, -6, -7, -7, -6, -6, -7, -7, -8, -5, -7, -7, -6, -7, -8, -6, -6, -7, -7, -7, -7, -8, -7, -7, -6, -7, -7, -8, -8, -7, -7, -6, -6, -6, -7, -7, -8, -8, -7, -7, -6, -7, -7, -7, -8, -8, -6, -8, -8, -8, -8, -8, -5, -7, -6, -6, -8, -6, -8, -8, -7, -6, -8, -7, -8, -7, -7, -7, -8, -6, -8, -6, -6, -6, -8, -5, -6, -7, -5, -7, -6, -5, -8, -7, -7, -8, -8, -8, -7, -7, -7, -8, -7, -7, -8, -5, -7, -4, -5, -8, -7, -5, -8, -7, -8, -8, -7, -8, -8, -6, -8, -7, -6, -6, -8, -7, -8, -8, -7, -7, -7, -7, -6, -7, -7, -8, -6, -6, -5, -8, -7, -7, -7, -7, -7, -6, -6, -7, -7, -4, -8, -8, -7, -6, -7, -8, -7, -7, -7, -7, -7, -7, -7, -8, -6, -7, -7, -6, -7, -7, -8, -8, -6, -6, -7, -5, -8, -7, -7, -7, -7, -8, -7, -8, -7, -4, -7, -8, -6, -7, -6, -8, -8, -8, -7, -7, -7, -8, -8, -7, -7, -7, -7, -6, -6, -8, -7, -7, -6, -7, -8, -7, -6, -5, -8, -7, -7, -7, -8, -7, -6, -7, -6, -7, -7, -6, -7, -7, -7, -8, -7, -7, -5, -8, -8, -8, -8, -7, -8, -8, -7, -7, -5, -6, -6, -7, -7, -6, -7, -7, -7, -7, -8, -7, -7, -7, -6, -6, -6, -8, -7, -8, -8, -8, -7, -7, -7, -8, -8, -8, -7, -7, -8, -6, -8, -5, -7, -6, -6, -7, -4, -7, -7, -7, -7, -7, -7, -7, -8, -8, -7, -6, -7, -8, -8, -8, -7, -8, -6, -8, -7, -7, -7, -7, -7, -7, -6, -7, -4, -6, -7, -6, -8, -7, -8, -7, -8, -6, -7, -7, -7, -7, -7, -6, -7, -6, -7, -6, -7, -6, -6, -7, -8, -7, -6, -8, -6, -7, -5, -6, -7, -7, -8, -7, -7, -7, -7, -6, -8, -7, -7, -6, -7, -8, -6, -5, -6, -8, -6, -7, -6, -6, -6, -8, -7};

#endif  // LAYER_025_DEPTHWISE_CONV_2D_H_
