#ifndef LAYER_010_DEPTHWISE_CONV_2D_H_
#define LAYER_010_DEPTHWISE_CONV_2D_H_

#include <stdint.h>

// op_index=10 op=DEPTHWISE_CONV_2D
// input:  idx=67 name=sequential_1/mobilenet_1.00_128_1/conv_pw_4_relu_1/Relu6;sequential_1/mobilenet_1.00_128_1/conv_pw_4_bn_1/batchnorm/add_1;sequential_1/mobilenet_1.00_128_1/conv_pw_4_1/convolution; shape=[1, 16, 16, 256] dtype=int8
// weights: idx=39 name=tfl.pseudo_qconst37 shape=[1, 3, 3, 256] dtype=int8
// output: idx=68 name=sequential_1/mobilenet_1.00_128_1/conv_dw_5_relu_1/Relu6;sequential_1/mobilenet_1.00_128_1/conv_dw_5_bn_1/batchnorm/add_1;sequential_1/mobilenet_1.00_128_1/conv_dw_5_bn_1/batchnorm/mul_1;sequential_1/mobilenet_1.00_128_1/conv_dw_5_1/depthwise; shape=[1, 16, 16, 256] dtype=int8

#define L010_DW_OUT_CH (256)
#define L010_DW_KH     (3)
#define L010_DW_KW     (3)
#define L010_DW_STRIDE_H (1)
#define L010_DW_STRIDE_W (1)
#define L010_DW_DILATION_H (1)
#define L010_DW_DILATION_W (1)
#define L010_DW_DEPTH_MULTIPLIER (1)
#define L010_DW_PAD_H (1)
#define L010_DW_PAD_W (1)

static const int32_t L010_dw_input_offset = 128;
static const int32_t L010_dw_output_offset = -128;

static const int8_t L010_dw_weights[2304] = {24, -1, 50, -127, -6, 35, -4, 14, 8, -17, 112, 89, -12, 59, 62, 8, 52, -23, -7, -28, 7, -12, 106, 3, -23, -107, -10, 0, -22, 55, 2, 21, 15, -2, 38, 67, 23, -3, -77, -2, -28, 16, -48, 74, -8, 9, -8, -22, 4, 4, -9, -3, -11, -22, 18, -66, 4, -1, 4, -32, -34, -20, 22, -37, -27, 7, 4, 5, 5, 2, -20, 36, -3, 11, 7, 65, -12, 34, 28, -30, 68, -12, -45, 10, 36, -71, 9, 1, 84, -44, -42, 20, 10, -16, -8, -127, 74, 20, -7, 2, -20, -63, 48, 20, -16, 29, -38, -15, 2, -17, -25, -7, -14, -57, -28, 7, -3, -33, -13, -18, 32, 8, -8, 6, -7, 123, 10, 19, 11, 12, -1, 127, 2, -17, 49, 45, 5, 2, -127, 26, 6, 1, -7, 73, 19, 114, -54, -84, 16, 20, -2, -100, -39, 21, -17, -4, -36, 12, 2, -15, -5, 2, -28, -27, -34, 5, -1, -59, 76, -6, -10, -113, -42, 32, 42, -5, 19, -10, -102, 28, -40, -54, -45, -15, -127, 89, -127, -8, 3, -13, -15, -7, 31, 9, 9, -35, 7, -32, 114, -1, -50, -43, 12, 7, -18, 44, -51, 43, 42, 17, -8, 122, 28, 5, 33, 62, 5, -48, -37, 24, 41, 24, -64, -52, 31, -33, -20, 49, 30, -23, -127, 13, 11, 31, 77, -49, 13, 14, -13, 30, 67, -25, 3, -15, -7, -80, 40, 13, -50, 30, 17, 64, -53, 26, -5, -81, -127, -79, 82, 31, 9, -105, -33, 127, 68, 39, -118, -68, -68, 114, 127, -84, -59, -4, -39, 3, -56, 127, -127, 51, -127, -125, -23, -77, 2, 97, -56, -62, 34, -61, -59, 127, 32, -127, -78, -28, 127, -39, -6, -55, -96, -40, 48, 20, -9, -52, 3, 42, -7, -32, -20, -76, -38, -42, -66, 107, 127, -58, 12, -28, -127, 34, 68, -22, 57, 6, -63, -27, -54, 6, -74, -104, 4, -75, 115, -58, -35, 14, -55, -16, -4, -60, 26, -47, 1, 45, -75, -33, -39, 86, -51, 78, 127, -30, 2, -46, -68, -106, 58, 106, -115, -86, -39, -9, 36, -35, -106, 46, -8, 66, -33, 34, -31, -52, -57, -56, -42, 42, 29, 40, -37, -127, -20, 97, -21, -55, -57, -43, -112, -11, 127, -50, 59, 49, -66, 16, -8, -23, 106, -65, -86, 84, 12, 39, 50, -7, 44, -65, -127, -41, -15, -58, -98, 57, 103, 45, -74, 22, -127, -125, -32, -53, 13, -113, -27, -74, 9, -127, -77, -44, 127, -20, -53, 21, 96, 127, -124, 65, -127, -16, -64, 4, -73, -73, -29, -41, -37, 5, 127, 7, -45, 59, 34, 46, -28, 20, 52, -30, -75, -18, 16, 127, -35, 88, -116, 58, -26, 70, -14, -40, -54, 62, -74, -13, -87, -9, 127, 67, -67, -118, 57, 10, 4, 127, 127, -8, -123, -40, 127, -43, -119, 46, 23, 47, 22, 34, -36, 25, 74, -14, 10, 27, 21, 127, -60, -33, 127, -65, -1, 34, 25, 3, -67, 1, 45, 8, -5, 47, 1, -17, -41, 95, 9, -35, 47, -13, 25, 8, -8, -14, 5, -7, 54, -39, 21, -24, 37, -86, 5, 24, -15, 11, 14, 7, -8, 24, 6, 17, -31, -20, -47, 1, -22, -3, 63, -29, 14, 44, 3, -2, -1, 25, -20, -34, -17, -11, 14, -16, -3, -2, 18, -32, -5, -18, 18, -13, 30, -16, -19, 7, -26, -3, 10, -5, 8, 5, 48, -12, -11, 18, -7, -11, -26, -11, 21, 10, 15, -61, -6, -1, 5, -2, -13, 23, 6, -15, 14, 55, -4, -14, -8, 19, -2, 0, -27, -17, 17, 12, 127, 0, -21, -11, 7, -19, -9, -14, -21, -5, 4, -2, -3, -4, 4, -19, -9, -4, -7, 15, 16, 107, -2, 40, 9, 36, 4, -13, 16, -13, -20, -29, -36, -60, -4, 5, -33, -10, -11, -22, 18, 15, -1, 20, -18, -3, 22, -12, -10, 42, -18, -10, -22, -29, 7, -7, -38, 27, 5, 15, -4, -26, -53, 21, -17, -13, 4, -4, 16, -1, 2, -5, -41, 25, -22, -24, -34, -6, -45, -11, -78, 21, -13, 7, 1, -11, 9, -24, 18, -41, -27, -24, -100, -11, 14, 21, 41, 7, -16, 17, 67, -61, -15, -20, 4, -36, -14, -15, 23, -7, 54, 60, 20, -22, 3, -8, -2, 8, -9, -8, -5, 6, 7, 8, -15, 25, -4, 6, -1, 6, 1, -16, -12, 7, -23, -6, -33, -12, -15, 25, -55, -3, -20, -7, -19, -33, 56, -25, -7, 100, 92, 6, -127, 34, -57, 17, -63, -47, 50, -93, -127, -108, -79, -54, -90, -53, 127, 1, -28, -74, -51, 1, -80, 45, -52, -127, -29, -81, -11, -71, -62, -61, -14, -19, 50, 22, -75, 27, -127, -12, 34, 127, -127, -127, -127, 22, -49, -53, -78, 55, 51, 31, 0, -28, -8, -84, 22, 7, -59, -90, -14, 13, -1, -7, -50, 31, 72, -28, 47, 22, -47, 127, -46, 31, 32, -123, -67, -25, -42, 52, 127, 7, -82, -15, -30, -127, 47, -57, 110, -64, 49, 46, -40, 12, -55, 116, 75, 0, 3, -25, 59, -127, 105, -127, -127, 127, 51, -5, 43, -23, -23, 20, -2, -127, 71, 11, 9, -50, 24, -22, 127, 40, -17, 36, -39, -100, -16, -108, 127, 36, -33, 120, 50, 0, -44, 127, 52, 67, -66, 15, 127, -56, -34, -69, -84, 114, 39, 52, 51, 34, 13, 127, 13, -48, -8, -36, 78, 58, -85, 45, -48, 17, 13, -119, 7, -50, 14, -68, -100, -61, 6, -84, -60, 127, -30, 11, -16, -65, 3, -54, 3, -53, -4, -3, -101, -50, -109, -119, 3, -38, 127, 11, -25, -37, -49, 57, 29, -102, -127, 4, -127, 50, 11, -35, 35, -33, 87, 123, 23, 58, -36, 83, 127, 127, 96, 8, -1, -120, -73, 127, -43, 48, -88, -103, 31, -75, -127, -39, -50, 29, -107, -63, -18, 123, -127, 55, 30, 57, 55, -104, 127, -58, 45, -17, 26, 42, -32, -26, -20, 127, -124, 127, -127, 29, 31, -29, -48, 127, -121, 58, 127, -127, -127, -93, 127, -125, 116, -83, -127, -127, -127, 127, -73, 127, 127, 127, -127, 123, 79, 127, -121, 52, -127, -127, 127, -127, -127, -127, -127, -127, -127, -70, 127, 2, -112, 127, 127, -108, 3, 109, -77, -115, 127, 127, -50, -127, 127, 127, 127, -86, -127, -127, 127, 127, 127, 57, -4, -127, -127, 127, -95, 127, 127, -127, 127, 127, -127, -83, -127, 127, -127, 127, -127, -40, -127, 127, -47, 127, -127, -127, -127, -99, 127, -127, -127, 127, 127, -127, -127, 127, -127, -66, -26, -127, 127, -127, 127, 23, -127, -14, -121, -44, -64, 127, 127, 127, -127, 127, 127, 70, 127, 127, -127, -127, 127, -64, -103, 127, -127, 127, -61, 86, -127, -127, -119, -127, -127, -94, 127, 127, -79, -81, 127, 127, 12, 127, -118, -127, 127, -127, 127, -127, 127, 127, 127, -127, 127, 4, 11, 127, 127, -69, 127, 127, -127, 127, -127, 127, 51, -7, 127, -127, 127, 127, 127, -127, 127, -60, -127, -73, -81, 127, 127, 127, 127, -75, 3, 127, 12, 127, -93, -127, 127, -127, -127, -127, -53, 127, -88, 127, 127, 127, 127, 127, 84, 127, 111, 127, -125, -75, 127, -34, -127, 69, 127, 127, -127, -127, -90, -10, -127, 127, -108, -5, -127, -15, -83, 127, -127, 42, 127, 127, 31, -61, -92, 127, -105, -82, -92, -127, 90, -127, 127, 127, 127, -127, -105, 127, 127, 127, 127, 127, 127, -100, -127, -49, -45, -15, -12, 127, 127, -88, -49, 3, -78, -15, -39, 39, -1, 1, 4, 127, 3, 127, 15, 7, -20, -25, -50, -50, -45, -23, 19, -31, -18, -24, -2, -96, 17, -12, -24, -33, -7, 19, 12, 33, 40, -24, 12, 2, -45, -25, -38, 0, 111, 79, -3, 127, 36, -42, 127, -31, -17, -12, -32, -19, 27, -16, 9, -16, -23, -127, -12, -44, 16, -28, 10, -13, 7, 7, -23, -18, 11, -52, -19, -11, 109, 1, 2, 2, -5, 19, -34, -28, -16, 27, 32, -74, -6, -9, -40, -33, 12, 62, 12, -27, 21, -30, -13, -41, -28, -1, 5, 113, -3, 79, -45, -75, -16, -26, -9, -44, 4, -29, -21, 60, -46, -39, -1, -3, -11, -15, -39, -8, 19, -6, -18, 3, 18, 73, 12, 93, 22, -67, -20, -33, -21, -4, -9, 19, -80, 12, 2, -11, -27, 27, 18, -97, -9, -79, -3, 45, 0, -12, 9, 1, -29, 127, 21, 2, 36, 24, 17, -33, 15, 127, -13, 5, -13, 64, 12, -4, -38, -5, 20, -47, -21, -24, -75, -48, -2, 14, -4, -38, -3, -33, -47, 32, -86, -41, 29, 14, -12, -27, -18, -48, -70, 42, -12, -69, 67, -8, 59, -20, 127, 127, -14, -11, -31, -127, -25, -4, 14, -56, -30, -48, 57, -20, 127, 127, -10, -113, -21, -14, -24, 93, -14, -17, 70, -32, -25, -26, -67, -14, -10, 4, 35, 68, -14, 20, -5, -37, -28, -25, 5, -54, -6, -57, 18, -1, 20, -59, 78, -112, 123, 0, -22, -27, 67, -10, 43, 11, -2, 25, 10, 22, -48, -1, -20, -16, 63, 17, -3, -4, 15, -9, -5, -8, 53, -33, -45, -25, 6, -65, 3, 36, -15, 14, 21, 6, 2, 29, 31, -44, -36, 45, -26, -3, -11, -22, -27, 38, 21, 4, -4, -6, 9, 97, -28, -29, -24, 57, 12, -5, -41, -35, 19, 11, 5, 59, 33, -19, 17, -15, -34, 7, -22, -10, -24, 7, 16, -10, 2, 4, -21, -21, -5, -13, -7, -10, 39, 9, 27, -9, -4, 8, 4, 2, -17, -15, 2, -31, 9, 25, -15, -6, -10, 12, -40, -19, -7, 6, -21, 7, 40, -8, -14, -13, 8, -16, -11, -35, 13, -8, 7, 0, -16, 48, 2, -22, 15, -13, 41, -7, 16, 21, 26, -4, 19, 22, 0, -18, -10, 18, -13, -23, -36, -49, -8, 11, 0, -13, -15, -4, 10, 29, -15, 9, -1, 104, 14, -1, -18, 3, -19, -7, -52, -12, 5, -1, 31, 22, -3, 17, -4, -12, -29, 18, -24, -19, -13, 10, -12, -11, -16, 3, 33, 6, 30, 0, 41, -4, -90, 1, -100, 45, -21, 11, -13, -12, -8, -20, 15, -39, -28, 6, 9, -2, -35, -13, -8, 11, 2, -32, 1, -45, -62, -13, 7, -28, 14, -15, 2, 14, -6, -22, 6, 11, 0, -3, 3, 24, -5, 7, 19, -15, -7, 4, -28, 54, -10, -4, 8, 2, 3, -12, -24, 21, 19, -1, -11, -8, -20, 17, -34, 5, -30, 24, 59, 11, -17, -26, -8, 127, 73, -52, 34, -1, -3, -57, 3, -13, -2, -62, 36, 63, 84, 12, 4, -16, -11, -40, -33, -33, 46, -80, 58, -22, -5, -83, 22, -27, -39, 56, 4, 16, 28, 42, -53, -91, -50, 52, -54, -36, -58, 4, 1, -48, -3, 12, -4, -5, 1, 72, -56, -17, -17, 127, 24, -32, -71, -50, -19, 61, -29, 127, 31, -10, -3, -25, 0, 9, -41, -20, -13, -23, -5, -21, -37, -22, -3, 127, 1, -21, -23, -33, -13, 25, 25, 34, -15, -8, -27, -5, -4, 27, 7, -50, 15, 1, -22, -42, -31, 16, -93, 87, -25, -49, -59, 24, -19, -21, -13, -46, -68, -38, -26, -122, 18, -45, 31, 4, -39, 127, -22, 5, 26, -4, 127, 13, 23, -79, -16, -8, 33, 88, 36, -38, -48, -26, -15, 0, -74, 12, 2, 17, -38, 22, 21, -98, -36, -77, -17, 25, 7, -8, 57, -69, -26, -34, -10, -2, -102, 18, 5, -24, 90, 91, -43, 20, -20, 91, -38, -5, -44, -10, 15, -21, -51, 9, 6, 19, -115, -60, 127, -35, 106, -42, -38, 26, -59, -62, 19, 20, 4, -26, -39, -7, -61, 41, -21, 2, -15, 15, -34, -63, -34, -8, -10, -101, 66, -96, -20, -18, 20, 4, -25, -17, 6, -23, 7, -4, 16, -2, -44, -30, 12, 127, -26, -4, -5, -50, -19, -23, -61, 127, 0, -4, 25, 7, -8, -1, -5, 30, -25, 12, 16, -29, -4, -71, -19, -5, 0, -9, -77, 13, -19, 1, -16, -23, 21, 2, 26, -25, -2, 26, -4, 15, -36, 8, -5, 22, 101, -12, -4, -9, -4, -5, -9, -1, 28, -12, -21, -10, 5, -37, -2, 28, -10, -2, 13, 6, 2, 22, 16, -6, 10, 14, 35, 3, 19, -2, 19, -66, 35, -5, 3, -7, -14, 12, -5, -24, -3, 26, 9, 0, -3, -3, -11, -5, -4, 21, 17, -17, 1, -7, -28, 7, -10, -5, 6, 9, 22, 1, 16, -13, -10, -24, -6, -4, -17, -2, 15, -2, 10, -2, -9, 11, 5, -12, -15, -4, 9, -20, -3, -28, -9, -36, -1, 18, 4, 63, -8, -14, 8, 10, -18, -7, -6, -3, 8, 4, -5, -31, 8, 8, 7, 3, -6, 21, -4, -18, 9, -11, 17, -16, 8, 0, 0, 3, -12, 62, -12, -2, 3, -5, -7, -31, -11, 18, 2, 8, -9, 30, -5, 25, -27, -27, -11, 6, -4, -18, 8, 5, -7, 12, -4, -7, 9, -16, -22, 2, 19, 11, -17, 7, -4, 18, 24, 20, -4, -7, 0, 7, 4, -13, 11, -10, 14, -3, 14, 9, 14, 8, -43, 0, -35, 45, -21, 5, 5, -5, 2, 7, 31, -49, -19, -5, 2, -8, 4, -10, 25, -16, -3, -9, -28, -74, 14, -8, -1, 2, 2, 10, -8, -16, 8, 19, 4, -6, 12, 5, 8, 5, -2, -4, 2, 5, -1, -2, -6, 15, -7, -4, -32, 3, -2, -12, -22, 18, -4, -12, -25, -1, -9, -15, 15, -1, -12, -3, -4, -10, 18, -9, 2, -32};

static const int32_t L010_dw_bias[256] = {734, 260, 1813, 11143, -2661, 1799, 14161, 3180, -2701, 1017, 768, -305, 1165, -988, 1002, 2030, -653, 1277, 1019, -258, -3872, 8254, 7411, -2917, 23110, 29162, 26377, 18330, -1636, -382, 13108, 11698, 6742, -1087, 1922, -612, -1100, -3009, 119891, 8865, 556, 1781, -1092, 8269, 19397, -8225, -2210, -1003, 1566, -7782, -1087, -853, 21294, 2184, 30697, 28367, -2299, -284, -900, 23661, -3350, -1786, 15104, 995, 38119, -9999, -7986, 10608, 3450, 1167, 31606, -901, 30066, -5621, 700, 4621, 32128, 2159, 4319, -4692, 110, -804, 20911, 9217, 25218, 33628, -3994, 20012, -2144, -245, -4550, 1509, 15080, 9784, 22429, -1990, -1562, 39551, 10820, 37941, 8544, 6382, -1996, 1184, 30928, -2381, 6241, 6494, -7184, 5559, 32237, 5079, 9360, 340, -3056, 5784, 25562, 58662, -301, -47, 986, -1770, 15573, -11983, 10, 8014, 28725, -3382, -2453, 1133, 36027, 7761, -6601, 9474, -730, -1773, -1940, -11335, 23955, -12439, 441, 20006, 21375, 11956, 14286, -3001, -6796, -1105, -3389, 8291, -3240, 4202, 9455, -771, 4724, 318, -3064, -4741, 31301, -9928, 21364, -2651, -4242, -1876, -1323, 18121, -2536, -398, -559, 34656, -304, 77545, 66378, -225, 387, 3340, -2630, -3223, -347, -693, 53, -1421, 1339, 6179, 51761, 2374, 27339, 37956, 31674, 26037, 7309, 6977, -84, -3259, 14113, -20117, -1904, 15903, 683, -11502, 11755, -4596, 1988, 1753, -3898, 1799, 11266, 1220, 3237, -2929, 32606, 20468, -501, -3169, -1293, 3845, -2869, 128, 27178, -1176, 103, -4817, 76967, 308, -1074, -3800, 3215, 640, 2406, -6301, 37907, -5183, -673, 2040, 2240, -822, -6389, -9918, -4297, 12180, 16, -4274, -8930, 3070, -5136, -2540, -3810, 2003, 31083, -1717, -590, -293, 1647, -2536, -9041, 2796};
static const int32_t L010_dw_bias_total[256] = {-1058, -124, -4075, 7815, 155, -11001, -13743, 4332, 13939, -2695, 1536, -1457, 4237, -604, -2326, -4114, -2061, -899, -3333, -5890, -7328, 13886, 3955, 12571, -12986, -57110, 7945, -11878, -2532, -382, -12236, -10702, -426, -8639, -5502, -868, 436, -4033, 51923, 12065, 19756, -1675, -2500, 5069, -11835, -801, 17246, 277, 158, -742, 4801, 9515, 23342, 3720, 24169, -25649, -1531, -2204, -2180, 17261, 490, -7802, 17792, -3101, 6887, 5745, 17230, -6672, 18042, 14095, -2570, -2309, 3442, 12171, -2372, -5235, 768, 1647, -1825, 3116, 878, 5852, -12753, -895, 23170, -26404, 17638, -9300, -224, 1547, -1734, 1381, -5400, 18232, -1251, 1082, 22374, 4223, 16836, 21045, 4960, 2670, -204, -96, -30384, -1869, 9313, 11102, 11376, -2761, -8979, 16343, 13328, -23980, 10896, 17304, 12250, 25382, 467, 2129, -4774, 18070, 7509, 9905, 2058, 6734, 19509, -2998, -149, -147, 17211, 39889, 2999, 8834, -1626, -365, 20972, 11833, -37997, 2537, 569, -2394, 32255, -4940, 12238, -4409, 3444, -1745, 21827, 11491, 18008, 7914, 5359, -2947, 4340, -1858, 2184, 24699, 837, 14008, -9612, 10789, -914, -1876, -1707, -2487, 11288, 2418, -1583, 6752, 336, 21481, 30538, -1889, -381, 12684, -1990, 873, 1317, 331, -1611, -1805, -3781, 8227, -31183, -2234, -41781, -2876, 11578, 5301, 8205, 14017, -1236, -1467, 10913, 619, 9616, 9375, 1451, 5906, 10987, -2164, -1340, 1753, 11334, -2297, 4738, -9020, -859, 22287, 13022, 24820, -757, -3553, 2291, 30341, -1333, -640, -9686, -1816, -921, 22831, 32295, 3636, 23246, -3416, -753, -640, -1434, 4707, -43885, -703, -1057, -264, -3392, 586, 15755, 18754, 11447, -4204, -1008, 462, 16798, 126, 7920, -620, 6558, 3155, -7189, 971, 946, -2853, -2449, 17560, 7215, -3604};

static const int32_t L010_dw_output_multiplier[256] = {1351302912, 1146982912, 1719735552, 1123911552, 1582202880, 1188090752, 1457920768, 1552701696, 1978513408, 2038001536, 1424247296, 1956177536, 1146696960, 1856044160, 1160805632, 1105719424, 1381063424, 1695180544, 1253911936, 1672590464, 1180120192, 1980669312, 1316545792, 1356048384, 1387285888, 1934550784, 1194658944, 1200627968, 1585361280, 1174095232, 1711878400, 1652261248, 1672995840, 1162738688, 2048255232, 1665736960, 1095220480, 1375599232, 1430999552, 1303856640, 1583295104, 1191079680, 1730216448, 2069858048, 1483954176, 1604577408, 1703344512, 1149693184, 1889696640, 1740555392, 1436373248, 1094937728, 1376875776, 1144066560, 1708074624, 1880174080, 2107293696, 1431006336, 1717161856, 1597852160, 1682832512, 1755858176, 1129710080, 1977661824, 1756729088, 1307099904, 1349357184, 1727907968, 1604848128, 1079784448, 1481602432, 1827669248, 1478574336, 1143156480, 1395927552, 1356722688, 1220286720, 2025032448, 1136783488, 1268194176, 1932277632, 1358603136, 1657821952, 1482872576, 1552807552, 1685153792, 1246735360, 1410257536, 1649640448, 2079575040, 1889702272, 1422167808, 1194614016, 1792496384, 1127323136, 1200776320, 1295126784, 1900460672, 1753450240, 1108213504, 1687940736, 1118297088, 1440785152, 1834608000, 1589246592, 1165268736, 2098766592, 1353335040, 2100192256, 1397363328, 1209395200, 1114598656, 1250469120, 1913500032, 1426305920, 2107393152, 1115381632, 1463800064, 1293713792, 2075687552, 1672564096, 1365673216, 1710550400, 1622497280, 1171312000, 1989246592, 1784722176, 2110941824, 1272057856, 1411557504, 1109673344, 1133269760, 1236211072, 1354438784, 1482105472, 1773241984, 1283467904, 1774373888, 1945031424, 2070088192, 1381353600, 1217478528, 1965054336, 1808245760, 1267233664, 1703947264, 1504700032, 1481020160, 1843020800, 1791711872, 1111663104, 2020024960, 1495799168, 1524743808, 1616948608, 1209045376, 1919519744, 1840688512, 1472017920, 1814539648, 1833950848, 1548676608, 1379592448, 1205104256, 1800190976, 1631310720, 1701943680, 1454105216, 1345447552, 1684295552, 1715590272, 1674097920, 1487351936, 1808900224, 1511125248, 1147219200, 1314629376, 1639959680, 1822749184, 1278097152, 1757622400, 1790008320, 1775958656, 1311636224, 1728025728, 1888582400, 1958874880, 1780974336, 1438930432, 2130378240, 1733309568, 2122502016, 1937167488, 1450657792, 1422003200, 2057511040, 1479462784, 1194787200, 1479333760, 1309904128, 1685484672, 1134966528, 1752907904, 1114994304, 1341581568, 1956123136, 1549239296, 1135545472, 1627104384, 1681818112, 1671796992, 1466986752, 1763355008, 1112670464, 1142863360, 1141573632, 1834606720, 1151577728, 1390374528, 2131526784, 1871369088, 1893414144, 1457727360, 1276631680, 2139487360, 1935988864, 1842465920, 1322269312, 1504984320, 1464598400, 1131012608, 1590767744, 1329305856, 1446828800, 1290174592, 1296406400, 2111496576, 1661451008, 1614655616, 2066606976, 1374451456, 1568427008, 1322347776, 1452054272, 1396285312, 1414381824, 1730071936, 2038694656, 1421301632, 1158194944, 1802864640, 2046865664, 1720436864, 1627314176, 1716499072, 1385553280};
static const int32_t L010_dw_output_shift[256] = {-7, -5, -7, -5, -6, -6, -6, -6, -8, -7, -6, -7, -6, -6, -6, -5, -6, -6, -5, -6, -6, -8, -6, -7, -7, -9, -6, -6, -6, -6, -6, -5, -6, -6, -7, -7, -6, -7, -9, -6, -7, -5, -7, -7, -7, -6, -7, -6, -6, -6, -7, -6, -7, -6, -7, -9, -7, -6, -6, -7, -6, -6, -6, -7, -8, -6, -7, -6, -8, -6, -8, -6, -7, -6, -7, -6, -7, -6, -5, -6, -7, -3, -7, -6, -7, -9, -7, -6, -6, -7, -7, -6, -5, -8, -7, -4, -7, -8, -7, -7, -6, -7, -6, -7, -8, -6, -6, -6, -7, -6, -9, -6, -6, -6, -7, -7, -6, -8, -6, -7, -6, -7, -7, -7, -6, -6, -7, -7, -5, -6, -7, -8, -7, -6, -6, -6, -7, -7, -8, -7, -5, -6, -8, -6, -7, -7, -6, -7, -7, -6, -7, -7, -7, -6, -6, -6, -7, -7, -8, -7, -7, -7, -7, -7, -7, -7, -7, -7, -6, -8, -6, -9, -8, -6, -6, -6, -6, -7, -7, -6, -7, -6, -7, -6, -9, -6, -9, -8, -8, -7, -6, -7, -6, -5, -6, -7, -7, -6, -6, -6, -8, -6, -6, -5, -6, -7, -7, -6, -6, -7, -7, -7, -6, -7, -6, -8, -6, -6, -8, -7, -6, -7, -9, -7, -8, -6, -7, -6, -6, -6, -8, -6, -6, -5, -6, -5, -7, -7, -7, -7, -6, -6, -7, -6, -6, -6, -7, -6, -8, -6, -7, -7, -7, -6, -7, -6};

#endif  // LAYER_010_DEPTHWISE_CONV_2D_H_
