#ifndef LAYER_019_DEPTHWISE_CONV_2D_H_
#define LAYER_019_DEPTHWISE_CONV_2D_H_

#include <stdint.h>

// op_index=19 op=DEPTHWISE_CONV_2D
// input:  idx=76 name=mobilenet_v1_eurosat_1/conv_pw_9_relu_1/Relu6;mobilenet_v1_eurosat_1/conv_pw_9_bn_1/batchnorm/add_1;mobilenet_v1_eurosat_1/conv_pw_9_1/convolution; shape=[1, 8, 8, 512] dtype=int8
// weights: idx=19 name=tfl.pseudo_qconst17 shape=[1, 3, 3, 512] dtype=int8
// output: idx=77 name=mobilenet_v1_eurosat_1/conv_dw_10_relu_1/Relu6;mobilenet_v1_eurosat_1/conv_dw_10_bn_1/batchnorm/add_1;mobilenet_v1_eurosat_1/conv_dw_10_bn_1/batchnorm/mul_1;mobilenet_v1_eurosat_1/conv_dw_10_1/depthwise; shape=[1, 8, 8, 512] dtype=int8

#define L019_DW_OUT_CH (512)
#define L019_DW_KH     (3)
#define L019_DW_KW     (3)
#define L019_DW_STRIDE_H (1)
#define L019_DW_STRIDE_W (1)
#define L019_DW_DILATION_H (1)
#define L019_DW_DILATION_W (1)
#define L019_DW_DEPTH_MULTIPLIER (1)
#define L019_DW_PAD_H (1)
#define L019_DW_PAD_W (1)

static const int32_t L019_dw_input_offset = 128;
static const int32_t L019_dw_output_offset = -128;

static const int8_t L019_dw_weights[4608] = {-2, -29, 26, 11, -41, 14, -41, 127, -58, -17, 103, 20, 23, 1, 100, -95, -49, 0, -3, -4, -127, 3, -33, -92, 12, -29, 16, -12, 94, 3, 27, 5, -87, 53, 44, 4, -4, 53, -9, 9, -23, 21, -46, 0, -22, -7, -10, -8, 61, 8, 3, -2, 52, 53, -3, -21, -67, 5, -14, 3, -42, 13, -1, 0, 24, 22, -16, 8, -5, -8, 10, -67, -5, 14, 10, 5, 8, -9, 30, 1, -29, 5, 26, -10, 5, -118, 0, -12, -20, -55, 34, -4, -7, 10, -3, -25, -27, 5, 55, 2, -11, 122, -9, -28, -29, 7, 67, -8, 106, 11, -5, 51, 59, 13, 29, 103, 3, 0, 34, 4, 89, 11, -8, -6, -6, -6, -87, 4, 11, -3, 19, -2, 9, -2, -84, 11, -6, -20, -28, 11, 6, -5, 0, -6, -9, -102, -29, 91, 2, 8, 1, -68, -56, 75, -13, 3, 24, -25, 1, 1, -25, -38, 26, -3, -5, -4, 26, 7, 3, 58, -43, 2, 10, 5, 10, -11, 9, -8, -6, 30, 2, -30, 81, 26, -8, -3, -2, -4, -5, 8, -6, 6, 8, -10, 51, -70, 1, 8, -11, -6, -1, -6, 20, -2, 0, -5, 39, -3, -14, -15, 9, -16, 2, 10, 20, 0, 6, -2, 9, -13, 3, 2, -21, -36, -1, -127, -3, 25, 85, -13, 20, -14, 11, 6, 5, 30, -39, -8, 15, -42, -5, 97, -10, 23, -4, -5, 13, 57, 25, 1, -10, -13, 3, 64, 9, -57, -5, -8, 47, 22, 25, 16, -18, -21, -25, -16, -11, 61, -28, 11, 0, 2, -20, -12, -16, -35, 31, -87, 12, -7, 127, 6, -4, -85, -61, 11, -9, 28, 2, -55, -6, 2, -1, -34, 8, 1, 2, -12, -8, 13, -24, -48, 8, 31, -24, -68, -76, -8, 44, 17, -18, -39, 9, 11, -34, -2, -17, 9, 8, 14, 8, -8, -30, 23, -4, 6, -25, -22, -40, 5, 29, -10, -4, -101, -27, -24, 30, -12, 3, 4, -25, 58, -2, 4, -21, 16, -25, -2, -3, 6, -4, -32, -4, 24, -119, -78, -16, 5, 106, 8, -8, 4, 42, 10, 77, -119, 3, 44, 5, 1, -2, 0, 9, -20, -54, -37, -29, 96, 19, 97, 50, -8, -25, 20, -13, 0, -24, -11, 35, -6, 9, -20, 72, 19, 31, 51, -3, -6, -8, 22, 0, -5, -7, -10, -35, 43, -54, 4, -34, -46, -115, 34, 24, 9, 81, 4, -7, 21, -6, 17, -33, 29, -7, 30, -8, 3, 30, -5, -11, 34, 33, -3, -27, 4, 8, 8, -1, -10, 5, -75, -22, 96, 15, -71, -4, 51, 7, -124, -11, 2, 6, 2, 62, -14, -14, 45, -7, -18, 0, 6, -79, -17, -88, -7, -3, -3, 11, 1, 14, -9, -35, 0, 111, -57, 8, 0, 120, 10, 2, -2, -40, 27, 42, -42, 4, -16, 10, -7, 15, -4, -1, -2, -18, 3, 8, 4, -1, 1, 4, -3, 41, 12, -39, 13, -7, -15, 63, -47, 50, 4, 17, -26, -43, -53, 127, -24, -120, -27, -77, 10, -4, -88, 127, 70, -6, -5, 127, 7, 2, 0, -127, -39, -73, -127, -94, 89, 12, -31, 54, -102, -23, -57, -103, 1, -127, 127, -2, 11, -32, -41, 12, 17, -26, -32, -27, -23, 20, 85, -21, 1, 20, 46, 19, -9, 127, 10, 33, -44, -42, -25, -28, -30, -12, -14, -32, 5, 113, -49, -42, -33, -40, 2, -16, -124, -86, 127, 18, 127, 50, 1, -75, -23, -52, 11, 55, -99, -1, -93, 20, 11, 39, -84, 74, 1, -8, 85, -71, -46, 3, -71, 96, 20, 50, -12, -18, -23, 88, -4, -19, -30, 59, 10, -41, 1, -17, 24, 100, 54, 8, -34, 127, 12, 49, -96, -60, -25, -7, -1, -20, -25, -19, 8, 45, -15, 6, -10, -73, 25, -65, -72, -110, -28, -37, -3, -101, 9, -4, 74, -63, 58, -103, 19, 1, -127, -127, 104, 36, 41, 45, -73, -17, 32, 21, -60, 127, -12, -2, -17, 37, -26, 2, 127, -23, 9, -48, -18, 3, 53, 14, -27, -4, -127, 5, -78, -29, -26, -27, -127, -3, 7, -22, 86, 4, 93, -8, 62, 127, 28, -64, 28, -54, 2, -17, -5, -37, -27, -19, 127, -7, -47, -26, -46, 11, 17, -47, -33, 38, 2, -27, -47, 34, -54, 14, -13, -33, -88, -32, -92, 127, -11, 81, -16, -77, -28, -33, -7, 72, 127, -58, -11, -3, 4, -39, -23, -33, 74, 0, 48, -45, 17, -39, 83, -46, 2, -39, 112, -13, -80, -16, -21, 127, -20, 127, 113, 53, -36, 75, 62, -25, 0, 127, 5, 6, 15, -84, -22, 127, -33, 127, -100, 11, -64, 48, -27, 2, -73, -127, 127, -9, -28, -28, -90, -33, -16, -17, -41, 6, -40, 5, 16, -16, 17, -9, -97, 8, -127, -125, -77, -127, -26, 127, 15, 0, -62, 24, -3, -69, 127, -14, 12, 127, 41, 23, -46, -60, 100, -16, 23, 52, -97, -106, 23, -23, -30, -21, -26, -103, -10, -127, -48, -23, -68, -27, 48, -32, -22, -33, 13, -71, -2, 27, 127, -29, -12, -52, 127, -75, -12, 25, -38, 24, -89, -19, 1, -28, -34, 107, -106, -45, 127, 41, -18, -57, -14, -5, 4, -38, -19, -77, 7, 5, -23, 78, -2, -94, -38, 127, -12, 127, 57, 127, -23, 5, -10, 12, 36, -2, 127, -33, -20, -18, 111, -13, -127, 25, 127, -127, 45, -66, -29, -68, 21, -105, -60, 127, 11, 33, 26, -6, 127, 8, -3, 127, 40, -15, -53, 19, -46, 127, -27, 100, 75, 77, -13, 12, 14, 1, 6, -35, -15, -10, -35, -42, 15, -26, -59, -127, -16, 17, 8, -27, -46, 5, -15, 127, -29, -40, 50, -57, 77, -23, 13, -13, -61, -35, -22, -18, -29, 8, 0, -48, -6, -15, -60, 76, -74, 80, -26, 45, 3, -12, 5, -52, -39, 21, -53, 53, -17, -56, 127, -2, 127, 38, -32, 25, 29, 127, -105, 19, 0, -85, 17, 6, -35, 29, 55, 11, -48, 102, -51, 36, -4, -41, -35, -7, -29, 32, 14, -63, 14, -39, -33, 99, -23, 80, 24, -4, -2, 99, -90, 127, -3, -6, -7, -118, -9, -35, 127, 14, 87, 21, -21, 102, 9, -34, 2, -115, 74, -22, -2, -5, -63, 39, 5, 3, 3, 12, -5, -18, -1, -11, -5, 65, 15, -2, -6, 56, -127, -2, -18, -17, -14, -19, 2, 37, 14, -4, -4, 29, 21, -21, 3, -11, -7, 8, -76, -6, 21, 10, 14, 15, -7, -78, -1, -26, 3, 32, -14, 5, -6, 1, 3, 40, -57, 40, -4, -4, 20, -7, -25, 127, 6, 66, 3, 41, -26, -11, 34, -22, 7, -24, -11, -44, 80, -7, 61, -10, 18, 34, 24, 2, 0, 48, 3, -16, 13, -16, -8, -7, -7, 31, 5, 13, -3, 21, -4, 0, -3, -96, 50, -14, -17, -25, 26, 0, -8, -1, -8, -10, -3, -21, 127, 3, 6, -5, -78, -71, -61, -9, 8, -15, -30, 0, 5, -24, -42, 38, -4, -4, -5, 32, 7, 4, 71, -14, 0, 3, 3, 7, -6, 7, -10, -9, 7, 6, -29, -33, -24, -11, -3, -4, -8, -5, 14, 9, -61, 4, 0, 52, 24, -4, 12, -16, -6, -4, -7, 19, 1, -3, -3, 41, -7, -17, 12, 12, 10, 0, 6, 24, 1, 8, -5, 18, -31, 1, -26, -20, -44, -1, -121, -1, 9, 98, -21, 13, -14, 5, 6, 24, 40, -44, -9, 14, -2, -7, -45, -16, 25, -6, -4, 5, 60, 33, 127, -10, 9, -1, 67, 8, -61, -16, -12, 54, -18, 30, -38, 9, -23, -18, 9, -14, -30, -17, 7, -3, 0, -30, -17, -9, -34, 35, -87, 6, -4, -83, 6, -8, -78, -70, 23, -8, 27, -1, -58, -10, -2, 24, -39, 6, -7, 1, -13, -11, 10, -24, -75, 8, 28, -36, -70, -83, -13, 58, 13, -17, 111, 13, -11, -39, 5, -27, 9, 17, 18, 8, -14, -26, 24, -9, 10, 79, -24, -38, 5, -23, -14, -7, -105, -35, -13, 26, 29, -1, -2, -33, 62, -5, 9, -22, 19, -78, -3, 0, 15, -7, -83, -9, 32, -127, -80, 95, 1, 54, 11, -9, 0, 43, 4, 84, -122, -4, 60, 11, 1, -12, 4, 6, -20, -56, 72, -34, 103, 20, -69, 57, -43, -27, 17, -1, 0, -16, -8, 45, -9, 5, -29, 0, 16, -13, 57, -5, -6, -11, 27, -3, -18, -5, -2, -55, 19, -55, 2, -29, -47, -127, -26, 32, 16, 10, 5, -6, 29, -6, 21, -17, 35, -6, 23, -7, -7, 39, -6, 12, 80, 35, -4, -24, 8, 5, 10, -6, -11, 2, 52, -36, -13, 14, 39, -13, 49, 12, -122, -15, -62, 8, -1, 69, 76, -18, 48, -10, -10, -5, 4, -19, -33, -86, 2, -7, -9, 8, 2, 12, -12, -36, -8, -28, -57, 6, -2, -33, 10, 1, 0, 5, 20, -21, -43, 4, -15, 3, 1, -13, 8, 4, -2, -20, -16, 17, -4, 1, 4, -2, 0, 42, 12, 73, 16, 6, -18, 68, -55, 55, 6, -38, -26, 6, -64, -9, -17, 13, 12, -69, 88, -86, -28, -31, -12, -127, -5, 33, -44, -8, 12, 16, -2, -55, -117, -17, -32, 6, -67, 5, -74, -112, 42, -127, 2, -114, -56, 127, 35, -13, 80, 27, 0, 4, 117, -121, -7, -16, -8, -32, 24, -16, 22, 5, -10, 33, 90, -1, 20, -97, 127, -23, 25, -119, -7, -21, 3, 3, 36, -11, -41, -26, -7, -11, -64, -127, 4, 23, -10, 15, 25, 110, -31, 0, 10, 22, 32, -22, 127, 7, 127, -9, -106, 23, 0, -59, 19, 3, -29, -27, -91, 5, -2, 22, 88, -20, -71, -28, -2, 127, -12, 127, -13, -28, 14, 127, 16, -34, 127, 14, 18, 39, -8, 127, -21, -36, -23, -8, -6, -127, 5, -26, 2, -14, -32, 1, 0, -106, -86, -2, -50, -113, -53, -2, -7, -76, -24, -25, 127, 14, 7, -68, 1, -7, -61, -33, 120, 5, 11, 25, 11, -27, 17, -80, 9, -7, -9, -6, -1, -14, -19, 8, -23, 127, 1, 0, -10, 36, -11, 11, 4, -3, 40, 51, -85, 127, 30, -22, -94, -4, 7, 14, -7, -53, -6, 8, -1, -22, -127, 4, 16, -12, 18, -27, -14, -60, 0, -4, -51, 127, -11, -41, -104, 18, -127, 3, -35, 39, -12, -21, -11, -40, -18, -30, 127, -21, -59, 28, 18, -50, 8, 21, 44, -92, -15, -56, -1, -29, -39, -24, -24, 16, -127, 30, 127, -32, 18, -13, -18, 7, 7, 34, -25, -66, -127, -9, 57, -13, -88, -39, 3, -20, 127, 10, 92, -36, -10, -29, 79, -8, 127, -35, 16, 11, 11, -65, -15, -52, -13, -4, -74, 6, 119, 53, 13, -8, -115, 24, -14, -20, 36, -32, -107, -17, -5, 127, -38, 0, -1, 4, -16, -20, 38, 42, -60, -9, 38, -127, 18, -121, -8, -19, 13, 3, 50, 11, 127, -21, -50, 8, 49, 18, -4, 3, -24, 32, 12, 5, 33, -75, 11, -105, -20, 89, -25, -29, -109, -24, -96, 18, 88, 127, -92, -31, 7, -24, 127, 7, 17, 31, -15, 2, -8, -20, 38, -25, 4, -113, 4, -48, -10, 89, -63, -14, 32, -49, 31, 58, -44, 3, -24, 8, -7, -23, -12, -46, -19, -74, -94, -44, 61, -14, 127, -5, 18, -94, 23, -29, 1, -6, -9, 17, -26, 3, 20, 113, 13, 127, -2, -29, -42, -25, 24, -5, -15, 2, -1, 4, -127, -77, 14, -90, 76, -56, 127, 46, -12, 96, -33, -3, -44, -10, -11, 43, 6, 4, 23, 14, -19, 55, -5, 31, 38, -1, -26, -26, 4, 3, 14, -2, -12, -15, -73, -59, 127, 27, 42, -5, 49, -76, -12, -21, -35, 1, -120, -19, -93, -22, 21, -6, -12, -57, -15, -127, 127, -99, -14, -29, -24, 17, 0, -30, -15, -34, -3, 127, -103, 1, -69, 127, 13, -9, 30, -19, -3, 7, -3, 6, -14, -32, -16, 126, 4, -17, 18, 27, 127, 44, -24, 3, 2, 9, -10, 20, 4, -91, 11, 127, -15, 44, 16, 33, 5, 127, -41, 127, -127, -87, -127, 81, 127, 127, 4, -34, 127, -74, 51, -6, 127, 111, -127, -70, 127, 8, 127, -79, -122, -6, 54, -127, -8, 127, -127, -127, 127, -5, 127, -40, -50, -50, 127, -64, -127, 127, 127, -127, 127, 127, 127, 127, 127, 127, 127, -127, -127, 127, 127, -97, -34, 127, -127, 127, -89, 127, -127, -7, -127, 127, 127, -127, 127, 127, 127, 127, -127, 26, 127, 55, 62, 127, 7, -127, 127, -127, 127, 127, 127, -127, -127, 127, 118, 127, -34, 127, -95, -127, -127, -127, -127, -85, -47, 7, -127, 27, -127, -127, -32, 127, 86, 127, 127, -15, 127, 73, -89, 127, -127, 12, -127, 127, -67, 127, -127, -26, 127, 76, -117, -127, 127, 127, 127, 98, -127, -127, 127, 48, 127, 127, 127, -84, -16, 100, -127, -127, 126, 127, 127, -127, 127, 127, 57, 102, 41, -127, 127, 127, -82, -94, 127, 127, -127, 127, 127, 127, 127, -127, -3, -8, 127, 127, 127, -127, 39, -127, -104, -47, 127, 127, 127, 127, 127, 127, 127, 127, -29, -127, -127, 19, 108, 127, -106, 127, 127, -67, 127, -32, 72, 127, 127, -94, 19, 127, 127, 127, 127, 127, 127, -127, 127, 10, 89, -12, 127, -127, 28, -127, 79, -127, 127, 63, 127, -127, -127, 127, 127, 127, -11, 127, -127, -127, -14, 33, -9, -127, 100, -127, 127, 127, -58, 127, -73, -127, 127, -127, 58, -121, -1, 127, 127, 127, 127, 127, 127, 125, -95, -109, 39, -127, -127, 127, -127, 127, 127, -111, -15, -10, 14, -127, 127, 127, -53, -127, 1, -51, 127, 127, 127, -127, 127, -43, -127, -11, -127, 127, -127, -66, 127, 127, -59, 50, 12, -127, -127, -127, -127, 127, 127, -3, -127, 127, 127, 127, 6, 127, 127, 127, -127, 127, 90, -118, -127, 20, 127, 35, 127, 127, 27, -127, -41, 127, 85, 127, -103, 47, 127, 127, 67, -127, -127, 127, 127, -99, -127, -55, 127, -127, 127, 127, -31, 127, -127, 114, 67, 14, 127, 127, -127, 127, -10, 0, -127, 127, 127, 127, 14, 127, 48, 127, 2, -87, 127, -127, 127, -127, -127, 127, 127, -86, -127, -127, -18, 127, 85, 127, -127, -106, -127, -4, -127, -77, 0, -127, -127, -127, -38, -127, 76, 36, 127, -5, 127, -53, 127, 48, 127, 127, 94, -1, 127, -72, 98, 127, 127, 127, 88, 127, 104, 127, -78, 49, 52, -127, 127, -85, 127, -42, -122, -22, -127, -127, 127, 127, 84, 127, -127, 111, -127, 127, -127, 127, 127, 35, 127, 127, 127, 127, 127, 127, 127, 127, -127, 127, 127, 127, -127, 127, -97, -127, -127, -50, 127, -127, -127, 127, 10, 127, -71, -102, 95, -91, -127, -18, -127, -127, 127, -75, -56, -127, -127, 127, 127, 127, 127, -127, 127, -127, 127, 76, -110, 127, 127, -34, 127, 127, 127, -54, 127, 127, 127, 36, 127, 127, -30, -127, 39, 127, 127, 127, 53, 127, -54, 127, 127, -75, -69, -127, -119, -72, 127, 11, 127, -127, -71, 127, -127, -76, -127, 17, -70, -18, -27, 17, 20, -62, -27, 127, -18, -42, -4, 122, 10, 43, -39, 78, 26, 12, 9, -61, -108, -19, 87, -5, 127, 17, -79, -118, 43, 88, 13, -127, -6, -19, 50, -20, -54, 7, 12, 63, -48, 26, -3, 0, 2, -26, 32, -30, 13, 20, -2, 35, -58, -1, 12, 44, 16, -14, 10, 127, -14, -13, 15, -2, 41, 0, -29, -13, -17, -16, -54, -125, 9, 27, -12, 1, 37, -76, -25, 8, 23, 10, 21, -12, -45, 17, -88, 48, -107, 12, 0, -72, 7, 1, -30, 62, -90, 16, -7, -87, 49, -12, 127, -22, 3, -71, -5, -24, 127, -24, 0, 2, 7, -22, -38, 22, 13, 38, 4, -116, -21, -40, -14, 0, 3, 42, -4, -45, 21, -9, -22, 19, 8, -108, 127, 5, -49, -102, 127, 9, 4, -79, -17, -12, -112, 15, 105, -81, 17, 9, -61, -33, -35, 10, -2, 49, 19, -17, 18, -90, 1, -4, 2, 11, 10, -24, -19, -1, -25, -14, 14, 11, 4, 42, 10, 18, 15, 8, 42, 43, -83, -50, -127, -14, -113, 9, 15, 8, 18, 127, -127, 20, 11, -26, 76, 11, 18, -3, 50, -18, -2, -66, 6, -7, -46, 123, -2, -55, 113, 10, 4, -8, -27, 36, -3, -28, -19, -32, -88, -26, -53, -17, -54, 15, 29, -46, 127, 15, 49, -103, -12, -50, -3, 30, -47, -33, -13, 4, 23, 22, -111, -16, 26, -4, -12, 15, 10, 127, 121, -55, 38, -20, 50, -5, -93, -20, 17, -25, -102, 8, -127, 101, 0, -26, 23, -16, -82, -37, 32, 21, 27, -71, -3, -53, -20, -5, -70, 18, 125, -44, 18, 0, -127, 27, -15, -17, 48, -47, -100, -6, 5, 7, -43, 10, 14, 11, -25, -10, 42, 47, -60, 0, 40, -117, 15, -103, 2, -14, 21, 17, 127, 2, -40, -15, -42, 22, 46, 18, 7, 11, -24, 28, 0, 18, 44, 127, 9, -94, -7, -23, -16, -22, -110, -17, -107, 21, -127, -31, -84, -18, 10, -16, -102, 7, 5, 124, -3, 10, -9, -11, -127, -11, -1, -111, 8, 100, -3, -17, -66, -2, 42, -55, 26, 52, -40, 10, -20, 18, -15, -25, -20, -52, -25, -68, 127, -52, 45, -18, -89, -10, -127, -105, 32, -29, 10, -7, -1, 26, -21, 18, 127, -85, 29, -40, 17, -25, -33, -11, 127, 5, 0, 8, -6, 7, 32, -89, 19, -102, 76, -56, -44, 44, -15, -59, 61, 9, -42, -2, -18, 51, -5, 13, 16, 21, -6, 54, 6, 46, -93, 4, -17, -7, 17, 15, 7, 9, -2, -5, 93, 0, -85, 14, 89, -3, 58, -89, -26, -7, 127, 11, -127, -27, 127, -29, 13, -8, -17, -56, -4, 79, -68, -94, -30, -19, -14, 29, 11, -34, -1, -42, 5, -63, -100, 10, -60, -31, 18, -3, 32, 127, 23, 24, 9, 12, -1, -23, -20, -7, 4, -6, 26, 38, -7, 54, -32, 18, 8, 4, -17, 14, -14, 127, 14, -33, -4, 36, 5, 28, -3, -21, -41, 13, -21, -43, 10, 5, -1, -14, -64, 15, -2, -73, -32, -38, 0, -61, 103, -30, -15, 1, 3, -97, -6, 67, -16, 15, 9, -2, -28, -71, -7, -46, 1, -88, -34, 4, 65, 9, 70, 25, 3, 28, -68, -54, -3, 3, -9, -12, 23, -19, -4, 17, 2, 6, 64, -2, 44, -91, 28, -11, 32, 8, -11, -3, 0, 9, -10, 3, -6, -13, -1, 24, -12, -13, 27, 9, 6, -2, -4, 108, -7, -9, 2, -4, 7, -11, 61, 6, 53, 25, -89, 5, -3, -6, 4, 41, 43, 1, -4, -4, -5, 8, 127, -5, -62, -50, -1, -22, -3, -43, -12, -14, -72, 74, 10, -34, 65, 2, 24, 5, 5, 33, 21, 18, 5, -11, 6, -80, 16, -3, 3, 23, -7, -11, 11, -51, 2, 3, -14, -59, -4, -4, -1, -44, -12, -10, 10, 6, 97, -73, -6, 3, -17, -16, -30, -2, 1, 25, 6, -8, 6, -20, 25, 4, 6, -3, 4, 8, 17, 3, -16, -15, -13, 5, -5, 9, -21, 15, -2, -2, -7, 31, -53, 6, 43, -7, -2, 4, 6, 14, -7, -11, 20, 0, -10, -37, -26, -12, -5, 2, 11, -7, -6, 14, 0, 9, -19, -36, -16, -13, -23, 8, 75, -6, 1, 37, -6, 5, 9, -53, -22, -3, 42, -20, -35, 15, -3, -10, 4, -13, 36, -10, -9, -3, -1, -11, -14, -67, -7, 30, -42, 39, -8, -19, -13, -9, -6, 1, 16, -5, -7, -21, -33, 7, 0, 4, -33, 1, 2, 10, 32, 9, -13, -15, -32, 7, 114, -5, -30, 13, 7, -1, 16, -15, -11, 14, -39, 4, -60, 15, 16, 33, 4, -9, -98, 7, 3, -32, 11, 11, -21, -1, -3, 44, 14, -4, -26, 15, 1, -9, 18, -5, 6, -6, -2, -25, 42, -98, -8, 3, 15, 17, -50, 11, 41, -12, 9, 6, 43, 20, -1, -5, 17, 73, -7, 3, 12, -15, 37, -42, -4, 62, -8, -1, -95, -10, -57, 10, 116, 47, -8, -30, 0, -11, 19, 30, 7, 12, -3, 5, 3, -5, -27, 4, 4, -95, 21, -28, -11, 83, 26, -7, 12, -23, 69, 12, 7, -3, -16, 3, 1, -15, 4, -53, 28, -9, 4, 20, -17, -7, 29, -15, -13, -24, 21, 3, -2, 1, -1, -13, -6, 9, 25, 127, 11, 62, 19, -14, -12, -13, -21, 11, 24, -5, 6, 49, -15, 1, 7, -40, 5, -46, 47, 8, 15, 72, 6, -10, 9, -7, -32, -42, 5, 9, 39, 0, -12, 33, -5, -4, 82, 8, -1, -32, 11, 0, 10, -5, -9, -2, 21, -20, 94, 49, 58, 38, -36, -24, -61, -10, -24, 8, 39, -29, -23, 12, 19, 1, -62, 26, -10, -68, 23, -51, -7, -5, -2, 5, 0, 4, -5, -11, -11, -86, -31, 6, 1, -53, 15, -5, 37, -5, 13, -16, 0, -37, -3, -3, 5, 42, -14, -10, 7, 0, 30, -2, 10, -7, 14, 42, -23, 42, 41, -47, -2, 88, -8, 8, 52, -22, 4, -13, 8, 31, -88, -53, -26, 127, 24, 120, -18, -11, -39, -52, -127, 9, 15, -88, 39, 5, 73, 45, 24, -100, -95, 127, -28, 10, -20, 15, -114, -76, 51, 31, 2, -87, -84, -23, 33, 127, 23, -8, -3, 68, 39, -28, -32, -37, -51, -10, 11, -62, -13, 27, -12, -60, -14, -7, 85, -71, -21, 1, 52, 1, -30, -1, 7, -66, 57, 45, -14, 19, 5, 127, 41, -116, 25, 28, 20, -26, 77, 0, -29, -9, 9, -6, 80, -10, 77, -18, 0, -7, -127, -47, 0, -48, -38, 127, 127, -24, -115, -127, -13, 53, -6, -4, 43, -78, 11, -9, 29, -16, 12, 5, -59, -21, -26, -123, 10, 26, 61, -34, -6, -11, -127, -9, 17, -2, 20, 8, 42, -54, 10, 127, -15, -12, 18, -127, 16, 127, -61, -104, 30, 39, 19, -46, -26, -12, -121, 127, 29, -82, 10, 24, -37, -39, -51, -31, -26, 32, 30, -18, 21, -62, 127, 1, 13, 30, 22, -47, 127, 15, -87, -21, -37, 57, 14, 28, -47, 37, 28, -1, 36, 74, -78, -23, -23, -4, -8, 15, 13, 127, -3, 7, 92, -37, -26, -7, 9, -15, -33, 8, 86, -16, -4, -96, 54, 127, -43, -45, 31, -81, 11, 1, 67, 25, -20, -127, -29, -28, -14, -105, 20, 4, 6, -19, -78, -26, 103, -28, -11, -32, 127, -76, -9, 21, 127, -12, -67, -17, -20, 14, -3, 127, -17, -10, -88, -32, -27, -37, 23, -6, -14, -127, 5, 31, -15, 0, -123, 32, 36, -35, -5, 16, -127, -19, -38, -40, -127, -14, -8, -13, 15, 34, 4, -101, 17, 8, -35, -1, -110, -10, -118, 40, 38, 27, -104, 3, -24, -44, 2, -55, -119, 22, 10, -33, 45, -3, 56, 16, 127, -1, 53, 75, 91, -18, 62, -95, 121, -101, 22, 49, 24, 27, -82, -30, -6, 36, -66, 69, 127, 10, -58, 5, 127, 113, -12, 51, 98, -21, 125, -127, -46, 67, 15, -16, -127, 39, -78, 31, -1, 7, -45, -8, -73, 5, -2, 127, -14, 40, -2, 23, -4, 0, 0, 4, -15, -102, 44, 15, 3, -27, -127, 6, -14, 127, 107, -38, 127, -36, -94, -39, -26, 127, 0, 127, 63, -127, -15, 68, -64, -40, 8, -40, -8, -127, 5, -1, 18, 16, 19, -66, -18, 20, 1, 30, 10, -6, -18, 25, -18, -1, -48, 26, 127, -19, -53, 99, 10, -91, 81, -127, 24, -33, -32, -13, -60, 12, 29, 23, -4, -6, -61, 115, -47, 37, 41, 3, 46, -75, 42, -13, 46, -16, -10, -31, -10, -5, 6, 30, 9, -7, 47, 19, -5, 14, 45, 120, -29, -14, -35, 3, -5, 15, -1, 12, 3, 127, -43, 127, -91, -16, -25, -37, -49, -99, -13, -11, -1, 47, 21, -37, 11, -34, 37, -32, -127, -4, -18, -30, 60, 4, -2, -38, 76, -3, 39, -127, 24, 5, -12, -25, -45, -68, 46, 21, 22, -46, 127, 3, 32, 127, 127, 15, 127, 28, 57, 7, 43, -32, 127, -28, -2, -39, -24, 17, -33, -46, 11, 23, 2, -9, 3, -26, -3, -68, -46, 34, 0, -54, 104, 60, -4, 10, 7, -100, -10, 69, -62, 17, -21, 2, -39, -89, -2, 55, -1, -79, -54, -15, 63, 16, 32, -16, 3, 45, -10, 20, -5, 1, -14, -13, 18, -21, -4, 14, 1, 1, -78, -1, 48, -44, -12, -11, 42, 24, -12, -4, 2, 9, -9, 5, -7, -12, 0, 35, -8, -14, 29, 8, 4, -8, 8, -15, -9, -10, 3, -5, 13, -11, -6, 6, -53, -24, -102, 2, -2, -1, 4, 45, 57, -39, -14, -28, -8, 18, -27, -5, 61, -53, -2, 3, -1, -6, 48, -11, -76, -15, 10, -43, 4, 1, 26, 0, 4, -42, 20, 16, 9, -12, 4, 13, 20, -5, -4, 26, -8, -12, 14, -64, 50, 4, -18, -56, -83, 1, 3, -52, -17, -11, -37, 28, 70, -73, -6, 0, -16, -22, -5, -7, 3, 0, 6, -10, 11, -22, 38, -1, 6, 2, 6, -2, 27, 3, -22, -13, -15, 13, -2, 7, -25, 16, 1, -2, -2, 35, -59, 11, -46, -7, -3, 6, 5, 20, -9, 22, -46, -3, -15, -41, 40, -15, -7, 0, 15, -10, -7, 8, 8, 17, -20, -37, -12, -16, 127, 8, 8, 0, -2, 36, -5, 7, 8, -61, -33, -5, -28, -18, -33, 16, 7, -11, 57, -18, 38, -15, -12, -6, 17, -9, -23, -62, -9, 33, -3, 53, 0, -22, -29, -10, -11, -4, 6, 10, 80, -25, 22, 10, 0, 4, -46, -2, 6, 10, -6, 7, 53, -14, -35, 8, -21, -2, 4, 9, 5, 0, 13, -17, -9, 10, -38, 4, -71, 9, 18, 3, 8, -9, -100, 7, 3, -35, 10, 9, -33, -1, -4, 10, 18, -3, -21, 15, 9, -9, 28, -1, 11, -8, 3, -34, 49, -104, -7, 15, 14, 17, 107, 8, -5, -6, 1, 7, 53, 18, -5, -5, 25, 83, -13, 5, 30, 109, 44, -39, -9, 22, -5, -5, -107, -8, -59, 11, -84, -21, -10, -28, -4, -10, -19, 42, 4, 37, -3, 6, 7, -2, -91, 7, 6, -109, 19, 87, -10, 11, 29, -8, 5, -21, 70, 5, 16, -8, -23, -1, 1, -5, 7, -45, 33, -32, 2, 30, -22, -7, -48, -26, -64, -30, 21, 0, 0, 1, -3, -22, -5, 10, 77, -4, -1, 8, 13, -13, -12, -14, 79, 14, 28, -7, 7, 61, 30, -5, 8, -44, -1, -39, -35, 5, 10, 7, 49, -8, 11, -7, -42, -29, -1, 10, 47, 0, -8, 33, 0, -18, -26, 5, -3, -34, 10, 1, 12, 0, -10, -2, 53, -8, -7, 53, 48, 48, -34, -30, -65, -8, -32, 10, 45, -26, 85, 21, 16, 9, -69, 25, -13, 14, -53, -59, 0, -10, -2, 8, 8, 8, -5, -7, -10, -13, -39, 3, -1, 8, 20, -6, 34, -23, 25, 35, -2, -47, 4, -1, 4, 1, -16, -16, 12, 2, -8, -7, 23, -5, 12, 58, -12, 44, 57, 87, 1, -50, 0, 4, 61, -22, 2, -21, 7};

static const int32_t L019_dw_bias[512] = {-2492, 23631, 654, 13075, -897, -1735, 24242, 14438, 19208, 16978, -4508, 8302, 24071, -3868, -2079, 4720, 9956, -10752, 26778, -5318, 39652, 39703, 19496, 873, 14741, 12461, -17580, 22867, 31279, -7881, -2182, -10613, 20597, -3350, -4607, -6183, -45, 273, -8856, -9371, 1773, -3740, 34130, -5390, -4983, 155, 9249, -7664, 14087, 22387, -5970, 3282, 11788, 6824, -7457, 15714, 14242, 11954, 7822, 6372, 23238, 14374, 5510, -4464, 1920, -6767, 7950, 8118, 10109, 22067, -8074, 1263, 22015, -26452, -8328, -6634, 24890, -8480, 19035, 8838, -1525, -8930, 8805, 29915, 7527, -10110, -4623, 25160, -8616, 25928, 15646, 213, 20871, 16210, 15551, 4236, 14630, 20851, 27431, 19219, -90, -7775, 6357, 12296, 5240, -8058, 14463, 2858, -8793, 4908, 2410, 21202, -8641, 15523, 17447, 8985, -6107, 13870, -5044, -8296, 11696, 19069, 21721, 153, 2847, -1053, 34108, 15139, 18476, -1581, -9800, 3220, -1909, -3943, 23339, 11420, -4836, 14303, 17600, -3785, -743, -3733, 24826, 9393, 6775, 22274, -6968, -22937, 22488, -5600, -6571, 41840, 15151, 6399, 475, 14550, -29583, -7261, 6613, -12767, 19786, -7401, -12032, -4728, -3215, -2311, 21253, -2812, 12759, 14234, 9313, -2760, 9289, -2907, -16013, -904, -7410, -3595, -3672, 19035, 13062, 18026, 13269, 28636, 9705, 5453, -7135, -5761, 10138, -8374, -3252, -6303, -7202, -1028, -291, 29618, -4713, -6374, -2854, -5917, 12488, -3791, 18826, -1300, -1113, 7408, -840, -6244, 19669, 28737, 14328, -5835, 29031, 10852, -1332, 1949, 13106, 24964, 30773, 18516, -7869, 10631, 2166, 17423, 10007, 29750, 12907, -6181, 3268, -7133, 26420, -173, 12410, 3203, -5534, 19822, 24478, 278, 13011, 10838, 18154, 23554, 1661, -4762, 4207, 4502, -7327, -7302, -18997, 12723, 24713, 26925, 17641, -2550, -5545, 33588, 7769, -2738, 8438, 22279, -6150, -4056, 16629, 1823, -4349, 15210, 21997, -4077, 5386, -8752, -3039, -7171, 40671, 8496, 9425, 23063, -7490, 50215, -631, 3712, -2350, -4731, -7711, 26930, 17075, -6917, 21433, 1256, 15769, 42706, 10518, -5763, -5946, 15983, -4829, -7941, -5492, -5487, 5858, -3215, -15901, 12182, -6955, -2414, 37540, 27632, 33388, 2524, -15418, -15958, -6430, -9719, 13633, -2937, 17198, 8786, -6243, -6802, -18434, -1463, -8325, 6014, 14027, 20999, -4972, -35990, 19862, 26599, 17759, 4094, -1369, 6248, 7110, 26488, 19993, 46146, -855, 48369, 648, 17461, -438, 8580, 6461, -5987, -6440, 11499, -15971, 1326, -8723, -6822, 5255, 56710, 10578, -8804, 30361, -11314, 27502, -5121, 10618, 32434, 3217, -3859, 2339, 22881, 17498, 31249, -4904, 13715, -3088, 11878, 2545, 9158, 14028, 6875, 16679, 33469, 18488, 12538, 10648, 24637, 1962, 8705, 27579, -8898, 5998, -8473, 8617, -7885, 8569, 8442, -3756, -16183, -10652, -9203, 13751, -3530, 7693, 12799, 8526, -17673, -4058, 723, -7307, 56, -375, -4726, 30626, -5931, 15876, -25922, 22761, 245, -7880, 13425, 34677, -3115, 4119, -4907, -3092, 27487, -18272, 20318, -6517, 16598, -3049, 13307, -5136, -4976, -1642, -16880, -2736, 8719, 8264, -5302, -5953, 18295, -1016, 5059, 2569, -23, -213, 23246, 12773, 2366, 11799, -8075, 19793, 35202, -2710, 15653, -12132, 15189, 10077, -11276, 2567, 11843, -1413, 51388, 16224, 2727, 21081, 8969, 42264, 17093, 9473, 2321, -5752, -6358, 15523, 951, 26872, 2863, 11123, 26388, -5472, 14647, -3323, -18027, 427, -2862, 6055, -14823, -9982, -12278, 22556, 1075, -1118, 5525, 15315, 9081, 11237, -6275, -5659, -10224, -1081, 20969, -4895, -7238, 21385, 10853, -7268, 12815, 45599, -18550, -15971, -996, 19659, 29141, -1975, 11760, 5474, 24535};

static const int32_t L019_dw_output_multiplier[512] = {1824758400, 1606758528, 1157258752, 2145271296, 1581145216, 1628883584, 1150726912, 1186356736, 1521736576, 1777740288, 1765254400, 1181399040, 1134274688, 1228462848, 1271763840, 1567403904, 1966359680, 1280881664, 1803843584, 1268714624, 1768259584, 1207882112, 1294039296, 1219155456, 1185905152, 1212432512, 1394300288, 1451661184, 1259941632, 1827680256, 1316583808, 1982954624, 1313899008, 1104727552, 1211100928, 2124747520, 1481561472, 2107648256, 1431143936, 1450510720, 1199375488, 1901628544, 1947316864, 1774772736, 1106427520, 1385861504, 2078975744, 1114967296, 1320631552, 1707056512, 1338150144, 1986278016, 1708865920, 1100999552, 1426948608, 1819079168, 2039536512, 2069633792, 1892527232, 1864288768, 1155186560, 1244572160, 1292220416, 1722339328, 1088550912, 1968123264, 1537377792, 1472042368, 1982968576, 1509242624, 2083069312, 1920736512, 1731750912, 1656575872, 1944764672, 1230602880, 1440821760, 1292884992, 1286539904, 1357700352, 1631922560, 1187491840, 2119152000, 1528651264, 1896450688, 1328296192, 1135693312, 1335424000, 1334931584, 1361592448, 1182737664, 1675020800, 1837971712, 1765070208, 1297475456, 1470790400, 1301232384, 1222836608, 1876912768, 1220505088, 1755158912, 2014009728, 1411182592, 1364522752, 1375415936, 1857310464, 1279612928, 1805121408, 1781610880, 1775552000, 1350619904, 1881424256, 1671046016, 1272833792, 1243996416, 1607696896, 1199331200, 1308047360, 1948842112, 1857297024, 1420159616, 1378127360, 2044980608, 1997865216, 1372892160, 1833499392, 1597277824, 1836719104, 2135668352, 1720195328, 2075724672, 1520967040, 1144576000, 1862097408, 1864131968, 1534664576, 1253468800, 1916174080, 2041674752, 1549539328, 1475492480, 1151659392, 1673864064, 1197444992, 1227246976, 1696673920, 1087614208, 1687943808, 1605475072, 1114459648, 2026931712, 1831349248, 1687074432, 1115124480, 1568464768, 1670300288, 1508225280, 1112373632, 1332836096, 1695308160, 1630082944, 1858839808, 1328288128, 1348598400, 2082653312, 1929987072, 1180017280, 1711651840, 1670601600, 1490370688, 1338181632, 1234542080, 1229990656, 2109906304, 1112685184, 1455152768, 2103654656, 1185389824, 1198141312, 2102759936, 1968861952, 1399945088, 1385304960, 2124828032, 1893187840, 1915891840, 1347181696, 1167992832, 1744647040, 1444915456, 1259966464, 1454636672, 1151382144, 1115864320, 2121857536, 1787983488, 1550401280, 2056817408, 1563813504, 1836285184, 1600688768, 1801294080, 1468305664, 1585747584, 1414033792, 1912360448, 1827938048, 1261037824, 1083312896, 1666925824, 1624015744, 1486019584, 1264946048, 1293072896, 1395966080, 1139846528, 1248918144, 2104353152, 1954047744, 1588749056, 1868361984, 1793867008, 1807540864, 2142212992, 1500830336, 1699995392, 1576479872, 1572941568, 1466467584, 1352471040, 1339101184, 1345334912, 1150784000, 1886054656, 1206955904, 1159608320, 1286548096, 1545994752, 1733352832, 1294582400, 1144412416, 1312786560, 1806011904, 1577796992, 1140562304, 1998249728, 1683242240, 1528302720, 1140487680, 1806211200, 1788115456, 1258500608, 1757844864, 1299433216, 1644849024, 2111407104, 1272145920, 2028279552, 1333690624, 1188287104, 1895800064, 1265954176, 2089952384, 1851322112, 1316132224, 1486067456, 1076477696, 1252082048, 1216637440, 1223295872, 1688796800, 1163964288, 1515912960, 1129630464, 1700298624, 1906420992, 1861630336, 1424721152, 1628817024, 1638844032, 1833101184, 1384789504, 1229676160, 1273168000, 1552722176, 1287123200, 1081387648, 1662997632, 1837869056, 1763689216, 1725663360, 1302075392, 1777567232, 1473950080, 1753991168, 1106133632, 1766620672, 1375294592, 1380960768, 1388831488, 1415744384, 1750707072, 1727203584, 1345757568, 1795883264, 1355758848, 2090091648, 1885029120, 1088753792, 2000419712, 1303322112, 1644663936, 1371463040, 2024356992, 1430187520, 1570334592, 2117182976, 1954026240, 1365641472, 2039977600, 1178591744, 1093937792, 1098678656, 1686281728, 1955293312, 1511001088, 1101275392, 2058423296, 2123370368, 1080319360, 1925860864, 1321652480, 1477036544, 1327085440, 1524361088, 1176381440, 1751490432, 1279358720, 1299672064, 1814445440, 1167419264, 1380193920, 1246648832, 1698062208, 1818887168, 1089432576, 1441082624, 1623713024, 1087403648, 1248996352, 1405231232, 1224529024, 1877590784, 1290314240, 1881122688, 1342894080, 1659348352, 1744755584, 1462758912, 2083636608, 1652977408, 1895311104, 1432144640, 1304204160, 1324658048, 1595419392, 1777639040, 1432323712, 1105284352, 1886078464, 1263228032, 1814460928, 1110148608, 1918964992, 1660470272, 2036443136, 2033806336, 1432595328, 1635972608, 1594037504, 1251926272, 1629235712, 1426191232, 1869846400, 1666794240, 1673173504, 1166316928, 1081632256, 1912872832, 1219799808, 2075659008, 1960423552, 1623014784, 1898935680, 1550071552, 1700749568, 1947968640, 2115169920, 1292359552, 1593132416, 1972788608, 1513492352, 1480811520, 1520643968, 2117967232, 1082842752, 1974184960, 1914477696, 1371335680, 1477131776, 1888024192, 2041185152, 1185588608, 1520947456, 1725521664, 1868878592, 1724223488, 1700260992, 1303623808, 2062152448, 1600748672, 1523316736, 1183967360, 2004916480, 2020031360, 1734174976, 1682349056, 1259802624, 1434683264, 1222904576, 1502894720, 1085585920, 1331034240, 1746382720, 1476695680, 1486593792, 1805683072, 1166265984, 1088690176, 1943305984, 1237732608, 2096703616, 1315323520, 1988746112, 1951107456, 1216275072, 1120665088, 1632430080, 1627324672, 1732571648, 1510794368, 1430675328, 1702130432, 1290098944, 1650721152, 1934054272, 1231011072, 1438120192, 1457244032, 2098726400, 1514308608, 1184745728, 1885693696, 1087619456, 1195867520, 1472292992, 2113623040, 1189030784, 1267911936, 1074778752, 1478390144, 1520856832, 1858270976, 1264056832, 1435251328, 1085348736, 1910554496, 1641362816, 1379979392, 1585230592, 1828400768, 1281688320, 1302950016, 1107004160, 2102809088, 1807268608, 1554544512, 2069107328, 1446315392, 1593897344, 1530875648, 1152929280, 1145233280, 1825314048, 1121947904, 1202412544, 1090726144, 1381594496, 1546975360, 1969686400, 1841953408, 1445800704, 1370055808, 1300208384, 1923460480, 1736941824, 1384796928, 1705618432, 1690422016, 1749731712, 1837062528, 1530852736};
static const int32_t L019_dw_output_shift[512] = {-7, -8, -7, -6, -7, -7, -7, -7, -7, -7, -7, -7, -7, -6, -6, -7, -8, -6, -7, -6, -9, -8, -7, -7, -6, -7, -6, -8, -8, -7, -6, -7, -7, -6, -6, -7, -6, -7, -6, -6, -5, -7, -8, -6, -5, -7, -7, -6, -7, -7, -6, -7, -7, -7, -6, -7, -7, -7, -7, -7, -7, -6, -6, -6, -6, -7, -7, -6, -7, -7, -7, -7, -7, -7, -7, -6, -7, -6, -8, -6, -7, -6, -7, -7, -7, -7, -6, -7, -6, -8, -7, -5, -8, -7, -7, -6, -7, -7, -8, -6, -6, -8, -6, -7, -7, -4, -7, -7, -7, -7, -6, -8, -7, -6, -7, -7, -6, -6, -7, -6, -8, -6, -8, -7, -6, -7, -8, -7, -8, -7, -7, -6, -6, -7, -8, -7, -7, -7, -8, -7, -7, -6, -8, -6, -6, -7, -6, -8, -8, -6, -7, -9, -7, -6, -6, -7, -8, -6, -6, -5, -7, -7, -6, -6, -7, -7, -7, -7, -6, -7, -6, -6, -7, -7, -6, -6, -6, -6, -6, -7, -7, -7, -7, -8, -7, -6, -6, -6, -7, -6, -6, -7, -5, -6, -7, -8, -6, -7, -6, -7, -7, -6, -6, -7, -7, -8, -7, -7, -7, -8, -6, -7, -7, -6, -6, -6, -5, -8, -8, -7, -6, -7, -7, -8, -6, -8, -7, -7, -6, -7, -7, -6, -6, -7, -6, -7, -7, -6, -7, -7, -7, -7, -7, -7, -6, -7, -6, -7, -6, -7, -7, -7, -7, -6, -6, -9, -6, -7, -7, -7, -7, -6, -7, -6, -6, -7, -7, -6, -6, -6, -7, -6, -7, -6, -7, -8, -7, -9, -7, -7, -7, -6, -5, -7, -7, -6, -7, -6, -6, -9, -7, -6, -7, -7, -6, -6, -7, -6, -6, -7, -6, -7, -6, -6, -9, -7, -8, -7, -6, -6, -6, -7, -6, -7, -7, -7, -7, -7, -6, -7, -6, -7, -7, -7, -7, -7, -7, -8, -8, -6, -6, -6, -6, -8, -7, -8, -7, -8, -6, -7, -5, -7, -6, -7, -7, -6, -7, -6, -6, -6, -6, -8, -7, -6, -9, -6, -8, -6, -7, -8, -6, -7, -6, -7, -7, -8, -6, -7, -6, -6, -6, -5, -6, -7, -7, -8, -8, -7, -6, -8, -6, -7, -7, -7, -7, -6, -6, -6, -7, -6, -7, -7, -7, -6, -7, -8, -7, -7, -6, -7, -7, -7, -6, -6, -8, -6, -9, -7, -7, -7, -8, -7, -6, -7, -8, -7, -7, -7, -6, -8, -7, -7, -6, -7, -7, -7, -7, -6, -7, -7, -7, -6, -6, -7, -6, -6, -7, -6, -6, -7, -6, -8, -6, -7, -7, -7, -7, -8, -6, -7, -6, -6, -7, -7, -6, -7, -6, -8, -6, -7, -8, -7, -9, -6, -6, -6, -7, -6, -6, -6, -8, -6, -8, -8, -7, -6, -7, -6, -6, -7, -7, -6, -6, -6, -8, -7, -6, -7, -7, -7, -7, -6, -6, -7, -7, -7, -6, -6, -7, -7, -6, -7, -8, -6, -7, -7, -7, -8, -7, -6, -7, -8};

#endif  // LAYER_019_DEPTHWISE_CONV_2D_H_
