#ifndef LAYER_023_DEPTHWISE_CONV_2D_H_
#define LAYER_023_DEPTHWISE_CONV_2D_H_

#include <stdint.h>

// op_index=23 op=DEPTHWISE_CONV_2D
// input:  idx=80 name=mobilenet_v1_eurosat_1/conv_pw_11_relu_1/Relu6;mobilenet_v1_eurosat_1/conv_pw_11_bn_1/batchnorm/add_1;mobilenet_v1_eurosat_1/conv_pw_11_1/convolution; shape=[1, 8, 8, 512] dtype=int8
// weights: idx=11 name=tfl.pseudo_qconst9 shape=[1, 3, 3, 512] dtype=int8
// output: idx=81 name=mobilenet_v1_eurosat_1/conv_dw_12_relu_1/Relu6;mobilenet_v1_eurosat_1/conv_dw_12_bn_1/batchnorm/add_1;mobilenet_v1_eurosat_1/conv_dw_12_bn_1/batchnorm/mul_1;mobilenet_v1_eurosat_1/conv_dw_12_1/depthwise;;mobilenet_v1_eurosat_1/conv_pad_12_1/Pad shape=[1, 4, 4, 512] dtype=int8

#define L023_DW_OUT_CH (512)
#define L023_DW_KH     (3)
#define L023_DW_KW     (3)
#define L023_DW_STRIDE_H (1)
#define L023_DW_STRIDE_W (1)
#define L023_DW_DILATION_H (1)
#define L023_DW_DILATION_W (1)
#define L023_DW_DEPTH_MULTIPLIER (1)
#define L023_DW_PAD_H (0)
#define L023_DW_PAD_W (0)

static const int32_t L023_dw_input_offset = 128;
static const int32_t L023_dw_output_offset = -128;

static const int8_t L023_dw_weights[4608] = {-100, 76, -16, -71, -81, 95, 76, -76, 69, 69, 88, 73, 86, -73, 74, 68, -80, 72, -72, 59, 105, -73, -71, 98, 96, -127, -77, -69, 71, -69, 62, -101, -76, -117, 71, 68, 72, -52, -100, 71, -81, -64, 80, 77, 62, 76, 73, 77, -69, 67, -70, 72, 64, 71, 70, -69, 76, 63, 77, 70, 76, -69, 69, -83, 72, 70, -71, 73, -67, 68, 76, -112, -100, -69, 69, -47, 75, 70, 72, 71, -75, 69, 69, 101, 69, 72, 67, 73, -88, -62, 69, 108, 73, 79, -67, 77, 65, -67, 80, -62, 70, 79, 72, -66, 73, -67, 127, -75, 67, 73, 60, 73, 66, 63, 64, 68, -69, 80, -72, -94, -127, -33, 78, -95, 72, -81, 80, -115, 68, 78, -99, 66, -99, 88, 74, 68, 94, 77, -63, 75, -85, 79, 69, -80, -65, -99, 71, 79, 71, -73, 78, 75, -107, -114, 77, 76, -44, 70, 68, 65, 71, 82, -66, -32, 62, 63, -68, 75, 62, 81, -106, 70, 66, -75, 69, -64, -62, 103, 70, -80, -106, -99, 71, -110, -64, -68, -62, 75, -96, 72, 73, -49, -2, 65, 79, 92, -64, 67, 82, -75, -79, 75, 66, -65, 71, 78, -64, 68, -111, -65, 73, 81, -90, -102, 66, -70, 63, 80, -68, 70, -73, 67, -113, -101, -70, 71, -77, 71, -72, 71, 75, 77, 75, -61, -99, 70, 67, 66, -99, 77, -112, 88, 77, 72, -15, 75, 68, 68, 83, -72, -81, 69, 73, -112, 77, 73, 75, -65, 87, 57, -68, 71, 74, 66, -101, 81, 64, -77, 75, 73, 69, 62, 91, -76, 64, -106, 75, 72, -104, 68, 61, 80, -77, 69, 75, -74, 77, 66, 72, 78, 80, -79, -106, 69, 67, -65, 58, 62, 80, 77, -73, -78, -74, 68, -98, 61, 18, -77, -72, -109, -93, -64, 74, 80, -83, -123, -100, 75, -101, -69, 110, 81, 81, 67, 68, -97, -94, 73, 61, 29, 77, 73, -69, 112, -70, -15, 72, 74, 72, -127, 65, 75, 75, -5, 66, 104, -78, 72, 73, 69, 127, 68, 73, -67, -68, 76, -62, 73, 70, -67, -75, 78, -77, 66, 77, 67, -73, 74, -95, -62, 76, -70, 66, 78, 75, 77, -75, -71, 73, -16, -111, 74, 96, -74, -82, -114, 72, -77, 73, 76, 66, 70, 97, -68, 3, -63, 50, 68, -89, -106, 79, 70, 74, -106, -101, 72, 64, -124, -127, -93, 66, 71, -75, -73, 52, 74, 65, -65, -104, -73, 63, 78, -82, -57, 75, 71, 57, -76, 72, -89, -66, -72, -67, -67, 74, -80, -78, 73, 81, 90, 71, -127, 65, -67, -74, 70, 80, 61, -68, -83, 65, -97, 56, -68, 73, 65, 74, 78, -70, 73, -62, -71, -76, 76, -70, -113, -91, 64, 92, 71, 70, -61, 76, -72, 96, 71, -68, 64, 72, 80, 81, -99, 84, -76, 82, -101, 72, 77, 97, 69, 70, -84, 72, 81, 72, 75, 81, 70, -60, 47, -63, -63, 89, -107, -108, -102, -68, 30, 80, 58, -102, -98, -127, 97, -20, -94, -102, 116, 93, -100, 89, 85, 103, 92, 107, -93, 95, 89, -104, 89, -92, 72, 127, -95, -96, 105, 121, -127, -104, -89, 92, -94, 79, -127, -98, -127, 92, 86, 92, -127, -120, 92, -102, -83, 103, 97, 83, 99, 96, 97, -94, 89, -91, 93, 87, 95, 89, -92, 100, 81, 106, 95, 98, -91, 87, -101, 89, 93, -93, 97, -91, 89, 97, -81, -127, -88, 90, -53, 96, 85, 94, 90, -94, 90, 91, 127, 89, 96, 88, 95, -107, -87, 88, 118, 87, 98, -87, 96, 83, -80, 99, -81, 90, 103, 93, -86, 89, -91, 109, -98, 85, 94, 77, 95, 88, 86, 85, 87, -85, 108, -94, -109, 5, 74, 102, -113, 96, -99, 102, -127, 89, 101, -127, 83, -114, 117, 92, 79, 121, 97, -85, 96, -106, 96, 88, -105, -86, -121, 92, 100, 90, -97, 101, 96, -114, -127, 98, 97, -64, 89, 87, 88, 90, 104, -85, -46, 79, 81, -85, 95, 80, 95, -105, 90, 88, -101, 92, -91, -84, -61, 91, -106, -127, -124, 89, -116, -85, -89, -83, 98, -127, 93, 97, -66, -2, 84, 101, 117, -84, 89, 108, -96, -96, 96, 85, -84, 91, 98, -89, 88, -125, -77, 93, 102, -105, -115, 88, -90, 83, 102, -95, 94, -96, 91, -127, -127, -93, 93, -96, 96, -94, 93, 95, 98, 98, -86, -127, 91, 87, 85, -127, 98, -4, 112, 101, 93, -36, 92, 92, 89, 104, -95, 84, 89, 97, -103, 92, 92, 95, -88, 106, 74, -91, 91, 94, 86, -127, 102, 85, -100, 93, 91, 88, 80, 111, -101, 84, -127, 96, 95, -127, 88, 76, 103, -100, 93, 92, -96, 102, 77, 93, 99, 98, -106, -127, 93, 88, -86, 78, 73, 102, 97, -97, -93, -93, 88, -114, 77, 29, -98, -93, -127, -111, -84, 94, 99, -112, 42, -123, 98, -127, -96, 127, 102, 104, 91, 87, -127, -127, 90, 85, 34, 94, 96, -91, 127, -89, -28, 93, 92, 88, -73, 82, 97, 93, -6, 86, -46, -97, 91, 91, 85, 88, 84, 90, -87, -89, 97, -84, 92, 86, -90, -94, 105, -99, 85, 98, 86, -94, 98, -108, -82, 127, -93, 85, 102, 96, 103, -95, -94, 97, -14, -127, 95, 127, -94, -105, -127, 89, -96, 92, 94, 87, 90, 126, -92, 2, -80, 60, 83, -110, -115, 95, 91, 98, -103, -119, 93, 85, -127, -97, -118, 86, 89, -96, -95, 68, 96, 86, -82, -127, -96, 85, 97, -106, -75, 96, 93, 61, -95, 96, -112, -86, -91, -86, -89, 95, -103, -105, 94, 104, 108, 91, -111, 87, -90, -97, 87, 100, 78, -88, -102, 86, -123, 74, -86, 94, 86, 98, 100, -93, 94, -71, -93, -102, 97, -88, -127, -118, 85, 118, 90, 93, -81, 99, -97, 120, 90, -86, 83, 91, 105, 101, -119, 107, -98, 103, -107, 94, 98, 127, 86, 88, -105, 93, 102, 89, 99, 99, 91, -76, 50, -83, -85, 110, -127, -76, -127, -85, 34, 99, 72, -121, -117, -60, 49, -11, -45, -48, 57, 47, -49, 38, 37, 59, 41, 56, -37, 45, 43, -42, 40, -43, 39, 66, -41, -42, 72, 46, -67, -52, -39, 45, -38, 44, -48, -35, -61, 44, 39, 44, -71, -49, 41, -50, -37, 52, 41, 40, 46, 40, 48, -46, 41, -41, 44, 39, 40, 33, -42, 43, 36, 56, 45, 45, -38, 42, -37, 36, 41, -42, 49, -46, 39, 46, -68, -55, -37, 45, -13, 44, 41, 48, 40, -39, 38, 42, 20, 43, 46, 40, 46, -30, -42, 36, 22, 44, 43, -37, 40, 42, -35, 53, -38, 42, 50, 43, -38, 37, -44, -15, -48, 38, 42, 35, 43, 37, 38, 35, 43, -40, 54, -44, -61, -127, -20, 48, -42, 48, -42, 45, -42, 43, 49, -60, 38, -49, 59, 43, 42, 57, 47, -38, 39, -46, 40, 38, -50, -38, -63, 39, 48, 43, -45, 45, 43, -59, -50, 54, 46, -30, 37, 39, 39, 40, 50, -37, -30, 32, 32, -37, 43, 36, 53, -55, 45, 43, -46, 40, -37, -38, -23, 43, -53, -54, -56, 36, -67, -37, -43, -37, 50, -63, 45, 46, -28, 1, 35, 53, 56, -36, 43, 57, -43, -44, 43, 39, -38, 41, 47, -42, 37, -57, -47, 47, 48, -49, -64, 45, -42, 36, 55, -40, 43, -42, 38, -42, -52, -41, 43, -45, 51, -41, 42, 46, 49, 45, -39, -56, 39, 39, 37, -64, 44, 108, 52, 47, 37, -3, 43, 45, 40, 44, -41, 105, 39, 46, -58, 45, 38, 43, -42, 49, 65, -38, 44, 43, 37, -41, 52, 38, -49, 39, 41, 40, 46, 56, -45, 30, -42, 44, 43, -59, 42, 46, 48, -41, 43, 40, -45, 51, -6, 45, 46, 45, -46, -52, 44, 43, -40, 36, 28, 53, 46, -46, -38, -42, 45, -55, 31, 16, -46, -42, -64, -61, -38, 38, 44, -55, 81, -64, 45, -55, -46, 64, 49, 49, 44, 37, -52, -57, 42, 38, 18, 42, 41, -39, 73, -36, -7, 42, 42, 46, -71, 37, 48, 42, -20, 37, -127, -46, 39, 47, 40, -13, 37, 46, -39, -43, 55, -38, 42, 41, -45, -40, 48, -47, 37, 45, 39, -40, 46, -47, -35, -36, -45, 37, 52, 44, 50, -44, -33, 46, -8, -68, 40, 38, -39, -44, -68, 32, -44, 40, 44, 42, 45, 49, -38, 6, -34, 36, 34, -49, -75, 42, 41, 45, -71, -66, 42, 36, -74, -79, -39, 39, 43, -38, -43, 23, 46, 39, -40, -52, -46, 42, 43, -47, -36, 47, 42, 30, -43, 45, -49, -42, -41, -39, -40, 49, -45, -45, 44, 54, 47, 42, -83, 47, -47, -48, 41, 47, 38, -43, -52, 34, -63, 34, -38, 42, 41, 43, 44, -40, 47, -37, -39, -45, 41, -40, -77, -40, 43, 61, 37, 40, -36, 44, -48, 50, 39, -37, 37, 40, 52, 59, -41, 53, -47, 52, -52, 45, 44, 56, 34, 43, -47, 46, 51, 41, 48, 48, 40, -42, 29, -41, -36, 49, -58, -127, -58, -39, 17, 44, 36, -52, -50, -93, 99, -96, -95, -97, 112, 99, -105, 98, 100, 104, 102, 102, -100, 95, 96, -104, 99, -97, 104, 74, -100, -93, -28, 100, -123, -98, -97, 96, -99, 98, -102, -97, -120, 98, 99, 96, -43, -104, 100, -100, -90, 102, 97, 94, 98, 101, 101, -97, 98, -96, 97, 94, 98, 96, -94, 96, 101, 94, 97, 97, -95, 99, -97, 98, 93, -96, 98, -96, 97, 93, -127, -42, -98, 102, -111, 99, 98, 96, 99, -96, 100, 96, -12, 94, 94, 99, 95, -106, -91, 99, 109, 101, 100, -94, 101, 102, -99, 100, -94, 96, 101, 99, -97, 99, -95, 96, -96, 99, 98, 101, 99, 96, 99, 97, 98, -96, 97, -96, -121, -19, 94, 99, -117, 97, -104, 97, -97, 94, 96, -12, 99, -109, 92, 102, 97, 100, 95, -93, 98, -109, 101, 102, -96, -97, -110, 98, 102, 100, -95, 98, 99, -126, -127, 97, 100, -95, 96, 95, 94, 100, 101, -94, -95, 98, 97, -99, 100, 98, 101, -124, 94, 96, -99, 95, -90, -95, 127, 96, -97, -38, -112, 96, -127, -96, -97, -96, 95, -90, 95, 97, 31, -53, 97, 99, 99, -98, 94, 98, -98, -108, 98, 101, -95, 99, 99, -93, 96, -120, -97, 99, 101, -116, -127, 98, -101, 97, 100, -101, 93, -99, 97, -21, -85, -100, 100, -100, 94, -96, 99, 103, 98, 99, -96, -65, 100, 95, 102, -49, 99, -108, 96, 100, 96, 54, 101, 95, 96, 102, -100, -58, 97, 95, -127, 96, 98, 99, -94, 101, 97, -93, 96, 98, 96, -47, 102, 96, -96, 97, 98, 96, 98, 103, -96, 96, -95, 98, 95, -62, 98, 98, 97, -99, 94, 101, -97, 96, 114, 96, 103, 98, -94, -117, 95, 99, -96, 99, 86, 101, 97, -100, -107, -96, 101, -115, 95, -60, -96, -97, -127, -7, -99, 100, 99, -100, -125, -127, 94, -63, -96, 93, 101, 98, 96, 99, -51, -102, 99, 98, 76, 99, 96, -96, 10, -97, 72, 99, 98, 110, -90, 100, 99, 101, 102, 98, 127, -102, 100, 101, 99, 113, 100, 101, -97, -97, 101, -96, 99, 98, -95, -100, 98, -96, 99, 99, 94, -97, 95, -116, -93, 44, -94, 96, 99, 98, 101, -97, -96, 97, 106, -10, 99, 46, -98, -97, -121, 99, -95, 99, 102, 94, 97, 99, -95, -80, -99, 103, 100, -122, 15, 99, 101, 98, -127, -120, 99, 95, -66, -118, -119, 97, 99, -97, -99, -36, 100, 97, -97, -103, -97, 96, 97, -99, -95, 100, 97, 108, -98, 97, -100, -98, -99, -96, -95, 100, -94, -97, 97, 102, 98, 94, -92, 103, -97, -96, 101, 99, 103, -95, -108, 96, -96, 96, -95, 99, 96, 100, 100, -95, 99, -95, -95, -98, 99, -99, -83, -97, 94, 99, 99, 98, -95, 95, -96, 102, 100, -99, 96, 96, 99, 99, -103, 103, -97, 105, -127, 99, 100, 85, 97, 98, -99, 93, 101, 97, 93, 98, 97, -101, 98, -100, -95, 102, -56, 49, -77, -96, 97, 100, 99, -125, -107, -122, 127, -124, -127, -127, 127, 127, -127, 127, 127, 127, 127, 127, -127, 127, 127, -127, 127, -127, 127, 82, -127, -127, -40, 127, -96, -127, -127, 127, -127, 127, -115, -127, -124, 127, 127, 127, -99, -127, 127, -127, -127, 127, 127, 127, 127, 127, 127, -127, 127, -127, 127, 127, 127, 127, -127, 127, 127, 127, 127, 127, -127, 127, -127, 127, 127, -127, 127, -127, 127, 127, -114, -42, -127, 127, -127, 127, 127, 127, 127, -127, 127, 127, -11, 127, 127, 127, 127, -127, -127, 127, 127, 127, 127, -127, 127, 127, -127, 127, -127, 127, 127, 127, -127, 127, -127, 96, -127, 127, 127, 127, 127, 127, 127, 127, 127, -127, 127, -127, -127, 115, 127, 127, -127, 127, -127, 127, -98, 127, 127, -12, 127, -127, 127, 127, 127, 127, 127, -127, 127, -127, 127, 127, -127, -127, -127, 127, 127, 127, -127, 127, 127, -127, -121, 127, 127, -127, 127, 127, 127, 127, 127, -127, -120, 127, 127, -127, 127, 127, 127, -127, 127, 127, -127, 127, -127, -127, -44, 127, -127, -43, -127, 127, -96, -127, -127, -127, 127, -110, 127, 127, 31, -63, 127, 127, 127, -127, 127, 127, -127, -127, 127, 127, -127, 127, 127, -127, 127, -127, -127, 127, 127, -127, -119, 127, -127, 127, 127, -127, 127, -127, 127, -18, -97, -127, 127, -127, 127, -127, 127, 127, 127, 127, -127, -82, 127, 127, 127, -58, 127, -3, 127, 127, 127, 67, 127, 127, 127, 127, -127, 110, 127, 127, -105, 127, 127, 127, -127, 127, 127, -127, 127, 127, 127, -59, 127, 127, -127, 127, 127, 127, 127, 127, -127, 127, -113, 127, 127, -70, 127, 127, 127, -127, 127, 127, -127, 127, 127, 127, 127, 127, -127, -126, 127, 127, -127, 127, 107, 127, 127, -127, -127, -127, 127, -127, 127, -70, -127, -127, -111, -19, -127, 127, 127, -127, 57, -123, 127, -79, -127, 119, 127, 127, 127, 127, -57, -126, 127, 127, 94, 127, 127, -127, -2, -127, 84, 127, 127, 121, -22, 127, 127, 127, 127, 127, -70, -127, 127, 127, 127, 107, 127, 127, -127, -127, 127, -127, 127, 127, -127, -127, 127, -127, 127, 127, 127, -127, 127, -127, -127, 63, -127, 127, 127, 127, 127, -127, -127, 127, 127, 2, 127, 63, -127, -127, -111, 127, -127, 127, 127, 127, 127, 127, -127, -109, -127, 126, 127, -127, 1, 127, 127, 127, -83, -127, 127, 127, -25, -98, -127, 127, 127, -127, -127, -41, 127, 127, -127, -121, -127, 127, 127, -127, -127, 127, 127, 127, -127, 127, -127, -127, -127, -127, -127, 127, -127, -127, 127, 127, 127, 127, -59, 127, -127, -127, 127, 127, 127, -127, -127, 127, -127, 127, -127, 127, 127, 127, 127, -127, 127, -127, -127, -127, 127, -127, -83, -127, 127, 127, 127, 127, -127, 127, -127, 127, 127, -127, 127, 127, 127, 127, -127, 127, -127, 127, -127, 127, 127, 107, 127, 127, -127, 127, 127, 127, 127, 127, 127, -127, 127, -127, -127, 127, -58, 57, -90, -127, 127, 127, 127, -127, -127, -61, 61, -56, -58, -65, 75, 66, -72, 59, 57, 64, 66, 68, -64, 60, 62, -67, 62, -64, 65, 53, -62, -58, -8, 62, -79, -66, -60, 65, -62, 68, -51, -48, -80, 61, 60, 61, -50, -62, 63, -67, -63, 64, 59, 64, 58, 65, 61, -62, 59, -61, 57, 58, 55, 56, -62, 63, 62, 69, 63, 62, -62, 59, -51, 64, 61, -59, 66, -63, 60, 59, -91, -23, -61, 58, -60, 61, 57, 64, 60, -57, 62, 61, -5, 62, 63, 62, 66, -51, -66, 61, 14, 59, 63, -62, 60, 64, -60, 65, -60, 61, 63, 62, -64, 58, -65, 0, -60, 57, 62, 59, 62, 56, 62, 64, 62, -63, 60, -65, -81, -28, -43, 59, -69, 63, -67, 65, -25, 59, 64, -4, 66, -77, 71, 63, 63, 65, 63, -63, 62, -74, 54, 54, -64, -59, -67, 62, 63, 59, -57, 62, 58, -83, -74, 65, 62, -65, 61, 58, 55, 63, 58, -68, -66, 61, 58, -59, 63, 63, 67, -78, 63, 62, -61, 62, -52, -58, -38, 60, -65, -23, -73, 58, -88, -59, -63, -63, 67, -53, 60, 62, 20, -27, 61, 61, 61, -63, 65, 65, -61, -68, 58, 63, -64, 62, 64, -65, 63, -79, -63, 64, 66, -72, -95, 63, -65, 60, 59, -61, 61, -61, 58, -1, -56, -59, 55, -67, 64, -62, 61, 63, 62, 61, -63, -41, 59, 62, 63, -30, 60, 127, 65, 63, 55, 28, 59, 66, 64, 55, -59, 127, 63, 60, -88, 63, 60, 57, -64, 58, 89, -57, 67, 67, 57, -19, 58, 63, -68, 60, 62, 61, 60, 65, -60, 58, -41, 61, 62, -43, 60, 76, 63, -53, 63, 57, -56, 61, 36, 62, 62, 66, -72, -66, 65, 66, -60, 59, 62, 65, 65, -62, -61, -65, 62, -77, 56, -37, -69, -62, -94, -1, -55, 54, 59, -63, 127, -85, 63, -42, -64, 57, 62, 64, 60, 62, -26, -67, 63, 61, 46, 57, 60, -56, 5, -67, 38, 59, 58, 69, -65, 63, 60, 59, 61, 59, -93, -64, 60, 64, 61, -80, 58, 66, -64, -65, 68, -59, 60, 63, -62, -70, 60, -63, 60, 63, 63, -59, 65, -77, -58, 33, -63, 62, 63, 62, 60, -58, -50, 60, 42, -4, 62, 36, -55, -62, -72, 58, -68, 62, 60, 56, 61, 49, -63, -49, -59, 70, 56, -91, 8, 58, 64, 62, -92, -84, 60, 57, -48, -80, -53, 62, 61, -58, -60, -24, 57, 63, -61, -54, -60, 58, 60, -66, -65, 66, 60, 69, -64, 63, -52, -67, -57, -64, -62, 62, -56, -58, 57, 64, 62, 64, -87, 61, -65, -64, 59, 60, 70, -62, -70, 60, -63, 65, -65, 57, 59, 61, 63, -61, 62, -59, -64, -67, 63, -62, -44, -52, 64, 69, 62, 60, -60, 60, -66, 68, 63, -59, 58, 64, 66, 67, -58, 58, -62, 75, -82, 67, 65, 50, 63, 62, -66, 64, 59, 58, 60, 63, 60, -67, 64, -62, -62, 62, -30, 30, -47, -65, 46, 59, 61, -82, -58, -15, 46, -92, -49, -53, 85, 59, -74, 54, 58, 56, 66, 57, -58, 48, 54, -58, 58, -55, 86, 5, -51, -49, -111, 44, -95, -60, -58, 59, -59, 68, -46, -47, -85, 60, 58, 56, -4, -85, 63, -55, -39, 47, 43, 62, 54, 66, 54, -52, 53, -61, 53, 59, 55, 49, -51, 52, 65, 53, 52, 48, -49, 62, -47, 59, 43, -56, 55, -55, 55, 48, -95, 24, -49, 61, -78, 57, 71, 52, 60, -41, 63, 52, 26, 50, 59, 65, 54, -66, -56, 60, 31, 57, 53, -51, 50, 70, -65, 53, -54, 49, 57, 53, -59, 50, -53, 100, -54, 53, 58, 75, 50, 51, 68, 59, 54, -53, 42, -65, -53, -114, -23, 37, -71, 53, -53, 59, -23, 51, 49, 83, 60, -61, 50, 50, 63, 48, 48, -58, 51, -74, 73, 57, -47, -60, -33, 55, 58, 60, -46, 54, 54, -87, -83, 47, 53, -78, 59, 63, 48, 52, 57, -57, -96, 63, 62, -48, 54, 66, 75, -104, 55, 58, -51, 59, -40, -53, -2, 53, -48, 25, -58, 60, -87, -56, -68, -57, 49, -3, 49, 46, 112, -101, 61, 60, 30, -63, 54, 46, -54, -66, 54, 70, -54, 57, 44, -55, 55, -75, -60, 53, 48, -80, -90, 57, -60, 59, 63, -70, 53, -53, 49, -17, -45, -55, 54, -62, 50, -50, 53, 58, 55, 45, -57, 1, 59, 52, 61, 18, 52, -53, 46, 48, 48, 97, 52, 57, 54, 49, -58, -42, 62, 40, -112, 49, 55, 49, -62, 50, 89, -42, 53, 56, 55, -4, 61, 54, -58, 51, 53, 55, 70, 69, -55, 55, -23, 50, 50, -1, 61, 79, 44, -44, 51, 54, -50, 39, 69, 51, 61, 55, -50, -82, 57, 59, -60, 62, 99, 55, 50, -50, -60, -53, 63, -67, 59, -103, -59, -57, -84, 107, -57, 57, 48, -45, -110, -98, 40, 13, -53, 39, 55, 51, 54, 60, 6, -35, 56, 58, -127, 56, 50, -47, -67, -67, 103, 53, 49, 111, -115, 66, 51, 50, -46, 64, 81, -57, 60, 58, 58, 37, 58, 58, -67, -57, 63, -55, 56, 57, -46, -68, 50, -52, 58, 50, 53, -55, 55, -68, -48, 19, -55, 66, 52, 55, 57, -47, -45, 57, -72, 51, 56, 68, -46, -44, -98, 49, -63, 68, 55, 49, 55, 58, -54, -97, -70, 100, 60, -91, 106, 57, 63, 60, -106, -87, 61, 47, -68, -94, -44, 54, 61, -47, -57, -103, 57, 62, -64, -61, -51, 66, 53, -55, -65, 56, 56, 110, -55, 59, -37, -56, -48, -55, -57, 53, -41, -38, 46, 64, 56, 60, -93, 69, -56, -53, 59, 51, 80, -57, -61, 60, -36, 74, -60, 56, 52, 49, 55, -51, 49, -66, -54, -54, 57, -55, -6, -37, 55, 56, 53, 54, -56, 42, -54, 57, 58, -53, 56, 65, 52, 57, -33, 44, -63, 70, -108, 58, 57, 20, 60, 52, -55, 55, 47, 55, 39, 39, 51, -72, 95, -56, -60, 55, -17, 43, -7, -59, 95, 53, 75, -93, -59, -16, 63, -127, -64, -72, 94, 81, -99, 69, 76, 70, 83, 76, -74, 67, 73, -73, 77, -74, 114, 11, -64, -69, -127, 60, -102, -74, -80, 77, -79, 89, -58, -62, -112, 75, 75, 71, -71, -104, 84, -75, -59, 60, 59, 85, 71, 81, 77, -70, 71, -79, 73, 78, 73, 68, -65, 67, 83, 73, 69, 66, -69, 78, -64, 77, 61, -76, 74, -74, 76, 62, -117, 30, -67, 75, -103, 76, 84, 71, 76, -59, 79, 70, 27, 69, 76, 86, 75, -85, -77, 78, 37, 77, 72, -68, 69, 87, -88, 69, -76, 67, 74, 70, -77, 64, -73, 96, -72, 71, 73, 93, 68, 68, 89, 76, 74, -76, 52, -86, -81, 15, -39, 50, -84, 68, -69, 70, -31, 72, 68, 104, 77, -80, 64, 64, 86, 61, 69, -79, 75, -92, 85, 72, -62, -82, -50, 72, 75, 77, -65, 72, 71, -85, -103, 63, 69, -97, 76, 81, 65, 71, 66, -79, -127, 84, 85, -64, 71, 89, 97, -118, 75, 78, -62, 77, -53, -75, -27, 71, -64, 31, -81, 79, -104, -75, -90, -74, 67, 0, 68, 61, 127, -127, 82, 76, 39, -83, 76, 65, -70, -85, 70, 89, -76, 70, 60, -76, 73, -99, -85, 74, 64, -100, -113, 76, -73, 76, 79, -85, 72, -71, 74, -21, -46, -71, 70, -73, 68, -68, 70, 76, 73, 57, -76, 2, 80, 72, 77, 27, 68, 28, 62, 61, 66, 127, 68, 78, 70, 59, -72, 90, 80, 59, -122, 65, 68, 65, -82, 64, 117, -60, 75, 71, 75, -12, 70, 75, -80, 69, 75, 74, 94, 82, -75, 71, -37, 68, 67, 1, 80, 104, 60, -58, 74, 73, -70, 53, 76, 71, 76, 68, -67, -83, 74, 75, -77, 78, 127, 74, 66, -68, -83, -70, 86, -86, 78, -127, -84, -80, -102, 127, -73, 72, 63, -63, 33, -118, 54, 8, -73, 41, 69, 67, 71, 77, 12, -44, 77, 74, -100, 72, 65, -64, -80, -88, 127, 71, 65, 127, -91, 85, 70, 66, -57, 83, -37, -82, 76, 77, 80, 40, 73, 78, -88, -77, 76, -74, 71, 78, -67, -82, 64, -64, 77, 65, 78, -76, 73, -93, -68, 11, -75, 87, 71, 71, 69, -66, -61, 71, -65, 64, 72, 73, -63, -66, -119, 63, -81, 83, 71, 65, 77, 68, -74, -127, -91, 127, 77, -112, 127, 74, 81, 75, -98, -94, 79, 64, -35, -87, -72, 72, 75, -65, -71, -127, 75, 78, -85, -73, -66, 82, 61, -76, -86, 72, 74, 127, -76, 79, -53, -74, -64, -74, -78, 68, -58, -52, 61, 84, 73, 74, -66, 83, -78, -70, 80, 64, 107, -78, -81, 73, -58, 94, -84, 71, 72, 62, 71, -68, 64, -93, -72, -73, 77, -75, -20, -52, 76, 70, 72, 72, -74, 59, -73, 73, 80, -71, 78, 88, 69, 73, -51, 55, -82, 84, -109, 80, 74, 26, 80, 71, -79, 76, 61, 71, 53, 58, 70, -97, 123, -75, -81, 72, -25, 50, -6, -80, 116, 66, 95, -107, -76, -6, 26, -55, -26, -32, 88, 34, -39, 32, 33, 32, 42, 47, -34, 31, 34, -36, 33, -27, 53, 5, -32, -34, -83, 31, -58, -34, -37, 35, -38, 46, -15, -26, -49, 35, 32, 29, -29, -32, 41, -31, -19, 28, 28, 38, 32, 37, 34, -35, 35, -34, 31, 33, 32, 31, -27, 33, 40, 39, 31, 30, -33, 37, -23, 34, 28, -39, 33, -36, 34, 25, -48, 20, -31, 30, -34, 36, 51, 30, 33, -28, 34, 34, -20, 34, 35, 39, 34, -17, -37, 38, -5, 38, 31, -28, 35, 39, -39, 39, -32, 34, 31, 35, -37, 28, -33, -27, -36, 31, 27, 42, 36, 31, 41, 42, 34, -33, 26, -39, -31, -103, 1, 22, -22, 29, -31, 38, 2, 30, 34, 55, 45, -37, 36, 32, 41, 33, 32, -39, 40, -42, 45, 31, -31, -40, -7, 35, 38, 30, -31, 35, 31, -45, -36, 32, 32, -46, 35, 41, 30, 32, 18, -39, -64, 42, 44, -23, 35, 43, 51, -52, 33, 35, -29, 35, -27, -33, -16, 30, -26, 12, -31, 38, -65, -31, -44, -37, 36, 1, 30, 27, 67, -53, 39, 37, 18, -39, 39, 33, -29, -35, 29, 42, -32, 36, 30, -38, 37, -35, -32, 39, 34, -52, -56, 39, -38, 37, 39, -41, 31, -30, 44, 6, -19, -30, 32, -33, 35, -33, 34, 34, 32, 29, -37, 5, 41, 36, 42, 20, 30, 92, 28, 32, 31, 64, 30, 37, 35, 23, -32, 95, 40, 24, -62, 26, 35, 29, -39, 26, 45, -22, 36, 36, 33, 11, 34, 31, -39, 27, 38, 37, 33, 48, -31, 38, 3, 33, 32, -1, 35, 64, 28, -20, 34, 33, -28, 25, 5, 26, 47, 39, -30, -33, 35, 30, -36, 39, 57, 32, 30, -29, -18, -31, 39, -38, 33, -52, -38, -39, -58, 78, -32, 30, 27, -27, 83, -63, 25, 5, -33, -3, 37, 32, 33, 36, 10, -15, 37, 36, -103, 43, 28, -27, -41, -42, 61, 34, 31, 84, -71, 41, 32, 31, -43, 41, -76, -37, 38, 34, 38, -40, 34, 33, -41, -37, 41, -33, 34, 34, -34, -40, 22, -33, 35, 33, 41, -29, 33, -46, -28, -3, -34, 42, 30, 33, 33, -28, -17, 30, -25, 29, 35, 37, -27, -18, -51, 31, -39, 43, 34, 26, 33, 39, -40, -64, -45, 61, 33, -55, 70, 35, 37, 35, -78, -62, 32, 28, -33, -39, -10, 34, 31, -27, -31, -60, 30, 35, -36, -31, -26, 42, 22, -35, -36, 39, 36, 66, -29, 36, -14, -34, -28, -34, -37, 33, -18, -23, 24, 46, 32, 36, -75, 32, -36, -29, 46, 23, 54, -36, -38, 38, -22, 48, -37, 27, 32, 28, 32, -32, 27, -43, -31, -38, 37, -34, -1, -13, 36, 41, 36, 34, -32, 26, -33, 42, 34, -35, 36, 41, 34, 37, -5, 31, -36, 50, -64, 36, 36, 15, 39, 36, -35, 34, 26, 33, 21, 26, 36, -49, 57, -35, -35, 36, 2, 22, -7, -37, 54, 28, 45, -50, -16};

static const int32_t L023_dw_bias[512] = {58666, -464, 58423, 55859, 60065, -8106, -728, 49428, 42, -751, -2807, -423, -3580, 53484, 397, -273, 41541, -47, 77025, -250, -678, 74983, 61460, 86, 933, 42546, 55086, 61980, 72, 66838, -221, 46610, 36099, 44884, -1091, -264, 67, 26969, 41413, -1143, 30788, 36116, -462, -214, -633, -1142, -592, -360, 66185, -290, 55930, 96, 596, -399, 123, 74797, -726, 455, -941, -192, -616, 69697, -1084, 66570, 101, -363, 51694, -373, 49924, 211, -859, 39973, 41671, 48694, 420, 34527, -154, -1659, 58, 87, 60702, 38, -165, -6435, -356, -343, -490, -812, 39850, 71029, -442, 272, 824, -93, 73463, 258, 527, 46659, -581, 68565, -479, -29, 390, 66575, -354, 49852, -48162, 71012, 296, -240, -548, -77, -673, -328, 363, 163, 47979, 1218, 23175, 46538, 37521, -25209, -293, 43186, 106, 38804, -1371, 32787, 572, 3534, 23357, -235, 44150, -514, -225, -1012, -366, -400, 60561, -306, 32962, -5509, -635, 58261, 60130, 52169, -311, -247, -107, 62639, -269, -75, 52517, 45784, -835, -248, 61584, -630, -1334, -363, -441, -7958, 49777, 48219, 841, -412, 43686, -1270, 357, -2841, 48607, -328, -619, 60148, -317, 71245, 56582, -3483, -607, 51105, 53245, 28021, -153, 30964, 47864, 41720, 77497, -827, 50233, -726, 248, 19169, 42890, -452, 148, -687, 64375, -727, -446, 57302, 40327, -181, -58, 68572, -574, -75, 45911, -584, 43422, 79679, -315, -336, 65229, 30879, 178, 53454, 139, -1130, 61005, 77, 51919, -147, 19039, 58244, 57080, 3180, 92230, 500, 47450, -426, -995, 129, -8, 57758, 69439, -120, -362, -854, 32527, -306, 81375, -6459, -295, 500, 1434, -937, -653, -296, 454, 45311, -6476, -618, -163, 38890, -1853, -1487, -706, 57439, -38, -731, 76758, -306, -874, -181, 24391, -1286, -579, 57954, -649, 894, -336, 229, -1636, 45297, 275, 40003, -451, -235, 40545, -454, -2816, -315, 42928, -778, -4, 60234, -749, -52132, -424, -1229, -1302, 57517, 48226, -288, -396, 81624, -376, -14756, -949, -452, 49856, 52069, 56558, -540, 37724, -4, 41300, 38405, 54766, 34006, 33597, 58122, 75, 3, 84541, -6329, 48112, -54, 40787, 58869, -47372, -112, -378, 586, -75, 45456, 80872, 139, -262, -16938, -920, 736, 40343, 7685, 52563, -2208, -247, -1373, -16720, 28792, -139, -363, -701, -15415, 144, -3585, 55836, -802, -345, -129, 75, -394, -224, 50372, 65791, 369, 62682, -977, -347, 54452, 50925, -273, 80254, -377, 435, -355, 58451, 741, 49515, 81321, 69, 63758, -978, -505, 620, -198, 60021, 56167, 433, -13898, 41380, -642, -12146, 53492, 60871, 43030, -1473, 49176, -795, 43, 61, 385, -620, 49760, 37433, 69516, 4713, -384, 38895, -1040, -998, 139, -335, 30770, 28985, -280, -282, 25507, 32924, 47298, -483, -119, 65736, 63707, 34714, 92, -715, 60595, 41099, 55848, -295, -544, 85905, 45262, -62, -40, -8092, 33997, -597, 40431, 48383, 46478, 66619, 71088, 193, 44646, 88524, -426, -795, 206, -1551, 17666, -370, 54275, 67914, -487, -566, -974, 57441, 47246, -850, 60640, -390, 64877, 394, 78, 16, -405, 61635, -155, 65721, 47508, 69349, -1014, 64871, 36909, 72294, -141, -2075, -557, -425, 51417, -163, 59561, -334, 107, 58232, 284, -435, 65, -1593, 47196, 646, 67412, -3053, 52476, -5, -720, -451, 655, -419, 51027, -74, -160, -342, -282, -503, -432, 77585, -1210, 49451, 49388, -176, 29491, -11847, 72404, 46880, -3173, 730, -76, 28533, 51904};

static const int32_t L023_dw_output_multiplier[512] = {1419704960, 1254995968, 1886009728, 1465119872, 1124783232, 2138422528, 1548943616, 1803458432, 2054548352, 1102610048, 1280433792, 1099699584, 1803800320, 1270511488, 1096173952, 1918013568, 1426018176, 2020414336, 2123486976, 1487052160, 1762398336, 1312869632, 1470371200, 1590125696, 1879085056, 1952071424, 1254731392, 1539265536, 1186726656, 1401999616, 2091979520, 1686913792, 2057317248, 1091227904, 1575422848, 1246501248, 1184673920, 1317892224, 1077522048, 1824706304, 1384822784, 1122771072, 1793194496, 1992789888, 1557476608, 1933282816, 1425574144, 1727328512, 1425376512, 1785815936, 1774397312, 1187294336, 2125780864, 2140480256, 1299412096, 1140163712, 1697126144, 1994868608, 1537124736, 2003002624, 1492488704, 1609019392, 2141971456, 1215101184, 1977519744, 1865670272, 1894658944, 1170824704, 2042394752, 1964132096, 1182082560, 1578955392, 1448810624, 1846608896, 2116518272, 1098489600, 1887152128, 1215407616, 1215537024, 2055170688, 1593326208, 1965044352, 1078691328, 1424597504, 1148870784, 1598771072, 1913116544, 1677811840, 1240181248, 1244993408, 2132222080, 1227169920, 1099988608, 1659937920, 2029683840, 1357194752, 1241906816, 1082668800, 1478068480, 1651051648, 1411550720, 1074027648, 1179198336, 1414379264, 1437659904, 2002667392, 1803484800, 1221455488, 1408000896, 1571718528, 1793006592, 1903971840, 1852573440, 1248547456, 2075039232, 1096468736, 1781972480, 1762109440, 1245901696, 1669236608, 1418236928, 1676477312, 1169969024, 1899422208, 1270392576, 1944940288, 1118949376, 1574598016, 1566444544, 1735551616, 1606033024, 2014861056, 1117819520, 1632864128, 1132915968, 1927402880, 1539083264, 1081028096, 1575133824, 1743994624, 1153584640, 1259514752, 2138078464, 1389725824, 1811926656, 1785557760, 2089758080, 1164648576, 1097188480, 1764818816, 1779152768, 2079763456, 1387202304, 1895073280, 1558645632, 1108059520, 1269791232, 1227378560, 1163835904, 1081653504, 2126125440, 1438237952, 1861646592, 1528289408, 2077398912, 1890650368, 1954054784, 1518393600, 2129022976, 1189877760, 1186017920, 1137436032, 1867274496, 2005616896, 1856820352, 1328369792, 1947106560, 1843749888, 1138685568, 1832191744, 1429703296, 1461118592, 1124980736, 1192386688, 1495541888, 1908815616, 2062633856, 2025919616, 1458097792, 1097297536, 1249630080, 1787860736, 1452741376, 1153554816, 2007413120, 1088578432, 1137858816, 1754522624, 1360310912, 1667991040, 1614845824, 1916033280, 1391600640, 1214115072, 1086663680, 2070649728, 1469030144, 1884867072, 1935149696, 1836513536, 2088221184, 2054586368, 1377440640, 1929685760, 1144989952, 1446431104, 2134465920, 2044558720, 1971793792, 1273816192, 1394105472, 1169064320, 1526131968, 1735640448, 1178725120, 1219252864, 1214789888, 1772953088, 1458367232, 1329134720, 1467852800, 1537641984, 1228257408, 1554513152, 2122234368, 1342660736, 2130687104, 1075499520, 1102658432, 1120334464, 1464669952, 1299888768, 1137128064, 1206203648, 1533135872, 1092532864, 1878195584, 1800975744, 1662048128, 1747630976, 1124566144, 1608923136, 1151580544, 1207199360, 2083019904, 1114449920, 2129617792, 1686333696, 2048531456, 1381092096, 1232987904, 1905990400, 1859506688, 1530480256, 1915868544, 1076632960, 1322178304, 1468234368, 2058900864, 2074595200, 1217922432, 1459668736, 1993808128, 1832921344, 1093828224, 2064447616, 1560556160, 1599157120, 1661441280, 1983167232, 1384362752, 1258420352, 1613764736, 1902236160, 1184006528, 1556016768, 2141360256, 1254644224, 1704996352, 1162376192, 1078330496, 1075534848, 1948401664, 1838842240, 2129077376, 1173920000, 2035439872, 1734025472, 2130879232, 2040390656, 1658686720, 1437281664, 1792716288, 1819354368, 1995497600, 1167812224, 1530975360, 1146269440, 1681668864, 1250013184, 1850679808, 1518190464, 1535455104, 1405821312, 1243058048, 1136835200, 1633460480, 1331698688, 1200401792, 1478850688, 1625193216, 1739251328, 1137626368, 1802902784, 1655099264, 1684481664, 1088985088, 1364283520, 1880983040, 1303082112, 1358377728, 1101999232, 1559997440, 1761388544, 1093918464, 1142983808, 1082936832, 1247116160, 1532253184, 1859881216, 1401415168, 2109435008, 1964439168, 1224859264, 1271633152, 1182699008, 1193698688, 2066423296, 1456586368, 1139531136, 1895815168, 1187876224, 1831899136, 1678711936, 1483129600, 1400331648, 1513117312, 1382817408, 2080264960, 1662818176, 1219468032, 1211735808, 1285709568, 1265126400, 2013308032, 1849331456, 1290886784, 1730188928, 1717167616, 1127101952, 1513622528, 1745380352, 1803479680, 2109510912, 1108575872, 1118323712, 1710633856, 1509425536, 1313401600, 1621566464, 1579546368, 1793625728, 1293239424, 1845975936, 1420488704, 1160580608, 2116246912, 1984706048, 1110105984, 1838786304, 1391702016, 1924605696, 2005213312, 1520355840, 1720441600, 2049968768, 1627688320, 1080518272, 1570810752, 1230138752, 1119547776, 1235009792, 1133240576, 1256069760, 1389571840, 1929907072, 1974972288, 1322962816, 1468457728, 2044891904, 1975907584, 1074186368, 1154083712, 1537084416, 1672152704, 1322892672, 1882389888, 1686617856, 1592445056, 1977670528, 2115565312, 1942214528, 1839240448, 1314490112, 1317970944, 1941891200, 1769036160, 1167622912, 1469363840, 1533291264, 1623767040, 1183383296, 1468765440, 2079944960, 1133708928, 1657277312, 1946982656, 1411720576, 1349734528, 1864667136, 1409779584, 1568578048, 1713003776, 1970550144, 1459808512, 2101282432, 1112722944, 2115152768, 1493657600, 1490924160, 2063514752, 1132187648, 1932012160, 1510574976, 1860056704, 1156064000, 1975744896, 2103881728, 1744565120, 1267548544, 1159416576, 1156537344, 2098983040, 2020783232, 1650498816, 1297103360, 1092327296, 1816284160, 1192853632, 1074863360, 1127778048, 1845898624, 2118152832, 1529093888, 1557019520, 2055997312, 1789163520, 1886312064, 1811498112, 1223002112, 2027066368, 1957307392, 1178565248, 2007302656, 1271121920, 1725843840, 1158471936, 2128980608, 1083807744, 1147780096, 1112001280, 1302753280, 1152722432, 1870285696, 1432952192, 1907558272, 1452727680, 1126052608, 1287857152, 1086118144, 1624852480, 1679265152, 1283139328, 2133773440, 2071207168, 1288228096, 1423375104, 1342077056, 1519285248, 1180333056, 1098521216, 1632596480};
static const int32_t L023_dw_output_shift[512] = {-8, -7, -9, -8, -8, -7, -8, -9, -8, -7, -7, -7, -8, -8, -7, -8, -8, -8, -9, -8, -8, -8, -8, -7, -8, -9, -8, -8, -7, -8, -8, -8, -8, -8, -8, -7, -7, -6, -7, -8, -8, -8, -7, -8, -8, -8, -7, -8, -8, -8, -8, -7, -8, -8, -7, -8, -8, -8, -7, -8, -8, -8, -8, -8, -8, -8, -8, -7, -8, -8, -7, -7, -8, -8, -8, -7, -8, -7, -7, -8, -8, -8, -7, -7, -7, -8, -8, -8, -7, -8, -8, -7, -7, -8, -9, -7, -7, -8, -7, -8, -8, -7, -7, -8, -7, -8, -6, -8, -7, -7, -8, -8, -8, -7, -8, -7, -8, -8, -8, -9, -8, -7, -7, -8, -7, -9, -7, -6, -8, -8, -8, -8, -8, -8, -7, -8, -8, -7, -8, -8, -8, -7, -8, -8, -8, -9, -8, -7, -7, -8, -8, -8, -8, -8, -8, -7, -8, -7, -7, -7, -8, -7, -8, -8, -8, -8, -8, -8, -8, -7, -8, -7, -8, -8, -8, -8, -8, -8, -7, -8, -8, -8, -7, -8, -8, -9, -9, -8, -8, -7, -7, -8, -8, -7, -8, -7, -8, -8, -8, -8, -8, -8, -8, -8, -7, -8, -8, -8, -9, -9, -8, -8, -9, -9, -7, -8, -8, -8, -8, -7, -8, -7, -6, -8, -8, -7, -8, -8, -8, -7, -8, -7, -7, -8, -9, -7, -8, -7, -7, -7, -9, -8, -7, -7, -8, -7, -8, -8, -8, -8, -6, -8, -7, -8, -8, -7, -8, -8, -8, -7, -8, -8, -8, -7, -7, -7, -8, -8, -8, -8, -7, -7, -7, -8, -7, -8, -8, -8, -8, -8, -7, -7, -9, -8, -7, -8, -8, -6, -8, -7, -7, -8, -8, -8, -8, -8, -8, -9, -8, -8, -8, -8, -8, -8, -9, -7, -8, -8, -8, -8, -8, -8, -7, -7, -8, -6, -9, -8, -7, -8, -8, -8, -7, -8, -8, -8, -8, -7, -8, -6, -7, -7, -8, -8, -8, -8, -7, -7, -9, -8, -7, -8, -8, -6, -7, -7, -8, -8, -7, -7, -2, -7, -8, -8, -8, -7, -8, -7, -8, -8, -8, -7, -8, -7, -8, -8, -8, -8, -9, -8, -1, -8, -8, -8, -7, -7, -8, -8, -7, -6, -8, -8, -7, -8, -8, -8, -8, -9, -7, -8, -7, -8, -8, -8, -8, -9, -8, -7, -9, -6, -7, -7, -7, -8, -8, -8, -8, -7, -7, -8, -8, -7, -8, -8, -8, -7, -8, -8, -8, -8, -8, -8, -9, -8, -7, -8, -9, -8, -7, -8, -8, -7, -8, -9, -7, -8, -9, -7, -7, -8, -7, -8, -8, -8, -8, -8, -7, -8, -8, -8, -8, -8, -8, -8, -8, -7, -8, -8, -8, -7, -8, -8, -9, -8, -8, -8, -8, -8, -7, -7, -7, -8, -8, -8, -8, -8, -8, -8, -8, -8, -8, -8, -7, -9, -7, -9, -7, -8, -7, -7, -7, -8, -7, -8, -7, -8, -8, -7, -8, -8, -8, -8, -7, -8, -6, -8, -8, -8, -8, -7, -8, -8};

#endif  // LAYER_023_DEPTHWISE_CONV_2D_H_
