#ifndef LAYER_005_DEPTHWISE_CONV_2D_H_
#define LAYER_005_DEPTHWISE_CONV_2D_H_

#include <stdint.h>

// op_index=5 op=DEPTHWISE_CONV_2D
// input:  idx=62 name=mobilenet_v1_eurosat_1/conv_pw_2_relu_1/Relu6;mobilenet_v1_eurosat_1/conv_pw_2_bn_1/batchnorm/add_1;mobilenet_v1_eurosat_1/conv_pw_2_1/convolution; shape=[1, 32, 32, 128] dtype=int8
// weights: idx=47 name=tfl.pseudo_qconst45 shape=[1, 3, 3, 128] dtype=int8
// output: idx=63 name=mobilenet_v1_eurosat_1/conv_dw_3_relu_1/Relu6;mobilenet_v1_eurosat_1/conv_dw_3_bn_1/batchnorm/add_1;mobilenet_v1_eurosat_1/conv_dw_3_bn_1/batchnorm/mul_1;mobilenet_v1_eurosat_1/conv_dw_3_1/depthwise; shape=[1, 32, 32, 128] dtype=int8

#define L005_DW_OUT_CH (128)
#define L005_DW_KH     (3)
#define L005_DW_KW     (3)
#define L005_DW_STRIDE_H (1)
#define L005_DW_STRIDE_W (1)
#define L005_DW_DILATION_H (1)
#define L005_DW_DILATION_W (1)
#define L005_DW_DEPTH_MULTIPLIER (1)
#define L005_DW_PAD_H (1)
#define L005_DW_PAD_W (1)

static const int32_t L005_dw_input_offset = 128;
static const int32_t L005_dw_output_offset = -128;

static const int8_t L005_dw_weights[1152] = {-8, 14, -8, -22, 13, -19, -17, -8, 5, -12, -6, -13, -8, 21, 33, -17, 63, 5, 9, -17, 5, -8, 9, -84, -127, -7, -6, 8, 24, -18, -18, 15, -34, -17, 30, -57, 8, 7, 24, 19, -20, -8, -68, -82, -70, 16, -20, 14, -78, 17, -14, -11, 47, -23, -27, -20, -17, 3, -7, -13, 22, 9, -19, 33, 37, -24, 26, 6, -2, 19, 37, -24, -37, 42, -38, -78, -25, 13, 14, -2, 4, -16, 70, -4, -51, -7, -32, -3, 2, -28, 40, 3, -5, -20, 18, -57, 8, 72, -30, 0, -3, -65, 80, 11, 11, -28, 16, -8, 16, -18, -1, 0, 38, -8, 127, -2, 25, 14, -10, 7, -21, -27, -3, 49, -16, 3, 66, -14, 112, 9, 18, -39, -9, -124, -22, -4, 67, -7, -12, 43, -45, 126, -11, -31, 127, -62, 26, -11, 20, 4, -53, -127, 25, 28, 2, -54, -5, -26, -108, -59, -46, -47, 21, 104, -90, -10, -38, -49, 45, -78, 0, -127, -127, -76, -56, 14, -127, -14, 10, 50, 8, -59, -22, -13, -40, -77, 3, 15, -65, 54, -79, 122, 64, 31, -13, -93, 12, 122, 93, -44, 78, 93, -19, -106, 96, -31, 13, 57, 25, -113, 127, 51, -80, 24, 37, -51, -1, -79, 127, -2, -14, -2, -10, 99, -127, 93, -93, -36, 15, 101, -119, 27, -26, 24, 10, 10, -36, 22, -4, -26, 98, 19, -105, -14, -48, -88, -56, 84, -96, -30, -17, 115, -10, -88, 127, 34, -5, 10, -2, -22, 12, 77, 47, 0, 1, 5, -7, -8, 15, 1, -13, 2, -21, 11, -19, -16, 3, -17, -37, -42, 100, -20, -24, 3, -13, 19, -4, 9, 16, 4, -18, -1, 22, 10, -8, -10, 23, 24, 10, 14, 4, 50, -2, 20, 0, 15, 0, -42, -33, 1, 13, -5, 15, 20, -7, -3, 3, 9, -8, -41, -36, -13, -15, 2, -9, -1, 14, -14, -27, 14, -1, -4, -11, 12, -3, -5, 0, -9, 11, -14, -66, -5, 38, -1, -7, 7, 9, 16, 4, 3, 3, 14, 11, 6, -8, -3, -6, -15, 14, 3, 0, 5, 11, -12, 8, -9, -11, 7, -9, -9, -21, -6, 23, 34, 17, -25, -8, 55, 0, 12, -18, 66, 3, 27, 21, -9, -39, -3, -4, 127, -54, -68, -15, 14, 11, 120, 52, -19, 127, -45, -117, -33, -9, -17, 2, 12, -87, 65, 4, -18, 15, -49, 127, -25, 11, -31, -12, 17, 127, 50, -70, -8, 127, -44, 52, -40, -17, -88, -93, 113, 15, 15, -60, -2, -63, 52, -91, 20, -82, 33, 37, -32, -8, 21, -61, -11, 36, -114, 84, -68, 127, 3, 25, -31, -52, 27, 44, -45, -29, -66, 14, 45, -30, -25, 45, 30, -14, 32, -123, -28, -46, -9, 17, 29, -69, 6, -12, -1, 81, 127, -67, -78, 10, -31, 24, 59, -127, -5, -39, -101, 27, -34, 75, -59, -11, -11, -32, 53, -103, -3, 64, -36, 7, -46, 1, -67, -11, -45, -10, 127, 69, -82, 127, -127, 127, 127, -127, -44, -69, -127, -127, 127, 127, 127, 127, -127, -68, -127, 17, 127, 127, 127, -127, 127, -127, -49, 34, 127, 127, 127, -20, -97, 127, 127, 127, 127, -30, 35, -127, -127, -104, 127, 127, 127, -127, -39, -11, -127, 127, -127, -67, -127, 127, -127, 127, 127, -127, 127, 127, -127, 127, 127, 127, -127, 127, 101, 113, 127, -16, 127, 127, -127, -127, 127, -127, -127, 127, -29, -127, -127, -127, -127, -127, 127, -74, -127, 127, -127, -127, 127, 127, 127, -103, -127, -127, 127, -127, -6, -85, -127, 127, 127, 127, -127, -4, -127, 127, 127, 127, 127, -127, 127, 127, -127, -127, 127, 127, 127, -127, -127, 127, 127, 127, -41, -127, -127, 127, -4, -42, 127, -24, 31, -34, -12, 22, -69, 127, 43, -1, -35, 6, 95, -65, -10, -65, -54, 39, -38, 2, -24, 24, -7, -36, 32, -37, -79, -3, -38, -112, -30, -4, -22, -12, -40, -104, -127, -53, 17, 8, -24, -59, -39, -41, -47, 76, 102, -13, 12, -81, 6, -56, 72, 5, -52, -62, 7, -59, -11, -15, -2, -30, -12, -63, 92, -127, -66, -111, -12, 22, -27, -23, -41, 42, -16, 6, 28, 50, -4, 9, -19, 55, -58, -15, 32, -58, 24, -16, -37, 5, -56, -54, 21, 11, -21, 32, -81, -19, -2, -8, -25, -15, 39, 123, 6, -36, -23, 12, -41, 69, -51, -25, 5, -3, 30, -31, -28, 57, -9, -14, 11, -37, 127, 5, -4, -23, -121, -105, 37, -9, 16, -9, -28, 9, -18, -10, -7, 10, -12, -23, -30, 19, -5, 3, -1, -27, -10, -13, -13, 9, -13, -6, 61, 93, 1, -23, 6, 65, 53, -1, -4, 22, -8, 50, 20, 6, 8, 7, 4, -9, 7, -14, -36, 7, 49, -12, 7, -20, 11, -18, -37, -39, 0, 17, -6, 15, -3, -3, -6, 4, 9, 1, -96, -26, -9, 61, -15, -7, -1, 9, 15, 10, -3, -7, 53, 23, 25, -17, 16, -1, 13, -34, -1, -26, -21, 55, -21, -9, 0, 26, 15, 4, -6, -8, 6, -15, 12, -7, 2, 22, 7, 5, 11, -2, -20, 20, -10, 19, -18, -7, 6, -3, -5, -30, -7, 11, -19, 8, -73, 4, 13, 2, -5, -10, -79, -3, -51, -3, 2, 15, -38, 15, 19, -45, -2, 3, -2, -76, -7, 52, 4, -9, -20, -80, 4, -8, -4, 37, 1, -26, 93, -8, 4, 0, -24, -3, 127, -25, 2, -32, 3, -33, -125, -16, 11, -5, -11, -16, -9, 4, -98, 126, -76, -48, 5, -51, 3, 46, 69, -39, 13, 9, -42, 14, 10, -2, -12, -22, 41, 34, -127, -93, 15, 3, -33, -8, 21, 33, 33, -4, 23, -3, 127, -9, 42, -40, 93, 34, 35, -50, 19, -56, -39, 15, 7, -33, 39, 95, 22, -4, -18, 24, -116, -30, 34, -20, -17, 12, -11, 104, 41, -17, 12, 12, 41, -50, 34, -24, 3, 17, 16, -22, -23, -23, 17, -41, -46, 45, -19, 7, 11, -28, 80, -86, -63, 10, 17, -10, -29, 4, 7, 38, 28, 6, 2, -13, -23, -4, 5, -2, -6, 0, 0, 8, -8, 2, -21, -5, 41, -84, -8, -11, -6, -63, 18, 5, -10, -25, -16, -44, 69, 27, 2, -13, -5, -10, -12, 6, 2, 83, 9, -2, 6, 6, 10, -30, -23, 20, -21, 3, -8, -6, -2, -9, -9, -7, 5, -26, 39, -28, -12, -61, -2, -7, 0, 5, -16, 7, -6, -22, 69, -8, 18, 11, 3, -5, -5, -17, 11, -41, -17, -23, -15, 2, -34, 21, -1, 3, -14, -7, 17, 8, -12, -8, -6, -24, 6, -68, 9, -5, 4, 16, -30, 25, -16, 11, 5, 14, -7, 58, -5, 12, -12, -19, -6, -15, 3, 4, -10, -8, 4, -28, -9};

static const int32_t L005_dw_bias[128] = {-639, 15485, -2920, 1352, 22722, 10413, 179, 39109, 5560, 4850, -180, 4262, -13189, 684, 570, 41806, -133, -226, -8093, -1349, 6470, 13427, 41850, 19683, 23673, -2561, -160, 1091, -103, 1508, 7128, -1374, -317, -62, 187, 28532, 102458, 31158, 826, -242, -3137, 3877, 29784, 29174, 66, 18117, -92, 28731, 53930, 7470, -176, 7734, -441, 580, 52511, 5016, 7787, 43201, 289, -1097, 1428, 1948, 946, -362, 5482, 466, 55, 1109, -11569, 1220, 1542, -2615, 1806, 3885, 81, 357, -75, 28665, 10765, 1996, 7089, 3443, -295, 33155, 42847, 14201, 4334, 3759, -6541, 2743, 7343, 18519, 18903, 6307, 4667, -364, 17929, 537, 3946, -654, -7993, 929, 42096, 13470, -815, 804, -13390, -2276, 63, -907, -2561, 17319, 1228, -12664, 6269, 6435, 4037, 32766, -489, -4034, 2879, 837, 29278, 820, 12642, 16368, -92, 1542};

static const int32_t L005_dw_output_multiplier[128] = {2137906048, 1489631104, 1549138048, 1578888704, 1303857408, 1753436672, 1568072576, 1576148608, 1437135232, 2127477248, 1139869952, 1316184704, 1970244096, 1837156736, 1863564032, 1814997376, 1542136320, 1555022464, 1130177920, 1737979520, 1598031104, 1079546624, 1244947712, 1412132608, 1302325760, 1258139648, 1103417728, 1556372736, 1384244864, 1943452160, 1423503744, 1455913600, 1773118976, 1291410560, 1504724224, 2073824384, 1157238400, 1543213056, 1237116416, 1783641472, 1244480640, 1766310400, 1932245760, 1124832000, 1826891904, 1529003520, 1872183680, 1675366272, 1594258432, 1881203584, 1109478528, 1221146624, 1948612864, 1816478336, 1227874048, 1261585536, 1982153472, 2134895488, 1121045632, 1854252288, 1500315904, 1750225920, 1229683968, 1733296512, 1502286720, 1764534272, 1407687936, 1342118400, 1541945728, 1816321024, 1219139072, 1839127808, 1976814208, 1893331456, 1086646912, 1681471232, 1987879168, 1615822976, 1563316608, 1619331456, 1150384512, 1403017600, 1263727872, 2127123328, 1469018496, 1247968256, 1392458624, 1697946880, 1499332096, 1364678912, 1774178432, 1489412352, 1525449984, 1526766336, 1918099840, 1566750208, 1093663744, 1188060416, 1662783744, 1123457152, 1995496320, 1630153728, 1240448384, 1743532288, 1707309184, 1504173184, 1330472320, 2115146112, 1108931456, 1606389888, 2049585792, 1275047552, 1665035776, 2060933248, 1214958080, 1488374272, 1761554816, 1571161728, 1188931968, 1260283264, 1321911168, 1261431424, 2064260096, 1835423360, 1167503872, 1468848512, 1216573184, 1940376960};
static const int32_t L005_dw_output_shift[128] = {-8, -6, -7, -6, -6, -7, -6, -7, -4, -7, -6, -7, -7, -6, -6, -8, -6, -6, -6, -3, -5, -7, -8, -8, -7, -7, -6, -6, -6, -6, -5, -6, -6, -6, -6, -8, -8, -7, -6, -6, -6, -5, -8, -8, -7, -7, -6, -7, -9, -6, -5, -5, -6, -5, -7, -6, -7, -8, -6, -7, -6, -7, -5, -7, -7, -6, -6, -7, -6, -7, -6, -7, -6, -7, -6, -7, -6, -7, -6, -6, -5, -6, -6, -7, -8, -7, -6, -5, -6, -6, -7, -6, -6, -6, -5, -6, -7, -5, -6, -6, -6, -6, -7, -6, -7, -7, -6, -7, -5, -7, -6, -4, -6, -7, -5, -6, -6, -7, -5, -6, -6, -5, -7, -6, -6, -7, -6, -7};

#endif  // LAYER_005_DEPTHWISE_CONV_2D_H_
