#ifndef LAYER_022_DEPTHWISE_CONV_2D_H_
#define LAYER_022_DEPTHWISE_CONV_2D_H_

#include <stdint.h>

// op_index=22 op=DEPTHWISE_CONV_2D
// input:  idx=79 name=sequential_1/mobilenet_1.00_128_1/conv_pw_10_relu_1/Relu6;sequential_1/mobilenet_1.00_128_1/conv_pw_10_bn_1/batchnorm/add_1;sequential_1/mobilenet_1.00_128_1/conv_pw_10_1/convolution; shape=[1, 8, 8, 512] dtype=int8
// weights: idx=15 name=tfl.pseudo_qconst13 shape=[1, 3, 3, 512] dtype=int8
// output: idx=80 name=sequential_1/mobilenet_1.00_128_1/conv_dw_11_relu_1/Relu6;sequential_1/mobilenet_1.00_128_1/conv_dw_11_bn_1/batchnorm/add_1;sequential_1/mobilenet_1.00_128_1/conv_dw_11_bn_1/batchnorm/mul_1;sequential_1/mobilenet_1.00_128_1/conv_dw_11_1/depthwise; shape=[1, 8, 8, 512] dtype=int8

#define L022_DW_OUT_CH (512)
#define L022_DW_KH     (3)
#define L022_DW_KW     (3)
#define L022_DW_STRIDE_H (1)
#define L022_DW_STRIDE_W (1)
#define L022_DW_DILATION_H (1)
#define L022_DW_DILATION_W (1)
#define L022_DW_DEPTH_MULTIPLIER (1)
#define L022_DW_PAD_H (1)
#define L022_DW_PAD_W (1)

static const int32_t L022_dw_input_offset = 128;
static const int32_t L022_dw_output_offset = -128;

static const int8_t L022_dw_weights[4608] = {30, -62, 17, 40, 17, 81, 10, 5, -25, 127, 18, 69, 21, 63, -12, 30, 127, -33, -42, -74, -68, -65, -13, 29, -10, 17, -5, -61, 6, 25, -64, -97, 58, -39, 25, -32, -120, -12, 4, -11, 44, -24, -22, 54, 51, -9, 2, -56, 26, -29, -99, 46, 11, -3, 10, -34, -89, 88, -12, -42, 32, 3, 17, -84, -30, 29, -31, 9, 101, 3, 94, 37, 15, -21, -20, 68, 13, -9, 58, 58, -65, -1, 66, 41, -23, -54, 27, 44, -17, 48, -40, -91, -5, -26, -30, 45, 24, 53, 45, -47, 27, 20, 1, -26, -2, 65, -22, -35, -104, 22, 17, 106, 22, 11, 55, 8, 19, 39, -52, -127, 25, -10, -69, -127, -74, 65, -50, 20, -115, -10, -75, 127, 85, 50, 24, 22, 15, 26, -39, 62, 25, -50, 22, -107, 8, 3, 11, -4, -31, 4, 15, 17, -46, 19, -27, 11, -4, -84, -3, 9, -78, 4, 2, -25, -77, 11, 25, 16, 1, 1, -2, 11, -71, -91, -12, 21, 61, -77, -18, 89, 46, 12, 43, -26, 5, -76, 6, 10, 95, 52, 32, 42, -76, -6, 55, -21, 39, -31, 43, 44, -89, 31, -9, -32, 27, -47, -58, -1, -22, -5, -40, -74, -65, -21, 70, 53, 39, -33, 8, -2, 37, 54, -87, -20, -71, -105, 8, 119, -14, 4, -30, -9, 35, 50, -37, -99, 42, 28, -78, 1, -53, 25, 12, -15, 6, 55, 69, -9, -48, -5, 2, 22, -1, -94, -2, 35, 15, -5, -44, -55, 25, -30, -50, -2, 36, -4, -1, 26, -44, -21, 45, -50, -6, 3, 12, -5, -91, 59, 22, 31, -38, 72, -2, -17, -11, 11, -49, 44, 1, 98, -39, -77, -109, -58, 5, 23, -90, 33, 12, 37, 63, 6, -14, 54, -4, 4, -9, 30, 127, -43, 21, -1, 20, 37, 49, -127, -24, -5, 7, 34, -79, 6, 33, 29, 5, 26, 126, -22, 15, -127, -26, -15, 4, 100, 16, -2, -36, -24, 5, -68, 35, 63, 64, 10, 73, -101, -15, -46, 16, -3, -111, 1, 12, -29, -22, 19, -17, 63, 15, -114, 42, -86, -29, -68, -4, 35, -11, 35, 64, -53, -9, 81, 16, -40, -63, 4, 13, -8, -19, 29, -74, 25, -14, 23, -57, -80, -75, 12, 32, -63, 11, -77, 13, 70, 20, 44, 50, 0, 10, 24, -28, 43, 3, -87, -42, -32, -15, 39, 47, 4, 31, -7, 3, 73, -127, -99, 8, -29, 122, -15, 18, -1, 30, -24, 28, -109, 63, -55, 22, -66, -63, 14, -31, 42, -24, -51, 5, 26, 2, -75, 54, -2, 38, 49, -42, -30, 23, 62, 31, 8, -47, -5, -127, 89, -35, 56, -35, 41, 35, 34, -51, -6, 123, -7, 58, -44, 43, -10, -24, 25, -41, -32, -16, 2, 40, 89, 4, -116, 39, -53, 21, -95, 6, -49, 44, -95, 39, -42, 13, -65, -1, 15, 58, 32, 14, 19, 11, -53, 14, -15, 14, -13, 11, 48, 47, 24, -127, 9, 13, -61, 5, 68, 54, -76, -36, 104, -49, 24, 12, -27, -88, 38, 82, 127, 17, 127, -7, 127, 80, -63, -95, -89, 0, -118, 30, 38, -91, 0, 1, -123, 10, 50, -80, -127, -40, -111, 65, -106, -127, -10, -35, -18, 63, -19, -40, 127, -127, -62, 11, -89, 47, -127, 15, 105, 51, 3, 34, -63, -76, -13, -72, -109, 17, 55, 87, -61, -30, 125, -42, 61, 94, 11, 78, 127, 32, -23, -39, 88, 40, 37, 54, 0, -127, 21, 127, -28, 10, -78, -29, 31, -10, 112, 21, 13, 51, -92, -120, 51, 54, 127, 118, -36, 48, 94, 8, -56, -34, 127, -79, -50, -59, -31, 55, 115, 62, 75, 127, -88, 27, 105, -80, -104, 12, -53, -108, -119, -51, 127, 73, -83, -78, -16, -105, -68, 11, 127, 53, 24, 45, 28, -65, 101, 87, -99, 30, -127, 55, -22, 2, 44, -86, 47, -55, 41, -15, 0, -80, 29, -11, -82, -28, 12, -127, 52, 20, -127, -13, 96, -21, 127, 39, -8, 5, -53, -90, -89, 33, 55, 127, -100, -57, 127, 84, 15, 127, -27, 12, -117, 35, 34, 127, 127, 64, 42, -103, 38, 127, -82, -45, -48, 85, 40, -127, 99, 75, -40, 2, -99, 11, 55, -49, 28, -5, -101, -74, -46, 41, 56, 79, -67, 40, -27, -9, 127, -127, -44, 29, -121, 76, -21, -49, -39, -35, -35, 127, 70, -78, -114, 127, 115, -105, -39, -105, -16, 67, -56, -3, 127, 127, 11, -119, -8, -17, 62, -37, -67, -33, 95, 57, -13, -102, -90, 45, -56, -91, 2, 127, -22, -10, 83, -52, 10, 27, -93, -75, 3, 77, -24, -98, 72, 11, 60, -19, 127, -127, -39, 16, 101, -127, 108, 8, 127, -41, -19, -92, -127, -99, 64, -89, 100, 44, 85, 100, 127, 20, 127, -36, 17, -32, 83, 19, -118, 42, -18, 70, -7, -33, -106, -127, 18, 67, 127, -63, -17, 71, 63, 127, 55, 2, -59, 35, 41, -15, -4, 41, 127, 49, -43, 15, -63, 9, -115, 60, 13, 127, 52, 127, -83, -20, -90, 43, 5, -77, 35, 98, -94, -14, 35, -1, 127, 33, -127, 69, -123, -29, -127, 65, 31, -17, 127, 127, -103, -64, 40, 32, -127, -73, 39, 20, 15, -41, 70, -73, 43, -14, 62, -102, -87, -127, -127, 62, -88, 61, -116, 26, 90, -82, 127, 62, 71, -3, 54, -65, 127, 24, 36, -63, -39, -92, 81, 108, -90, 75, -34, -50, 40, -126, 53, 15, -33, 127, -49, 22, 4, 56, 71, 88, -117, 127, -67, 76, -89, -57, -26, 9, 85, 15, -11, -7, 39, -127, -109, 127, -10, 86, 100, -74, 23, -78, 127, 90, -23, -58, -22, 16, 127, -10, -127, -38, 14, -37, 2, -72, 29, 81, 18, -26, -127, 127, -12, -45, 51, -127, -84, -13, 10, 112, 17, 52, -103, 97, -13, 64, 24, -62, -38, 127, -81, -53, -127, 73, -123, -29, 53, 127, 72, -49, 101, -12, -68, 22, -20, 9, -28, 39, 118, 117, -7, 24, 45, 50, -104, 13, 127, 2, -55, 30, 5, 24, 14, 4, 7, 10, 115, 3, 41, 15, 18, 3, -11, 117, -20, -6, 103, -58, -22, -25, 5, 20, 13, -2, -4, 3, 3, -29, -64, -104, 3, 0, 55, -49, -8, 16, -3, 8, 8, -16, 19, 57, 12, 1, 1, 9, -86, 45, 5, -5, -8, -7, -11, -68, 69, 4, 3, 27, -37, -6, -57, -28, -12, -17, 1, 67, -8, 55, 8, 5, -7, -9, 34, 1, -17, 32, 34, -26, -6, 32, 36, -26, -41, -40, 32, -15, 1, 11, 67, -12, 11, -3, 25, 7, 14, -17, -43, -6, -15, -6, -5, 19, 10, 12, -18, -76, 28, -10, 68, -20, -17, 15, 24, 7, -39, -18, -83, 18, -4, -24, -66, -36, -34, 127, 25, -86, -7, -28, -48, -61, 29, 7, 11, 5, 10, -23, 27, 5, -21, 3, -77, -11, 9, 12, -16, -1, -10, 31, 3, -60, 8, -4, 2, -6, -22, 0, -3, -22, -10, 0, 3, -83, -18, 52, -19, 15, 2, -7, 27, -33, -53, -18, -3, 19, -51, -4, 42, 16, 15, 1, 0, -6, -41, -2, 15, 55, 19, 3, 26, -59, -19, 17, -6, 39, -17, 10, 30, -67, -12, -44, -13, 45, 4, 59, -15, -4, -5, -12, -35, -32, -9, 51, 26, 23, -8, -5, 6, -46, 1, -29, -5, 105, -40, -31, 104, 9, 12, -27, -2, 12, 52, -18, -79, 11, 5, -32, 2, -5, 21, -5, 7, 6, 13, 42, -20, -18, -8, 7, -15, 2, -69, -1, -14, -20, -2, -25, -16, 22, -26, -56, 1, -19, 11, 7, -11, -30, -11, 19, -25, 8, -7, -5, -7, -80, 46, 15, 17, -22, 55, 13, -15, -102, -20, -15, 19, 0, 47, -26, -70, -52, -24, 24, -24, -87, -4, -5, 3, 21, -26, -3, 11, 0, -2, 0, -1, 25, -5, -10, 7, -6, 36, 49, -72, 127, -12, -7, 2, -36, 6, 4, 14, -21, 6, -37, -5, -11, 23, -17, -2, -10, 47, -7, 9, -51, 0, 2, -30, 11, -17, 33, -9, 32, -75, -7, -34, -1, -2, -93, -7, -12, -11, -4, -7, -16, 20, 3, -57, 5, -26, -17, -32, -29, -127, -1, -5, 26, -12, 2, 59, 7, -16, -38, -13, 12, 2, -13, 12, -44, 65, -20, 1, -36, -62, -33, 31, 21, -39, -16, -31, 11, 46, 48, 10, 28, -17, 11, 14, -1, 2, -6, 127, -17, -35, 30, -11, -37, 27, 18, 56, 7, 48, -78, -84, 0, -19, 99, 0, 24, -2, 3, -20, -6, -49, 18, -48, -16, -33, -57, 25, 25, 5, -22, 68, 7, 6, 22, -5, 29, 0, -5, 30, -32, -34, 44, 28, -4, 6, -29, 28, 29, 46, -42, 37, -19, 85, 75, 28, -22, -9, 62, -17, 49, 2, 10, -5, -13, -1, -9, -44, -9, -3, 10, -50, -25, -98, 27, -42, 3, 35, 20, 54, 6, -62, 49, -5, -14, -30, 7, -2, 1, 4, 24, -7, 10, -30, 8, -5, 9, -8, 6, 1, 13, 15, 96, -1, -10, -13, 2, 25, 33, -127, 127, 63, -1, 127, 47, -45, -69, 115, 5, 31, 48, 54, -62, -13, 51, 38, -127, 44, -52, -92, 51, 65, 6, 40, 17, -105, -42, 37, -74, -102, 79, -25, 41, -127, -127, 48, -17, 51, 77, -110, -31, -45, 93, -11, 79, -72, 34, 111, -127, 31, 56, 14, 30, -82, -21, 127, -65, -78, 35, 56, 73, -127, 7, -3, -37, -27, -5, 50, 12, -45, 2, -43, -36, 76, -56, -5, 0, 68, -78, 45, 98, -6, 40, -127, 43, -14, 11, 41, -89, -93, 14, -23, 41, 11, 63, 13, 78, 66, 75, 4, 50, -97, -24, 33, -26, -117, 18, 87, 41, 110, 68, 70, -16, -55, 32, 63, -82, -95, 29, 63, -90, -119, -127, 89, -72, 52, -127, 12, -127, 99, 127, 24, 49, 23, 53, -21, 79, 61, -26, 26, 46, -46, 8, 18, 54, 69, -127, 23, -19, 68, 93, -1, -21, 36, 36, -127, -31, 44, -81, 23, 28, -21, 60, 51, -14, -35, 29, 5, -52, -59, -127, -127, 0, 47, 1, -113, 10, 102, 49, -44, 65, 45, 39, 36, 35, 50, 1, -13, 96, -18, -127, 92, -17, -35, 40, -99, 63, 57, -124, 70, -19, -16, 44, -98, -127, -3, 24, -7, 90, -99, -104, 28, 67, -42, 51, -92, 36, -20, 127, 39, -70, -13, -113, -112, 69, 111, 53, -17, 126, 14, -1, 96, -104, -127, 56, -73, -115, 7, -87, 17, 57, 59, -9, 56, 19, 105, -127, 56, 14, 37, 3, -127, -24, 63, 59, 55, -69, -102, 77, -71, -105, 1, 42, 34, 0, 73, -70, -2, 68, -121, -21, 64, 43, -10, -127, 70, -14, 49, -4, 68, -47, 60, 63, 100, -43, 11, 21, 61, -44, 33, -110, -122, -10, 73, -122, 26, 42, 42, 96, -29, 55, -15, 33, -23, -16, 35, 65, -50, 65, -12, 38, 67, 50, -77, -19, -26, 74, 27, -127, -20, 54, 49, -7, 49, 127, -29, 42, -72, 1, 54, 9, 19, 39, 45, 78, -14, 13, -23, 35, 127, 2, 17, 25, -127, 12, -91, 13, 45, -118, 32, 5, -17, 47, 33, 25, -10, 33, -13, 58, -120, -4, 41, 19, 34, 4, -12, -40, -109, -13, 80, 31, -5, -58, 55, 51, 48, -32, 60, -106, 19, 15, 67, -127, -94, -98, -114, 69, -82, 45, -127, 40, -7, 42, 2, 66, 93, -11, 54, -83, 54, 25, -91, -13, 32, -111, 70, 80, 127, 38, -108, -45, 20, -60, -122, 30, 37, 118, 34, 46, 8, 42, -12, 86, -95, 30, -127, 71, -127, 66, -1, -15, 73, -117, -87, -17, 34, -60, -77, 98, 49, 49, 46, 39, -31, -6, 22, 48, -54, 38, -89, -19, -16, -89, 86, -24, -10, 1, -12, -83, 3, 127, 35, 127, -66, -47, 7, -13, 40, -107, -127, 3, 50, 18, 127, 69, -127, -9, 51, 35, -124, -14, -127, -7, -127, 13, -9, 49, -127, -11, 39, 66, 49, -3, 68, 72, -31, -11, -13, 54, -35, 48, 54, 69, 85, 17, 32, 47, -115, -3, 36, 127, -88, 70, 127, -127, 111, 127, -127, -127, 20, -127, -17, 127, -31, 4, 80, -73, 34, -113, -75, -15, -127, 127, 127, -127, 127, 127, -127, -127, 127, 70, -104, 57, -127, 127, -71, -121, 127, -127, 127, 127, 16, 10, -64, -53, -127, 127, -127, 127, 53, 18, 127, 127, 127, 127, -127, 9, 119, -127, -127, 127, 127, 127, -104, -85, 127, -127, -127, -127, 127, -127, -105, -127, -48, -127, 127, -127, 127, -127, 127, -106, 127, -1, -127, 127, -83, -127, -127, 127, 127, -17, -60, 127, -127, -127, -4, 127, 99, 127, 127, 127, 127, 127, -127, -127, 97, -127, -127, 127, 127, 127, 127, 127, 127, -2, -127, 127, 127, -127, -94, 127, 127, -127, -12, -85, 125, -20, -127, -95, 127, -120, 20, 2, 54, 127, 127, 127, -127, 127, 127, -65, -127, 127, 70, 127, 127, 127, 127, -78, 127, -127, 127, 127, -127, -127, 127, 127, -117, -127, 127, -88, 127, 127, -91, -44, 127, -127, -9, 127, 127, -79, -127, -41, -115, 127, 127, -95, -127, 127, -14, 127, -127, 111, 127, 127, 127, 127, 127, -94, -6, 37, -127, -53, 127, 5, -127, -127, -127, 127, 127, -118, 127, 127, -124, 127, -127, 60, 127, 47, 127, 127, -127, -127, 127, 127, -127, 101, -127, 127, -127, -46, 115, -113, -127, 68, -127, 127, -127, 127, -127, 127, 127, 47, 127, -127, -114, 105, -127, -127, 61, -127, -127, 127, 127, -127, 120, -121, 127, -120, 127, 127, 127, -127, -75, -127, 127, 127, 127, -127, -127, 127, -127, -127, 39, 102, 127, -127, 127, -127, 127, 127, -127, -116, 75, 127, 12, -69, 127, -127, 127, 127, 123, -91, 127, 127, 127, -121, 127, 127, -92, 127, 127, -127, -125, -127, 127, -127, 127, 127, 127, 127, -9, 127, 6, 127, -127, -127, 127, -111, -127, 127, -41, 127, 127, -127, -52, -124, -127, 127, 115, -116, -127, 127, 127, 41, 127, -87, -127, 127, 58, 127, 127, 127, -15, 127, 127, 127, -127, 127, 127, 127, -99, 61, 127, 64, -111, 127, -127, 127, 127, -127, 127, 127, 35, 127, 127, 127, -74, 127, 72, 127, -127, 127, 32, 127, 44, 127, -64, -85, -127, -127, 127, 127, 49, -101, 127, 127, 127, -127, 127, -127, 119, 34, 127, -107, -127, -103, 123, 127, -90, 127, -106, 127, -127, -72, 27, 127, 127, -127, 127, -127, 116, 127, 40, -63, -96, -127, 127, 127, 102, 127, 95, -127, -127, -99, -46, 127, 127, 120, 127, 127, 127, 127, 127, 127, -127, 96, -81, 127, -94, 127, -127, -123, 127, -93, -33, -127, 127, -113, -127, 46, 127, 127, 127, 127, -127, -127, 79, 127, -127, -34, -17, 71, 5, -127, -60, 127, -127, -127, -127, -127, 127, 17, 127, 1, 19, -53, 127, 50, 127, -126, -127, 127, 127, 127, -42, 127, -49, 98, 98, -15, -10, -127, 65, -74, -102, -127, -127, 127, -71, -127, 127, 124, 127, -127, 127, -127, 92, -127, -37, 127, -127, 127, 127, 127, 127, -34, 127, 127, -127, -127, 52, -25, -72, 97, 24, 33, 11, -5, -9, -21, 106, 25, 26, 11, 50, 127, -41, 56, 31, -64, 127, -55, -50, 8, -3, 46, -4, -20, -56, -1, -19, -79, -88, -127, 22, -8, 95, -52, 2, 8, 10, 39, 127, -35, -25, 84, 24, 57, -14, -8, -113, 106, -27, 10, -27, -20, -42, -17, 71, -29, -35, -26, -9, 16, -81, 16, -30, 2, 7, 25, 11, 41, -8, 36, -27, -1, -30, -19, -46, 29, 21, -54, -15, 92, 8, 19, -90, -9, 24, -18, 3, 127, 127, -19, 20, 70, 7, 8, -8, 18, 13, -3, -35, 7, -59, 54, -13, 11, -59, 23, 66, -5, 85, 37, 24, -12, -32, -11, -1, -40, -60, -11, 22, -33, -79, -74, -14, -25, 58, -86, -22, -31, 23, -115, -3, 10, -7, 17, 9, 24, 10, 1, 44, -15, -41, -29, -20, 17, 17, -85, -11, 10, 31, 42, 24, 10, -7, -14, -56, 8, 8, -60, -18, -12, 1, 66, 19, 63, -30, 3, -24, -20, -11, -86, -86, -34, 9, 34, -80, -25, 90, -3, -3, 25, 0, -7, 2, -22, -5, 22, -14, 61, 17, -103, 15, -8, -18, 65, -43, -4, 26, -85, -20, -51, 8, 9, -26, 77, -36, 8, -27, 45, -73, -65, -1, 31, -5, 9, -29, -10, 19, -34, 8, -18, 21, 127, -66, -7, 123, 7, 15, 66, -25, -19, 53, -55, -77, 33, -13, -62, -9, -38, 34, 2, 11, 26, 24, 38, 36, -50, 14, -28, -11, 30, -80, 7, 18, -12, -14, -40, -55, 27, -26, -61, -16, -9, 7, 30, -4, -25, -21, 21, -92, 13, 32, -28, -15, -119, 9, 21, 9, -19, 7, -27, 20, -105, 59, 10, -25, -12, 70, -53, -1, -90, -88, 25, 14, -72, -27, 6, -4, 54, -18, 10, -14, -10, 6, 24, -22, -44, -26, -1, -1, -21, 23, 70, -49, 80, 4, 21, 3, -82, 13, 2, 5, -15, -9, -48, 8, -17, 39, -27, 0, -34, 0, -18, -4, 15, 27, -18, -49, -3, -84, -18, -20, -11, -104, -22, -45, -20, -11, -71, -14, -25, -24, -4, -6, -35, 11, -7, -23, -5, -53, -29, 26, -24, -47, -23, 8, -19, -54, 14, 38, -5, -8, -23, 15, 3, -24, 7, -11, -59, 127, -4, 15, -94, -43, -71, -109, 10, -71, -2, -44, 2, 21, 60, -5, 15, 55, 30, 2, -26, 9, -16, 116, 9, 55, -72, 23, -8, 90, -3, 127, -29, 39, -11, -101, 0, 0, 98, -9, 17, -24, -5, -34, 61, -62, -5, -112, 3, -82, -44, 35, 127, 30, -99, 127, 18, -1, -31, -21, 73, 6, -1, 14, 8, -1, 26, -12, 12, -24, 42, -50, 43, -21, -76, 79, -45, 36, 82, 16, -37, -21, 108, 0, 101, -47, -28, -30, -25, -15, -57, -110, -30, -14, -20, -71, 14, -106, -60, 13, 45, 86, 8, 86, 15, -116, 44, 18, 15, -98, 23, -3, 18, 1, 27, 18, 88, -38, 31, -4, 12, 0, -3, -5, 23, 25, -11, -5, 2, -52, 32, 7, -11, -80, 18, -11, 35, 25, 37, 10, -14, 77, -46, -14, 9, -5, -26, -31, 2, 33, -16, -77, -4, -3, 38, 17, 41, 24, -9, -15, -3, -7, 38, -58, 40, -25, -15, 35, -11, 21, 7, 43, 6, -54, 55, -48, -2, 46, 67, -3, -14, 23, -27, 12, -8, -6, -13, -9, 50, -3, 15, -9, 10, 4, -9, -66, 88, -36, 17, -21, -2, 11, -25, -46, 0, 63, 5, -56, 28, -49, -30, 25, -38, 14, -16, 48, 20, -55, 70, -8, -6, 6, -38, -68, -17, 73, 39, -16, -6, -18, -53, 72, -3, -35, 20, 15, -17, -33, 41, -72, 78, -4, -9, -76, 27, 15, -12, 5, -2, -56, -21, -75, 18, 22, -22, -70, -46, -39, -81, 20, -25, -5, -45, 96, 94, -11, 1, 29, -2, 10, 23, -36, -52, 68, -12, 10, -30, 0, 19, -10, -27, -46, 110, -6, 57, -1, 99, -3, 7, 0, 17, 3, -51, -31, 6, 22, 84, 0, 75, -10, 19, -9, 42, -27, -45, -53, -21, 12, -14, -32, -1, -25, -48, -11, 24, 22, -12, 10, -15, 25, -6, -34, 40, -5, -88, 13, -2, 14, -5, -35, -9, 9, -27, -11, -75, 86, 62, -67, -41, -40, 34, -58, 43, -44, -98, -1, 3, -10, -5, 0, -24, 15, 30, 11, 45, 8, -98, -61, -5, 56, 37, 20, 108, -2, -11, 45, -37, -87, 6, -57, -57, 37, -8, 28, -8, 37, 9, -5, -16, -18, -45, -24, -11, -8, 7, -41, -4, -30, -14, 20, -17, -12, 5, -24, -66, 59, -24, 30, 8, -7, -13, -11, -38, -50, 81, 52, -12, 27, -21, -19, 11, -15, -28, 12, 57, 41, 0, -9, 48, -60, -4, -65, -41, -1, -66, -49, 26, -22, -62, -21, 8, -22, -12, -12, 65, -11, 16, -6, 15, -29, 83, 9, 1, 36, -19, 25, 37, -63, 30, 19, -5, -40, -32, 9, 9, 12, 9, -15, 57, 5, -2, -109, -20, 30, -27, 3, -10, 21, 43, 31, 0, 12, 11, 101, -34, -28, -10, -33, -1, -24, -31, 8, -72, -7, -36, 45, 10, -19, 43, -13, -6, -9, -22, -53, -16, 15, -56, 8, -21, 0, -25, -47, 41, -54, 4, 45, 77, 5, 2, 29, -9, -1, -36, 8, 50, 9, -17, -74, -38, 17, 23, -57, -6, -35, 1, 29, 100, -26, -47, -34, 8, 2, 16, -46, -7, -50, 72, 127, -60, 12, -17, 58, -34, -116, -28, 13, -52, 76, -5, 35, -20, 61, 39, -10, -14, -98, 27, -51, 1, -51, -9, -43, 44, 25, -32, -28, -69, -38, 1, 2, -58, -1, 7, 5, -12, 42, 34, 61, 64, -19, -17, 19, 127, -127, -104, -30, 44, 33, -35, 23, 11, 34, -7, -16, 26, 7, 8, -20, -17, -6, 99, -25, -22, -28, -9, 7, -12, 64, 4, -92, 30, 40, -65, -127, 4, -13, -58, -6, 85, 84, 8, -61, 18, -8, 10, -31, 59, 6, 2, 3, -10, 26, 10, -32, -2, -8, 1, 4, 110, -5, 0, 7, -4, -14, -19, -75, -53, -24, 59, 3, 51, -8, -38, 71, -65, 1, 29, -15, 46, -81, -1, 127, -51, -72, -127, -19, 3, 0, 70, 44, -11, -76, 62, -8, 127, -71, -24, -32, -10, 66, -77, 51, 7, 100, -26, -37, 127, -46, -33, 53, -41, 0, -23, 103, -11, 8, -5, -20, -13, -37, 127, 50, -42, -49, 7, 12, -21, -5, 127, -71, 33, -86, -44, 42, -58, -112, 29, 127, -2, -32, 84, -117, -66, -41, -42, 20, -40, 31, 55, -83, 33, -78, 2, -9, 28, -40, -27, 90, 85, -127, -3, -65, 1, 121, 32, -72, 46, -46, -46, -78, 41, -89, 113, 31, -12, -50, 83, -48, -16, -61, -15, -27, -7, -56, 19, 32, -61, -98, -35, -48, 14, 28, 2, -21, -65, -75, 17, -35, 5, 80, 18, -20, 85, -34, -127, 83, -3, 75, -47, -31, 45, 35, -60, -64, 112, 32, 88, -29, 112, -9, 23, -38, 25, 48, -67, -39, 10, 43, 127, -44, 41, -33, 17, -10, 127, -21, -101, -41, -38, 40, -56, -85, 9, -30, -35, -92, -61, 71, -5, 43, 5, 18, -20, -39, 127, -51, -123, 24, -11, -30, -51, -85, -16, -26, -100, 14, -77, 127, 119, -94, -11, -65, 127, -96, 91, -106, -73, -14, -71, -56, -127, 49, -20, 27, 12, -59, 51, 33, 67, -57, 20, 68, 88, 45, 57, -1, 20, 41, -32, -85, 29, -62, -73, 127, -37, 4, -6, 73, 17, -45, -21, -29, -90, -32, -27, -13, 44, -107, -3, -24, -21, 24, -36, -17, 16, -28, -83, 127, -42, 63, 45, -8, -68, -6, 40, -50, 127, 127, -19, 127, -101, -61, 29, -69, -10, -22, 111, 74, -31, 71, 111, -60, -19, -48, -57, -20, -100, -91, 18, 12, -57, -35, 10, -51, -28, -34, 85, 12, 66, -9, 25, -3, -3, 20, 36, 127, -36, 43, 11, -74, 38, 9, 4, -104, -29, 14, -36, -47, 93, -23, 33, 4, -25, 31, -23, 55, -47, -15, -22, 71, 15, 82, -18, 57, 11, 12, -56, -51, -31, -98, 1, -58, -41, 35, -5, -2, -64, 127, 26, -9, 44, -38, -10, 11, -31, -71, -11, 41, -63, 31, -43, -4, -37, -48, 5, -19, -8, 82, 127, -2, 11, 52, -11, -11, -72, 14, 127, -18, -72, -85, -64, -105, 29, -127, -9, -30, 13, -45, 103, -89, -24, 34, 12, 29, 25, -76, -24, 41, 127, 68, 25, 18, -53, 123, -24, 57, -97, -42, 111, -127, 5, 70, -45, 82, 83, -19, -14, -81, 50, -102, 65, -90, 21, -72, 126, 27, -8, -50, -127, -45, 11, -15, -35, -15, -46, 69, -51, -12, 104, 100, 77, -61, -19, -27, 42, -126, 13, -78, 20, -119, -37, 9, -23, 0, -27, -34, 98, 2, -39, 2, -27, -17, 127, -34, -42, -73, -34, 2, -52, 27, 30, -87, 127, 127, -127, 84, -27, -49, -123, -27, 55, 85, 40, -70, 36, -17, -50, -19, 60, -33, -3, 127, -9, 127, 36, -26, -4, -53, -30, 3, -29, -16, 22, -2, 19, 17, -2, -56, 16, -23, 17, 6, 2, 3, 13, 66, -32, -18, 5, -6, 50, -6, 9, 3, 10, -16, -5, -4, 40, 20, 18, 11, -3, 12, -21, -9, -4, -14, -58, -10, -13, 99, 23, 9, 5, 12, 6, 47, 25, -34, 2, 27, 72, 0, -8, -61, 28, 1, -6, 0, -10, 11, 9, -20, 25, 13, 3, -26, -10, -45, 55, -23, 3, 6, 2, -4, -6, -7, -12, 23, 9, -42, 9, -25, -9, 19, -13, 0, -4, 31, 12, 7, 21, 13, -4, 2, 15, 49, -12, 45, 10, -9, -8, 4, -82, 66, -26, -17, -4, 20, 24, -7, 18, -39, 59, 1, -5, -77, -7, 8, -7, 13, 3, -51, -14, -22, 3, 8, 6, -23, -18, -24, 46, 8, -29, -1, 9, -75, -98, 2, 2, 19, -6, 8, -13, -23, -9, 36, -8, 11, -22, 5, 7, -12, 3, -25, 69, -10, -10, 6, 55, 0, -14, 23, 9, -12, -11, -12, -3, 8, 42, -6, 64, 2, 20, -4, 12, -15, -14, -19, -9, -12, 4, -10, 0, -25, -28, 13, 21, -28, -11, -7, -8, 36, -3, -30, -23, 11, -60, -3, 5, 16, 15, -24, -12, 20, -36, -43, -54, 48, 26, -32, 80, -14, -1, -45, 7, -29, -58, 3, 3, 15, 35, 1, -18, 11, -54, 17, 35, 10, 64, -74, -13, 41, -21, 8, 101, -4, -4, 18, -17, -27, -6, -21, -14, 0, 7, 25, 0, 9, 7, 11, -6, -14, -16, -5, -2, -19, -4, -19, 2, -22, -14, 10, -9, -2, 19, -13, -37, 26, -26, -3, -4, -16, 4, -5, -44, -13, 36, 13, -16, -5, 13, 1, 2, -5, -22, 17, 16, 11, -85, -41, 21, -33, 4, -50, -15, 1, -30, -15, 20, -38, -20, -17, 20, -9, -16, -5, 39, -13, -4, 1, 11, -28, 18, 1, -15, 2, 0, 20, 29, -39, 60, 20, -34, -19, -25, 2, 15, 13, -21, 2, -32, -4, 0, 13, -13, 21, -12, -9, -4, -15, 33, 18, 3, -3, 14, -41, -20, -15, -9, -28, 3, -9, -13, 3, -51, 2, -22, 8, -3, -13, 41, 2, -4, 2, -15, -32, -12, 4, -35, -90, -5, 5, -19, -10, 34, -34, 7, 15, 40, 10, -1, -5, -9, 11, -37, 17, 18, 16, 19, -51, -29, 7, 11, -10, 5, -21, -2, 30, 127, -6, -65, -27, 6, -4, 10, -28, -1, 62, 30, 98, -50, -12, -21, 29, -32, 66, -4, 17, -53, 104, -13, 15, 21, 18, 20, -4, -3, -68, 13, -44, -19, -23, -36, -23, -37, 12, 49, -36, -40, 63, 3, 9, -69, 17, 21, -17, 2, 57, 11, 29, 42, -8, -30, 15, 77, -100, -4, -19, 19, 21, -18, 68, 36, 28, -10, -13, -26, 17, 9, -5, -11, -3, 69, -10, -7, -12, 6, -2, -17, -38, -13, -65, 26, 12, -30, 23, 13, 22, -18, -1, 53, 57, -10, -30, 7, -10, 2, -34, 40, 2, 0, -36, 2, -7, -2, -17, -8, -3, -4, -7, -99, -14, -13, 16, -8, -9};

static const int32_t L022_dw_bias[512] = {-2270, 25609, -503, -2262, 32142, -18848, -4613, 16741, 23204, -17810, 30283, -3441, -2222, -3133, -9420, 11988, -8898, -4018, 16977, 9292, 25796, 22528, -4886, -3637, 33228, -4016, 4040, 21102, 7790, -2290, 25011, 27217, 53286, 49704, -9759, -2405, 25607, -6952, 8888, -6140, -2542, -12759, 13392, 2387, 5495, 29940, -3066, 21015, -2792, 22715, -3295, -3111, -2420, 6554, -1379, 20491, 23811, -2168, 41843, 31771, -2193, -4032, -9833, 45692, 8004, 3553, 15639, 41452, 17615, -1943, 29932, 23471, 13948, 5424, 17495, -1705, 2413, 382, 31665, -12992, 23490, -4149, -5550, 1505, -11799, 28590, -1229, 28539, 6183, -6276, 23123, 37100, 3466, 25941, 34827, -450, -4896, 2863, -5713, -3539, -4892, 15043, -3674, 20722, 27624, -9876, 51067, 63095, -10095, -1211, -605, -3038, -17342, -6146, -12609, 21913, -645, -2962, 27227, 21078, -8933, -7244, 25366, 38591, 18158, -1778, -1409, -172, 29430, 4602, 22247, -19458, 15122, 98, -4769, -14499, 1048, 9527, -4017, -3805, 25789, 20523, -820, 14849, 10883, -6531, -14630, -4082, 26720, 14949, 31032, -6240, -3919, 10940, 25981, -1959, -1986, 35466, 23192, -5223, 23060, 7377, -8906, 18061, 1058, -400, 14640, 15700, -12001, -4491, -360, 35897, 34417, 21728, 12678, -20362, 11147, 25161, 4210, -3181, -12235, 60854, -2582, -2084, -1857, 15138, -918, -9917, 6814, -2672, -6317, 26182, 32014, -6001, -4800, 15840, 5563, 78007, -2581, -8103, 35800, -15491, 15544, 43566, -16849, 23276, 33802, 13607, 1411, -235, -5645, 27754, 24719, -5847, -5003, 38904, -6530, 33630, -221, 28086, 29416, -4326, 40958, 33287, 22323, 25615, -7042, 6163, -2816, 23073, -10333, 4142, -4172, -7094, 22888, 19285, -16011, 22082, 58743, 529, 24655, 6419, -3986, 3459, 16497, -4019, 15684, -11169, 24623, -1724, 3081, -1800, 28468, 31636, 12241, -5293, -3142, -8110, 22482, 28919, -14520, 30877, 26401, -5466, -2533, -3597, 18065, -6881, 26844, -6887, -11048, 26099, 17722, -6521, -5903, 4083, 26736, -3660, 18992, -3752, 11641, -7052, 19668, -3925, 36923, -6865, 19469, 5680, 427, 14342, 2216, -9508, 39580, 89401, 10172, -3564, 26186, 2687, -10204, -2346, -3371, 13082, -16699, -6221, -2833, 10475, 30255, 3823, 1136, 41629, -2829, 4548, -3244, -1140, 15228, 24082, 15819, 14796, -5252, 17763, 29708, 11699, -5868, -2304, -12532, -4627, 27445, 25234, -595, 62962, 13989, -8262, 7687, -14069, -1217, -1979, -1419, 31007, -2343, 38103, -7084, 30988, 5138, 11439, -2264, 34166, 3871, 20455, 4371, -2256, 38183, -954, 24238, -1882, -3256, -3053, -6417, 6338, 2701, 28561, -5237, 22368, 15821, 20594, 10294, 33024, -2455, -7979, 860, 50621, 16197, -3327, 457, -1393, 11961, -3332, -6284, -2684, 25137, -3363, 26496, -17243, -8374, -1640, 31723, 27746, 25715, 18317, -7842, 26097, -2685, 29135, -3378, 17642, -12900, 10520, -3483, -12211, 21681, -1786, 19648, 5039, -5056, 25309, 11039, 7273, 31927, -2174, -7957, -2759, -11809, -8063, 21275, 21898, 67676, 18118, -5493, -3521, -1269, -4430, -15253, 5566, -1932, 34063, -13175, 21891, -23400, 27918, -5132, 14257, -3283, 19429, 25780, -4243, 21594, 23759, 18980, -10547, 20934, 41822, -10206, -4968, -4439, -3299, -2209, 8146, 25840, -1409, -3131, 14683, -13890, 26980, 33744, 9920, 15550, -2803, 25385, 6352, 24656, 5461, 18781, 2731, -2264, -9331, 1155, 18665, 14995, 5689, -15303, -1363, 32602, 20973, 7778, -2985, -12541, 13594, -6805, 29792, -16452, -20516, 29337, 240, 12385, 12163, 27933, 25402, 11675, 53407, -5211, 21265, 29450, -2416, -6361, -2461, 21746, -8357, 9958, 10061, 29280, 7071, -8223, 34916, -5369, -2876, -8276, -7164, -1217, -1276, -6402, 33477, 16668, -9231};
static const int32_t L022_dw_bias_total[512] = {21922, -62839, 36105, 36778, 33166, 32608, 31867, -7707, -22748, 76270, 12747, 28047, 33874, 29507, 6324, 18900, 38206, 15182, -47535, -7220, -23356, -41472, 28266, 34507, 29772, 30800, 16200, -49938, -6674, 23182, 12851, -65583, 38054, 5672, 17377, -613, -59001, 22232, -8008, 33668, 41490, -18647, 22736, -5549, 14711, 23924, 44934, -25065, 21528, 6587, -9951, 36313, 27148, 16794, 16285, -29941, 14083, 60296, 3059, -23653, 27503, 19648, 25239, -34948, 23364, 17121, -9833, 18796, 31823, 29161, 38124, 4143, 11388, 11056, -10665, 28119, -1043, -12930, 24113, 26816, -46782, 22091, 39762, 5857, 18153, -48722, -2637, 17915, 15143, 36092, 25427, 24812, 16266, 22229, 30347, -2626, 29152, 30895, 24367, 39853, 29796, 24131, 28198, -28046, 8040, 15852, 34299, -14473, 12817, 40645, 24867, 49186, 33730, 27774, 4287, -18151, 23291, 17518, -29221, -70570, 21787, 19252, -42218, -52673, -51730, 29838, 127, -44, -52362, 11898, -52889, -6786, 23058, 30434, 30815, 27485, 35864, -329, 21327, 33955, 5181, 15403, 23500, -14847, 18435, 4861, 23002, 27918, -36256, 20709, 49720, 32544, 31409, -1988, 28157, 21849, 16446, -28918, 6552, 24985, -51820, 19665, 13878, -5875, 21794, 29808, 34864, 16852, 22559, 5749, 2968, 697, -43407, -64544, 16262, 17526, 21515, -61239, 9458, 42387, 14389, 32438, 42986, 21468, 16319, 12194, 19690, 29763, 29470, 5264, 49619, 18118, -69362, 29967, 17088, -21152, 1723, 12855, 34155, 33753, -63144, 17149, -712, 49198, 42159, -51732, 40202, 14631, 22403, -11499, 38643, -60310, -64369, 2601, 36213, 27384, 19710, -5538, 16931, 15542, 31592, 35738, 894, 15751, 45107, -72049, 24190, 66835, 27520, 12961, 52771, 12206, 22196, 63562, -41752, -84267, 35573, -4158, -26121, 24465, -33329, 7827, 27502, 35715, 7793, 41549, 32452, 13023, -56401, 12996, 11401, 21496, 17844, -55276, -11439, 26451, 19514, 17746, -37550, -32009, 31944, -20451, -60127, 24870, 21403, 27507, 11409, 26783, -27556, 793, 22872, -53389, 23738, 39815, 17009, 16883, -61968, 35252, 15152, 22360, 7161, 51700, 7252, 29611, 20539, 44207, -1651, 22448, 16555, 33286, -21976, -12964, -59748, -71, -4932, 25748, -66742, 25983, 23588, 24278, 48469, 13082, 32453, 13875, 21231, -7317, 16303, 28399, 24048, -1763, 31219, 17220, 18900, 46348, 32508, -60270, 21067, 1996, 27260, 36323, -45684, -2893, 29844, 31616, 14476, 23277, 45493, -4078, 20397, 49778, 12325, 25786, 14215, 18827, 20543, 24773, 29173, 22047, 13401, 26327, 31444, 40588, 25490, 22063, 31016, -63114, 13855, -46617, 16275, 24240, -54617, 20422, 34862, 3238, 17608, 17427, 20591, 17602, 26253, -4463, 23947, -66080, 13261, 11890, 10294, 22656, -1175, 3541, -164, -21443, 1221, 37377, 27465, -2033, -2375, 27388, 24180, 27524, -7375, 33245, -53888, 38693, 16202, 37016, -44181, -62238, -55949, -15603, 41310, -54159, 24963, -46001, 26190, 31338, 31388, 21272, 23653, 26445, 13489, 36870, -16064, 30767, 10944, 50141, 16159, 30057, -28489, 42242, 20971, 57401, 13279, 9345, -26085, 32266, 4316, -26170, 15883, 22463, 80651, 27442, 35435, 15678, 26484, 16271, 47497, -74877, 24728, -55794, 28020, -66255, 10157, 17381, 25908, 27501, -52134, 22863, 5412, 18509, -39098, -11042, 42146, 24088, 25385, 54685, 20191, 6866, 34160, 26495, 27333, -11813, 6334, -38044, 23248, 23104, -22338, -2035, 9513, 24144, 31440, 5845, -37027, 10411, 76584, 13965, 38019, -17943, 14611, 12217, 13497, 18861, -36262, -60563, 10978, 19927, 13827, 29338, 26731, -78112, 31548, 9308, 20505, -13072, -10527, 5891, 16669, -53574, 31899, 44959, 33317, -65135, 19594, 22416, 39207, 23267, 27506, 30171, 15206, 5709, 19040, 13727, 26209, -1692, 22023, 32836, 38188, 27268, -8001, 20740, 24062, -24251, 7580, 30321};

static const int32_t L022_dw_output_multiplier[512] = {1575866880, 1465797248, 1806648448, 1804730112, 1351261184, 1453108608, 1789290368, 2042697472, 1621023616, 1181331584, 1680110336, 1117931392, 1770323328, 1264922368, 1263565184, 1367404288, 2005202560, 1678021504, 1539667968, 1567011200, 1695536768, 1265469184, 2083276032, 1639257728, 1831138176, 1970992128, 1131674624, 1117037568, 1730773760, 2001272832, 1181960192, 1110467328, 1946223488, 1171002368, 1267473024, 1845633920, 2138265344, 1476440448, 1957189248, 1209164800, 1507997568, 1353947904, 1548590208, 1947165824, 1851413376, 1431218048, 1859425536, 1563107968, 1808302208, 1496400128, 1568821248, 1432386432, 1238332416, 1666432128, 1169268480, 1723554944, 1405472640, 1801974528, 1628999680, 1194296832, 1147253248, 1803395968, 1473804544, 1989630464, 1429571328, 1597628928, 1546685824, 1752338432, 1815965056, 1121945600, 1933776768, 1722258176, 1597048320, 1275714688, 1209657088, 1859339904, 2002357632, 1150546048, 1188897664, 1908406912, 1382792576, 1480197504, 1716364032, 1640825344, 1562381312, 1405043584, 1168757888, 1091007360, 2096811648, 1527568384, 1236529152, 2047009920, 1106867456, 1118738176, 1807122304, 1154839808, 1685380224, 1163789056, 2043758208, 1688036992, 1902949888, 1286918656, 1596640896, 1991481216, 1262623488, 1415332480, 1808015232, 1566283264, 1455607168, 1100569472, 1941422208, 1181288832, 1169749760, 1372915328, 1526378368, 1881262592, 1437363200, 1114784640, 1420453376, 1550256384, 1164942080, 1836420352, 1631088512, 1463821568, 1116019584, 1960278400, 1864005376, 1247267072, 1310772352, 1122718208, 1639014784, 1580725120, 1555458816, 1722367744, 1964104320, 2076918912, 1729952768, 1451915520, 1415748096, 1440826240, 1249447168, 1961730944, 2024722816, 1726864000, 1669600128, 1478754304, 1356007168, 1218700416, 1430693120, 1320535296, 1075946752, 1133981056, 1240389888, 1419160320, 1197091072, 1616672896, 1387395072, 1472232832, 1120920064, 1870834176, 1401342720, 1723326848, 1118150784, 1407067264, 2105185536, 1363418112, 1244557056, 1718933760, 2104935808, 1420548992, 1180579968, 1459383808, 1605795456, 1461125248, 1695307520, 1506257792, 2063366912, 1892815104, 1957757568, 1201219712, 1704951168, 1129451904, 1516216448, 1942419328, 1516344960, 1922231680, 1156290560, 1603325184, 1198652672, 2114256768, 1801633408, 1257537152, 1243553024, 1167821568, 1488286592, 1622660224, 1131732736, 1222441984, 2001091712, 1335179136, 1266559232, 1928483968, 1887808896, 1717587712, 2134905088, 1450914688, 1561857152, 1653243648, 1528925824, 1723404032, 1894695680, 1130233216, 1332526720, 1582293248, 1828465664, 2074597376, 1201997952, 1282445056, 1526585984, 1121061632, 1107412352, 1408931584, 1301103360, 1252546816, 1150539008, 1146054912, 1239420800, 1077356800, 1279065856, 1976224768, 1957918208, 1306390784, 1243993344, 1245100416, 1692582144, 2091161216, 1187871488, 1633292416, 1395085696, 1603784960, 1363240192, 1596346112, 1839815168, 1311684864, 1704894720, 1489001728, 1500968320, 1589496192, 1173992704, 1414795648, 1124081536, 2108555008, 1341875968, 1360558848, 2142333952, 1146930688, 1877563008, 1337555712, 2137942400, 2129686272, 1106558720, 1386467328, 1321124352, 1427464064, 1147393920, 2011237376, 1263880064, 1115676288, 1675714048, 2061558528, 1076585472, 1719724928, 1253359616, 1680071808, 1347213184, 1761491840, 1102780032, 1767106944, 1192589952, 1371422464, 1853327232, 1577234304, 1937293824, 1141660288, 1771014016, 1417971456, 1951826304, 1917818112, 1578937344, 1679578368, 1644787584, 1188678272, 1328089088, 1284146560, 2059848320, 1512402688, 1145601920, 1178521600, 1909240704, 1676964096, 1450356864, 1568637184, 1078017536, 2061412992, 1631633152, 1902743424, 1570930304, 2103652096, 1839598976, 1341687168, 1116968320, 1233030528, 1378439168, 1451362560, 1684335488, 1364179456, 1726298880, 1428291968, 1531589376, 2083832064, 1412870016, 1677853056, 1918885632, 1652604928, 2140709632, 1213052672, 1178135936, 1781969792, 1224532736, 1518792320, 1759075968, 1737564032, 2065641472, 1120981248, 1850908416, 1456391680, 1677555328, 1219280640, 1191270144, 1716021504, 1189529088, 1846531712, 1773823872, 1334160640, 1783035008, 1250269184, 1260852224, 1088132352, 1570282880, 1159864448, 1230886656, 1266654720, 1828719488, 1489242880, 1648507776, 1718685952, 1634388992, 2088103168, 1551258112, 1968054016, 1953405824, 1576677120, 1351332224, 2068637440, 1713632384, 1286650240, 1565120640, 1157743616, 1126658048, 2068464384, 1980387840, 1713720960, 1589958784, 1954344704, 1457633920, 1249592320, 1889588736, 1625879552, 1873216384, 1292054400, 2118621952, 1512430848, 1339941760, 1841398144, 2120457344, 1215776256, 1349744896, 1487450368, 1463697152, 1523386112, 2146963328, 1862864896, 1097972352, 1801280256, 1340975744, 1311566976, 1165632512, 1662788224, 1188838272, 1408243712, 1432736512, 1685678976, 1887676544, 1798414848, 1964478208, 2045444096, 1100204800, 1344880256, 1298758144, 1297895424, 1190823296, 1809295616, 1851491968, 1124020352, 1893808384, 1934159616, 2032549248, 2071869056, 1713616768, 1140892288, 1667468160, 1230523008, 1431422848, 1413217280, 1313464192, 1970836352, 1149450368, 1317735296, 1330552448, 1252163584, 1118770048, 2136261760, 2006289792, 1431305728, 1420906240, 1637919360, 2111495808, 1263722624, 1803370752, 1149426944, 1785357184, 1129063296, 1647070080, 1942666752, 1529448448, 1381801472, 1494321152, 1986032384, 1744411136, 1303829888, 1101753088, 1309777280, 1185514112, 1957226240, 1368094464, 2077383808, 1171011328, 1755645824, 1105777024, 1144268800, 1618446464, 1397693568, 1502210560, 1704933632, 2093031936, 2022500096, 1081881728, 1099614976, 1668999552, 1658452352, 1481189888, 1237760128, 1415510272, 1828530048, 1184132096, 1602734720, 1281737472, 1642448512, 2063119104, 1944660608, 1116057216, 1185686912, 1081758208, 2131015808, 1894930560, 1228057472, 1557610368, 1413862528, 1458147712, 1552354176, 1949593600, 1318287104, 1354159872, 1087704192, 1629288704, 1863931776, 2100731008, 1838916224, 1603184896, 1705021056, 1525877888, 1687329920, 1649417088, 1691851520, 1078557952, 1991894912, 2005449600, 2008764032, 1708380800, 1597052544, 1871388928, 1353081088};
static const int32_t L022_dw_output_shift[512] = {-6, -8, -8, -7, -7, -7, -7, -7, -8, -8, -7, -7, -7, -7, -7, -7, -8, -7, -7, -6, -6, -7, -7, -7, -8, -8, -6, -7, -6, -7, -7, -8, -8, -8, -6, -6, -9, -7, -6, -6, -7, -7, -7, -7, -7, -7, -7, -8, -7, -7, -7, -7, -6, -7, -6, -8, -7, -7, -8, -8, -6, -7, -6, -9, -7, -7, -7, -8, -7, -6, -8, -8, -6, -6, -7, -7, -7, -6, -7, -7, -8, -7, -7, -7, -6, -8, -5, -7, -7, -7, -7, -8, -6, -7, -8, -4, -7, -6, -7, -7, -7, -7, -7, -7, -7, -7, -8, -9, -7, -6, -6, -6, -6, -6, -6, -6, -7, -6, -8, -8, -6, -7, -8, -9, -7, -6, -7, -6, -8, -6, -8, -7, -7, -7, -7, -7, -7, -6, -6, -7, -8, -8, -7, -8, -7, -6, -6, -6, -8, -7, -7, -7, -5, -6, -7, -7, -7, -8, -6, -8, -7, -7, -6, -7, -7, -7, -6, -7, -6, -6, -6, -8, -8, -8, -7, -6, -7, -8, -7, -7, -7, -8, -6, -6, -7, -7, -6, -7, -6, -7, -8, -7, -7, -6, -7, -7, -6, -9, -7, -7, -8, -7, -7, -8, -8, -8, -8, -7, -7, -7, -8, -8, -8, -6, -6, -8, -6, -8, -7, -6, -7, -7, -8, -7, -7, -8, -6, -6, -6, -7, -7, -6, -7, -5, -8, -8, -6, -8, -9, -7, -8, -6, -7, -7, -6, -7, -7, -7, -8, -7, -6, -7, -7, -8, -6, -7, -6, -7, -8, -8, -6, -7, -8, -7, -7, -8, -6, -6, -8, -6, -6, -8, -7, -7, -6, -7, -7, -7, -6, -7, -8, -8, -8, -7, -8, -7, -8, -7, -6, -7, -6, -6, -8, -9, -7, -6, -8, -7, -7, -7, -8, -7, -6, -7, -7, -6, -7, -8, -8, -8, -6, -7, -6, -7, -7, -8, -7, -7, -6, -8, -8, -6, -7, -8, -8, -6, -8, -8, -6, -9, -7, -7, -7, -7, -6, -7, -6, -7, -6, -8, -6, -8, -8, -7, -8, -8, -6, -7, -7, -6, -8, -6, -8, -7, -7, -7, -7, -7, -6, -8, -7, -8, -7, -8, -7, -8, -6, -5, -7, -9, -8, -7, -6, -7, -7, -5, -7, -7, -8, -7, -9, -7, -7, -7, -9, -8, -8, -5, -6, -7, -6, -9, -6, -7, -7, -7, -6, -7, -6, -7, -7, -7, -7, -8, -7, -7, -8, -6, -7, -7, -6, -7, -7, -7, -9, -8, -7, -7, -7, -7, -7, -6, -6, -8, -7, -9, -6, -8, -6, -7, -6, -7, -8, -6, -8, -8, -7, -6, -8, -8, -7, -7, -7, -8, -8, -7, -7, -8, -7, -5, -7, -9, -8, -7, -6, -7, -7, -8, -7, -6, -7, -6, -8, -6, -7, -8, -7, -6, -7, -7, -8, -7, -6, -7, -7, -7, -6, -7, -8, -7, -7, -5, -6, -8, -8, -8, -6, -8, -7, -8, -7, -6, -7, -6, -7, -7, -7, -7, -7, -7, -6, -8, -7, -7, -7, -7, -6, -8, -7, -8, -6, -7};

#endif  // LAYER_022_DEPTHWISE_CONV_2D_H_
