#ifndef LAYER_024_DEPTHWISE_CONV_2D_H_
#define LAYER_024_DEPTHWISE_CONV_2D_H_

#include <stdint.h>

// op_index=24 op=DEPTHWISE_CONV_2D
// input:  idx=81 name=sequential_1/mobilenet_1.00_128_1/conv_pw_11_relu_1/Relu6;sequential_1/mobilenet_1.00_128_1/conv_pw_11_bn_1/batchnorm/add_1;sequential_1/mobilenet_1.00_128_1/conv_pw_11_1/convolution; shape=[1, 8, 8, 512] dtype=int8
// weights: idx=11 name=tfl.pseudo_qconst9 shape=[1, 3, 3, 512] dtype=int8
// output: idx=82 name=sequential_1/mobilenet_1.00_128_1/conv_dw_12_relu_1/Relu6;sequential_1/mobilenet_1.00_128_1/conv_dw_12_bn_1/batchnorm/add_1;sequential_1/mobilenet_1.00_128_1/conv_dw_12_bn_1/batchnorm/mul_1;sequential_1/mobilenet_1.00_128_1/conv_dw_12_1/depthwise;;sequential_1/mobilenet_1.00_128_1/conv_pad_12_1/Pad shape=[1, 4, 4, 512] dtype=int8

#define L024_DW_OUT_CH (512)
#define L024_DW_KH     (3)
#define L024_DW_KW     (3)
#define L024_DW_STRIDE_H (1)
#define L024_DW_STRIDE_W (1)
#define L024_DW_DILATION_H (1)
#define L024_DW_DILATION_W (1)
#define L024_DW_DEPTH_MULTIPLIER (1)
#define L024_DW_PAD_H (0)
#define L024_DW_PAD_W (0)

static const int32_t L024_dw_input_offset = 128;
static const int32_t L024_dw_output_offset = -128;

static const int8_t L024_dw_weights[4608] = {-92, 68, -10, -56, -60, 92, 76, -75, 68, 61, 86, 64, 83, -72, 82, 69, -87, 71, -68, 35, 101, -62, -64, 79, 110, -127, -70, -60, 80, -71, 45, -117, -88, -105, 67, 63, 63, -50, -96, 76, -76, -69, 96, 99, 57, 65, 52, 81, -68, 72, -60, 57, 63, 74, 83, -82, 62, 50, 80, 60, 70, -76, 61, -73, 66, 72, -74, 74, -61, 60, 85, -102, -101, -75, 59, -59, 63, 78, 70, 90, -85, 73, 66, 96, 69, 82, 61, 75, -97, -46, 68, 114, 69, 77, -64, 93, 54, -46, 84, -47, 56, 69, 70, -49, 63, -60, 127, -83, 69, 82, 42, 69, 63, 71, 74, 70, -62, 72, -93, -95, -127, -71, 72, -77, 67, -74, 73, -117, 56, 83, -100, 62, -90, 75, 78, 53, 87, 80, -71, 77, -95, 70, 76, -74, -65, -86, 66, 71, 87, -67, 68, 92, -112, -105, 74, 75, -39, 69, 68, 72, 83, 81, -76, -43, 68, 63, -59, 65, 64, 75, -107, 66, 66, -67, 50, -57, -55, 112, 65, -84, -113, -108, 65, -115, -60, -64, -47, 68, -72, 55, 72, -54, -1, 58, 73, 87, -59, 56, 68, -54, -116, 67, 70, -60, 77, 78, -68, 65, -113, -70, 61, 64, -88, -93, 58, -73, 67, 95, -66, 66, -85, 65, -115, -89, -47, 67, -68, 72, -56, 74, 63, 91, 85, -67, -104, 70, 63, 59, -100, 71, -95, 80, 92, 60, -23, 60, 82, 72, 95, -89, -82, 86, 65, -114, 69, 65, 89, -54, 95, 54, -72, 70, 79, 62, -101, 67, 47, -85, 67, 82, 68, 54, 79, -84, 65, -107, 69, 69, -107, 57, 59, 70, -76, 74, 72, -71, 64, 55, 74, 84, 92, -62, -96, 90, 65, -61, 84, 42, 87, 72, -60, -74, -61, 73, -99, 48, 21, -106, -76, -108, -85, -45, 70, 79, -65, -122, -91, 68, -116, -45, 93, 83, 65, 68, 67, -111, -73, 70, 65, 23, 77, 64, -70, 112, -46, -29, 71, 63, 61, -127, 75, 65, 62, 1, 62, 102, -75, 52, 59, 67, 127, 78, 74, -61, -87, 77, -71, 70, 83, -50, -79, 84, -58, 83, 85, 61, -70, 61, -113, -46, 76, -66, 59, 74, 81, 74, -65, -69, 75, -10, -110, 62, 101, -66, -74, -114, 60, -83, 73, 64, 70, 66, 93, -55, 3, -56, 44, 72, -75, -101, 78, 73, 73, -102, -75, 93, 74, -113, -127, -110, 73, 69, -76, -74, 55, 86, 76, -68, -111, -75, 53, 63, -91, -65, 71, 73, 52, -68, 72, -88, -60, -72, -67, -58, 67, -81, -80, 89, 91, 88, 57, -127, 61, -64, -67, 70, 69, 75, -60, -89, 75, -85, 54, -75, 72, 52, 66, 70, -68, 80, -40, -56, -64, 82, -66, -124, -82, 65, 78, 81, 85, -68, 61, -85, 102, 69, -60, 50, 80, 70, 62, -89, 76, -79, 84, -119, 57, 64, 85, 78, 63, -65, 62, 75, 65, 72, 87, 73, -56, 32, -78, -54, 74, -94, -113, -84, -48, 31, 72, 68, -108, -81, -127, 98, -10, -96, -91, 127, 81, -97, 103, 76, 103, 95, 107, -105, 76, 85, -123, 90, -85, 63, 127, -86, -95, 87, 104, -119, -105, -75, 103, -102, 73, -127, -102, -107, 97, 104, 83, -127, -125, 93, -123, -97, 123, 110, 86, 102, 98, 94, -83, 90, -89, 80, 81, 99, 89, -116, 88, 72, 117, 88, 98, -90, 85, -114, 96, 80, -89, 107, -86, 78, 117, -81, -127, -97, 91, -54, 90, 90, 99, 84, -103, 91, 87, 127, 87, 95, 87, 102, -113, -79, 92, 117, 75, 94, -83, 100, 89, -65, 90, -74, 93, 117, 91, -68, 79, -78, 121, -98, 75, 97, 70, 116, 117, 86, 99, 88, -82, 103, -112, -117, -4, 20, 105, -96, 94, -81, 93, -127, 86, 125, -127, 91, -123, 119, 97, 69, 108, 99, -105, 104, -99, 81, 92, -119, -79, -110, 97, 100, 92, -92, 97, 104, -108, -98, 99, 103, -53, 75, 82, 87, 105, 109, -94, -36, 89, 85, -74, 95, 74, 90, -102, 80, 82, -88, 86, -94, -87, -65, 95, -96, -127, -127, 98, -117, -87, -94, -83, 88, -127, 85, 106, -63, -3, 85, 94, 127, -82, 81, 88, -94, -122, 91, 98, -86, 97, 99, -101, 76, -127, -83, 91, 99, -106, -104, 89, -95, 86, 112, -100, 90, -114, 98, -127, -127, -85, 85, -90, 101, -97, 107, 110, 118, 93, -84, -127, 91, 84, 94, -127, 93, 6, 104, 94, 92, -27, 98, 86, 92, 117, -92, 67, 85, 99, -90, 85, 85, 101, -82, 101, 68, -100, 85, 102, 73, -127, 68, 69, -114, 74, 88, 84, 80, 109, -108, 90, -127, 83, 102, -127, 80, 77, 100, -108, 93, 96, -86, 96, 76, 95, 110, 114, -93, -109, 94, 93, -82, 103, 62, 110, 85, -97, -83, -73, 83, -122, 64, 35, -118, -100, -121, -107, -84, 92, 90, -117, 59, -108, 104, -127, -98, 121, 119, 95, 97, 74, -127, -127, 84, 84, 33, 77, 91, -90, 127, -79, -40, 92, 85, 83, -71, 91, 97, 92, -4, 91, -49, -89, 68, 91, 84, 88, 96, 82, -75, -108, 94, -88, 89, 94, -89, -95, 89, -101, 88, 106, 101, -89, 83, -127, -81, 127, -91, 86, 92, 93, 105, -88, -91, 102, -6, -127, 96, 127, -72, -104, -127, 92, -92, 84, 89, 99, 101, 127, -86, -1, -93, 57, 80, -107, -97, 106, 97, 95, -95, -116, 118, 98, -127, -106, -127, 79, 92, -89, -82, 73, 103, 109, -75, -127, -95, 71, 96, -96, -77, 70, 84, 65, -96, 99, -106, -88, -85, -87, -84, 89, -102, -98, 112, 107, 107, 75, -107, 88, -83, -102, 90, 97, 84, -93, -126, 94, -114, 75, -84, 95, 78, 91, 109, -104, 92, -46, -80, -93, 104, -88, -127, -109, 80, 102, 77, 85, -83, 105, -103, 127, 93, -74, 66, 104, 104, 82, -115, 107, -106, 121, -101, 99, 108, 127, 97, 86, -93, 106, 98, 83, 115, 103, 102, -70, 41, -78, -84, 108, -127, -72, -127, -92, 42, 97, 68, -127, -110, -70, 40, -7, -39, -59, 55, 54, -45, 40, 25, 28, 33, 62, -18, 52, 49, -38, 37, -45, 22, 50, -32, -26, 61, 43, -71, -51, -42, 43, -40, 42, -58, -35, -65, 48, 49, 40, -68, -48, 48, -46, -42, 74, 48, 28, 42, 34, 76, -52, 38, -34, 39, 39, 36, 45, -60, 40, 35, 52, 33, 46, -52, 36, -39, 26, 47, -39, 47, -47, 30, 52, -78, -48, -42, 36, -13, 46, 38, 50, 56, -51, 51, 43, 21, 50, 65, 44, 50, -31, -30, 35, 12, 30, 35, -39, 59, 34, -22, 64, -33, 21, 55, 49, -36, 27, -44, -21, -61, 42, 45, 32, 48, 45, 50, 50, 46, -45, 55, -60, -57, -111, -34, 45, -35, 38, -34, 48, -27, 28, 74, -66, 30, -49, 55, 39, 29, 52, 54, -52, 46, -41, 33, 38, -48, -43, -54, 31, 39, 64, -33, 42, 60, -66, -46, 46, 39, -21, 25, 49, 52, 52, 48, -48, -32, 27, 32, -31, 34, 37, 59, -56, 54, 35, -61, 26, -29, -31, -22, 39, -47, -61, -54, 36, -77, -35, -39, -39, 51, -53, 32, 44, -26, 10, 37, 56, 75, -37, 53, 49, -39, -48, 46, 52, -43, 60, 45, -56, 29, -61, -45, 36, 41, -39, -57, 49, -45, 44, 66, -35, 39, -52, 44, -37, -47, -29, 42, -33, 44, -29, 54, 35, 63, 47, -40, -48, 42, 46, 37, -68, 37, 108, 29, 60, 27, -10, 41, 54, 40, 54, -50, 117, 43, 37, -53, 43, 41, 59, -37, 62, 53, -36, 43, 52, 37, -33, 47, 17, -69, 30, 44, 50, 44, 45, -40, 34, -49, 38, 47, -53, 27, 52, 35, -45, 45, 56, -37, 40, 7, 36, 49, 62, -51, -36, 53, 40, -38, 68, 23, 68, 41, -30, -29, -45, 61, -58, 19, 25, -67, -39, -72, -46, -32, 38, 47, -61, 92, -61, 49, -70, -32, 62, 54, 45, 44, 35, -58, -52, 44, 40, 11, 41, 42, -29, 83, -13, -15, 49, 44, 40, -69, 50, 36, 39, -21, 50, -127, -53, 24, 51, 47, -13, 38, 53, -32, -66, 59, -42, 40, 51, -38, -40, 53, -33, 42, 50, 42, -43, 34, -46, -20, -36, -42, 33, 57, 50, 41, -44, -31, 53, -9, -76, 35, 40, -31, -40, -49, 25, -45, 48, 40, 45, 38, 39, -23, 8, -33, 32, 29, -45, -80, 39, 46, 48, -80, -40, 58, 33, -76, -70, -40, 45, 38, -17, -47, 21, 56, 46, -52, -64, -51, 29, 30, -47, -54, 37, 48, 43, -43, 40, -55, -46, -27, -38, -36, 44, -40, -50, 54, 55, 47, 29, -90, 52, -50, -41, 41, 51, 42, -42, -54, 41, -64, 32, -30, 36, 33, 34, 46, -61, 57, -39, -28, -28, 38, -36, -66, -35, 50, 39, 51, 52, -58, 37, -58, 48, 50, -43, 25, 42, 45, 48, -51, 52, -55, 47, -54, 30, 45, 64, 42, 35, -40, 49, 45, 46, 48, 45, 38, -30, 22, -41, -38, 42, -54, -127, -47, -26, 14, 43, 51, -59, -55, -94, 89, -93, -82, -95, 127, 86, -93, 91, 92, 108, 102, 96, -94, 95, 91, -109, 104, -91, 98, 92, -86, -89, -20, 90, -101, -102, -86, 116, -99, 104, -108, -107, -127, 110, 100, 93, -32, -108, 91, -115, -92, 127, 102, 98, 93, 81, 95, -93, 94, -83, 87, 101, 83, 102, -97, 105, 102, 124, 85, 92, -82, 111, -83, 96, 80, -83, 98, -102, 91, 99, -127, -44, -94, 78, -122, 87, 107, 102, 99, -94, 98, 92, -19, 87, 98, 83, 96, -118, -91, 100, 110, 93, 80, -81, 117, 97, -70, 79, -96, 91, 97, 114, -98, 104, -93, 87, -101, 101, 95, 96, 96, 102, 108, 95, 97, -80, 91, -105, -107, -15, 58, 89, -116, 100, -105, 104, -105, 99, 109, -10, 102, -123, 89, 111, 94, 104, 83, -106, 84, -115, 97, 122, -111, -91, -107, 87, 87, 111, -94, 75, 103, -127, -127, 99, 100, -87, 83, 118, 101, 102, 95, -117, -104, 101, 96, -104, 103, 107, 107, -117, 85, 113, -89, 88, -96, -85, 127, 88, -98, -35, -122, 85, -127, -88, -100, -83, 113, -73, 91, 101, 34, -53, 82, 87, 91, -84, 84, 91, -82, -121, 94, 109, -93, 98, 100, -96, 103, -111, -113, 93, 92, -115, -127, 95, -93, 96, 110, -101, 84, -115, 88, -25, -69, -90, 96, -84, 95, -94, 97, 105, 105, 110, -105, -53, 114, 95, 97, -46, 104, -99, 90, 105, 93, 46, 112, 88, 100, 104, -110, -64, 100, 92, -119, 88, 98, 106, -88, 96, 100, -95, 92, 114, 80, -42, 100, 95, -95, 86, 114, 88, 105, 116, -98, 94, -90, 83, 83, -70, 84, 96, 91, -85, 90, 103, -102, 83, 110, 96, 117, 107, -83, -127, 102, 95, -81, 111, 83, 109, 86, -98, -98, -87, 93, -127, 94, -60, -115, -100, -127, -1, -92, 96, 93, -98, -127, -119, 92, -66, -76, 87, 96, 101, 94, 97, -60, -95, 95, 86, 49, 97, 99, -90, 7, -83, 67, 97, 90, 93, -82, 112, 87, 98, 110, 94, 126, -97, 89, 73, 99, 113, 112, 118, -93, -96, 99, -99, 106, 99, -98, -95, 98, -70, 106, 113, 90, -89, 96, -120, -85, 44, -91, 77, 86, 91, 105, -98, -88, 104, 101, -5, 81, 43, -104, -90, -125, 92, -101, 92, 103, 94, 102, 94, -98, -92, -76, 95, 94, -123, 7, 111, 118, 108, -127, -125, 98, 127, -63, -110, -109, 102, 82, -102, -120, -33, 114, 104, -87, -106, -106, 100, 113, -106, -108, 107, 105, 101, -101, 106, -99, -90, -110, -105, -104, 73, -99, -93, 87, 104, 103, 81, -81, 106, -95, -93, 99, 94, 105, -93, -106, 98, -90, 104, -89, 96, 97, 113, 98, -114, 103, -109, -88, -88, 92, -106, -95, -99, 94, 98, 101, 98, -97, 88, -105, 95, 95, -95, 95, 88, 99, 99, -119, 95, -95, 108, -127, 97, 76, 69, 98, 107, -95, 81, 91, 84, 87, 97, 101, -107, 102, -110, -98, 96, -50, 40, -68, -115, 81, 74, 87, -127, -107, -121, 127, -121, -127, -127, 124, 127, -127, 127, 127, 127, 127, 127, -127, 127, 127, -127, 127, -127, 127, 88, -127, -127, -41, 127, -84, -127, -127, 127, -127, 127, -111, -127, -117, 127, 127, 127, -93, -127, 127, -127, -127, 127, 127, 127, 127, 127, 127, -127, 127, -127, 127, 127, 127, 127, -127, 127, 127, 127, 127, 127, -127, 127, -127, 127, 127, -127, 127, -127, 127, 127, -113, -45, -127, 127, -127, 127, 127, 127, 127, -127, 127, 127, -21, 127, 127, 127, 127, -127, -127, 127, 127, 127, 127, -127, 127, 127, -127, 127, -127, 127, 127, 127, -127, 127, -127, 92, -127, 127, 127, 127, 127, 127, 127, 127, 127, -127, 127, -127, -127, 106, 127, 127, -127, 127, -127, 127, -102, 127, 127, -5, 127, -127, 127, 127, 127, 127, 127, -127, 127, -127, 127, 127, -127, -127, -127, 127, 127, 127, -127, 127, 127, -118, -106, 127, 127, -127, 127, 127, 127, 127, 127, -127, -127, 127, 127, -127, 127, 127, 127, -127, 127, 127, -127, 127, -127, -127, -38, 127, -127, -50, -127, 127, -76, -127, -127, -127, 127, -97, 127, 127, 37, -71, 127, 127, 123, -127, 127, 127, -127, -127, 127, 127, -127, 127, 127, -127, 127, -114, -127, 127, 127, -127, -97, 127, -127, 127, 127, -127, 127, -127, 127, -20, -92, -127, 127, -127, 127, -127, 127, 127, 127, 127, -127, -75, 127, 127, 127, -61, 127, -2, 127, 127, 127, 66, 127, 127, 127, 127, -127, 72, 127, 127, -78, 127, 127, 127, -127, 127, 127, -127, 127, 127, 127, -52, 127, 127, -127, 127, 127, 127, 127, 127, -127, 127, -109, 127, 127, -77, 127, 127, 127, -127, 127, 127, -127, 127, 127, 127, 127, 127, -127, -110, 127, 127, -127, 127, 123, 127, 127, -127, -127, -127, 127, -123, 127, -70, -127, -127, -99, -15, -127, 127, 127, -127, 70, -127, 127, -86, -127, 127, 127, 127, 127, 127, -59, -126, 127, 127, 69, 127, 127, -127, -19, -127, 103, 127, 127, 127, -4, 127, 127, 127, 127, 127, -66, -127, 127, 127, 127, 107, 127, 127, -127, -127, 127, -127, 127, 127, -127, -127, 127, -127, 127, 127, 127, -127, 127, -117, -127, 63, -127, 127, 127, 127, 127, -127, -127, 127, 127, 17, 127, 55, -127, -127, -114, 127, -127, 127, 127, 127, 127, 111, -127, -122, -127, 102, 127, -127, 4, 127, 127, 127, -57, -127, 127, 121, -17, -65, -119, 127, 127, -127, -127, -46, 127, 127, -127, -114, -127, 127, 127, -127, -127, 127, 127, 120, -127, 127, -127, -127, -127, -127, -127, 127, -127, -127, 127, 127, 127, 127, -59, 127, -127, -127, 127, 127, 127, -127, -127, 127, -127, 127, -127, 127, 127, 127, 127, -127, 127, -127, -127, -127, 127, -127, -88, -127, 127, 127, 127, 127, -127, 127, -127, 117, 127, -127, 127, 127, 127, 127, -127, 127, -127, 127, -118, 127, 127, 91, 127, 127, -127, 127, 127, 127, 127, 127, 127, -127, 127, -127, -127, 127, -54, 43, -95, -127, 127, 127, 127, -120, -127, -66, 56, -58, -54, -76, 87, 66, -73, 52, 56, 51, 62, 62, -60, 66, 64, -69, 55, -85, 60, 71, -59, -57, -8, 53, -79, -66, -52, 90, -57, 83, -49, -51, -84, 61, 57, 63, -42, -80, 54, -65, -75, 83, 64, 60, 43, 58, 56, -65, 48, -61, 59, 72, 54, 62, -53, 77, 69, 61, 56, 60, -55, 68, -52, 58, 54, -56, 65, -63, 63, 63, -96, -14, -55, 52, -59, 62, 43, 75, 66, -60, 55, 67, -5, 58, 75, 53, 70, -45, -66, 66, 8, 56, 43, -68, 74, 68, -53, 83, -60, 55, 68, 77, -67, 47, -65, -11, -49, 59, 56, 57, 63, 68, 74, 72, 62, -47, 63, -93, -55, -8, -68, 58, -72, 70, -54, 82, -11, 59, 69, -5, 65, -77, 74, 63, 50, 77, 59, -78, 54, -77, 46, 63, -75, -62, -68, 57, 52, 70, -70, 50, 62, -81, -69, 64, 67, -64, 46, 69, 71, 67, 45, -96, -82, 60, 55, -66, 55, 71, 67, -83, 63, 60, -62, 55, -44, -46, -12, 56, -73, -23, -74, 48, -98, -51, -52, -55, 71, -49, 57, 75, 22, -21, 57, 56, 72, -55, 57, 65, -65, -73, 57, 63, -67, 61, 65, -72, 62, -90, -46, 61, 62, -71, -67, 71, -53, 52, 57, -54, 49, -60, 59, 8, -47, -47, 60, -65, 62, -57, 60, 72, 64, 66, -68, -31, 66, 67, 59, -29, 63, 127, 52, 79, 60, 23, 56, 58, 60, 56, -65, 127, 63, 66, -103, 61, 57, 63, -63, 63, 71, -51, 63, 87, 41, -16, 47, 69, -81, 60, 82, 58, 64, 49, -56, 59, -42, 50, 53, -50, 37, 91, 57, -44, 59, 54, -65, 44, 51, 56, 55, 84, -71, -56, 71, 69, -65, 70, 62, 80, 55, -54, -51, -71, 67, -76, 49, -26, -88, -59, -90, 11, -59, 49, 52, -81, 120, -79, 64, -47, -43, 68, 48, 69, 60, 58, -37, -63, 61, 55, 33, 65, 60, -51, 2, -49, 38, 57, 54, 58, -80, 57, 63, 62, 61, 59, -87, -58, 49, 52, 63, -80, 68, 77, -66, -62, 62, -64, 55, 55, -62, -57, 62, -57, 66, 84, 57, -53, 52, -114, -49, 33, -61, 57, 63, 62, 65, -47, -46, 55, 37, 3, 51, 36, -74, -53, -64, 53, -89, 59, 71, 55, 56, 34, -70, -57, -52, 54, 44, -107, -7, 77, 78, 72, -101, -85, 60, 65, -55, -71, -53, 67, 47, -50, -66, -23, 61, 63, -67, -56, -73, 78, 69, -82, -80, 69, 65, 80, -57, 57, -65, -65, -69, -62, -83, 52, -60, -68, 70, 67, 66, 53, -82, 57, -72, -73, 63, 48, 69, -65, -63, 61, -75, 63, -61, 57, 57, 62, 67, -55, 59, -90, -52, -59, 55, -73, -45, -51, 67, 58, 58, 59, -68, 63, -76, 66, 64, -50, 64, 57, 62, 69, -67, 58, -61, 62, -67, 68, 54, 51, 72, 61, -64, 68, 55, 50, 57, 47, 51, -76, 54, -51, -63, 58, -20, 25, -42, -77, 28, 45, 57, -81, -81, -16, 46, -98, -30, -43, 85, 43, -61, 53, 54, 58, 59, 82, -27, 45, 52, -73, 54, -62, 76, 5, -34, -22, -102, 32, -82, -57, -47, 53, -48, 45, -40, -57, -75, 48, 59, 41, 4, -87, 63, -46, -37, 62, 66, 51, 54, 56, 55, -51, 48, -51, 48, 58, 69, 49, -38, 39, 63, 52, 43, 45, -63, 53, -28, 43, 47, -56, 54, -57, 46, 61, -69, 23, -59, 50, -87, 50, 65, 55, 70, -47, 60, 44, 21, 39, 54, 62, 54, -82, -50, 50, 34, 55, 47, -38, 61, 64, -52, 41, -45, 38, 59, 51, -40, 40, -41, 88, -54, 50, 68, 58, 51, 58, 71, 67, 52, -44, 44, -69, -38, -97, -6, 33, -74, 52, -51, 55, -26, 44, 54, 84, 50, -66, 57, 53, 47, 40, 47, -57, 55, -70, 61, 66, -52, -57, -22, 47, 52, 57, -34, 40, 54, -92, -80, 46, 66, -64, 58, 72, 51, 58, 65, -65, -101, 66, 52, -51, 37, 74, 80, -102, 45, 58, -36, 49, -27, -39, -25, 47, -56, 33, -55, 57, -79, -43, -64, -41, 42, 5, 53, 46, 104, -102, 46, 48, 23, -67, 55, 38, -34, -70, 44, 83, -64, 44, 45, -56, 52, -66, -66, 45, 48, -89, -67, 48, -66, 54, 70, -58, 66, -49, 48, -21, -43, -39, 56, -52, 52, -50, 50, 61, 74, 50, -66, 13, 71, 47, 58, 14, 58, -54, 41, 60, 38, 84, 41, 70, 56, 63, -57, -46, 75, 22, -127, 38, 53, 59, -47, 54, 80, -44, 48, 60, 51, -5, 43, 51, -62, 43, 63, 45, 68, 65, -46, 59, -23, 50, 45, 0, 51, 84, 42, -40, 50, 54, -40, 37, 77, 54, 73, 49, -41, -68, 69, 56, -50, 74, 89, 58, 34, -52, -46, -40, 58, -63, 40, -111, -73, -77, -79, 98, -42, 55, 40, -46, -113, -93, 43, 2, -40, 47, 53, 41, 56, 53, 15, -19, 54, 51, -127, 42, 50, -41, -78, -61, 112, 44, 36, 88, -105, 78, 40, 51, -46, 62, 78, -71, 50, 37, 58, 37, 63, 61, -68, -62, 56, -51, 60, 62, -37, -69, 56, -32, 68, 46, 43, -50, 40, -45, -44, 19, -57, 60, 40, 51, 55, -36, -53, 61, -65, 51, 37, 83, -47, -35, -90, 45, -73, 63, 42, 52, 48, 64, -49, -94, -57, 92, 50, -77, 108, 58, 73, 59, -114, -69, 66, 66, -66, -81, -34, 58, 57, -47, -62, -86, 54, 81, -67, -65, -64, 60, 58, -58, -60, 54, 62, 101, -65, 64, -34, -47, -38, -68, -64, 44, -41, -37, 48, 67, 56, 40, -80, 68, -52, -47, 47, 33, 92, -36, -48, 61, -30, 68, -59, 52, 46, 42, 53, -39, 50, -62, -53, -38, 60, -56, -7, -36, 52, 54, 49, 56, -59, 23, -51, 58, 44, -44, 48, 74, 46, 49, -27, 32, -57, 82, -95, 54, 53, 17, 65, 49, -48, 45, 48, 46, 36, 49, 45, -68, 89, -72, -50, 58, -25, 46, -7, -57, 77, 40, 86, -82, -63, -15, 69, -127, -61, -78, 106, 58, -108, 71, 60, 65, 82, 70, -63, 58, 72, -97, 77, -74, 117, 3, -56, -58, -127, 42, -110, -87, -58, 93, -86, 87, -53, -71, -88, 76, 81, 68, -59, -115, 80, -102, -68, 82, 56, 81, 73, 78, 77, -69, 69, -81, 63, 83, 74, 64, -65, 64, 79, 82, 72, 70, -66, 73, -64, 84, 49, -64, 86, -65, 62, 72, -96, 33, -73, 74, -101, 73, 87, 76, 75, -74, 68, 62, 13, 69, 84, 89, 80, -86, -75, 77, 28, 51, 72, -64, 72, 103, -81, 73, -67, 57, 90, 69, -61, 49, -66, 82, -73, 64, 66, 77, 88, 83, 95, 82, 75, -72, 62, -108, -78, 19, -21, 51, -94, 73, -49, 71, -35, 82, 90, 108, 90, -109, 71, 76, 69, 59, 73, -72, 82, -83, 74, 76, -73, -65, -49, 74, 83, 83, -69, 69, 72, -74, -91, 73, 78, -76, 77, 84, 57, 77, 79, -74, -115, 101, 85, -58, 57, 86, 102, -126, 72, 73, -57, 78, -46, -76, -25, 76, -61, 42, -73, 83, -92, -78, -90, -69, 56, -8, 62, 62, 127, -127, 80, 73, 45, -66, 76, 62, -70, -88, 69, 96, -92, 70, 63, -86, 56, -108, -102, 76, 79, -116, -89, 80, -91, 79, 100, -92, 75, -74, 73, -28, -39, -73, 70, -64, 82, -73, 84, 72, 84, 50, -78, 10, 81, 67, 92, 19, 61, 23, 60, 61, 71, 127, 71, 79, 78, 62, -78, 63, 83, 64, -117, 63, 69, 75, -66, 61, 110, -69, 70, 72, 66, -10, 48, 70, -89, 58, 79, 62, 93, 81, -66, 74, -38, 67, 70, 8, 72, 107, 66, -46, 78, 75, -69, 48, 80, 77, 84, 60, -57, -55, 77, 87, -63, 75, 127, 73, 58, -100, -74, -57, 79, -84, 69, -127, -84, -92, -100, 127, -73, 77, 61, -73, 45, -126, 60, 5, -77, 55, 87, 69, 79, 69, 21, -32, 75, 74, -103, 53, 55, -59, -88, -76, 127, 69, 53, 122, -84, 96, 65, 74, -61, 82, -41, -73, 62, 75, 68, 40, 84, 76, -81, -81, 72, -76, 75, 82, -66, -84, 62, -58, 74, 72, 83, -71, 59, -99, -84, 11, -80, 90, 71, 74, 74, -55, -60, 76, -57, 59, 75, 87, -48, -61, -116, 68, -95, 84, 73, 65, 85, 76, -68, -127, -92, 127, 72, -107, 127, 91, 81, 82, -113, -86, 78, 88, -32, -74, -64, 72, 69, -71, -49, -127, 68, 86, -82, -72, -50, 78, 66, -62, -87, 55, 73, 127, -66, 92, -45, -70, -68, -89, -96, 71, -65, -47, 84, 104, 80, 48, -70, 75, -82, -74, 82, 61, 123, -65, -93, 78, -47, 92, -83, 78, 64, 63, 77, -62, 72, -85, -70, -72, 88, -76, -30, -52, 79, 61, 72, 70, -82, 59, -72, 80, 92, -69, 76, 93, 77, 63, -45, 48, -71, 96, -90, 92, 94, 26, 78, 66, -73, 81, 68, 69, 72, 71, 83, -94, 123, -76, -79, 76, -29, 50, -12, -88, 118, 64, 101, -101, -90, -10, 21, -60, -12, -27, 99, 40, -27, 33, 26, 9, 33, 59, -8, 33, 33, -47, 35, -27, 36, 12, -23, -13, -79, 14, -73, -37, -34, 32, -20, 38, -16, -41, -32, 31, 38, 28, -24, -40, 36, -27, -21, 51, 38, 18, 29, 37, 46, -45, 30, -26, 29, 39, 38, 33, -20, 24, 48, 37, 26, 25, -43, 31, -16, 23, 32, -41, 35, -45, 26, 34, -49, 28, -41, 20, -40, 39, 37, 41, 51, -40, 40, 30, -28, 32, 38, 30, 37, -20, -26, 32, -23, 26, 21, -19, 51, 36, -28, 48, -35, 24, 37, 40, -34, 18, -29, -35, -38, 36, 30, 37, 41, 39, 54, 58, 35, -30, 36, -58, -22, -73, 11, 23, -31, 26, -24, 28, -6, 17, 50, 57, 43, -36, 32, 30, 33, 34, 40, -46, 44, -50, 35, 33, -47, -32, -14, 20, 38, 34, -25, 24, 40, -47, -38, 27, 43, -46, 25, 61, 42, 36, 25, -46, -66, 46, 36, -28, 11, 49, 59, -60, 31, 23, -24, 27, -18, -26, -28, 24, -20, 12, -16, 50, -73, -22, -38, -27, 38, 3, 30, 30, 61, -46, 32, 25, 32, -40, 44, 29, -28, -45, 25, 59, -43, 40, 33, -44, 24, -34, -28, 36, 43, -48, -40, 41, -45, 44, 47, -44, 32, -36, 43, 2, -14, -25, 30, -22, 34, -26, 40, 35, 48, 35, -38, 17, 48, 35, 51, 12, 23, 82, 21, 50, 30, 54, 26, 47, 39, 42, -28, 77, 44, 18, -77, 14, 29, 42, -30, 29, 37, -19, 37, 44, 34, 5, 20, 21, -45, 20, 39, 32, 30, 37, -17, 39, 3, 41, 38, 5, 18, 72, 23, -23, 25, 36, -25, 6, 25, 31, 54, 39, -40, -22, 43, 24, -32, 56, 46, 33, 22, -22, -11, -26, 44, -38, 24, -40, -44, -42, -66, 83, -30, 29, 22, -30, 94, -66, 27, -4, -19, 20, 31, 38, 31, 33, 15, -10, 35, 32, -106, 40, 21, -22, -61, -33, 44, 41, 26, 67, -89, 60, 30, 26, -49, 47, -77, -44, 27, 30, 33, -40, 27, 43, -37, -46, 37, -34, 30, 40, -25, -30, 23, -19, 34, 37, 48, -18, 23, -56, -32, -3, -34, 24, 27, 37, 29, -28, -10, 30, -22, 22, 21, 40, -19, -8, -53, 21, -51, 34, 29, 22, 26, 42, -35, -64, -39, 53, 22, -59, 58, 30, 51, 35, -96, -41, 34, 31, -43, -46, -9, 44, 20, -3, -23, -61, 18, 46, -51, -32, -31, 45, 34, -39, -39, 34, 34, 66, -34, 38, -19, -35, -16, -29, -47, 29, -20, -30, 25, 44, 36, 9, -76, 30, -35, -32, 38, 15, 70, -35, -33, 39, -24, 40, -41, 22, 27, 14, 34, -23, 38, -42, -28, -24, 26, -26, -1, -10, 36, 27, 42, 30, -47, 21, -43, 48, 31, -27, 28, 42, 30, 33, -16, 20, -39, 39, -63, 32, 47, 21, 46, 32, -31, 38, 21, 35, 22, 27, 26, -49, 52, -40, -37, 37, 7, 22, -1, -30, 39, 19, 53, -36, -23};

static const int32_t L024_dw_bias[512] = {42723, -926, 52913, 33341, 40536, -14301, -2586, 34416, -515, -775, -4350, 812, -3373, 46241, -547, -499, 34492, 738, 106297, -3573, 1545, 79988, 59381, -953, 506, 46944, 47555, 62583, 430, 19641, -212, 46420, 39569, 38382, -1382, -373, -344, 23402, 45025, -1554, 38389, 34566, -133, -1057, -1262, -1487, -128, -1448, 57692, 1271, 33702, 57, -644, 97, -196, 85212, -683, -910, -800, 264, 294, 45503, -1596, 74758, -1907, 883, 39246, -1117, 67921, -2683, -2261, 37311, 53439, 52481, -381, 33397, 301, -3860, 117, -507, 55664, -420, 195, -6662, 1798, -694, -1159, -526, 38965, 61724, -268, -788, -1575, -2460, 52780, 80, -23, 36079, -1240, 51479, -2924, -483, -199, 43403, 3149, 43375, -44159, 94072, -869, 336, 149, -410, -939, -996, -290, -396, 39600, -1402, 28745, 39078, 47009, -16920, -464, 40912, -562, 40472, -225, 33098, -1716, 1748, 27002, -1341, 42087, -502, -511, 238, -1133, -38, 55735, -172, 35425, -8258, -751, 71866, 41019, 49072, -833, 16, -652, 41702, -1150, -1056, 47944, 42392, -2583, -658, 65266, 6, -1899, -520, -1459, -8703, 46369, 54275, -963, -893, 18946, -1424, -37, -4541, 42285, -437, 9, 41108, 896, 91320, 39581, -1710, -747, 25006, 68161, 26162, -581, 27301, 53644, 41433, 81024, 1780, 68868, -1843, -633, 48051, 44290, 4, -956, 831, 59944, -429, -1081, 32914, 49543, -334, -149, 63628, -740, 148, 45898, 261, 44864, 90155, -553, -425, 50457, 25041, -450, 39577, -195, 29, 67887, -786, 45671, -888, 18465, 48941, 44748, 1835, 103955, -726, 39556, -343, -1003, -376, 88, 47071, 70313, -243, -619, -98, 11851, -358, 71423, 10584, 506, -126, 3318, 788, -207, -617, -1492, 55006, -10211, -238, -984, 36954, -1289, -1371, -1430, 50051, -284, -2602, 80471, -1251, 814, 257, 19077, -464, -444, 112709, -1997, -370, -544, -535, -1921, 36423, -221, 39805, -560, -699, 31817, -1486, -1531, -382, 40170, -541, -457, 44762, -1507, -63940, 1973, -2275, -3818, 40052, 39728, 398, -335, 40090, -814, -14416, -1473, -1644, 34093, 47016, 29157, -394, 36821, 1639, 34007, 29030, 35287, 34506, 52357, 39074, -568, -784, 95204, -9296, 33473, -2220, 44107, 46400, -50852, -1885, -884, -53, -69, 64123, 87827, -280, 63, -12968, -1535, 1415, 43579, 13112, 77199, -898, 1931, -2201, -22544, 31369, -130, -275, -1026, -17364, -411, -5956, 34800, -1063, -1066, -341, 75, -645, -103, 43672, 85285, -435, 77918, -1166, -1844, 37729, 41897, -286, 55044, -328, 97, 79, 63548, -203, 33730, 92016, 69, 57345, -1547, -381, -130, -929, 41378, 62724, -1054, -12418, 41553, 1027, -13668, 45630, 72321, 38345, -1564, 47653, -1146, 727, -239, -488, -2327, 30725, 45444, 69221, 9444, 1604, 32997, -2151, -169, 239, -392, 35515, 26831, -742, -1763, 25235, 26920, 46188, 399, 618, 75031, 75871, 28745, 227, 26, 59602, 41787, 29949, -133, -1108, 116141, 31003, -42, -505, -9498, 31495, -1650, 39740, 27229, 43241, 30272, 108815, -1228, 46543, 133737, -97, -26, -1683, -2269, 18583, 1561, 46531, 64512, -899, -430, -1826, 78262, 44766, -1616, 89006, -354, 76672, -883, 3274, -215, 922, 73322, -389, 82613, 39713, 63322, -347, 55622, 26608, 72529, -1581, -2504, 106, -452, 56175, -1054, 64737, -315, -1040, 43704, 1057, -963, 133, -2196, 47798, 150, 62692, -2987, 45763, -63, -1662, -949, -1420, -2040, 23074, -567, -348, -1028, -1376, -1301, 3512, 67777, 512, 44067, 37568, -985, 25592, -9299, 44037, 40106, -2415, -2085, -2299, 26128, 53882};
static const int32_t L024_dw_bias_total[512] = {-35485, 77666, -21839, -37955, -43432, 101155, 78182, -55952, 81149, 73081, 76930, 84908, 92371, -27231, 80605, 81677, -64068, 83938, 21305, 77579, 71817, 7668, -11147, -20153, 79226, -61344, -42301, -11785, 94766, -63559, 82220, -40492, -47343, -64018, 83738, 86411, 77224, -39446, -60703, 83950, -54667, -45818, 105467, 89823, 76306, 78897, 79360, 89048, -25892, 80119, -44634, 75449, 84220, 83809, 83516, 988, 79445, 81650, 92896, 75784, 81318, -38209, 80964, -1530, 77325, 76147, -41266, 87587, -15663, 71941, 88619, -66497, 15679, -32383, 74755, -51339, 81837, 82156, 89077, 91397, -31504, 84444, 79299, 19578, 80902, 91210, 80249, 87922, -53067, -13796, 82548, 66668, 72921, 73828, -21844, 96592, 85993, -33553, 86952, -23273, 69012, 91549, 87865, -30837, 74061, -33809, 23681, 6520, 78875, 85584, 76437, 89062, 88917, 93212, 92382, 83060, -35792, 82182, -76855, -50010, 7329, -14872, 76720, -51504, 82254, -36200, 86943, -38070, 74828, 101716, 18810, 83139, -60313, 88970, 85761, 73326, 86931, 84698, -35657, 85972, -61471, 71614, 87953, -21062, -38469, -32464, 76735, 83088, 92148, -36506, 74626, 90336, -57656, -54888, 81257, 88686, -8590, 74886, 91541, 83960, 89037, 77569, -48735, -36093, 86717, 79875, -57598, 73328, 88155, 93507, -70355, 79307, 81545, -37100, 75904, 22456, -33635, 1362, 78229, -59730, 26945, -70606, 82491, -82011, -22004, -44071, 7936, 85492, 8580, 73933, 84231, 79027, -8702, 77316, 80836, 87231, -19032, 80595, 77895, -42990, -54137, 79026, 96747, -22772, 85532, 83988, -44470, 76293, -60608, 3115, 79575, 83415, -51815, -69807, 83774, -48487, 82877, 100381, -18769, 79598, -45465, 81672, -27999, -23635, -27188, 82859, 26515, 84906, -38396, 88361, 86037, 98696, 84952, -39073, 19369, 90637, 80149, 86174, -37557, 81178, 83711, 87896, 93690, 76418, 46838, 81684, 88241, 84375, 90668, -34082, 32157, 90130, 74536, -75430, 73975, 78501, 90858, -25981, 87780, 86998, 2007, 80029, 95150, 73345, -29691, 72112, 72004, 14533, 70323, 91534, 78048, 84585, 88703, -45753, 81827, -34691, 77264, 80453, -28471, 69298, 96389, 77826, -35862, 81507, 85687, -34854, 68253, 13884, 84661, 94109, 90134, -39948, -47184, 93326, 83633, -36582, 97490, 69680, 93887, 72596, -47827, -28888, -45979, 87286, -64299, 69991, -11177, -76186, -55849, -75830, 60677, -35678, 80456, 77424, 5860, 5808, -77887, 78932, -21045, -24896, 36188, 87459, 82316, 83915, 78395, 12795, 11411, 82280, 78655, -28072, 77697, 79367, -30533, 23992, 4623, 51198, 84747, 71783, 72048, -59639, 95358, 77805, 79742, -2260, 85861, -24004, -53136, 69081, 75094, 82347, 48587, 88059, 90905, -38248, -8795, 86989, -5538, 82290, 86860, -38047, -44631, 83426, -15996, 87736, 92257, 83535, -14532, 73397, -73406, 19312, 42821, -25727, 76917, 81155, 85118, 85471, -33886, -10876, 86370, -130, 20305, 75907, 64668, -29634, -3455, -70711, 73060, -49115, 83846, 82391, 80273, 82584, 84713, -47483, -24444, -10779, 93412, 77124, -72859, 281, 91607, 95471, 89080, -77765, -70961, 92954, 88221, -50541, -69080, -38932, 85775, 77546, 535, -7329, -311, 88163, 94490, -26926, -53829, -56067, 81915, 82860, 25517, -58213, 79830, 85383, 87142, -52601, 87310, -41924, -53155, -35095, -55744, 19343, 75060, -34737, 53097, 88991, 98022, 89197, 64163, -80233, 86553, -37949, -19456, 83197, 75730, 98910, -586, -49826, 84656, 5038, 83486, -6400, 80397, 77642, 78121, 88090, -10262, 86395, 693, -34783, -12582, 85669, -28090, -48016, -4399, 81619, 79928, 84330, 84284, -32017, 73698, -27423, 94533, 84080, -31688, 75169, 89533, 84613, 78700, -36170, 78870, -25628, 95061, -60989, 83905, 83842, 69579, 88564, 78088, -58334, 83529, 80036, 76412, 80032, 82283, 86200, -18879, 82688, -42077, -43072, 85543, -31496, -20307, -17787, -44374, 68881, 72283, 87045, -81520, -40454};

static const int32_t L024_dw_output_multiplier[512] = {1074296320, 1755602176, 2090045312, 1240909824, 1632171648, 1583378432, 1596107776, 1158362240, 1450385920, 1490238720, 1187552256, 1176968960, 1559133184, 1457030016, 1532611584, 1203674496, 1714316928, 1092038400, 1427224960, 1576081664, 1528917632, 1230496768, 1437176960, 1205844096, 1411784192, 1846611200, 1430664064, 1484237312, 1686920448, 1130001920, 1993095040, 1413466752, 1556685184, 2105047424, 1354151424, 1082456960, 1140988544, 1329964288, 1079836672, 1806692736, 1199168256, 1441383936, 1585053312, 1185046272, 1458997504, 2096616704, 1998716800, 1189232000, 1695122176, 1468094464, 1472752512, 2091081216, 1260639616, 1104510464, 1253379200, 1938135168, 1571545984, 1081192960, 1642220160, 1156147584, 1301859072, 1241082112, 1183268352, 1894400128, 1753503232, 1130742144, 1242288256, 1369254400, 1513075328, 2119828864, 1558240128, 1247321984, 1853483136, 1764045952, 1200082432, 1535516928, 2127619200, 1632410752, 1223661568, 1287328512, 1701193216, 1556072320, 1430330624, 1365576576, 1378473856, 2100939008, 1414560896, 1192465664, 1758345600, 1502379520, 1710343424, 1265783168, 2089539840, 1923309696, 1292447104, 1130726528, 2065553024, 1194536576, 1168372224, 1108922240, 1321404672, 1680291072, 1562225024, 1089273984, 1581417216, 1148054784, 1713667840, 1743357184, 1729162880, 1100562176, 1168867328, 1666898816, 1136931328, 2096043520, 1084113792, 1800493440, 1087977344, 1456744960, 1448481408, 1747386880, 1087512704, 1190523392, 1810083456, 1144750080, 1936684928, 1366978688, 1117474176, 1460827904, 1480887424, 1129481600, 1246219776, 1588925696, 2116959872, 1744074624, 1667981696, 1377260416, 1956962560, 1404273536, 1717780096, 1470077440, 1901601920, 1184334720, 1415850368, 1140409088, 1327280256, 1560803968, 1314967296, 1698149888, 1690283520, 1284873728, 1185330432, 1077134848, 1074100992, 1126877056, 1279983104, 1235299072, 1195281536, 1391630080, 2032457344, 1501282432, 1655298048, 1534343296, 2049252224, 1328363136, 1153822976, 1176861952, 1167403904, 1982992384, 1298151680, 1234188032, 1548325504, 1822755072, 1986583424, 1479761664, 1171040128, 1678177920, 1435753984, 1233216896, 1205288064, 1850347776, 1082518272, 1386195200, 1202386304, 1572912256, 1309412736, 1717187584, 1858927616, 1662734080, 2047900032, 1130257024, 1276536704, 1356293120, 1283708288, 1388867072, 1112712576, 1503039616, 1190077312, 1455544320, 1305852160, 1482379648, 1080611712, 1692398720, 1662536576, 1331490944, 1142496000, 2053862784, 1387558912, 1537063424, 1300571904, 1627750400, 1292539520, 1984876928, 1746560384, 1266945408, 1724665216, 1907330048, 1382843264, 1383960192, 1735635840, 2026471680, 1539827072, 1532416384, 1224755584, 2101909760, 1412264704, 1863670656, 1882558976, 1311217024, 1833367808, 1494788992, 1488156544, 1545319040, 2090632832, 1948856064, 2020709760, 1487041664, 1206016512, 1237980800, 1507033984, 1646558208, 1563314304, 1872192000, 1224770304, 1579925120, 1302579968, 1643983232, 1185722240, 1510694656, 1511980416, 1378370944, 1695222400, 2144841472, 1947102848, 1123615744, 1342369664, 2090963072, 1112550912, 1958100608, 1094006784, 1445318528, 1173305728, 1952728320, 1897860608, 1468019968, 1440808960, 1097446912, 1126868352, 1445873536, 1433992192, 1625600896, 1494852224, 1516109440, 1108065280, 1079911936, 1464042880, 1872824320, 1924763264, 1427420032, 2019220608, 1215515392, 1329993344, 2105164672, 1723925888, 1896868992, 1271366528, 2070169984, 1894272640, 1695069440, 1380896640, 2050116480, 1560773760, 1549042688, 1578014592, 2131263360, 1508663936, 1233747840, 1995245824, 1330714752, 1550718720, 1861890944, 1189652480, 1342500736, 1674057088, 1580913664, 1083433472, 1615390464, 1591527680, 1488660608, 1205692416, 1225772544, 1116736256, 1151414912, 2037943552, 1164509312, 2125054720, 1908295808, 1135344128, 1793980800, 1114560000, 1927617536, 1570600192, 1995102336, 1799280896, 1895680512, 1357034496, 2009891072, 1713778304, 1715531904, 1981111296, 1280563456, 1593135104, 1285143424, 1327649024, 1277425536, 1276452096, 1281697792, 1321719296, 1444228224, 1430696704, 1855276672, 1311264896, 1487761152, 1191823616, 1125346816, 1700546688, 1747291776, 1811037056, 1106881280, 1737073152, 1081098496, 1895815168, 1438180992, 1170179072, 1908719872, 1113270016, 1270764160, 1200103808, 1675236992, 1103479296, 1160634880, 1393548032, 1446525568, 1880915328, 1272987264, 1660844416, 2031850368, 1183822720, 1207265152, 1303757696, 1856110464, 1513622528, 1964001536, 2051124352, 1412253312, 1085371392, 2136999936, 1256168192, 2038959488, 1546281600, 1856685184, 1501490816, 1313094272, 1452060672, 2069748096, 1667160960, 1160668544, 1618383488, 1885958400, 1633374080, 1922235392, 1399600768, 1498381952, 1214931968, 1166750720, 1272627840, 2078257664, 2123116800, 1291598592, 1951592320, 2114681216, 1262236416, 1472146944, 1387956352, 1350448128, 1598705408, 1553309568, 1163109888, 1398258688, 1307617920, 2083964416, 1379217024, 2019187328, 2005629184, 1255817856, 1677234048, 2048438016, 1476584960, 1772894976, 1338196352, 1787846016, 1267307392, 1236571136, 1257196800, 1885820032, 2147412992, 1706910592, 1184050560, 2063465600, 1265883264, 1334000768, 1341037696, 1270037248, 1692324608, 1270113664, 1761820928, 1219044864, 1075241216, 1246786560, 1835737600, 1831105792, 1357207680, 1826175104, 1240895744, 1130211584, 1596326016, 1138606080, 1990174336, 1368743424, 2078477824, 1592265472, 1123744128, 1509548800, 1469798272, 1259789440, 1740274048, 1502436352, 1415938432, 1124176128, 1443334784, 1276163968, 1727811072, 1320080768, 1127731840, 1431245440, 1927840640, 1692139136, 2012590208, 1471838464, 1138739072, 1096002560, 1420749440, 1716770944, 1504356864, 1397709056, 1908046080, 1268019712, 1207119488, 1833171456, 1762653696, 1158464512, 1259053568, 1549347328, 1997419008, 2130207488, 1593719424, 1817955584, 1190187392, 1326883968, 1221350528, 1184496896, 2102268544, 1441156864, 1438123520, 1433261440, 1569858176, 1759671680, 1739786752, 1227834368, 1452202752, 1308968704, 1831190528, 1082258432, 1823963904, 1833121024, 1796796800, 2094796800, 1605471488, 1346602880, 1136595328, 1255659264, 1340420224, 1499029376};
static const int32_t L024_dw_output_shift[512] = {-7, -7, -9, -7, -8, -7, -8, -8, -7, -7, -7, -7, -7, -8, -7, -7, -8, -7, -9, -8, -9, -8, -8, -7, -7, -9, -8, -8, -7, -6, -7, -8, -8, -9, -8, -6, -6, -6, -7, -8, -8, -8, -6, -7, -8, -8, -6, -7, -8, -8, -7, -7, -7, -5, -7, -9, -7, -6, -7, -6, -8, -7, -7, -9, -8, -7, -7, -7, -8, -8, -7, -7, -9, -8, -6, -8, -8, -8, -6, -7, -8, -7, -7, -7, -8, -8, -7, -7, -8, -8, -7, -7, -8, -8, -8, -6, -6, -8, -7, -7, -8, -7, -6, -7, -8, -7, -6, -9, -7, -6, -6, -7, -7, -8, -6, -7, -7, -7, -8, -9, -8, -6, -7, -7, -7, -9, -7, -6, -8, -7, -8, -7, -9, -7, -7, -8, -8, -7, -8, -6, -9, -7, -7, -8, -7, -9, -7, -7, -8, -7, -7, -7, -8, -7, -8, -7, -8, -7, -8, -7, -8, -7, -8, -8, -7, -7, -6, -8, -6, -7, -9, -8, -6, -7, -7, -9, -7, -7, -6, -7, -8, -8, -7, -8, -8, -9, -9, -8, -9, -7, -7, -9, -8, -7, -7, -8, -8, -7, -7, -7, -8, -8, -7, -8, -7, -8, -8, -8, -9, -9, -6, -7, -9, -8, -7, -8, -7, -7, -8, -7, -8, -7, -6, -8, -8, -7, -9, -7, -8, -7, -8, -7, -7, -8, -9, -6, -6, -6, -6, -7, -9, -9, -6, -6, -8, -8, -7, -7, -8, -8, -7, -8, -7, -8, -7, -8, -7, -8, -7, -7, -8, -8, -8, -7, -7, -7, -7, -9, -7, -7, -8, -6, -6, -7, -7, -8, -8, -7, -8, -7, -6, -7, -9, -8, -7, -8, -7, -7, -8, -8, -8, -8, -8, -8, -7, -7, -8, -9, -8, -8, -7, -8, -7, -7, -8, -8, -8, -8, -7, -8, -8, -7, -7, -7, -9, -7, -8, -8, -7, -8, -8, -8, -7, -8, -7, -9, -9, -7, -8, -6, -7, -7, -8, -8, -9, -8, -8, -7, -9, -8, -7, -6, -7, -6, -7, -8, -8, -7, -7, -6, -2, -7, -6, -8, -8, -6, -8, -7, -7, -7, -8, -7, -8, -7, -7, -7, -8, -7, -8, -9, -1, -8, -8, -7, -7, -8, -7, -9, -7, -6, -8, -8, -7, -8, -9, -8, -8, -9, -7, -8, -6, -7, -7, -7, -8, -9, -9, -8, -9, -7, -6, -7, -6, -8, -8, -8, -7, -7, -7, -8, -8, -7, -9, -8, -8, -8, -8, -8, -8, -7, -7, -7, -9, -8, -7, -8, -9, -9, -7, -8, -7, -7, -7, -9, -7, -8, -9, -6, -6, -7, -7, -8, -8, -7, -8, -7, -7, -8, -9, -8, -7, -9, -6, -8, -7, -8, -7, -7, -8, -7, -9, -8, -8, -8, -8, -8, -9, -8, -7, -7, -7, -8, -7, -8, -8, -7, -7, -8, -8, -7, -7, -8, -8, -9, -7, -9, -6, -8, -7, -7, -8, -7, -7, -7, -7, -7, -8, -8, -8, -9, -8, -7, -7, -8, -6, -8, -8, -8, -7, -7, -8, -8};

#endif  // LAYER_024_DEPTHWISE_CONV_2D_H_
