#ifndef LAYER_017_DEPTHWISE_CONV_2D_H_
#define LAYER_017_DEPTHWISE_CONV_2D_H_

#include <stdint.h>

// op_index=17 op=DEPTHWISE_CONV_2D
// input:  idx=74 name=mobilenet_v1_eurosat_1/conv_pw_8_relu_1/Relu6;mobilenet_v1_eurosat_1/conv_pw_8_bn_1/batchnorm/add_1;mobilenet_v1_eurosat_1/conv_pw_8_1/convolution; shape=[1, 8, 8, 512] dtype=int8
// weights: idx=23 name=tfl.pseudo_qconst21 shape=[1, 3, 3, 512] dtype=int8
// output: idx=75 name=mobilenet_v1_eurosat_1/conv_dw_9_relu_1/Relu6;mobilenet_v1_eurosat_1/conv_dw_9_bn_1/batchnorm/add_1;mobilenet_v1_eurosat_1/conv_dw_9_bn_1/batchnorm/mul_1;mobilenet_v1_eurosat_1/conv_dw_9_1/depthwise; shape=[1, 8, 8, 512] dtype=int8

#define L017_DW_OUT_CH (512)
#define L017_DW_KH     (3)
#define L017_DW_KW     (3)
#define L017_DW_STRIDE_H (1)
#define L017_DW_STRIDE_W (1)
#define L017_DW_DILATION_H (1)
#define L017_DW_DILATION_W (1)
#define L017_DW_DEPTH_MULTIPLIER (1)
#define L017_DW_PAD_H (1)
#define L017_DW_PAD_W (1)

static const int32_t L017_dw_input_offset = 128;
static const int32_t L017_dw_output_offset = -128;

static const int8_t L017_dw_weights[4608] = {-3, -66, -6, 15, 16, -9, 6, 26, 9, 14, 21, 4, -16, -43, 18, -43, -2, 11, -9, 21, 2, 2, -28, -20, -58, 16, 22, 13, 6, -6, 3, -28, -20, 14, 15, 67, -20, 36, -15, 0, 18, 28, -24, 45, 11, 43, 15, 19, 49, -57, 19, 14, 5, -49, 26, -15, -30, 30, 50, -71, 9, 3, 8, -95, 78, -91, 18, -3, -34, -57, 103, 6, 25, 12, -36, 127, 36, 7, -20, 0, 16, -5, 7, 4, -16, -22, -8, -15, -14, -29, 81, 11, 4, 23, 8, 59, 40, -32, -15, 24, -44, 6, -38, 0, -5, -43, 14, 0, -26, -40, -8, 25, -1, -9, 10, 17, 18, 4, -73, 6, 34, 31, 5, -10, -3, 20, -8, -30, 12, 23, 2, 55, -80, -51, -101, 5, -12, 16, 1, 11, 9, -2, -24, -56, 13, 78, -15, 32, -8, 31, 23, -3, -22, -10, -21, -5, -28, -5, 42, -44, -8, -55, -27, 13, 30, 13, -4, -2, 9, -66, 22, 0, 4, 46, 30, -37, -26, -98, 28, 18, 32, -13, -41, -2, 86, 10, 38, 18, 6, -44, 8, -73, -6, -52, 17, 8, 53, 7, 50, 32, 10, 42, -7, 34, 54, 11, 20, 27, 2, -58, 25, 7, 8, 12, 56, -17, 15, -101, -16, 17, -16, 21, -47, 13, -3, 37, -19, -17, -6, 27, 11, 4, 39, 2, 1, 11, 2, 35, -8, -3, -123, 38, -5, 25, -36, 16, -1, 53, -31, -64, -43, -48, 3, -4, -7, -14, 1, -49, 31, 12, -15, 14, 4, 32, 19, 52, 14, 16, 52, 27, 13, -2, 10, 60, 8, 4, 8, 3, -31, 29, 21, -1, 20, -94, 4, -13, 8, -63, 10, 27, 12, 35, 20, -14, 10, 9, -33, 16, -37, -2, -20, -5, 16, -12, 16, -9, -8, 3, -11, -22, 2, 4, 89, -4, -73, -1, -45, 13, 97, 24, 4, 7, 15, 17, -4, 39, -4, 61, -35, 34, -62, 16, -31, 0, 54, 19, 20, 13, 8, -108, -1, 92, 61, -41, 1, 10, 4, -28, 32, -21, 14, 17, 1, 31, 4, -73, -13, 30, -127, 79, -2, 32, -103, -24, -26, 10, 19, 5, 1, 6, 34, 15, -46, 29, 24, 26, 1, -81, 24, -127, -23, -4, -52, -9, -20, 6, 32, -10, -11, -8, -14, 52, -7, 27, 17, 30, 3, 11, -48, 13, 13, 7, -57, 7, 9, 17, -57, 15, 108, 71, 31, 27, -10, 3, -4, 15, -8, 10, 80, -30, -29, 4, -9, 49, 19, 1, 8, -38, -1, 21, 49, 17, -38, -20, 33, 0, -29, 5, 15, -3, 0, 35, 19, 9, -5, -16, 0, -21, 7, 60, 9, 3, 11, 1, 0, 16, -45, -35, 47, -4, 6, 2, 31, 9, 9, -5, 7, 69, 25, 32, 21, -9, -3, 6, -9, 43, 16, 23, 10, -3, 48, 5, 3, 6, -80, 10, -22, -47, 15, 13, 2, 75, 29, 6, 52, 56, -7, 12, -23, -6, -11, -17, 3, 4, 84, 4, 2, 18, 24, -40, -27, 9, -18, -6, 10, -94, 33, -26, -17, -10, 2, 25, 6, 15, -12, -28, 56, 13, -21, 6, -53, -16, -7, -16, -94, -41, -94, 4, 127, -57, 20, -37, 34, -21, -29, 25, -18, 24, -63, -20, -63, -3, 127, 127, -37, 110, 127, 127, 17, 17, -127, -72, 91, 3, 10, -127, 8, 63, -30, -71, 17, -13, -8, -6, 39, 2, 69, -111, 17, -33, -51, -127, 127, 11, 14, 28, 11, 13, 123, -55, -66, -21, -18, 21, 0, 7, -27, 57, -7, -19, -51, -127, 127, 18, -1, 17, -26, 0, 127, -127, 1, 24, -127, 36, -26, -30, 2, -5, 28, -19, -73, 11, -51, -25, -38, 1, 80, -45, 40, 3, -55, 40, 49, 44, -20, -37, -34, 36, 31, -68, 2, -7, -20, -60, -111, -66, 16, -1, -34, 58, -3, 54, 26, -28, -107, -79, 1, -32, -49, 64, 1, -22, 21, -21, -50, -45, -52, -8, 14, 1, 7, -64, -106, -127, -14, 30, 127, -43, 14, -88, -13, -92, 127, 28, -48, 96, -85, -37, -50, -124, 75, 16, 127, -38, -82, 17, -72, -18, 57, -3, -33, -35, -3, -67, -105, 9, 48, -40, -19, -12, 55, 64, 33, 43, -60, 16, 89, 37, 12, -45, -12, -76, 39, 19, 30, 2, 127, 16, 127, -127, 5, 53, -58, 127, 100, -36, -72, 16, -61, -73, -11, -15, -13, -25, -11, -8, -17, 13, -23, 127, -47, -13, -127, 127, -34, 41, -25, 11, 0, 105, -13, -91, -74, -39, -13, -16, -7, -6, 32, 38, 127, 1, -21, 26, -13, 127, 52, 118, 60, 19, -14, -19, 120, -11, 33, 110, 26, -11, 17, 8, 17, -31, 17, -41, 61, -76, -1, -32, 5, -94, 20, 127, 26, 127, 11, 23, 13, 9, -6, 21, -37, 24, -48, 21, -54, 127, 36, 10, -1, 1, -9, 91, 3, 63, 95, 14, -61, -24, -53, 23, -61, 29, -71, 41, -10, 21, -22, 99, -12, -12, -127, 5, -85, 16, 44, 0, 1, 60, 23, 24, 21, -100, 19, 65, 69, -22, -8, 16, 43, -127, 84, 32, 25, 20, -3, 62, 16, -34, -30, -17, -4, -82, -21, 82, -56, -109, -47, 18, 24, 11, -28, -8, 127, 16, -70, -125, 74, 40, -93, -127, -8, 86, -49, -5, -119, 69, -45, 25, 10, -55, 17, 34, -24, 94, 21, 10, 43, -10, -22, 77, -77, 15, -30, 36, -66, -29, 59, 64, -19, -42, 60, 79, -6, 22, -27, 4, -21, 91, -43, 3, -23, -83, -50, 30, -65, -26, 32, 10, -12, -32, -71, 30, 127, 48, 28, 25, 48, -40, -18, -9, 22, -17, -54, -11, 39, 18, -42, -6, -14, -88, 119, 97, 42, -10, 16, 46, 25, 26, -81, -80, -21, -21, 10, 25, 127, -30, -6, 2, 10, 115, 25, 127, 33, 42, -15, -35, 2, 127, 44, 39, -12, 4, -21, 10, -4, 1, -98, 30, -21, -44, 33, 4, 14, 127, -27, 38, -41, 63, -30, -5, -4, -5, -17, -32, 30, -3, 20, 127, 7, -28, 81, -66, 39, 21, -2, 29, 19, 25, -30, -1, 23, -22, 7, 9, -16, 1, -3, 27, 19, 10, 0, 13, -1, 28, 0, 5, -21, 24, -40, -7, 19, 14, 4, 2, 0, 74, -20, 8, -6, -11, -13, 32, -3, 0, 9, 17, -4, 45, -5, 45, 11, 16, -97, -49, 11, 6, 9, -42, 19, 96, -29, -65, 19, 50, 14, 4, 44, 127, 72, -75, 16, 3, -16, -31, 88, 13, -3, 18, 22, -8, 13, -33, -22, 2, 17, -7, 9, 6, 25, 57, -7, -7, -12, -11, 40, 11, 2, 18, 7, 10, 21, -37, 68, 19, -48, 6, 1, 22, 1, -44, 7, 0, -18, 37, 2, -28, -1, -6, 6, 16, 11, 9, -82, -1, 28, 7, 5, -6, -12, 16, 6, -27, 10, 26, 2, 7, -60, -38, 119, 0, 24, 17, 1, 2, 1, -3, -8, -48, 15, 16, -19, 24, -1, 38, 27, 0, -14, 79, -2, -3, 41, -3, 26, -24, 1, -47, -26, 10, 23, 11, -8, -13, 3, -40, 22, 73, 12, 37, 30, -34, -22, -96, 8, 15, 15, -15, -46, -4, -115, 13, 27, 18, 0, -20, 11, -72, -2, 24, 12, 9, 54, 65, 45, 26, 1, 30, -2, 36, 42, 6, 18, 5, 1, -14, 22, 11, 6, 15, 45, 20, 18, -90, -13, 21, -13, 5, -24, 12, 2, 39, -5, -12, -8, -28, 24, 5, 14, -1, 2, 15, 7, 47, -8, -2, -98, 26, -2, 127, -3, 16, -1, 52, -32, -52, -46, 32, 3, -4, -5, 60, -33, 41, 30, 8, 8, 16, 4, 18, -9, 67, 17, 15, -18, 18, -6, 45, 6, 48, 8, 5, -63, 35, -33, 26, 22, 0, 11, -81, 5, -15, 2, -53, 8, 7, 16, 27, 20, 1, 14, 7, 51, 17, 6, 92, -16, -11, 20, -12, 13, 122, -14, 1, -6, -34, 2, 7, 28, -6, -59, -18, -18, 15, -26, -7, -81, 7, 13, 10, -7, 40, -2, -21, -27, 5, -46, 16, 22, 3, -16, 9, 16, 10, 4, -14, -1, 6, -74, 33, 31, 8, -18, -15, 20, 28, 16, 13, 0, 27, 4, 13, -9, -32, 119, -17, 2, 33, -106, -18, -20, 11, 16, 7, -2, 6, 27, 9, -40, 32, 17, 19, 9, -67, -28, 63, -17, -4, -35, -19, -33, 1, 3, -21, 2, 67, -9, -127, 21, 23, 16, 22, 5, -35, -67, -12, 15, 8, -46, 48, 26, 18, 20, 17, -122, 61, 9, -8, -9, 0, -2, 12, -16, 12, 53, -11, -50, 7, -3, -29, 13, 3, 7, -61, 2, 15, 41, 62, -27, 51, 19, 7, -21, 0, 11, -6, -13, -25, 9, 9, -12, -29, 2, -11, 15, 51, 2, 6, 8, 13, -1, -87, -56, -35, -25, -9, 4, -7, 22, 12, 12, -4, 5, 77, 19, 22, 18, -9, 14, 1, 58, 32, 13, 17, 2, -4, -29, 1, 5, 5, -76, 21, 51, -39, 8, 9, -2, 43, -56, 6, -5, 39, -3, 40, 22, -6, -11, -14, 0, 3, 103, 24, 3, 16, 17, -39, 31, -7, -11, -127, 74, 26, -36, -8, -39, 127, 11, 14, 5, -29, -97, -47, 24, -127, -20, 26, -45, 127, -14, -9, -23, -23, -95, 13, 14, -59, 33, -48, 25, -80, -14, 19, 6, 100, -6, 34, -57, -1, 49, -30, -59, 108, -8, -2, 38, -4, 63, -83, -23, 53, 13, -78, 36, -22, -19, 113, 77, -97, 2, 8, 43, -25, -19, -127, 37, 10, 127, -19, 46, 26, 50, 24, -18, 89, 44, 72, -127, -19, 27, -14, 26, 14, -31, 91, -12, 127, -14, -107, 25, 24, -43, 43, -19, 127, 9, -119, -102, 33, -87, 43, -80, 52, -21, -17, 20, -18, 6, -49, -10, 106, -28, 52, 33, -3, 8, 13, -55, 39, 35, 108, -34, -26, 32, 32, -48, -45, 2, 8, 10, 127, -127, -99, 83, 4, 127, 42, -10, 1, 30, -12, -100, -58, -20, 127, -30, 45, 75, 35, 127, 16, -15, 12, -32, -5, -47, -15, -9, -26, 6, -12, -7, 22, -15, 23, 11, -9, 105, -127, -14, -81, 25, -25, 22, -26, -25, -118, -40, 15, 37, -74, -117, -9, -97, -10, 30, 24, -109, 19, 25, -9, -26, -123, 26, -30, 99, -21, 51, 59, 28, 41, -54, 23, 80, 19, 47, 127, 6, -47, -18, 3, 11, 28, 31, 40, 8, -91, -2, 6, -19, -48, 6, -29, -52, 54, -46, -29, -4, 127, -1, -15, -60, -10, 22, 18, 27, -1, -36, -10, -11, -25, -33, -34, -80, 21, -8, 65, 37, -80, -89, -77, 25, -21, -10, -68, 79, -17, 7, 22, -87, 25, 1, -5, 13, -38, 15, 4, -9, 127, -80, -98, 29, 28, 18, 3, 70, 6, 26, 2, 25, 7, 44, -75, 14, -26, 14, -31, 11, 21, 44, 14, 22, -27, 55, 6, -103, 25, -22, -61, -30, -28, 63, -37, 20, -10, -12, 1, 24, -33, 17, 45, 88, -21, -53, -67, -43, 23, 127, 13, 59, 13, 58, 24, -17, 72, -9, 127, 8, 127, -98, 23, 0, -20, 107, -10, 27, 29, -48, -85, 23, -45, -9, -94, 127, 32, -82, 10, -40, 116, 23, 21, -4, 34, 14, -17, -24, 11, 64, -59, -9, -9, -69, -1, -30, 7, 8, 8, -40, 2, 44, 16, 14, 123, -101, 45, -52, -61, 127, 99, -44, -16, -104, 23, -66, -17, 127, 54, 12, -81, -42, 2, 2, 11, 12, 122, 0, -80, -12, 1, 30, 27, -12, -19, -17, -26, 127, 74, 96, 34, 127, 31, -32, 22, 16, 39, -58, 8, 72, -98, -127, 46, -6, 127, 29, -42, 2, 127, 31, 43, 0, 41, -33, -64, 24, -106, -54, 23, 12, 15, -20, 127, 24, 25, 8, -24, -15, -80, 89, -19, 8, -30, 5, 127, 17, -30, -67, -5, 127, 75, 7, 28, -8, 18, 24, -3, 8, -7, -24, 7, 25, 28, -93, 14, -16, -10, 37, 42, 127, -5, 127, 25, 29, 7, -50, 17, -101, -104, 24, 25, 28, 37, 105, 23, 127, 85, -44, 1, -127, -5, 22, -33, 11, 4, 127, -12, 11, -35, 49, -65, 79, -15, -127, 105, 127, 127, 47, 127, 127, -18, 127, 127, 127, 127, 127, -127, 127, 91, -127, 127, -127, 113, -127, 127, -127, -45, -127, 127, -10, -127, 127, -127, 127, -123, -127, 127, -6, 127, -110, 127, -127, -127, -50, 21, -127, 127, 7, -88, 127, -25, -42, -127, 106, 127, 127, -106, 127, 127, -127, -127, -127, -55, 127, 127, 127, -63, -37, -117, 127, 127, -112, -122, 9, 127, 127, 127, -19, -64, 127, -116, -124, 127, -1, -127, 127, 127, 44, 127, 127, -53, -99, -87, 125, 127, 127, 127, -127, -34, -46, -113, 73, 127, 37, 127, 21, -127, 127, -127, 127, -127, -87, -127, -52, -127, -127, 127, -127, 127, 127, 127, -127, 127, 127, -127, -127, -127, 127, 127, 127, -127, 127, 127, 127, 86, -122, -48, 127, 127, 81, 127, -127, 127, 127, -16, -127, -127, -127, 93, -127, 127, 127, 127, 18, 127, 127, -115, -127, 127, -127, -127, 127, -127, -125, -1, -82, 127, -107, 127, 127, 36, 127, -60, -51, 21, 127, -127, 127, -127, 127, -127, -32, 127, 59, -127, -127, -127, -123, 127, 127, 70, -127, -127, 127, 127, 127, 48, 127, -127, 59, -69, 29, 127, 127, 127, -127, -127, -127, 127, 127, 38, 127, 93, -127, 127, 127, 127, 47, 127, -58, -63, -12, 127, 127, -60, 127, -127, -127, 127, -127, -127, -62, -47, 127, 35, 127, -127, 127, 127, 127, -1, 127, 127, 44, -3, -127, -77, 127, 127, 127, -127, -127, -127, -108, -73, 127, 127, 127, -127, 127, 127, -7, 127, 11, 127, 127, 26, 127, 89, 127, 127, 125, 107, -127, -127, 127, -127, -127, 127, -15, 127, -127, 127, -127, -11, 127, -127, 127, -127, 127, -127, 127, 63, 127, -10, 127, 127, 127, 127, -43, 127, -127, -86, -127, 127, -127, -14, 127, -49, 127, 127, 127, -127, 32, 127, -127, 127, -127, -127, -127, 127, -10, 127, -82, -2, -84, 127, 127, -127, -127, 48, -6, -22, -127, 127, 127, 127, 121, 127, 127, 127, 127, -127, 127, 127, 127, 1, 105, 127, -105, -9, -127, 127, 127, 127, 127, 127, 127, 127, -127, 127, -22, -127, 127, -127, -45, -22, -127, 127, -73, 127, -78, 127, -59, 127, -50, -84, -127, 127, -127, -63, 45, 90, -127, -127, -127, 127, -127, 127, 30, -127, 127, -109, -127, 106, -2, 127, 127, 127, 127, 40, -24, 127, 127, 127, -127, -127, -95, -23, 52, -127, -127, -127, 117, 127, -127, 127, 127, 127, -127, 127, -118, -127, -61, 127, 127, -42, 127, 127, 127, 9, 127, 127, 38, 127, 127, 127, 127, -127, -127, 127, 127, -99, 101, -38, 127, 127, 127, -127, -127, -127, 127, -127, 127, -127, 127, 1, 127, -124, -127, -127, -29, -59, 127, 127, -8, 127, 127, 127, 127, -127, 126, -31, 127, 127, -15, 127, 72, -77, 127, 127, 5, -127, 26, 127, 127, 127, -50, 26, 1, -127, 127, 127, 127, -38, -127, 127, -18, -107, -127, -28, 13, -127, -127, -127, 127, 127, 12, -72, 127, 2, 127, -127, 127, 127, 2, 78, -26, 10, 127, -17, 79, -99, -2, 2, 19, -27, 11, 48, 13, 64, -11, 15, -37, 84, -4, -19, -18, 127, -71, -20, 12, -50, 22, -36, 8, 74, -8, 22, 127, -8, 11, 20, -47, 13, 55, -29, 30, -28, -7, -3, 30, -4, -9, -62, -35, 37, 11, -87, 19, 111, -56, -43, -26, 127, -10, -1, -48, 56, -2, -119, 31, 0, -102, 27, 37, 16, -4, 6, 127, -7, 34, -127, 124, -26, 16, -2, 10, 4, 127, -45, -18, -31, -10, -104, 0, 19, 62, 11, -18, -4, 10, -67, 127, 32, -87, 19, 127, 89, -20, -9, -2, -8, 12, 112, 2, -94, -18, -30, 38, -3, -3, 11, -24, 28, 29, -31, -19, -48, -24, 25, -9, -44, -6, 5, 4, -61, -108, -101, 31, -3, -61, 32, -6, -15, 24, -10, -85, -48, 5, -32, -18, 23, 22, 34, 115, 0, -23, 127, -33, -17, 117, 5, 121, -9, 8, -14, -1, 12, -14, 12, -6, 7, 93, -124, -10, 127, 24, -5, 10, -18, -46, -110, -25, 2, 20, -48, -102, 3, -60, -16, 22, 15, -106, 34, 16, -22, -27, 127, 9, -22, 87, 127, 46, 36, 17, 31, -44, 18, 83, 12, 39, -26, -6, 127, 0, 0, -4, 20, 12, -14, 10, -98, 2, -13, -23, -38, 18, -23, -38, 49, -42, -32, 0, -62, 69, -8, 121, -7, 17, 10, 17, -6, -40, -20, -17, -21, -23, 77, 6, 9, -14, 14, 31, -66, -127, 127, 15, -21, -12, 118, -92, 19, 2, -7, 127, 16, -11, -11, 99, 127, 24, -6, 127, 87, -66, 105, 14, 69, 31, -4, -127, 47, 34, 60, 20, 5, 37, -55, 4, -15, 5, -20, 2, 8, 24, 8, 4, -31, 0, -5, 127, 14, 85, 127, -10, -19, 75, -39, 16, 127, -24, -12, 0, -44, 9, -34, -29, -18, -27, -55, 83, 8, 28, 42, -54, 17, 62, 9, -27, 64, 5, -76, 6, -119, -74, 11, 2, -13, -127, 10, 15, 24, -32, 13, 11, 40, 58, 127, 56, 15, -5, 18, -6, -72, 12, 11, -8, 22, -1, 29, -10, -3, -44, -112, -20, 29, -73, 2, -16, 2, 14, -5, -35, -7, 40, 8, 15, 127, -87, 31, -40, -56, -77, -8, -28, -2, -110, 9, -36, -56, -20, -15, 6, 127, -26, 102, -43, -2, -1, 126, -10, 127, -127, 5, 18, 12, 7, 110, -4, -23, -18, 73, -120, 35, -20, 14, -14, 6, -11, 23, -41, -4, 2, -83, -26, 34, -12, -80, 17, -37, -6, -124, 18, 41, 44, -42, -26, 70, 9, -87, -41, 17, 1, 127, -9, 29, 9, 11, -11, -18, -2, -59, 75, 69, -2, -27, 0, -8, -1, 127, -40, 6, -82, 127, -4, 30, -8, 9, 9, -11, -3, 119, -30, 2, 17, 8, 127, 11, 127, -7, 13, 29, -105, 2, -90, -3, 11, -3, -48, -127, 127, -91, 13, 18, 14, 16, -97, 2, -29, 127, -32, 127, 114, 7, 53, -18, 0, -6, 29, -57, -1, 127, 35, -51, 18, -51, 0, -42, 23, 45, 11, 4, 19, -7, 8, 4, -7, 0, -9, 23, -50, -52, 1, 13, -26, 25, 1, 0, 21, -5, -60, -4, 12, -6, 11, 16, 16, 53, -26, 4, 17, -33, 39, 13, -12, -1, 26, 0, 6, 42, 9, -16, 5, 28, -30, -2, -127, 11, 16, -113, 6, -17, -21, 22, 40, -30, 10, 2, 43, 1, -120, -8, 12, 13, -44, 2, 16, 22, -12, 7, -15, 95, 39, -20, -47, 8, 109, -6, 18, 8, -7, 48, 4, 53, 39, -28, 1, 8, 7, 1, 1, 18, -7, -20, -15, 11, -45, 14, 0, 33, 5, -63, 1, -5, 56, -37, 15, 18, 3, 0, -25, 36, 8, 14, -40, 2, 7, 26, 9, -21, 23, 8, -2, -23, 2, 20, 1, -55, -80, -54, 105, 9, 88, 9, -3, -13, 9, 10, -15, -45, -7, -41, 0, 20, 49, 16, 23, -17, -13, -23, -18, 4, -37, -3, 49, -15, 13, -8, -62, 14, -17, 34, 1, 60, 33, -20, 7, -20, 23, -33, 18, -19, -14, -68, 7, 19, 51, -18, 8, -3, -127, 7, 6, 34, 21, 90, 7, -3, 2, -29, -4, 3, 104, -14, 34, 5, -5, 28, -18, 33, 20, 23, 25, 0, 7, -36, -9, 1, -1, 16, 6, 39, 0, -63, 34, 10, 3, -52, -40, 6, -12, 10, -30, 4, 24, -9, 28, 34, 28, -3, -4, 15, 14, 9, -9, -10, 29, -57, 11, -3, -42, 13, 7, -5, 47, 58, -62, -47, 8, -5, -3, 13, 4, -10, 2, 11, 1, 10, 4, -2, 23, 35, -10, 11, 5, 19, 32, 2, 8, 45, 0, 5, 13, 18, 83, 59, 20, 33, 4, -91, 6, -12, 11, -47, 10, 8, 1, 11, 14, -6, 7, 3, -10, 23, 17, -22, 5, 5, 2, -2, 20, -9, 3, 3, 29, -5, 35, 0, 47, -4, -26, -21, 7, 8, 74, 3, 127, 58, 24, 3, -7, 37, -2, 58, 40, 42, -24, 12, 14, -2, 35, -4, 19, 10, 12, 36, -1, 59, 2, 5, 15, 12, -127, 26, -38, 112, 22, 10, 10, 11, 5, 17, -25, -9, 86, -14, 16, -23, -127, 31, -23, 1, 19, 14, -13, 8, 43, 10, 63, 2, -5, 36, 6, -30, 74, 37, -12, -5, -20, -2, -21, 3, 22, 10, 31, -33, -14, 1, -91, 14, -1, 45, 12, 15, -19, -1, 24, 6, 12, 31, -89, -110, 19, 9, -9, 24, -35, -7, -5, 10, 5, 10, -19, 9, 87, -10, -36, 28, 19, 21, 17, 1, 6, 75, 19, 23, -10, 11, -52, 67, -2, -24, -11, 14, 9, 1, 98, 44, 3, 21, 17, -61, 3, -2, 30, -36, 5, 7, 12, 23, -6, -36, -47, 36, 15, 1, 3, 4, -14, 13, -3, 6, 8, 14, 58, -2, 22, -13, -14, 17, -29, -27, -7, 23, 15, -9, 17, 19, 17, 5, 42, 14, -26, -20, 18, 10, -11, 17, 29, -60, 46, 49, -5, 3, -25, -5, -23, -20, -7, 4, 106, 6, 4, -13, 21, -45, 14, 11, 14, 0, 12, 91, -5, -33, 21, -3, -14, 6, 1, 10, -31, 46, -63, -60, -16, 17, -84, -21, 61, -12, 69, -32, -43, 13, 5, -52, 11, -28, 3, 45, -21, 2, -19, -11, 127, 43, -19, 10, -6, 16, 5, 3, 21, -30, 35, 127, 61, -39, -97, 43, 11, -5, 2, 8, -21, 51, -21, -37, 2, -2, -27, 17, -53, -54, -66, 38, -73, 26, -5, 16, 16, 11, 19, 11, -74, -50, -102, -17, 127, 5, 31, -6, -25, -36, 9, 7, 127, -104, -24, 21, -23, -7, -15, 8, -3, -63, 0, -4, -32, 14, 9, 81, 10, -50, -15, -16, 127, -62, 127, 55, -18, -23, 24, 119, 4, -1, -42, -27, -29, -27, -28, -33, 41, 32, 23, -1, -12, 43, -4, 68, -87, -127, -49, 21, 104, -4, 4, -48, 31, 127, -100, -57, -34, 18, -25, 15, 21, -69, -6, -46, -12, 118, -38, -11, 10, -18, 12, -20, -127, -13, -127, -20, -79, 55, -14, 127, -69, -88, 20, 5, -7, -44, 46, -35, -22, -56, -127, 29, 46, -51, -58, -16, -45, -11, -34, 127, -17, 88, 0, 13, 111, -20, -5, -33, 127, -23, 127, -42, 13, 39, -59, 12, -11, -9, -21, -43, -2, 125, -41, -19, -18, 38, 14, 14, 11, -100, 127, 0, 11, -66, 104, -25, -25, -11, -35, 11, 127, -6, 12, 127, 123, -3, -31, 8, 48, -8, -64, -23, 44, -90, -5, -7, -53, 15, -6, -63, 90, 93, -37, -46, 22, -32, 1, 43, -11, 0, 5, 8, 2, 6, -25, -53, -19, -11, -28, 4, 81, -21, 90, 33, 14, 39, 91, -9, 41, 15, 61, 71, 11, 127, 18, -83, 6, 0, 12, -43, -7, -2, 43, 8, 7, 9, 2, -16, 4, 25, 73, -6, 33, 9, -23, -30, 14, 4, -20, -11, 44, -44, 127, -50, -21, -8, -76, -53, 47, 5, -66, 14, 91, 127, 127, -2, -107, 52, 7, -12, 87, 7, -82, 15, -26, 6, -18, -23, 1, 8, 15, 6, 11, 61, -18, -13, -3, 27, 27, 98, -20, 73, 5, 7, -4, 67, 8, 54, -39, 10, 20, -74, -7, -48, -38, 127, -21, -5, 127, 0, 127, 0, 88, 9, 127, 71, 33, 34, -57, -80, -23, 22, -23, 1, -122, -6, -31, 3, -13, -36, -6, -14, -19, -20, -127, 22, 23, -38, 10, -85, -20, -11, 64, -1, 47, 106, -127, -127, -29, -4, -22, -7, 102, 18, 10, 14, 0, 1, -36, 3, 127, -89, -42, 27, 37, -15, 29, 29, -30, 29, -23, 38, -35, 55, -109, 51, -43, -77, -48, 37, -10, 5, 127, -2, -1, 21, 68, -114, -2, -94, 35, -24, 54, -80, 0, -19, -13, 19, -46, 120, -10, -7, -20, 27, 4, 26, -53, -13, -2, 6, 127, 15, 17, -26, -23, 16, -4, -48, -20, 4, -5, 37, -10, 12, 39, -10, 127, 40, -2, -78, 19, 43, -9, 17, 108, -98, -39, 37, -7, -10, -9, 19, -8, -24, -35, 0, 80, -92, -13, -6, -74, -78, 33, 29, 2, 1, -2, 23, 21, 8, 10, 8, 7, 5, 34, 5, -6, 32, -42, -23, 1, 15, -24, 24, -1, -1, 25, -23, -62, 25, 11, -9, 8, 17, 18, 127, -25, 16, 18, -1, 25, 10, -17, 0, 20, -6, 15, -12, 9, -12, 4, 23, 53, -7, -104, 5, 7, -109, 5, -40, -35, 36, -15, 0, 5, 3, -64, 40, -127, -3, 17, 11, -32, -7, 9, 25, 21, 6, 65, 19, 34, -57, -31, 8, 110, 1, 19, 12, 22, 10, 6, -16, 32, -17, 4, 4, 0, 1, 5, 9, -3, -29, 67, 7, -42, 13, 65, 20, 4, -63, -3, -5, 48, -3, -3, 3, 3, 14, -25, 32, 10, 16, -50, 4, 1, -41, 6, 1, 0, 4, 5, -23, 4, 12, -1, 25, -72, -42, 2, 7, -34, 15, -8, -11, 5, -7, -1, -34, -6, -11, -3, 25, 49, 11, 21, -8, -10, 53, -17, -1, 34, -2, 17, -9, 8, 1, -39, 18, -7, 28, -3, 60, 23, -32, 6, 54, 22, -31, 12, -23, -15, -50, 26, 14, 42, -22, 9, 2, 62, 6, 5, 17, 24, 81, 7, 0, -4, 27, -5, 10, 104, 48, 39, 12, -6, 20, -16, 33, -1, 19, 23, 27, 6, 82, -4, 1, 1, 12, 0, -12, 4, -48, 23, 17, -1, -38, -9, 10, -14, 10, -16, 7, 19, -1, 36, -10, 101, -2, 2, 12, 8, 4, -8, -7, 17, -51, 9, 21, -23, 10, 6, -29, 37, 23, -33, 7, 4, -7, -2, 45, -16, -8, -1, 4, 33, 7, 4, 2, 34, -3, -3, 9, 72, 29, 36, 33, 5, 42, -6, 3, -7, 0, 76, 27, 20, 24, -1, -81, 7, -9, 8, -23, 11, 5, 23, 13, 10, 14, 10, 3, 22, 24, 37, 19, 2, -10, 1, -1, 17, 58, 10, 3, 18, 6, 20, 7, -33, 7, -11, -9, 11, 12, -30, 24, 47, 53, 16, 2, 3, 32, -3, -27, 33, -44, -15, 6, 4, -3, -20, -17, 17, 4, 6, -12, 3, 0, 36, 22, 34, 10, 33, 12, -31, -2, 21, 6, 6, 8, 7, 5, -16, 27, -109, -30, 11, 6, -115, 29, -19, 1, 10, 14, -19, 7, 40, 6, 43, -5, -13, 29, 13, -20, 7, 2, -15, -5, -12, -6, -35, -2, -4, -4, 4, 27, -9, 49, -58, 12, -4, 30, 9, 29, 3, 19, 12, 6, 11, 39, -83, -108, 14, 14, -62, 9, 39, 31, -9, 8, -3, 9, -3, 9, 107, 1, -51, 25, 19, -8, 17, -8, 9, -79, 19, 18, -10, 43, -54, -23, -5, -15, -13, 10, 6, 56, 94, -26, 1, 15, 9, -51, 6, 12, 22, 40, -3, 10, 10, 12, -6, 116, -41, 25, -15, -18, 3, 0, -9, 11, 1, 5, 7, 59, 35, 0, 21, -16, 28, 17, 50, -19, -1, 22, 7, -14, -18, 23, 14, 3, 19, 34, 40, -10, 13, 10, -7, 13, 50, -48, -2, 47, -2, 75, 29, -5, -25, -17, -4, 4, 80, -39, 2, -12, 28, -33, -8, -9};

static const int32_t L017_dw_bias[512] = {20425, -42, -5411, -616, -4247, -2930, -132, 13447, -2516, -6297, -4509, -9012, -123, -983, -7278, 31432, 14544, -6766, 18986, -24272, 8282, 2193, 29122, -561, 24514, -3586, -2677, 22659, -5744, 18053, -3548, 27576, 19763, -2035, -3148, -1624, 10529, -12021, 19884, 12354, -9808, -5102, 20001, -780, -5760, 14370, -4687, -6521, 28515, 47712, 157, -6933, -18483, 34816, -6038, -3136, 18319, 11179, 17098, 512, -1047, -6710, -14499, 1096, 11426, 29107, -6716, -1911, 17706, 28671, -9569, -5745, -8509, -10498, -7273, -4296, -7416, 16368, 21433, 2963, -5491, 23036, -8207, -6155, 10194, -7087, 4189, 13789, -580, 20783, -3878, -13997, 0, 2329, 11067, -951, -1223, 32640, 9825, -13365, 24463, -9324, 14369, 138, -7040, 31084, -6530, 13627, 26945, 13185, 12686, 24566, 15103, -131, 9048, -3858, -7870, -7239, 30160, -9248, -5383, 4584, 11166, 19443, -1650, -6414, -9895, 19313, -4992, -7662, -7740, -6500, 25660, 20380, -12398, -5680, -5469, -13564, 11355, 2361, -15782, 9188, 29213, 22206, 29755, 2321, 16855, -8024, -939, -2967, -24332, -4693, 10924, -5662, 16718, 5203, 24431, 19265, -19718, 19532, 12087, 35924, 30330, -7161, 8344, -2095, 1114, 20073, -12667, 19805, -7458, 7974, -10082, 16963, -3743, 19408, 14381, 39327, 16514, -10161, -6691, 21746, 18221, 13452, 13921, 1628, -1894, -6780, 21644, 15143, -7938, -409, 9176, 19951, 2295, 14120, -11388, 15854, -18985, -2577, -1299, -5690, 24574, 5949, -484, -7901, -4463, 6085, 148, 252, 15200, 2514, -1188, -11424, -11427, -7540, -3862, 19678, -2454, -7362, -169, 2424, -17920, 13326, 22394, -12013, 20411, 15588, -1195, 1351, -1506, -2149, -3553, 13734, -8175, -11704, -6616, -3105, 23774, 7412, 20944, -39, 14530, 8317, 24102, -5936, 559, 10912, -9, 13637, 23397, 1263, -4109, 7826, -5417, 27866, -1242, -901, -8044, -4459, 15666, -5670, 3882, 10840, -11814, -9164, -6896, -4676, -10019, -19523, -13, 26801, -9363, 14046, 13614, -2810, 21307, -5879, 4211, -9013, 564, 6488, -4097, 34646, -6652, 35750, -3600, 35038, -6361, -8411, -18922, -2078, -6852, -10647, -2915, -977, -2335, -7770, 20240, 18891, 19098, -6502, 7877, 4862, -12348, 2227, -1582, 170, -914, 13909, -8636, -6147, 2727, -6255, 32698, 17788, 23178, -11100, -9679, -9856, 25111, -1108, 12476, -1013, 8170, -1166, 15701, -12055, 25585, 23970, 33811, -4676, -6504, -5566, 13097, -3738, -7325, -7103, -7364, 14381, -15977, -5201, -5559, 11014, -19790, -7849, 27211, 527, 28669, -4146, -9069, -9700, 2418, -2413, -10254, -2408, 22551, -7718, 12345, 17042, 5174, 13574, 21149, 18204, 17855, -5860, 7413, -3259, 10108, -1105, -10991, -8344, 16455, -13361, 9898, -5401, 20450, 22190, 3010, -5997, 26507, 17868, 23509, -5075, 26427, -5127, -6526, 22732, -6023, 8968, 18259, -7794, 20324, -6752, -9745, -26671, 8201, 12535, 16034, -9305, -6809, -8364, 32955, 26370, 23582, 30862, -2358, -290, 5152, 7572, -9077, -19659, 23397, -7567, 894, -9771, 12859, -5708, 9914, 20936, 28792, -6233, 8461, -1860, -6045, -8359, -4585, 26406, -7624, -5676, -1539, -4637, 30011, -10649, -8027, 24205, 19234, -4336, -3717, 13593, -1730, -7121, -3046, -5071, 552, 37187, 11688, 27285, -6571, -10418, -13246, 15249, -5094, -4228, -8686, -2316, 26452, 24025, 13468, 5165, 288, -19526, -3536, -3838, -9516, -2950, -1971, 26206, -12960, 573, -8657, -2939, 2207, -7484, -14398, 472, -6879, -1709, 12473, 9368, 14170, -8447, -14161, -764, 488, -2007, 15698, 18754, -8460, -8292, -8767, -2253, 16633, -5029, 1870, -6379, 17883, -9000, -373, 16663, 10696, 20950, -773, -625, -17995, 542, -1302, 8683, -5237, 22968, -20916, -8527};

static const int32_t L017_dw_output_multiplier[512] = {1485534080, 1870873088, 1704587520, 1621817088, 1688900992, 2022174336, 2051023488, 1692223488, 1915795840, 2070500096, 1122787200, 1467734784, 1343057408, 1721364736, 1255599616, 2073042688, 1224250496, 1137657600, 1854399616, 1134229248, 2022378240, 1724906112, 1191691904, 1974621056, 1625544064, 1323580928, 1922962560, 1129538816, 2072620032, 1151883904, 2146928256, 1702123264, 2072485248, 1945877632, 1140374144, 2028732544, 1387159296, 1637896064, 1562194432, 1077115648, 1636803456, 1195729536, 2047434368, 1177401472, 1223604224, 1366335360, 1875950720, 1141047040, 1148686464, 1309073920, 1611051904, 1814178688, 2082524288, 1497255936, 1903971328, 2115243136, 1732734976, 1641726720, 1777412352, 1199912576, 1877644928, 1787513600, 1441418368, 1653569024, 1162347136, 1546551680, 1309339392, 1683394432, 1098321024, 1096214784, 2088821504, 2029034240, 1157592576, 1373283584, 1165800704, 2045277184, 1955412864, 1608056576, 1598900480, 2114085248, 1598678784, 1933708416, 1106763520, 1317102976, 1574354304, 1107028096, 1088986112, 1527074688, 1711115904, 1811598720, 1091172992, 1226244992, 1801735552, 1203984384, 1949317248, 1436757888, 1568895872, 1237583488, 1815106816, 1265138176, 1179737472, 1157732352, 1222379008, 2108697600, 1871258624, 1703328000, 1245142912, 1793853312, 1255412096, 1100370944, 1139606016, 2142615296, 1090884736, 1196692224, 1211681024, 1620452480, 1869413376, 1120213376, 1920297856, 1074591104, 1976396032, 1246822016, 1607926144, 1224347136, 1976200704, 1212660352, 1648474496, 1239690112, 1300503680, 1352964608, 1606233216, 1608929024, 1400919040, 1114074240, 1887380480, 1094246272, 2113056512, 1324380032, 1122268544, 1223749888, 2087331328, 2115615744, 1439355392, 1385172736, 1300064128, 1879803776, 1720646528, 1992888704, 1471966848, 1497472384, 1603603072, 1598077056, 1827899520, 1340379392, 1104565120, 2006919808, 1913914880, 1350204672, 1310704256, 1381348864, 1084789504, 1883178112, 1740517504, 1551288832, 1517334784, 1412369024, 1178974848, 1849858944, 1638192128, 1112410624, 1358720256, 2102959360, 1272040704, 2118086656, 1864439296, 1395705216, 1703964416, 1170649216, 1604877184, 1189649408, 1271449728, 1630179328, 1254606464, 1949160576, 1779296768, 1153837568, 1643638016, 1330125056, 1279225856, 1114262912, 1258859136, 1166185216, 1254280448, 2046775936, 1777512064, 1290918784, 1677709056, 1267504256, 1347919104, 1538522880, 1528415232, 2138043392, 1679724544, 1088290304, 1763843456, 1908752128, 1611019264, 1620124032, 1613095168, 1842321536, 1945380992, 1681659264, 1090318208, 2082950400, 1403388928, 1211811456, 1222482176, 1220018432, 1813700480, 1359284992, 1708578048, 1774297856, 1259251968, 1675272832, 1410979456, 1394732928, 1766851584, 1600602496, 1310777216, 1682172544, 1963827712, 1226871808, 1181302016, 1879851904, 1505521664, 2001626496, 1838416000, 1586671488, 1739466240, 1141296640, 2065970560, 1087756032, 1663848192, 1300077312, 1092548480, 1396137344, 1981813248, 1963091968, 1932485120, 1951663104, 1376379008, 1454501376, 2003549696, 1179711360, 1237475584, 1076187136, 1741906560, 1369875456, 1464839936, 1281312000, 1524802432, 1606624896, 1118992384, 1664435584, 1708462592, 1387021824, 1224627968, 1985052672, 1565998336, 1279270784, 2026454528, 1313433856, 1553866368, 1901376896, 2126789632, 1610965248, 1495283840, 1838077056, 1622406016, 1225263616, 1149865216, 1468105216, 1639501696, 1602566528, 1269176192, 1987320448, 1887950336, 1922661248, 1250891776, 1304061056, 1355988224, 1354412160, 1844487552, 1788564864, 2028902912, 1610764288, 1357638656, 1669962496, 1358172544, 1963997184, 1129556352, 1201550080, 1315566720, 1085271552, 1868384384, 1637309184, 1641590784, 2005100672, 1899990272, 1084919296, 1932270208, 1836569856, 1453913728, 1225924352, 1680509440, 1106316672, 1426354944, 1393088896, 1331991168, 1176928000, 1129155200, 1967019776, 1653826304, 1502030720, 2014615680, 2119621632, 1920793216, 1327583232, 1155373568, 1396836864, 1254648192, 1917864832, 1305768064, 1496041728, 1769565440, 1804357632, 2021274496, 1207330944, 1297629312, 1561089408, 1313006464, 1519715200, 1305656576, 1720738560, 1229422976, 1274151424, 1892137856, 1181600000, 1209126528, 1168131456, 1079846528, 1136304896, 2067098368, 1675166336, 1565435776, 1275003264, 1350111104, 1522139776, 1797161344, 2012187136, 1816711296, 1685561600, 2067793792, 1380025728, 1914995456, 1314554752, 1644361856, 1647952000, 1491152256, 1902811520, 2000871296, 1439768832, 2050303104, 1897344512, 1822555264, 1174187264, 1134873984, 1876469248, 1248712192, 2144906112, 1138710912, 1822865920, 1074359296, 1234545408, 1658498304, 1202621568, 1894317056, 1214405760, 1197831168, 1183130752, 2066690432, 1547671168, 1264085376, 1080316672, 1323432960, 1141529088, 1722682240, 1961254144, 1388940544, 1650832640, 2066764416, 1126003968, 1122771584, 2017759616, 1260639360, 1733979776, 2072625536, 1395405952, 1437252864, 1075915520, 1478893440, 2103034496, 1101865984, 1264611968, 1911442048, 1365972608, 1243354368, 1287738496, 2035356288, 2115337088, 1459282176, 1180505600, 1565120768, 1803586432, 1799880192, 1164835200, 1853777152, 2033970560, 1206912384, 2007162624, 1834918144, 1725385600, 1298304640, 1950793472, 1334412928, 1211746304, 1170564352, 2092513536, 2059828992, 1212929536, 1416612096, 1958285696, 1968891648, 1669964288, 1876128128, 1862372736, 2031845376, 1132312832, 1893730560, 2105966080, 1602019456, 1115988224, 1100154112, 2104114176, 1512314880, 1758612224, 1598758016, 1992355584, 1526287872, 1689530112, 1656596608, 1582503040, 1265385856, 1078383360, 1579726592, 1655019520, 1582654208, 1204164736, 1356577408, 1324319872, 1130738048, 1677790976, 1120977024, 1483844224, 1446692096, 1264440576, 1423997952, 1607745152, 1455257600, 1113460736, 1346048128, 1756119680, 1960710528, 1683037824, 2022418048, 1230729344, 1174483072, 1764101504, 1098424064, 1223334400, 1634514048, 2011168768, 1705276544, 1244283776, 1475911040, 1521339520, 1086494464, 1886152192, 2047500800, 1786670080, 2093534208, 1842571264, 1945384576, 1302220928, 1757084160, 1273780736, 1682080384, 2087765376, 1244977408, 1238434304, 1425474304, 1444060288};
static const int32_t L017_dw_output_shift[512] = {-6, -7, -7, -7, -7, -6, -7, -7, -7, -7, -6, -5, -6, -6, -6, -8, -5, -6, -7, -6, -6, -6, -7, -6, -8, -6, -7, -6, -7, -6, -7, -8, -7, -7, -6, -7, -7, -6, -6, -5, -7, -6, -8, -7, -6, -7, -7, -6, -7, -8, -7, -7, -6, -7, -7, -7, -7, -7, -7, -6, -7, -6, -6, -7, -7, -8, -6, -7, -7, -7, -8, -7, -6, -6, -6, -8, -7, -7, -8, -6, -8, -7, -6, -6, -7, -6, -6, -7, -6, -7, -5, -6, -7, -6, -5, -7, -7, -7, -8, -6, -7, -6, -7, -7, -6, -8, -6, -6, -7, -7, -6, -8, -5, -6, -6, -7, -7, -6, -8, -6, -7, -6, -5, -5, -7, -6, -6, -7, -6, -6, -6, -7, -8, -7, -7, -6, -7, -6, -5, -6, -6, -7, -8, -7, -7, -7, -6, -7, -7, -7, -7, -6, -7, -6, -6, -7, -8, -6, -7, -7, -6, -8, -8, -6, -7, -7, -6, -8, -7, -7, -6, -8, -6, -8, -6, -7, -7, -8, -7, -6, -7, -7, -7, -6, -7, -6, -7, -7, -6, -7, -6, -6, -7, -8, -7, -5, -7, -7, -6, -7, -7, -7, -7, -5, -5, -7, -7, -7, -6, -8, -7, -7, -6, -6, -6, -6, -6, -7, -7, -6, -7, -7, -6, -5, -7, -6, -7, -7, -6, -6, -7, -6, -7, -6, -6, -6, -7, -7, -7, -6, -8, -6, -6, -7, -7, -6, -6, -7, -6, -7, -7, -6, -7, -6, -5, -7, -7, -6, -6, -6, -7, -7, -6, -7, -7, -7, -6, -7, -7, -6, -7, -7, -6, -7, -7, -6, -7, -7, -7, -7, -5, -7, -7, -7, -6, -8, -7, -8, -6, -6, -6, -7, -7, -6, -7, -6, -6, -7, -7, -8, -6, -5, -6, -6, -6, -8, -6, -6, -7, -6, -7, -6, -6, -5, -8, -6, -7, -6, -6, -6, -7, -7, -7, -7, -7, -7, -6, -6, -7, -7, -8, -7, -6, -5, -8, -6, -7, -6, -5, -7, -5, -7, -7, -7, -6, -6, -8, -6, -7, -7, -6, -6, -7, -7, -6, -6, -7, -6, -7, -8, -7, -7, -8, -7, -7, -6, -7, -7, -7, -6, -7, -6, -8, -7, -6, -6, -6, -7, -7, -7, -7, -6, -7, -6, -7, -5, -7, -7, -6, -6, -7, -7, -7, -6, -6, -6, -7, -7, -7, -6, -7, -6, -7, -8, -7, -8, -7, -6, -7, -7, -7, -6, -6, -6, -7, -6, -7, -6, -7, -8, -7, -6, -7, -6, -7, -5, -6, -8, -6, -6, -7, -7, -7, -7, -6, -7, -6, -7, -7, -7, -7, -6, -7, -7, -7, -8, -6, -7, -7, -7, -6, -5, -6, -7, -6, -7, -8, -8, -7, -7, -6, -6, -6, -6, -6, -6, -6, -7, -7, -7, -6, -6, -6, -6, -6, -6, -6, -7, -7, -5, -7, -6, -6, -6, -6, -6, -7, -7, -6, -6, -6, -8, -7, -6, -7, -7, -6, -7, -7, -6, -6, -7, -7, -6, -8, -6, -6, -7, -6, -7, -6, -6};

#endif  // LAYER_017_DEPTHWISE_CONV_2D_H_
