#ifndef LAYER_026_DEPTHWISE_CONV_2D_H_
#define LAYER_026_DEPTHWISE_CONV_2D_H_

#include <stdint.h>

// op_index=26 op=DEPTHWISE_CONV_2D
// input:  idx=83 name=sequential_1/mobilenet_1.00_128_1/conv_pw_12_relu_1/Relu6;sequential_1/mobilenet_1.00_128_1/conv_pw_12_bn_1/batchnorm/add_1;sequential_1/mobilenet_1.00_128_1/conv_pw_12_1/convolution; shape=[1, 4, 4, 1024] dtype=int8
// weights: idx=7 name=tfl.pseudo_qconst5 shape=[1, 3, 3, 1024] dtype=int8
// output: idx=84 name=sequential_1/mobilenet_1.00_128_1/conv_dw_13_relu_1/Relu6;sequential_1/mobilenet_1.00_128_1/conv_dw_13_bn_1/batchnorm/add_1;sequential_1/mobilenet_1.00_128_1/conv_dw_13_bn_1/batchnorm/mul_1;sequential_1/mobilenet_1.00_128_1/conv_dw_13_1/depthwise; shape=[1, 4, 4, 1024] dtype=int8

#define L026_DW_OUT_CH (1024)
#define L026_DW_KH     (3)
#define L026_DW_KW     (3)
#define L026_DW_STRIDE_H (1)
#define L026_DW_STRIDE_W (1)
#define L026_DW_DILATION_H (1)
#define L026_DW_DILATION_W (1)
#define L026_DW_DEPTH_MULTIPLIER (1)
#define L026_DW_PAD_H (1)
#define L026_DW_PAD_W (1)

static const int32_t L026_dw_input_offset = 128;
static const int32_t L026_dw_output_offset = -128;

static const int8_t L026_dw_weights[9216] = {68, -2, -127, -102, 123, -86, -3, -107, -109, -119, 14, 118, 127, 29, -93, 99, -92, 96, -69, 14, 83, -4, 102, -105, 91, -121, 45, -99, 102, -119, 97, -64, -126, 88, -127, -95, 127, 119, 124, -76, -127, 97, -81, 107, 83, -86, 67, 93, 102, 36, -26, -43, -113, 124, -22, 36, -87, -121, -94, -94, -98, -98, 81, 122, 127, 72, -127, -25, -94, -87, -127, -8, -100, 78, -101, 29, -119, 82, 107, -102, -42, -123, 25, -40, -127, -65, -127, -75, -64, 60, 75, 38, -67, -127, -99, -113, -9, 80, 112, -125, 54, -112, -77, -110, -84, 15, 105, 91, 113, 110, -127, 117, -3, -112, 97, 11, 55, -31, 27, -89, 95, -31, 108, -95, -103, 127, 51, -84, 65, 102, 106, 88, 25, -93, 127, 92, -101, -99, -68, 119, -111, -115, -99, 97, 127, -127, -22, 74, -68, 79, -43, -74, -30, -108, -97, 87, -110, -113, -98, -1, -127, 127, 105, 100, -115, -81, 36, -107, 1, -52, -91, -50, -46, 102, -85, 126, -41, -113, 59, 105, -111, 63, 74, -19, -126, 81, 32, 94, 39, -80, -70, 127, 45, 36, 46, -92, 89, 57, 96, 97, 36, -127, 61, -54, 81, -16, -113, 81, -78, -67, 127, 75, -94, 107, -112, 106, -30, -127, 85, -96, 127, -126, 107, -127, -91, -96, -68, -49, 127, 12, 26, -124, -68, -121, -113, -101, -112, 96, 8, 83, 69, -107, -50, -75, -120, 57, 62, -22, 113, 83, -52, -109, -78, 60, 53, 50, -120, 114, 121, 78, 127, 127, -96, 32, -96, -85, 101, -89, 90, -117, 57, -50, -96, 54, -83, 111, -73, 127, 52, -121, -118, 107, 113, -127, 106, -112, 127, 76, -81, -83, -105, 61, -45, -68, -120, -94, -35, -79, -103, 87, -114, 80, -127, -111, 113, -60, -32, 112, -35, -108, 55, -33, -99, 38, -85, -7, -120, 91, 109, -52, -49, -25, 43, 54, 23, 52, 65, 15, -91, 127, -78, 75, -84, 40, 2, 127, 126, 61, -102, -127, 127, -113, 17, -127, 55, 127, -45, 104, -127, 98, -120, -109, -14, 28, -64, 127, 127, -106, -58, -89, -127, -49, 111, 85, -69, 127, 122, -78, 127, -119, 127, -122, -69, -103, 20, 80, 127, 50, -127, -122, 91, -98, -96, -12, 112, 89, 87, 100, -96, -124, -31, -79, -127, 75, -99, -108, -56, -127, 97, -96, 16, 86, -122, 97, -98, -41, 119, 44, 26, 127, 79, -101, -127, 24, 30, 41, 58, -88, -121, 95, 121, -105, -25, 127, -102, -7, 55, 26, 49, 127, 74, 32, -92, 20, 70, -68, 7, -18, 15, 80, 126, 96, 82, 118, -24, 123, -89, -99, 120, -72, 53, 116, -72, 97, 28, -43, -97, -57, -58, 96, -127, -80, -118, 36, -113, 127, 117, -22, -55, -108, -51, -127, -83, -30, -118, -89, -65, -66, 31, -112, -119, 121, -49, 99, 52, 127, 72, 95, -41, 62, 115, -111, 127, -108, 123, 106, -104, 127, -47, -33, 84, 37, -51, 58, -121, -92, 65, -116, 37, -58, 78, -94, 42, 41, -97, -127, -127, -118, -127, -2, -32, 68, -127, 79, -99, -108, 50, -127, -105, -27, 59, -74, 75, 121, 59, 44, -42, 127, -110, -96, -97, 72, 88, -22, -56, -118, -89, 6, -50, -44, 127, 127, 127, 64, 108, -108, -127, 127, 80, 127, -127, -57, -68, -90, -72, 127, -126, 119, -86, 48, 120, -105, -86, -110, -101, 122, -127, 20, -97, -94, 86, -47, 57, -127, -72, 54, 115, -38, 74, 124, 100, -90, -71, -110, -54, 71, 101, -18, 77, -70, 57, -121, 127, -83, -127, -110, -127, -57, -127, -88, 107, -101, 127, -63, 92, 77, -106, -112, 85, -82, -127, 75, 50, -54, 42, -127, -103, -68, -68, -32, -62, -23, -116, -85, 109, 79, -127, 95, -127, -90, 90, 105, 66, 107, -93, -108, -49, -104, -87, 115, 120, 24, -94, -107, -62, 127, -39, 105, 90, 118, -74, 67, -108, -80, -29, -83, 127, 127, -72, -127, -62, 39, 127, -125, 94, -95, 107, 83, 0, 116, 65, 118, 100, -58, 67, -75, 40, -94, -22, 23, -85, 71, 127, -71, 88, 102, -126, -82, 76, 108, -121, 127, -74, 101, -108, 50, 113, -55, 70, 127, -95, 71, 82, -115, -110, 120, 48, -86, -101, -97, -88, -127, 91, -118, -96, 72, 97, 126, -92, 76, -51, 41, -127, -120, 81, -39, -105, -106, -57, 97, -99, -45, 22, -81, -36, -51, -82, 27, 24, -57, -41, -127, -57, 127, -53, -95, -127, 55, 101, -95, -127, -60, 71, -93, 113, 101, 9, -127, 92, 57, -34, 116, 68, -110, -57, 80, -114, -124, -86, -116, 90, -83, -21, 49, 123, 102, -127, -86, 76, -84, -88, -46, -20, 109, -100, 123, 99, -82, -119, 77, 103, 54, 92, 97, -66, -74, 118, -84, -72, -127, 25, 21, -96, 93, -127, -115, -106, -123, 36, 88, 105, 74, -116, 127, -127, 96, 127, 81, 52, -84, -93, 127, 127, -41, 16, 100, -1, 24, 67, 1, -84, 61, -83, 127, -58, 42, -101, -31, -88, -92, -127, 46, -123, 29, 70, 77, 66, -127, 66, 75, 40, 127, 0, -30, 66, -110, 25, 127, -82, -121, -127, -55, 84, -86, 53, 127, 127, -127, 79, -86, -80, -5, 123, 89, 36, 30, -91, 98, 111, 127, 73, 52, 82, -96, -74, -56, 52, -127, -124, -46, 109, 17, -83, 127, 90, 31, 60, 56, -56, 98, 16, -121, 38, 66, 89, -127, -7, -46, -127, -127, -97, -64, -127, 89, -54, 39, -127, -113, 95, 82, 76, 53, 127, -118, 12, 99, 7, -110, 41, 12, -127, 127, 14, 77, 74, -61, 87, -119, 20, 101, -18, 36, -127, -103, -109, -127, 115, 81, -127, 72, -79, 100, 38, 105, 102, -61, 127, 49, -34, -100, -60, -108, -86, 46, 88, -92, -84, -22, -103, 112, 110, 35, 127, 0, -32, 124, -59, -97, -69, 70, -79, -104, -99, -83, -89, 102, 92, 30, 37, 65, -36, 10, 21, 94, -88, 16, 127, -101, 60, 127, -9, -127, 89, -9, 18, -64, -73, -89, 106, -93, -102, -62, -117, -40, 127, -116, -123, -107, 127, -80, -127, -127, -110, -127, 27, 95, 99, 127, -91, 88, 18, 118, -96, 14, 94, 101, 111, -127, 127, -62, 109, -89, 127, -112, 103, -110, -117, 127, -97, -114, 45, 114, 122, -48, -103, 86, -126, 94, -104, -76, 85, 122, 127, 127, 80, -109, -117, 123, 105, 77, -109, -115, -82, -86, 33, 80, 107, 125, 106, -28, -111, -30, -90, -97, -92, 91, -121, 105, -85, 48, -76, 127, 101, -3, 87, -5, 105, -34, -103, -45, -119, -101, 103, -2, 99, 106, -95, -113, -106, -97, 108, 112, 116, -120, 96, -116, -56, 44, -36, 89, 90, 90, 111, 64, -113, 121, 88, -104, 90, 73, -127, 6, 126, -81, 77, -104, 111, -90, -96, 103, 92, -92, 114, 107, 110, 103, 73, -110, 72, 95, -89, -127, -54, 123, -94, -117, -92, 105, 90, 44, -71, 110, -50, 127, -66, -43, 79, -118, -127, 101, -122, -111, -105, 54, -89, 99, 127, 98, -127, 45, 127, -100, 99, -55, -90, -23, -44, 95, -9, 86, -67, -29, 96, 119, -95, 24, 106, 127, 76, 97, 65, 87, 58, -96, 59, 117, 127, 117, -25, -108, 118, 89, 114, 118, 72, -124, 110, -127, 126, 53, -118, 102, -63, 85, 80, 94, -84, 127, -65, 127, 49, -89, 127, -106, 113, -107, 115, -90, -68, -56, -35, -53, 82, 68, -23, -127, -90, -92, -127, -100, -87, 104, -30, 122, 127, -107, -80, -95, -118, 124, 53, 35, 121, 127, -53, -127, -57, 103, 127, 66, -103, 119, 113, -71, 100, 115, -83, 105, -94, 73, 73, -113, 107, -90, 117, -60, -92, 120, -127, 54, 65, 114, 127, -127, -71, 83, 127, -127, 92, -94, -15, 123, -43, -113, -87, 62, -31, -89, -118, -85, -36, -108, -83, 59, -105, 127, -125, -127, 114, -94, 0, 127, -46, -127, 127, 70, -94, 17, -127, -20, -127, 120, 31, -16, -40, 12, 52, 72, 56, 36, -42, -31, -69, 111, -101, 63, -103, 56, 114, 106, 44, 127, 75, -108, 89, -117, 13, -89, 127, 117, -47, 108, -105, 127, -127, -89, -43, 117, -106, 111, 98, -111, 36, 42, -108, -71, 93, 89, -84, 93, 127, -82, 82, -127, 87, -122, -15, -113, 118, 92, 86, 107, -119, -113, 66, -103, -96, 127, 121, 99, 127, 113, -80, -97, 108, -40, -97, 106, -85, -105, -39, -91, 100, -101, -71, 53, 68, 86, -100, -36, 127, -101, -101, 73, 119, -94, -120, -7, 127, 120, 127, -101, -122, 84, 50, -114, -63, 102, -114, -63, 127, 32, 47, 77, 123, 11, -88, -127, -127, -84, 120, -40, 53, 101, 127, 92, 73, 127, -22, 102, -127, -111, 123, -90, 118, 90, -99, 82, 9, -99, -121, 76, -39, 126, -68, -74, -122, 60, -127, 63, 127, -56, -39, -95, -57, -82, -22, 49, -127, -111, -100, -91, -72, -127, -127, 126, -114, 111, 100, 111, 70, 79, -33, -42, 117, -118, 101, -96, 97, 127, -98, 122, -31, -103, 127, -127, -45, 112, -108, -110, 124, -112, 127, -56, 103, 103, 55, 119, -94, -121, -109, -94, -36, 93, -125, -101, -96, 127, -79, -68, 94, -57, -88, -53, 71, -51, 78, 127, 85, 115, -37, 105, -111, -110, -116, 127, 124, 101, 5, -66, -104, 68, -54, -89, 99, 77, 116, 71, 127, -98, -97, 110, 127, 92, -103, -52, -51, -127, -37, 44, -124, 119, -95, 112, 102, -96, -104, -77, -92, 127, -98, 102, -75, -89, 64, -89, 96, -104, -53, 58, 114, 89, 117, 17, 96, -44, -94, 119, -16, 95, 114, 91, 125, -70, 91, -123, 72, -99, -86, -124, 36, -68, -101, -81, 90, -122, 119, -46, 98, 112, -90, -85, 94, -68, -100, 93, -124, 61, 75, -117, -93, -54, -101, -78, -102, 68, -127, -52, 94, 121, -103, 97, -106, -110, 96, 113, 89, 119, -127, -96, -77, 37, -64, 99, 96, -36, -101, 49, -27, 110, -50, 127, 89, 107, -81, 73, -67, 17, -92, -52, 84, 122, 63, -104, -45, 127, 119, -83, 67, -90, 127, 112, 68, 101, 102, 91, 107, -119, -72, -67, 127, -111, 127, 127, -87, 83, 118, -72, 127, 117, -126, -127, 104, 84, -70, 94, 127, 105, -112, 127, 127, -35, 79, 90, -73, 67, 127, -113, 42, 127, 127, -94, -98, -112, -65, 30, 116, -67, -9, 127, 127, 92, -120, 127, -55, 80, -123, -110, 78, -60, -112, -88, 119, 117, -93, 24, 15, -108, -23, -53, -24, -77, 16, -27, -12, -119, 56, 126, -94, -123, -89, 78, 105, -127, -126, 119, 64, -122, -16, 127, 20, 57, 119, 108, -126, 127, 127, -127, -96, 102, -127, -103, -48, -105, 103, -46, -11, 82, 127, 127, -90, -127, 103, -99, -79, -30, 45, 114, -115, 64, 127, 62, -82, 89, 106, 109, 109, 113, -48, -44, 127, -88, -74, -98, 127, 115, -55, 95, -108, -104, -118, -112, 127, 127, 90, 104, -88, 92, -90, 117, 110, 127, 99, -101, -108, 81, 123, -47, 16, 88, 115, 98, 98, 91, -86, 127, -100, 92, -107, 116, -102, -42, -81, -121, -103, 113, -111, 127, 127, 106, 127, -84, 127, 70, 114, 117, -51, 49, 98, -127, 111, 100, -30, -127, -119, -25, 35, -114, 109, 49, 116, -111, 112, -64, -107, 4, 123, 101, 58, 127, -75, 126, 127, 114, 71, 65, 106, -104, -98, -95, 89, -89, -83, 101, 127, 10, 95, 121, 93, 104, 84, 127, -42, 114, 87, -124, 127, 83, 114, -121, 11, -25, -91, -67, -95, -96, -122, 84, 84, 97, -93, -93, 127, 127, 93, 110, 119, -99, 14, 100, -35, 108, 17, -39, -70, 36, 127, 53, 102, -64, 108, -122, 127, 118, -14, 127, -87, -73, -127, -109, 110, -127, -106, 91, -88, 106, 52, 97, 111, 53, 76, 62, -14, 72, -49, -118, -83, 127, 88, -116, -69, 114, -97, 127, 121, 70, 70, -36, -30, 83, -65, 105, -62, -22, -95, -83, 88, -31, -92, 97, 92, 23, 25, 127, -64, 118, 109, 114, 35, 127, 103, -93, 127, 90, -38, -82, 120, -26, 14, -55, -117, -55, 127, -17, -65, -32, 45, -58, 57, 88, -96, -79, 92, -37, 5, -115, -109, -82, 16, 103, 104, 19, -86, 54, -96, 74, -25, 15, 73, -28, 127, -76, 39, -94, 34, -74, 108, -126, 60, -96, -110, 99, -111, -53, 124, 76, 85, -57, -67, 76, -62, 112, 68, -68, 66, 59, 66, 20, 40, -50, -83, 87, -72, 26, -46, -79, 81, -61, 69, -123, 60, 99, 90, 76, -71, -20, -58, -25, -92, -100, -56, 56, -44, 23, -29, -7, 103, -127, -37, -88, 28, -32, -127, -53, -116, -65, -79, -127, 36, 46, -37, -78, -79, -80, -28, 52, 76, -107, 34, -70, -76, -105, -58, 24, 66, 82, 121, 104, -107, 96, 36, -82, 70, 2, -27, -14, 27, -97, 66, 123, 80, -74, -64, 93, 72, -86, 60, 93, 100, 81, 24, -91, 114, 55, -48, -95, -40, 87, -84, -90, -65, 75, 125, 44, -21, 71, -55, -34, -31, -120, -40, -42, -109, 92, -45, -127, -81, -2, -73, 118, 58, 69, -88, -48, 21, -47, -37, -31, -80, -35, -39, 96, -32, 125, -31, -84, 50, 96, -84, 57, 54, -58, -127, 73, 20, 75, 38, -51, 55, 93, 31, 11, 48, -51, 99, 21, 74, 70, -20, -111, 52, -21, 83, -3, -74, 41, -70, -94, 119, 64, -104, 74, -63, 55, -28, -113, 86, -75, 88, -89, 88, -91, -67, -88, -48, -19, 125, 8, 4, -108, -39, -67, -68, -68, -46, 67, 10, 70, 58, -75, -32, -76, -81, -17, 53, -6, 77, 104, -31, -71, -71, 53, 34, 40, -106, 80, 115, 104, 112, 110, -45, 28, -62, -102, 98, -33, 100, -65, 24, -68, -64, 45, -77, 127, -76, 109, 28, -78, -90, 92, 101, -89, 94, -87, 111, 71, -69, -66, -97, 49, -55, -60, -67, -46, -25, -62, -65, 75, -89, 59, -108, -100, 113, -34, -37, 88, -33, -96, 39, -44, -62, -98, -63, 3, -63, 63, 97, -44, -41, -14, 43, 43, 32, 46, -107, -13, -47, 99, -69, 63, -77, -127, -20, 97, 127, 25, -106, -82, 104, -72, 2, -90, -50, 74, -22, 79, -77, 41, -98, -41, -7, 16, -47, 100, 104, -93, -43, 46, -55, -25, 80, 61, 81, 103, 123, -49, 94, -88, 80, -106, -53, -56, -28, 57, 101, 45, -88, -63, 73, -48, -55, -57, 86, 31, 75, 95, -47, -106, 2, -64, -108, -127, -55, -89, -52, -43, 67, -57, 31, 89, -114, 80, -87, -28, 85, 52, -85, 116, 65, -84, -38, 42, 55, 29, -79, -58, -82, 87, 104, -60, 1, 111, -67, -5, 48, 21, 32, 107, 112, -127, -70, 7, 86, -40, -6, -14, 21, 62, 81, 67, 77, 124, -19, 62, -91, -105, 74, -59, 29, 83, -11, 84, 20, -27, -107, -77, -64, 95, -105, -71, -98, 46, -102, 124, 56, -17, -43, -46, -46, -121, -114, 33, -103, -79, -23, -29, 41, -96, -46, 94, -125, 104, 34, 86, 69, 57, -38, 64, 91, -87, 119, -81, 65, 106, -75, 97, -39, -20, 54, 41, -20, 28, -71, -83, 54, -72, 39, -42, 55, -124, -98, 46, -21, -106, -89, -68, -126, 19, -88, -110, -23, 72, -68, -73, 34, -89, -71, -8, 39, -62, 65, 81, 47, 50, -30, 102, -89, -53, -110, 67, 80, 41, -58, -105, -36, 1, -58, -23, 121, 126, 105, 30, 94, -65, -67, 90, 58, 88, -84, -56, -65, -78, -64, 117, -125, 99, -46, 16, 109, -35, -120, -59, -76, 75, -72, 27, -54, -58, -75, -25, 58, -96, -59, -114, 79, -42, 67, 127, 97, -41, -67, -126, -28, 43, 95, -31, 41, -37, 26, -70, 99, -60, -70, -122, -111, -39, -110, -36, 117, -42, 104, -43, 83, 59, -54, -36, 111, -85, -99, 43, 57, -62, 41, -81, -76, -73, -58, -11, -127, -66, -92, -92, 97, 44, -60, 86, -111, -64, 76, 97, 77, 104, -80, -92, -43, -99, -71, 70, 101, 31, -57, -77, -45, 93, -27, 86, 35, 99, -64, 64, 110, -78, -14, -78, 106, 100, 46, -96, -50, 2, 116, -109, 67, -71, 105, 55, 45, 127, 45, 102, 91, -80, 61, -60, -3, -71, -48, 3, -72, 51, 75, -65, 74, 60, -92, -84, 55, 101, -98, 103, -84, 99, -81, 49, 68, -44, 57, 103, -38, 51, 62, -57, -104, 106, 51, -41, -61, -88, -90, -117, 92, -101, -92, 76, 89, 88, -72, 52, -50, 39, -90, -103, 74, -15, -66, -85, 50, 83, 77, -26, 17, -68, -33, -21, -67, -65, 33, -39, -27, -91, -21, 106, -28, -89, -93, 42, 84, -79, -102, -82, 54, -80, 127, 79, 14, 41, 67, 24, -33, 75, 53, -81, -33, 41, -124, -86, -70, -112, 75, -57, -6, 49, 98, 98, -104, -58, 80, -60, -56, -31, -36, 110, -55, 127, 95, 43, -99, 88, 127, 11, 76, 83, -54, -59, 79, -59, -74, -95, 27, 16, -80, 57, -57, -51, -72, -91, 9, 72, 74, 54, -99, 109, -111, 67, 103, 60, 30, -82, -37, 105, 103, -23, 18, 79, -42, 21, 40, 3, -52, 44, -78, 106, -125, 41, -75, -17, -37, -87, -118, 29, -75, 4, 49, 90, 53, -101, 23, 51, 31, 107, -4, -26, 53, -115, 42, 116, -57, -76, -116, -36, 75, -55, 53, 121, 98, -97, 60, -70, -35, -3, 99, 54, 37, 8, -60, 66, 62, 103, 75, 39, 75, -66, -69, -45, 37, -65, -80, -46, 85, 15, -77, 115, 67, -9, 64, -31, -48, 75, 10, -101, 54, 59, 103, -84, -2, -48, -93, -126, -101, -33, -74, 127, -58, 31, -77, -64, 52, 74, 65, 24, 102, -92, 14, 79, 10, -123, 38, 18, -108, 108, 29, 47, 70, -13, 52, -110, -35, 108, -5, 21, -42, -47, -86, -88, 72, 47, -104, 22, -52, 65, 25, 86, 76, -127, 124, -104, -22, -113, -53, -127, -51, 24, 91, -51, -74, 78, -65, 78, 85, 46, 114, 1, -16, 108, -51, -93, -54, 70, -17, -85, -90, -69, -78, 94, 74, 34, 27, 56, -13, -18, 16, 78, -87, 17, 99, -70, 21, 108, 47, -67, 54, 3, 10, -56, -51, -67, 69, -60, -84, -63, -112, -15, 93, -19, -113, 43, 22, -127, 14, -109, -109, -127, 9, -86, -104, 89, -127, 127, 58, 127, -99, 8, 127, 127, 113, -112, 123, -35, 127, -127, 118, -113, 127, -127, -127, 95, -115, -124, -23, 127, 127, -59, -124, 123, -127, 127, 109, -127, 127, 127, 117, 121, -127, 84, -124, 112, 92, 80, -127, -127, -127, -127, -127, 120, 127, 127, -110, -55, -121, -45, -127, -118, -111, 118, -127, 126, -95, -127, -127, 104, 127, 53, 127, 127, 120, -33, -124, -16, -102, -114, -43, 64, 127, -57, -127, -123, -127, -127, 93, 127, 125, -122, 127, -124, -86, 45, 91, 62, 127, 127, 90, 127, -124, 127, -85, -114, 127, 67, 77, 3, 127, -127, 127, -100, 127, -127, -127, -70, 66, -119, 115, 121, 122, 127, 66, -127, -38, 127, -127, -121, -47, 127, -127, -127, -127, 127, -28, -102, 127, 111, -72, 125, -59, -127, 10, -127, -126, 105, -127, -101, -63, 25, -126, 100, 113, 126, -92, 114, 109, -127, 127, -127, -123, -33, -43, 125, 40, 127, -72, 53, 127, 54, -54, 125, 127, 101, 50, 110, 86, 127, 37, -37, -127, 114, 122, 127, 8, -127, 127, 127, 127, 127, 127, -69, 115, 100, 81, 125, -123, 127, -17, -56, -85, 127, -52, 125, -127, 112, -8, -91, 121, -127, 125, -107, 119, -102, -29, -43, -38, -50, 61, 127, 127, 44, -116, -127, -120, -127, -127, 127, 36, 127, 109, -126, -71, -119, -127, 127, 62, 44, 127, 111, -63, -120, -97, 127, 126, 39, -110, 127, 120, 127, -91, -37, -119, 121, -127, -24, 127, -127, 127, -127, 127, -32, -127, 115, -108, -22, -63, -24, 95, -105, 114, -28, 108, -96, 127, -127, 70, 127, 127, -127, -127, 92, -6, -127, -127, -127, -43, -127, -127, 127, -127, 105, -109, -107, 113, -127, 127, 126, -30, -102, 123, 127, -127, 47, 45, -31, -121, 127, 40, 115, -64, -44, 110, 127, 23, 15, 106, 98, -127, -92, -127, 109, -98, 40, 88, -81, -33, 93, -1, -98, -19, -127, -127, 119, 52, 110, -127, 127, -97, 107, 67, -127, -69, 113, -13, 16, -83, -115, 35, -127, -106, -70, 127, 83, -81, -72, 94, -127, -96, -107, -43, -115, -109, -127, 127, 119, -103, 127, -118, -127, 127, -127, -124, 120, 126, 127, 118, 90, -127, -127, 127, -52, -76, 73, -127, -103, -105, -118, 74, -105, -65, -127, 81, -127, -127, -124, 123, 44, 47, -88, 127, -127, -126, -119, 126, 127, 113, -108, -125, 127, 127, -119, -54, -23, -105, 127, 78, 12, 54, -31, 104, 35, -127, 38, 91, -104, 126, -123, 24, 127, 105, 118, -3, 91, -116, 127, -79, -127, 127, -127, 127, 127, -127, 127, 2, -122, -127, -53, -88, 127, -50, -127, -122, -127, -117, -33, -51, -119, -97, -113, -73, -96, 99, -127, -114, -117, -115, -126, 35, -77, -113, 121, -127, 122, 127, 124, -33, 127, -22, -1, 109, -127, -51, -127, 11, 113, -127, 19, 7, -127, 102, 34, -68, 127, -127, -114, 127, -120, 121, -61, 127, 127, 42, 109, -127, -123, -99, -127, 73, 110, -111, 127, -101, 113, -119, -104, 127, 35, -106, -41, 127, -19, 48, 112, 93, 127, -80, -103, -109, -127, 54, 118, 127, 127, -3, -127, -127, 50, -24, -113, -9, 6, 107, 127, 99, -101, -115, 117, 114, -122, -117, -42, -49, -105, -91, -21, -110, 127, -127, 127, 109, -127, -99, -127, -127, 126, -111, 70, -127, -127, 106, -89, 94, -121, -46, 55, 127, 79, 125, -61, 127, -127, -91, -67, -127, 127, 127, 119, 127, -82, 127, -127, -116, -127, -103, -127, 115, -79, -127, -127, 127, -127, 63, -51, 109, 127, -127, -89, 114, -35, -32, 127, 33, -77, 65, -120, -127, -47, -115, -93, -96, 83, -120, -91, 127, 127, -106, 127, -125, -113, 127, 127, 103, 127, -115, -127, -80, 46, 109, 127, 127, 35, -127, -39, -24, 27, -48, 108, 127, 127, -127, 68, -122, 48, -121, -122, -27, 122, -127, -114, -42, 99, -80, -7, 82, -127, 104, 127, -127, -87, 127, -121, -81, -127, 0, -124, 106, -93, 120, 100, -127, 127, 114, -44, 116, 127, -119, -124, 127, 127, -41, -64, -57, 102, -127, 114, 87, -44, 127, 92, -127, 127, 102, -127, 56, -101, 116, -127, -127, -124, -64, 65, 127, -127, 86, 83, 112, 127, -123, 108, -31, 61, -115, -127, 127, -73, -110, -127, -127, 127, -127, 40, 7, -127, -42, -48, 104, 44, 21, -53, 9, -118, 98, 93, -127, -127, -114, 115, 127, -126, -127, 127, 80, -127, -12, 98, 4, -104, 127, 127, -105, 105, 114, -104, -91, 127, -95, -127, -49, -127, 127, -107, -127, 76, 110, 91, -110, -119, 127, -95, -93, -42, 69, 125, -120, -50, 116, -127, -127, 127, 82, 127, 127, 113, -17, -72, 127, -127, 52, -119, 117, 127, -21, 118, -123, -127, -127, -127, 116, 104, 116, 127, -127, -62, -102, 127, -20, 92, 127, -127, -125, -80, -29, -49, 4, 96, 125, 88, 127, 100, -111, 95, -87, -57, -127, 100, -110, -34, -127, 13, -120, 127, -127, 103, 127, 69, 119, -115, 122, 127, 127, 105, 11, 73, 127, -114, 127, -53, 57, -118, -90, -36, 0, -111, 74, -65, 105, -104, 124, -57, -121, 4, 127, 127, -127, 124, -106, 127, 120, 126, 127, 59, 127, -127, -96, -119, 127, -112, -113, 127, 104, 11, -15, -55, 127, 127, 57, 107, -58, 118, 113, -127, -46, 111, 91, 15, 15, -35, -116, -38, -115, -127, -112, 110, 123, 109, -105, -127, 97, 126, 74, 127, -50, -127, 6, 127, -31, -65, 37, 12, -87, 55, 9, 127, 127, -85, 127, -93, 104, 127, -127, 120, -95, -127, -111, -123, 127, 87, -111, 127, -127, 127, 127, 127, 127, 79, 46, 37, -98, 127, -49, -76, -127, 125, 127, -127, -53, 105, -107, 113, 127, 46, -62, -46, -116, -53, -88, 127, -93, -14, -117, -127, -42, 125, -127, 96, 127, 29, 46, 113, -100, 115, 121, 127, 97, 91, -3, -127, 110, 101, -127, -118, 127, -18, 8, -29, -127, -92, 117, 127, -102, -24, 62, -87, 54, -85, -89, 47, 93, -44, 22, 118, -99, -79, 127, -127, -89, 75, -101, 93, 127, 76, -127, 127, 86, 95, 111, -66, 89, -51, 111, -72, 65, -75, 92, -5, -86, 95, -93, -127, -50, 55, 75, -78, -88, 72, -119, 113, 56, -93, 51, 95, 83, 124, 66, 37, -117, 127, 69, 127, -107, -100, -34, -62, 93, 121, 62, 75, -84, -127, -103, -53, -93, -127, -73, 127, -111, 65, -127, -110, -44, 111, 77, 106, 87, 126, 117, -27, -85, -41, -61, -127, 127, -2, 80, 89, -127, -87, -55, -90, 127, 121, 127, -61, 94, -64, -102, 127, 93, 127, 90, 90, 75, 115, -103, 108, 127, -127, 92, 127, 82, 127, 102, -57, 79, -101, 95, -81, -60, -114, 77, -95, 127, 104, 112, 68, 127, -107, -49, 83, -68, -94, -57, 71, -120, -123, -82, 88, -45, 43, 122, 86, -119, 100, -127, 58, 127, -112, -91, 98, -62, -93, -3, 127, -81, 64, 117, 127, -89, 127, 116, -119, 73, -107, -105, -53, -39, 90, 95, 89, -127, 127, 68, 127, 2, 127, 92, 82, 52, 88, 127, 107, 127, -9, 40, 30, 107, 97, -127, -96, 103, 67, 74, 103, 58, -119, 127, 2, 127, 127, -127, 73, -71, 127, -86, 85, -37, 113, -59, 96, 127, -82, 92, -75, 52, -65, 88, -71, 5, -87, -39, -127, 48, 116, 83, 41, -127, -87, -55, -89, -73, 70, -127, 114, 127, -127, -127, -127, -57, 97, 41, 127, 55, 99, -127, -47, -127, 118, 102, 50, -73, 100, 85, 115, -78, -44, -127, 127, -94, 127, 91, -122, 101, -80, 87, -74, -71, 68, -84, -77, 127, -75, 95, -75, 127, -33, 79, -69, 112, -65, -46, 85, 75, -102, -93, 127, -116, -59, -80, -85, -47, -62, -55, 124, -75, 102, -84, -106, 96, -104, 123, 72, -51, -89, 93, 119, -78, 2, 92, -44, -91, 59, -127, 127, -51, 127, 127, 93, 127, -127, -5, -42, -73, -72, -118, 85, -101, 33, 127, -55, -65, 112, 127, -73, -90, -75, -87, 105, 72, 90, -107, 60, -96, 80, 102, -64, -127, 66, -32, -54, -39, -109, 127, 57, -109, -127, 84, 88, -53, -73, -38, -112, -87, -112, 109, -100, -90, -96, 81, 127, -65, 101, -83, -66, 89, -90, -114, 93, 48, 59, 80, 127, -64, -68, 101, -96, -40, 77, -51, -57, -101, -46, 105, -127, -127, -98, 119, -40, -60, -127, 95, -127, 12, -119, 103, -104, -72, -127, 99, 84, 60, -127, -106, 118, 123, -127, -127, -12, -127, 58, 75, 127, 127, -59, 127, 10, -84, 50, 117, -127, 122, -110, 127, 87, 64, 78, -5, 109, -120, 74, -99, -127, 119, -63, 91, 83, -101, 77, 127, -127, -88, 127, -91, 112, -36, -103, -93, 44, -66, -57, 126, -108, -73, -127, -73, 87, 77, 25, -93, -72, -127, -127, -127, -75, -51, 111, 34, 127, 93, 91, 58, 58, 127, -127, 69, -98, -81, -78, 127, 68, -110, -32, -116, -117, 108, -121, -127, 115, -89, -127, 117, -100, 72, -38, 127, 116, 39, 101, -49, -98, -68, -124, 81, 106, 61, -50, -36, 103, -100, -71, 72, -47, -127, -127, 100, -87, 65, 69, 127, 97, -70, -101, -75, -117, 52, 100, 88, 111, 127, -27, -72, 127, -73, -127, -77, -20, 100, 90, 116, -127, -109, 82, 64, -124, -64, -55, -58, -94, -59, -38, -86, 80, -105, 119, 127, -111, -126, -73, -91, 83, -80, 127, -37, -37, 127, -127, 127, -85, -57, 41, 121, 127, 118, -117, 115, -70, -127, 127, -94, 102, 117, 118, 72, -127, 95, -78, -99, -92, -54, -92, 96, -68, -93, -105, 93, -98, -52, -60, 127, 110, -45, -127, 47, -35, 1, 80, -127, 127, 48, -75, -91, -70, -51, -127, 48, 127, -71, -92, 101, 88, -55, 123, -90, -59, 76, 93, 127, 114, -53, -76, -127, 127, 127, 80, 78, -127, -85, 127, 10, 13, -51, 83, 79, 87, -96, 127, -57, 127, -127, -98, -53, 117, 55, -79, -82, 28, -36, -78, 66, -80, 75, 72, 56, -52, 74, -127, -63, -104, -127, -104, 85, -127, 124, 85, -77, 57, 100, -48, 64, 82, -127, -99, 98, 99, -97, -81, 103, 78, -61, 123, 89, -60, 82, 3, -74, 104, 76, -81, 127, -62, 90, -58, -98, -55, -71, 78, 104, -114, 127, 74, 43, 84, -102, 72, -56, 127, -90, -113, 97, -127, -127, -79, 115, 88, -54, 127, 127, -72, -54, -127, 83, 13, 127, -44, 127, -79, 127, 98, -93, -80, -79, 127, 72, -109, -116, 108, 127, -87, -60, 81, 127, 30, 72, 88, 52, 72, 86, -87, -127, 79, -120, -110, -62, -97, 100, -90, -124, 127, 90, 120, -102, -8, 72, -121, -93, -57, 127, 91, -118, -64, 88, 35, -58, 109, 112, 48, 102, 127, -13, -72, 120, -81, 13, -63, 104, 126, -93, 127, -80, -105, -67, -114, 92, 79, 127, 99, -90, -78, -83, 120, -109, 83, 91, -108, -127, -78, -91, -127, 127, 79, 127, 127, 100, 68, -59, 63, -127, -76, 68, 127, -69, -58, -63, 39, -61, 118, -81, 112, 88, 127, 120, -89, 75, 74, 109, 110, -127, 83, 108, -102, 112, -89, 78, -90, -84, -49, -127, -127, 127, -78, 102, -71, 71, -61, -127, 127, 95, 122, -86, 84, -127, 109, 114, 86, 91, 36, 118, -109, -127, -127, 75, -67, -68, 108, 80, 127, 127, -52, 87, 81, 64, 82, -59, 106, 127, -83, 124, 127, 127, -37, 127, -59, -107, -35, -107, -94, -63, 80, 117, 127, -55, -52, 68, 107, 68, 95, -39, -88, 127, 94, -45, 127, -127, -127, -43, 6, 119, 76, 100, -127, 123, -102, 88, 115, -106, 71, -25, -90, -98, -96, 71, 76, -78, 93, -85, 104, 110, 90, 89, 102, -63, 37, -101, 121, -74, -96, -92, 94, 105, -83, -33, 127, -127, 88, 50, 127, -63, -127, -94, -56, -69, 105, -114, -127, -127, -97, 127, 127, -102, 72, 76, 21, 127, 92, -127, 127, 127, 115, 79, 104, -57, -49, 97, 21, 96, -80, 93, -54, 127, -78, -78, -78, 84, 101, -94, -60, 127, -127, 53, 127, -116, -127, 57, -100, 11, 71, -127, -93, 16, -54, -80, 104, -109, 91, 34, 110, -76, 11, 96, 110, 91, -113, 107, -37, 107, -97, 87, -111, 78, 47, -106, 84, -104, -102, -13, 94, 101, -46, -82, 85, -109, 87, 94, -97, 102, 75, 89, 102, 54, 59, -117, 82, -115, 64, -88, -101, 109, -96, 73, 108, 116, 97, -78, -27, -61, -38, -105, -97, -87, 119, -97, 99, -85, -113, -96, -122, 97, -53, 89, 114, 127, -25, -106, -5, -115, -95, -48, -99, 94, 66, -80, -110, -80, -92, 103, 89, 80, -127, 81, -101, -70, 41, 99, 86, 98, 104, 127, 79, -109, 93, 50, -55, 122, 76, 84, 6, 112, -99, 86, 127, 77, -65, -99, -50, -127, -127, 58, 121, 127, 102, 72, -113, -30, 99, -103, -108, -29, 88, -98, -105, -102, 116, -14, 38, 108, 127, -32, 107, -45, 42, -3, -110, -95, 98, -110, -111, -72, 35, -107, 79, 103, 85, -126, 100, 60, -53, 90, -86, -127, -21, -32, 127, 76, 73, -82, 59, 84, 30, -43, 100, 79, 92, 43, 127, 94, 84, 71, -41, 40, 97, 109, 83, 8, -104, 103, 97, 89, 107, 95, -71, 97, 93, 91, 66, -89, 104, -20, -78, -60, 120, -47, 114, -90, 107, -3, -84, 85, -94, 106, -70, 119, -107, -25, -39, -27, -40, 53, 100, 98, 30, -79, -64, -113, -73, -98, 102, 49, 88, 80, -97, -48, -120, -114, 99, 49, 45, 91, 107, -58, -107, -86, 99, 119, 22, -102, 92, 115, 113, -72, -25, -99, 89, -81, -18, 94, -97, 88, -73, 83, -43, -88, 127, -76, 3, -80, -5, 86, -87, 79, -9, 102, -86, 104, -113, 65, 108, 118, -97, -87, 51, -4, -96, -124, -87, -32, -88, -92, 106, -101, 81, -98, -126, 104, -90, 88, 107, -34, -86, 98, 113, -104, -127, 39, -32, -74, 94, 54, 97, -40, -58, 101, 81, 45, 26, -127, 76, -77, -71, -85, 118, -100, -91, 44, -81, -22, 74, -14, -92, -3, -80, -106, 95, -123, 70, -87, 108, -49, 87, 51, -122, -60, 101, -17, 21, -60, -127, 59, 44, -84, -73, 100, 97, 127, -58, 74, -101, -68, -82, 69, -127, -92, -101, 92, 96, -79, 95, -94, -102, 95, -95, -127, 102, 127, 61, 100, 79, -89, -124, 88, -42, -87, -103, -121, -127, -88, -80, 94, -98, -37, -90, 44, -101, -109, -87, 91, 54, -127, -60, 110, -95, -118, -79, 124, 119, 121, -96, -92, 103, 96, -71, -59, 0, -74, 111, 69, 35, 37, -16, 124, -102, -89, 32, 101, -83, 127, -89, 24, 103, 80, 93, -5, -23, -88, 77, -72, -126, 101, -112, 86, 85, -66, 118, 6, -83, -99, -73, -73, 83, -44, -120, -127, 44, -121, -25, 59, -104, -60, -79, -61, 58, 69, 26, -115, -127, -78, -96, 37, -60, -102, 125, 36, 101, 97, 90, -31, 104, -36, 5, 71, -93, -36, -115, 69, 68, -81, 16, 14, -92, 61, 28, -51, 97, -109, -71, 119, -93, 71, -50, 81, 116, -113, 127, -104, -114, -73, -66, 59, 127, 49, -103, -105, 77, -127, -79, 80, 20, -83, -39, 74, -20, 34, 91, 72, 86, -54, -80, -127, -70, -127, 97, 98, 78, -15, -114, -99, 57, -17, -93, 1, 21, 91, 79, 104, -91, -86, 86, 109, -98, -75, -25, -45, -96, -66, -7, -127, 111, -111, 107, 54, -68, -127, -122, -100, 111, -71, 64, -96, -114, -43, -82, 74, -69, -35, -97, 80, 70, 89, -39, 85, -96, -70, -79, -103, 96, 109, 88, 82, -81, 111, -80, -92, -93, -70, -98, 74, -67, -118, -78, 113, -105, 57, -27, 81, 89, -87, -70, 127, -35, -23, 84, 43, -86, 58, -85, -108, -49, -94, -59, 35, 67, -118, -88, 64, 100, -95, 98, -115, -106, 92, 97, 97, 125, -88, -93, -82, 21, 92, 108, 78, 41, -118, 85, -21, 24, -40, 89, 96, 101, -112, 83, 127, 29, -76, -99, -15, 102, 33, -83, -30, 84, -70, -2, 62, -104, 91, 78, 56, -47, 105, -88, -78, -124, 5, -98, 103, -103, 91, 78, -96, 81, 82, -28, 98, 71, -98, -124, 113, 101, -33, -54, -50, 76, -119, 99, 73, -30, 101, 84, -106, 91, 102, -93, 40, -72, 100, -99, -103, -127, -68, 63, 102, -103, 61, 73, 126, 56, -127, 80, -11, 75, -91, -126, 111, -72, -69, -87, 66, 120, 94, 59, 9, -100, -43, -39, 83, -108, 37, -39, 22, -109, 93, 80, -79, -110, -112, 103, 103, -116, -82, 85, 90, -110, 2, 83, 11, 50, 102, 93, 51, 82, 94, -96, -52, 96, -119, -100, -41, -96, 110, -83, -99, 61, 106, 86, -110, -126, 121, -96, -68, -29, 91, 111, -127, -35, 105, 45, -79, 95, -63, 86, 110, 70, -1, -61, 101, -111, -127, -97, 70, 107, -19, 94, -102, -127, -94, -113, 99, 89, 115, 99, -74, -52, -80, 108, -5, 99, 87, -70, -57, -67, -12, -49, 11, 99, 122, 94, 100, 127, -81, 84, -88, -49, 56, 100, -67, -12, -105, 0, -102, 92, -114, 102, 101, 25, 94, -83, 97, 115, 107, 100, 18, 62, 89, -100, 109, -37, 47, -80, -77, -25, 2, -85, 86, -45, 102, -92, 112, -38, -76, 3, 96, 73, -97, 94, -79, 89, 101, 99, 108, 38, 99, -119, -94, -88, 77, -50, -99, 93, 101, 13, -30, -41, 106, 93, 58, 112, -48, 127, 78, -103, 64, 73, 80, 14, 20, -26, -124, -28, -114, -81, -79, 93, 127, 82, -91, -64, 77, 103, 58, 74, -41, -101, 6, 101, -26, -85, 72, 16, -68, 44, 24, 86, 113, -80, 78, -127, 102, 108, -90, 89, -87, -111, -122, -98, 89, 70, -85, 80, -125, 83, 96, 75, 98, 72, 52, -100, -85, 89, -38, -114, -70, 85, 106, -104, -48, 76, -70, 78, 92, 73, -41, -46, -80, -34, -59, 90, -72, -7, -112, -127, -37, 92, -107, 104, 91, 25, 19, 69, -74, 79, 95, 100, 63, 79, 3, -68, 86, 73, 86, -120, 87, -16, 5, -30, -77, -72, 96, 121, -95, -19, 45, -73, 66, 6, -80, 39, 74, -74, 40, -55, -42, -85, 18, -78, -89, 26, -80, -66, -60, 70, -36, 13, 48, 74, -22, -82, 48, 127, 24, 8, 49, -127, -95, -89, -57, 11, -124, -54, -14, 45, 6, 127, -105, -37, -67, -98, 127, -111, 46, 59, 52, 56, -52, -127, -82, 90, 57, 0, -81, -82, -78, -58, -71, 127, 5, 41, -30, 59, -87, 127, -111, -26, -118, 91, -71, 29, -63, 66, -109, -74, -73, 55, -68, -98, 53, 127, -90, 127, -100, -74, -45, 38, 74, -127, -74, -95, -62, -51, 41, 87, 54, -103, 52, -124, 127, -78, -127, 46, 34, 51, 90, 57, -86, 48, 0, -17, 51, 43, 72, -32, 49, -80, 89, 51, -11, -58, -90, -74, 32, -91, 58, -37, -7, 34, 19, -103, -24, 37, -53, -74, 127, -21, -104, -69, -75, 41, -64, -52, 107, 67, 127, -76, -21, -87, -23, -93, -87, -80, -95, -63, 127, 4, -99, -63, 70, 48, -56, 94, 74, -99, 49, 121, -93, 127, 118, -18, 59, 103, 0, 126, 101, -88, 121, 124, 57, 71, -122, 25, 57, -46, 16, 115, -95, 39, 33, 69, 47, -37, 54, 41, 60, 43, 78, -87, 29, 107, 81, 81, -50, 72, 127, -52, -42, 86, -127, 76, -109, 3, -7, -126, 79, -68, 80, -127, 127, -91, 127, 127, 127, -20, 123, 118, 101, 78, -72, -89, -74, -79, -90, 84, 8, 40, 46, 127, -39, -110, -67, 50, -37, -17, -41, -30, -40, -68, 127, 70, -4, -127, -127, 42, -126, 70, -53, -25, -53, 54, -102, -64, -22, -66, 58, -54, 73, 127, -62, 79, -78, -35, -57, -80, 4, -95, -108, -127, 60, -69, 8, 16, 93, 60, -77, -92, -74, 29, 127, -95, -75, -72, 127, -116, -69, 125, -110, 58, -95, -56, 43, -29, 7, 50, 127, -63, 53, 90, -92, 26, 98, 127, -63, 60, 80, -21, 127, -25, 81, 29, 16, 55, 26, 127, -84, -42, -84, 50, 127, -126, 49, -80, -9, 57, -96, -103, -42, -82, 103, -104, 40, -6, 113, -24, -100, 47, 122, -101, -8, 30, 127, -63, -32, -114, 31, -74, -82, -17, 51, 54, -34, -45, -60, -51, -90, -72, -122, -61, 127, -67, 78, 30, -31, 15, -11, -80, -23, -83, -50, 70, 79, 61, 26, -7, -84, -74, 68, 127, -80, 37, -98, -66, 127, -113, 28, -58, 107, -18, -127, 27, -50, 113, 37, 28, 35, -81, 52, -82, -95, -88, 102, 101, 72, -42, -120, 99, 96, -67, -10, -95, -70, 85, 9, 12, 42, -22, 53, -34, -81, 54, 56, -53, 87, 127, 18, 38, 77, 3, -34, 37, 127, 45, -1, -95, -2, -98, 59, -19, -91, 68, 17, -44, -38, -46, 127, 40, 74, -90, -71, -53, -102, -21, -101, 127, 127, -94, 127, -40, 127, -28, -75, -87, -28, -39, 27, -25, -86, -127, -119, -12, 38, 65, -97, -23, -32, 55, -127, -37, -60, -113, -117, 67, -46, -65, 127, -73, 22, 18, -33, 51, -41, -59, 64, -127, 79, 127, 69, 83, -127, 19, -95, -114, -105, -113, 54, 100, -127, 68, -106, 62, -93, -127, 40, 102, 8, -1, 46, 127, -127, -16, 50, -44, 127, -56, -113, -64, 62, 59, -11, -70, -53, -98, -65, 10, 127, -17, -39, -53, 1, 50, 51, -108, -88, 11, 66, -34, -90, 127, 127, -78, 127, -18, -101, 71, -95, 54, 49, -95, -49, -72, -78, 63, -94, 19, -78, -68, 62, -27, -3, -100, 127, -127, 32, 57, -41, 7, -55, -74, -71, -75, 107, 38, 19, 127, 39, -31, 93, -38, -57, 11, -79, -42, 89, 127, -86, -61, -80, -85, -36, 127, -48, 34, -100, -55, 59, 127, 81, -78, 38, -53, -127, -90, 7, 127, -109, -20, -108, 65, -95, 127, 59, 62, -103, 8, -122, -81, 44, -19, 86, 12, -65, -115, -11, -105, -30, -24, 79, 21, -89, -11, 127, 24, 127, 85, 63, 0, -85, -53, -67, -57, -31, 127, -36, 104, -78, -69, 127, 55, -106, 127, -127, -62, 125, 54, -60, -65, 116, -29, -79, -78, 70, 127, 69, -51, 65, 36, -86, 70, 71, 127, 55, 36, -93, -68, 42, 55, 127, -46, -62, -108, -91, 33, 75, 127, 40, -51, -99, -11, 41, -95, -110, -53, 68, -97, -78, -86, -127, -124, 27, 126, -87, 58, 23, 91, -69, 28, 127, 18, -89, -104, 42, -17, -73, -93, -74, 78, -65, 16, 20, -54, 127, -30, 127, 29, 43, 127, -27, -93, 95, 73, -53, -76, -116, 79, 42, -71, -90, 54, 52, -89, -11, 35, 26, -53, 70, 48, -127, 38, 56, -90, 3, 16, -85, -122, 127, -55, 45, 127, 121, 46, -8, 29, -105, -62, -38, -86, 111, 127, 79, 43, -52, -55, -107, -72, -69, 20, 51, 55, 86, -110, 126, 127, 43, -78, 36, -58, 38, 36, 127, -75, -96, -45, -89, -91, 18, 17, 62, 94, -99, -83, -73, 58, -70, 78, 83, -101, -103, -61, -89, -13, 17, 56, 51, 122, 70, 83, -119, 57, -87, -65, -112, 21, -127, 127, -81, 127, -100, 65, -103, 77, 17, -14, 50, -106, 62, 61, 42, 73, 96, 127, 80, -92, 75, -29, 127, 5, -103, 127, -7, -50, 23, -34, -102, -86, -86, 127, -54, -5, 59, 84, 105, 61, 17, 31, 97, 72, 0, -36, 38, -88, -40, -71, -32, -107, -127, 72, -67, 11, -75, -107, 45, 75, -17, 46, 127, 22, 39, -88, -52, -11, 48, 97, -19, 127, -119, 107, -127, -48, -91, -60, 56, 51, -90, -118, 77, 41, -127, 69, -58, -100, 16, 47, 127, -73, 36, 28, -103, 83, 111, 39, 21, -25, -61, -92, 77, 86, 113, 45, -116, -97, -90, -92, 42, 79, -84, 9, -70, 90, 64, -55, 57, 54, 74, -107, 127, 93, 127, -54, -65, 94, -33, -78, 127, 8, 125, -84, 66, 20, -51, 12, 127, -127, 127, 114, 127, 55, -58, -42, -74, -80, -119, -59, 77, -3, 16, 49, -40, 72, 86, 19, 127, 82, -27, -75, 39, 91, -8, -67, 46, 127, 17, 127, -68, 127, 66, -57, 127, 127, -77, -27, 61, -114, -73, 55, 87, -76, 37, 113, -59, -82, 8, -54, -73, 42, -89, 85, 29, 123, -73, 4, 80, 77, 111, -118, 90, 87, 98, -32, 69, -110, 25, 51, -65, -57, -89, -77, -19, 118, 48, 84, -99, 127, -125, 93, 103, -81, 91, 73, 93, 102, 65, 43, -127, 87, 60, 57, -74, -81, -89, -71, 37, 102, 110, 94, -41, -16, -62, 114, -101, -81, -117, 100, -63, 127, -74, 68, -83, 15, 102, 94, 96, -20, 96, 115, -82, 85, -99, -116, 85, -36, 78, 29, -74, -101, -73, -89, 65, 65, 91, -80, 90, -127, 86, 41, -65, 60, 76, 64, 113, 87, -92, 105, 27, -22, 98, 44, 92, -12, 116, -82, 101, -87, 59, -59, -79, -26, 86, -82, 95, 127, 121, 90, 36, -118, -24, 95, -102, -96, 65, 0, -65, -61, -75, 93, -47, -92, 112, 80, 116, 97, -57, 56, 57, -109, -83, 75, -108, -94, 109, 36, -70, -98, 116, 121, -96, 95, 100, -102, 48, 72, -126, 78, 127, 78, 127, 65, -55, 95, 73, -76, 127, 113, 78, 94, 60, 86, 85, 49, 35, 127, 47, -59, 93, 47, -16, -63, 77, 50, 56, 67, 78, -115, 105, 86, 75, 83, -65, 77, 85, 45, -76, 102, -99, 122, -93, 115, 21, -83, 87, -61, 102, -86, 125, -81, 101, 87, 65, -49, 59, 81, 79, 57, -112, -95, -89, -77, -86, 99, -14, 87, 55, 43, -73, -104, -70, 85, -127, 3, 69, -22, -61, -84, 90, 87, 80, 12, -78, 89, 127, 84, -39, -13, -78, 95, -97, 50, -81, -116, 87, -76, 66, 92, -111, 98, -101, -17, 29, -67, 62, -97, -81, -85, 77, -60, -88, -45, -5, 87, -68, -92, -61, -6, 60, -76, -100, -97, 75, -98, -44, 123, -126, 73, -80, -80, 127, -83, 55, 86, 68, -84, 86, 84, -81, -18, 79, 48, -95, 78, 51, 19, 89, 3, 70, 94, 21, 54, -51, 95, -94, -42, -91, 127, 62, -79, 87, -38, -34, 56, 55, -122, -28, -68, 62, -65, 85, 86, 108, -90, -98, 82, 75, -74, -49, 127, 111, -43, -33, -112, 23, 26, -91, -62, 57, 127, -62, -42, -86, -114, -51, -89, -15, -70, 96, -91, 94, 90, -32, 72, -71, -82, 59, -96, -91, 68, 82, 81, 88, 26, -97, -96, 76, 118, -71, 61, -94, -79, 112, -109, -127, -75, 24, -34, 31, 44, -106, 41, 101, -77, 3, -51, 83, -109, -91, -88, 105, 110, 94, -70, -127, 115, -40, -71, -54, -17, -94, 91, 83, 8, 45, -40, 78, -49, -78, 49, 87, -94, 85, 96, 11, 38, 78, 127, -127, 87, 105, 94, -2, -122, 94, -102, 64, 56, -81, 83, -1, -86, -72, 40, 65, 105, 82, -79, -94, 46, -64, -26, 81, 112, 84, -96, 82, 97, 121, 41, -87, -109, -89, -88, -92, -41, -91, 71, 60, 106, 74, 92, -127, 110, -26, -31, 63, -80, -45, -93, -14, 60, -81, -70, 122, -79, 65, -98, -59, 94, -55, -75, 113, -113, 67, 107, 72, 87, -83, 63, -95, -115, -76, -97, 78, 89, 70, -68, -90, 78, -120, -84, 85, 70, -62, -44, 64, 105, -100, 71, 112, 108, 127, -39, -91, -100, 85, 66, 89, 101, -8, -60, -75, 20, 80, -80, -32, -42, 80, 76, 83, -127, -76, -89, 94, -30, -98, 64, 84, -96, 62, -28, -118, 105, -96, 105, 93, -102, -70, -96, -73, 107, -88, 58, -91, -91, 44, -72, 60, -104, 103, -73, 72, 49, 127, -62, 60, -55, -105, 94, 77, 98, 106, 100, 61, -68, 96, -64, -15, -76, -73, -63, 77, 74, -80, -78, 88, -87, -76, 59, 114, 96, -66, -88, 91, 95, -20, 55, -89, 52, 15, -94, -47, 77, -127, -60, 72, 75, -99, 85, 80, 95, -78, 83, -94, -127, 78, 91, 99, 101, -88, -81, -58, 1, 64, 122, 82, -42, -97, 106, 102, 46, 78, 62, 81, 127, -96, 46, -80, 29, -106, 86, -37, 125, -71, -73, 100, 69, -74, 94, 9, -107, 72, 63, 49, -70, 98, -47, -127, -83, -21, 90, 75, -104, 77, 75, -75, 110, 91, 105, 79, 46, -75, -93, 89, 57, 119, -47, 101, 76, -83, 83, 89, 100, 54, -90, -83, 124, 92, -62, 34, -19, 88, -96, -107, -107, -102, 32, 85, 103, -8, 68, 94, 103, -101, 73, 95, 59, -104, -113, 105, -65, -99, -98, -78, 110, -73, 33, 3, -80, 40, -56, 95, 17, 18, 74, -11, -84, 106, -62, -103, -88, -92, 56, 79, -122, -112, 87, 85, -102, -13, 115, 14, -85, 83, 88, 28, 69, 111, -105, -43, 63, -86, -112, 97, -114, 92, 67, 123, 38, 103, 72, -106, -98, 93, -127, 61, 87, 94, 127, -89, -30, 115, -66, -50, 123, 84, 61, 66, 51, 104, 84, 61, -71, 40, -64, 82, 94, 95, 90, -91, -80, -82, -77, 81, 76, 74, 96, -61, -39, -65, 75, -34, 83, 74, -97, -117, -34, -55, -50, 12, 127, 123, 124, 91, 62, -127, 74, -107, -49, 71, 74, -90, 45, -90, 106, -92, 117, -80, 78, 122, 53, 75, -89, 53, 98, 69, 78, 66, 84, 75, -108, 86, -14, 92, -76, -95, 66, -11, -103, 69, -55, 13, -66, 127, 81, -83, -2, 106, 110, 124, 98, -24, 65, 118, 93, 94, -127, 66, -121, -35, -79, 37, -76, -111, 110, 69, 8, 69, -83, 98, 67, 49, 67, 107, 109, 77, -74, 80, 62, 72, 97, -9, 31, -119, 80, -113, -86, -83, -45, 69, 73, -82, -109, 76, 76, 56, 76, -77, -110, 9, 98, -16, 105, 21, -23, -63, 4, 74, 83, 62, -82, 45, -77, 78, 73, 88, 41, -92, -92, -95, -82, 65, 72, -78, 85, -62, 85, 87, 80, 98, 98, 105, -127, 97, 100, 84, -100, -62, 67, 91, -84, 93, 41, 15, 70, 111, 26, -42, -32, 91, -79, 83, 104, 82, -24, -84, -94, 60, -37, -74, -127, 70, -127, 25, 89, -85, 88, 71, 115, 89, 76, -68, -61, 101, 73, -25, -74, 88, 99, 0, 83, -74, 89, 96, -88, 66, 120, 34, -65, 35, 90, -72, -110, 29, -44, 26, 64, -32, -46, 12, -61, -73, 6, -54, -61, -60, 41, -53, 15, 22, 52, -35, -60, 23, 102, 34, 21, 31, -68, -107, 23, -33, 7, -99, -44, -12, 60, -21, 107, -112, -55, -60, -101, 107, -92, 35, 31, 15, 43, 26, -122, -53, 39, -127, 2, -51, -76, 44, -41, 63, 103, 26, 17, -20, 54, -68, 103, -78, -48, -87, 72, -72, -19, -79, 44, -92, -97, -120, -27, 37, -102, 47, 108, -74, 108, -86, -75, -62, -86, 52, -28, -38, -60, -31, -26, 26, 76, 20, -76, 12, -62, 97, -68, -94, 16, 13, 21, 40, 33, -37, 27, 28, 11, 26, 34, 53, -33, 44, -44, 38, 112, -22, -14, -66, -56, -46, -72, 62, -74, -46, -11, 5, -95, -20, 30, -59, -68, 109, -33, -69, -53, -71, 33, -50, -54, 97, 39, 112, -92, -46, 41, -26, -84, -51, -127, -79, -45, 99, -9, -49, -58, 51, 30, -78, 64, 41, -51, 34, 117, -103, 118, 96, -6, 67, 70, -30, 115, 58, -99, 113, 124, 39, 59, -103, -3, 43, -51, 25, 95, 26, 3, 27, 48, 48, -6, 40, 17, 31, 22, 40, -94, 33, 87, 79, 73, -65, 45, 108, -48, -46, 37, -104, 41, -66, -25, -38, -104, 36, -47, 46, -77, 95, -79, 107, 113, 119, -46, 100, 80, 90, 61, -58, -79, -36, -52, -68, 57, 3, 31, 23, 103, -32, -83, -48, 19, -34, -23, -35, -36, -39, -45, 114, 51, -29, -112, -72, 27, -89, 59, -55, -28, -48, 18, -73, -85, -78, -67, 9, -25, 36, 105, -49, 95, -37, -42, -77, -63, -13, -86, -95, -95, 46, -52, 9, 30, 98, 33, -55, -51, -48, 11, 117, -67, -47, -43, 103, -72, -52, 103, -86, 44, -75, -50, 33, -10, 10, 34, 110, -43, 36, 67, -57, -63, 73, 105, -44, 32, 86, -17, 98, -37, 70, 15, 8, 48, -86, 103, -80, -34, -57, 23, 102, -62, 32, -61, -7, 47, -101, -68, -38, -29, 81, -91, -25, -18, 101, -13, -76, 43, 92, -86, -24, 21, 125, -44, -29, -110, 49, 40, -78, -50, 23, 24, 70, -44, -38, -54, -62, -70, -99, -65, 112, -69, 58, 39, -37, 8, 3, -79, -63, -62, -51, 65, 66, 23, -19, 6, -52, -44, 52, 107, -81, -122, -76, -51, 85, -39, 38, -58, 103, -13, -126, 14, -32, 105, 17, 31, -121, -57, 60, -55, -103, -59, 87, 90, 65, -28, -102, 82, 71, -40, -40, -93, -44, 64, 5, 10, 33, -15, 35, -55, -57, 35, 54, -53, 79, 117, 17, 27, 48, 8, -29, 6, 95, 20, 6, -66, -18, -60, 38, -33, -77, 46, 14, -28, -29, -80, 105, 40, 70, -83, -57, 8, -78, -21, 29, 108, 102, -82, 97, 70, 120, 16, -59, -65, -25, -64, 24, -20, -63, -103, 47, -7, 12, 27, -74, -37, -47, 57, -101, -22, -54, -82, -120, 33, -24, -65, 125, -40, 29, 22, -55, 48, -28, -48, 42, -93, 34, 102, 53, 86, -76, 15, -49, -105, -52, -89, 48, 64, 33, -68, -101, 20, -71, -113, 26, 90, 5, -30, 50, 105, -105, -16, 43, 13, 93, -48, -80, -47, -40, 61, 2, 32, -58, -86, -43, 0, 116, -16, -35, -38, 10, 29, 19, -111, -70, -11, 35, -33, -38, 113, 119, -57, 100, -6, -94, 56, -71, 58, 16, -45, -59, -67, -40, 41, -29, 28, -56, -48, -77, -39, -13, -88, 111, -72, -10, 57, -82, 12, -65, -70, -44, -86, 81, 2, 6, 88, 19, -50, 71, -24, -35, 28, -58, -29, 66, 95, -51, -40, -46, -51, -25, 114, -29, 18, -63, -77, 62, 96, 54, -8, 43, -109, -106, -54, 19, 96, -63, -15, 49, 57, -84, 98, 26, 42, -64, -14, -60, -79, 17, -11, 81, -94, -23, -87, -26, -126, -25, -37, 53, 24, -79, 49, 125, 16, 120, 62, 51, -15, -45, -50, 79, -45, -14, 101, -30, 62, -92, -59, 111, 41, -94, 103, -64, -50, 99, 33, 24, -50, 84, -39, -61, -76, 62, 94, 67, -71, 37, 26, -89, 44, 47, 120, 52, 8, -69, -55, 11, 57, 124, -36, -50, -127, -54, 34, 35, 100, 28, -42, -55, -30, 40, -51, -91, -40, 54, -63, -53, -89, -104, -110, 2, 116, -83, 29, 2, 49, -46, 39, 109, 31, -74, -72, 17, -40, -74, -71, -92, 58, 71, 9, 12, -42, 109, -48, 109, -127, 49, 117, -32, -44, 77, 54, -17, -64, -104, 53, 29, -74, -63, 33, 62, -58, -12, 20, 20, -66, 53, 30, 34, 27, 44, -66, 18, 7, -67, -95, 116, -20, 8, 101, 85, 46, -17, 22, -87, -58, -66, -80, 127, 118, 72, -63, -75, -56, -76, -71, -45, -14, 72, 25, 69, -58, 127, 110, 9, -57, -102, -45, 31, 34, 103, -44, -71, -72, -55, -53, -20, -12, 55, 91, -73, -66, -71, 44, -57, 63, 58, -81, -48, -51, -75, -22, 9, 36, 11, 109, 36, 72, -101, 53, -75, -53, 59, 41, -58, 127, -35, 111, -77, 82, -68, 66, 0, -16, 38, -70, 43, 50, 19, 65, 70, 95, 59, -98, 57, -30, 117, 12, -85, 106, -3, -40, -13, -27, -80, -56, -117, 116, -51, -8, 32, 71, 88, 39, 41, 26, 81, 48, 0, -23, 24, -68, -31, -55, -28, -70, -100, 43, -52, 18, -73, -70, 42, 47, -127, 28, 100, 15, 39, -61, 7, -21, 56, 88, -14, 108, -105, 91, -82, -30, -61, -41, 26, 41, -80, -58, 52, 9, -64, 20, -52, -94, 12, 27, 118, -90, 41, 29, -68, 58, 43, 27, 18, -68, -74, -68, 56, 75, 100, 31, -77, -57, -69, -63, 23, 69, -44, -35, -56, 83, 47, -36, 52, 36, 97, -47, 98, 78, 103, -75, -28, 72, -19, -54, 94, 51, 122, -93, 53, 10, -38, -21, 107, -92, 125, 83, 103, 58, -80, -34, -71, -75, -99, -47, 44, -1, 16, 29, -45, 51, 75, 22, 83, 43, -25, -56, -16, 75, 58, -43, 25, 105, -1, 103, -55, 105, 42, -50, 89, 111, -80, -36};

static const int32_t L026_dw_bias[1024] = {-95, -2797, 37924, -256, -290, 14591, -903, -3585, 38153, 38836, -4312, 4214, 12619, -3658, 45569, -395, 15422, -586, 28124, -4323, -631, -3606, -1852, 22651, -284, 175, -425, 16921, -987, 26281, -346, -960, 22636, -4398, 22110, 41393, 12878, -941, -1815, 893, 29500, -1066, 30939, 61, -305, 14803, -915, -605, -470, 9813, -3542, 1335, 31195, -3063, -1020, -7287, 24629, 28223, -5142, 19178, -9232, -1578, -1828, -2381, -2257, 14132, 38816, 26631, 21180, 30059, 17263, -8064, 34521, -270, 30353, -729, 18597, -1275, -447, -3692, -618, -6051, -4157, 13650, 24437, 847, 24465, 54042, -6714, -1571, -1516, -2676, 61656, 24992, 23895, 32280, -1055, 960, -1828, 30552, -6161, 21565, 711, -1961, -859, -11272, -1168, -1580, -2966, -12341, 19571, -1152, -1913, 37589, -399, -4065, -2737, -6957, -306, 31356, -223, -4199, -1569, 21859, 26055, -1598, -361, 27553, -430, 518, 872, -705, -10634, 19220, 12799, -3642, 20361, 29484, 9697, -2009, 31023, 29912, 19389, -800, 3157, -184, -3614, -290, -2080, 1772, 23692, -1301, -13093, 34018, 38578, -1529, 27762, 68669, 6880, -12176, 18202, 1258, 1417, 220, 29290, -845, -4119, 30014, 276, 8886, 18775, 3916, 25315, -1086, -7242, -6822, 24544, 4436, -221, -507, -2306, 9, -955, -1693, 14847, -46, -17061, -1358, -5314, -1624, -3366, -132, -1784, -1356, 2906, 31734, -2161, -1260, -1346, -3163, -292, 26816, -25565, 74, -6172, -1620, 29157, -722, 890, -1821, 8991, -3395, 22707, 264, 20708, 164, -9187, 24591, -834, 19970, -131, 23178, -1104, 15385, 2316, -1198, 4087, 22501, -21660, -1636, -2394, -49, 25079, 22608, 26977, 20211, 18699, -1125, 6371, -3025, -2329, 19270, 23425, 27537, 25900, -2099, -2778, -10481, -3118, -3521, 23409, 17347, 4910, -905, -1064, -153, 23338, -2844, -221, -5898, 1244, 4381, 24449, -1005, 33136, -4711, -334, 33606, -3525, 40546, 2457, 16102, 20012, -980, 47223, 4831, -600, 2310, -7637, 20518, -1887, -2897, -664, 24984, -318, 33404, -19875, 536, -5154, 31779, 33600, -800, 4524, 14485, 16859, 22989, 23967, 35962, 25666, -1792, 30802, -1199, 31197, 40432, -2412, 62227, -18321, 721, 11605, 47173, 1293, -1338, 21321, -688, -2017, 15996, 60156, -702, -21067, -18003, -428, -3812, -2367, 1280, -5646, -8322, -3782, 978, 25518, 1562, 31495, -1302, 18252, 332, -3802, 195, 18800, -1069, -3169, 29836, 683, 25819, -543, 1378, -1075, 804, 1891, -683, 36386, -1306, -4494, 23065, 21362, -28417, 109, -1955, 7543, 26705, -1036, -6500, 30320, 27215, -926, -330, -7267, 3643, -1835, 20286, -807, 24838, -569, 62094, -858, 17269, -445, 142, -925, -2623, 35667, 21693, -949, 20805, 27509, -849, -809, 131, 419, -2024, 23582, 25875, -3317, 1485, 14069, -4458, 19241, 22582, 3144, 18925, 371, 29546, 27701, 7320, -1724, -3659, 20927, 8380, 1790, 867, 616, -139, 581, 20834, 31691, 75467, 244, 1146, -837, 75316, 20877, -1374, -5518, 23466, 22436, -1026, 27730, -2039, -12477, -1223, -11471, 19611, -2832, -253, 30715, -1640, -2546, 28608, -3094, 1807, -11654, -1613, 666, -223, -2056, -463, 1947, -1863, 27294, 32013, -1643, 23784, -2775, -544, 19797, 1678, -4913, 26423, 35911, -3927, 161, -316, 25342, 36083, 39702, 79, 35433, 27546, -224, 4489, -407, 32503, 11970, -2527, -2444, -751, 40236, 26947, 37872, 30014, -667, 41875, 25020, 1886, 909, -6406, -2739, -3445, 849, -391, 3866, 1431, 138, 27865, 1758, 23300, -627, -418, 44210, 386, -1098, 62886, -3467, 163, 22514, -6182, 16324, 42746, -461, 28434, 233, 3795, -519, -2356, -388, -2571, 17062, 22507, 32260, 29618, -2141, -1379, -1641, -4345, 19275, -4064, 18408, 15291, -1268, -887, 56046, 21427, 1876, 953, 24065, -721, -17261, 39, -5583, 716, 17589, 33503, -1522, -584, -2729, 95, -1869, 26005, 21933, -10431, -861, 39457, -3800, 4880, -1957, -1835, -739, 32289, 28739, 128, 246, 3937, 24679, 13415, -622, 19554, 11000, 4868, 22586, -1727, 27284, -19007, -274, 21134, 28026, 21170, 21105, -1374, 22993, -17011, 20382, 19662, -13459, 31190, -2845, 25522, 19052, -209, -886, 2061, -2431, 18806, -468, 19174, 29886, -2315, 3595, -1576, 4084, -1533, -1131, 29224, -1872, 62909, 3269, 32521, 28633, 22289, -1049, 6350, 34094, 22140, 381, 25331, -291, 10090, -3172, -1735, 20336, 28696, -3641, 1978, -847, 226, 2255, -254, -317, 33448, 20093, 2384, 22614, 26290, -1898, -655, 22874, 1968, 1037, -754, 10991, -1589, 26054, 39531, -1451, -856, 1773, -2706, 27082, 21879, 28282, 23552, -15914, -463, -110, -1840, 19359, -2528, 5003, -6924, 19070, -660, -808, -347, 15177, 955, -4693, 8425, 31314, 7129, 2862, 2395, -479, 49367, 7255, -5845, 8602, -1996, -310, 19351, -984, 80, -840, 12733, -98, 7399, 4262, 19324, -372, 4018, -1465, 31783, -3693, -1973, 28934, -698, 235, -1573, -551, -872, 35570, 45050, 4, -22810, -153, -1244, -4332, 124, 18163, -1527, -965, 16054, -3138, 667, 21171, -1053, -3619, 22212, 37994, -4239, -2020, 24240, 27371, 30729, 31042, 3068, -4751, 2012, -5274, 1904, -5570, -715, 24229, -454, 3604, 2156, 23231, 24821, 14, 23543, 28378, 36642, -1725, -370, -3664, -10806, -5113, 27533, 4038, 21200, -777, -1602, -6312, 14150, -6293, 13321, -983, 240, 43467, 24319, 21605, 3, -1246, 25462, 30900, -852, -1769, 32372, 1600, 188, -7327, -916, -90, 150, -711, -573, -752, 28388, 38183, -1781, 34889, 27556, 2133, 42728, -455, 5849, -2513, -684, -1522, -528, 30919, 18830, -864, 27312, 22407, -921, -3777, -879, 29999, 4940, -6625, -887, 18007, -726, -753, -833, -511, -757, -1916, -1096, -1703, 17092, -617, 48242, -1018, -6856, 263, 549, 19932, 29082, 18671, 23450, -2564, -1741, -18450, -188, 22065, 3256, 27531, -1967, -1862, -1583, 77, 25231, 30362, -182, 300, 20785, -3733, 238, -3011, -19946, 1466, -663, 24651, 1523, 43649, 4102, -569, -26071, 19776, 13093, 25338, -1803, 17706, -4475, 21655, -7910, 26043, -806, -6338, 23235, -392, -5023, -1128, -2012, -1523, -560, -987, 11948, -5263, 1059, 1501, 33139, 17867, 6561, 412, 30850, -4993, 7668, -1581, 14310, -991, 2871, 28731, -12670, -18164, -2721, -5987, -157, 34354, -1162, -28, -56, -2356, -211, -1413, 32498, 60240, 66525, -9424, 15451, 25950, -2600, -2196, -5607, -5984, 2650, -249, -1540, -463, -1206, 9448, -1316, -17992, 27319, -1353, -11433, 129, -1611, -12602, 3963, 24054, 2099, 24280, 47331, 18172, 4, -2830, -898, 19060, 20229, -844, -1243, -2139, 679, 2362, 21410, -5378, -2085, 6873, -4685, 24051, 234, 22349, 3653, -1164, -547, -1233, 29618, -511, 25888, -810, -1155, 2679, -2120, 20272, 22354, 24241, 24418, -420, -561, 15229, -488, 22415, -3793, -5134, -900, -1057, -544, -31909, 119, -1121, -4535, 8100, 23601, 15460, -1634, -390, 21284, -2927, -22799, 32102, -2720, -1563, -3745, 5017, 17335, 1652, 18510, 3972, 117, 7786, 4532, 32524, 48181, -6516, -8266, 26584, -218, -3360, -19, -14812, 128, 23819, -976, -2832, -9156, -1388, -2440, 2435, 20864, -308, -11280, -6990, 19004, -1715, 9413, -3078, 40, 58841, -1054, -1026, -7868, -1361, 3764, 26631, 26664};
static const int32_t L026_dw_bias_total[1024] = {78497, -5997, -75868, -43904, 89822, -70913, 2297, -22401, -63735, -68684, 27304, -14218, -10165, 62518, -60671, 64885, 10046, 106294, -55588, 23965, 90121, 73706, 88900, -87301, 94052, -10577, 87767, -54887, 95781, -96727, 48294, -48320, -83220, 65874, -100642, -59727, 33998, 102483, 83561, -4995, -86596, 72406, -81189, 68413, 81999, -91565, 84845, 93347, 94762, 103381, 12586, -27849, -88229, 108425, 4996, 52745, -73931, -84673, -39702, -69910, -16, 67542, 87004, 99635, -7377, 15156, -64992, 43655, -88516, -60309, -98449, 70016, -70183, 84978, -66031, -9945, -80603, 16517, 66241, -4204, 47510, -14883, 87747, 34002, -93067, 13007, -93935, -53734, -10042, -25891, 90004, 18060, -30376, -89440, -67241, -65640, 66273, 104512, 100700, -87336, 75759, -93635, -19385, -10025, -24027, 55928, 88304, 90580, 109674, 86987, -95373, 106624, 32391, -42027, 98545, 56991, 43471, -4397, 93134, -65412, 96801, -5479, 78303, -63005, -74297, -10174, 38423, -80991, 96082, 85510, 96232, 86591, 46582, -103276, 29183, 87622, -75639, -83412, 10465, 69799, -80593, -80168, -81475, 98400, 15189, -33208, 67938, 97630, -7328, 57196, -39668, -33813, 6235, -81566, -72270, 55943, -82062, -41155, -4256, 22256, -86886, 48362, 111497, 103132, -81686, 64435, 83433, -73026, 62228, -10058, -101289, 17740, 37859, 87106, 36022, 103770, -40096, 49108, 91427, 33797, -5378, 109705, 89413, 68579, -10369, 87506, 60891, 65970, 51774, 1320, -6566, 71676, 87048, 79924, 7642, -55818, 101519, 71188, 90942, 93349, 71900, -90560, 67747, 35018, 99300, 73772, -76315, 91694, 1018, -19485, 159, 97725, -73037, 115336, -79644, 89252, 1437, -90481, 101310, -75902, 107261, -86134, 124720, -92007, 9996, -11694, 11255, -35483, 77924, 89244, 72486, -6193, -72329, -82480, -74783, -77837, -82037, 102043, -925, 94511, 86503, -27578, -47231, -88815, -76756, 79949, 12838, 13327, 70738, 65983, -43663, -82237, -18770, 97399, 76760, 4967, -90710, 98276, 74147, 81014, -5028, 27421, -71295, 84627, -72592, -21095, 51250, -72634, 94651, -49950, 88217, 15718, -77268, 101548, -51465, 17887, -26840, 6918, 60971, -90970, -32991, -15057, 103400, -74216, 71874, -43012, 43869, 99096, -14498, -73565, -66112, 60128, 10540, -79851, -92965, -71219, 35103, -67974, -62654, 117120, -88622, 92113, -84131, -70032, 107156, -18541, 25327, 103377, 21333, -54971, 92173, 74566, -80311, -23216, 17311, 35068, -41988, 91970, 32821, 8621, 3284, -11620, 86849, 79104, 39282, 17918, -32070, 55762, -69458, -486, -72185, 89962, -16564, -40116, 63142, -8253, 35056, 82387, -24033, -81908, 13483, -71845, -5919, -30238, 28749, 84004, -12573, 58069, -69214, 89830, 16498, -80999, -29966, 50815, 10861, 19933, 14327, -100911, 32116, -10980, -77200, -42417, 92002, 90294, -20707, 2235, 38869, -78018, -20135, -86010, 24135, -51570, -12762, -88075, 81475, 93582, -5149, 76737, -54957, -85059, 64843, -81851, -75403, 72879, 107607, 80899, 87715, 78488, -70626, -84205, 72331, -1203, -84107, 5398, -83927, -77898, -11832, -79123, 61299, -69654, 25269, -12136, -20412, 6581, -77505, -15172, 103550, -5789, -39192, -18059, 102725, -88094, -82229, 11339, 109684, 106234, 79931, -16588, -106739, 115106, 90226, -75606, -32732, 11774, -74286, 56969, 57795, 35001, 48177, 35995, 103408, -35965, -67333, 18584, 65934, -61760, 92522, -5105, 28026, 83251, 101274, 87073, 1656, 86065, -5989, 90809, -43618, -93171, 92821, -76440, 82345, 74720, -73003, 101774, 23503, -57929, -63673, -22231, -14687, 105156, -770, -69773, -75754, 13391, -78487, 44314, 56480, -5623, -7319, -75017, 4930, -22239, 47988, -111, -73812, -82621, -45328, -62914, -12955, -39149, -77124, 70878, -44787, 89722, 77517, 100619, -11055, 72569, -15078, 6807, 52234, -71079, 4318, -91004, 30221, 95326, -51278, 19458, 19638, -24666, 79989, -21085, -42638, 87258, -79548, -56966, 105139, -92654, 83049, 7763, 97401, 61644, -41220, 79349, -76506, -108437, -69884, -85070, 11171, 88989, -36201, -34681, -81205, 89504, -93720, -90565, 76556, -1271, -24466, -25933, 82516, 4025, 28289, 81199, 70803, 76327, -1231, -11188, -98251, -66849, -31858, 97592, 84951, 63967, -17101, -76523, -68947, 32961, 5155, -37599, 16168, 30992, 92379, 77013, 101789, -87519, -78141, 67072, 95862, -13215, -77209, 15591, -1390, -85534, -1800, 26628, -106822, 111809, -79212, 76481, 99438, -79218, -79494, -81614, -78479, 108066, -75567, 48909, -70626, -73266, 24173, -45226, 67555, -88910, 21484, -35409, 92554, 59405, 73601, 19830, 71212, -66202, -64834, -28299, -16501, 84440, 105716, 85763, 81173, -49624, 96304, -29891, -11579, -43127, -63527, -81007, 39271, -4146, -80210, -66692, 78333, -79373, 35677, 11370, 77084, 90681, -74128, -65896, 97479, -838, -34767, 60514, -7473, -25982, 13891, -74456, -59139, -5424, -77994, -37070, -39146, 57329, -95142, -22352, 97933, 96270, -90257, 88395, -95546, -66581, 87637, 87848, 107373, 88814, -66614, -90121, -42502, -2304, -1194, 84017, 104082, -5552, -89057, 20768, 28683, 54516, 28030, 102636, 90200, 95781, -84663, 55355, -28373, 7145, -46766, -20775, 18094, 127963, -31583, -53545, 10711, 63787, -3942, -12236, 32458, -81257, 114856, 86736, 13368, 9277, 104350, -10521, -20186, -89348, 5388, -23758, 84167, -73817, 69395, 68811, -72698, 88134, 105835, 1499, 95833, 82200, -82830, -64518, 91524, 78182, -11673, -1756, -10220, 51580, -88845, 89609, 95803, 23606, 78526, 41115, -74829, 74979, 89053, -79420, 23146, -3471, 92956, -73168, -78357, -82551, -68670, -23812, 90737, -34468, -18202, 86384, 85694, 103733, -84827, 83386, 13460, 70124, -92353, -101643, 93710, -41481, -78502, -70110, -11709, 112014, -38096, 19530, 24583, -66163, 9798, -39344, 54007, -33218, 40792, 21702, -5269, -97271, 72489, 89200, -39349, -84737, -96923, 90627, 93730, -92170, -90060, 59436, 85911, -78732, 16704, 94780, 24033, -33812, 100390, 85014, -33991, 90435, 95632, -82460, -23001, 76427, -85047, -97756, 85, -65048, 95545, -16039, -10065, 72788, 92174, 95088, -89529, -76146, 71840, -81232, -377, 11495, 62911, 97297, -78929, 8012, 65311, -30711, -75177, 90666, 85519, 72895, 106625, 61451, 18308, -8904, 98777, -79676, -40041, -49806, 78470, 79672, -4729, 71589, -89508, -76646, -85009, -91878, 68860, 80179, 86254, 107076, -83791, -3400, -75125, 101969, 3898, 96465, 89805, -83697, -73958, -7606, 556, -33103, 25707, 97518, 77757, 83350, 94778, 77033, -80309, 85747, -62847, 1030, -35769, 58665, -82496, 26533, -65158, 10485, -97494, 96517, -91241, 81434, 115771, 65370, 88638, -87357, 85112, 87265, 83096, 110884, 8589, 65616, 95653, -111700, 89969, 12707, 46173, -52749, -96821, 15905, 6556, -67838, 69375, 6772, 59987, -89370, 60705, -3785, -65221, 2050, 91916, 103647, 11677, 84963, -30158, 93174, 119140, 111048, 79436, 12973, 92667, -82446, -24752, -27555, 46128, -82213, -89890, 69336, 68972, 23833, -13920, -3110, 96391, 77308, 36913, 74826, 12392, 99036, 57016, -85577, 49335, 58839, 99969, -9035, 3014, 7419, -104074, -16205, -97448, -37021, -85764, 55940, 59890, 82302, -83340, -81915, 91444, 94117, 36133, 83623, 6330, -97502, 22270, 96731, 20825, -31053, 46579, -9238, -71987, 70341, 69236, 78173, 86703, -47822, 61569, -90592, 78166, 115453, -4873, 72248, -75472, -79662, -91855, -87966, 90972, 57551, -89347, 69144, -72817, 104111, 77554, 71932, 102623, 38624, 49755, -38281, -5217, 55241, 6948, -87503, -69532, 92318, 82042, -79708, -8943, 51185, -7194, 59872, 102757, 54239, 6809, -20425, -3852, 2382, -3196, 68981, -11670, 12084, -65908, -53323, -24180, -12234, -86952, 42278, 91744, 3949, 28452, 88320, -50933, 81200, 89456, 91196, 49556, 78840, 21891, -68736, 79692, 85872, 3250, -80580, 91597, 36421, 22266, 168, -33319, -17950, 101758, -9916, -34641, 16308, 17287, -40920};

static const int32_t L026_dw_output_multiplier[1024] = {1863967872, 1089218304, 1881911424, 1118788992, 1885248512, 1778092928, 1560266496, 1609261568, 1891161856, 1969841664, 1411647232, 1074896896, 1078772736, 1967535232, 1662771584, 1374592512, 1739938176, 1612279296, 2017115648, 1380406016, 1266571136, 1617457280, 1720188928, 1111583616, 1102354304, 1673087872, 1400170368, 1414672640, 1520234880, 1761190144, 1253620096, 1954495104, 1900010368, 1241715456, 1190179712, 1269840768, 1897014144, 1185254528, 1801073408, 1544032000, 1591649920, 1161668864, 1341458944, 1118433792, 1967498496, 1107335552, 1114008576, 1857728000, 1211392512, 1883505664, 1303401728, 1661665536, 1626556544, 1750323712, 1095737472, 1383490048, 1629506688, 1657715200, 1073956992, 1435072384, 1492873856, 1242772480, 1354659072, 1550767488, 1631122176, 1329140480, 2083531520, 1149618560, 1899072640, 1411153408, 1937389952, 1495858432, 1767177984, 1270621952, 1410861184, 1860340224, 1077659008, 1603025024, 2066263424, 1090196736, 1237613696, 2092912128, 1807166080, 1976098048, 2127693312, 1181283840, 1714185600, 1316504960, 1323124864, 1750859904, 1685323904, 1237325440, 2125085056, 1708313984, 1296733952, 1607099776, 1117550848, 1461865344, 1514524672, 1284593152, 1317446144, 2099239424, 1851645824, 1399796352, 1635484160, 1737719936, 1180259712, 1136491136, 1319907072, 1506113792, 1205890688, 1657065088, 1418410624, 1707153152, 1994052736, 1778867200, 1991038976, 1713991552, 1225636352, 1927658624, 2107150464, 1659099776, 1391952896, 2075451264, 1102159744, 1933220864, 1960572928, 2024911360, 1404293248, 1629227904, 1290364288, 2003235328, 1967087872, 1209421184, 1215311232, 1753484672, 1084897792, 2035419264, 1374008064, 1591004416, 1861098112, 2001624960, 1196129024, 1514606336, 1176860928, 1562301696, 1439669504, 1757903616, 1661282816, 1590903936, 1762571264, 1523446400, 1119910400, 1127715584, 1821501952, 1327503744, 2138761344, 2106807296, 1799893888, 1478552704, 1210715392, 1146534528, 1854188800, 1334648320, 1382846976, 1451407488, 1986575872, 1655484416, 1321681280, 1285828352, 1728091648, 1178734592, 1439831552, 1481518976, 2136068096, 1764225536, 1262126336, 1563821440, 1123926400, 1227546496, 1193216128, 1561803904, 1963391232, 1193548288, 1834861440, 1153811584, 1814889344, 1237482240, 1258512768, 2096849408, 1614935936, 1955757312, 1178097408, 1150066560, 1802386560, 1679808896, 2143067136, 1570128512, 2134800896, 1892874624, 1378281856, 1139849600, 2030761984, 1611615360, 1954731776, 1544072448, 1389283328, 1208173568, 1408178432, 1433538816, 1334094720, 1208979200, 2112885888, 2122704384, 1210885248, 1098375680, 1474441600, 1731965312, 2082952448, 2023425152, 1369152512, 2096609408, 1438752128, 1466979200, 1306986240, 1142543872, 2143926272, 1073822592, 1208743424, 1768055808, 1092246784, 1871572224, 1304583296, 1348823424, 1475179392, 1218745600, 1593600896, 1347019776, 1118115328, 1563222272, 1336442624, 1754352640, 1969594624, 1096135424, 1420387712, 1537686784, 2024217088, 1624448768, 1091711616, 1816282624, 1801252864, 1377452800, 1843701248, 1082312960, 1706606592, 1224868864, 1898719872, 1762691200, 1498188160, 1788409472, 1183441280, 1555700992, 1110444928, 1100225408, 1567824256, 1830331520, 2082033792, 1208924416, 1945432320, 2117605504, 1559689472, 1131746176, 1225640064, 1891339776, 2026669312, 1249371008, 1431157248, 1943370112, 1172619520, 1336807936, 1584088960, 1511106688, 1917379840, 1371708544, 1925342720, 1367389184, 1181536384, 1582880128, 1654380544, 1900107264, 1661314176, 1248445312, 1153327616, 1335362688, 1339786112, 1354383104, 1490401536, 1923539968, 1618823808, 1666577152, 1764333952, 1775575936, 1605875200, 1582977920, 1932972288, 1153137152, 1707063424, 1313676672, 2071990656, 1524898304, 2143522176, 1474435840, 2125698560, 1096196992, 1267444608, 1799064704, 1207045888, 1461635072, 1824108032, 1210025856, 1293313920, 1614152576, 1935756416, 1588668288, 1370780672, 1266317056, 1164055680, 1102037632, 1850651008, 1804091136, 1574327296, 1866968704, 1606959360, 1516729216, 1579499520, 1800026240, 1152707456, 1098881536, 2067610240, 1271981312, 1438166016, 1962739072, 1222615936, 1136435328, 1941725312, 1113293056, 1682737664, 1898839808, 1963450752, 1818248448, 1383871616, 1650187136, 1466534400, 1639009280, 1261000448, 1678150784, 1327922048, 1416697728, 1721685248, 1748597248, 1427488384, 1094442624, 1177956864, 2143532288, 1227768576, 1103768320, 1235914368, 1623356800, 1627994752, 1645737856, 1188258560, 1661555072, 1495454080, 1109560192, 1232682240, 1123846400, 1608481152, 1507853568, 1656864128, 1163252480, 1776318592, 2007576320, 2060795392, 1796137472, 1248577664, 1710458752, 1137235840, 1192487424, 2112786688, 1809470208, 1103652480, 1318698368, 1396649344, 1199394176, 2126820224, 1906499200, 1103831808, 1990130944, 1337776256, 2000252672, 2081349504, 1792425600, 1342518912, 1141617024, 1849755264, 1177241728, 1745054720, 1594354560, 1963648384, 1722447360, 1116017792, 1897643520, 1324409216, 1742746496, 2019810176, 1369808512, 1584245504, 1938760832, 1144701056, 1102241408, 1417008640, 1600607232, 2101535232, 1354542592, 1111313664, 1396360320, 1691569664, 1429624960, 1231518592, 1896801536, 1824476032, 2096729344, 1320038400, 1964097024, 1169102976, 1768272384, 1839501952, 1994719360, 1717337728, 1852539648, 1326195968, 2103264256, 1307976064, 1766664192, 1379846400, 1450703744, 1417600768, 1638655744, 1780581504, 1970146176, 1817237120, 1428568448, 2087040640, 1745385600, 1368410240, 1621635456, 1975640448, 1949386368, 2127723008, 1514461824, 1206142336, 1271569920, 1591349120, 1287781632, 1455187584, 1643915392, 1415576192, 1497310080, 2133544320, 2052432128, 1880377856, 1269028480, 1386927616, 1208711808, 1439201408, 1900220544, 1907294336, 1830242176, 1658419200, 1642280064, 2071928576, 1746489088, 1658210176, 1955502592, 1659234944, 1335681536, 1413777024, 1627474176, 1294013824, 1386014592, 1136563712, 1660387328, 1641379840, 1573899520, 1853343488, 1782378240, 1395721856, 1166215936, 1526343424, 2044090240, 1676815360, 1432690816, 1226372096, 1519557504, 1963767936, 1467776128, 1676366976, 1104306432, 1619726720, 1248011392, 1979793792, 1135210112, 1777678592, 1545878912, 1229396352, 1838876544, 1784630912, 1411111040, 1255722496, 1351772032, 1470254976, 2128625152, 2122490240, 1972068736, 2066818816, 1641287680, 1369902080, 1125545984, 1440460544, 1357367296, 1457160704, 1955207936, 1139907840, 1690037504, 1481914752, 1875704960, 1405261568, 1543317376, 1161174912, 1290249600, 1578956416, 1434388736, 1197246080, 2041079680, 1822579328, 1847583488, 1881221376, 1156108544, 1352291712, 1777276032, 2145307520, 1134827008, 1660142208, 1311328768, 1086488448, 1204299264, 2016011136, 1127431424, 1513595136, 1496955520, 1427528192, 1152981376, 1420580352, 1784935168, 1342191232, 1336298112, 1864584320, 1502808576, 1284106240, 1494123776, 1933954560, 1752231040, 1240966272, 1899608704, 1969336320, 1891580288, 1794526080, 1962130432, 1171591424, 1082151296, 1255408128, 2101773312, 1592164992, 2117147904, 1997482496, 1566201856, 1438785664, 1327572864, 2047233920, 1209692544, 1308739200, 1297086848, 1345580288, 2132093568, 1530982400, 1096232064, 1712258432, 1479370368, 2044500992, 1284969344, 1201651840, 1226863360, 1314547712, 1710064896, 1190425856, 1979969664, 1143154816, 1163660288, 1832259584, 1837172352, 1215905792, 1762386048, 1316778752, 1955299968, 1102400384, 1743149440, 1953960960, 1316158464, 1334795264, 1204808832, 1574728832, 1582875136, 1206519168, 1276301568, 1076699776, 1482880000, 1663125120, 1610169856, 1500078592, 1515076864, 1106692736, 2090910080, 1108801408, 1253791360, 1405633792, 1448374656, 2045829504, 1678373504, 1700603520, 1209577088, 1542722304, 2051822976, 1546691712, 1621147904, 1079773184, 1977565312, 1469851264, 1300238080, 1220148992, 2143908096, 1809805440, 1491058432, 1117811456, 1431595648, 1376585984, 1176757120, 1969657600, 1536668160, 1130423552, 1106896256, 1149282304, 1198092032, 1140653568, 2114597248, 1306972416, 1668145024, 1190476160, 1294241920, 1402600448, 1206595456, 1406807936, 1243071488, 2093504128, 1388124288, 1160802816, 1163281664, 1221430528, 1164727424, 2021647488, 1173211264, 1924480256, 1835082240, 1283310464, 2010005760, 1384023936, 1658386048, 1221221120, 1464303872, 2069086336, 1488562816, 1702649088, 1561963136, 1249846016, 1169253376, 1708515456, 1946709120, 1858592000, 1725670528, 1539029504, 1618907776, 1257818368, 1698040576, 1201646592, 1298626560, 1283690368, 1766467584, 1669424128, 1559815168, 1149482496, 1544419968, 1683253120, 1266749184, 1556280064, 1601046016, 1600873216, 1686574720, 1524348672, 1977182848, 1589756032, 1615725568, 1361095424, 1758370432, 2071800960, 1863552384, 1119989120, 1444857216, 1580076032, 2143983360, 1642444800, 1326049536, 2103771008, 1212726144, 1375944832, 1138726912, 1200326144, 2086670848, 1738329088, 2041623680, 1483219584, 1521558016, 1375396736, 1647138688, 1904949120, 1425466368, 1294022528, 1236962048, 1431497600, 2021510400, 1412920064, 1387267200, 1485113984, 1709193600, 1987681664, 2022602496, 1466648448, 1925876736, 1138174464, 1337714304, 1685267072, 2124625792, 1977449600, 1944769536, 1423819904, 1087959040, 1831278336, 1701064960, 1936594048, 1368015616, 1206547968, 2072123136, 1219154432, 1812094464, 1965574400, 2085593856, 1143749248, 1735731712, 1137924736, 1856631424, 1939848704, 1551565056, 1456340096, 1690090624, 2124024320, 1731475200, 1706300544, 1676675072, 1379005440, 1239271296, 1835461632, 2135113472, 1122463104, 1763178624, 1506961280, 1825113088, 1813507328, 1885685632, 1577710592, 2120108032, 1122344704, 1246247552, 2119702400, 1198299008, 1586284032, 1620431104, 1107525888, 1268772736, 1244593152, 1368191744, 1309948416, 1761900800, 1147380992, 1793125376, 1990774912, 1994442368, 1111900928, 1787536896, 2135690496, 1935848576, 1314625664, 1157390976, 1495826688, 2120510720, 1815472512, 1485805824, 1912169472, 1184169984, 1525698432, 1135157888, 2013101440, 1328085376, 1159079040, 1837773824, 1233965952, 1560840576, 1494713856, 1474368896, 1359552768, 1904055808, 1898780288, 1643530496, 1934033536, 2053346432, 1672947840, 1496369536, 1856804736, 1334012672, 1104497536, 1889703808, 1914409600, 1883149824, 1289601408, 1827030400, 1974072960, 1189186816, 1560292736, 1603744640, 1572767104, 1172056320, 1320573824, 1650651904, 1765566848, 1233664640, 1206649472, 1322337152, 2145361152, 2017791360, 1596426496, 1452182016, 1097038720, 1302339456, 1354900736, 1642513920, 1796041600, 2016657664, 1583925632, 1689848320, 1491059584, 1227547648, 1298495232, 1372085376, 1761242112, 1927207680, 1271676544, 1405575680, 1696181888, 1537825792, 1768493440, 1559932416, 1570153600, 1543811072, 1425201792, 1840494848, 1278340992, 1135513600, 1092978816, 1999070848, 2079783808, 2086405120, 1995169280, 1356926336, 1147511296, 1673988096, 1257014656, 1829374208, 1713636224, 1196797184, 1556710912, 1155810688, 1207548672, 1370017792, 1762653184, 1657429760, 1715977088, 1452668160, 1832449664, 1580609152, 1784246272, 1170213504, 2059260928, 1573035264, 1607191552, 1575466496, 2126390016, 1153832704, 2091876608, 1975960448, 1328866304, 1548692736, 1429785088, 1691326592, 1347030144, 1902948864, 1309083904, 1367146624, 1301541120, 1079890048, 2021411328, 1107072512, 1130835328, 1231666432, 1076790400, 1299982464, 1983304448, 1542130432, 1832917888, 1770548736, 1301247104, 1639815424, 1927416576, 2107571456, 1727927296, 1117596032, 1419281792, 1250055296, 1857802240, 2035859584, 1991611904, 1097444096, 1208755072, 2137804416, 1383060736, 1164277888, 1540334976, 1606958848, 1473597824, 1328351104, 1824081408, 1215329408, 1109274752, 1263137408, 1361582208, 1745212800, 1459473024, 1230251008, 2056327424, 2133819904, 1323912576, 1580694656, 1644337664, 1947255936, 1841367168, 1986317312, 1626259328, 1490417664, 1607486336, 1105200768, 1655825792, 1555204096, 1333610624, 1895470848, 2120464256, 1594080128, 1777033728, 1080161408, 2092179712, 1524713088, 1568649088, 2039157632, 1382465536, 1570902912, 1750825728, 1659188352, 1659732864, 1448652672, 1647039232, 1946415104, 1929840128, 1099145600, 1372620032, 2026962560, 1891171712, 2126232704, 1607159936, 1303414272, 1320242944, 1948858624, 2079190912, 1266406528, 2134626304, 1845424384, 1656125568, 1525010176, 1146731520, 1255784832};
static const int32_t L026_dw_output_shift[1024] = {-8, -5, -8, -5, -7, -7, -5, -7, -8, -8, -6, -6, -7, -7, -8, -7, -7, -7, -7, -5, -7, -8, -8, -7, -7, -7, -7, -7, -8, -8, -7, -6, -8, -7, -7, -8, -8, -7, -8, -7, -7, -7, -7, -5, -6, -6, -7, -7, -7, -8, -6, -7, -8, -8, -5, -7, -8, -8, -6, -7, -6, -7, -7, -8, -7, -6, -9, -8, -8, -6, -8, -8, -8, -6, -7, -6, -6, -7, -8, -6, -7, -7, -8, -8, -8, -7, -8, -8, -6, -6, -7, -6, -9, -8, -7, -8, -7, -8, -8, -8, -7, -8, -7, -6, -6, -7, -7, -7, -7, -7, -7, -8, -6, -8, -7, -7, -8, -5, -7, -8, -8, -6, -8, -8, -7, -7, -7, -8, -6, -7, -7, -8, -7, -7, -7, -8, -7, -8, -7, -7, -8, -8, -7, -8, -7, -4, -7, -8, -6, -8, -6, -6, -5, -7, -8, -7, -8, -9, -8, -6, -7, -7, -8, -7, -8, -7, -8, -8, -7, -7, -8, -7, -8, -7, -7, -8, -6, -8, -6, -7, -7, -8, -8, -6, -6, -5, -7, -7, -6, -8, -6, -7, -8, -7, -7, -8, -8, -7, -8, -8, -7, -7, -8, -2, -7, -8, -8, -7, -7, -5, -7, -7, -8, -7, -7, -6, -5, -8, -8, -8, -7, -8, -7, -7, -7, -6, -8, -5, -7, -7, -7, -7, -6, -7, -8, -7, -7, -7, -4, -8, -8, -8, -7, -7, -7, -8, -7, -6, -7, -8, -7, -7, -7, -7, -8, -6, -8, -8, -6, -8, -6, -7, -6, -7, -8, -7, -8, -7, -8, -8, -8, -7, -7, -7, -9, -6, -5, -7, -7, -7, -6, -7, -7, -7, -7, -8, -6, -8, -7, -8, -8, -7, -6, -7, -7, -7, -8, -8, -8, -8, -8, -8, -8, -8, -8, -8, -7, -8, -8, -8, -8, -7, -8, -4, -7, -8, -8, -7, -7, -6, -7, -5, -8, -8, -6, -6, -6, -7, -8, -7, -8, -7, -8, -4, -8, -7, -7, -7, -7, -7, -6, -8, -6, -6, -5, -7, -7, -7, -8, -8, -7, -7, -6, -6, -7, -7, -7, -7, -6, -6, -7, -6, -8, -7, -6, -7, -7, -7, -7, -8, -6, -9, -7, -7, -7, -7, -7, -8, -8, -7, -7, -8, -7, -7, -7, -7, -7, -7, -8, -8, -7, -7, -7, -6, -8, -8, -7, -8, -7, -8, -8, -6, -7, -6, -8, -6, -8, -6, -6, -7, -7, -8, -7, -9, -8, -7, -7, -9, -7, -7, -8, -7, -6, -6, -7, -7, -7, -6, -6, -8, -7, -5, -8, -7, -7, -7, -8, -7, -6, -7, -7, -7, -6, -8, -6, -7, -7, -8, -8, -8, -8, -7, -7, -8, -6, -7, -8, -6, -8, -7, -7, -8, -8, -6, -8, -8, -7, -7, -7, -8, -8, -6, -7, -5, -8, -8, -8, -7, -6, -8, -8, -8, -6, -9, -7, -8, -6, -7, -6, -6, -7, -8, -6, -7, -7, -8, -8, -6, -6, -9, -8, -6, -6, -7, -8, -8, -8, -8, -7, -7, -8, -7, -6, -7, -7, -8, -8, -8, -6, -7, -6, -7, -7, -8, -8, -7, -6, -5, -8, -5, -8, -7, -7, -7, -7, -5, -7, -7, -7, -7, -6, -7, -7, -8, -7, -8, -8, -6, -8, -8, -8, -5, -8, -7, -7, -7, -7, -7, -7, -6, -8, -7, -7, -8, -7, -6, -8, -8, -7, -7, -8, -8, -7, -7, -8, -8, -8, -8, -7, -7, -6, -8, -8, -8, -8, -5, -7, -7, -8, -7, -7, -6, -7, -6, -6, -7, -7, -8, -8, -6, -7, -8, -6, -8, -7, -8, -7, -7, -8, -7, -7, -8, -6, -8, -8, -8, -7, -6, -7, -7, -5, -6, -6, -5, -6, -8, -7, -7, -8, -7, -5, -8, -7, -7, -8, -7, -7, -8, -8, -8, -7, -8, -8, -8, -7, -8, -7, -7, -6, -8, -8, -6, -7, -6, -7, -6, -8, -8, -6, -7, -7, -7, -6, -7, -7, -7, -5, -8, -5, -8, -7, -7, -8, -7, -6, -7, -6, -7, -6, -7, -8, -7, -7, -8, -6, -7, -7, -7, -8, -7, -8, -7, -7, -6, -8, -8, -8, -8, -7, -7, -6, -7, -6, -4, -7, -7, -7, -8, -7, -5, -7, -7, -6, -8, -8, -7, -7, -8, -8, -8, -8, -5, -8, -7, -6, -8, -7, -7, -8, -7, -8, -7, -7, -7, -7, -6, -7, -8, -6, -8, -6, -6, -6, -8, -7, -5, -7, -6, -6, -7, -5, -7, -8, -8, -8, -8, -7, -7, -8, -7, -8, -7, -7, -7, -6, -7, -5, -5, -7, -8, -5, -8, -7, -8, -7, -7, -8, -8, -7, -8, -7, -7, -7, -8, -8, -8, -8, -7, -7, -7, -7, -7, -7, -8, -8, -7, -8, -6, -7, -7, -8, -7, -7, -8, -6, -7, -8, -7, -5, -8, -7, -7, -7, -7, -7, -7, -8, -8, -7, -7, -7, -7, -8, -6, -7, -7, -7, -7, -8, -7, -7, -7, -6, -6, -5, -8, -7, -8, -8, -7, -8, -8, -8, -7, -5, -7, -7, -8, -8, -7, -7, -8, -8, -7, -8, -7, -8, -7, -7, -7, -7, -7, -6, -7, -8, -7, -7, -7, -7, -8, -7, -7, -5, -8, -7, -7, -7, -7, -7, -7, -7, -6, -7, -7, -6, -8, -8, -7, -8, -8, -7, -6, -7, -7, -8, -9, -8, -8, -8, -7, -7, -5, -6, -7, -7, -7, -7, -7, -7, -7, -7, -8, -6, -7, -7, -7, -6, -6, -8, -7, -8, -8, -8, -7, -8, -8, -7, -7, -7, -8, -7, -8, -7, -7, -5, -7, -7, -6, -6, -4, -7, -7, -8, -7, -7, -6, -7, -8, -8, -8, -6, -7, -7, -7, -8, -8, -8, -6, -7, -7, -7, -7, -8, -7, -7, -6, -7, -5, -6, -7, -8, -8, -7, -7, -7, -8, -7, -7, -8, -8, -7, -6, -7, -5, -7, -7, -7, -8, -7, -7, -7, -8, -7, -6, -8, -7, -7, -6, -6, -8, -7, -8, -7, -8, -7, -8, -7, -7, -8, -8, -6, -8, -8, -7, -5, -7, -9, -7, -7, -7, -7, -7, -7, -6};

#endif  // LAYER_026_DEPTHWISE_CONV_2D_H_
