#ifndef LAYER_009_DEPTHWISE_CONV_2D_H_
#define LAYER_009_DEPTHWISE_CONV_2D_H_

#include <stdint.h>

// op_index=9 op=DEPTHWISE_CONV_2D
// input:  idx=66 name=mobilenet_v1_eurosat_1/conv_pw_4_relu_1/Relu6;mobilenet_v1_eurosat_1/conv_pw_4_bn_1/batchnorm/add_1;mobilenet_v1_eurosat_1/conv_pw_4_1/convolution; shape=[1, 16, 16, 256] dtype=int8
// weights: idx=39 name=tfl.pseudo_qconst37 shape=[1, 3, 3, 256] dtype=int8
// output: idx=67 name=mobilenet_v1_eurosat_1/conv_dw_5_relu_1/Relu6;mobilenet_v1_eurosat_1/conv_dw_5_bn_1/batchnorm/add_1;mobilenet_v1_eurosat_1/conv_dw_5_bn_1/batchnorm/mul_1;mobilenet_v1_eurosat_1/conv_dw_5_1/depthwise; shape=[1, 16, 16, 256] dtype=int8

#define L009_DW_OUT_CH (256)
#define L009_DW_KH     (3)
#define L009_DW_KW     (3)
#define L009_DW_STRIDE_H (1)
#define L009_DW_STRIDE_W (1)
#define L009_DW_DILATION_H (1)
#define L009_DW_DILATION_W (1)
#define L009_DW_DEPTH_MULTIPLIER (1)
#define L009_DW_PAD_H (1)
#define L009_DW_PAD_W (1)

static const int32_t L009_dw_input_offset = 128;
static const int32_t L009_dw_output_offset = -128;

static const int8_t L009_dw_weights[2304] = {41, 0, 46, -127, 0, 26, 1, 14, 9, -8, 114, 91, -13, 57, 63, 10, 55, -22, -8, -21, 4, -12, 112, -4, -21, -123, -13, 4, -22, 57, 2, 27, 12, -1, 33, 65, 21, -2, -74, -1, -33, 21, -49, 70, -8, 6, -4, -17, 6, 3, -6, 0, -7, -20, 17, -58, 5, 3, 1, -31, -28, -13, 22, -35, -29, 14, 1, 8, 6, 5, -24, 35, -4, 10, 3, 62, -5, 34, 30, -28, 66, -12, -50, 13, 33, -67, 12, 6, 81, -37, -41, 20, 10, -10, -5, -127, 66, 14, -6, 0, -18, -66, 41, 20, -18, 32, -40, -15, -7, -16, -39, -9, -13, -53, -24, 4, 1, -34, -9, -20, 29, 11, -11, 5, -8, 119, 6, 22, 11, 5, -3, 122, 4, -18, 48, 42, 1, 3, -127, 22, 6, 1, -1, 66, 18, 116, -54, -80, 15, 20, -7, -92, -41, 22, -15, -1, -30, 11, -7, -8, -4, 2, -25, -24, -29, 9, -2, -60, 78, -5, -11, -111, -42, 31, 41, -3, 17, -11, -100, 26, -37, -48, -40, -13, -127, 89, -127, 0, -7, -12, -14, -7, 31, 7, 8, -31, 10, -32, 118, 1, -48, -39, 14, 8, -15, 41, -50, 36, 42, 16, -10, 122, 27, 2, 33, 61, 6, -47, -31, 20, 40, 18, -57, -55, 31, -30, -19, 49, 31, -19, -123, 10, 16, 32, 78, -46, 8, 7, -13, 30, 67, -24, 1, -15, -7, -74, 42, 13, -60, 28, 16, 64, -49, 24, -1, -95, -127, -76, 77, 30, 12, -111, -28, 127, 67, 45, -118, -68, -69, 111, 127, -80, -55, -4, -42, 3, -67, 127, -127, 49, -127, -115, -24, -67, 4, 94, -55, -56, 26, -58, -57, 127, 30, -127, -94, -27, 127, -35, -6, -55, -101, -43, 42, 17, -9, -52, 7, 44, -3, -31, -20, -78, -35, -33, -67, 103, 127, -52, 11, -30, -127, 33, 62, -23, 52, 9, -66, -26, -50, 7, -66, -99, 5, -77, 121, -56, -34, 12, -49, -13, -7, -44, 26, -44, 0, 38, -73, -35, -36, 86, -49, 76, 127, -26, 3, -45, -65, -99, 53, 109, -127, -81, -44, -11, 42, -36, -126, 45, -7, 65, -26, 32, -26, -49, -49, -61, -42, 40, 24, 37, -40, -127, -24, 89, -25, -47, -56, -33, -108, -12, 127, -50, 58, 55, -79, 14, -8, -22, 104, -63, -82, 85, 10, 37, 46, -6, 40, -58, -127, -38, -14, -56, -92, 56, 92, 58, -76, 26, -127, -122, -31, -49, 13, -107, -23, -65, 7, -127, -69, -42, 127, -20, -53, 21, 93, 127, -122, 62, -127, -15, -74, 5, -84, -63, -32, -41, -36, 6, 127, 4, -47, 56, 31, 44, -26, 19, 58, -30, -69, -18, 17, 127, -38, 91, -114, 63, -29, 65, -12, -41, -51, 59, -71, -13, -84, -13, 127, 61, -67, -112, 62, 6, 4, 127, 127, -5, -127, -47, 127, -42, -118, 46, 21, 42, 24, 34, -35, 24, 74, -16, 8, 26, 24, 127, -66, -35, 127, -63, 1, 28, 31, -3, -69, 2, 39, 7, -3, 40, 4, -19, -29, 97, 9, -35, 48, -14, 23, 13, -5, -14, 4, -4, 52, -40, 24, -24, 34, -77, 4, 18, -14, 13, 10, 7, -8, 27, 6, 16, -32, -20, -47, 2, -20, -1, 63, -27, 8, 43, 1, 3, -2, 21, -17, -28, -13, -11, 12, -26, -1, 1, 18, -28, -5, -19, 19, -13, 31, -13, -25, 4, -26, -2, 1, -3, 6, 4, 45, -8, -9, 18, -5, -10, -20, -11, 23, 13, 13, -43, -2, 4, 4, -2, -10, 21, 6, -13, 13, 50, -5, -10, -7, 16, -2, -2, -27, -18, 13, 14, 127, 0, -15, -9, 1, -21, -8, -11, -15, -8, 5, 0, 3, -5, 6, -12, -12, -6, -7, 16, 12, 99, -3, 40, 13, 44, 6, -15, 14, -11, -19, -28, -44, -59, -3, 5, -29, -12, -11, -13, 18, 13, -6, 20, -13, -1, 17, -9, -9, 45, -16, -10, -28, -22, 10, -4, -38, 25, 4, 19, -8, -20, -45, 19, -17, -17, 4, -1, 15, 2, 2, -3, -40, 25, -20, -22, -28, -4, -38, -11, -81, 30, -22, 7, 4, -10, 9, -21, 17, -38, -24, -24, -94, -10, 18, 21, 43, 6, -12, 15, 60, -62, -12, -23, 3, -34, -12, -17, 18, 1, 56, 60, 7, -17, 4, -14, -4, 15, -5, -10, -8, 5, 8, 10, -12, 20, -5, 7, 4, 6, 0, -21, -14, 7, -22, -8, -31, -13, -13, 27, -46, -4, -15, -5, -20, -30, 59, -24, -4, 102, 106, 9, -127, 31, -52, 11, -45, -48, 52, -90, -127, -108, -80, -55, -84, -52, 127, 0, -30, -63, -56, 0, -75, 42, -49, -127, -30, -74, -12, -63, -60, -52, -13, -20, 45, 20, -79, 27, -127, -10, 33, 127, -127, -127, -127, 13, -43, -46, -75, 49, 52, 38, 3, -27, -10, -82, 22, 8, -57, -93, -8, 16, -1, -3, -59, 32, 68, -26, 49, 24, -43, 127, -45, 29, 27, -119, -56, -26, -42, 51, 127, 10, -89, -13, -31, -127, 46, -44, 108, -57, 47, 45, -40, 12, -55, 113, 77, -1, 4, -28, 59, -127, 101, -127, -125, 127, 50, -4, 32, -23, -45, 18, -1, -127, 65, 11, 10, -49, 30, -24, 127, 44, -18, 36, -46, -102, -18, -106, 127, 25, -36, 127, 43, -2, -46, 127, 40, 66, -96, 12, 127, -56, -27, -69, -76, 111, 42, 50, 46, 36, 8, 127, 9, -47, -8, -35, 72, 54, -87, 51, -46, 17, 12, -121, 9, -48, 12, -70, -90, -63, 5, -99, -58, 127, -27, 15, -15, -68, 1, -55, 5, -47, -3, -2, -102, -50, -98, -105, -5, -37, 127, 12, -26, -35, -52, 58, 31, -100, -127, -1, -127, 51, 12, -35, 30, -33, 80, 126, 27, 56, -35, 83, 127, 127, 95, 10, -2, -120, -68, 127, -42, 40, -86, -105, 28, -74, -127, -37, -47, 29, -102, -67, -14, 126, -127, 49, 23, 53, 48, -105, 127, -56, 38, -15, 23, 43, -23, -24, -17, 127, -125, 127, -121, 30, 32, -43, -48, 127, -123, 59, 127, -127, -127, -98, 127, -125, 116, -86, -127, -127, -120, 127, -73, 127, 127, 127, -127, 120, 88, 127, -122, 36, -127, -127, 127, -127, -127, -127, -127, -127, -127, -74, 127, 3, -116, 127, 124, -105, 3, 108, -73, -126, 127, 127, -51, -127, 127, 127, 127, -88, -127, -127, 127, 127, 127, 52, -1, -127, -127, 127, -115, 127, 127, -127, 127, 127, -127, -83, -127, 127, -127, 127, -127, -40, -127, 127, -50, 127, -127, -127, -127, -111, 127, -127, -127, 127, 127, -127, -127, 127, -127, -69, -21, -127, 127, -127, 127, 18, -127, -11, -120, -46, -67, 127, 127, 127, -127, 127, 127, 69, 127, 127, -127, -127, 127, -69, -100, 127, -127, 127, -66, 87, -127, -127, -125, -127, -127, -79, 127, 127, -80, -80, 127, 127, -10, 127, -120, -127, 127, -127, 127, -127, 127, 127, 127, -127, 127, 9, 10, 127, 127, -72, 127, 127, -127, 127, -127, 127, 51, -5, 127, -127, 127, 127, 127, -127, 127, -83, -127, -75, -82, 127, 127, 127, 127, -77, 3, 127, 18, 127, -100, -127, 116, -127, -127, -127, -53, 127, -89, 127, 127, 127, 127, 127, 81, 127, 124, 127, -119, -75, 127, -32, -127, 78, 127, 127, -127, -127, -92, -13, -127, 127, -111, -9, -127, -15, -83, 127, -127, 39, 127, 127, 28, -59, -85, 127, -120, -90, -92, -127, 93, -127, 127, 127, 127, -127, -105, 127, 127, 127, 127, 127, 127, -100, -127, -53, -48, -12, -12, 127, 127, -108, -51, 3, -76, -12, -36, 34, 14, 0, 12, 127, -2, 127, 18, 8, -17, -22, -48, -50, -48, -16, 22, -33, -17, -22, -2, -96, 17, -20, -24, -26, -5, 18, 9, 37, 40, -27, 11, 0, -39, -24, -38, 2, 113, 73, -6, 127, 32, -35, 127, -37, -16, -10, -27, -19, 25, -21, 6, -14, -20, -127, -11, -49, 15, -26, 13, -8, 4, 6, -24, -18, 3, -52, -18, -15, 97, 4, 5, 2, -3, 18, -26, -27, -16, 29, 30, -65, -3, -2, -41, -31, 12, 62, 11, -29, 20, -29, -8, -28, -27, -4, 5, 100, -5, 75, -48, -75, -16, -28, -8, -42, 3, -33, -20, 58, -42, -42, 0, -2, -7, -16, -35, -3, 14, -4, -21, 2, 15, 69, 13, 98, 28, -55, -18, -35, -22, -1, -9, 18, -76, 12, 0, -12, -21, 19, 18, -95, -8, -80, -6, 45, 0, -10, 6, 2, -29, 127, 19, 4, 31, 26, 26, -27, 15, 127, -14, 7, -15, 66, 13, -9, -39, -13, 16, -47, -23, -19, -74, -48, 0, 15, -3, -35, 2, -32, -37, 31, -104, -32, 21, 13, -10, -25, -18, -45, -74, 40, -11, -65, 61, -9, 66, -20, 127, 127, -15, -12, -29, -127, -22, -7, 12, -56, -31, -51, 49, -13, 127, 127, -24, -110, -19, -19, -27, 90, -10, -16, 63, -30, -23, -23, -62, -17, -11, 5, 38, 63, -14, 12, -8, -41, -27, -26, 5, -54, -5, -56, 17, -2, 28, -64, 74, -111, 127, -1, -17, -42, 76, -6, 36, 9, 1, 23, 6, 21, -34, 4, -19, -19, 63, 15, -8, -1, 13, -9, -4, -1, 53, -34, -41, -30, -1, -83, 4, 29, -16, 9, 21, 3, 1, 29, 29, -42, -37, 46, -26, -1, -16, -18, -24, 34, 15, -2, -2, 0, 10, 90, -28, -23, -20, 55, 9, -6, -37, -26, 19, 9, 12, 54, 30, -13, 9, -9, -29, 6, -19, -7, -23, 6, 14, -11, 0, 4, -16, -20, -4, -14, -10, -6, 35, 11, 27, -18, -6, 12, 3, 3, -15, -13, 4, -29, 10, 22, -7, -14, -8, 8, -37, -21, -9, 10, -17, 8, 39, -8, -15, -12, -9, -19, -10, -37, 10, -7, 6, 5, -8, 48, 5, -26, 8, -8, 37, -6, 12, 20, 25, -8, 18, 20, 3, -19, -11, 22, -16, -25, -42, -49, -9, 9, 5, -15, -12, -2, 11, 30, -15, 11, -2, 102, 10, -5, -17, 2, -17, -13, -43, -9, 14, -2, 26, 23, 0, 16, -6, -15, -23, 17, -21, -22, -8, 11, -9, -8, -12, 1, 33, 3, 33, 3, 42, -3, -84, 2, -91, 48, -26, 9, -14, -11, -7, -15, 13, -37, -24, 5, 13, -4, -33, -12, -5, 12, 1, -23, -3, -37, -59, -10, 8, -22, 11, -14, 6, 18, -8, -19, 4, 10, 0, -15, 1, 22, 3, 11, 17, -10, -4, 2, -35, 48, -4, -2, 9, 2, -2, -12, -29, 18, 18, -1, -14, -4, -17, 18, -24, 9, -34, 18, 61, 13, -14, -23, -3, 127, 86, -51, 31, -1, -5, -54, 0, -15, 6, -62, 40, 64, 86, 14, -5, -17, -10, -40, -33, -33, 51, -82, 68, -26, -21, -80, 23, -35, -38, 47, 1, 11, 23, 44, -52, -88, -53, 50, -65, -34, -61, 6, -1, -47, -9, 13, -6, -7, -1, 63, -58, -12, -14, 127, 23, -37, -66, -41, -17, 56, -24, 126, 27, -7, -8, -18, 6, 7, -40, -18, -16, -22, -4, -23, -37, -20, -1, 127, 2, -22, -20, -28, -16, 28, 23, 22, -14, -8, -25, -3, 0, 29, 8, -49, 18, 0, -11, -37, -30, 13, -90, 76, -23, -44, -58, 19, -22, -21, -9, -46, -68, -42, -25, -122, 15, -47, 30, 6, -30, 127, -20, 2, 18, 0, 127, 15, 19, -71, -19, -1, 36, 79, 37, -39, -48, -23, -15, 0, -93, 10, 1, 14, -33, 18, 23, -97, -35, -78, -15, 27, 6, -6, 57, -70, -26, -36, -5, -8, -94, 26, 18, -24, 86, 95, -43, 15, -19, 86, -37, -6, -43, -16, 10, -20, -50, 9, 6, 16, -111, -62, 127, -33, 114, -41, -31, 25, -69, -53, 16, 16, 4, -25, -36, -6, -66, 41, -16, 0, -12, 14, -38, -63, -27, -6, -10, -90, 60, -95, -19, -16, 22, 6, -25, -14, 6, -17, 4, -2, 15, -2, -43, -36, 11, 127, -19, -3, -5, -47, -16, -23, -69, 127, 3, -3, 28, 2, -7, -4, -7, 27, -24, 7, 14, -28, -4, -72, -19, -1, -1, -13, -74, 16, -19, 1, -14, -35, 26, 2, 24, -23, 0, 25, 4, 15, -23, 4, -8, 18, 103, -11, -6, -7, -1, -5, -8, -1, 32, -13, -20, -15, -3, -37, -2, 22, -10, -2, 10, 0, -1, 27, 12, -7, 12, 13, 31, 4, 17, -2, 18, -69, 31, -9, 5, -5, -16, 5, -1, -21, 0, 26, 8, -4, -1, 1, -7, -4, -1, 20, 16, -13, 2, -2, -25, 8, -10, -5, -5, 9, 20, 3, 7, -13, -7, -24, -6, -5, -13, 2, 14, 1, 9, -12, -1, 12, 6, -10, -11, -5, 7, -17, 0, -25, 1, -27, -1, 14, 5, 55, -9, -14, 15, 7, -17, -6, -7, -2, 4, 2, -5, -30, 8, 7, 7, 5, -3, 17, -5, -18, 3, -6, 15, -16, 4, 8, -2, 4, -7, 54, -12, -3, 3, -5, -6, -29, -7, 15, -1, 5, -5, 23, -4, 25, -25, -25, -12, 6, -4, -14, 4, 5, -8, 9, -2, -10, 10, -10, -14, 5, 15, 14, -14, 5, -3, 16, 26, 14, -4, -17, -3, 8, 2, -10, 9, -11, 19, -3, 17, 9, 18, 9, -30, -3, -51, 51, -32, 3, 3, -3, 3, 11, 28, -45, -18, -5, 1, -6, 3, -10, 28, -14, 0, -5, -27, -68, 16, -7, 0, 2, 2, 11, -14, -10, 3, 18, -7, -2, 12, 2, 7, 9, 4, -2, 2, 7, 0, 1, -12, 12, -7, -4, -26, -1, -2, -15, -24, 12, -6, -8, -23, 0, -8, -14, 7, 1, -16, -7, -3, -7, 20, -5, 4, -41};

static const int32_t L009_dw_bias[256] = {-3213, -362, 4403, 15899, -4088, 4621, 12179, 4461, -3272, 193, 1549, 580, 1347, -158, 1055, 967, -636, 1226, 1455, -2270, -2243, 6157, 5832, -1067, 26979, 28116, 25846, 21408, -771, 81, 12818, 10591, 9895, -1570, 3094, 892, -106, -837, 86538, 5742, 54, 704, 488, 10106, 21878, -3073, -1141, -2475, 1735, -2558, -947, -471, 12286, 1440, 26058, 29722, -2524, -2330, -2734, 37518, -5932, -2265, 12069, 433, 35308, -9644, -7984, 12100, 1329, 1442, 31815, 327, 30944, -5590, 3714, 4236, 35579, 2811, 3539, -4703, -35, -2197, 21994, 7365, 20596, 37931, -4347, 18336, -1323, -826, -5115, 1471, 15773, 6729, 20687, -1183, 353, 32692, 10262, 33880, 12955, 7227, -618, 184, 33148, -1321, 11442, 6500, -6788, 5475, 45933, 3901, 6550, 160, -3677, 5159, 22389, 47295, -2215, 971, 1733, -843, 20759, -10787, 1801, 9433, 31210, -1666, -859, 1091, 33865, 841, -6048, 7486, 610, -2169, -1852, -12272, 35161, -11082, 1706, 19942, 12775, 13699, 11181, -2815, -6767, -119, -2876, 7574, -461, 2927, 12382, -1735, 2341, -820, -3962, -4323, 30693, -8395, 18682, -2439, -1894, -1086, -1196, 18521, -2383, 538, -2726, 35446, -125, 85277, 48613, 198, 974, 3164, -3241, -2470, -1566, -119, -24, -2195, -114, 4987, 49811, 2673, 25425, 28403, 39066, 27071, 8222, 5905, 672, -4105, 13449, -18343, -1063, 18081, 901, -11461, 9389, -5536, -350, 2182, -3650, 159, 15081, 15, 2622, -2429, 29881, 17228, 317, -40, -214, -1021, -1381, 752, 25934, -510, 193, -4036, 66282, -132, -966, -4029, 5990, 462, 562, -6632, 40712, -569, -1868, 574, 790, 727, -6285, -7862, -2446, 14863, 880, -4259, -7656, 3003, -5352, -3338, -5591, 2124, 36060, 504, 14, -227, 15, -4711, -7593, 6174};

static const int32_t L009_dw_output_multiplier[256] = {1126737664, 1683146496, 1780046336, 1593151104, 1744688000, 1225838336, 1875074432, 1367515264, 1081282688, 1139510016, 1239187840, 2108727424, 2131893248, 1876245376, 1197627136, 1230156160, 1625301504, 2046534656, 1404611072, 1682652032, 1282507136, 1245948416, 1691996544, 1579815168, 1681202048, 1354574976, 1302474240, 1427295232, 1246989568, 1171997184, 1603611008, 1640324864, 1940471040, 1092148224, 1247260288, 1168269440, 1172935552, 1723211648, 2063179648, 1597094016, 1619833216, 1244068608, 1102764928, 1699217920, 1632926208, 1224157696, 1605694336, 1830084224, 1993397120, 1111476608, 1693003520, 1894420992, 1763400704, 1415253888, 2064802304, 1530052480, 1260147968, 1687000832, 1429116800, 2026230912, 1453825024, 1746272384, 1489735808, 1088069504, 1982668160, 1372501120, 1594284928, 1177620992, 1105886976, 2128816128, 1782875008, 1097301376, 1468753792, 1193421184, 1575454976, 1764588032, 2042674304, 1742849408, 1162758912, 1255534208, 1999915776, 1996353024, 1624538112, 1569220736, 2050298368, 1689275648, 1353839232, 1798716160, 1862997888, 1092675584, 2092499072, 1515451136, 1319695616, 1161539456, 1510634624, 1460240384, 2059257984, 1098280448, 1826805376, 1321897216, 1099671808, 1218346496, 1696637184, 1608364800, 1552710656, 1475974528, 1279919232, 1284547456, 1095290752, 1504037248, 1494813952, 1326217600, 1460197632, 1080005376, 1310022656, 2117589248, 1318811520, 1734400128, 1320542592, 1504105216, 1963665280, 1773340032, 1472447360, 1749537920, 1350391936, 1729477888, 1674585472, 1358980608, 2067633152, 1247797504, 1159264768, 1569338880, 1223770752, 2022776704, 1940772992, 1814096768, 1699144064, 1736856064, 1084762624, 1403444608, 1628934528, 1548058240, 1282887936, 1677785600, 1364378368, 1128244224, 1482912256, 2142226688, 2071407232, 1956476032, 1159592320, 1862905984, 1618175488, 1360428416, 1342079744, 1955718912, 1890878080, 1075930880, 1540936960, 2081845888, 1098161536, 1875312256, 1315238016, 1489917312, 1615198592, 1771160064, 1194134016, 1606113024, 1544529920, 1831040000, 1395740416, 1556506880, 1106468352, 1100390528, 1761052928, 1087078656, 1294839552, 1189049344, 2006436480, 1543472000, 2145231104, 1801844736, 1114255616, 1440658688, 1735656576, 1741373312, 1256829056, 1206435968, 1348406912, 1090881152, 1621157504, 1184871936, 1802435712, 1201883904, 1683495424, 1245877376, 1115444992, 1076598144, 1448827520, 1461480192, 1587652992, 1139869312, 2115534464, 1814356352, 1386105600, 1266005248, 1362493056, 1820861952, 1557734144, 1917840128, 2020230272, 1738613888, 2069832704, 1276334336, 1656536576, 1950673408, 1100234112, 1509397632, 1661775616, 1343681536, 2023006336, 2114719872, 1818070656, 2131523072, 1184592128, 1861829120, 1087100416, 1671169024, 1501374720, 1294596096, 1286719488, 1963237760, 1309790336, 1143622912, 1344215936, 1463562112, 1075798144, 1128385280, 1113237888, 1322002816, 1731587200, 1771104768, 1744693888, 1836815488, 1409843968, 1156468352, 1804329856, 1485687808, 1104435072, 1214892416, 1971271552, 1455625984, 1108441472, 2083478784, 1137157888, 2060665472};
static const int32_t L009_dw_output_shift[256] = {-7, -6, -7, -6, -6, -6, -6, -6, -7, -6, -6, -7, -7, -6, -6, -5, -6, -6, -5, -6, -6, -7, -7, -7, -7, -8, -6, -6, -5, -6, -6, -5, -6, -6, -6, -6, -6, -7, -9, -6, -7, -5, -6, -7, -7, -5, -7, -7, -6, -5, -7, -7, -7, -6, -7, -8, -6, -6, -6, -8, -6, -6, -6, -6, -8, -6, -7, -5, -7, -7, -8, -5, -7, -6, -7, -6, -8, -6, -5, -6, -7, -5, -7, -6, -7, -9, -7, -6, -6, -6, -7, -6, -5, -7, -7, -4, -8, -7, -7, -7, -6, -7, -6, -7, -8, -6, -6, -6, -6, -6, -9, -6, -6, -5, -7, -7, -6, -8, -6, -6, -6, -7, -7, -7, -6, -6, -7, -6, -6, -6, -7, -8, -7, -6, -6, -6, -7, -7, -7, -6, -5, -6, -7, -6, -7, -6, -6, -7, -7, -6, -7, -7, -7, -6, -5, -7, -7, -6, -8, -7, -6, -7, -7, -7, -7, -7, -6, -7, -6, -8, -6, -9, -7, -5, -6, -6, -6, -6, -7, -6, -7, -6, -6, -6, -9, -6, -8, -7, -8, -6, -6, -6, -6, -5, -6, -6, -6, -6, -6, -6, -8, -6, -6, -6, -6, -6, -7, -7, -6, -7, -7, -7, -6, -7, -6, -8, -5, -6, -8, -6, -6, -7, -9, -8, -7, -6, -6, -6, -6, -6, -8, -6, -6, -5, -6, -5, -6, -6, -6, -6, -6, -6, -7, -6, -6, -6, -7, -6, -8, -6, -7, -6, -6, -7, -6, -7};

#endif  // LAYER_009_DEPTHWISE_CONV_2D_H_
