#ifndef LAYER_016_DEPTHWISE_CONV_2D_H_
#define LAYER_016_DEPTHWISE_CONV_2D_H_

#include <stdint.h>

// op_index=16 op=DEPTHWISE_CONV_2D
// input:  idx=73 name=sequential_1/mobilenet_1.00_128_1/conv_pw_7_relu_1/Relu6;sequential_1/mobilenet_1.00_128_1/conv_pw_7_bn_1/batchnorm/add_1;sequential_1/mobilenet_1.00_128_1/conv_pw_7_1/convolution; shape=[1, 8, 8, 512] dtype=int8
// weights: idx=27 name=tfl.pseudo_qconst25 shape=[1, 3, 3, 512] dtype=int8
// output: idx=74 name=sequential_1/mobilenet_1.00_128_1/conv_dw_8_relu_1/Relu6;sequential_1/mobilenet_1.00_128_1/conv_dw_8_bn_1/batchnorm/add_1;sequential_1/mobilenet_1.00_128_1/conv_dw_8_bn_1/batchnorm/mul_1;sequential_1/mobilenet_1.00_128_1/conv_dw_8_1/depthwise; shape=[1, 8, 8, 512] dtype=int8

#define L016_DW_OUT_CH (512)
#define L016_DW_KH     (3)
#define L016_DW_KW     (3)
#define L016_DW_STRIDE_H (1)
#define L016_DW_STRIDE_W (1)
#define L016_DW_DILATION_H (1)
#define L016_DW_DILATION_W (1)
#define L016_DW_DEPTH_MULTIPLIER (1)
#define L016_DW_PAD_H (1)
#define L016_DW_PAD_W (1)

static const int32_t L016_dw_input_offset = 128;
static const int32_t L016_dw_output_offset = -128;

static const int8_t L016_dw_weights[4608] = {-3, -2, 18, 11, 3, -22, -41, 5, 13, 36, -74, 24, 2, 28, -5, 35, -21, 14, 17, -42, -15, -5, 0, 16, 3, -20, 38, -1, -4, -47, 6, 16, 43, 22, 11, -32, -31, -91, -8, 5, 56, 24, 21, -8, -7, -6, 11, -34, -2, -14, -10, -59, 2, -12, -127, 27, 10, -25, -2, -4, 72, 9, 18, -40, 97, -1, -14, 0, 0, -27, -6, 5, -35, -5, 8, 14, 57, 0, 2, -33, 0, 6, 13, 3, 6, -76, 29, 97, 9, -39, 5, 30, 6, -31, -2, 9, 17, -52, 35, 2, -6, 37, 17, 5, 87, -3, 127, -14, 7, 29, 64, 3, -32, -45, -27, 13, 2, -2, -5, 18, 27, 46, 38, -2, 5, 13, -8, 7, 12, 3, -17, 21, -104, -100, 5, 14, -10, 0, 67, -12, 22, 2, 28, -11, 2, 11, -101, -9, -11, 6, -6, -3, 30, -11, 8, -30, 25, 29, 52, 43, 24, 10, 0, 7, -53, -33, 4, -1, 15, -32, -17, -48, -1, 16, 25, 4, 38, 0, -20, 17, -1, -35, 15, -29, -2, 12, 42, 87, -8, 27, -2, 23, -12, -1, 27, 20, -17, -5, 23, -3, 1, 1, -10, 4, 40, -12, 16, -42, 0, -3, 10, 12, -18, 31, -116, -6, -11, -2, 8, 25, -6, -39, 32, -62, 6, 12, 41, 13, 5, 4, 19, -16, 33, -37, -33, 10, -51, -5, 7, 4, 47, 4, 0, -2, 2, 34, -1, -13, 10, 24, 39, -9, 20, 6, 13, 17, 18, 3, -23, 6, 8, -14, 69, 0, 0, 117, 19, -11, 15, 4, 4, -23, -8, -28, 50, 21, 15, 0, 15, 3, -73, -5, -66, -118, -10, 20, -91, -11, 10, -16, 96, 6, -24, -1, 82, -85, 87, -7, -76, 8, 75, 4, 29, -3, 17, 5, 1, 4, -54, -8, 99, 90, 6, 4, 54, 35, -8, 18, 15, -9, 18, -74, -7, -34, -2, 8, 12, 11, 16, 20, 9, 14, 13, 3, 91, -34, -4, 28, -2, -4, 34, -5, -57, 8, 1, -6, -8, 40, 14, 29, 102, -4, 21, 28, -5, -13, -30, 13, 4, 4, -5, -3, 0, -35, 5, 24, 71, -3, -10, 28, -17, -2, 21, 57, -4, -8, 10, 2, 5, 0, -12, 16, -10, -25, 35, -8, 0, 27, 8, -40, -102, 11, -25, -22, 73, -1, -25, -19, 47, 18, 18, 5, 3, -17, -24, 6, -3, 6, -8, -125, 7, 13, 11, -1, 12, 4, 5, -16, 18, 8, 1, 5, -12, -28, 3, -2, 27, 2, -17, -16, -5, -1, 1, 9, 2, -45, -8, 0, 18, 2, -7, -2, 30, -8, -2, 18, -7, 21, -6, -56, 28, -2, -117, 9, 58, 20, -24, -28, -13, 11, 15, 70, -5, 8, 38, 32, 8, -68, -31, -21, 39, 74, 5, -31, 12, -127, 2, -16, 9, 2, 1, -45, 0, -2, 1, -14, -8, -9, -6, 2, 28, -35, -19, 37, 15, -88, 11, 25, -38, 20, -8, 21, 66, -17, -12, 41, 20, -121, -4, -48, -1, -9, -11, 19, 31, -4, -8, 14, -120, 7, 19, -30, -108, 127, 14, 45, -73, 123, -51, 22, -14, 6, 20, -9, -57, 69, -38, -39, 30, 14, -15, 14, -21, 36, -67, -2, -19, 8, -72, -127, 59, -3, 7, -31, 51, 29, 43, 14, 0, -41, 19, -4, -114, -127, -4, -6, -99, 127, 5, -1, -52, -37, 7, -15, 44, -127, 97, 13, -16, 115, 31, 29, -11, -16, 9, -8, 6, 33, 127, -12, -7, 124, 2, 3, 127, 11, 3, -127, 30, 127, 5, -54, 17, -26, -37, -118, 6, 127, -19, -47, -31, -20, -3, -77, 33, 2, 127, -11, -62, -28, -45, 127, 8, -31, -22, -38, -5, -70, -20, 9, -24, -2, -41, 127, -26, 127, 0, 23, 127, -24, -1, 34, -96, 5, -127, -65, 5, 4, -53, 6, 90, -17, -12, -7, 127, -122, 11, 2, -39, -6, 19, -6, -31, -20, 42, 4, -2, 18, 127, -30, 61, 1, 38, 41, 24, -30, -96, -125, -28, -70, -83, 8, -34, -71, -5, -2, 59, -41, 6, 24, -48, 19, -14, -120, 127, -60, 24, 10, -27, 19, -6, 127, 15, 113, 34, -42, 23, 20, 7, -2, 56, 12, -40, -12, 12, -1, 9, 26, -9, -88, -5, -21, -27, 31, -52, 16, -115, -34, -15, 9, 12, 84, -66, -79, 60, -44, 35, 8, -43, 48, 17, -2, -87, -87, 127, -66, -25, -9, -70, 29, 9, -5, 125, 8, -62, 26, -14, 127, -5, 1, -13, -5, 88, -10, 80, 28, -49, 30, 5, 25, 16, -31, -3, -57, 127, 39, 25, 121, 29, -40, -52, -10, -9, -17, -6, -33, 42, -18, -53, -63, 2, 9, -73, 13, -127, -89, -27, -10, -75, -50, -127, -38, 11, -21, 5, -5, 96, 85, 102, 5, -109, 5, 108, -15, 127, 127, 23, 9, -35, 46, -127, -6, 74, -93, 9, 26, 127, -32, 28, 8, -47, 0, 127, -91, -67, -59, -68, -17, -15, -31, 10, 33, 6, -73, -8, -30, 94, -25, -1, -30, -43, -21, 28, -26, -15, -28, -22, 0, -8, 127, 15, 61, 26, -8, 26, -2, -12, -29, -12, 6, -5, -127, -66, -8, 127, -37, -9, -18, -77, -3, -87, -62, -125, -5, -20, 9, -36, 6, 21, -4, -39, -8, -39, 33, -26, -24, 127, 15, 0, 127, 10, -117, -102, 32, -69, -61, 93, -23, -24, -21, 101, 7, 0, 8, 14, 23, 35, 100, -10, -15, -97, -71, 127, -1, 38, -45, 13, -18, -12, -87, 127, -45, 6, 16, -127, -31, 120, -33, -12, 127, -6, -52, 127, -3, 9, 39, 16, -58, -99, 19, 15, 58, -2, 43, 117, -5, -78, 22, -76, -118, -19, -16, 11, 43, -39, -12, -9, 118, -101, -60, 127, -49, 52, 127, 127, 3, -127, -34, 9, -127, 57, -63, 20, -67, 14, -114, -11, -48, -27, -38, 15, -25, 13, 18, -10, 18, 8, -40, 2, -20, -48, 8, -89, 36, 10, 87, -19, -103, -119, 23, -23, 127, -127, 24, 120, -61, -13, -13, 32, -49, 45, -44, 16, 22, 0, 0, 9, -13, 4, 55, -42, 1, 13, -13, -68, -46, 10, 28, -4, -55, -18, 6, 23, 42, 12, 22, 2, -62, 1, -4, -57, 2, -19, 4, 17, 9, -9, 17, 7, 74, 71, -74, 32, -4, 21, 39, 64, 0, -10, 0, 1, 19, 6, 26, -34, -35, 2, -4, -107, 15, 6, 8, 5, 11, -41, 14, 27, -33, 75, -6, -57, 40, -4, 29, -5, -3, 17, -1, -36, 26, 42, 1, 1, 86, 2, 6, 13, -4, -8, -34, 1, 99, 5, -25, 6, 38, -4, 4, 4, 19, 21, 5, 85, 0, -1, 45, 14, 12, 91, -1, -56, -9, -10, 18, 38, 12, -42, -13, 14, 20, 0, -7, -5, 7, -35, 36, 25, -23, 4, 12, -7, 2, -17, 9, 17, 24, -63, -127, 4, -1, -3, -9, 92, 33, 19, 3, 7, -23, 3, 7, -4, 5, -10, 5, -3, -2, 18, 96, 11, 2, 31, -2, 47, 23, -37, 9, 0, -4, -44, -31, 0, 5, 39, -59, -1, -44, 4, 2, -58, -5, -10, 3, -22, 8, 8, -42, 17, -11, 2, 15, -29, 4, 87, 29, -17, 3, -23, 5, 27, 47, 72, -2, 24, 6, 6, -5, -4, -6, 35, 17, 10, -44, -4, -3, 6, -6, -50, 20, -79, -11, -2, -1, 6, 33, -5, -35, 49, -59, 6, 6, -17, 17, -17, 2, -43, -45, 65, -20, -34, 7, -21, 2, 10, 4, 81, 11, -30, 3, 4, 8, -1, -36, 3, 24, 40, -4, 14, 3, -25, 13, 16, 4, 31, -4, 9, -4, -19, 50, 0, 36, 17, -5, 15, 1, 1, 16, -9, -39, 50, -34, 1, -8, 10, -6, 21, -6, -61, -104, -7, -13, -50, 0, 18, -12, -27, 34, 31, 0, 82, -23, 84, 24, -59, 9, 54, -16, 31, -11, 0, 2, 5, -46, -41, -5, -10, -38, -3, 2, 54, -34, -19, -10, -11, -3, 22, -21, -14, -36, -3, -5, -44, 62, 9, 9, 4, -49, -18, 1, -26, -11, -3, -6, -3, -8, 33, 30, 76, 6, -29, -11, -3, 18, 3, 18, -7, -6, 11, -76, 0, 24, -25, 12, 2, 0, -25, 1, 53, 49, -3, 16, -1, 10, -8, 23, -2, 0, -41, -14, -3, -6, 11, 3, 4, 5, -16, 12, -3, 20, 105, -3, 21, 34, 3, -126, -120, 13, -20, -19, 35, 1, 127, 66, 20, 3, 5, 2, -3, -3, 24, 19, -5, -12, 4, -127, 14, 5, 4, -18, -7, 0, -3, -49, 3, 6, 5, 5, -42, -66, 4, 13, 42, 40, 20, -15, 5, 10, 1, -5, 1, -55, -22, 2, 7, 15, -8, -7, 28, -6, -42, 16, 2, -42, 0, 47, -21, 3, -70, -21, 7, 27, 15, -27, 0, -9, 47, 70, 3, 0, -16, -44, 13, -24, -41, 35, 32, -74, -3, -28, 24, -102, -28, -6, 8, 5, 10, 10, 2, 15, 5, -5, -8, -8, -6, 3, 22, -41, 17, 58, 7, -23, -127, 20, -11, 46, -22, 12, -70, 4, -11, 8, 19, -90, -1, 59, -4, 59, 3, -3, 15, 12, -3, -18, -72, -1, -5, 127, -125, -11, 5, 30, -27, -54, -7, 31, 12, -48, -121, -38, 25, -33, 6, -77, 18, -119, -19, 16, -38, 29, -47, 17, 99, -89, -19, -120, -56, -17, 127, 30, -43, -25, -30, -19, 127, -34, 11, -8, -42, -114, 3, -62, -68, -4, 25, 71, -19, -10, -30, -18, 8, -24, 87, 11, -112, -90, 27, -127, 0, 8, -127, -11, 37, 18, 91, -10, -14, -20, -11, 15, 10, 10, -13, 83, 127, 21, 19, -106, 3, 17, 110, -99, 26, 13, 24, -127, 17, -15, -14, 47, 27, 27, -82, -18, 111, 12, 15, 22, 84, 26, -54, -81, -87, 28, -24, -52, -16, 44, -84, 41, 92, -22, -3, 24, -15, 35, 20, -17, -117, 11, -113, 39, -3, 6, -52, -11, -5, -31, 26, -5, 27, -12, 4, -37, -127, 12, -53, -4, -15, -10, 29, -27, 5, 127, 52, 127, 96, 127, 16, 7, -4, -17, -49, -29, 36, -25, 45, 94, -91, -1, -4, 127, 98, 27, 61, 7, -38, 22, 40, -125, -39, -91, 0, 38, 94, 127, 19, -3, -59, 50, -3, -14, 25, -36, -66, -2, 23, 34, 1, 5, -14, -24, 30, -45, -23, -58, -2, -4, 36, -4, -47, 23, -127, -24, -5, 14, 17, 19, -21, -34, 7, -20, 11, -4, -40, 19, 16, 0, 127, -73, -8, 74, -46, 76, -84, 7, 2, -6, -42, 127, -65, -24, -24, 51, -11, -20, 14, 14, -46, -21, 71, 7, 33, 31, 3, 40, -60, -70, 2, -49, -22, 49, 16, 127, 43, -27, 43, -28, -1, -10, -37, -75, 42, -20, 69, -41, 5, 17, -72, -10, -70, -112, -5, 127, -95, -63, -12, -55, 127, -65, -78, -8, 121, 127, 80, -29, -90, 9, 127, -9, -78, 2, -11, -3, -6, 43, -29, 0, 127, 127, 7, 14, 25, 24, 4, 9, -4, 119, 17, -33, -69, -104, -53, -61, -26, 8, 22, 22, 2, 67, -17, 49, 110, 127, -15, 116, -26, 5, 44, -127, -79, 126, -18, -6, -22, 6, 20, 38, 127, -11, 7, 127, 24, -4, 78, 1, 3, -69, -72, -7, -60, 27, 15, -35, 124, -28, -32, -16, -127, -15, -21, 127, 22, 21, 19, -11, 7, -2, -43, 11, -30, -9, -15, -17, -55, -3, 5, 59, -36, 54, -31, -127, 127, -109, -75, 24, 47, 1, -6, -30, 0, -41, 25, 42, 0, 1, -6, -68, -16, 8, 39, 13, 127, -12, 19, 26, -58, 19, 6, 8, 0, -127, -1, 127, 51, 35, 7, -30, -9, -64, 3, 71, 29, -17, 35, 3, 127, 23, 31, 21, 41, -26, 64, 6, -7, 116, -15, -7, 127, 37, 70, -22, 2, -15, 90, -61, 0, -37, 65, 52, 14, -38, -121, 110, 53, -2, -42, 35, 18, 127, 3, -70, 26, -50, 127, 16, 13, -10, 9, -10, 15, 8, 2, -30, 13, -29, -18, -18, -17, -87, 3, -66, 102, 56, -14, 16, -127, -28, -96, -11, 85, -4, 48, 127, 27, -91, 0, -36, -5, -62, 9, 127, 127, -127, 127, 127, -127, 127, 127, -6, -127, -38, 127, 127, 127, 127, 0, 127, 127, -127, 127, -127, 127, 19, 127, 127, -127, 127, 53, -127, 127, 127, 127, 127, -127, -42, -88, 20, 127, 127, 36, -13, 120, 127, 127, 127, -38, 127, 127, -127, -127, -125, -127, -127, -91, 1, 127, 127, 91, -119, 127, -127, 127, 35, -127, 127, -127, -18, 127, -40, -127, 127, -21, 127, 127, 127, 9, 127, 127, -31, -127, 127, -5, 127, 127, 32, -81, -113, 127, -127, 127, 127, -127, -124, 127, -65, -64, -55, 28, -127, -127, 127, 127, -37, -42, -127, -86, 127, -127, 56, -127, 127, -102, -127, -127, 127, 127, 127, 127, 127, -127, 62, -127, -89, 127, 127, -72, -127, 127, -127, -33, 127, -37, -3, 127, 127, -127, 127, -127, -127, -22, 127, 16, -127, 127, 127, 50, 127, 127, -127, 127, -127, 127, -29, 127, -61, 100, -13, 127, 23, -127, 127, 127, -127, -127, -127, -127, 127, 127, 127, -127, -127, 127, 56, 127, 127, 127, 127, -127, 127, -127, -127, -88, 127, 127, 127, -127, -88, -25, -40, 127, 127, 127, -127, 127, -10, -59, 127, 127, 127, 127, 127, 127, 127, 127, -54, 127, -127, 127, 127, 127, 127, -107, 127, -104, -71, 127, 127, 127, 127, -100, -127, 127, -127, 127, -42, 53, 127, -63, 127, -91, -127, -30, 110, -127, 74, -127, 127, 127, -45, -127, -11, -127, 127, 127, 69, 127, -22, 127, -14, -127, -127, -127, 127, 127, 127, 127, 127, -127, 79, 127, -127, 22, 127, 127, 105, 127, 127, 118, 127, -127, 127, 127, -127, 127, -127, 127, -127, 127, 127, -127, -127, -113, -127, 41, -101, -127, -127, 107, 127, 12, 127, -103, 127, 98, 79, -127, -127, -127, 127, 82, -72, -126, 46, 127, -14, -127, 127, -112, -127, -72, -38, 127, 127, -57, 127, 127, 127, 127, -127, 10, -112, 127, -127, -127, 127, -40, 103, 127, 127, 127, -119, 127, 127, 127, -67, 127, -127, 127, 127, 127, 7, -45, 127, 127, -127, -127, -51, 127, 127, -77, 127, 127, -29, 127, 53, 127, 127, 127, -102, -127, 127, 71, 42, 127, 127, -127, -4, 127, -127, -114, 127, -127, -41, 127, 127, 127, 127, 127, -8, 127, 127, 127, 127, -17, -127, -127, -38, 127, 32, -11, 127, -127, 45, -116, -127, -39, -12, 127, 127, -62, 127, 127, 127, 127, 127, -127, 127, -127, -21, -75, 127, 127, -55, -46, -127, 127, 127, -67, 127, 127, 127, 27, -70, -41, -37, 72, -47, 127, -127, 0, -78, 127, 127, 127, -124, 127, 127, 92, -127, 127, 127, -127, 127, -127, 127, 127, -40, 127, 127, -96, 127, -68, -127, 127, -127, -44, -127, 7, -127, 127, -3, 24, 127, 126, -127, 127, 13, 127, 127, 127, -123, 127, -127, 127, 23, -53, 127, 127, -127, 127, 127, -127, 127, 127, -67, 127, 127, -127, -127, -112, -127, 127, -48, 63, -70, -90, 127, -94, 78, -123, 127, 127, -127, 127, -10, 127, -103, 127, -115, 127, 127, -2, 11, 12, 1, -5, 28, -76, -17, -14, -5, -88, 1, 8, 7, -29, 66, -8, 36, 17, 71, 96, -43, 18, 127, 2, 12, 38, 49, 127, 33, -29, 15, 87, 7, 91, 127, 127, -105, 27, -13, 1, 48, 127, 12, -38, 1, 14, 45, 6, 12, -40, -120, 7, -46, -63, -4, 20, -54, -18, 15, 18, -9, 36, 73, 68, 21, -96, 127, 18, 123, 2, 3, 72, -5, -106, 27, 82, -14, -14, 13, -9, 5, 9, 2, -51, -25, -34, 15, -3, -52, -1, 15, -72, -92, 8, -68, 32, 4, 81, -8, -17, 16, 12, 127, 99, -12, 22, 10, -22, 22, -13, 17, -11, -56, -51, -30, -5, -23, -16, 2, -47, 46, 26, -18, 1, 22, -8, 22, -17, -27, 68, -5, -84, 32, -26, 4, -15, -31, 56, 71, 21, -17, 25, 6, 2, -36, 115, -14, -50, -2, -13, -5, 51, 127, 0, -26, 51, -11, 62, -21, -26, 13, -5, 60, -72, -20, 66, 14, 55, 74, -65, 7, -9, 14, -119, 8, 32, -4, -38, 14, 27, -111, -38, 43, 4, 26, -47, -59, 127, 2, -37, 24, -65, 5, 12, 127, 127, -10, 0, 4, 3, -7, -74, -16, 9, 127, 52, -39, -9, 1, -9, -80, -127, 27, -82, -18, 3, 3, 12, 12, -6, -15, -116, -24, -6, -14, 127, 18, 127, -3, -56, -76, 9, 16, -39, 127, -50, 14, 2, -5, 80, -8, -58, -20, -28, 41, -5, -127, 13, 18, 97, -17, -2, 18, -26, 23, 3, 27, -25, 105, 13, -36, -6, -3, 7, -49, 39, -26, -10, -23, 0, 12, -28, -63, 35, -33, -79, -32, 1, 9, 1, -10, -72, -93, -2, -26, -98, -49, -26, -55, -58, 46, 127, -6, 127, -26, 119, 90, -67, 11, 100, 127, -66, 1, 5, 127, 3, -121, -25, 4, -81, -10, 14, 21, 14, -2, -15, 11, 29, -3, 17, 31, 24, -93, -45, 29, 127, 97, 28, -3, -2, -49, -113, 28, -48, -27, -15, 12, -20, 1, 27, 124, 127, -4, -9, -7, -18, 6, 19, 20, -43, -14, 2, -104, -17, 127, -46, -8, -13, -83, -21, -14, 54, -30, 19, 58, -63, 127, 42, -12, -113, -5, 67, -3, 27, 21, 12, -8, 11, 10, -3, 14, 2, 88, 65, -13, 127, 7, 3, -127, -56, 44, -24, 37, -25, -102, 51, 127, 26, 9, -9, -26, 9, -25, 6, 31, 7, 20, 24, -61, -18, -1, 36, -38, -79, -12, -11, -43, 14, 21, 15, -7, -3, 15, 8, -20, 127, -27, 34, -37, -9, 127, 9, -12, 26, -50, 45, 19, 55, 18, 36, 22, 26, 65, 3, 14, -12, 115, -16, 57, -45, 25, -127, -57, -42, -17, -101, -43, -5, -39, 27, 47, 11, -30, -7, -91, 14, 6, -48, -3, 18, -89, 25, -80, 32, -62, -12, 11, 23, 107, 4, -37, 18, 30, -13, 13, 14, -28, -16, -20, 127, -73, 0, 127, -29, -127, -94, 13, -31, 41, -65, 3, 7, 29, 37, 15, 27, -55, 7, 127, -4, 116, 20, 4, -13, -23, 1, 16, -28, -5, 2, -7, -66, 1, 5, 31, 2, 4, 31, 13, 12, 1, -24, 7, -38, -4, 5, -11, -44, 41, 4, 0, 4, 18, 6, 14, 6, -27, -39, -52, -18, 3, 39, 59, 9, 16, -10, -4, 17, 21, 9, 33, -24, -65, -1, -8, -94, 0, 5, 19, 10, 48, -19, 11, 15, -12, 57, -5, -46, -58, -10, -94, -1, 0, -33, 2, -5, 2, 50, -5, -9, -23, 2, 5, 11, 2, -2, 72, 13, -6, 11, -16, 14, 35, 42, 3, 8, 4, 36, -3, 49, 11, 7, 19, 17, -5, 18, -1, 117, -1, 4, 35, 59, 17, -57, -76, -17, -23, 2, 3, -5, 15, -32, -17, 61, -1, 3, 9, -9, 0, -35, 23, 40, 9, -33, 29, -10, 7, -2, -3, -20, 14, 32, -5, 7, 0, 8, 11, -109, 23, -25, 2, 2, -5, 17, 0, 9, 21, -1, 22, -40, 25, -28, 15, 14, 4, -33, -34, 2, 1, 33, 64, -25, 1, 6, 22, -16, 9, 9, 7, -33, 11, 1, -6, -13, -27, -5, -4, 10, 84, 33, -11, 5, 12, -3, 4, 22, 1, -6, -4, 1, -3, 7, 0, -3, -10, 24, -4, 23, -14, 2, 2, 22, 1, -17, 5, -80, 29, 12, 11, 7, 17, 30, -29, 71, -13, 2, 3, -27, 22, 28, 3, 30, -51, -8, 49, 9, 18, -43, -9, 4, -20, -40, 16, -5, -6, 2, 15, -1, -23, 22, 61, -6, -1, 13, 10, 72, 24, 7, 13, 8, 0, -9, 9, -2, 24, -4, -14, 7, 2, 48, 2, 1, 17, -3, -28, 18, -17, -29, -1, -2, 6, 17, 5, -44, -88, 17, -5, -49, -18, -6, -14, 27, 16, -19, -2, 108, 52, 53, 4, -29, 5, 86, -12, -11, -6, 6, 0, 10, -37, -25, 1, 84, 11, 1, 7, -14, -19, -3, -3, 22, 44, 5, -5, -12, -27, -7, 5, -11, 56, 16, 12, 5, 19, 16, 14, -4, -27, -1, 7, -7, 12, 20, 8, 13, 5, -22, -13, 4, 11, -1, 10, 57, -3, 7, 21, 3, 6, 50, 7, 3, -4, -20, 1, 8, 84, 11, 5, 51, 1, 6, 16, -28, -1, -11, 10, -6, 6, 7, -2, 3, 10, -15, 6, 0, 7, 34, -1, -6, -12, 4, -21, -117, 13, -54, -25, 51, 30, -11, -26, -41, -11, 127, 16, -4, -5, 23, 12, 4, -2, 16, -109, -8, 8, 15, 8, -3, 2, 4, 33, -9, -1, -1, 6, 37, -22, -15, -1, 22, -9, 20, -14, 8, 13, -24, -7, 6, 22, 3, -13, 18, -5, 1, -4, 30, 11, 40, 10, 16, 87, 5, 50, 65, 18, -68, -12, -79, -9, 17, -31, 9, -20, 7, 7, 9, -4, -7, 38, -5, 16, -12, -7, 25, -9, 5, -69, 26, -83, 34, 0, 16, -3, 0, 11, 6, 1, -1, 14, -3, -9, 10, -11, -40, -2, 18, 2, -94, 10, -34, 12, -42, -3, -28, 7, -6, 19, 9, 17, 1, -97, -7, 12, -1, -8, 127, 22, -55, 1, -5, 24, -87, -25, -17, 25, -98, -21, 1, 7, -11, -41, 127, 4, 26, -63, -12, -60, -91, -20, -46, -11, 28, 27, 54, 1, -10, -9, 2, 10, -21, 6, -102, -109, -90, -15, 3, 127, -52, -11, 44, -21, -8, 58, 21, 2, -100, -97, 6, -84, -85, 10, -4, 21, 127, 127, -50, 102, 45, 46, 53, 15, -21, -109, 1, 46, 7, -22, 19, -11, -23, -1, 42, -22, -34, -127, -3, 4, 93, 23, 1, 38, -9, 8, 9, -44, 0, 84, 70, -127, 33, -23, 127, -1, 124, -34, 106, 32, 17, -5, 26, -15, -45, 39, 19, 19, 60, -5, -127, -6, -57, -18, -14, 12, -15, 4, -35, 1, 112, 13, -6, 2, -17, -11, 21, 94, 127, -11, -65, 50, -20, 22, -6, -12, -66, 39, 127, 1, 13, -74, 15, 1, -25, -37, 8, -6, -9, -12, 49, 34, -5, -46, -45, 8, -22, 19, -32, 10, 11, -16, -70, -123, -44, -21, 125, -90, -63, 27, -1, 14, -89, 109, 27, 3, -55, 9, -20, -45, -38, 22, 10, 5, 70, 96, 52, -10, -7, -28, 8, 1, 12, 4, 24, -15, 22, 11, -18, -12, 15, -22, 19, 32, 5, -77, -1, -10, 34, 15, -12, 32, -100, 127, 30, 0, 6, -29, 127, -61, 81, -82, -19, 127, 47, 17, -18, 2, -17, -66, -13, 127, -62, -13, -52, 16, -10, 127, -68, 1, -63, 16, -20, -76, -5, -15, 1, 127, -9, -3, -21, -6, 112, 24, 3, 20, -47, 127, -68, -40, -1, 9, 21, -111, 49, 8, 127, -26, -1, 3, -19, -21, 2, -29, 11, -59, 3, 1, 14, -23, -82, -113, 127, -7, -108, -39, -32, -50, 4, 91, -3, -5, -103, -35, 73, 30, -42, -5, -11, 5, -32, -46, 7, -10, -3, -87, -63, 0, 6, 46, 4, 27, -90, 36, 34, 18, -39, -53, 17, 127, 18, -98, 2, 13, -34, 127, 29, -9, -8, 127, -14, 9, -55, -33, -16, -18, -19, 25, -2, -25, -9, -14, -18, -24, -27, 27, -4, 16, -18, -22, -14, -32, -17, 7, 41, -5, -5, -87, -15, -6, -28, 127, 8, -6, -68, -14, 92, -42, -106, -14, 80, -25, -37, 33, 18, -42, -18, 127, -1, 9, -4, 57, 13, -11, -11, 13, 4, 21, 0, 64, -36, -5, -41, -69, -11, -34, -40, -6, 102, 3, 31, -12, 3, -31, 17, 46, 32, -46, -14, 1, 6, 127, 8, -3, 25, 30, -16, 69, 10, 0, 115, -31, -127, -2, -10, 28, 31, -60, 35, 12, -101, -21, 16, 127, -27, -5, 8, -27, 52, 33, 102, 33, 69, 28, -6, 127, -13, 52, 98, 10, -85, 2, 45, -18, 127, -74, 9, -30, 42, -20, -4, 18, 14, 37, -16, 53, 3, 5, 2, 38, 3, -99, 59, -41, 21, -39, 19, -2, 0, -34, 18, -16, 25, 127, 21, -21, 19, -39, 24, -39, 4, -20, 127, 21, 5, 6, -44, -3, -64, 28, 39, 97, 24, 4, -9, -71, -19, 71, -18, 44, 25, 9, -14, 17, 1, -25, -28, -6, 10, 7, -42, 0, -1, 27, -1, 34, 32, 7, 18, 32, -9, -24, -25, 11, 6, 5, 34, -4, -3, -22, 12, 9, 16, 9, 16, 49, 37, -73, -24, 0, 34, 77, 16, 9, -22, -5, -1, 8, 8, -28, -26, -65, 3, -10, -88, 7, 3, 9, 19, 27, 47, -3, 28, 54, 36, 8, -74, 22, -4, 53, 3, -2, 3, -1, -23, -3, 56, -2, -8, 13, 2, 2, 13, -3, -14, -13, -15, -3, 2, -26, 10, 26, 15, -13, 0, -13, 37, -2, 127, 14, 11, 16, 9, 6, 68, -4, -62, -6, -3, 29, 53, 13, -53, -6, -45, 13, 1, 1, -6, 2, 2, -14, 41, 6, 1, 8, -11, -4, 1, 33, 12, 11, -26, 21, -12, 23, 3, -3, 16, 24, 22, -1, -3, -5, 10, 5, -7, -11, 4, 3, 7, 2, 22, 28, 3, -5, -7, -3, -20, 25, 45, 9, 11, -7, -34, -46, 21, -16, 22, 47, -11, -14, 4, 5, -91, 26, 18, 7, -35, 15, 6, -3, -12, 41, 5, -6, 9, 38, 92, -2, 4, 8, -12, 6, 22, 8, 54, -7, 1, 5, 5, -6, -1, 6, 32, 69, 16, -18, 0, -1, 20, 52, -75, 26, -77, 17, 20, 9, 1, 12, 15, -32, 25, -3, 1, 3, 107, 11, -31, 0, -35, -28, 5, 57, 0, 47, -15, 1, 5, -19, 22, 11, -23, -11, -2, 31, 0, -25, 13, 66, 46, 6, -13, -13, 67, 8, 6, 6, -11, 19, -8, 10, 10, 7, 1, 31, 13, 1, 20, 3, 2, -15, -4, -47, 6, -33, 8, 7, -5, 3, -22, 5, -41, -98, -5, -2, -98, -22, -6, -15, -16, -82, 30, -2, 95, -8, 35, -2, -19, 3, 81, 25, -2, -20, 11, 6, 15, -51, -29, 4, -34, -16, 0, 4, -16, 9, -1, 3, -22, -24, 0, -13, 21, -34, -6, 12, 23, 39, 22, 7, -2, 38, -30, 11, -20, -7, 1, -2, -3, 10, 11, 8, 26, -4, 17, -2, 13, 9, 3, 14, 0, -3, -4, -44, -5, 40, -1, 5, 4, 12, -25, 1, -26, -38, 7, -27, -7, 13, 54, 15, 9, -2, 33, 16, -13, 2, 1, -4, 1, 7, 1, 9, 5, 56, 40, 1, 22, -17, 3, -41, -127, 5, -66, 13, -26, 28, -9, 71, -17, 1, 60, -6, -6, 0, -20, 31, 4, 23, 19, -73, -14, 0, 10, 15, -11, 2, 13, -1, 7, 0, 8, 4, 44, -11, -7, -9, 13, 40, 23, -19, 11, -20, -28, -20, 8, 38, 5, 1, 4, -4, -12, -17, 27, 23, 40, 21, 15, 48, 4, -35, 37, 26, -47, -14, -35, -11, 15, -28, 8, 0, 31, 8, 14, 0, 3, -11, 4, 6, -10, 11, 21, 22, -1, -45, 18, -80, -16, -3, 9, 4, 2, 10, 3, -1, -16, 8, -4, -8, 7, -11, 22, 26, -1, 49, 47, -43, -5, 21, -20, 16, -32, 10, -23, 16, 6, 2, -17, -127, 1, 51, -1, 70};

static const int32_t L016_dw_bias[512] = {2057, 684, -10399, 16122, -5, -8512, 24135, 1502, -2915, -4513, 32582, 13110, -7142, -9629, 12095, -2539, 11857, -13462, -8687, 7950, 17983, 18397, -208, -758, -7180, 22985, 2458, -3999, -647, 10094, -5030, -10535, 7679, 2504, 3074, 24741, -1143, 16954, -97, 3197, -13303, -2159, -7181, -370, -9708, 832, 2828, -5115, -5637, 6823, 26335, 35196, 12560, 23191, 18371, -7450, -6318, -1733, -531, 19005, -10053, 7534, -17774, 569, 3800, -7337, 27365, -3907, -2720, -8488, 13632, -6750, 22176, 1451, -698, -7122, -9405, 3925, -6154, 13426, 11820, -6677, -1035, 979, -6952, 873, 15537, 14318, -8957, 21932, -5712, -17223, -2417, 42199, -9015, -1105, 10057, 18999, -6478, 14449, 4133, -9119, -10537, 4678, -2976, 13063, 3085, -4043, 12699, -20674, 34781, -6614, 36803, 31787, 19755, -4421, 5259, -5990, 8246, -8575, 17405, -9634, 11805, -288, -1043, -9355, 16549, 6131, -465, -2225, -2989, -6459, 17587, -2793, 6540, -9795, 21630, -5540, 12415, 33095, -3603, -42, -3854, 15459, -10292, -5880, 34150, -4668, -1867, 15860, 1936, 11525, -13216, 6039, 372, -1412, -6968, -4912, 769, -344, 8668, -13483, -5586, 7975, 21515, 24520, 3073, -2869, -6993, 250, 17246, 35354, -318, -13499, -420, -7533, -14707, -4252, 26121, -6225, 5864, 38746, 1090, 20951, -305, -4895, 32421, 14495, -8976, -4688, -3960, -2608, -5339, 11608, -14160, -8136, 18842, 3484, -3841, -4201, -6595, 1522, -5553, -6715, -8024, 8523, 1188, 27743, 512, 840, -1775, -10487, 29435, -10749, 28422, -4171, -15896, -4401, -19215, -7349, 850, 19593, -6197, 16820, -3250, 1478, 1801, -3639, 8275, -2610, -2221, 19709, -5441, -5052, 18224, -14326, 16539, -3188, -3879, 8365, 26027, -4368, 13122, -7364, 5413, -892, 151, 37559, -6137, -4163, -10455, 11911, 15301, -5513, -3184, -7487, -10129, -13609, 14220, -5426, -4532, 17372, -3098, -7497, -6545, -1109, -10239, 9122, -4427, 2948, 14759, -7469, 6871, 24709, -16875, 22253, -3470, 18996, -3387, -3701, 16296, 8150, 29485, 43219, -3806, 2508, 21039, 20293, 19737, 22851, 7735, -1657, 16055, 2649, -7708, -2352, -757, 27394, 17340, -4150, -2866, 10316, 3826, -2560, -7152, -4012, 12417, 1632, 28943, 18207, 17958, -10672, -10899, -15627, 17474, -7892, -6528, -5676, -6483, 3079, -6603, 29066, 11639, 22259, 19062, 6588, 3864, -17286, -12351, -7309, -6229, 13670, 2980, -2008, -407, 6764, 3032, -704, 8197, -160, -12055, 1219, 20091, -6214, -3695, 14178, 11428, -453, -10388, -14566, 16757, 4838, -6242, 2547, 425, -1412, -863, -4737, 529, 25496, 21643, -34, 1203, 2683, -6253, -3894, 11731, 15, -423, 13092, 25009, 1607, 1280, -360, -6619, -8065, -10893, 6179, -7982, -1595, 8522, -13300, 59, -1373, -1205, 12315, 2341, -5130, -12256, 50508, 33361, -9026, 20602, 9777, 4185, 23173, -1693, -12088, -2951, -6002, 17815, -7132, -6036, -4400, -7721, -6755, 18196, -3674, 6977, 25267, 1462, -2642, -11755, -1813, -1457, 13467, -13069, -3012, -2199, -6983, -6259, -5259, -3442, 16898, 22866, 6929, -21745, 2233, -13181, 20583, -8737, -99, -2196, -1331, -15006, 306, -7178, -2071, -20198, 17252, -1591, -10988, -14185, -761, 41593, -13295, 12046, -4282, 4151, -12729, -2303, -14908, 34739, 17455, -3379, 1446, -2965, 27307, -2379, 19778, -9431, 597, -11563, -6870, 3611, 21434, -8710, 24145, 146, -6675, -4658, 8771, -3759, 20782, -8062, 29749, 26740, -4333, -7678, 2301, -8658, -3821, 16198, -1783, -7172, -1320, -2217, 1522, 12005, 14052, 1579, 23196, -7739, 19068, -2135, 25587, 23730, -8576, 14364, -11406, 22305, -15095, -4206, 19332, -6739, -6734, -13099, 30880, -2262, -490, -2197, 2491};
static const int32_t L016_dw_bias_total[512] = {23561, 24620, 6241, 122, 14715, 16960, -55353, 12510, 16029, 12639, -69306, 17846, 14746, 32611, 9407, 28053, 22737, 19818, 21777, -8434, 27455, -17059, -5200, 14986, 1268, 20681, -2918, 13409, 22137, -6290, 3674, 21465, 27903, 30792, 11138, 34213, -15991, -76614, 6175, 13821, 28169, 43921, 32883, 18702, 2708, 11968, 18572, 16517, 20603, -7001, -39841, -68100, -1392, -22761, -86845, 15462, 18898, 20667, 20077, 26429, 6715, 2926, 26770, -3015, 60504, 16087, -44699, -195, 21088, -9512, -4032, 6050, 9888, 12587, -2618, 23982, 61763, 11989, -522, 13682, -6356, 15467, 35317, 22867, -680, -5527, 23345, 45678, 14595, -40660, 17456, 27065, -2033, -34217, 17865, -721, 37065, -16585, 59442, -8207, -1499, 24417, 24407, 21574, 47200, -11513, 11533, 12597, -8037, 25022, 63709, 16298, -27197, -25557, -31701, 3259, 14091, 2714, 12726, 19201, -30211, 32350, 42781, -1440, 15853, 21365, 13989, -6669, 13743, 975, -2861, 18117, -65869, -18665, 15500, 16573, -12290, 2652, 25599, 32327, 26477, 12502, 27762, -31645, 13004, 5768, 2534, 6852, -715, -652, 9488, -11771, 36064, 34455, 20340, -1412, 35656, 11344, 47233, 33576, -7588, 17365, 17198, -8665, -52469, -48184, -5887, -1077, 41391, 30074, -38306, 794, 15170, 19013, -8612, 26259, 24717, 18020, -27127, 24751, -4376, -39846, -7742, 22871, 20815, 23649, 31781, 53919, 38512, 10544, -248, 39888, 1189, -9256, 23856, 15032, 36250, 13724, 31615, 20503, 5181, 13170, 591, 709, 33576, 28491, 28964, -37153, 14336, 12104, 26257, 8457, -35205, 28547, -84218, -3019, 4456, 17359, 5873, 31051, -3246, -38135, 36811, -38732, 17614, 14150, 33545, 33737, 16467, 14414, -21805, -53123, 17599, 34628, -27472, 28810, -49125, 20108, 16089, 12845, 36011, 15984, -42302, 6588, 11429, 37508, 12695, 1719, 18183, 36157, 5161, -11897, 19781, 17527, 38288, 30529, 13935, 20311, -16244, 24142, 4556, -22052, 19686, 31159, 18159, 45355, 33665, 12834, 37045, 9348, -1881, 6611, 8535, -34299, 30741, -14867, 5490, -22476, 16581, 17931, -23896, -12074, -57043, -77357, 12706, 332, -80209, -28219, 10265, 6467, 30263, 17799, 11703, 15193, 82660, 18896, 64011, 25858, -61764, 17866, 86990, 15052, -12558, 8960, 16528, 11604, -5119, -13984, -35697, 671, 42662, -560, 10221, 14069, 29890, 10540, 12288, 17492, 2477, -4089, 23221, 4618, 14327, -56077, -20490, 20796, 2840, 43130, 23361, 20595, 11819, 10470, -2652, 25128, 34025, -6548, 12376, -3264, 8709, 18656, 29161, 451, 24827, 22202, -239, -10910, -13660, 24251, 14700, 28058, 38133, 12006, 17182, -11661, 12969, 25596, 22433, 15487, 15889, -32872, -26485, 11742, 26675, 26875, 16787, 14538, -685, 12687, 23129, -9564, -54735, 12231, -1152, 17048, 3237, 17791, 18035, 13987, 4946, 16453, 8394, 17036, 7867, 36643, 48331, -8677, -1371, 12534, 9120, 4428, -52527, 37438, -37254, -11215, 26073, -24443, -3741, 10440, 31609, 13070, 47895, 5540, 15852, 1616, 17751, 36381, 3732, 21158, -11327, -64461, 1846, 17838, 24853, -1045, 335, -7525, 8307, -452, 233, 19129, 16397, 15733, 1550, -30590, 15698, 11537, 20751, 26425, 17411, -26777, 12127, -611, -2580, 21837, 14562, -20430, 374, 17513, 23834, 11236, 26313, 16660, 20887, 26631, 37369, 20241, 18702, 35910, 12727, 15303, 23809, 21828, -35789, -15057, 6093, -2650, -3733, -34005, 15797, -18622, 43433, 46421, 13141, 3882, -8805, 9914, 17786, 7889, 530, 8557, 33998, -4157, 19025, -64082, 32002, -43211, 32884, 2323, 22914, -3971, 12590, 2579, 6598, 21257, 10492, -552, 17495, 882, -11675, -13212, -2901, -20580, 12613, 47996, 25897, -21389, -36046, 25088, -40676, 26226, -50015, 13193, 39954, 13700, 20781, 17714, 15957, -72032, 16810, 9366, 11755, 48443};

static const int32_t L016_dw_output_multiplier[512] = {1569854208, 1162022400, 1142924032, 1478130816, 1233400192, 1301694720, 1263128960, 1162839808, 1288894208, 1756879104, 1086441344, 1991948928, 1968071552, 1715798656, 2075474304, 1289953408, 1106064768, 1370049152, 2108417152, 1425228416, 1766629248, 1352321792, 2057654400, 1937069440, 1732656128, 1179917056, 1931177088, 1274615040, 1611947392, 1737383424, 1311784960, 2037514240, 1857462144, 1333146240, 1761438720, 1509110528, 2071498496, 1165258112, 2025630720, 1540648960, 1477045120, 1215511552, 1582173824, 1415497088, 1483454976, 1958057472, 1740095744, 1420815872, 1085998080, 1765824768, 1927566592, 1124657664, 1188186496, 1489166080, 1166170752, 1217902336, 2113513088, 1577399552, 1773178112, 1296127104, 1451972480, 1872313856, 1331946624, 1310561920, 1416017408, 1161153664, 1951301632, 1673906816, 1446272384, 1484657920, 1781987072, 1677182592, 1548658432, 1978777216, 2032926080, 1694593024, 2045764608, 1959674496, 1106158464, 1360661248, 1586994688, 1221935744, 1334910080, 1455146496, 2123021824, 1254217344, 1186580224, 1777207296, 1449853184, 1651176704, 1201783552, 1299992832, 1119843328, 1616462208, 1077453056, 1652745984, 1127005056, 1751194624, 1250323840, 1331627136, 1989440512, 1160237696, 2063942400, 1310050048, 1477336064, 2105451008, 1120552960, 1588658944, 1876935296, 2097947008, 1328269440, 1629459456, 2128700544, 1769325056, 1974514816, 1449794944, 2113711488, 1212202624, 1115675392, 1192461056, 1577627008, 1599314688, 1713766272, 1528704000, 1891425536, 1132604416, 1859635584, 1246085120, 1398245504, 1408873472, 2021384960, 1180710272, 1661726720, 1712265344, 1908036352, 1334744832, 1909801728, 1745152768, 1145650688, 2116374400, 1562246784, 1787987840, 1630233600, 1706598656, 1301456512, 1156797056, 1131895552, 1537725696, 1952636544, 1839634432, 2044321408, 1919092736, 1223442304, 1497281536, 1154772736, 1095373696, 1841121920, 1113506176, 1151046784, 1507339520, 1579760256, 1680556544, 1259491584, 1074471168, 1084521472, 1287312512, 1253405824, 1686153344, 1213757568, 1103154304, 1707857792, 1787278848, 1491666688, 1314167808, 1163225344, 1845742464, 2096619264, 1964252800, 1363149696, 1803710080, 1480925824, 1976243712, 1451444096, 1077837696, 1595686528, 1119691264, 2091294976, 1581992576, 1843818752, 1762133888, 1966600832, 1835165440, 1257424256, 1166448256, 1568132736, 2144700288, 2131471104, 1415635840, 1272227712, 1590908672, 2054973440, 1683807872, 1259654784, 1411823616, 1415419648, 1833073280, 1496438656, 1530552064, 1790054912, 1870748800, 1445146880, 1175682176, 1962908288, 1415824768, 1417521280, 2027473280, 1812622464, 1093227392, 1700403968, 1786609280, 1307287296, 1770439040, 1846912512, 1524393344, 1081715200, 1877574400, 2124990720, 1111291776, 1130183040, 2110401920, 1885198720, 1105521792, 1881388416, 1753735040, 1773699328, 1283829888, 1925779712, 1149061248, 1975399808, 1284279296, 1513850112, 1397957760, 1672419072, 1104332416, 1522165248, 1632937984, 2061594624, 1188849920, 1175394688, 1394689664, 1960610048, 1466209536, 1868348416, 1083636480, 1985353344, 1163470592, 1204719488, 1295500032, 1112112000, 1998068352, 1353003264, 2134446848, 1252374528, 1136087552, 1444784384, 1310894848, 1528729088, 1779720576, 1809646208, 1765414528, 1774958848, 1551321216, 1359448704, 1382945408, 1578869248, 1880595072, 1190639104, 1562652928, 1920228736, 1165326336, 1587385600, 1131417600, 1620535680, 1241569536, 1968889600, 1665459968, 2088733056, 1110615808, 2086487424, 1914669824, 1899045888, 1968254720, 1126579840, 1650304384, 1446751104, 1323504768, 1822145536, 1548824320, 1130529920, 1779145472, 1074536704, 1727387904, 1315092224, 1722693632, 1557466240, 1140439680, 1767881472, 1821606144, 1364564480, 1609853824, 1250489344, 1826738048, 1619210112, 1265476480, 1165819008, 1424729984, 1486121984, 1098356992, 1454465920, 1779776640, 1877219968, 1758279936, 1140548096, 1770778624, 1354317312, 1884520960, 1996804864, 1664024192, 1460794880, 1566624128, 1540273536, 2015318528, 1722755200, 1770589440, 1113216512, 1666369408, 1694181632, 2099545728, 1265161472, 1682045824, 1237074304, 1914376960, 1928523392, 1543812736, 2068913024, 2011127552, 1559948160, 1386610048, 1158649216, 1317376768, 2031145856, 1307950848, 1446375168, 1559325184, 1139403008, 1603623040, 1209744768, 1176590080, 1140767104, 1744028672, 1648168448, 1528631680, 1209328640, 1415877504, 1121726464, 1830555008, 1943163264, 2122705664, 1512148992, 2080471296, 1184576640, 1736656512, 1792449792, 1688625024, 2124702336, 2040115456, 1711103872, 1717614592, 2054494080, 1109678336, 2068395264, 1262555520, 1289963904, 1723081728, 1786177920, 1969385472, 1156765184, 1128703872, 1793884672, 2043247488, 1462283008, 1495492736, 1550968064, 1926526336, 1504357760, 1172438016, 1530838656, 1647089152, 1678610816, 1199679104, 1249776896, 1122694656, 1284711936, 2091592832, 1894570240, 1657067520, 1855332224, 1454818816, 1265197440, 1641534080, 1728088960, 1717062144, 1703403264, 1743023616, 1380028416, 1688935296, 1330537472, 2101699712, 1820544128, 1651845632, 1135814656, 1756480128, 1431729664, 1184743936, 1247060992, 2056871552, 1178218368, 1773130240, 1310605056, 1421782016, 1599599872, 1148441472, 1082032512, 1086707584, 1796857088, 1180942464, 2117286272, 1778141312, 1933061632, 1743961984, 1520418304, 1240866048, 1092324352, 1155723776, 1436428544, 1744969856, 1814398848, 1074265216, 2052165888, 1889475840, 2132774400, 1401809792, 1246758528, 1132662016, 1957041536, 2004440960, 1362660736, 1537231744, 1144507392, 1618472448, 1375018752, 2012759808, 1489766528, 1754588672, 1205507200, 1564819072, 1994094976, 1293773952, 1198736640, 1232889984, 1430471936, 1978176896, 1733372544, 2124597120, 1243281024, 1961981184, 1157120896, 1109269376, 2119977600, 1117466368, 1694683904, 1387380608, 1585223040, 1229899520, 1950508160, 1786772608, 1552317696, 1457659008, 1616732928, 1458649344, 1465748864, 1109681280, 1736560896, 1747960064, 1705150080, 1346965376, 1785673344, 2116724352, 1728322176, 1184191104, 1634924800, 1256008960, 2022977024, 2097452288, 1232425472, 1372344448, 2023680128, 1318906240, 2114058752, 1392295296, 1238627584, 1104115200};
static const int32_t L016_dw_output_shift[512] = {-7, -6, -6, -7, -5, -6, -7, -6, -6, -7, -7, -7, -7, -7, -7, -7, -7, -6, -7, -7, -8, -7, -7, -7, -6, -7, -5, -6, -7, -6, -5, -7, -8, -7, -7, -8, -7, -7, -7, -6, -7, -7, -7, -6, -6, -6, -6, -7, -6, -5, -8, -7, -5, -7, -7, -6, -7, -8, -7, -7, -6, -7, -7, -6, -7, -6, -8, -7, -7, -7, -6, -6, -7, -6, -7, -7, -9, -6, -5, -7, -6, -6, -6, -7, -6, -6, -7, -8, -6, -8, -6, -6, -6, -7, -6, -6, -7, -7, -8, -5, -7, -6, -7, -6, -7, -7, -6, -7, -7, -7, -8, -7, -9, -8, -7, -5, -7, -6, -6, -6, -7, -6, -7, -6, -6, -6, -7, -5, -6, -6, -7, -6, -7, -7, -7, -6, -8, -6, -7, -8, -7, -6, -7, -7, -6, -5, -7, -5, -6, -6, -6, -6, -6, -7, -6, -5, -8, -6, -5, -7, -6, -6, -6, -5, -7, -7, -5, -6, -7, -6, -8, -8, -6, -6, -7, -7, -7, -7, -7, -7, -5, -7, -6, -7, -6, -6, -8, -7, -8, -7, -6, -8, -6, -6, -6, -7, -8, -6, -7, -7, -6, -6, -6, -6, -7, -7, -7, -8, -6, -6, -6, -6, -8, -7, -8, -6, -6, -6, -6, -7, -6, -7, -7, -7, -6, -7, -7, -7, -6, -7, -7, -7, -7, -6, -7, -7, -8, -6, -7, -6, -8, -6, -7, -5, -6, -7, -6, -7, -6, -7, -7, -6, -7, -6, -7, -6, -6, -6, -6, -7, -6, -7, -6, -6, -6, -7, -7, -7, -7, -6, -6, -6, -6, -7, -7, -7, -6, -6, -7, -6, -7, -5, -8, -8, -7, -6, -8, -7, -7, -7, -7, -7, -7, -6, -7, -6, -8, -7, -7, -7, -7, -7, -6, -7, -6, -6, -6, -7, -8, -6, -8, -7, -6, -6, -7, -6, -6, -6, -6, -6, -7, -8, -6, -8, -7, -7, -7, -8, -6, -6, -6, -8, -7, -7, -5, -7, -6, -6, -6, -7, -7, -7, -8, -7, -6, -7, -5, -7, -6, -6, -8, -6, -6, -7, -6, -7, -6, -6, -6, -7, -8, -6, -7, -7, -6, -7, -8, -7, -8, -5, -7, -6, -6, -7, -6, -7, -6, -7, -6, -6, -7, -6, -6, -7, -7, -6, -6, -6, -6, -9, -8, -7, -7, -7, -7, -7, -6, -6, -6, -6, -8, -5, -6, -6, -7, -7, -6, -6, -6, -8, -6, -7, -7, -6, -6, -6, -6, -7, -6, -6, -6, -7, -7, -7, -7, -7, -6, -7, -6, -7, -6, -5, -6, -5, -6, -6, -7, -7, -7, -7, -7, -6, -7, -6, -8, -7, -7, -7, -7, -7, -7, -7, -8, -6, -7, -6, -6, -8, -6, -7, -7, -8, -6, -6, -6, -7, -7, -7, -5, -6, -6, -7, -7, -8, -6, -8, -7, -5, -7, -5, -6, -6, -6, -6, -6, -6, -7, -6, -6, -6, -6, -7, -6, -8, -7, -8, -8, -7, -7, -7, -8, -6, -6, -8, -6, -6, -7, -7, -7, -6, -6, -6};

#endif  // LAYER_016_DEPTHWISE_CONV_2D_H_
