#ifndef LAYER_008_DEPTHWISE_CONV_2D_H_
#define LAYER_008_DEPTHWISE_CONV_2D_H_

#include <stdint.h>

// op_index=8 op=DEPTHWISE_CONV_2D
// input:  idx=65 name=sequential_1/mobilenet_1.00_128_1/conv_pw_3_relu_1/Relu6;sequential_1/mobilenet_1.00_128_1/conv_pw_3_bn_1/batchnorm/add_1;sequential_1/mobilenet_1.00_128_1/conv_pw_3_1/convolution; shape=[1, 32, 32, 128] dtype=int8
// weights: idx=43 name=tfl.pseudo_qconst41 shape=[1, 3, 3, 128] dtype=int8
// output: idx=66 name=sequential_1/mobilenet_1.00_128_1/conv_dw_4_relu_1/Relu6;sequential_1/mobilenet_1.00_128_1/conv_dw_4_bn_1/batchnorm/add_1;sequential_1/mobilenet_1.00_128_1/conv_dw_4_bn_1/batchnorm/mul_1;sequential_1/mobilenet_1.00_128_1/conv_dw_4_1/depthwise;;sequential_1/mobilenet_1.00_128_1/conv_pad_4_1/Pad shape=[1, 16, 16, 128] dtype=int8

#define L008_DW_OUT_CH (128)
#define L008_DW_KH     (3)
#define L008_DW_KW     (3)
#define L008_DW_STRIDE_H (1)
#define L008_DW_STRIDE_W (1)
#define L008_DW_DILATION_H (1)
#define L008_DW_DILATION_W (1)
#define L008_DW_DEPTH_MULTIPLIER (1)
#define L008_DW_PAD_H (0)
#define L008_DW_PAD_W (0)

static const int32_t L008_dw_input_offset = 128;
static const int32_t L008_dw_output_offset = -128;

static const int8_t L008_dw_weights[1152] = {-72, -90, -68, -47, 73, -78, -71, -66, 77, -60, -47, -30, -59, 69, 65, -127, 102, -82, -72, 66, 56, -73, -70, -65, -63, -70, 121, -61, 104, -67, -82, -60, 52, 32, 66, 59, -25, -49, -77, -52, -73, -68, 80, -52, 57, -77, -75, 33, 84, -73, -56, 54, 70, 43, -105, 112, 87, -46, -71, -97, -55, 88, -127, -127, 71, -57, 64, -62, 51, 66, -75, -71, -62, 18, 127, -66, -64, -74, -13, 74, -63, 76, -101, 66, -77, 86, -51, 66, 73, 73, -76, 127, -56, 89, -29, 52, 41, 57, 71, 54, 100, 65, 66, -92, -106, 83, 62, -55, 66, 58, 69, -60, -47, 21, -91, 62, 66, 44, 67, 82, 79, 49, -76, 83, -64, 63, 127, -59, -97, -98, -82, -98, 99, -92, -75, -94, 84, -80, -96, -98, -80, 94, 93, -88, 93, 52, -90, 92, 85, -94, -90, -86, -86, -95, 115, -88, -37, -103, -96, -87, 71, 55, 82, 81, -66, -44, -99, -14, -98, -64, 101, -88, 93, -100, -84, 62, 93, -88, -82, -16, 90, 83, -98, 111, 101, -25, -71, -100, -114, 96, -1, -127, 83, -92, 88, -89, 86, 92, -99, -102, -86, -106, 117, -95, -80, -92, -127, 97, -127, 108, -127, 84, -99, 94, -58, 90, 94, 97, -87, 110, -79, 99, -74, 86, 86, 88, 92, 88, -22, 92, 100, -100, -114, 106, 87, -83, 98, 86, 89, -83, -60, 127, -112, 98, 84, -90, 87, 92, 98, 80, -89, -64, -95, 84, 50, -88, -55, -45, -38, -66, 48, -52, -35, -68, 46, -38, -55, -84, -52, 50, 56, 4, 19, 63, -42, 35, 45, -48, -29, -45, -41, -46, 66, -51, -13, -43, -44, -32, 36, 30, 27, 47, -49, -24, -47, -1, -48, -2, 47, -60, 59, -58, -39, 45, 43, -47, -39, -6, 39, 41, -14, 18, 41, 24, -33, -38, -72, 39, 17, -75, 32, -65, 40, -51, 50, 40, -59, -47, -35, -108, 52, -55, -52, -45, -99, 46, -69, 48, -73, 36, -55, 51, -42, 51, 52, 46, -35, 55, -42, 31, -44, 43, 54, 49, 29, 38, -67, 47, 45, -49, -53, 39, 47, -40, 51, 43, 51, -38, -28, 77, -43, 41, 39, 8, 37, 33, 41, 49, -26, -74, -43, 37, -38, -56, -93, -110, -82, -78, 99, -98, -112, -90, 104, -89, -77, -37, -109, 97, 93, -89, 127, -127, -113, 96, 81, -94, -87, -118, -93, -75, 105, -86, 127, -73, -107, -92, 68, 113, 90, 98, 112, 99, -108, -26, -83, -63, 106, -92, 98, -100, -100, 78, 99, -96, -84, 93, 91, 85, -127, 127, 108, -10, -92, -120, -121, 91, -78, 7, 87, -104, 103, -88, 83, 87, -105, -91, -94, 25, 7, -86, -103, -103, 55, 83, 47, 94, 72, 90, -93, 101, 101, 99, 94, 113, -110, 119, -81, 124, 114, 95, 78, 86, 89, 75, 127, 92, 92, -100, -110, 103, 89, -92, 94, 90, 87, -86, 82, -94, -104, 95, 95, 43, 94, 107, 108, 68, -90, 127, -108, 81, 29, -91, -127, -127, -127, -127, 127, -127, -127, -127, 127, -127, -127, -127, -127, 127, 127, 50, 127, 32, -127, 127, 127, -127, -127, -127, -127, -127, 127, -127, -37, -127, -127, -127, 53, 127, 127, 127, 78, 127, -127, 102, -127, -127, 127, -127, 127, -127, -127, 127, 127, -127, -127, 127, 127, 127, -118, 107, 127, 74, -127, -127, -127, 127, 93, 21, 127, -127, 127, -127, 127, 127, -127, -127, -127, -127, -74, -127, -127, -127, -29, 127, 35, 127, 87, 127, -127, 127, 127, 127, 127, 127, -127, 126, -127, 127, 24, 127, 127, 127, 127, 127, -47, 127, 127, -127, -127, 127, 127, -127, 127, 127, 127, -127, 127, 31, -127, 127, 127, -127, 127, 127, 127, 127, -127, -65, -127, 127, -74, -127, -76, -57, -62, -68, 62, -75, -61, -71, 77, -71, -67, -116, -76, 70, 64, 125, 33, 77, -74, 60, 78, -61, -64, -65, -73, -70, 63, -51, -10, -71, -57, -65, 6, 57, 59, 69, -17, 71, -72, 127, -67, -71, 58, -63, 63, -70, -73, 81, 63, -61, -54, 74, 69, 64, -19, 7, 48, 109, -58, -42, -85, 83, 58, 17, 52, -64, 51, -63, 62, 53, -74, -67, -54, -122, -58, -70, -67, -62, -43, 76, 15, 63, 28, 52, -87, 59, 70, 58, 71, 70, -56, 42, -73, 59, -49, 51, 74, 69, 56, 56, -88, 65, 68, -83, -71, 53, 81, -71, 66, 68, 70, -69, 73, 46, -53, 53, 54, 21, 56, 31, 67, 75, -71, -90, -55, 61, -73, -57, -57, -55, -46, -47, 62, -39, -65, -54, 68, -46, -40, -5, -62, 53, 63, -9, 57, -73, -69, 45, 51, -45, -26, -64, -30, -53, 55, -45, 51, -26, -55, -42, -84, 87, 69, 55, 127, -5, -48, -14, -40, -6, 46, -52, 61, -50, -52, 52, 48, -61, -41, -15, 38, 54, -54, 9, 45, 49, -54, -75, -79, 25, -12, 35, 39, -69, 56, -44, 44, 46, -60, -37, -36, 16, -55, -72, -45, -44, 32, 23, 67, 37, 32, 54, -55, 60, -51, 60, 38, 62, -54, 38, -43, 67, 127, 54, 40, 46, 31, 46, 47, 42, 51, -50, -21, 44, 56, -70, 61, 74, 40, -38, -51, -77, -50, 51, 47, 22, 42, 48, 54, 38, -45, 64, -60, 44, -33, -46, -76, -58, -60, -70, 67, -66, -75, -65, 57, -76, -67, -35, -76, 72, 73, 91, 56, -14, -75, 67, 63, -59, -53, -75, -61, -74, 61, -54, -25, -53, -60, -57, -127, 103, 80, 67, 117, -34, -67, 102, -77, -69, 50, -69, 75, -83, -86, 69, 68, -64, -69, 79, 63, 69, -53, -2, 62, 127, -67, -85, -71, 70, 89, 48, 70, -67, 75, -60, 57, 69, -89, -68, -44, -34, -109, -78, -65, -70, 32, 65, 86, 60, 43, 55, -73, 76, -79, 58, 56, 83, -78, 22, -67, 69, 53, 61, 61, 67, 58, 71, -49, 59, 69, -81, -48, 51, 78, -100, 72, 89, 76, -64, -76, -27, -51, 54, 58, -66, 64, 44, 71, 57, -84, -8, -59, 65, -80, -66, -44, -26, -32, -38, 30, -39, -30, -35, 32, -37, -37, -38, -37, 34, 39, 85, 27, 38, -44, 28, 38, -30, -25, -36, -29, -44, 36, -22, -6, -36, -24, -29, -71, 39, 36, 37, 13, -32, -39, 117, -47, -65, 25, -36, 27, -44, -58, 28, 30, -30, -39, 41, 39, 34, -18, -6, 35, 110, -22, -24, -27, 68, 21, 2, 31, -15, 28, -23, 26, 33, -48, -37, -23, -32, -48, -39, -39, -29, 13, 37, 43, 46, 25, 21, -51, 31, -57, 21, 33, 35, -23, 25, -45, 27, -38, 27, 36, 26, 38, 34, -48, 36, 31, -54, -37, 21, 42, -57, 37, 46, 33, -44, -54, 4, -19, 25, 21, 18, 34, 13, 30, 35, -55, -62, -19, 35, -10, -46};

static const int32_t L008_dw_bias[128] = {36217, 101957, 54542, 24781, -238, 25192, 48195, 43999, 393, 29665, 130287, 64336, 134238, 5742, -88, 33811, -14883, -1130, 49254, 6816, 1687, 75353, 153426, 37617, 161119, 46464, -968, 42059, -14450, 126697, 43685, 30534, -800, 41319, 17976, -34593, 24874, -13862, 91076, 27429, 97005, 80762, 2836, 53540, 7113, 46560, 29327, 10031, -380, 21860, 37542, 5, 874, -23497, 144449, -13969, -1274, 80166, 24443, 84899, 34147, 2575, 26031, 18345, -827, 33882, 4682, 151962, 494, 2150, 16568, 74938, 128884, 129621, 3118, 23131, 44204, 71786, 32660, 7092, 33208, 5475, 1263, 685, 17008, 1001, 446, 22860, 100, 77405, 56822, -19211, 57267, 11519, 14843, 27576, 34213, 15919, 4390, -407, 6278, -2059, 972, 38188, 128256, -1933, 16216, 30062, 2355, 54320, 459, 128549, -2861, 43988, 177900, 3461, -6437, 11847, 29623, -2357, 12067, 2584, 51927, 2987, 108745, 614, 67235, 54520};
static const int32_t L008_dw_bias_total[128] = {-52999, 16709, -21874, -57011, 85138, -60056, -35133, -41761, 86409, -50207, 51823, -8624, 47454, 90990, 86056, 39187, 67165, -5482, -41114, 85664, 81559, -5415, 80338, -49551, 83935, -37248, 94904, -32821, 5262, 50025, -39771, -45114, -288, 123623, 99384, 47327, 61994, 90, 3524, 71077, 12525, 12282, 84756, -28252, 91593, -44192, -59505, 83631, 83460, -60956, -38106, 55173, 81002, 53303, 66881, 47855, 82438, 132902, -51717, -5725, -61981, 90511, 33711, -7127, 74949, -50598, 85578, 74266, 75502, 80614, -77640, -7878, 57076, 69461, -2130, -64933, -37972, -10902, 9748, 87476, 37560, 89827, -529, 75565, -74768, 88681, -4674, 103500, 81764, 167773, -25866, 65781, -21197, 100095, 25595, 103864, 110629, 94639, 80038, 74985, 262, 77941, 84044, -56020, 40320, 78323, 101848, -58898, 88371, 141488, 82635, 50597, -7213, 57812, 94700, 81029, 69211, -4409, 107447, 71499, 98467, 76568, -32937, -8405, 28105, 77030, 54179, -26888};

static const int32_t L008_dw_output_multiplier[128] = {1998274944, 1397111680, 1765401984, 1735665536, 1994258432, 1767275776, 1174535296, 2008598784, 1566211712, 1681201024, 2142955904, 1099910528, 1368233728, 1751985280, 1605418112, 1841953152, 1507837440, 2043736576, 1234453248, 1295175040, 1076000384, 1833950976, 1222842368, 1315104000, 1587825024, 1308125952, 1522271744, 2084092416, 1373954176, 1473430144, 1598905984, 1854154880, 1363897344, 1543737600, 1160518528, 1133537536, 2124305664, 1439973504, 1802856704, 1295584768, 1405015424, 1107145984, 1635397504, 1498895104, 1782958208, 1520673920, 1366259328, 1161166080, 1767247360, 1684371840, 1480954496, 1785130112, 1434104320, 1222797184, 1595578240, 1099260928, 1665017472, 2009188352, 1764152960, 1952598400, 1348916736, 1718397056, 1342201600, 1613323392, 2129571456, 1345669888, 1689413248, 1317021312, 1229638912, 1992984704, 1424601344, 1734151424, 1836145536, 1420184704, 1952398592, 1660109184, 1472903936, 1630465792, 1179244672, 1402157952, 2139118848, 1655104000, 1294763008, 1282592128, 1660855168, 1732428672, 1221165440, 1571456256, 1983270912, 1457703680, 1153990528, 1396596480, 1099297024, 1840461056, 1253470208, 1370709120, 2005858688, 1580677376, 1363793152, 1085099520, 1804164224, 2004755328, 1298062592, 1306082176, 1408334720, 1152556416, 1276390016, 1618102400, 1392556288, 1744431360, 1904287360, 1739291008, 1960638848, 1567195392, 1609464832, 1268540928, 1740760704, 1567867904, 1128515200, 1705449472, 1318783360, 1863272192, 1803834112, 1633390592, 1169036800, 1490137856, 2095947520, 1486994048};
static const int32_t L008_dw_output_shift[128] = {-8, -8, -8, -8, -8, -8, -8, -9, -7, -8, -10, -7, -9, -8, -7, -8, -8, -7, -8, -8, -6, -8, -9, -8, -9, -8, -6, -9, -6, -8, -8, -8, -7, -8, -7, -7, -9, -6, -9, -8, -9, -8, -8, -8, -8, -7, -8, -7, -8, -8, -7, -2, -7, -7, -9, -7, -8, -10, -8, -9, -8, -8, -8, -7, -8, -8, -8, -8, -6, -8, -7, -8, -9, -9, -8, -8, -7, -8, -7, -8, -8, -8, -7, -7, -7, -7, -6, -8, -8, -9, -7, -7, -8, -8, -7, -9, -8, -8, -8, -7, -7, -8, -5, -8, -9, -7, -8, -8, -8, -8, -7, -8, -8, -8, -9, -7, -8, -6, -8, -8, -7, -8, -8, -8, -8, -7, -9, -7};

#endif  // LAYER_008_DEPTHWISE_CONV_2D_H_
