#ifndef LAYER_003_CONV_2D_H_
#define LAYER_003_CONV_2D_H_

#include <stdint.h>

// op_index=3 op=CONV_2D
// input:  idx=60 name=sequential_1/mobilenet_1.00_128_1/conv_dw_1_relu_1/Relu6;sequential_1/mobilenet_1.00_128_1/conv_dw_1_bn_1/batchnorm/add_1;sequential_1/mobilenet_1.00_128_1/conv_dw_1_bn_1/batchnorm/mul_1;sequential_1/mobilenet_1.00_128_1/conv_dw_1_1/depthwise; shape=[1, 64, 64, 32] dtype=int8
// weights: idx=53 name=tfl.pseudo_qconst51 shape=[64, 1, 1, 32] dtype=int8
// output: idx=61 name=sequential_1/mobilenet_1.00_128_1/conv_pw_1_relu_1/Relu6;sequential_1/mobilenet_1.00_128_1/conv_pw_1_bn_1/batchnorm/add_1;sequential_1/mobilenet_1.00_128_1/conv_pw_1_1/convolution; shape=[1, 64, 64, 64] dtype=int8

#define L003_CONV_OUT_CH (64)
#define L003_CONV_IN_CH  (32)
#define L003_CONV_KH     (1)
#define L003_CONV_KW     (1)
#define L003_CONV_STRIDE_H (1)
#define L003_CONV_STRIDE_W (1)
#define L003_CONV_DILATION_H (1)
#define L003_CONV_DILATION_W (1)
#define L003_CONV_PAD_H (0)
#define L003_CONV_PAD_W (0)

static const int32_t L003_conv_input_offset = 128;
static const int32_t L003_conv_output_offset = -128;

// Weights: native TFLite order (flattened)
static const int8_t L003_conv_weights[2048] = {10, 7, -71, -66, 56, 91, 14, 0, 5, 9, 0, -8, 0, -2, 23, -127, 0, -5, 33, -26, 0, 0, 1, 0, 0, 2, -69, -24, 0, 1, -8, -99, -21, 24, 119, -127, 6, -14, 4, 0, 4, 6, 0, 104, 0, 3, -15, 5, 0, -5, 13, -22, 0, 0, 9, 0, 0, 10, 80, -32, 25, -3, 9, -82, 4, -4, 4, -7, 2, 1, 5, 0, -10, -1, 0, -5, 0, -1, -5, -8, 0, 13, 29, -8, 0, 0, 127, 0, 0, -115, 0, 3, 2, 5, 2, 3, -3, -4, 4, -7, -3, -2, -4, 0, 7, -1, 0, 1, 0, 3, -3, -2, 0, -9, -2, -1, 0, 0, 6, 0, 0, 127, -2, 2, -1, 4, 2, -5, 127, 97, 6, 33, -20, -24, -111, 0, -10, -85, 0, -36, 0, -3, -15, -16, 0, -1, -28, -13, 0, 0, 11, 0, 0, -6, -24, -9, 76, -6, 2, -46, -1, 4, 10, 4, 58, 23, 6, 0, 53, 10, 0, -37, 0, -8, -21, 8, 0, -2, -127, -1, 0, 0, -43, 0, 0, -18, 4, 69, 15, -13, -7, -4, -90, 127, -57, 80, 15, -10, 38, 0, 8, 60, 0, -45, 0, -6, 1, -76, 0, 1, 20, -25, 0, 0, -14, 0, 0, 4, -64, -79, 55, -5, 0, 73, 8, 10, -21, -11, 26, -14, -127, 0, -18, -6, 0, 4, 0, 3, 84, 10, 0, -54, -29, 27, 0, 0, -57, 0, 0, -28, -9, -37, 4, 2, 3, -21, -8, 1, -4, 1, 10, -11, -6, 0, 127, 4, 0, -1, 0, -1, 1, 12, 0, 70, -26, 15, 0, 0, 18, 0, 0, -35, 2, -3, -5, 4, 0, 2, -14, 15, 2, -16, 1, 13, -20, 0, -127, -8, 0, 8, 0, -15, 27, 10, 0, -99, 12, 9, 0, 0, 121, 0, 0, -46, 5, 16, -17, 12, -11, 4, -10, 14, -8, 4, 15, -11, 17, 0, 10, -10, 0, 2, 0, 3, 19, -127, 0, -4, -7, 90, 0, 0, -6, 0, 0, 5, 0, -8, 6, 1, 0, 2, 21, -1, 21, 5, -14, 4, -7, 0, -72, 1, 0, 14, 0, -1, 21, 13, 0, -88, 11, 3, 0, 0, -127, 0, 0, 28, 4, 15, 4, 2, -3, 11, 3, -4, -4, 10, 4, -2, 4, 0, -127, -3, 0, -3, 0, 6, 9, 12, 0, -84, 5, 5, 0, 0, -5, 0, 0, 28, 3, -1, 3, 1, 4, 10, -15, -5, -4, -13, 0, 6, 8, 0, 2, -1, 0, 5, 0, 6, -5, 29, 0, -4, 55, -127, 0, 0, 16, 0, 0, -2, -12, 11, 1, 1, 3, -6, -19, 27, -4, 8, 127, 9, 5, 0, -8, -8, 0, 12, 0, -4, -3, 7, 0, -4, -9, -17, 0, 0, 4, 0, 0, 7, 5, -3, 1, 0, -3, 14, 6, -1, 3, -5, -24, 39, -8, 0, 127, 5, 0, -1, 0, 0, -14, -26, 0, 76, 41, -1, 0, 0, -58, 0, 0, 32, -14, -4, -7, 3, 0, 0, -3, 4, -4, -11, 15, 9, -9, 0, 43, 3, 0, 0, 0, -5, -127, 18, 0, 16, 2, 4, 0, 0, 46, 0, 0, 2, -2, 1, -4, 0, -4, -9, -16, -42, -38, -39, -127, -41, 127, 0, -42, -15, 0, -2, 0, 9, -13, -65, 0, 33, 86, -45, 0, 0, 74, 0, 0, 40, 30, -36, -19, -3, 4, 10, 10, -7, 5, 4, 83, 6, -68, 0, 15, 9, 0, 23, 0, 1, 10, 61, 0, -5, -127, 12, 0, 0, -45, 0, 0, 16, 16, 26, 7, -3, 0, 28, -5, -1, 127, 96, -19, -20, 0, 0, -26, -6, 0, 4, 0, 3, 8, -44, 0, -2, 53, -16, 0, 0, -5, 0, 0, 7, -114, 21, -8, -1, 15, -114, 27, -27, 59, 53, 9, 9, 116, 0, -3, 24, 0, -127, 0, -4, -6, 23, 0, -1, 39, -5, 0, 0, 22, 0, 0, -1, 54, 49, 43, -6, 3, 21, -19, -36, 3, 16, -4, -17, -35, 0, 13, 37, 0, -2, 0, 3, 16, 127, 0, -18, -40, -40, 0, 0, -14, 0, 0, -12, 27, 4, 23, 5, 3, 7, -60, -73, 28, -39, -6, -2, 22, 0, 8, -49, 0, 19, 0, 1, 8, -22, 0, 9, -20, -10, 0, 0, 9, 0, 0, 11, -119, -16, 48, -1, -9, 127, -30, -16, -127, 108, -3, 1, 7, 0, 3, -22, 0, 26, 0, 5, 6, -2, 0, -2, 21, -7, 0, 0, 0, 0, 0, 4, 75, -13, 19, 6, -1, -65, 4, -8, 1, 4, 2, -6, 11, 0, 3, 7, 0, -3, 0, 3, 127, -8, 0, -7, 0, -8, 0, 0, 4, 0, 0, 1, 3, -2, 1, -2, 2, 1, -1, -14, 2, 2, 2, -3, 5, 0, 7, 1, 0, 14, 0, 2, -1, -6, 0, -2, -8, -127, 0, 0, -4, 0, 0, 1, -7, -21, -3, -1, 3, 7, 25, -11, -7, -39, -65, 73, 25, 0, -54, 14, 0, -42, 0, 8, 5, -66, 0, 17, 127, 77, 0, 0, 2, 0, 0, 26, 9, -71, 13, -10, 5, -6, -3, -7, 7, 10, 1, -3, -9, 0, -127, -10, 0, -4, 0, -1, 10, -1, 0, -101, 16, -23, 0, 0, 10, 0, 0, 33, 16, -9, -13, -5, 0, 16, 0, 0, 0, 0, 0, 0, 0, 0, 0, 0, 0, 0, 0, 0, 0, 0, 0, 0, 0, 0, 0, 0, 0, 0, 0, 0, 0, 0, 0, 0, 0, 0, 4, 0, -8, -3, 0, 3, 10, 0, -37, 4, 0, -3, 0, 9, 15, -2, 0, -15, -6, 2, 0, 0, -127, 0, 0, -127, -5, 5, -2, -7, 6, -1, 0, 0, 0, 0, 0, 0, 0, 0, 0, 0, 0, 0, 0, 0, 0, 0, 0, 0, 0, 0, 0, 0, 0, 0, 0, 0, 0, 0, 0, 0, 0, 0, 30, 41, -119, -127, 5, -8, -26, 0, -19, -42, 0, -114, 0, -22, 15, -3, 0, 4, -44, -16, 0, 0, 2, 0, 0, -4, 102, -6, 41, 4, -11, 78, -8, 14, 9, 21, 76, -31, -8, 0, -41, -10, 0, 22, 0, -15, -8, 31, 0, -40, -127, -22, 0, 0, -17, 0, 0, -55, -4, 35, -15, 0, -13, 10, -92, -94, 27, 64, -4, -25, -127, 0, -12, 55, 0, -13, 0, 10, -22, -20, 0, 26, 29, 1, 0, 0, 12, 0, 0, -7, -36, -34, -36, -3, 6, -114, -2, 2, 8, 9, 20, 0, -9, 0, 39, 11, 0, 16, 0, -5, -11, 7, 0, 127, -18, 9, 0, 0, -4, 0, 0, -14, 0, 6, 4, -8, -1, -6, -3, 0, -2, -6, 27, 1, 16, 0, -75, 1, 0, 4, 0, 2, -127, -17, 0, -12, -7, -4, 0, 0, 15, 0, 0, 10, -10, 4, 7, -5, 3, 1, -10, 9, -1, -2, 16, 4, -4, 0, -5, -4, 0, 5, 0, -1, -4, 11, 0, -3, 127, 1, 0, 0, 10, 0, 0, 8, -4, -5, -5, 1, -1, 6, 5, 35, -11, 11, -73, -18, 16, 0, -16, -19, 0, 7, 0, -8, 2, -127, 0, 11, 57, 122, 0, 0, -7, 0, 0, -3, 23, -37, -48, -5, -5, 10, 16, 11, 64, 62, 52, -17, -117, 0, -18, -21, 0, 18, 0, 4, -22, -25, 0, -24, 127, 6, 0, 0, 13, 0, 0, 53, -44, -11, -34, -5, 2, -43, -6, 6, 2, -6, -4, 127, 5, 0, -6, 0, 0, 2, 0, 5, 7, -5, 0, -1, 2, 1, 0, 0, 4, 0, 0, -3, -1, 1, 2, -3, 3, 1, 23, 7, 23, 32, -5, -19, -31, 0, -34, -35, 0, 25, 0, 1, 53, -13, 0, -60, -96, 127, 0, 0, -54, 0, 0, -27, 28, -67, 33, -5, -2, 40, 5, -1, -2, -6, -7, 9, -1, 0, -127, 1, 0, 1, 0, 5, 0, -8, 0, -96, -5, -6, 0, 0, 24, 0, 0, -6, -4, -11, -2, -5, 3, -10, -91, 84, -23, -40, -62, 38, -68, 0, -12, -58, 0, 74, 0, -17, 40, 2, 0, 26, -14, -27, 0, 0, 38, 0, 0, -2, 3, -127, -72, -4, -12, -86, 10, -6, -4, 3, -4, -2, 12, 0, -127, 9, 0, 13, 0, 4, 11, -20, 0, -82, -3, -9, 0, 0, 2, 0, 0, 1, 0, -8, -9, 0, 3, -5, 127, -89, -30, -18, 7, -24, 49, 0, -2, 92, 0, 13, 0, -6, 1, -3, 0, -17, 70, 56, 0, 0, -5, 0, 0, -2, 10, -41, 93, 6, 0, 8, 12, 5, 65, 74, 19, 33, 127, 0, 1, -10, 0, 89, 0, 1, -5, -56, 0, -7, -43, 8, 0, 0, -2, 0, 0, -1, 49, -91, -13, 1, 0, 95, 2, -9, 8, 4, 13, 0, -2, 0, -2, 1, 0, 0, 0, -5, -127, 3, 0, -2, 2, 0, 0, 0, -5, 0, 0, 0, 2, 6, 1, -1, -4, 2, 10, 1, 6, 3, 23, 20, -19, 0, -8, 6, 0, -3, 0, -11, 3, 10, 0, -4, -127, 12, 0, 0, -1, 0, 0, 5, -2, 7, 11, 3, -10, 5, 13, -51, 109, -127, -1, 44, -52, 0, -5, -99, 0, -109, 0, -9, -8, 2, 0, -5, -33, -3, 0, 0, -23, 0, 0, -9, 90, 59, -75, 9, 19, -78, 58, 105, 18, 12, -20, -5, 54, 0, -8, 87, 0, -46, 0, 3, 10, -2, 0, 4, -3, 27, 0, 0, 8, 0, 0, 2, -9, 0, -127, -3, 3, 13, -11, 0, 9, 3, 16, -8, 6, 0, 24, -5, 0, -6, 0, 0, 14, -17, 0, -15, -13, -2, 0, 0, 127, 0, 0, -62, 0, 5, -3, 4, 1, 5, 0, -9, 5, -9, 12, 127, 18, 0, 13, -3, 0, -5, 0, 4, 5, -15, 0, 4, -2, -11, 0, 0, -12, 0, 0, 7, -17, 10, -1, -4, 3, -6, -53, -2, -115, -107, 80, 0, -127, 0, 22, 28, 0, 9, 0, 12, -16, 2, 0, 16, -34, 0, 0, 0, -27, 0, 0, 39, 20, -12, -28, 5, 6, 12, 14, 5, 3, -5, -36, 25, -21, 0, 127, -14, 0, -4, 0, 0, -14, 0, 0, 89, 82, -33, 0, 0, -9, 0, 0, 6, -8, 3, 1, 1, 0, -4, -89, 34, -97, -91, 81, 80, -91, 0, -12, 4, 0, -127, 0, 7, 7, 24, 0, -42, 66, -51, 0, 0, 73, 0, 0, 29, -93, 49, -64, -20, 4, -113, 0, 0, 0, 0, 0, 0, 0, 0, 0, 0, 0, 0, 0, 0, 0, 0, 0, 0, 0, 0, 0, 0, 0, 0, 0, 0, 0, 0, 0, 0, 0, 0, 5, -9, 19, 18, 41, -49, -16, 0, 19, 15, 0, -19, 0, -9, 5, 127, 0, -4, 27, -88, 0, 0, -13, 0, 0, -77, -8, 51, 30, -13, -5, 36, 0, 0, 0, 0, 0, 0, 0, 0, 0, 0, 0, 0, 0, 0, 0, 0, 0, 0, 0, 0, 0, 0, 0, 0, 0, 0, 0, 0, 0, 0, 0, 0, -37, -32, -127, -86, 18, -22, -13, 0, -12, 28, 0, 66, 0, 1, 16, 4, 0, 9, -42, -11, 0, 0, 7, 0, 0, -7, 83, 11, -44, -3, -1, 100, 51, -93, -59, 50, 13, -31, 2, 0, 6, -127, 0, -71, 0, 3, -18, 55, 0, -4, -61, -2, 0, 0, -18, 0, 0, 10, -57, 14, -119, 0, 5, 30, -5, 7, -2, -4, 28, -8, 4, 0, -127, -8, 0, 3, 0, -2, 24, -1, 0, -47, -4, -1, 0, 0, 9, 0, 0, 2, 4, -3, 1, -3, -1, 3, 0, -8, -61, -55, 63, 14, -55, 0, 7, 4, 0, 10, 0, -7, -25, 2, 0, -26, -127, 26, 0, 0, -19, 0, 0, 14, -9, -54, -9, -12, -5, -14, 95, -102, -84, -61, 2, -66, 41, 0, 6, 75, 0, 93, 0, 11, -21, -9, 0, -19, 24, -2, 0, 0, -24, 0, 0, 6, -58, 127, 97, 5, -5, -79, 10, -6, -13, -10, 6, -1, -3, 0, 7, 1, 0, 4, 0, -8, 14, -4, 0, 42, 127, 1, 0, 0, 18, 0, 0, 14, -14, -15, 17, -3, -7, 3};

// Weights: interleaved over output-channels (k-major across filters)
static const int8_t L003_conv_weights_interleaved_oc[2048] = {10, -21, 4, -3, 127, -1, -90, 8, -8, -14, -10, 21, 3, -15, -19, 6, -3, -16, 10, -5, 27, -19, -60, -30, 4, -1, 25, -3, 0, 4, 0, 30, -8, -92, -2, -3, -10, 5, 16, -6, 23, 5, -91, 10, 127, 12, 2, 10, 13, 58, -11, 0, -53, 14, -89, 0, 5, 0, -37, 51, -5, 0, 95, 10, 7, 24, -4, -4, 97, 4, 127, 10, 1, 15, 14, -1, -4, -5, 27, -1, 4, -42, -7, -1, -27, -36, -73, -16, -8, -14, -11, -7, 0, 0, 0, 41, 14, -94, 2, 0, 9, 35, 11, 6, 7, -1, 84, -6, -89, 5, -9, 1, -51, 105, 0, -9, -2, 5, 34, 0, -9, 0, -32, -93, 7, -8, -102, -6, -71, 119, 4, 4, 6, 10, -57, -21, -4, 2, -8, 21, -4, -4, -4, 3, -4, -38, 5, 127, 59, 3, 28, -127, 1, 2, -7, 7, 0, -8, 0, -119, 9, 27, 8, -2, -1, -11, 64, 2, 23, -2, -23, -4, -30, 65, 8, 6, 109, 18, 9, 5, -115, 3, -97, 0, 19, 0, -127, -59, -2, -61, -84, -13, -66, -127, -7, -7, 33, 4, 80, -11, 1, -16, 4, 5, 10, -13, 8, -5, -11, -39, 4, 96, 53, 16, -39, 108, 4, 2, -39, 10, 0, -3, 0, -127, 21, 64, 9, -6, -2, 11, 62, -6, 32, -6, -40, 3, -18, 74, 4, 3, -127, 12, 3, -9, -107, -5, -91, 0, 18, 0, -86, 50, -4, -55, -61, -10, 56, 6, 2, -3, -20, 58, 15, 26, 10, 1, 15, -14, 4, 0, 127, -24, 15, -127, 83, -19, 9, -4, -6, -3, 2, 2, -65, 1, 0, 0, 0, 5, 76, -4, 20, 27, 16, -73, 52, -4, -5, -7, -62, -4, 7, 19, 13, 23, -1, -20, 16, 12, 80, -36, 81, 0, 41, 0, 18, 13, 28, 63, 2, 6, 91, -14, 1, -2, -24, 23, -10, -14, -11, 13, -11, 4, -2, 6, 9, 39, 9, -41, 6, -20, 9, -17, -2, 1, -6, -3, 73, -3, 0, 3, 0, -8, -31, -25, 0, 1, 4, -18, -17, 127, -19, 9, 38, -2, -24, 33, 0, 20, 44, -5, -8, 127, 0, 25, 80, 0, -49, 0, -22, -31, -8, 14, -66, -1, 14, 4, 5, -4, -111, 6, 38, -127, -6, -20, 17, -7, 4, 8, 5, -8, -9, 127, -68, 0, 116, -35, 22, 7, 11, 5, 25, -9, 0, 10, 0, -26, -8, -127, -9, 16, -4, 16, -117, 5, -31, -1, -68, 12, 49, 127, -2, -19, -52, 54, 6, 18, -127, -21, -91, 0, -16, 0, -13, 2, 4, -55, 41, -3, 0, 0, 0, 0, 0, 0, 0, 0, 0, 0, 0, 0, 0, 0, 0, 0, 0, 0, 0, 0, 0, 0, 0, 0, 0, 0, 0, 0, 0, 0, 0, 0, 0, 0, 0, 0, 0, 0, 0, 0, 0, 0, 0, 0, 0, 0, 0, 0, 0, 0, 0, 0, 0, 0, 0, 0, 0, 0, 0, 0, 0, 0, 0, 0, 5, 4, -10, 7, -10, 53, 8, -18, 127, -127, 10, -72, -127, 2, -8, 127, 43, -42, 15, -26, -3, 13, 8, 3, 3, 7, -54, -127, 0, -37, 0, -19, -41, -12, 39, -75, -5, -16, -18, -6, -34, -127, -12, -127, -2, 1, -2, -8, -5, -8, 24, 13, 22, 127, -12, 0, 19, 0, -12, 6, -127, 7, 6, 7, 9, 6, -1, -1, -85, 10, 60, -6, 4, -8, -10, 1, -3, -1, -8, 5, 3, -15, 9, -6, 24, 37, -49, -22, 7, 1, 14, -10, 0, 4, 0, -42, -10, 55, 11, 1, -4, -19, -21, 0, -35, 1, -58, 9, 92, -10, 1, 6, -99, 87, -5, -3, 28, -14, 4, 0, 15, 0, 28, -127, -8, 4, 75, 1, 0, 0, 0, 0, 0, 0, 0, 0, 0, 0, 0, 0, 0, 0, 0, 0, 0, 0, 0, 0, 0, 0, 0, 0, 0, 0, 0, 0, 0, 0, 0, 0, 0, 0, 0, 0, 0, 0, 0, 0, 0, 0, 0, 0, 0, 0, 0, 0, 0, 0, 0, 0, 0, 0, 0, 0, 0, 0, 0, 0, 0, 0, 0, 0, -8, 104, -5, 1, -36, -37, -45, 4, -1, 8, 2, 14, -3, 5, 12, -1, 0, -2, 23, 4, -127, -2, 19, 26, -3, 14, -42, -4, 0, -3, 0, -114, 22, -13, 16, 4, 5, 7, 18, 2, 25, 1, 74, 13, 13, 89, 0, -3, -109, -46, -6, -5, 9, -4, -127, 0, -19, 0, 66, -71, 3, 10, 93, 4, 0, 0, 0, 0, 0, 0, 0, 0, 0, 0, 0, 0, 0, 0, 0, 0, 0, 0, 0, 0, 0, 0, 0, 0, 0, 0, 0, 0, 0, 0, 0, 0, 0, 0, 0, 0, 0, 0, 0, 0, 0, 0, 0, 0, 0, 0, 0, 0, 0, 0, 0, 0, 0, 0, 0, 0, 0, 0, 0, 0, 0, 0, 0, 0, -2, 3, -1, 3, -3, -8, -6, 3, -1, -15, 3, -1, 6, 6, -4, 0, -5, 9, 1, 3, -4, 3, 1, 5, 3, 2, 8, -1, 0, 9, 0, -22, -15, 10, -5, 2, -1, -8, 4, 5, 1, 5, -17, 4, -6, 1, -5, -11, -9, 3, 0, 4, 12, 0, 7, 0, -9, 0, 1, 3, -2, -7, 11, -8, 23, -15, -5, -3, -15, -21, 1, 84, 1, 27, 19, 21, 9, -5, -3, -14, -127, -13, 10, 8, -6, 16, 8, 6, 127, -1, 5, 10, 0, 15, 0, 15, -8, -22, -11, -127, -4, 2, -22, 7, 53, 0, 40, 11, 1, -5, -127, 3, -8, 10, 14, 5, -16, -14, 7, 0, 5, 0, 16, -18, 24, -25, -21, 14, -127, 5, -8, -2, -16, 8, -76, 10, 12, 10, -127, 13, 12, 29, 7, -26, 18, -65, 61, -44, 23, 127, -22, -2, -8, -6, -66, -1, 0, -2, 0, -3, 31, -20, 7, -17, 11, -127, -25, -5, -13, -8, 2, -20, -3, -56, 3, 10, 2, -2, -17, -15, 2, 0, 24, 0, 127, 0, 4, 55, -1, 2, -9, -4, 0, 0, 0, 0, 0, 0, 0, 0, 0, 0, 0, 0, 0, 0, 0, 0, 0, 0, 0, 0, 0, 0, 0, 0, 0, 0, 0, 0, 0, 0, 0, 0, 0, 0, 0, 0, 0, 0, 0, 0, 0, 0, 0, 0, 0, 0, 0, 0, 0, 0, 0, 0, 0, 0, 0, 0, 0, 0, 0, 0, 0, 0, 0, 0, -5, -5, 13, -9, -1, -2, 1, -54, 70, -99, -4, -88, -84, -4, -4, 76, 16, 33, -5, -2, -1, -18, 9, -2, -7, -2, 17, -101, 0, -15, 0, 4, -40, 26, 127, -12, -3, 11, -24, -1, -60, -96, 26, -82, -17, -7, -2, -4, -5, 4, -15, 4, 16, 89, -42, 0, -4, 0, 9, -4, -47, -26, -19, 42, 33, 13, 29, -2, -28, -127, 20, -29, -26, 12, -7, 11, 5, 55, -9, 41, 2, 86, -127, 53, 39, -40, -20, 21, 0, -8, 127, 16, 0, -6, 0, -44, -127, 29, -18, -7, 127, 57, 127, 2, -96, -5, -14, -3, 70, -43, 2, -127, -33, -3, -13, -2, -34, 82, 66, 0, 27, 0, -42, -61, -4, -127, 24, 127, -26, -22, -8, -1, -13, -1, -25, 27, 15, 9, 90, 3, 5, -127, -17, -1, 4, -45, 12, -16, -5, -40, -10, -7, -8, -127, 77, -23, 0, 2, 0, -16, -22, 1, 9, -4, 1, 122, 6, 1, 127, -6, -27, -9, 56, 8, 0, 12, -3, 27, -2, -11, 0, -33, -51, 0, -88, 0, -11, -2, -1, 26, -2, 1, 0, 0, 0, 0, 0, 0, 0, 0, 0, 0, 0, 0, 0, 0, 0, 0, 0, 0, 0, 0, 0, 0, 0, 0, 0, 0, 0, 0, 0, 0, 0, 0, 0, 0, 0, 0, 0, 0, 0, 0, 0, 0, 0, 0, 0, 0, 0, 0, 0, 0, 0, 0, 0, 0, 0, 0, 0, 0, 0, 0, 0, 0, 0, 0, 0, 0, 0, 0, 0, 0, 0, 0, 0, 0, 0, 0, 0, 0, 0, 0, 0, 0, 0, 0, 0, 0, 0, 0, 0, 0, 0, 0, 0, 0, 0, 0, 0, 0, 0, 0, 0, 0, 0, 0, 0, 0, 0, 0, 0, 0, 0, 0, 0, 0, 0, 0, 0, 0, 0, 0, 0, 0, 0, 0, 0, 0, 0, 0, 1, 9, 127, 6, 11, -43, -14, -57, 18, 121, -6, -127, -5, 16, 4, -58, 46, 74, -45, -5, 22, -14, 9, 0, 4, -4, 2, 10, 0, -127, 0, 2, -17, 12, -4, 15, 10, -7, 13, 4, -54, 24, 38, 2, -5, -2, -5, -1, -23, 8, 127, -12, -27, -9, 73, 0, -13, 0, 7, -18, 9, -19, -24, 18, 0, 0, 0, 0, 0, 0, 0, 0, 0, 0, 0, 0, 0, 0, 0, 0, 0, 0, 0, 0, 0, 0, 0, 0, 0, 0, 0, 0, 0, 0, 0, 0, 0, 0, 0, 0, 0, 0, 0, 0, 0, 0, 0, 0, 0, 0, 0, 0, 0, 0, 0, 0, 0, 0, 0, 0, 0, 0, 0, 0, 0, 0, 0, 0, 0, 0, 0, 0, 0, 0, 0, 0, 0, 0, 0, 0, 0, 0, 0, 0, 0, 0, 0, 0, 0, 0, 0, 0, 0, 0, 0, 0, 0, 0, 0, 0, 0, 0, 0, 0, 0, 0, 0, 0, 0, 0, 0, 0, 0, 0, 0, 0, 0, 0, 0, 0, 0, 0, 0, 0, 0, 0, 0, 0, 0, 0, 0, 0, 2, 10, -115, 127, -6, -18, 4, -28, -35, -46, 5, 28, 28, -2, 7, 32, 2, 40, 16, 7, -1, -12, 11, 4, 1, 1, 26, 33, 0, -127, 0, -4, -55, -7, -14, 10, 8, -3, 53, -3, -27, -6, -2, 1, -2, -1, 0, 5, -9, 2, -62, 7, 39, 6, 29, 0, -77, 0, -7, 10, 2, 14, 6, 14, -69, 80, 0, -2, -24, 4, -64, -9, 2, 5, 0, 4, 3, -12, 5, -14, -2, 30, 16, -114, 54, 27, -119, 75, 3, -7, 9, 16, 0, -5, 0, 102, -4, -36, 0, -10, -4, 23, -44, -1, 28, -4, 3, 0, 10, 49, 2, -2, 90, -9, 0, -17, 20, -8, -93, 0, -8, 0, 83, -57, 4, -9, -58, -14, -24, -32, 3, 2, -9, 69, -79, -37, -3, 16, -8, 15, -1, 11, -3, -4, 1, -36, 26, 21, 49, 4, -16, -13, -2, -21, -71, -9, 0, 5, 0, -6, 35, -34, 6, 4, -5, -37, -11, 1, -67, -11, -127, -8, -41, -91, 6, 7, 59, 0, 5, 10, -12, 3, 49, 0, 51, 0, 11, 14, -3, -54, 127, -15, 0, 25, 2, -1, 76, 15, 55, 4, -5, -17, 6, 4, 3, 1, 1, -7, -4, -19, 7, -8, 43, 23, 48, 19, 1, -3, 13, -13, 0, -2, 0, 41, -15, -36, 4, 7, -5, -48, -34, 2, 33, -2, -72, -9, 93, -13, 1, 11, -75, -127, -3, -1, -28, 1, -64, 0, 30, 0, -44, -119, 1, -9, 97, 17, 1, -3, 5, 4, -6, -13, -5, 2, 4, 12, 1, 2, 1, 1, 0, 3, 0, -3, -3, -1, -6, 5, -1, 6, -2, -1, -10, -5, 0, -7, 0, 4, 0, -3, -8, -5, 1, -5, -5, -3, -5, -5, -4, 0, 6, 1, -1, 3, 9, -3, 4, -4, 5, 1, -20, 0, -13, 0, -3, 0, -3, -12, 5, -3, -8, 9, 2, 2, 2, -7, 0, 3, 0, -11, 0, -3, 4, 3, -3, 0, -4, 4, 0, 15, 3, 3, -9, -1, 2, 3, 5, 0, 0, 6, 0, -11, -13, 6, -1, 3, -1, -5, 2, 3, -2, 3, -12, 3, 0, 0, -4, -10, 19, 3, 1, 3, 6, 0, 4, 0, -5, 0, -1, 5, -1, -5, -5, -7, -99, -82, 3, -5, -46, -4, 73, -21, 2, 4, 2, 11, 10, -6, 14, 0, -9, 10, 28, -114, 21, 7, 127, -65, 1, 7, -6, 16, 0, -1, 0, 78, 10, -114, -6, 1, 6, 10, -43, 1, 40, -10, -86, -5, 8, 95, 2, 5, -78, 13, 5, -6, 12, -4, -113, 0, 36, 0, 100, 30, 3, -14, -79, 3};

static const int32_t L003_conv_bias[64] = {25599, -5379, 3755, 1141, 16527, 10689, -20889, 52793, -19436, 32742, -12199, 9013, 34222, 11545, -5805, -20871, 30204, 128720, 18642, 3853, -60774, 5876, 14795, -3447, -30296, 11333, 26213, 41274, 1073741824, 20450, -331626080, 17817, 75408, 64414, -8705, 41726, -9288, 15030, 56328, -1573, 28871, 49806, 126793, 42421, -49879, -60035, 25177, 17570, 48215, -32330, -2978, -1927, 62956, -13192, 89973, -1073741824, 35713, -1073741824, 15972, 46854, 38285, 67297, -9712, 401};
static const int32_t L003_conv_bias_total[64] = {-6785, 7421, 8363, 14837, 3599, 8385, -19481, 20665, 1940, 17638, -12583, -8267, 18094, 5017, 12627, 761, 28284, 112080, 28498, -2163, -13286, 11892, -2613, -4343, -13656, -8123, 33253, 16058, 1073741824, -16030, -331626080, -12775, 50320, 12062, 14335, 19070, 9784, 5046, 62344, 15451, 21703, 17934, 74313, 15413, -12119, -15107, 10713, 9890, 4439, -9162, 6238, 12665, 28396, 13432, 34677, -1073741824, 46337, -1073741824, 3940, -7034, 21517, 23009, -3056, 23441};

static const int32_t L003_conv_output_multiplier[64] = {1285135744, 1202090496, 1838370432, 2030571648, 1088816640, 1270987520, 1297164800, 1377557760, 1830417152, 1515869184, 1501543936, 1281932160, 1918991616, 1229519360, 2048301824, 1653691648, 1434028672, 1896165888, 1835480960, 1419157120, 1530553984, 1397903616, 1642268160, 1753693568, 1430666880, 1326540288, 1528651392, 1677116544, 1948519936, 1617276416, 1134765312, 1507976960, 1617939328, 1361554176, 2108093568, 1719172736, 1898943488, 1182292736, 1562176000, 1856909952, 1206263936, 1758658048, 2007355648, 1402712832, 1193563264, 1239699328, 1137606528, 1647306752, 1075987200, 1675112576, 1087426560, 1288955136, 1327920512, 1350041728, 1256232448, 1514439552, 1356802048, 1326588544, 1345304832, 1119009920, 1352019200, 1626357248, 1844569216, 1721581696};
static const int32_t L003_conv_output_shift[64] = {-7, -7, -6, -7, -7, -6, -7, -7, -6, -6, -6, -5, -7, -6, -5, -6, -6, -9, -7, -4, -7, -5, -7, -7, -4, -3, -8, -7, -26, -6, -27, -7, -8, -7, -7, -7, -6, -7, -8, -4, -8, -7, -9, -7, -4, -7, -3, -6, -7, -7, -6, -4, -7, -7, -5, -26, -8, -26, -7, -7, -6, -7, -8, -7};

#endif  // LAYER_003_CONV_2D_H_
