#ifndef LAYER_020_DEPTHWISE_CONV_2D_H_
#define LAYER_020_DEPTHWISE_CONV_2D_H_

#include <stdint.h>

// op_index=20 op=DEPTHWISE_CONV_2D
// input:  idx=77 name=sequential_1/mobilenet_1.00_128_1/conv_pw_9_relu_1/Relu6;sequential_1/mobilenet_1.00_128_1/conv_pw_9_bn_1/batchnorm/add_1;sequential_1/mobilenet_1.00_128_1/conv_pw_9_1/convolution; shape=[1, 8, 8, 512] dtype=int8
// weights: idx=19 name=tfl.pseudo_qconst17 shape=[1, 3, 3, 512] dtype=int8
// output: idx=78 name=sequential_1/mobilenet_1.00_128_1/conv_dw_10_relu_1/Relu6;sequential_1/mobilenet_1.00_128_1/conv_dw_10_bn_1/batchnorm/add_1;sequential_1/mobilenet_1.00_128_1/conv_dw_10_bn_1/batchnorm/mul_1;sequential_1/mobilenet_1.00_128_1/conv_dw_10_1/depthwise; shape=[1, 8, 8, 512] dtype=int8

#define L020_DW_OUT_CH (512)
#define L020_DW_KH     (3)
#define L020_DW_KW     (3)
#define L020_DW_STRIDE_H (1)
#define L020_DW_STRIDE_W (1)
#define L020_DW_DILATION_H (1)
#define L020_DW_DILATION_W (1)
#define L020_DW_DEPTH_MULTIPLIER (1)
#define L020_DW_PAD_H (1)
#define L020_DW_PAD_W (1)

static const int32_t L020_dw_input_offset = 128;
static const int32_t L020_dw_output_offset = -128;

static const int8_t L020_dw_weights[4608] = {-5, -27, 23, 9, -44, 9, -37, 127, -49, -14, 102, 17, 22, -3, 102, -99, -55, -3, -4, -8, -127, 16, -28, -114, 15, -38, 13, -12, 114, 2, 29, 2, -121, 53, 43, -13, -4, 54, -12, 10, -23, 25, -42, -2, -24, -16, -9, -10, 59, 9, 5, -2, 52, 57, -7, -15, -67, 3, -17, 7, -41, 18, -1, -6, 26, 13, -21, 7, -8, 0, -2, -62, -6, 18, 12, 5, 12, -6, 29, 1, -33, -2, 24, -1, 3, -122, -2, -15, -34, -48, 26, -3, 1, 13, -6, -28, -29, -2, 48, 6, -8, 126, -12, -36, -28, 6, 67, -14, 105, 6, -6, 58, 57, 16, 24, 98, 1, -3, 24, 3, 88, 22, 1, -10, -10, -14, -84, 4, 13, -12, 18, -5, 0, -3, -61, 8, -12, -4, 0, 3, -6, -5, 1, -12, -10, -100, -43, 95, 9, -3, -7, -51, -49, 63, -24, 5, 24, -28, -1, 0, -27, -50, 24, -3, -7, -8, 26, -1, 5, 54, -51, -2, 0, -1, 13, -10, 12, -13, -18, 29, 0, -32, 83, 27, -8, -14, -8, -6, -5, 10, -10, -2, 7, -11, 46, -70, -3, 0, -15, -9, -5, -12, 18, -11, 0, -9, 25, -10, -4, -8, 12, -24, 10, 7, 23, -3, 11, 9, 11, -16, -1, 1, -18, -14, 10, -127, -8, 16, 81, -12, 28, -21, 12, 4, 1, 26, -35, -13, 17, -43, -10, 98, -13, 15, -5, -11, 8, 57, 13, 3, 4, -5, 5, 76, 9, -25, -9, -18, 45, 24, 30, 4, -19, -20, -31, -14, -3, 67, -29, 11, -7, -1, -35, -13, -18, -26, 23, -60, -1, 0, 127, -1, -11, -94, -68, 6, 1, 28, -3, -32, -9, -4, -5, -26, 7, -4, 3, -22, -10, 7, -23, -46, 4, 26, -11, -68, -66, -8, 40, 15, -25, -51, 10, 7, -31, -5, -24, 3, 3, 9, 3, -16, -24, 23, -4, 3, -15, -22, -56, -1, 43, -11, -8, -66, -29, -16, 31, -19, 1, 6, -21, 65, -6, 2, -21, 18, -25, -7, -4, -6, -5, -26, -6, 15, -105, -77, -16, 4, 91, 18, -13, 1, 47, 3, 75, -98, 2, 36, 4, 11, 0, 5, 3, -16, -63, -37, -25, 85, 26, 93, 55, -13, -25, 10, -19, -1, -26, -16, 29, -9, 12, -27, 79, 13, 28, 43, -4, -4, -10, 19, -8, -14, -11, -11, -32, 37, -50, -5, -36, -50, -127, 27, 21, 11, 73, 15, -16, 7, -8, 21, -50, 34, -17, 29, -19, -5, 36, -12, -25, 36, 38, -5, -26, -2, 4, 9, -7, -8, 0, -70, -20, 89, 13, -68, -2, 51, 23, -79, -13, 0, 5, 6, 60, -33, -15, 43, -8, -12, 8, 3, -80, -13, -53, -2, -5, -2, 11, -12, 17, -9, -20, -2, 101, -40, -1, 0, 112, 4, -7, -6, -37, 18, 41, -44, 3, -22, 9, -14, 13, -9, -4, -7, -8, 4, -5, 5, -4, -5, 2, -4, 35, 15, -42, 12, -12, -10, 64, -41, 43, 8, 13, -21, -47, -50, 127, -28, -127, -31, -68, 15, 1, -88, 127, 64, -8, -5, 127, -6, 0, 1, -127, -38, -78, -106, -86, 83, 15, -39, 60, -105, -23, -53, -105, 2, -127, 127, 0, -4, -39, -46, 7, 13, -29, -41, -24, -19, 18, 76, -22, -5, 18, 48, 19, -10, 127, 4, 34, -40, -39, -26, -30, -27, -12, -9, -34, 11, 118, -52, -47, -40, -40, 7, -29, -127, -83, 127, 15, 127, 54, -2, -74, -22, -57, 5, 54, -95, -6, -110, 16, 8, 41, -80, 71, 2, -5, 85, -75, -38, 0, -63, 89, 27, 55, -22, -20, -26, 91, -9, -20, -37, 49, 0, -44, 9, -17, 29, 93, 46, 10, -35, 127, 9, 37, -78, -54, -32, -12, -5, -19, -21, -13, -1, 41, -17, 6, -12, -50, 18, -74, -59, -92, -32, -50, -2, -104, 6, -4, 72, -69, 53, -91, 17, -3, -127, -127, 90, 46, 46, 43, -76, -19, 26, 33, -63, 127, -15, -5, -22, 40, -31, 9, 127, -28, 10, -56, -22, -1, 57, 21, -35, -15, -127, 4, -70, -28, -23, -26, -127, -10, 7, -23, 97, 2, 97, -6, 61, 127, 22, -68, 25, -59, 7, -21, -8, -40, -38, -18, 127, -18, -52, -15, -41, 12, 10, -34, -37, 41, -5, -22, -39, 36, -49, 13, -17, -30, -53, -29, -86, 127, -21, 79, -20, -68, -30, -31, -8, 66, 127, -55, -15, -1, 0, -43, -24, -35, 71, 0, 51, -53, 17, -44, 76, -57, 2, -36, 118, -13, -75, -20, -29, 127, -21, 127, 88, 48, -33, 78, 61, -15, -4, 127, 2, 1, 8, -81, -24, 127, -28, 127, -84, 0, -62, 42, -31, 0, -69, -127, 127, -4, -33, -27, -70, -36, -18, -21, -39, 2, -49, 3, 8, -18, 12, -5, -96, 4, -127, -95, -81, -127, -26, 127, 10, -4, -69, 25, -8, -59, 127, -17, 12, 127, 38, 17, -54, -51, 101, -18, 21, 48, -108, -110, 18, -16, -31, -24, -13, -103, -6, -127, -50, -31, -63, -25, 52, -38, -22, -36, 8, -61, -5, 34, 127, -30, -9, -56, 127, -59, -17, 22, -42, 13, -71, -20, 0, -22, -39, 99, -102, -47, 127, 39, -7, -50, -4, -4, 16, -26, -24, -79, -5, 10, -20, 87, -8, -95, -45, 127, -8, 127, 44, 127, -23, 9, -5, 12, 30, 3, 127, -41, -19, -20, 108, -15, -121, 22, 127, -127, 39, -43, -38, -53, 13, -95, -65, 127, 16, 28, 33, -12, 127, 4, 4, 127, 44, -24, -50, 19, -53, 127, -31, 97, 68, 87, -14, 8, 12, -3, 5, -45, -15, -13, -35, -40, 12, -27, -53, -127, -15, 22, 8, -30, -43, 4, -10, 127, -32, -42, 54, -52, 84, -12, 9, -12, -57, -7, -19, -19, -31, -2, -8, -38, -11, -8, -63, 74, -55, 83, -23, 34, 4, -18, -4, -47, -43, 19, -50, 50, -25, -64, 127, -1, 127, 35, -38, 29, 32, 127, -101, 5, -5, -89, 16, 6, -28, 21, 57, 5, -42, 100, -45, 37, 0, -48, -27, -14, -8, 35, 12, -63, 7, -37, -33, 100, -19, 79, 19, -7, -3, 103, -90, 127, -6, -9, -14, -94, -5, -33, 127, 15, 87, 23, -28, 124, 5, -35, -1, -119, 78, -27, -12, -4, -61, 44, -1, 3, -2, 13, -3, -16, -9, -7, -15, 67, 15, -5, -7, 48, -127, -6, -14, -13, -9, -23, 2, 38, 18, -2, -7, 37, 18, -22, 0, -9, -1, 1, -73, -2, 24, 9, 19, 16, -15, -69, -1, -26, 1, 31, -9, -1, -17, -3, 4, 52, -49, 37, -3, 0, 24, -10, -24, 127, 21, 63, 9, 44, -28, -11, 32, -24, 4, -23, -17, -71, 70, -6, 81, -14, 18, 35, 16, 8, 3, 42, 1, -18, 19, -10, -15, -8, -10, 31, 5, 13, -9, 11, -3, -8, -7, -73, 43, -20, -9, -12, 23, -5, -10, 2, -11, -11, -12, -33, 127, 15, 4, -9, -68, -63, -51, -15, 14, -20, -33, -1, 1, -19, -45, 35, -5, -9, -4, 35, 1, 8, 73, -17, -5, -1, 0, 3, -13, 13, -18, -18, 8, 3, -25, -38, -20, -12, -2, -11, -13, -5, 13, 4, -63, 5, -4, 47, 17, -6, 5, -11, -10, -6, -11, 11, -14, -3, 0, 33, -11, 2, 9, 13, 8, 12, 4, 28, -6, 17, 3, 20, -30, 0, -27, -14, -29, 3, -113, -2, 3, 97, -16, 19, -17, 8, 1, 15, 34, -38, -10, 17, -4, -10, -49, -16, 28, -11, -10, 5, 63, 19, 127, -15, 10, 2, 65, 7, -50, -21, -20, 58, -18, 29, -40, 4, -17, -22, 11, -7, -34, -10, 6, -5, -5, -29, -19, -5, -35, 32, -55, -6, -1, -106, -5, -10, -68, -64, 13, -7, 23, 0, -49, -12, -5, 20, -39, 0, -13, 5, -21, -12, 10, -22, -71, 4, 26, -23, -74, -79, -12, 56, 11, -25, 115, 14, -8, -37, -1, -28, 6, 8, 16, 7, -22, -20, 29, -16, 2, 76, -27, -57, 0, -29, -16, -5, -109, -34, -4, 20, 28, -5, -1, -32, 64, -11, 8, -29, 19, -73, -5, -2, 13, -5, -81, -11, 27, -93, -79, 88, -2, 46, 14, -10, -2, 49, 1, 81, -112, -5, 56, -2, 5, -11, 6, 7, -15, -44, 68, -27, 90, 25, -63, 63, -42, -23, 11, -7, -3, -17, -14, 41, -11, 7, -8, -16, 7, -8, 52, -8, -8, -12, 28, -2, -23, -11, -6, -65, 17, -48, -3, -15, -48, -113, -14, 26, 21, 7, -6, -11, 24, -12, 25, -25, 39, -7, 23, -17, -10, 45, -11, 9, 74, 41, -3, -24, 9, 3, 10, -8, -11, 0, 47, -38, -11, 14, 37, -8, 41, 12, -107, -15, -65, 10, -1, 66, 75, -16, 48, -10, -6, -2, -1, -12, -28, -67, 3, -10, -11, -2, -1, 20, -19, -25, -6, -35, -44, 5, 2, -30, 10, -5, -18, 6, 12, -23, -50, 3, -20, 4, -8, -9, 0, -4, -3, -13, -21, 10, 1, -7, -2, -2, -2, 39, 9, 72, 19, 0, -18, 59, -52, 47, 9, -36, -11, 3, -63, -7, -20, 11, 14, -68, 86, -80, -30, -23, -16, -127, -3, 36, -45, -11, 6, 16, -8, -45, -97, -17, -38, 10, -79, 2, -70, -104, 39, -127, 7, -121, -67, 127, 31, -13, 86, 24, -1, 0, 122, -118, -13, -18, -15, -34, 10, -12, 24, 7, -20, 21, 99, -5, 18, -102, 127, -26, 27, -112, 1, -24, -3, 1, 28, -15, -45, -29, 2, -14, -71, -127, 8, 28, -17, 20, 25, 113, -33, -2, 12, 23, 46, -22, 127, -2, 127, -26, -105, 20, 1, -61, 25, 7, -33, -30, -95, 1, 5, 27, 90, -26, -80, -35, -1, 127, -21, 127, -11, -30, 16, 127, 18, -39, 127, 17, 13, 28, -10, 127, -17, -24, -30, -12, -14, -127, 5, -14, -8, -15, -37, -2, -4, -92, -86, -7, -43, -102, -64, -13, -11, -66, -30, -25, 127, 4, 13, -72, -7, -13, -46, -26, 126, -8, 18, 27, 6, -30, 19, -95, 5, 0, -14, -7, -5, -8, -23, 15, -22, 127, -6, -8, -10, 42, -12, 12, -9, -16, 38, 45, -88, 127, 27, -23, -61, -3, 0, 16, -16, -54, -15, 4, -6, -32, -127, 4, 18, -17, 12, -36, -21, -62, -13, -7, -61, 127, -13, -38, -111, 22, -127, 12, -40, 36, -18, -14, 2, -37, -18, -37, 127, -24, -62, 40, 10, -52, -3, 18, 45, -92, -21, -60, -5, -36, -43, -34, -32, 21, -127, 27, 127, -37, 18, -14, -30, 4, 7, 18, -23, -48, -127, -4, 53, -16, -53, -43, 1, -28, 127, 8, 76, -33, -11, -36, 80, -3, 127, -34, 23, 7, 4, -77, -15, -51, -9, -8, -76, 0, 127, 56, 6, -14, -127, 20, -13, -10, 40, -34, -94, -26, -13, 127, -31, -2, -3, 4, -24, -24, 37, 44, -52, -16, 33, -109, 21, -117, -10, -16, 19, -6, 42, 13, 127, -18, -56, -10, 44, 11, -3, -6, -34, 39, 10, 6, 36, -70, 16, -119, -28, 98, -27, -36, -98, -27, -91, 16, 86, 127, -81, -30, 9, -28, 127, 10, 24, 26, -23, -2, -17, -23, 43, -31, -3, -101, 4, -50, -15, 82, -60, -20, 20, -51, 34, 57, -29, -7, -19, 6, 10, -23, -9, -42, -19, -111, -97, -45, 58, -10, 127, -1, 20, -96, 20, -32, -4, -7, -9, 14, -31, 5, 9, 127, 13, 127, -8, -32, -43, -25, 19, -5, -21, -3, -6, 5, -127, -75, 3, -73, 62, -66, 127, 41, -11, 88, -31, -4, -55, -10, -10, 35, 13, 1, 23, 3, -28, 44, -13, 26, 43, -7, -33, -28, -1, -4, 17, -9, -13, -19, -70, -63, 127, 26, 51, -2, 50, -98, 17, -23, -38, 0, -122, -18, -127, -22, 19, -9, -19, -47, -20, -127, 127, -92, -13, -31, -29, 23, -5, -25, -20, -25, -7, 127, -73, -1, -68, 127, 13, -19, 26, -18, -10, -2, -4, 5, -16, -37, -22, 127, -3, -23, 15, 31, 127, 40, -24, 5, -4, 7, -11, 15, 1, -96, 6, 127, -11, 38, 18, 24, 8, 127, -41, 127, -127, -82, -127, 80, 127, 127, 2, -32, 127, -78, 48, -8, 127, 113, -127, -75, 127, 7, 127, -55, -127, -5, 53, -127, -15, 127, -127, -127, 127, -10, 127, -22, -55, -52, 127, -74, -127, 127, 127, -127, 127, 127, 127, 127, 127, 127, 127, -127, -127, 127, 127, -98, -40, 127, -127, 127, -90, 127, -127, -1, -127, 127, 127, -127, 127, 127, 127, 127, -127, 26, 126, 56, 67, 127, 5, -127, 127, -127, 127, 127, 127, -127, -127, 127, 115, 127, -33, 127, -91, -127, -127, -127, -127, -83, -54, 8, -127, 22, -127, -127, -41, 127, 97, 127, 127, -17, 127, 69, -93, 127, -127, 18, -127, 122, -66, 127, -127, -35, 127, 68, -116, -127, 127, 127, 127, 103, -127, -127, 127, 43, 127, 127, 127, -108, -18, 100, -127, -127, 127, 127, 127, -127, 127, 127, 54, 86, 42, -127, 127, 127, -72, -77, 127, 127, -127, 127, 127, 127, 127, -127, -2, -3, 127, 127, 127, -127, 41, -127, -109, -50, 127, 127, 127, 127, 127, 127, 127, 127, -30, -127, -127, 18, 112, 127, -108, 127, 127, -68, 127, -35, 72, 127, 127, -103, 16, 127, 127, 127, 127, 127, 127, -127, 127, 9, 87, -5, 127, -127, 31, -127, 73, -127, 127, 69, 127, -127, -127, 127, 127, 127, -13, 127, -127, -127, -20, 31, -12, -127, 79, -127, 127, 127, -64, 127, -73, -127, 127, -127, 55, -124, -1, 127, 127, 127, 127, 127, 127, 107, -95, -127, 37, -127, -127, 127, -121, 127, 127, -119, -15, -10, 5, -127, 127, 127, -54, -127, -7, -49, 127, 127, 127, -127, 127, -37, -127, -14, -127, 127, -123, -88, 127, 127, -35, 45, 14, -127, -127, -127, -127, 127, 127, -7, -127, 127, 127, 127, 5, 127, 127, 127, -127, 127, 83, -127, -127, 13, 127, 35, 127, 127, 10, -127, -47, 127, 85, 127, -112, 44, 127, 127, 61, -127, -127, 127, 127, -90, -125, -64, 127, -127, 127, 127, -35, 127, -127, 114, 65, 9, 127, 127, -127, 127, -9, -4, -127, 127, 127, 127, 0, 127, 52, 127, 3, -87, 127, -127, 127, -127, -127, 127, 127, -84, -127, -127, -11, 127, 89, 127, -127, -101, -127, 0, -127, -73, 0, -127, -127, -127, -37, -127, 78, 36, 127, -5, 127, -52, 127, 43, 127, 127, 80, 11, 127, -61, 88, 127, 127, 127, 86, 127, 100, 127, -78, 50, 50, -127, 127, -73, 127, -49, -111, -30, -127, -127, 127, 127, 73, 127, -127, 118, -127, 127, -127, 127, 127, 31, 127, 127, 127, 127, 127, 127, 127, 127, -127, 127, 127, 127, -127, 127, -97, -127, -127, -47, 127, -127, -127, 127, 8, 127, -64, -101, 93, -91, -127, -17, -127, -127, 127, -70, -56, -127, -127, 127, 127, 127, 127, -127, 127, -127, 127, 75, -82, 127, 127, -26, 127, 127, 127, -55, 127, 127, 127, 33, 127, 127, -34, -124, 35, 127, 127, 127, 59, 121, -51, 127, 127, -80, -73, -127, -109, -79, 127, 8, 127, -127, -66, 127, -127, -77, -127, 11, -52, -21, -26, 23, 19, -61, -33, 127, -18, -51, -6, 115, 8, 31, -41, 80, 19, 12, 2, -50, -120, -21, 90, -7, 127, 15, -65, -102, 40, 88, 13, -107, 1, -20, 51, -24, -55, 3, 7, 57, -64, 22, -10, 1, -1, -27, 27, -26, 14, 18, -5, 21, -52, -1, 8, 47, 27, -21, 12, 127, -12, -15, 11, -2, 40, -4, -32, -14, -15, -21, -50, -119, 13, 25, -20, 2, 32, -70, -25, 6, 21, 13, 33, -15, -48, 13, -90, 52, -106, 13, 0, -73, 11, 0, -34, 60, -96, 11, 5, -90, 50, -14, 127, -23, 6, -73, -9, -35, 127, -26, 9, -1, 9, -29, -41, 29, 17, 39, 3, -108, -21, -33, -21, -4, -1, 43, 1, -40, 15, -17, -24, 10, 1, -116, 127, -3, -51, -109, 124, 6, -1, -78, -21, -13, -111, -2, 109, -80, 13, 7, -56, -17, -40, 4, 0, 47, 19, -19, 15, -83, -2, -5, 1, 6, 15, -15, -18, 4, -17, -20, 5, 7, -3, 62, 9, 19, 8, 3, 42, 40, -95, -60, -127, -13, -85, 2, 12, 8, 21, 127, -127, 13, 7, -30, 74, 7, 18, -4, 38, -22, -7, -83, -1, -9, -52, 127, -2, -51, 119, 13, -2, 2, -30, 36, -10, -24, -16, -27, -82, -33, -60, -18, -49, 19, 28, -54, 127, 14, 39, -103, -18, -52, -8, 21, -47, -24, -17, 11, 24, 22, -112, -17, 29, -14, -17, 14, 22, 127, 127, -59, 39, -14, 46, -9, -93, -27, 22, -28, -100, 3, -119, 99, 0, -38, 30, -9, -83, -32, 30, 22, 25, -66, -6, -46, -12, -9, -64, 15, 114, -57, 2, -4, -96, 27, -15, -20, 49, -46, -92, -11, 2, 5, -37, 4, 11, 8, -31, -12, 39, 48, -61, -4, 39, -95, 8, -104, -1, -17, 25, 9, 127, 4, -43, -9, -46, 16, 40, 19, 7, 7, -35, 27, 2, 15, 42, 127, 12, -123, -12, -28, -18, -22, -126, -16, -97, 27, -127, -39, -72, -18, 7, -19, -100, -1, 12, 117, -8, 2, -10, -14, -127, -18, -2, -127, 11, 93, -7, -24, -67, -3, 46, -60, 27, 49, -28, 4, -24, 15, -8, -23, -21, -46, -23, -85, 127, -45, 43, -22, -91, -8, -127, -105, 36, -34, 5, -9, -7, 16, -26, 16, 127, -102, 22, -32, 11, -31, -35, -12, 127, 4, -8, 5, -17, 4, 28, -76, 25, -88, 69, -59, -37, 41, -8, -64, 48, 4, -48, -2, -15, 50, -3, 12, 16, 15, -10, 52, 0, 31, -106, -1, -23, -7, 13, 8, 9, 6, -4, -9, 89, -4, -78, 12, 93, 1, 47, -100, -32, -7, 127, 11, -127, -29, 115, -30, 18, -10, -10, -55, -9, 87, -65, -94, -26, -21, -18, 30, 3, -28, -7, -33, 5, -76, -64, 10, -58, -26, 14, -6, 22, 127, 26, 31, 9, 10, -4, -25, -27, -4, -3, -9, 30, 44, -6, 43, -30, 12, -1, 4, -18, 12, -16, 127, 5, -36, -7, 34, 2, 22, -1, -20, -24, 16, -13, -45, 6, -9, 1, -22, -64, 20, -5, -70, -38, -40, -2, -70, 108, -36, -18, 2, -3, -68, 16, 62, -20, 20, 14, -3, -18, -77, -13, -44, 3, -101, -42, 1, 64, 6, 66, 22, -2, 33, -85, -50, -9, 0, -18, -12, 20, -16, -3, 17, -3, -8, 67, -8, 41, -93, 26, -18, 28, 13, -5, -5, -5, 15, -4, 2, -6, -18, 4, 27, -17, -19, 36, 15, 10, 3, -13, 102, -8, -6, -4, -3, 13, -13, 65, -3, 53, 23, -110, 4, -2, 0, 11, 45, 51, 0, 8, -9, 1, 11, 127, -7, -67, -54, -4, -23, -10, -56, -10, -19, -75, 67, 15, -36, 63, -13, 24, 4, 4, 39, 22, 25, -1, -13, -2, -77, 15, 4, -5, 25, -8, -12, 9, -41, 3, -7, -9, -53, -3, -17, -9, -43, -14, -13, 11, -2, 100, -66, -7, 1, 2, -4, -20, -13, 6, 29, 9, -10, 4, -25, 21, 2, 5, -7, 4, 11, 15, 10, -17, -16, -12, 3, -6, 9, -26, 18, -14, -16, -14, 22, -35, -5, 41, -9, 4, 5, 5, 10, -3, -10, 14, 0, -16, -36, -28, -15, -8, 0, 10, -8, -8, 20, -7, 4, -23, -52, -16, -3, -26, 9, 67, 0, -2, 32, -7, 3, 27, -45, -21, -7, 42, -22, -20, 23, -11, -7, -7, -13, 47, -5, -10, -4, -4, -15, -15, -69, -5, 30, -33, 28, -14, -23, -22, -9, -16, 2, 10, -13, -4, -19, -35, 9, -14, 2, -20, 1, -2, 8, 30, 2, -28, -15, -25, 3, 114, 1, -24, 9, 16, 0, 10, -12, -11, 11, -33, -3, -46, 9, 22, 43, -3, -16, -93, 8, -2, -19, 12, 7, -32, -8, -9, 43, 23, -7, -26, 15, -9, -10, 14, -3, 15, -9, -9, 2, 39, -94, -14, 8, 14, 11, -46, 12, 36, -11, 10, -6, 45, 12, -6, -12, 8, 76, -7, -4, 10, -12, 29, -27, -7, 67, -7, -2, -98, -13, -44, 6, 120, 46, -3, -29, 6, -12, 21, 27, 15, 9, -6, 5, 3, -4, -21, 3, -1, -75, 22, -25, -14, 74, 24, -10, 15, -26, 74, 9, 18, -6, -9, 1, 3, -15, 5, -49, 25, -14, 5, 24, -13, -3, 27, -18, -7, -28, 24, 2, -6, 0, -4, -18, -6, 14, 15, 123, 13, 59, 7, -16, -14, -14, -29, 8, 23, -13, 4, 44, -20, 4, 0, -15, -1, -49, 50, -1, 22, 64, 10, -15, -5, -8, -23, -56, 9, 5, 36, -7, -18, 28, -4, -5, 89, 0, -4, -36, 9, 0, 12, -19, -8, -6, 17, -21, 92, 49, 56, 42, -46, -33, -32, -14, -25, 8, 43, -27, -42, 11, 16, -4, -50, 25, -15, -63, 25, -29, -4, -5, -3, -1, -5, 8, -10, -1, -13, -102, -36, 8, 1, -44, 15, -11, 38, -1, 5, -22, -6, -35, -4, -4, 4, 42, -14, -12, 0, 5, 30, -5, 8, -12, 8, 43, -27, 36, 36, -53, -10, 84, -10, 5, 53, -21, 7, -19, 20, 33, -85, -53, -30, 123, 15, 113, -15, -8, -47, -54, -127, 6, 15, -99, 34, 0, 67, 42, 22, -82, -90, 127, -32, 11, -26, 18, -120, -65, 43, 23, -2, -100, -96, -26, 40, 127, 28, -8, -4, 68, 35, -26, -35, -41, -58, -12, 7, -67, -11, 27, -18, -63, -13, -7, 84, -71, -22, -4, 47, 0, -18, 0, 11, -57, 62, 41, -16, 17, 9, 127, 39, -115, 30, 38, 24, -21, 69, 0, -30, -13, 3, -4, 93, -14, 92, -22, 2, -14, -127, -46, 1, -46, -31, 127, 127, -27, -109, -127, -9, 58, -12, -4, 51, -80, 13, -9, 27, -19, 9, 0, -69, -14, -21, -127, 8, 21, 58, -34, -6, -5, -127, -6, 14, -8, 19, 12, 41, -56, 6, 127, -16, -10, 18, -127, 15, 127, -55, -102, 29, 30, 16, -54, -28, -13, -119, 127, 38, -75, 12, 25, -21, -28, -50, -43, -18, 40, 35, -20, 17, -55, 127, -1, 12, 26, 19, -49, 127, 22, -89, -22, -37, 52, 11, 30, -51, 43, 27, -10, 32, 62, -64, -28, -21, -7, -10, 11, 12, 127, -7, 6, 84, -33, -33, -6, 6, -20, -43, 9, 90, -18, -5, -92, 48, 127, -47, -58, 28, -67, 8, 3, 59, 33, -23, -127, -37, -30, -2, -98, 24, 4, 7, -20, -58, -29, 96, -27, -20, -35, 127, -61, -10, 18, 127, -14, -61, -21, -21, 16, -1, 127, -18, -13, -101, -34, -30, -44, 16, -15, -14, -125, 2, 38, -12, -2, -127, 36, 32, -41, -5, 16, -127, -27, -32, -49, -127, -12, -14, -15, 13, 38, 0, -108, 14, 13, -30, -9, -93, -17, -112, 41, 31, 24, -109, 2, -27, -38, 1, -58, -125, 16, 9, -36, 63, -4, 50, 19, 127, -3, 54, 79, 108, -22, 50, -57, 119, -120, 20, 41, 18, 26, -85, -28, -15, 36, -59, 73, 127, 4, -60, 3, 127, 109, -10, 49, 95, -22, 127, -127, -48, 58, 13, -18, -127, 39, -70, 31, -6, 5, -41, -9, -61, 1, 1, 127, -12, 41, -7, 29, -6, 0, 3, -1, -19, -104, 44, 13, 1, -28, -109, 6, -13, 127, 112, -41, 127, -39, -93, -48, -25, 127, 5, 127, 64, -127, -14, 73, -63, -33, 5, -37, -8, -127, 10, -2, 15, 16, 10, -69, -19, 27, -7, 37, 15, -5, -23, 21, -19, -2, -44, 21, 127, -28, -59, 100, 4, -75, 84, -127, 25, -43, -23, -17, -60, 8, 36, 18, -6, -8, -50, 114, -45, 29, 35, -9, 47, -72, 46, -15, 41, -18, -12, -29, -12, -7, 6, 18, 10, -8, 43, 16, -1, 15, 52, 117, -41, -6, -33, 0, -1, 11, 6, 9, -5, 127, -42, 127, -88, -13, -24, -39, -47, -81, -13, -10, -5, 49, 11, -25, 1, -29, 35, -47, -127, -4, -15, -19, 58, 3, 2, -38, 78, -8, 34, -127, 23, -2, -11, -31, -45, -73, 44, 24, 25, -58, 127, -3, 29, 127, 127, 10, 127, 19, 42, 8, 45, -41, 127, -30, -3, -40, -13, 11, -26, -51, 8, 23, 2, -17, 5, -30, -3, -65, -48, 27, 0, -59, 99, 65, -5, 10, 4, -86, 9, 71, -69, 18, -19, 0, -41, -77, -5, 60, -4, -71, -61, -20, 53, 11, 35, -20, 0, 37, -16, 14, -12, -5, -19, -15, 14, -15, -3, 15, -2, -11, -80, -2, 45, -43, -2, -18, 41, 20, -4, -4, -4, 12, -13, 1, -7, -13, 0, 42, -8, -16, 35, 12, 0, -3, 4, -9, -7, -19, 2, -3, 16, -15, 2, 3, -55, -35, -85, 5, -2, 8, 8, 39, 64, -44, 1, -30, -3, 24, -28, -7, 65, -50, -1, 3, -5, -9, 54, -12, -93, -17, 13, -47, 2, -6, 26, 8, 5, -41, 12, 19, 6, -16, -2, 12, 22, -3, -13, 23, -10, -17, 9, -44, 48, 3, -10, -47, -81, -6, 0, -48, -18, -14, -32, 19, 78, -65, -12, -6, -12, -19, -11, -24, 5, -1, 8, -11, 9, -21, 42, -8, 8, -8, 7, 6, 26, 7, -16, -21, -21, 11, -4, 17, -30, 15, -4, -3, -4, 29, -56, 7, -44, -8, -1, 2, 7, 21, -8, 25, -59, -3, -13, -36, 30, -18, -12, -3, 12, -13, -10, 9, 2, 10, -19, -47, -17, -15, 127, 9, -2, 2, -3, 37, -7, 9, 15, -56, -28, -6, -29, -19, -15, 18, 8, -12, 51, -19, 36, -17, -13, -10, 10, -16, -16, -61, -12, 33, -2, 47, 0, -25, -35, -13, -12, -5, 9, 3, 94, -15, 26, 16, -2, 2, -37, -5, 1, 6, -3, 6, 43, -13, -31, 3, -15, 0, -1, 6, 0, -2, 7, -31, -10, 15, -25, -5, -54, 3, 11, 9, 5, -9, -115, 5, -3, -28, 8, 8, -30, -9, -3, 8, 31, -5, -32, 14, 2, -11, 30, -1, 14, -8, 7, -12, 37, -102, -10, 9, 9, 15, 108, 7, -9, -5, 5, 4, 52, 13, -10, -7, 13, 86, -12, 1, 19, 98, 32, -33, -7, 7, -6, -6, -79, -7, -41, 6, -84, -26, -6, -30, 1, -14, -27, 39, 7, 35, -8, 2, 2, -2, -94, 3, -1, -114, 24, 80, -11, 5, 27, -7, 7, -23, 69, -3, 20, -10, -23, -11, 5, -1, 8, -43, 35, -36, 1, 40, -21, -2, -52, -26, -63, -37, 27, -3, -2, 2, -11, -28, -10, 6, 75, -17, -4, 14, 11, -18, -13, -14, 82, 10, 12, -6, 2, 61, 29, 12, 9, -45, -8, -50, -42, 1, 17, -1, 41, -12, 4, -8, -33, -33, -1, 3, 42, -14, -13, 36, -4, -30, -37, 3, -4, -31, 10, -1, 14, -12, -8, -3, 43, -14, 2, 49, 52, 46, -44, -28, -62, -9, -31, 9, 52, -30, 91, 16, 17, 9, -53, 26, -15, 19, -50, -51, -1, -11, -4, 7, 0, 14, -11, -2, -15, -23, -33, 4, 0, 6, 18, -8, 33, -28, 20, 52, -7, -49, 1, -2, 6, -3, -16, -14, 8, 14, -6, -9, 21, -15, 12, 66, -16, 35, 52, 82, -2, -50, -1, 3, 58, -23, 2, -25, 13};

static const int32_t L020_dw_bias[512] = {-1849, 20820, -2791, 13074, -1961, -2800, 22821, 15974, 17865, 16622, -4190, 9214, 25241, -4509, -2523, 3926, 14494, -10408, 22357, -4815, 33942, 40990, 17271, 2191, 12952, 13188, -20216, 20695, 28694, -8108, -3089, -9027, 19242, -3095, -4298, -4821, 426, -1602, -8917, -14099, 2003, -5049, 41557, -3817, -3989, 3706, 10206, -9592, 12984, 18783, -6855, 4249, 10015, 5527, -7417, 13874, 12929, 12675, 6553, 6645, 20672, 11249, 4946, -5361, 1312, -8854, 12872, 11173, 9125, 21365, -8801, -217, 19271, -29499, -10156, -7147, 25014, -13084, 16631, 7476, -515, -9196, 11167, 27542, 8734, -8290, -5937, 28745, -10528, 26757, 11989, -728, 7589, 17161, 11301, 3017, 12200, 14897, 17010, 16992, -750, -6679, 8651, 19778, 5605, -7756, 13953, 5660, -17252, 6530, 3157, 15893, -8328, 15899, 19908, 7485, -7246, 16904, -5545, -7881, 11348, 16683, 17458, 1974, 5296, -560, 32346, 17323, 15495, -778, -11109, 4340, -2174, -4268, 18293, 9857, -4635, 11248, 14147, -4839, 151, -3235, 21997, 8878, 7420, 24504, -8370, -30282, 21524, -5842, -6711, 43119, 12422, 5211, 1943, 12902, -31153, -7548, 7351, -12952, 18631, -6482, -12024, -5084, -2268, -2950, 21739, -2955, 11459, 17141, 10847, -1782, 12288, -2824, -17802, -1103, -11302, -3157, -3653, 18106, 11321, 16414, 9654, 38511, 5569, 1399, -7564, -5945, 10830, -12860, -2662, -4000, -7457, -924, 134, 28813, -3124, -7248, -2069, -8698, 8986, -2343, 17292, -797, -509, 7886, -166, -5086, 15960, 28997, 16378, -5548, 30436, 8142, -1952, 4717, 8776, 22153, 25052, 16555, -5845, 9990, 2442, 11154, 6568, 27784, 11355, -4481, 3373, -8169, 24497, 354, 11221, 5403, -8947, 20878, 21038, 1012, 10321, 11137, 27017, 21048, 2585, -6866, 5778, 6524, -5089, -6560, -14398, 16668, 22056, 22546, 19253, -2355, -4936, 27852, 7873, -3320, 10541, 20158, -6695, -2881, 14291, 975, -2175, 24867, 19085, -5174, 5801, -11379, -2362, -7448, 41826, 9740, 6179, 20628, -6669, 36422, -1393, 3769, -897, -4624, -6869, 21832, 19931, -5357, 18347, 2182, 15060, 43997, 11294, -5247, -4961, 13804, -5344, -6147, -6592, -3948, 7020, -5558, -20032, 8813, -6228, -2036, 25073, 27978, 28735, 3693, -18204, -16754, -6085, -10687, 13337, -2402, 10403, 11555, -7268, -9273, -17221, -2455, -8451, 7807, 18458, 18074, -8267, -41216, 13401, 32928, 18336, 2877, -1868, 7034, 7765, 22417, 21923, 65195, -1412, 40970, -334, 11605, -565, 6544, 8630, -5208, -5817, 10994, -13259, 3445, -11135, -6373, 5185, 54452, 12498, -8868, 29004, -12970, 33363, -3621, 16165, 29351, 3562, -4242, 3116, 29223, 10140, 29619, -3347, 18657, -3037, 9409, 1549, 7239, 10615, 5219, 14366, 35162, 14776, 7075, 8184, 37520, -411, 8416, 28297, -9928, 7655, -8753, 9272, -6143, 16706, 7408, -7388, -17033, -18216, -10656, 13977, -5219, 8956, 11025, 10231, -22635, -4614, 1979, -7319, 783, 869, -4815, 18836, -6248, 9308, -20979, 25122, 150, -8762, 12225, 32411, -3204, 4184, -3956, -1898, 34131, -19544, 16497, -5638, 20184, -1817, 13878, -9796, -4539, -1185, -18372, -4528, 8037, 8526, -5040, -6076, 16197, -171, 5015, 3520, 485, 32, 25234, 19901, 1293, 11848, -6078, 19412, 36728, -2341, 13456, -12590, 11084, 8913, -11096, 2729, 11997, -817, 54093, 13862, 3245, 18024, 7087, 43268, 15094, 11588, 2875, -5481, -5160, 12487, 3438, 21777, 3350, 9820, 16747, -5914, 14653, -1420, -20211, 1645, -3206, 6989, -14008, -11031, -10999, 28577, 2306, 901, 4372, 14361, 14609, 10522, -7845, -4955, -12643, -1516, 22350, -3781, -7128, 23101, 11225, -7865, 12357, 41149, -18846, -14205, -1745, 15672, 35499, -1506, 9641, 4981, 21261};
static const int32_t L020_dw_bias_total[512] = {15431, -36908, -12263, -12014, 215, 18064, 13861, 27494, 24137, 4206, -8414, -1922, 22681, 12643, 33829, -17450, 26654, 13656, 15829, 5937, -53738, -23522, 26231, 12431, 9112, 14724, 12424, -54313, -14442, 15572, -18577, 9789, -94550, -11031, -970, 38315, -1366, -4162, 15019, 4973, 4435, 7879, 30805, -745, 1387, 12282, 8798, 12808, -2248, 14431, 22585, 11929, 21407, -5353, 8583, 13874, -19583, 17027, 2713, 7925, 24768, -6415, 10322, 11919, 4256, 19178, 20808, 9637, 10789, 5877, 11295, -31321, -35897, 16325, 25812, 12437, 19382, 15204, 3191, 7732, -3459, 11924, 12191, 23574, 14366, 5022, 10319, 28873, 13280, -75771, 12373, -17752, -31195, 19593, 16933, 6985, 20520, -44239, 25714, 5984, -1518, 26857, 11979, 40642, -4123, 10292, 18049, 10908, 3228, 25986, 1109, -8555, 18040, 12059, 19396, 39869, 17586, 13832, 20439, 9527, 35284, -19669, -9294, 6838, 10928, 11984, 18778, 10283, -13049, 12022, 21659, 5236, 9858, 13396, -72843, 30081, 9061, -35728, -68285, 11289, 8599, 10205, -44179, 8750, 10492, 10424, 2766, 53558, -49132, 12590, 8905, -14609, -40058, 35163, 8343, 6374, 9295, 1028, 9399, 14952, -35001, -2258, 9864, 9764, 12580, 14074, 11371, 14581, 5443, 15093, -1697, 5770, 29568, 8952, 20854, 5425, 24538, 5675, 699, 14778, 21305, -59362, 19382, 34927, 8257, -50313, 7156, 13383, 21198, 17092, 4378, -3872, 7135, 13412, -2810, 21133, -2100, 9392, 1387, 26758, 8730, 3417, -26996, 11107, 13955, 8270, 16730, -734, -24744, 42821, 12026, 2388, 18916, 8526, 20448, 9069, -13880, 5769, 16220, 4651, 1835, 13958, -2422, -43502, -2648, 264, 10843, 12671, 15533, 33431, -30031, -1310, 12245, 12187, 10125, 12174, -38354, 1268, 12497, -5631, 35209, 21944, -4071, 9774, 9234, 13180, 2335, 35424, 13122, 53916, -36952, 16018, 5045, 23629, 8760, -49076, 12865, 11272, 14125, 22590, 20313, -15425, 3667, -4401, 2305, 35875, -3315, -1718, 2345, 17805, 20806, 14952, -30622, 15244, 7331, -20972, 10483, -47930, 15247, 697, 7679, 12144, 4267, -81336, 475, 7443, -13909, 2310, -20780, -39331, 15390, 5761, 12191, -9492, 10272, 1661, 18752, 532, 10476, 36682, 11200, -31635, 4012, 14348, -42383, 11850, -73153, 12141, 18020, 14990, 10299, 8641, 4377, 2718, 9507, 19235, 10012, 18503, 13627, 12649, 9341, 13951, 33178, 19226, 11701, 4224, 31321, 24480, -73312, 8253, 7476, 10106, 8533, -73711, 13859, 1707, 14460, 42634, 10802, -5547, -9141, 8592, 8630, -5080, 8519, 6386, 11829, 10869, 13313, 7195, 10817, 21172, 13778, 9820, -81716, -5418, 43347, 1627, 33061, -15577, 9962, 21486, -2388, 48935, 35612, 2099, -915, 36577, 13731, -7615, -10867, -9657, 4599, -2461, -59746, 38874, -12232, 13091, -9224, 36112, -1947, -13344, -35703, 18232, 11111, 6991, 13624, 9217, 36546, 6384, 21156, 16119, 14296, 19552, 29977, 34205, 8700, 7441, 12535, 28053, 13306, 11579, 3177, -4849, 5989, 2481, -42348, 19608, -57892, 3213, -58206, -11114, 17990, -3007, 42139, 31740, 14296, 11532, 7702, 7507, 16296, 11761, 10874, 23640, 10727, 18614, 32060, 8005, 26335, 24508, 30032, 11749, 2638, 16080, 10180, 10437, 6357, 13975, 12352, -7579, -7264, 42514, 22973, 13197, 14408, 15682, -23468, -20488, -293, 4752, 11090, -16692, 16209, 6184, -5207, 17885, 2511, 18125, -11354, 10285, -19992, -13905, -33660, -10762, 13508, 5947, 25495, 8920, -11065, 8686, -12783, 11158, 21852, -54165, 23654, 10301, 15732, 13453, 8813, 24954, -4659, 15816, 16489, -9847, 14881, 9986, 1669, 7060, 15641, 23825, 13466, 14683, 27429, 18589, 32276, 16718, 10043, 13224, 33085, 10201, -57, 23493, 47677, 13922, 2947, 7599, 32952, 42411, 27422, -2775, -11019, -8307};

static const int32_t L020_dw_output_multiplier[512] = {1414259712, 1566716544, 1892838272, 1307752448, 1596779904, 1522002688, 1243766144, 1091035392, 1617589120, 1988542848, 1647776512, 1255797120, 1101525760, 2073191680, 1600330752, 1243041664, 1427115648, 1372741376, 2090560128, 1089545984, 1300669056, 2078430208, 1499957888, 1126995968, 1281099776, 1237044224, 1261439744, 1750180480, 1080732160, 1557339520, 1177984640, 1096653056, 1924446080, 1773889280, 1123124352, 1285334912, 1112730240, 1604598400, 1335438208, 1920087552, 2001111936, 1390731520, 1574697984, 1798928256, 1941403008, 1187921152, 2091960320, 1766408960, 1320129664, 2002604032, 1075296384, 2009288192, 1146385664, 1138115200, 1289010176, 1854603648, 1134334848, 1935067904, 1343921152, 1433482496, 1299263872, 1306067456, 1566226176, 1376170240, 1939271168, 1527071616, 1147942144, 1331683072, 1089019136, 1379584256, 1790693504, 1696145152, 1526549376, 1476326144, 1621224320, 1189391232, 1386677248, 1709354240, 1420172160, 1602624896, 1555853312, 1121737728, 1530657024, 1595899520, 1955547776, 1333244544, 1840826752, 1121058816, 2058302464, 1399203328, 1369496832, 1576419712, 1212420864, 1538661888, 1808756480, 1714891392, 1601396096, 2089812480, 1602768640, 2092458624, 1627585664, 1143945728, 1271121664, 1702009984, 1266712832, 1548103040, 1410332160, 1829597824, 1904315392, 1557712000, 1310687616, 1134306560, 1567072000, 1123348352, 1173658112, 2027926144, 1961203840, 2134929280, 1822637696, 1618381824, 1454995584, 1300582016, 2133644160, 2006397952, 1183667712, 1247315712, 1705266944, 1618421248, 1362051456, 1721693824, 1681703296, 1405859328, 2128897152, 1592027392, 1906627200, 1804829824, 2064187392, 1139456896, 1127023872, 2073408128, 1556522496, 1147014272, 1216756480, 1375184768, 1235806208, 1596357504, 1746304384, 1168324608, 1435039104, 1851650048, 1693598848, 1281853568, 1536443392, 1491877504, 1374829184, 1559690368, 1368245632, 1801825792, 1421822976, 1713442816, 1169978752, 1778558720, 1296268544, 1164008704, 1119337856, 1811922560, 2083485184, 1465276032, 1490242304, 1131367296, 1157366144, 1170692224, 1180893056, 2031978752, 1932126464, 1323243520, 1508849280, 1402651776, 1950094336, 1182451328, 1168221696, 1184863232, 1676759936, 1617825152, 1545098368, 1119067392, 1196809600, 2105983872, 1759264128, 1884540160, 1222062464, 1857332480, 2059670912, 1852723456, 1615868288, 2052154880, 1753070720, 1752092032, 1515027584, 1212467584, 1142271616, 2004154880, 1782967040, 1765044608, 1609162624, 1946950016, 1361991552, 1986385792, 2093303168, 1621907840, 1204339200, 1190307584, 1136214656, 1753352704, 1537659776, 2090365696, 1644785920, 1108115456, 1238639488, 1713427968, 1996208768, 1943664128, 1601655040, 1270986112, 1436310528, 1644353024, 1836387456, 1538816896, 1824905472, 1210309248, 1459905792, 1557081600, 1355481728, 1544762368, 1656264576, 2130064768, 1586233856, 1328489984, 2048175616, 1325228928, 1588790912, 1462827136, 1817270528, 2040511104, 1943751424, 1887146624, 2133374464, 1740584704, 1217283072, 1346338944, 1500818816, 1502847360, 1221940992, 1375483392, 1624407296, 1963189248, 1326672256, 1805390848, 1321141376, 1314625792, 1650163328, 1128440832, 1314164992, 1415529216, 1272111872, 1835366016, 1113252608, 1975346176, 1156105216, 1831236224, 1747892608, 2123364480, 1255691008, 1150968576, 1221880576, 1227174016, 1721148928, 1380276864, 1868865920, 1598787840, 1658579456, 1365624448, 1168706304, 1307398528, 1336060800, 1333457792, 1174412800, 1315254528, 1358708352, 2075488128, 1892480640, 1251940480, 1763051904, 1328997248, 1570954240, 1283088000, 1594386560, 1331982720, 1311911168, 1400484608, 1211486976, 1748827136, 1678770944, 1726701696, 2060087552, 1418746496, 1633365376, 1862181888, 1796880512, 2021063296, 1302802560, 1534321536, 1239038848, 1887228416, 1075115904, 1420482944, 1740495744, 1460992384, 1466457088, 2058210432, 1148040320, 1939431168, 1657358976, 1980724736, 1214352512, 1279866752, 1419210752, 1699253760, 2013153920, 1493933184, 1758761728, 1362574208, 1405177344, 1233737856, 1405544576, 1509617152, 2055318016, 1513692416, 1583203968, 1276727296, 2095711104, 1523840896, 1232432512, 1718100864, 1707095808, 2145735808, 1753926016, 1568574080, 1752849152, 1125712896, 1556002304, 1306210048, 1771697280, 1285102336, 1322345216, 2129691264, 1346772608, 1647025792, 2068813440, 1327187456, 1683579392, 1557036032, 1325955712, 2134391552, 1097814528, 1370179200, 1740356096, 2087505152, 2010133504, 1429088256, 1261155072, 1492048512, 1529840256, 1869382400, 1363866368, 1964140544, 2132678784, 1275526016, 2122165888, 2052012928, 1867727232, 1727650816, 1432093312, 1716783104, 1782439808, 1584990208, 1157873408, 1177400960, 2050930688, 1432498304, 1162710144, 1809009152, 1975952000, 1666844672, 1436590336, 2129812992, 2083324928, 1330258560, 1161915392, 1226198784, 1804777472, 1334971264, 1326124800, 2043577216, 1775198848, 1810222336, 1124366208, 1643705728, 1304092800, 1607206016, 1678642688, 1981069184, 2118130688, 1182589568, 1767009920, 1807334912, 1880334592, 1602632320, 1243674496, 1494909184, 1420405504, 1655365120, 1149222528, 1639624832, 1663961856, 1738011648, 1839413120, 1169075456, 1826596992, 2053140480, 2005958016, 1168616192, 1299104896, 1724044160, 1519140608, 1612346496, 1716348416, 1209336960, 1162131712, 1505145856, 1298456064, 1796960512, 1669998976, 1428712576, 1909084160, 1271082112, 2141180288, 1396580736, 1384045312, 2099186944, 1544577920, 1231164800, 1996056064, 1188737920, 1377644288, 1926487168, 1190875520, 1324907904, 1386117504, 1133049344, 1775278592, 1529664640, 1217462016, 1436274304, 1949904384, 1705992704, 1108610048, 1285785728, 1211287936, 1930843264, 1466071296, 1441587840, 1307461248, 1441702144, 1239968256, 2060062976, 2046272384, 1552866944, 1407919616, 1198689408, 1596932224, 1306805120, 1129730048, 1133504384, 1505561216, 1984981120, 1704264320, 1206401792, 1420997504, 2046279296, 1712728960, 1815244928, 1394053632, 1493655296, 2099922048, 2070554368, 1277650816, 1367804800, 1526422912, 1965765504, 1729869440, 1579949056, 1548832256, 1205298816, 2014038400, 1897736064, 1790272384, 1387266304, 1148099072, 1736381312, 1123378560, 1320828160};
static const int32_t L020_dw_output_shift[512] = {-7, -8, -8, -6, -7, -7, -7, -7, -7, -7, -7, -7, -7, -7, -6, -7, -8, -6, -7, -6, -9, -9, -7, -7, -6, -7, -6, -8, -8, -7, -6, -6, -8, -7, -6, -6, -6, -7, -6, -7, -6, -7, -8, -6, -6, -7, -7, -7, -7, -7, -6, -7, -6, -7, -6, -7, -6, -7, -6, -7, -7, -6, -6, -6, -7, -7, -7, -6, -6, -7, -7, -7, -7, -7, -7, -6, -7, -7, -8, -6, -7, -6, -7, -7, -7, -7, -7, -7, -7, -8, -7, -5, -6, -7, -7, -6, -7, -8, -7, -7, -6, -7, -6, -8, -7, -4, -7, -7, -8, -7, -6, -7, -7, -6, -7, -7, -7, -7, -7, -6, -8, -6, -8, -7, -6, -6, -8, -7, -7, -7, -7, -6, -7, -7, -8, -7, -8, -6, -7, -8, -7, -6, -8, -6, -6, -7, -7, -8, -8, -7, -7, -9, -7, -6, -6, -7, -8, -7, -6, -5, -7, -7, -6, -6, -6, -7, -8, -7, -6, -7, -6, -6, -7, -7, -7, -6, -6, -6, -7, -6, -6, -7, -7, -8, -6, -5, -6, -7, -7, -7, -6, -7, -6, -7, -7, -8, -6, -7, -6, -7, -6, -6, -7, -7, -7, -8, -7, -8, -8, -8, -6, -7, -7, -6, -6, -7, -6, -7, -7, -7, -6, -7, -7, -7, -6, -8, -7, -7, -6, -7, -7, -6, -6, -7, -7, -8, -8, -6, -7, -7, -8, -7, -7, -8, -7, -7, -6, -7, -6, -7, -7, -7, -7, -6, -6, -9, -6, -7, -7, -7, -7, -6, -6, -6, -6, -8, -7, -7, -6, -7, -7, -7, -7, -6, -6, -8, -7, -9, -8, -7, -7, -6, -5, -7, -7, -6, -7, -6, -6, -10, -7, -6, -7, -7, -6, -6, -7, -6, -6, -8, -6, -7, -6, -6, -9, -7, -8, -7, -7, -6, -6, -7, -6, -7, -6, -7, -7, -7, -6, -7, -6, -8, -8, -7, -7, -7, -7, -8, -8, -6, -6, -6, -6, -8, -7, -9, -7, -8, -7, -6, -6, -7, -6, -7, -7, -7, -7, -6, -7, -6, -6, -8, -7, -6, -9, -7, -8, -6, -8, -7, -6, -7, -6, -8, -6, -8, -6, -8, -7, -6, -6, -5, -6, -7, -7, -8, -8, -6, -7, -9, -7, -7, -7, -7, -7, -6, -6, -6, -8, -6, -7, -7, -8, -6, -7, -9, -7, -6, -6, -7, -7, -7, -6, -7, -8, -7, -8, -7, -7, -7, -8, -7, -7, -7, -8, -7, -7, -7, -6, -8, -7, -7, -6, -7, -6, -7, -8, -6, -7, -8, -8, -6, -6, -7, -6, -6, -7, -6, -6, -7, -6, -8, -7, -6, -7, -7, -8, -8, -6, -7, -6, -6, -7, -7, -6, -7, -6, -8, -6, -6, -8, -7, -9, -7, -7, -6, -6, -6, -6, -7, -8, -6, -7, -8, -7, -7, -6, -6, -6, -7, -7, -6, -6, -6, -8, -7, -6, -6, -7, -8, -7, -7, -6, -7, -8, -8, -6, -6, -7, -7, -6, -7, -8, -6, -7, -7, -7, -8, -6, -6, -6, -8};

#endif  // LAYER_020_DEPTHWISE_CONV_2D_H_
