#ifndef LAYER_006_DEPTHWISE_CONV_2D_H_
#define LAYER_006_DEPTHWISE_CONV_2D_H_

#include <stdint.h>

// op_index=6 op=DEPTHWISE_CONV_2D
// input:  idx=63 name=sequential_1/mobilenet_1.00_128_1/conv_pw_2_relu_1/Relu6;sequential_1/mobilenet_1.00_128_1/conv_pw_2_bn_1/batchnorm/add_1;sequential_1/mobilenet_1.00_128_1/conv_pw_2_1/convolution; shape=[1, 32, 32, 128] dtype=int8
// weights: idx=47 name=tfl.pseudo_qconst45 shape=[1, 3, 3, 128] dtype=int8
// output: idx=64 name=sequential_1/mobilenet_1.00_128_1/conv_dw_3_relu_1/Relu6;sequential_1/mobilenet_1.00_128_1/conv_dw_3_bn_1/batchnorm/add_1;sequential_1/mobilenet_1.00_128_1/conv_dw_3_bn_1/batchnorm/mul_1;sequential_1/mobilenet_1.00_128_1/conv_dw_3_1/depthwise; shape=[1, 32, 32, 128] dtype=int8

#define L006_DW_OUT_CH (128)
#define L006_DW_KH     (3)
#define L006_DW_KW     (3)
#define L006_DW_STRIDE_H (1)
#define L006_DW_STRIDE_W (1)
#define L006_DW_DILATION_H (1)
#define L006_DW_DILATION_W (1)
#define L006_DW_DEPTH_MULTIPLIER (1)
#define L006_DW_PAD_H (1)
#define L006_DW_PAD_W (1)

static const int32_t L006_dw_input_offset = 128;
static const int32_t L006_dw_output_offset = -128;

static const int8_t L006_dw_weights[1152] = {1, 14, -14, -23, 13, -19, -16, -11, 6, -13, -13, -16, -3, 21, 33, -13, 65, 6, 6, -17, 4, -14, 9, -87, -127, -7, -5, 9, 24, -19, -16, 12, -36, -13, 28, -49, 15, 8, 28, 23, -20, -9, -71, -66, -71, 16, -22, 10, -77, 17, -13, -11, 47, -22, -32, -20, -17, 10, -9, -8, 23, 10, -19, 35, 44, -22, 28, 6, 3, 24, 41, -24, -37, 43, -34, -80, -23, 16, 13, -2, 1, -18, 68, 2, -44, -11, -32, -4, 1, -25, 41, 4, -5, -21, 18, -54, 8, 72, -30, -3, -4, -66, 68, 13, 10, -32, 20, -11, 15, -23, -2, 0, 36, -6, 127, -2, 24, 18, -10, 9, -23, -28, -6, 52, -15, 4, 66, -16, 120, 9, 16, -40, -9, -121, -20, -4, 71, -8, -20, 42, -42, 127, -13, -27, 127, -61, 25, -14, 19, 1, -57, -127, 25, 26, 5, -52, -6, -26, -106, -61, -48, -42, 19, 110, -85, -9, -36, -47, 42, -77, -4, -127, -127, -77, -58, 10, -127, -14, 12, 49, 9, -58, -17, -12, -40, -76, 2, 22, -66, 55, -79, 127, 66, 33, -11, -96, 19, 127, 99, -43, 78, 98, -16, -108, 95, -31, 11, 59, 24, -118, 127, 55, -67, 25, 35, -50, -3, -74, 127, -1, -21, -3, -11, 100, -127, 93, -94, -40, 14, 104, -116, 29, -30, 24, 7, 8, -37, 20, -5, -24, 94, 18, -107, -12, -48, -87, -61, 85, -97, -31, -19, 118, -9, -87, 127, 39, 1, 10, -5, -21, 11, 82, 49, 1, 4, 4, -10, -7, 18, 3, -16, 5, -22, 13, -24, -20, 3, -21, -40, -47, 100, -27, -23, 3, -13, 18, -4, 10, 17, 6, -19, 2, 30, 10, -15, -8, 23, 25, 9, 19, 6, 49, -2, 17, 1, 18, 2, -41, -34, 3, 22, -5, 15, 25, -8, 2, 1, 10, -9, -37, -36, -12, -16, -1, -9, 1, 18, -15, -25, 16, -2, -4, -12, 10, -10, -4, 0, -14, 11, -13, -62, -8, 37, 0, -8, 9, 8, 17, -1, 2, 2, 14, 14, 6, -8, -1, -7, -14, 14, 5, 0, 7, 12, -15, 9, -12, -13, 7, -9, -11, -22, -5, 24, 36, 13, -27, -11, 56, -1, 14, -17, 61, 7, 39, 23, -9, -47, -5, -4, 127, -54, -70, -14, 14, 11, 115, 54, -17, 127, -40, -115, -31, -14, -19, 1, 9, -87, 65, 5, -18, 17, -49, 127, -25, 13, -38, -15, 23, 127, 58, -66, -8, 127, -41, 52, -40, -19, -84, -90, 111, 13, 10, -62, -4, -63, 52, -89, 21, -85, 34, 38, -31, -5, 29, -61, -10, 36, -114, 85, -66, 127, 0, 29, -29, -50, 28, 42, -46, -24, -64, 15, 54, -36, -23, 42, 29, -15, 38, -127, -33, -45, -10, 17, 31, -68, 7, -10, 0, 80, 127, -67, -79, 9, -36, 22, 60, -127, -5, -43, -104, 33, -37, 74, -63, -12, -11, -33, 51, -103, -3, 63, -32, 5, -46, 1, -69, -12, -43, -8, 127, 68, -91, 127, -127, 127, 127, -127, -45, -68, -127, -127, 127, 127, 127, 127, -125, -71, -127, 18, 127, 127, 127, -127, 127, -127, -53, 32, 127, 127, 127, -23, -97, 127, 127, 127, 127, -30, 38, -127, -127, -101, 127, 127, 127, -127, -19, -10, -127, 127, -127, -56, -127, 127, -127, 127, 127, -127, 127, 127, -127, 127, 127, 127, -127, 127, 105, 110, 127, -15, 127, 127, -124, -127, 127, -127, -127, 127, -29, -127, -127, -127, -127, -127, 127, -72, -127, 126, -127, -127, 127, 127, 127, -104, -127, -127, 127, -127, -6, -70, -127, 127, 127, 127, -127, -4, -127, 127, 127, 127, 127, -127, 127, 127, -127, -127, 127, 126, 127, -127, -127, 127, 127, 127, -42, -127, -127, 127, -3, -42, 127, -26, 30, -40, -12, 22, -71, 127, 46, -3, -36, 6, 99, -64, -8, -68, -50, 39, -36, -3, -31, 23, -11, -38, 30, -39, -83, -3, -37, -113, -29, -4, -25, -13, -35, -105, -127, -50, 15, 0, -22, -60, -38, -43, -32, 78, 100, -14, 9, -84, 9, -56, 72, 7, -50, -58, 7, -57, -11, -12, 1, -31, -12, -64, 95, -127, -64, -109, -14, 24, -25, -19, -43, 42, -15, 6, 27, 50, -2, 6, -17, 55, -63, -14, 35, -53, 21, -14, -36, 2, -53, -55, 23, 9, -22, 31, -80, -15, -2, -9, -30, -19, 42, 119, 8, -41, -23, 13, -45, 68, -56, -26, 5, -5, 24, -32, -27, 57, -6, -18, 12, -37, 127, 7, -3, -22, -121, -102, 40, -12, 16, -14, -31, 8, -27, -12, -7, 10, -11, -24, -36, 20, -5, 1, 4, -26, -8, -15, -22, 8, -18, -7, 66, 94, 2, -21, 3, 66, 54, 1, -5, 21, -2, 49, 23, 13, 7, 10, 4, -10, 7, -9, -56, 11, 49, -14, 5, -30, 11, -17, -37, -36, 1, 21, -5, 17, 1, -2, -1, 2, 12, 1, -96, -29, -9, 59, -18, -4, 0, 10, 16, 10, -6, -5, 54, 22, 34, -26, 23, -3, 15, -36, 1, -30, -24, 57, -21, -9, 2, 27, 16, 1, -6, -8, 6, -14, 9, -8, 3, 23, 9, 5, 12, 0, -23, 22, -15, 20, -19, -9, 10, -3, -6, -29, -6, 11, -18, 5, -77, 7, 13, 2, -4, -9, -74, -4, -58, -5, 1, 12, -40, 14, 13, -45, 0, 3, -2, -79, -11, 53, 4, -10, -17, -79, 3, -7, -6, 36, -3, -27, 92, -8, 4, 4, -24, -4, 127, -23, 2, -33, 9, -34, -124, -9, 10, -5, -10, -17, -8, 7, -124, 125, -76, -50, 2, -63, 3, 47, 68, -37, 15, 11, -42, 16, 12, 0, -10, -23, 43, 35, -125, -96, 16, 2, -35, -4, 21, 37, 34, -5, 21, 0, 127, -8, 49, -46, 98, 32, 36, -49, 19, -49, -37, 13, 8, -32, 41, 94, 23, -8, -20, 24, -116, -22, 30, -20, -22, 12, -11, 102, 41, -16, 12, 13, 44, -50, 34, -26, 8, 18, 15, -22, -22, -24, 19, -44, -47, 48, -20, 9, 12, -26, 80, -85, -69, 4, 16, -12, -28, 4, 8, 38, 31, 5, 1, -11, -23, -3, 4, -4, -4, 0, -2, 6, -12, 1, -25, -5, 44, -86, -10, -10, -5, -64, 18, 6, -16, -27, -11, -44, 68, 34, 2, -18, -1, -8, -10, 5, -13, 78, 9, -3, 4, -3, 12, -29, -22, 23, -18, 9, -9, -4, 2, -6, -10, -6, 7, -26, 42, -35, -12, -59, -3, -5, -3, 7, -18, 6, -8, -20, 70, -6, 23, 4, 8, -5, -7, -18, 11, -31, -19, -24, -14, 3, -31, 20, 1, 1, -16, -7, 17, 2, -13, -9, -9, -27, 6, -61, 10, -11, 5, 17, -32, 25, -17, 10, 8, 12, -10, 59, -4, 13, -10, -23, -7, -13, 2, 6, -9, -7, 6, -27, -13};

static const int32_t L006_dw_bias[128] = {-2186, 15330, -2996, 854, 23395, 9369, -379, 40454, 4936, 7487, 708, 7284, -14134, -915, 1019, 82483, -640, -1282, -7606, -4604, 7696, 18673, 57746, 19869, 24109, -1112, -458, 821, 326, 1112, 5134, -760, -255, -193, -122, 22608, 227875, 31102, 842, -1620, -4022, 5746, 34949, 34916, -141, 18613, 394, 30076, 71853, 6630, -997, 10216, -2152, 811, 119190, 5278, 7579, 84924, 371, -1397, 1647, -42, 1678, -1729, 6897, 90, -1150, 2950, -11662, 485, -1377, -1726, 1797, 2807, -249, -1088, -496, 21789, 13018, 952, 5888, 4794, -1089, 22926, 39312, 15253, 5015, 7855, -7138, 1580, 4550, 23868, 22649, 9169, 5768, -874, 23532, 1763, 3620, 466, -9603, -257, 27505, 12000, -680, 2093, -15448, -2544, 192, -170, -883, 15746, 2631, -14793, 8020, 8063, 3938, 53930, -133, -6001, 3301, 1399, 29098, -1737, 11832, 10581, -495, 3133};
static const int32_t L006_dw_bias_total[128] = {27638, 10210, -52, -8490, 14691, 2585, -507, 22406, -824, 17215, -956, 44404, 6346, -403, -1669, 48051, 256, 126, 5322, -6396, 3600, 24433, 9234, 17693, 23597, 680, 11190, -2379, -442, 3800, 4366, 8, -1151, 7743, -1274, 22480, 196515, 19326, -438, 1580, 12490, 2802, 2693, -29340, -141, 25525, -2550, 22396, 7725, -2970, 283, 10600, 24, 3243, 86422, 14878, 19739, 59964, 11507, 18059, -2705, -1578, 1934, 2367, 4593, -1062, -382, -1402, 11378, -539, 671, 6210, -251, -265, 3847, -1984, 272, 25117, -13990, 2872, 8320, 3130, -833, 25614, -3824, -12011, -7785, 7855, 5406, 5036, 16070, 19132, 2041, 14417, 6024, 150, -13716, 355, -1756, -942, 8445, 127, 27505, 10208, -1192, 1197, 18344, 528, -192, -1322, 4749, -126, 455, 11063, 7636, 13951, 3042, 27434, -901, -2289, 3557, 2423, 11050, -457, 13624, 9685, 529, 2877};

static const int32_t L006_dw_output_multiplier[128] = {1085816192, 1591411456, 1576904448, 1299258880, 1268527104, 1826138624, 1311564032, 1477522432, 1425130368, 1936865280, 1410941184, 1451925120, 1998488448, 1481581056, 1397382912, 1667736448, 2093901056, 1673203200, 2098855168, 2099481600, 1304823296, 1532799360, 1726494592, 1548069120, 1324114432, 1689969024, 1933264000, 2102564224, 1973001728, 2095386368, 1405216256, 1603989888, 1573882240, 1667059840, 1098969728, 1277765888, 1967013888, 1454178816, 1293573120, 1517358080, 1483437952, 1109768704, 1476737280, 1277630976, 1386415616, 1619714432, 2009181440, 1646459776, 1239652224, 1752461056, 1698213632, 1946086912, 1113316736, 1126919680, 2139295488, 1265414144, 1941889536, 2004253056, 1460531328, 1397911296, 2123425152, 1528703616, 1455056512, 2103512960, 1218937344, 1742791680, 2051029504, 1626126208, 1343602688, 1174315264, 1078035200, 1545942016, 2100393600, 2037991040, 2015510016, 1195374080, 1889427712, 2004310272, 1293862272, 1405206144, 1348470656, 1124927872, 1786262272, 1507778944, 2106522496, 1299244416, 1538817280, 1659147520, 1341086208, 2118258816, 1191131264, 1128357376, 1421695616, 1111912960, 1689524480, 1713528704, 1456144384, 2033174656, 1569981312, 1281564032, 1456715904, 1873726208, 1931146496, 1997590144, 1571538688, 1938003584, 1169923456, 1213273088, 1525324288, 1995927040, 1684529024, 1124246784, 1464025472, 1613540736, 1979289984, 1331449472, 1782780800, 1762771712, 1338187648, 1375114496, 2089454720, 1229010944, 1889679872, 1603828096, 1099348608, 1103469184, 1601265792, 1883963776};
static const int32_t L006_dw_output_shift[128] = {-7, -6, -7, -6, -6, -7, -6, -7, -4, -7, -6, -8, -7, -6, -6, -9, -7, -6, -7, -5, -5, -8, -9, -8, -7, -7, -6, -6, -7, -6, -5, -6, -6, -6, -6, -7, -10, -7, -6, -6, -7, -5, -8, -8, -7, -7, -6, -7, -9, -6, -6, -6, -6, -5, -9, -6, -7, -9, -6, -6, -6, -7, -6, -8, -7, -6, -7, -7, -6, -6, -6, -6, -6, -7, -6, -7, -6, -7, -6, -6, -5, -6, -7, -6, -9, -7, -6, -6, -6, -7, -6, -6, -6, -6, -5, -7, -8, -6, -6, -6, -6, -6, -7, -6, -7, -7, -6, -6, -6, -7, -6, -4, -6, -7, -6, -6, -6, -8, -6, -7, -7, -5, -7, -6, -6, -6, -7, -7};

#endif  // LAYER_006_DEPTHWISE_CONV_2D_H_
