#ifndef LAYER_021_DEPTHWISE_CONV_2D_H_
#define LAYER_021_DEPTHWISE_CONV_2D_H_

#include <stdint.h>

// op_index=21 op=DEPTHWISE_CONV_2D
// input:  idx=78 name=mobilenet_v1_eurosat_1/conv_pw_10_relu_1/Relu6;mobilenet_v1_eurosat_1/conv_pw_10_bn_1/batchnorm/add_1;mobilenet_v1_eurosat_1/conv_pw_10_1/convolution; shape=[1, 8, 8, 512] dtype=int8
// weights: idx=15 name=tfl.pseudo_qconst13 shape=[1, 3, 3, 512] dtype=int8
// output: idx=79 name=mobilenet_v1_eurosat_1/conv_dw_11_relu_1/Relu6;mobilenet_v1_eurosat_1/conv_dw_11_bn_1/batchnorm/add_1;mobilenet_v1_eurosat_1/conv_dw_11_bn_1/batchnorm/mul_1;mobilenet_v1_eurosat_1/conv_dw_11_1/depthwise; shape=[1, 8, 8, 512] dtype=int8

#define L021_DW_OUT_CH (512)
#define L021_DW_KH     (3)
#define L021_DW_KW     (3)
#define L021_DW_STRIDE_H (1)
#define L021_DW_STRIDE_W (1)
#define L021_DW_DILATION_H (1)
#define L021_DW_DILATION_W (1)
#define L021_DW_DEPTH_MULTIPLIER (1)
#define L021_DW_PAD_H (1)
#define L021_DW_PAD_W (1)

static const int32_t L021_dw_input_offset = 128;
static const int32_t L021_dw_output_offset = -128;

static const int8_t L021_dw_weights[4608] = {31, -68, 32, 45, 15, 95, 12, 5, -25, 127, 13, 74, 18, 61, -11, 27, 127, -21, -62, -102, -60, -60, -8, 27, -21, 20, -1, -52, 7, 23, -64, -97, 56, -47, 33, -30, -115, -14, 2, -9, 46, -16, -33, 51, 41, -9, 3, -57, 27, -27, -95, 53, 11, -4, 11, -43, -89, 76, -20, -40, 26, 8, 27, -109, -29, 31, -39, -1, 105, 5, 95, 38, 16, -15, -30, 50, 17, -7, 51, 50, -85, 6, 69, 42, -23, -73, 23, 42, -18, 49, -50, -82, 2, -27, -35, 46, 22, 50, 51, -40, 25, 22, 8, -19, -6, 66, -27, -46, -75, 18, 14, 98, 15, 28, 52, 5, 25, 36, -60, -127, 26, -6, -65, -125, -89, 61, -46, 21, -116, -8, -89, 127, 89, 56, 22, 28, 20, 22, -41, 62, 20, -51, 17, -111, 7, 3, 14, 3, -46, 6, 10, 16, -39, 18, -37, 15, 1, -90, -8, 17, -91, 8, 5, -39, -78, 27, 22, 20, 6, 3, -8, 4, -70, -112, -12, 18, 54, -93, -19, 77, 40, 1, 49, -9, 10, -73, 9, 18, 96, 50, 36, 34, -100, -3, 57, -29, 36, -38, 42, 55, -86, 39, -9, -38, 34, -38, -64, 0, -21, -4, -29, -73, -90, -18, 69, 42, 42, -45, 11, -3, 38, 55, -86, -26, -88, -102, 14, 108, -1, -3, -29, -8, 41, 45, -36, -117, 50, 24, -79, 0, -57, 29, 27, -9, 5, 58, 67, -3, -66, -3, 3, 25, -9, -80, -7, 40, 14, 2, -49, -51, 16, -40, -63, 0, 47, 3, -3, 22, -38, -16, 40, -78, -5, 2, 23, -9, -94, 70, 22, 43, -37, 83, -11, -21, -8, 21, -56, 50, 1, 95, -39, -71, -94, -47, -1, 26, -104, 34, 8, 38, 49, 8, -3, 51, -5, -1, -12, 39, 127, -61, 7, 2, 32, 38, 52, -127, -25, -6, 14, 42, -74, 3, 36, 41, 9, 29, 127, -28, 14, -127, -27, -14, 5, 88, 12, 3, -33, -28, 8, -65, 32, 68, 82, 17, 86, -100, -15, -55, 21, -1, -123, 6, 19, -27, -15, 23, -11, 60, 14, -114, 40, -97, -31, -70, -5, 36, -6, 30, 64, -48, -16, 80, 16, -38, -60, 10, 18, -3, -22, 30, -84, 16, -15, 27, -61, -90, -71, 17, 34, -91, 10, -72, 18, 70, 15, 48, 57, 5, 8, 27, -29, 37, 5, -92, -42, -33, -22, 37, 43, 18, 35, -2, 3, 70, -122, -86, 10, -21, 112, -10, 16, 0, 24, -25, 38, -111, 59, -78, 24, -89, -56, 11, -36, 38, -36, -54, 0, 18, 3, -70, 57, -1, 35, 63, -35, -25, 24, 66, 34, 8, -42, -22, -127, 85, -45, 37, -39, 43, 39, 30, -55, -5, 127, -9, 61, -37, 45, -10, -26, 29, -45, -75, -15, 7, 42, 89, 7, -127, 37, -35, 25, -96, 2, -47, 38, -82, 37, -49, 25, -74, -3, 13, 45, 38, 15, 29, 7, -47, 12, -13, 18, -20, 14, 52, 51, 21, -127, 17, 18, -58, 5, 60, 61, -88, -24, 111, -54, 40, 8, -30, -87, 44, 75, 127, 9, 127, -13, 127, 80, -55, -127, -88, 0, -107, 33, 53, -98, -1, 5, -109, 9, 51, -98, -116, -44, -109, 64, -110, -123, 1, -40, -24, 71, -16, -50, 127, -127, -62, 7, -97, 47, -127, 12, 114, 43, 3, 30, -71, -79, -21, -83, -104, 17, 56, 85, -100, -33, 115, -48, 51, 97, 12, 87, 127, 32, -24, -43, 88, 45, 36, 54, -2, -126, 23, 127, -28, 10, -81, -34, 34, -9, 108, 24, 19, 51, -95, -119, 53, 48, 127, 106, -30, 47, 97, 20, -57, -40, 127, -88, -66, -48, -35, 52, 112, 65, 82, 127, -88, 34, 99, -88, -124, 17, -45, -108, -123, -82, 122, 81, -82, -83, -13, -118, -72, 5, 127, 59, 34, 49, 29, -65, 110, 85, -105, 30, -127, 55, -19, 8, 54, -96, 49, -65, 35, -1, 7, -98, 30, -5, -104, -28, 19, -127, 53, 14, -127, -6, 109, -17, 127, 32, -6, 2, -62, -80, -118, 35, 48, 127, -109, -60, 127, 84, 4, 127, -21, 20, -113, 32, 40, 127, 127, 71, 42, -127, 41, 127, -80, -42, -56, 83, 45, -127, 83, 85, -50, -3, -86, 14, 59, -44, 33, 15, -112, -86, -41, 43, 49, 81, -88, 35, -26, -9, 127, -127, -51, 28, -127, 74, -24, -34, -47, -27, -31, 127, 75, -77, -127, 124, 97, -112, -37, -122, -11, 80, -46, -5, 127, 127, 21, -115, -1, -14, 65, -42, -72, -40, 103, 53, -3, -104, -94, 45, -62, -97, 6, 127, -13, -13, 72, -43, 9, 21, -126, -69, 2, 74, -23, -99, 84, 10, 66, -21, 127, -127, -44, 20, 101, -122, 107, 7, 127, -41, -14, -92, -124, -98, 72, -98, 91, 45, 88, 83, 127, 31, 127, -35, 17, -28, 91, 9, -115, 38, -15, 79, -9, -29, -118, -127, 16, 63, 125, -81, -17, 69, 67, 127, 59, 0, -68, 38, 40, -18, -1, 44, 127, 52, -45, 10, -74, 10, -110, 53, 15, 127, 60, 127, -90, -22, -93, 53, 3, -92, 37, 101, -84, -11, 45, 9, 127, 33, -127, 62, -113, -32, -127, 70, 30, -11, 127, 127, -114, -65, 43, 33, -127, -77, 48, 22, 11, -36, 68, -79, 45, -13, 77, -106, -66, -127, -127, 63, -116, 56, -118, 33, 83, -77, 127, 69, 77, -3, 45, -79, 127, 28, 31, -66, -28, -109, 76, 100, -81, 67, -32, -50, 40, -127, 30, 20, -27, 123, -45, 17, 6, 42, 73, 88, -122, 127, -86, 79, -108, -43, -30, 13, 74, -5, -4, -9, 41, -127, -108, 127, -11, 82, 95, -66, 24, -88, 127, 84, -20, -50, -47, 13, 127, -17, -127, -40, 13, -31, 1, -80, 28, 85, 28, -38, -127, 127, -11, -42, 62, -119, -114, -11, 15, 114, 17, 57, -119, 82, 1, 66, 14, -61, -34, 115, -60, -51, -127, 72, -123, -36, 56, 112, 77, -49, 88, -16, -63, 21, -20, 16, -28, 38, 117, 114, -9, 18, 46, 53, -98, 12, 127, 10, -52, 34, 7, 26, 13, 9, 8, -3, 105, -1, 41, 14, 20, 16, -5, 98, -14, -22, 117, -57, -24, -11, 12, 8, 21, -1, -12, 0, 7, -31, -54, -104, -13, 6, 57, -65, -3, 7, 0, 17, 13, -18, 15, 54, 9, 2, -27, 9, -89, 39, 19, 1, -4, -2, -22, -61, 72, -2, -4, 24, -21, -4, -75, -23, -4, -20, -9, 72, -6, 64, 7, 6, -8, -17, 35, 4, -19, 30, 41, -44, 2, 40, 38, -24, -48, -40, 29, -16, 10, 22, 71, -9, 2, -8, 30, 11, 12, -7, -33, 1, -8, 0, -9, 12, 9, -3, -26, -69, 27, -5, 59, -18, -16, 22, 20, 17, -18, -30, -80, 17, 6, -28, -81, -52, -34, 127, 27, -96, -5, -45, -47, -50, 23, 11, 21, 5, 9, -10, 32, -2, -24, 7, -79, -9, 8, 15, -13, -14, -7, 32, 7, -52, 13, -6, 9, 2, -54, -2, 8, -41, -6, 0, -2, -85, -12, 50, -13, 5, 5, -8, 16, -41, -63, -18, 3, 17, -61, -3, 50, 14, -2, 0, -1, 2, -43, 2, 10, 56, 10, 7, 22, -75, -13, 15, -14, 39, -18, 17, 38, -68, -5, -36, -22, 43, -10, 61, -14, -7, -6, -14, -38, -51, -4, 54, 24, 26, -20, 1, 3, -53, 5, -46, -12, 111, -57, -15, 94, 9, 9, -16, 2, 12, 49, -15, -77, 6, -4, -46, 6, -18, 24, 5, 8, 6, 15, 38, -13, -26, -3, 7, -13, 0, -59, -2, -7, -3, 1, -20, -19, 8, -38, -40, -1, 1, 12, 1, -2, -32, -13, 30, -42, 9, -2, -1, -3, -68, 49, 16, 20, -28, 54, 15, -10, -105, -20, -22, 16, -2, 63, -27, -56, -55, -26, 15, -9, -79, 6, -1, -2, 16, -22, -4, 13, 3, -5, -3, 12, 32, -24, -1, 5, 6, 42, 52, -88, 119, -9, -8, 5, -46, 4, 10, 20, -17, 12, -41, -8, -3, 26, -18, -6, -6, 49, -8, 18, -50, -5, 5, -33, 14, -20, 41, -4, 41, -70, -6, -28, 6, 5, -91, -3, -8, -4, -8, 2, -6, 20, 5, -64, 15, -58, -18, -33, -22, -127, -1, 3, 33, -16, -1, 66, 4, -11, -35, -4, 19, 3, -15, 7, -60, 73, -13, 7, -34, -70, -30, 21, 21, -51, -9, -35, 11, 44, 38, 12, 36, -8, 7, 15, -6, -1, -3, 127, -23, -27, 3, -7, -20, 36, 18, 58, 7, 53, -83, -76, 3, -18, 76, -1, 20, -1, 10, -24, 11, -68, 19, -45, -7, -53, -48, 18, 31, 10, -34, 73, 0, 7, 22, -22, 28, 5, 8, 36, -18, -30, 42, 28, -3, 4, -24, 0, 25, 45, -48, 20, -25, 82, 79, 26, -38, -11, 84, -20, 57, -3, 11, -4, -8, 12, -12, -50, -10, 1, 8, -41, -18, -110, 24, -36, 4, 29, 14, 64, 5, -69, 46, -10, 1, -39, 5, -6, 2, 6, 24, -1, 7, -27, 5, -6, 12, -15, 5, 7, 8, 20, 96, -4, 2, -21, 1, 24, 32, -127, 127, 65, 0, 127, 49, -41, -67, 110, 1, 26, 46, 46, -47, -17, 51, 54, -109, 31, -47, -100, 57, 52, 3, 44, 20, -100, -38, 39, -70, -127, 79, -33, 48, -127, -127, 50, -19, 60, 73, -88, -37, -46, 78, -10, 91, -74, 34, 120, -127, 35, 57, 14, 36, -84, -17, 127, -75, -75, 32, 54, 78, -127, 0, 10, -36, -32, 5, 57, 13, -37, 1, -38, -40, 74, -49, -4, -3, 60, -113, 46, 100, -8, 44, -127, 39, -16, 11, 47, -100, -90, 17, -25, 40, 19, 57, 13, 79, 73, 71, 4, 50, -84, -27, 43, -37, -117, 40, 92, 46, 98, 66, 63, -18, -56, 38, 69, -85, -101, 30, 59, -81, -127, -127, 76, -65, 51, -127, 15, -118, 104, 127, 28, 46, 29, 54, -31, 80, 61, -25, 21, 41, -45, 9, 17, 50, 80, -127, 24, -16, 67, 93, -5, -22, 36, 38, -127, -30, 55, -86, 20, 28, -30, 82, 55, -15, -38, 34, 8, -53, -54, -127, -120, 1, 45, 1, -127, 13, 101, 42, -54, 61, 51, 43, 38, 41, 60, 3, -12, 97, -24, -123, 78, -11, -50, 38, -89, 58, 58, -112, 67, -16, -24, 50, -88, -127, -3, 29, -3, 85, -101, -115, 25, 64, -47, 52, -91, 39, -21, 127, 49, -66, -16, -127, -118, 63, 104, 49, -20, 119, 13, 4, 75, -100, -122, 66, -61, -106, 11, -91, 16, 57, 55, -10, 55, 16, 93, -108, 58, 13, 43, -4, -107, -26, 66, 60, 52, -76, -95, 56, -80, -104, 2, 44, 48, -3, 63, -73, 1, 59, -126, -16, 72, 36, -10, -127, 54, -9, 50, -5, 63, -53, 66, 67, 98, -49, 19, 19, 64, -29, 32, -127, -111, -13, 70, -116, 33, 48, 43, 88, -25, 46, -15, 29, -24, -20, 45, 61, -64, 64, -11, 44, 63, 50, -106, -35, -27, 81, 37, -113, -21, 59, 57, 0, 52, 123, -29, 39, -73, 3, 54, 8, 10, 37, 51, 66, -11, 17, -25, 47, 127, 14, 22, 35, -127, 13, -95, 15, 48, -127, 32, 12, -9, 54, 37, 34, -16, 32, -19, 49, -114, -3, 45, 16, 31, 6, -5, -32, -97, -19, 71, 33, 0, -55, 52, 58, 50, -32, 63, -110, 18, 18, 57, -127, -116, -90, -104, 61, -122, 53, -107, 46, -5, 39, 6, 67, 82, -12, 55, -69, 42, 26, -92, -14, 32, -115, 67, 68, 127, 50, -89, -51, 14, -53, -99, 30, 52, 127, 33, 44, 12, 45, -12, 101, -122, 36, -127, 65, -127, 61, -2, -22, 68, -99, -91, -25, 31, -63, -73, 101, 55, 56, 54, 44, -22, 2, 30, 56, -59, 46, -87, -18, -14, -102, 69, -27, -7, -3, -13, -72, 2, 121, 37, 127, -66, -37, 6, -11, 41, -95, -115, 2, 45, 17, 127, 64, -119, 0, 46, 39, -120, -20, -127, -15, -127, 12, -8, 59, -127, -12, 42, 67, 53, -2, 70, 66, -26, -11, -8, 54, -37, 52, 50, 67, 63, 30, 35, 55, -113, -3, 34, 127, -98, 81, 127, -127, 126, 127, -127, -127, 19, -127, -17, 127, -15, 18, 75, -60, 56, -120, -74, -15, -127, 127, 127, -127, 127, 127, -127, -127, 127, 71, -93, 54, -127, 127, -77, -115, 127, -127, 127, 127, 17, 8, -69, -56, -127, 127, -127, 127, 51, 22, 127, 127, 127, 127, -127, 13, 127, -127, -127, 127, 127, 127, -123, -100, 127, -127, -127, -127, 127, -127, -100, -127, -45, -127, 127, -127, 127, -127, 127, -127, 127, 3, -127, 127, -86, -127, -127, 127, 127, -23, -63, 127, -127, -127, -5, 127, 97, 127, 127, 127, 127, 127, -127, -127, 120, -127, -127, 127, 127, 127, 127, 127, 127, -2, -127, 127, 127, -127, -113, 127, 127, -127, -51, -93, 127, -14, -127, -120, 127, -127, 28, 5, 60, 127, 127, 127, -127, 127, 127, -63, -127, 127, 64, 127, 127, 127, 127, -75, 127, -127, 127, 127, -127, -127, 127, 127, -126, -127, 127, -73, 127, 127, -89, -38, 127, -127, -12, 127, 127, -79, -127, -21, -127, 127, 127, -83, -125, 127, -5, 127, -127, 106, 127, 127, 127, 127, 127, -103, -4, 59, -127, -49, 127, 6, -127, -127, -127, 127, 127, -108, 127, 127, -127, 127, -127, 60, 127, 50, 127, 127, -127, -127, 127, 127, -127, 104, -127, 127, -127, -53, 117, -117, -127, 67, -116, 127, -127, 127, -127, 127, 127, 52, 127, -127, -112, 127, -127, -127, 67, -127, -127, 127, 127, -127, 103, -118, 127, -127, 127, 127, 127, -127, -79, -127, 127, 127, 127, -127, -127, 127, -127, -127, 40, 95, 127, -127, 127, -127, 127, 127, -127, -106, 87, 127, 14, -81, 127, -127, 127, 127, 122, -89, 127, 127, 127, -127, 127, 127, -90, 127, 127, -108, -127, -127, 127, -127, 127, 127, 127, 127, -10, 127, 6, 127, -127, -127, 127, -122, -127, 127, -38, 127, 127, -127, -89, -125, -127, 127, 127, -127, -127, 127, 127, 57, 127, -98, -127, 127, 56, 127, 127, 127, -11, 127, 127, 127, -127, 127, 127, 127, -102, 74, 127, 84, -115, 127, -127, 127, 127, -123, 127, 127, 37, 127, 127, 127, -76, 127, 64, 127, -127, 127, 38, 127, 40, 127, -43, -72, -127, -127, 127, 127, 55, -101, 127, 127, 127, -127, 127, -127, 127, 34, 127, -103, -127, -108, 109, 127, -120, 127, -127, 127, -127, -60, 28, 127, 127, -127, 127, -127, 109, 127, 40, -68, -98, -127, 127, 127, 102, 127, 92, -127, -127, -96, -39, 127, 127, 122, 127, 127, 127, 127, 127, 127, -127, 95, -84, 127, -119, 127, -127, -125, 127, -80, -31, -127, 127, -116, -127, 59, 127, 127, 127, 127, -127, -127, 83, 127, -127, -23, -34, 69, 10, -127, -64, 127, -127, -127, -127, -127, 127, 25, 127, -2, 9, -48, 127, 59, 127, -127, -127, 127, 127, 127, -43, 127, -48, 97, 92, -13, -9, -127, 80, -83, -71, -127, -116, 127, -75, -127, 127, 127, 127, -127, 127, -127, 95, -127, -34, 127, -127, 127, 127, 127, 127, -26, 127, 127, -127, -127, 67, -18, -81, 92, 25, 32, 3, 5, -5, -35, 106, 24, 30, 10, 44, 127, -35, 53, 34, -84, 127, -54, -48, 19, 3, 36, 6, -16, -61, -5, -8, -73, -95, -127, 6, 0, 83, -96, 1, 6, 5, 43, 127, -37, -26, 71, 25, 56, -27, -5, -105, 111, -15, 12, -21, -9, -46, -14, 78, -35, -32, -16, 8, 27, -79, 16, -22, 1, 1, 37, 19, 41, -5, 31, -25, -8, -21, -16, -43, 27, 27, -84, -4, 94, 13, 11, -101, -4, 15, -19, 6, 127, 127, -17, 17, 71, 13, 12, -6, 23, 18, 14, -27, 9, -61, 51, -1, 2, -71, 29, 60, -1, 66, 38, 18, -16, -36, -7, 21, -48, -60, -6, 17, -33, -96, -81, -10, -27, 60, -94, -20, -65, 43, -86, -2, 5, -8, 13, 5, 32, 9, -9, 43, -4, -54, -20, -12, 13, 24, -105, -13, 20, 24, 45, 23, 16, -1, -6, -90, 6, 19, -72, -17, -8, -8, 87, 27, 65, -31, 1, -18, -26, -17, -105, -79, -32, 14, 29, -84, -18, 89, -6, -15, 37, 2, -1, 4, -14, -6, 24, -9, 76, 7, -98, 20, -7, -24, 51, -47, 10, 29, -73, -5, -56, 6, 13, -50, 67, -37, 7, -25, 44, -66, -91, -1, 28, -11, 8, -46, 0, 15, -45, 20, -38, 19, 123, -78, 9, 109, 9, 16, 72, -20, -17, 50, -66, -89, 45, -23, -69, -4, -53, 34, 18, 15, 23, 14, 38, 52, -65, 17, -20, -6, 26, -76, 4, 21, 4, -4, -38, -53, 13, -35, -72, -13, 8, 7, 28, 5, -35, -19, 26, -95, 18, 43, -18, -13, -101, 7, 21, 12, -23, 15, -25, 29, -105, 63, -4, -21, -15, 75, -49, 2, -92, -94, 16, 20, -81, -7, 7, -2, 51, -19, 18, -15, -10, -1, 16, -7, -37, -26, 11, -2, -10, 28, 71, -80, 79, 5, 24, 5, -63, 7, 3, 17, -5, 0, -57, 6, -6, 31, -24, 11, -28, 9, -17, 10, 24, 24, -15, -50, 8, -79, -14, -15, 10, -84, -24, -53, -15, 0, -71, -9, -22, -17, 8, -6, -25, 5, -8, -32, 4, -80, -28, 30, -19, -50, -23, 6, -15, -55, 13, 36, -8, -4, -16, 6, 7, -7, 1, -13, -65, 126, 5, 16, -99, -74, -54, -108, 18, -113, -2, -58, 0, 24, 47, -3, 18, 48, 20, 6, -24, 9, -12, 109, 6, 53, -72, 23, 2, 86, 3, 127, -29, 41, -25, -82, -2, 9, 77, -1, 18, -22, -2, -36, 71, -89, -2, -105, 13, -96, -31, 31, 127, 26, -80, 127, 8, -4, -32, -28, 74, 10, 12, 14, 8, 6, 31, -4, 8, -29, 52, -72, 38, -14, -68, 69, -50, 27, 83, 15, -40, -24, 122, 6, 114, -61, -22, -27, -23, -8, -50, -81, -28, -2, -21, -61, 18, -111, -52, 15, 45, 83, -3, 99, 7, -91, 45, 22, 23, -99, 22, -5, 27, 3, 28, 29, 78, -32, 24, 0, 8, -1, 6, 8, 19, 22, -4, 0, 16, -57, 29, 13, -6, -83, 36, -13, 36, 13, 34, 6, -17, 71, -46, -9, 20, 0, -17, -23, -1, 42, -31, -85, -10, -11, 42, 23, 48, 32, -7, -20, -4, -6, 38, -65, 42, -36, -5, 43, -26, 22, 6, 51, 17, -31, 53, -40, 1, 44, 84, -1, -10, 34, -20, 16, -4, -2, -5, -22, 45, 4, 10, -17, 8, 5, 0, -61, 80, -23, 18, -28, 1, 15, -24, -37, -4, 70, 2, -47, 30, -53, -28, 24, -46, 14, 0, 49, 21, -50, 68, -20, -1, 12, -37, -66, -19, 71, 41, -15, -2, -20, -37, 82, -3, -31, 20, 13, -31, -28, 36, -100, 99, 5, -6, -58, 21, 17, -13, 0, 4, -45, -37, -81, 17, 39, -25, -99, -50, -41, -80, 21, -28, -2, -63, 101, 82, -14, 10, 30, 5, 2, 38, -23, -49, 65, -8, 2, -27, -4, 14, 1, -44, -43, 113, 0, 50, -2, 93, 4, 10, -16, 13, 15, -52, -25, 6, 16, 90, 8, 70, -15, 15, -8, 44, -28, -73, -69, -19, 14, -15, -43, 4, -30, -40, -17, 18, 29, 0, -1, -10, 30, -5, -28, 33, -14, -95, 16, 7, 7, -2, -41, -9, 13, -28, -8, -75, 80, 67, -86, -45, -37, 43, -60, 50, -63, -113, 1, 0, -11, 9, -9, -16, 17, 31, 19, 36, 11, -103, -80, 2, 61, 31, 19, 119, -1, -6, 55, -48, -76, -4, -72, -58, 45, -18, 30, 6, 27, 7, -2, -12, -10, -59, -18, -5, -4, 5, -54, 0, -20, -2, 19, -25, -12, 1, -33, -82, 61, -16, 31, 7, -7, -19, -6, -32, -69, 78, 47, -4, 27, -14, -20, 15, -2, -28, 18, 56, 39, 3, 5, 47, -47, -3, -70, -39, -1, -73, -47, 25, -13, -87, -14, 16, -18, -4, -14, 52, -7, 21, -7, 16, -24, 93, 8, 8, 38, -15, 36, 39, -73, 25, 14, -8, -29, -43, 6, 17, 15, 14, -9, 53, -1, 8, -104, -17, 35, -24, 6, -13, 32, 37, 37, 0, 7, 18, 102, -29, -26, -7, -79, 1, -34, -23, 15, -84, -6, -33, 49, 16, -10, 63, -8, -4, -15, -12, -81, -14, 19, -52, 4, -23, 1, -27, -54, 39, -42, 7, 47, 76, 14, 3, 30, -10, 2, -66, 7, 60, 7, -44, -84, -48, 6, 23, -62, 0, -50, 5, 34, 90, -28, -43, -27, 6, 4, 15, -43, -1, -56, 72, 127, -80, 7, -16, 58, -28, -104, -34, 11, -53, 48, 2, 38, -10, 52, 34, -9, -7, -95, 45, -80, 5, -47, -6, -43, 43, 22, -35, -18, -69, -39, -4, 7, -75, -5, 16, 13, -6, 54, 40, 71, 75, -8, -10, 13, 127, -127, -100, -25, 33, 18, -39, 39, 6, 28, -12, -13, 40, 13, 6, -28, -17, -5, 116, -12, -30, -55, -6, 2, -13, 63, 3, -102, 37, 47, -62, -127, -4, -9, -67, -29, 92, 80, 14, -56, 18, -10, 24, -36, 64, 9, 2, 5, -14, 24, 10, -32, 0, -5, 0, 10, 114, -4, -5, -10, -6, -11, -13, -57, -33, -18, 58, 9, 55, -12, -33, 59, -64, -2, 40, -1, 40, -71, -2, 127, -70, -70, -127, -12, 10, 10, 77, 47, -7, -63, 68, -9, 127, -76, -23, -42, 0, 69, -64, 46, 3, 95, -24, -26, 127, -39, -24, 57, -30, -6, -24, 104, -6, 18, -5, -13, 1, -43, 127, 71, -50, -45, 11, 18, -10, -6, 127, -59, 38, -94, -49, 40, -57, -101, 23, 127, -9, -30, 81, -109, -62, -38, -54, 18, -30, 33, 57, -99, 37, -83, 7, -16, 30, -38, -29, 87, 97, -127, -3, -69, 18, 123, 39, -67, 52, -48, -53, -71, 41, -97, 107, 41, -10, -34, 74, -53, -14, -63, -9, -24, -21, -74, 26, 45, -61, -119, -68, -35, 16, 29, -20, -14, -93, -72, 18, -32, 10, 80, 20, -23, 108, -29, -127, 81, -2, 61, -38, -27, 37, 42, -85, -64, 124, 29, 79, -32, 117, -5, 30, -64, 20, 57, -54, -35, 14, 39, 127, -36, 40, -35, 12, -6, 127, -17, -121, -60, -34, 41, -55, -102, 15, -24, -27, -88, -73, 75, 6, 30, 4, 15, -23, -29, 127, -57, -107, 23, -4, -30, -56, -81, -15, -27, -90, 11, -81, 118, 117, -114, -15, -63, 127, -98, 103, -107, -98, -14, -75, -67, -127, 42, -11, 29, 10, -56, 47, 38, 75, -79, 16, 78, 82, 41, 55, 5, 21, 47, -45, -72, 26, -84, -83, 127, -46, 9, 0, 54, 12, -46, -25, -14, -106, -26, -19, -2, 43, -127, -6, -23, -8, 26, -33, -25, 17, -34, -91, 127, -25, 72, 42, -1, -84, -3, 49, -77, 127, 127, -8, 127, -75, -65, 30, -58, -10, -18, 117, 72, -28, 79, 103, -51, -16, -59, -49, -11, -98, -94, 16, 11, -82, -29, 6, -43, -9, -34, 70, 16, 74, -16, 27, -4, 7, 21, 46, 127, -36, 51, 12, -66, 39, 5, 4, -89, -53, 11, -27, -39, 102, -20, 26, 0, -12, 34, -21, 58, -40, -5, -23, 73, 27, 81, -19, 57, 15, 14, -51, -45, -21, -118, 4, -66, -30, 36, -7, -5, -64, 127, 30, -3, 52, -33, -5, 8, -21, -86, -9, 46, -62, 29, -44, -3, -38, -69, 2, -13, -11, 83, 127, 2, 14, 66, -8, -14, -75, 2, 127, -20, -90, -98, -63, -103, 22, -127, -8, -49, 16, -40, 101, -80, -16, 31, 7, 31, 20, -72, -17, 39, 127, 69, 0, 18, -41, 116, -24, 62, -102, -44, 97, -127, 10, 71, -59, 84, 88, -17, -6, -79, 59, -100, 62, -85, 26, -91, 107, 26, -4, -33, -127, -39, 5, -9, -45, -24, -34, 73, -44, -6, 109, 106, 85, -45, -6, -30, 49, -97, 12, -65, 11, -119, -38, 16, -22, 0, -31, -32, 115, 3, -43, -15, -28, -14, 127, -30, -54, -84, -30, 8, -42, 25, 32, -76, 127, 127, -127, 86, -26, -52, -127, -27, 69, 80, 48, -71, 35, -14, -43, -19, 63, -30, -6, 127, -15, 127, 39, -29, -2, -41, -24, 11, -30, -7, 15, -18, 14, 22, 2, -72, 35, -18, 17, 8, 16, 6, -3, 58, -31, -9, 8, -2, 51, -5, 2, 4, -13, -25, -1, -4, 48, 23, 22, 18, -2, 1, -22, -1, 4, -27, -52, -18, -5, 90, -2, 16, 2, 11, 16, 49, 25, -29, 4, 26, 80, -3, -3, -62, 26, 11, -3, 1, -2, -8, 10, -17, 21, 2, 4, -7, 1, -50, 47, -16, 5, -7, 11, 1, -4, -7, -11, 33, 5, -27, 9, -32, -12, 27, -25, 9, 4, 40, 12, -25, 24, 4, -2, 6, 15, 54, -10, 38, 12, -12, -1, 1, -63, 63, -21, -13, 2, 18, 20, -7, 19, -67, 64, 2, -2, -67, -9, 22, -7, 10, 5, -49, -25, -41, 2, 20, -6, -56, -24, -22, 32, 13, -25, 3, -27, -62, -68, -3, 10, 15, -5, 4, -3, -13, -16, 38, -4, -1, -16, 5, 7, -7, -22, -24, 83, -10, -5, 3, 57, 3, -2, 6, 7, -5, -22, -11, -1, 5, 61, 0, 72, -3, 17, -5, 11, -23, -37, -42, -7, -1, -1, -19, 1, -23, -23, 6, 24, -15, -5, -8, -1, 35, -2, -19, -15, 1, -78, 9, 8, 12, 4, -21, -6, 19, -23, -21, -54, 46, 30, -50, 74, -15, 8, -43, 15, -32, -80, 5, 12, 4, 39, -19, -11, 9, -57, 24, 20, 4, 70, -56, -3, 38, -21, 7, 99, -1, -1, 12, -34, -55, -15, -41, -32, 15, -6, 24, 7, 10, 3, 11, -8, -9, -30, -6, 0, -7, -5, -18, -1, -14, 0, 11, -15, -6, 3, -30, -50, 26, -16, 3, -3, -9, -9, -2, -42, -40, 39, 6, -2, -5, 6, 6, 4, 11, -22, 27, 28, 13, -82, -32, 14, -28, 3, -50, -19, 4, -40, -15, 17, -21, -58, -1, 16, -5, -7, -6, 37, -11, 1, -7, 7, -18, 26, 1, -8, 7, 1, 21, 32, -43, 56, 13, -23, -12, -25, 1, 28, 17, -14, 0, -39, -4, 1, 7, -9, 23, -10, 7, -7, 4, 33, 16, 5, -2, 9, -36, -15, -11, 2, -40, 2, -15, -14, 6, -78, -4, -16, 14, 6, -13, 56, 2, -2, -3, -8, -52, -10, 8, -35, -89, -9, 4, -17, -31, 33, -28, 9, 20, 35, 16, 7, 7, -13, 15, -47, 9, 20, 14, -7, -63, -22, 14, 22, -23, 3, -28, 4, 35, 127, -6, -57, -28, 4, 2, 5, -17, 3, 62, 38, 98, -71, -14, -11, 25, -20, 71, -5, 19, -64, 68, -7, 17, 8, 24, 20, -4, -3, -66, 25, -57, -13, -22, -19, -21, -25, 14, 49, -17, -39, 62, -5, 8, -66, 6, 22, -10, 11, 51, 7, 44, 51, 5, -7, 10, 96, -90, -7, -11, 16, 11, -21, 74, 42, 26, -9, -13, -14, 12, 10, -18, -10, 0, 77, -3, -15, -27, 4, -3, -8, -32, -12, -83, 22, 16, -31, 27, 3, 24, -29, -11, 67, 54, -4, -32, 6, -3, 21, -33, 41, 14, 0, -29, -8, -4, -2, -25, -1, 1, 1, 6, -91, -7, -9, -3, -11, -10};

static const int32_t L021_dw_bias[512] = {-3692, 30083, -1116, -3987, 24649, -22422, -5843, 16532, 27291, -13158, 29061, -2705, -3052, -2432, -6138, 12409, -6039, -3121, 24861, 24997, 25608, 34947, -5831, -4776, 30417, -2318, 916, 36355, 8336, -2310, 28748, 34662, 38758, 39555, -8784, -1158, 28366, -4342, 10019, -6648, -2954, -6689, 14130, 2779, 4302, 31590, -4555, 21829, -2587, 12187, -3502, -3724, -3062, 5622, -1983, 25765, 26727, -3733, 43919, 36081, -3158, -4725, -7511, 43209, 6050, 1650, 19452, 40730, 18413, -2732, 29651, 21876, 19846, 6710, 22451, -1440, 1066, 163, 27325, -11773, 34188, -3485, -5908, -470, -10354, 42179, -485, 22790, 6712, -6515, 32847, 16860, 3986, 23231, 32196, 298, -5042, 5760, -4318, -4886, -5328, 12858, -3707, 22465, 24890, -5720, 36070, 54452, -9540, -1863, -2133, -4331, -14305, -5420, -11662, 24033, -1854, -3892, 30417, 26519, -8242, -5312, 31922, 45215, 24266, -3086, -1821, -84, 40950, 2510, 31552, -17707, 11404, -395, -4990, -15201, 1681, 12073, -5697, -3710, 23689, 18526, -1343, 18767, 9921, -7482, -12178, -4432, 33869, 12120, 26994, -4615, -6532, 10871, 28636, -2182, -1722, 51717, 23950, -4400, 24473, 5956, -9734, 20796, 662, -1045, 12743, 18648, -9386, -5879, 533, 38839, 43652, 33861, 10957, -18126, 14151, 27790, 4258, -3353, -8259, 47210, -4755, -3862, -2292, 19224, -1411, -6121, 10105, -2953, -3944, 27752, 34086, -6230, -5044, 21621, 7020, 41142, -3081, -6989, 30364, -10403, 17623, 27887, -12813, 28054, 35743, 13690, 448, -527, -3754, 26878, 37519, -6452, -6753, 38947, -5838, 36291, -1638, 30044, 31670, -4637, 38874, 34204, 19423, 27900, -7386, 7878, -3954, 23499, -14935, 4509, -4036, -9637, 24797, 20089, -11567, 26019, 38638, 1427, 29535, 4082, -5906, 1564, 17821, -3143, 13602, -12453, 32991, -1885, 1863, -1853, 32725, 33867, 13509, -3363, -5086, -4580, 24459, 37810, -10940, 37494, 28765, -5564, -2772, -2876, 23345, -5339, 31044, -8360, -9711, 36154, 15789, -6747, -7276, 3355, 26980, -3155, 17045, -3906, 12805, -6176, 16581, -3126, 31044, -8173, 24483, 5844, 1155, 11346, 3026, -7007, 55331, 93768, 12020, -5675, 36729, 1028, -8301, -2610, -4085, 11529, -13284, -6504, -2994, 12295, 28534, 1000, 1116, 43938, -3844, 2641, -3710, -2132, 16518, 32137, 19673, 14364, -5630, 17348, 39161, 12448, -4983, -714, -14954, -4783, 19861, 28706, -756, 39928, 17974, -6558, 6324, -13516, -1725, -3083, -2500, 34243, -3225, 40797, -8906, 25671, 3251, 8848, -2477, 39107, 4919, 26855, 3796, -3348, 48170, -1082, 18485, -674, -2780, -2831, -6147, 7893, 4877, 31175, -5501, 37909, 14534, 19075, 8375, 41858, -2911, -9775, 1651, 57330, 16183, -3784, 586, -1290, 14977, -5418, -5752, -3131, 25982, -1867, 34425, -17261, -5738, -2318, 39510, 37372, 28713, 18128, -8683, 36443, -3954, 32114, -3350, 17380, -10165, 8331, -3350, -8078, 20752, -1649, 28997, 7525, -5242, 17804, 13961, 8381, 38530, -3680, -4365, -4346, -11935, -7298, 23007, 15549, 60875, 17890, -5526, -4547, -2195, -3581, -12058, 2514, -3516, 30939, -12620, 28388, -21050, 32365, -5834, 22504, -2859, 20973, 26962, -6091, 23157, 23968, 21965, -10496, 25867, 37864, -7192, -3805, -4283, -3077, -2815, 7487, 26937, -1724, -2563, 15550, -14445, 26695, 35249, 13475, 19175, 536, 21015, 882, 22440, 4744, 21510, 2774, -3692, -10017, 1466, 20976, 10572, 3703, -18441, -1771, 45715, 26930, 8416, -2743, -7869, 11427, -6380, 26945, -12530, -19983, 32388, 38, 14259, 15594, 31576, 28155, 23933, 40077, -5359, 32430, 28097, -2666, -5555, -2818, 20843, -8031, 10362, 7211, 33422, 6630, -7802, 37907, -4588, -3560, -4679, -6736, -2118, -1553, -6402, 37928, 21490, -7308};

static const int32_t L021_dw_output_multiplier[512] = {1952263808, 1273326336, 1703650176, 1358126720, 1765744128, 1172291456, 1416773632, 1220038912, 1699660544, 1802203392, 1751341952, 1463219456, 1579451392, 1608768128, 1890122880, 1254596096, 1367019776, 2041961216, 1103664256, 1147692928, 1835907968, 1627733120, 1922177664, 1339636224, 1166225536, 1207773184, 1356954368, 1151901568, 1785705344, 1685883520, 2081582848, 1714829312, 1315969536, 1627273728, 1403404416, 1278857088, 1096684160, 1189767680, 1957767552, 1101516160, 1381703296, 1370726528, 1473129344, 2017384960, 2054293248, 1393480960, 1263351936, 1659274880, 1782224640, 1349487616, 1714705536, 1270356224, 2119343360, 1807227648, 1946293888, 1630628480, 1217547520, 1118156160, 1567279360, 1154778112, 1631905280, 1975889024, 2002852608, 1080101632, 1986095232, 1786560768, 1109067392, 1958102016, 1564528384, 1710441600, 2104812672, 1833087872, 1120561920, 2064187648, 1696167168, 1672941440, 1198865152, 1221910400, 1363587712, 2117264512, 1326071936, 1812297344, 1582673792, 1455731456, 1694189568, 2022657792, 1870464256, 1429879552, 1798956416, 1474759808, 1855460352, 1076287872, 1967387392, 1227698944, 1940373632, 1448957952, 1681793792, 1703212416, 1339643520, 1514519808, 1875936512, 1446176000, 1576610048, 1459092224, 1441503616, 1114977920, 1309953152, 1889873408, 1465063424, 1622008448, 1648346752, 2014568960, 1271677056, 1358108544, 1781489024, 1943617152, 1488256512, 1079869312, 1426164224, 1472477952, 1160069760, 1143927552, 1194207104, 1563505920, 1430605440, 1356396544, 2127527040, 1829392384, 2001896320, 1202866432, 1089198976, 1906968704, 2050251648, 1448502400, 1745343360, 1969948672, 1308670208, 1291238272, 1086738048, 1519743104, 1079341184, 2112753792, 1762390272, 1912915200, 1722978432, 1578031488, 1533941760, 2068033792, 1265801600, 1566792320, 1184770688, 1440023552, 1597938944, 1627738112, 1094302208, 1571277824, 1591009024, 1119150336, 1243022848, 1715374208, 1395452160, 1798728576, 1088986368, 1418602752, 1866874112, 1273868928, 1390291968, 1426567296, 1201349120, 1780993920, 1477783808, 1455632000, 1366349568, 1944043008, 1778266368, 1847859584, 1721358208, 1600985088, 1809497984, 1427741440, 1150898304, 1569460608, 1632560384, 1215524608, 1791913728, 1488867968, 2145098240, 1245783936, 1596311168, 1241659776, 1181869568, 1304272512, 1171751168, 1081552512, 1740286336, 1107250816, 1102657792, 1300766336, 1669086080, 1627222144, 1681879808, 1458534784, 1676527744, 1299920256, 1345067776, 1259566208, 1575867264, 1670762752, 1169156736, 2106873472, 1227771648, 1251116544, 1315811968, 1734931072, 1181653248, 1093545472, 1205541632, 1413359232, 1743481344, 2082867968, 2056777600, 1218538624, 1520523136, 1230970752, 1273267712, 1334437632, 1214470016, 1258278912, 1843281408, 1094679040, 1195277184, 1164390784, 1580597504, 1900652800, 1534365184, 1539436288, 1489405056, 1641367296, 1166993152, 1320979456, 1217102592, 1090160128, 1491476736, 1643698688, 1676326144, 1313732224, 1895826048, 1555709952, 2126059520, 1547662336, 2018208000, 1836678144, 1241418368, 1980474880, 1603260800, 1506980480, 1306166272, 1266769280, 1228229760, 1626368768, 1344512384, 2018970624, 1194203392, 1386082432, 1253490432, 1497849088, 2065936256, 1257666560, 2127285120, 2028441600, 1172327168, 1093049216, 1319614208, 1492605952, 1227739136, 1525104384, 1136150016, 1832042624, 1309233408, 1763613952, 1626376320, 1775312256, 1289096576, 1319827712, 1986715520, 1295145600, 1559643264, 1436722944, 1501673344, 2111241600, 1902720256, 1975055360, 1977240064, 2021709568, 1957647616, 1139628160, 1795047040, 1441365760, 1126792704, 1729426304, 1889841152, 1730785408, 1190789248, 1144467328, 1546109312, 1795090944, 1772148736, 1317451648, 1085390464, 1406873088, 1970896512, 1390673664, 1217141248, 1391479936, 1529371776, 1534044032, 1426847616, 1576005888, 1368892672, 1076245504, 2087163264, 1727330176, 1100253696, 1341953664, 1106287872, 1120947584, 1871760512, 1661815936, 1977753088, 1232710400, 1328804224, 1089475584, 2062959232, 1289863296, 1988438656, 1513384448, 1168469504, 1178428800, 1183771264, 1576925056, 2066087552, 1158116096, 1949146752, 1620445568, 1264410240, 1619067776, 2051339264, 1325821056, 1652620160, 1671970432, 1491982080, 1990208640, 1090497152, 1758520960, 1772766720, 2088369280, 1770146816, 1824574080, 1746239616, 1082384896, 1955612288, 1847109888, 1475017472, 2141283328, 1879907200, 2099042944, 1683090432, 1238413568, 1519748736, 1823560064, 1372648448, 1671784064, 2005939840, 2008854016, 1244161024, 1535677696, 1108985600, 1699384448, 1647260672, 1830477056, 1986230144, 1518805504, 1968279424, 1280042112, 1848083968, 1970888960, 1182295040, 1426374272, 1322543232, 1132132352, 1396193152, 1125595520, 2027388800, 1902651264, 1569283456, 1527019904, 2108259456, 1095296128, 1419545856, 1463168384, 1977990528, 1411026176, 2145905408, 1278480384, 1797468288, 2031054336, 2080693632, 1671634560, 1086780544, 2032814208, 1107932032, 2094904448, 2015542912, 1649871744, 1159706496, 1079366528, 1099454848, 1794564864, 1460431232, 1244261248, 2094437376, 1419165056, 2020023552, 1388542336, 1503908992, 1222026368, 1246022016, 1221493504, 1256601984, 1360586496, 1170200704, 2119016064, 1889444096, 1098735232, 1652513280, 1612363264, 2112862848, 1340026624, 2117368064, 1321110272, 1260487168, 1469498368, 1713676544, 1658095872, 1127181056, 1403327488, 1431217024, 1265138560, 2070835072, 1125296256, 1099968000, 1247108864, 2076345984, 1451922560, 1407509504, 1259981440, 1497787264, 1448210176, 1211479552, 1297038592, 1881700864, 1340206592, 1257776000, 1667394688, 1301531520, 1277480448, 1440484224, 1167328384, 1525281792, 1854035584, 1101985152, 1523751936, 1206624128, 1929821824, 1800892800, 1961893632, 1427536640, 1337005440, 1336704768, 2100726784, 2045994624, 1744706432, 1117150976, 1650515072, 1825584768, 1282978944, 1573269504, 1939967488, 1649665664, 1137115008, 2067951872, 1123137408, 1397806080, 1858310784, 1679717120, 2016741120, 1164363008, 1255168384, 1466327168, 1854864640, 1497698304, 1450106624, 2006813824, 1792289024, 1931492736, 1126357376, 1165346176, 1371944192, 1829943296, 1409124096, 1415522944, 1729150720};
static const int32_t L021_dw_output_shift[512] = {-7, -8, -8, -7, -7, -7, -7, -6, -8, -8, -7, -7, -7, -7, -7, -7, -7, -7, -7, -7, -6, -8, -7, -7, -7, -7, -6, -8, -6, -7, -8, -9, -7, -8, -6, -5, -8, -6, -6, -6, -7, -6, -7, -7, -7, -7, -7, -8, -7, -6, -7, -7, -7, -7, -7, -8, -7, -7, -8, -8, -7, -7, -6, -8, -7, -7, -7, -8, -7, -7, -8, -8, -6, -7, -8, -7, -6, -6, -7, -7, -8, -7, -7, -6, -6, -9, -5, -7, -7, -7, -8, -6, -7, -7, -8, -5, -7, -7, -6, -7, -7, -7, -7, -6, -7, -6, -7, -9, -7, -7, -7, -7, -6, -6, -6, -6, -7, -6, -8, -8, -6, -6, -8, -9, -8, -6, -7, -6, -8, -6, -8, -7, -7, -7, -7, -7, -7, -6, -6, -7, -7, -8, -7, -8, -7, -6, -6, -7, -8, -7, -7, -7, -6, -6, -7, -7, -7, -8, -6, -7, -7, -7, -6, -7, -7, -7, -6, -7, -5, -6, -6, -8, -8, -9, -7, -6, -7, -8, -7, -7, -6, -8, -7, -6, -7, -7, -7, -6, -7, -6, -7, -7, -7, -6, -7, -6, -6, -8, -7, -7, -8, -6, -7, -7, -7, -8, -8, -7, -7, -7, -7, -8, -8, -6, -6, -7, -6, -8, -7, -7, -8, -7, -8, -7, -7, -8, -6, -7, -7, -6, -7, -6, -7, -6, -8, -8, -6, -8, -8, -7, -8, -5, -7, -7, -6, -7, -7, -7, -9, -7, -7, -7, -7, -8, -6, -7, -6, -6, -7, -8, -6, -8, -8, -7, -7, -7, -7, -6, -8, -6, -6, -8, -7, -7, -6, -7, -7, -7, -6, -7, -8, -8, -7, -7, -8, -7, -8, -7, -6, -7, -6, -6, -9, -9, -7, -6, -9, -7, -6, -7, -8, -7, -6, -6, -7, -6, -7, -7, -7, -8, -7, -7, -6, -7, -7, -8, -7, -7, -6, -7, -9, -6, -6, -7, -7, -6, -8, -8, -7, -8, -7, -6, -7, -7, -7, -7, -6, -7, -6, -8, -7, -7, -8, -7, -7, -9, -7, -8, -7, -7, -9, -7, -7, -7, -7, -7, -7, -7, -7, -7, -7, -9, -7, -8, -7, -9, -6, -5, -7, -9, -7, -7, -7, -7, -7, -6, -6, -7, -8, -7, -9, -7, -7, -7, -9, -9, -8, -5, -6, -7, -6, -8, -7, -7, -7, -7, -7, -6, -6, -7, -8, -7, -7, -7, -7, -7, -9, -7, -6, -8, -6, -7, -7, -7, -8, -7, -6, -7, -8, -7, -7, -6, -7, -8, -7, -8, -6, -8, -6, -8, -6, -7, -8, -6, -8, -8, -7, -6, -8, -8, -6, -7, -7, -8, -7, -7, -7, -7, -7, -5, -7, -8, -9, -7, -6, -6, -7, -7, -7, -6, -7, -6, -8, -6, -7, -7, -7, -6, -7, -7, -8, -8, -6, -7, -7, -7, -6, -7, -7, -7, -8, -5, -6, -8, -8, -8, -7, -8, -7, -7, -7, -6, -7, -7, -7, -7, -6, -6, -7, -7, -6, -8, -7, -7, -7, -6, -5, -7, -7, -8, -6, -7};

#endif  // LAYER_021_DEPTHWISE_CONV_2D_H_
