#ifndef LAYER_012_DEPTHWISE_CONV_2D_H_
#define LAYER_012_DEPTHWISE_CONV_2D_H_

#include <stdint.h>

// op_index=12 op=DEPTHWISE_CONV_2D
// input:  idx=69 name=sequential_1/mobilenet_1.00_128_1/conv_pw_5_relu_1/Relu6;sequential_1/mobilenet_1.00_128_1/conv_pw_5_bn_1/batchnorm/add_1;sequential_1/mobilenet_1.00_128_1/conv_pw_5_1/convolution; shape=[1, 16, 16, 256] dtype=int8
// weights: idx=35 name=tfl.pseudo_qconst33 shape=[1, 3, 3, 256] dtype=int8
// output: idx=70 name=sequential_1/mobilenet_1.00_128_1/conv_dw_6_relu_1/Relu6;sequential_1/mobilenet_1.00_128_1/conv_dw_6_bn_1/batchnorm/add_1;sequential_1/mobilenet_1.00_128_1/conv_dw_6_bn_1/batchnorm/mul_1;sequential_1/mobilenet_1.00_128_1/conv_dw_6_1/depthwise;;sequential_1/mobilenet_1.00_128_1/conv_pad_6_1/Pad shape=[1, 8, 8, 256] dtype=int8

#define L012_DW_OUT_CH (256)
#define L012_DW_KH     (3)
#define L012_DW_KW     (3)
#define L012_DW_STRIDE_H (1)
#define L012_DW_STRIDE_W (1)
#define L012_DW_DILATION_H (1)
#define L012_DW_DILATION_W (1)
#define L012_DW_DEPTH_MULTIPLIER (1)
#define L012_DW_PAD_H (0)
#define L012_DW_PAD_W (0)

static const int32_t L012_dw_input_offset = 128;
static const int32_t L012_dw_output_offset = -128;

static const int8_t L012_dw_weights[2304] = {83, -70, -50, 82, -52, -81, 109, 89, -30, -70, 71, 54, 121, 89, -87, 72, 73, 68, -4, 85, 79, 70, 51, 67, 64, 72, 93, -72, -53, -50, 85, 93, 93, 41, -74, 122, 86, 90, 10, 67, 66, -66, -64, -74, -108, 74, 52, -98, 73, 83, 41, 82, -83, 67, 100, 101, 69, 82, -87, 73, 101, -40, 73, -58, 62, -81, -85, 88, 64, -73, 72, 101, -83, 89, -85, 62, 32, -96, -95, -76, 79, -84, 70, 74, -105, -85, -56, 84, -24, 118, 76, -88, -47, 5, 123, 89, -70, 18, -68, 89, 58, 49, 63, -75, 66, -72, 73, 98, 88, 61, 65, -42, 48, -63, -76, 83, -124, 66, -89, -73, 78, 79, -93, -81, -95, 89, 57, -66, -84, -127, -109, 109, 97, -38, 58, 88, -40, 127, 74, -55, 86, -71, 88, -80, -74, 91, 50, 70, 72, -106, 52, -2, -47, 63, 88, -96, 107, 93, 83, 77, 40, -55, 89, 78, -85, -74, -65, -77, 71, -84, 74, 62, 91, 104, 48, 80, -72, 81, -38, 81, 79, -68, 116, -87, -10, 73, 73, -84, -67, 82, -62, 68, 72, -112, 76, -127, -80, 82, 83, -54, 27, 50, 82, 60, 70, 78, -102, 73, -67, 122, -99, -89, 74, 66, -83, -75, -72, -72, -106, -68, 69, -73, 80, -4, 81, -57, -127, 107, -101, -79, -70, 76, 62, -72, -55, 85, 58, 82, 90, -98, 72, 83, 79, -62, -98, 125, 67, -77, 55, 60, 64, 73, -40, -58, -78, -80, 85, -89, -103, 103, -76, -121, 113, 102, 42, -97, 82, 84, 127, 107, -99, 91, 104, 100, 121, 96, 110, 95, 85, 67, 101, 78, 125, -116, -107, -106, 102, 91, 97, 97, -93, 113, 103, 124, 20, 107, 82, -96, -95, -96, -127, 96, 76, -119, 83, 80, 102, 96, -110, 46, 114, 116, 80, 83, -127, 100, 127, 86, 93, -80, 91, -116, -94, 87, 94, -104, 99, 94, -79, 104, 72, 83, 102, -100, -109, -92, 97, 112, 96, 86, -127, -105, -74, 102, -23, 111, 102, -91, 85, 127, 124, 127, -93, -56, -112, 102, 79, 77, 91, 24, 105, -100, 107, 30, 84, 95, 127, -40, 102, -79, -112, 97, -117, 98, -104, -100, 99, 96, -97, -103, -81, 118, 70, 91, 53, -64, -101, 125, 118, 95, 87, -75, -47, 82, 89, -78, 107, -110, 102, -89, -90, 104, 88, 90, 107, -127, 95, 102, -127, 81, 113, -113, 123, 102, 102, 105, 69, -78, 92, 96, -96, -83, -100, -103, 85, -110, 81, 87, 116, -21, 89, 110, -99, 93, -79, 109, 91, -85, 127, -91, 106, 85, 100, -93, -96, 109, -84, 127, 91, -106, 90, -82, -95, 94, 52, -83, 58, 78, 104, 114, 99, 105, -85, 88, -99, -90, -117, -94, 88, 91, -102, -82, -96, -89, -127, -89, 83, -115, 104, -34, 108, -72, -90, 106, -79, -88, 80, 91, 97, -92, -106, 96, 95, 86, 101, -110, 80, 115, 106, -79, -99, 10, 70, -91, 105, 96, 88, 93, 124, -83, -75, -94, 43, -52, -65, 51, -32, -85, -44, 37, 52, -44, 32, 37, 49, 67, -41, 52, 67, 48, 89, 28, 59, 42, 57, 15, 60, 35, 53, -62, -88, -86, 48, 46, 39, 83, -39, 59, 60, 65, 18, 65, 42, -54, -45, -48, -57, 59, 40, -55, 29, 35, 81, 51, -58, 7, 48, 38, 42, 36, -63, 62, 54, 87, 45, -42, 50, -57, -44, 26, 43, -38, 44, 46, -58, 24, 90, 53, 76, -39, -47, -47, 46, -37, 52, 45, -81, -45, -42, 36, 2, 76, 53, -42, -54, 113, 62, 32, -35, -61, -56, 35, 32, 47, 43, 44, 52, -48, 46, -37, 40, 37, 53, 71, 74, -44, -56, 61, -58, 38, -46, -48, 28, 44, -40, -52, -37, 50, 22, 18, 80, 16, -33, 61, 54, -21, 29, -12, -24, 17, 49, -38, 42, -66, 59, -42, -40, 64, 50, 53, 82, -61, 48, -92, -96, 37, 43, -60, 89, 67, 50, 55, 27, -25, 60, 45, -47, -67, -44, -49, 62, -46, 49, 50, 60, -11, 51, 56, -86, 42, -53, 47, 48, -38, 72, -22, 72, 50, 46, -44, -53, 42, -50, 54, 35, -27, 48, -7, -44, 58, -5, -41, 47, 36, 49, 86, 31, 52, 6, 41, -52, -44, -42, -36, 38, 36, -61, -42, -52, -46, -66, -43, 42, -64, 43, -26, 52, -32, -17, 37, -48, -39, 96, 42, 44, -53, -70, 61, 59, 37, 36, -60, 23, 42, 44, -34, -47, -32, 35, -41, 74, 45, 60, 40, 71, -59, -35, -51, 108, -100, -78, 97, -100, -127, 127, 105, 48, -91, 81, 90, -53, 116, -108, 98, 96, 82, -127, 111, 92, 95, 111, -66, 103, 97, 114, -105, -101, -110, 108, 107, 107, 85, -92, 127, 115, 127, 106, 113, 93, -94, -88, -125, 39, 95, 99, -91, 103, 90, 84, 103, -104, -50, 117, 74, 88, 71, 28, 111, 123, 27, 103, -93, 105, -115, -94, 95, 87, -102, 97, 93, -109, 100, 58, 84, 26, -109, -106, -94, 116, -112, 72, 91, 38, -103, -85, 113, 97, 127, 86, -119, -48, -78, 127, 120, -104, -52, -73, 101, 88, 90, 78, -127, 69, 74, 107, 127, 96, 91, 97, 23, 93, -93, -84, 92, -124, 97, -119, -96, 104, 104, -116, -108, -103, 101, 99, -45, -127, -109, -127, 125, 127, -35, 86, 127, -104, 6, 91, -120, 112, -77, 115, -125, -97, 113, 93, 86, 80, -7, 79, -4, 13, 90, 110, -120, -87, 102, 106, 99, 88, -108, 110, 100, -91, -99, -94, -114, 95, -115, 84, 91, 114, 127, 90, 100, -97, 110, -87, 108, 78, -92, -118, -114, -127, 102, 95, -92, -89, 95, -85, 1, 101, -116, 118, -99, -108, 101, 123, -90, 82, 80, 102, 76, 67, 90, -127, 87, -75, 124, -109, -118, 92, 87, -111, -104, -98, -116, 52, -113, 109, 69, 107, 69, 104, -92, -43, 112, -127, -109, -91, 95, 103, -84, -76, 104, 102, 118, 118, -110, 94, -113, 99, -98, -118, 127, 106, -110, 100, 120, 78, 91, -127, -92, -85, -111, 127, -127, -127, 127, -127, -127, 93, 127, 127, -127, 127, 127, -67, 127, -127, 127, 127, 127, -27, 127, 127, 127, 127, -127, 127, 127, 127, -127, -127, -127, 127, 127, 127, 127, -127, 109, 127, 126, 127, 127, 127, -127, -127, -127, 55, 127, 127, -127, 127, 127, 127, 127, -127, -127, 127, 127, 127, 127, 41, 127, 118, 127, 127, -127, 127, -127, -127, 127, 127, -127, 127, 127, -127, 127, 119, 127, 127, -127, -127, -127, 127, 127, 127, 127, 42, -127, -127, 127, 118, 111, 127, -127, 127, 53, 125, 114, -127, -127, -127, 127, 127, 127, 127, 13, 127, 106, 127, 8, 127, 127, 126, -127, 127, -127, -127, 127, -127, 127, -127, -127, 127, 127, -127, -127, -127, 127, 127, 127, 42, 13, -109, 127, 114, 127, 127, -35, -127, -119, 127, -127, 127, -127, 127, -127, -127, 127, 127, 127, 127, 22, 127, 127, -12, 127, 127, -127, -127, 127, 127, 127, 127, -127, 127, 127, -127, -127, -127, -127, 127, -127, 127, 127, 127, -41, 127, 127, -127, 127, -127, 127, 127, -127, -33, -127, 12, 127, 127, -127, -127, 127, -127, 15, 127, -127, 127, 14, -127, 127, 127, -127, 127, 127, 127, 127, 127, 127, -96, 127, -127, -127, -127, -127, 127, 127, -127, -127, -127, -127, 63, -127, 127, 76, 127, 127, 127, -127, 41, 127, -117, -127, 108, 127, 127, -127, -127, 127, 127, 127, 127, -127, 127, -111, 127, -127, -127, -48, 127, -127, 127, 127, 127, 127, 72, -127, -127, -127, 56, -69, -69, 55, -54, -88, -87, 45, 81, -60, 67, 62, -63, 67, -67, 62, 78, 71, 12, 54, 75, 68, 67, -84, 77, 53, 68, -81, -64, -72, 54, 55, 57, 72, -52, 41, 65, 44, 57, 64, 67, -66, -70, -54, 41, 62, 55, -50, 54, 67, 76, 61, -83, -65, 69, 65, 56, 77, 11, 79, 66, 111, 75, -70, 54, -104, -91, 51, 50, -53, 55, 73, -65, 51, 123, 65, 103, -48, -52, -56, 81, -36, 71, 60, 24, -57, -70, 48, 49, 68, 56, -49, -87, 98, 57, 20, -55, -64, -71, 53, 53, 76, 61, 68, 56, 43, 50, -43, 59, 52, 55, -45, 95, -78, -49, 79, -80, 59, -47, -62, 61, 60, -51, -74, -96, 57, 52, 2, 95, 87, -36, 67, 69, -22, 54, -46, -55, -83, 57, -57, 52, -91, 59, -81, -51, 51, 46, 72, 77, 12, 63, -118, -15, 63, 68, -80, -63, 71, 71, 61, 70, -55, 57, 70, -49, -73, -78, -64, 86, -45, 61, 65, 48, -22, 60, 65, -93, 61, -73, 57, 70, -56, 35, -60, 57, 58, 64, -56, -57, 57, -59, -24, 70, -24, 86, 64, -67, 72, 43, -58, 100, 67, 57, 90, 47, 58, 5, 63, -70, -57, -59, -74, 59, 58, -77, -51, -75, -58, 33, -49, 54, 37, 53, 43, 45, -66, 73, 77, -40, -52, 127, 56, 56, -70, -89, 56, 59, 50, 39, -61, 48, -24, 64, -52, -78, -77, 58, -90, 63, 52, 70, 60, 71, -66, -51, -55, 50, -68, -40, 47, -50, -75, 47, 30, 56, -37, 36, 42, -34, 66, -37, 48, 37, 16, -90, 59, 59, 56, 75, -77, 67, 51, 59, -56, -62, -89, 47, 44, 64, 52, -43, 57, 59, 48, 90, 57, 47, -56, -42, -80, 68, 49, 48, -33, 52, 43, 77, 52, -46, -42, 72, 14, 38, 13, 57, 48, 62, 66, 58, -37, 66, -78, -22, 34, 36, -48, 59, 34, -57, 51, 81, 47, 3, -37, -36, -52, 65, -65, 33, 53, 53, -54, -39, 58, 108, 51, 60, -46, -13, -51, 80, 50, -48, -57, -58, 56, 52, 58, 46, -57, 19, 88, 58, 59, 26, 58, 28, 75, 71, -66, -35, 28, -58, 46, -77, -49, 55, 54, -45, -65, -43, 51, 63, -18, -76, -21, -69, 51, 62, -30, 40, 60, -62, -21, 44, -76, 68, -40, 49, -58, -48, 70, 65, 47, 58, 44, 40, -13, 22, 51, 60, -72, -55, 71, 64, 59, 44, -51, 66, 37, -47, -58, -41, -68, 69, -50, 19, 48, 69, 82, 57, 67, -30, 63, -36, 39, 33, -25, -66, -68, -92, 55, 40, -58, -62, 45, -44, -24, 49, -36, 82, -1, -57, 37, 52, -47, 88, 38, 47, 27, 45, 43, -56, 37, -28, 67, -55, -69, 45, 42, -54, -50, -56, -57, 25, -40, 75, 83, 48, -64, 70, -53, 23, 35, -73, -49, -58, 57, 41, -40, -34, 48, 66, 54, 57, -52, 47, -127, 58, -51, -58, 46, 70, -64, 63, 75, 49, 43, -80, -54, -45, -73, 66, -76, -56, 61, -70, -83, 24, 48, 94, -51, 66, 58, -35, 67, -66, 70, 48, 57, -76, 87, 93, 69, 64, -111, 71, 56, 69, -67, -58, -65, 59, 54, 67, 49, -61, 31, 75, 27, 90, 60, 62, -80, -64, -106, 97, 57, 68, -49, 67, 62, 75, 64, -77, -119, 74, 54, 74, 55, 97, 71, 78, 69, 72, -74, 67, -85, -88, 62, 69, -68, 71, 77, -70, 78, 127, 59, 41, -35, -47, -66, 83, 70, 65, 79, 78, -63, -62, 58, 127, 87, 64, -53, 61, -39, 87, 13, -58, -53, -82, 68, 55, 71, 62, -8, 38, 127, 70, -27, 57, 69, 45, -55, 81, -81, -54, 72, -87, 64, -68, -72, 63, 68, -51, -78, -96, 70, 84, 49, -2, 65, -51, 48, 73, 70, 52, 11, -82, -103, 60, -82, 70, -85, 63, -73, -56, 82, 74, 64, 61, 56, 67, 65, 45, 68, 88, -87, -83, 80, 73, 67, 73, -76, 66, 58, -58, -75, -48, -80, 90, -46, 34, 57, 65, -41, 68, 59, -35, 80, -68, 56, 54, -52, -125, -77, -41, 72, 65, -68, -70, 61, -70, -22, 74, -43, 97, 69, -87, 59, 74, -49, 119, 63, 62, 63, 61, 64, -23, 46, -52, -58, -63, -69, 58, 60, -96, -61, -95, -73, 51, -55, 82, 127, 63, -63, 61, -71, 80, 84, -49, -57, 34, 66, 56, -54, -61, 66, 59, 65, 51, -66, 63, -121, 81, -61, -88, -53, 92, -86, 64, 54, 69, 59, -9, -54, -64, -60, 37, -52, -22, 28, -22, -25, -11, 12, 30, -25, 41, 33, -28, 42, -33, 31, 38, 36, -28, 42, 54, 44, 30, -29, 30, 30, 29, -31, -30, -29, 26, 22, 28, 12, -20, -1, 44, 15, 32, 30, 29, -48, -31, -39, 52, 27, 33, -29, 30, 46, 22, 28, -43, -59, 43, 48, 49, 41, 55, 28, 29, 45, 42, -41, 17, -43, -61, 40, 24, -29, 23, 57, -38, 27, 64, 32, 38, -15, -23, -38, 44, -11, 44, 33, 51, -27, -33, 34, 75, 34, 27, -28, -60, 7, 31, -24, -31, 13, -47, 39, 23, 52, 26, 38, 27, 58, 32, -17, 27, 36, 20, -85, 38, -55, -14, 48, -25, 34, -27, -47, 38, 23, -23, -57, -64, 36, 40, -19, 46, 45, -17, 25, 49, -24, 16, -59, -27, -63, 35, -32, 39, -51, 33, -44, -20, 38, 32, 43, 16, 18, 37, -65, 31, 23, 33, -43, -59, 49, 41, 41, 47, -18, 37, 26, -25, -39, -34, -39, 65, -32, 16, 36, 25, -22, 36, 17, -18, 44, -19, 26, 46, -26, -105, -31, 0, 33, 33, -37, -30, 27, -30, -30, 21, -20, 34, 16, -38, 45, 49, -22, 74, 43, 39, 41, 33, 38, -7, 37, -34, -36, -25, -33, 35, 28, -53, -28, -43, -32, 15, -27, 33, 33, 34, -17, 24, -38, 62, 54, -18, -30, 53, 35, 19, -33, -46, 34, 22, 29, 21, -32, 25, -15, 44, -20, -39, -36, 48, -48, 25, 8, 38, 38, 3, -29, -11, -38};

static const int32_t L012_dw_bias[256] = {-1160, 66899, 32257, 3755, 76383, 39064, 50, 86, 17567, 71407, -963, 917, -7516, 2543, 33471, 5472, 336, 1935, 48480, 141, 650, 302, -454, 30040, -545, -8978, 3003, 30726, 24359, 29895, 4105, -1056, -581, 1050, 72479, -1202, 1254, 2930, 847, -224, 1010, 41208, 61709, 36711, -5887, -1329, -1358, 38890, 929, 6769, -4391, -496, 34076, 54229, 178, 5848, 1195, 1538, 166, 301, -384, 654, -2263, 31693, -1647, 21472, 22176, 157167, -1437, 38934, 2855, -6225, 46334, 596, 310, 1370, 7397, 89616, 95994, 46386, 3434, -599, 767, -3113, 1057, 46685, 90365, -1159, -996, 309, 935, 85318, -3000, 17263, -228, 591, 25780, 49611, 26566, 621, 686, -218, 2682, 18784, -986, 30819, 5, -6906, -653, 4121, 28627, 20231, -237, 27559, 23385, -302, 31804, 9068, 42737, 46786, -3293, 709, 99369, 42641, 31132, 449, 1218, -6836, -2496, 38382, 84686, 754, -11851, -14100, 971, -6060, 47745, 18952, 1594, 29018, 632, 49945, 3090, 34910, 55168, 98, 1365, 2236, -398, 8969, -130, -4845, 22792, -1787, 1595, 38286, 9321, -2002, -186, 798, 3216, 57458, 1598, 10572, 36598, 38624, 30818, 34570, -247, 33452, 14463, -4360, 214, -11946, 6394, -413, 23594, 3604, 54803, 2708, 435, 96331, 4634, 34462, 30312, 351, 2110, 48489, 23586, -879, 37425, -10118, -752, 82486, 299, 24127, 37433, 1347, -340, 81985, 298, 5817, 793, 28347, 18252, 1147, 24877, -618, 81078, 1287, 39587, 15529, 1497, -2707, 31273, 62407, 33483, 42455, 10808, 124503, -384, -404, -523, -3062, 4097, 54828, 24594, 441, 90105, 103957, -7130, 2839, 8675, 65619, 18752, 550, 105, -146, -891, 22193, 1862, 28216, 21, 28826, 45222, 921, 4332, 21418, -312, 236, -895, -1690, 18956, 87121, 43585, 21634};
static const int32_t L012_dw_bias_total[256] = {82680, -23085, -45823, 87083, 1759, -64872, 47538, 76246, 81567, -5649, 76221, 76053, -5340, 98287, -51649, 88800, 85840, 79375, 31840, 88333, 96394, 85550, 84922, -14120, 89055, 67694, 97339, -61050, -63961, -64057, 88073, 80736, 86331, 80154, -4449, 83022, 95206, 88178, 71247, 88096, 79730, -46728, -18419, -59161, 1793, 81359, 75186, -44438, 80033, 87793, 83289, 84496, -59492, 10453, 97970, 87384, 80939, 76418, 1702, 89773, 96640, 74638, 85801, -47923, 80145, -81696, -68192, 235247, 74595, -43242, 85671, 83631, -41474, 83924, 83382, 79706, 77541, 12048, 13818, -36558, 97898, -5207, 81407, 79831, -2399, -38563, 15101, 83321, 66716, 100533, 84263, 3014, -7608, 47343, 104220, 69839, -53708, -6581, -62266, 86381, 73262, 82598, 79098, 8544, 70566, 66147, 85765, 18438, 76659, 84249, 107475, -8569, 93075, -60249, -54311, 87634, -70596, 89580, -47375, -39486, 80291, 84549, 17065, -52719, -63844, 89921, 79810, 10956, 960, 26222, 1230, 95218, 85813, 1516, 71243, 1492, -24959, -1144, 81722, -56102, 90616, -41959, 92050, -57122, -22016, 94818, 81365, 85692, 86642, -10103, 77694, -4845, -1016, 75397, 95035, -63858, -10519, 95534, 91590, 89246, 78096, -18446, 91710, 92108, -43402, -50336, -49950, -57718, 95753, -50388, 84223, 75384, 91734, 7894, 86522, 86755, -60502, 93332, -19437, 85908, 80563, 23499, -7782, -52194, 27368, 84191, 84414, -35863, -59742, 81681, -40783, 11002, 81168, 4278, 97323, 4543, -52551, 87747, 76204, 8897, 92714, 80313, 86425, 115899, 92492, 84987, -37203, 76054, 3766, -11385, -49501, -75223, 80345, 73453, -66519, -16953, -57909, -43305, 3128, 46295, 85888, 21740, 83829, 906, 90113, -22996, 24850, 95033, 6649, 23317, 28582, 85399, 86115, -14381, -66240, 87206, 82921, 82798, 81029, -69455, 75974, -6472, 89877, -45926, -51034, 8857, 90476, -72534, 86216, 81772, 81409, 78182, 29836, 7505, -29503, -66558};

static const int32_t L012_dw_output_multiplier[256] = {1528787968, 1928275200, 1845593856, 1929595904, 1123600896, 1215095936, 2067654656, 1830257536, 1625959168, 1786515712, 1920979968, 1779826944, 1391746432, 1400799488, 1821993728, 1233468800, 1303474944, 1690407680, 1720528000, 1502039296, 1467947904, 1166750592, 1404546816, 1937019008, 1124760320, 1912040192, 1666248960, 1850409600, 1194925824, 1516239744, 1334367616, 1240821760, 2004942976, 1596841600, 1779217280, 1290056960, 1817762048, 1317909760, 1590717824, 1611138048, 2010437376, 1505601792, 1248997376, 1463203456, 1378902528, 1630707328, 1232770816, 1647230208, 1261222528, 1579117440, 1562969088, 1408408064, 2109043328, 1138127872, 1391557760, 1929262336, 1298562944, 2090382720, 1275769728, 1279886720, 1631727232, 1266513152, 1432907264, 1385525120, 1469386112, 1254100480, 1096213376, 2145246720, 1255732608, 1180636160, 1761612032, 1308307840, 1297206784, 1840861568, 1960421120, 1894832896, 1119230848, 1401946880, 1503563904, 1362499456, 1647179008, 1110402432, 2103211776, 1327096960, 1535807616, 2013984640, 1651882752, 1621877376, 2128225792, 1916579072, 1438963968, 1257109248, 2075632640, 2078782720, 1301894784, 1433239424, 1999716352, 1701289088, 1639910784, 1726348672, 1902646528, 1076992512, 1468412544, 1210852736, 1445483776, 1252258304, 1079373056, 1262374016, 1470590336, 2137325696, 1517283328, 1141207424, 1459508608, 1287106048, 1138422400, 2029247744, 1884349952, 1556338304, 2143757952, 1270305024, 1537533440, 2063922560, 1785579776, 1853444224, 1579276160, 1562885888, 1333950336, 1342563200, 1938547584, 1205272832, 1326945920, 1833863680, 1818909056, 1929308672, 1268280704, 1729636864, 1680491520, 1814863104, 1237038720, 2062785152, 1301802752, 1348167424, 1822504192, 1784010752, 1259090944, 1613616640, 1655329920, 1610913664, 1587428864, 1721412096, 1488388224, 1250055040, 1145765632, 2065465728, 1619024896, 1324470656, 1943216896, 1857881600, 1147171200, 1352110848, 1312010368, 1783612928, 1565425536, 1545273728, 1604915328, 1459875584, 1779411072, 1386224896, 1750757504, 1108292864, 1144252288, 1965377152, 1194237184, 1251990784, 2129260928, 1240993152, 1852249984, 1136218368, 1942902784, 1925239680, 1797652992, 1390382976, 1651123968, 1558256896, 1427812864, 1175911552, 1536691328, 1516549760, 1211192704, 1340522112, 1524784896, 1990322816, 1788629248, 1500785536, 1236622208, 1860375424, 1257297280, 1859693696, 1241767296, 1426238336, 1320847616, 1637362688, 1629690368, 1675993856, 1914576128, 1928902528, 1872389120, 1447909120, 1603291008, 1336234880, 1103512832, 1621693568, 1471701376, 1263132928, 1630191616, 1919186688, 1483484416, 1634880512, 1476477312, 1190524288, 1396494336, 1210112640, 1405915776, 1549831680, 1102662784, 1777111168, 1264513408, 1411609728, 1525245440, 1613718528, 1905006976, 1878119168, 1509417856, 1860197888, 1551222400, 1221074560, 1227829888, 1592893568, 1327963264, 1279898112, 1489181312, 1526885632, 1102473856, 1980934528, 1548903808, 1824136960, 1453996288, 1234560896, 1486749312, 1361917184, 1381999872, 1871738368, 1803629952, 1088661120, 1703496320, 1684356736};
static const int32_t L012_dw_output_shift[256] = {-7, -8, -8, -8, -8, -8, -2, -6, -8, -8, -8, -8, -6, -6, -8, -7, -6, -6, -8, -6, -7, -5, -7, -8, -7, -8, -8, -8, -7, -8, -8, -7, -7, -7, -8, -8, -8, -8, -7, -7, -7, -8, -8, -8, -7, -7, -7, -8, -7, -7, -8, -7, -9, -7, -6, -8, -7, -8, -6, -7, -7, -7, -8, -8, -7, -7, -7, -10, -7, -7, -7, -8, -8, -8, -8, -8, -8, -8, -8, -8, -8, -7, -8, -7, -7, -8, -8, -7, -8, -7, -7, -8, -8, -8, -6, -7, -7, -8, -7, -8, -8, -6, -6, -7, -8, -8, -6, -7, -7, -8, -8, -7, -6, -7, -6, -7, -8, -8, -9, -7, -8, -8, -8, -8, -8, -7, -7, -6, -7, -7, -8, -7, -8, -7, -7, -7, -8, -8, -7, -8, -7, -8, -8, -8, -7, -7, -8, -8, -6, -6, -7, -7, -7, -8, -7, -8, -8, -8, -6, -7, -6, -7, -8, -7, -7, -8, -7, -7, -6, -7, -7, -8, -6, -6, -8, -6, -8, -6, -7, -8, -5, -8, -8, -8, -7, -5, -7, -7, -7, -7, -7, -7, -7, -8, -6, -7, -8, -7, -6, -8, -7, -8, -7, -8, -8, -8, -8, -7, -8, -8, -7, -6, -7, -7, -8, -8, -7, -8, -8, -8, -7, -8, -6, -7, -6, -8, -7, -7, -8, -8, -8, -8, -8, -9, -7, -7, -6, -7, -7, -7, -7, -8, -7, -8, -8, -8, -8, -7, -6, -6, -7, -7, -8, -8, -8, -7};

#endif  // LAYER_012_DEPTHWISE_CONV_2D_H_
