#ifndef LAYER_015_DEPTHWISE_CONV_2D_H_
#define LAYER_015_DEPTHWISE_CONV_2D_H_

#include <stdint.h>

// op_index=15 op=DEPTHWISE_CONV_2D
// input:  idx=72 name=mobilenet_v1_eurosat_1/conv_pw_7_relu_1/Relu6;mobilenet_v1_eurosat_1/conv_pw_7_bn_1/batchnorm/add_1;mobilenet_v1_eurosat_1/conv_pw_7_1/convolution; shape=[1, 8, 8, 512] dtype=int8
// weights: idx=27 name=tfl.pseudo_qconst25 shape=[1, 3, 3, 512] dtype=int8
// output: idx=73 name=mobilenet_v1_eurosat_1/conv_dw_8_relu_1/Relu6;mobilenet_v1_eurosat_1/conv_dw_8_bn_1/batchnorm/add_1;mobilenet_v1_eurosat_1/conv_dw_8_bn_1/batchnorm/mul_1;mobilenet_v1_eurosat_1/conv_dw_8_1/depthwise; shape=[1, 8, 8, 512] dtype=int8

#define L015_DW_OUT_CH (512)
#define L015_DW_KH     (3)
#define L015_DW_KW     (3)
#define L015_DW_STRIDE_H (1)
#define L015_DW_STRIDE_W (1)
#define L015_DW_DILATION_H (1)
#define L015_DW_DILATION_W (1)
#define L015_DW_DEPTH_MULTIPLIER (1)
#define L015_DW_PAD_H (1)
#define L015_DW_PAD_W (1)

static const int32_t L015_dw_input_offset = 128;
static const int32_t L015_dw_output_offset = -128;

static const int8_t L015_dw_weights[4608] = {-4, 0, 16, 9, 3, -14, -30, 6, 17, 45, -49, 23, 12, 31, -9, 33, -14, 13, 19, -43, -10, -16, 3, 17, 5, -19, 33, 5, -2, -47, 6, 16, 40, 28, 5, -27, -34, -99, -15, 8, 60, 33, 27, 0, -3, -2, 10, -28, 8, -19, -27, -61, 0, -11, -127, 31, 10, -19, 7, -2, 71, 5, 18, -36, 93, -4, -19, 3, 1, -26, -4, 2, -43, -3, 11, 14, 57, -1, 4, -26, -3, 6, 12, 8, 7, -74, 28, 107, 10, -50, 10, 34, 8, -23, -1, 13, 22, -64, 39, -1, -6, 39, 18, 6, 97, -4, 127, -9, 3, 19, 62, 8, -35, -47, -37, 17, 4, 10, -5, 20, 17, 42, 38, -4, 4, 13, -3, 7, 16, 6, -26, 23, -84, -106, 6, 15, -19, -2, 82, -17, 18, 1, 36, -24, 2, 11, -111, -1, -6, 5, -7, -4, 30, -12, 8, -29, 24, 33, 47, 37, 23, 13, 4, 2, -47, -21, 5, 5, 19, -35, -18, -48, 1, 17, 25, 5, 38, 4, -23, 12, -2, -27, 13, -31, -2, 18, 42, 98, -2, 31, 4, 28, -7, -10, 23, 30, -11, -4, 31, -2, 3, 2, -6, 8, 56, -16, 17, -76, -3, 0, 14, 19, -25, 40, -102, -11, -10, -1, 8, 26, -12, -48, 42, -56, 9, 15, 31, 22, 7, 4, 18, -26, 37, -37, -40, 21, -54, 0, 10, 5, 52, 8, -11, -3, 3, 42, -1, -20, 11, 27, 41, -11, 21, 10, 21, 17, 19, 5, -25, -2, 7, -12, 63, 8, 11, 122, 19, -9, 3, 4, 2, -20, -8, -23, 54, 13, 21, -1, 15, 5, -82, -7, -84, -127, -7, 17, -65, -32, 4, -21, 89, 14, -29, -2, 95, -90, 94, -7, -90, 6, 83, 1, 27, 3, 24, -1, 0, 8, -46, -6, 121, 90, 2, 7, 57, 28, -8, 15, 18, -10, 16, -73, -17, -53, -8, 7, 10, 18, 19, 24, 11, 18, 9, -7, 94, -36, -2, 25, -3, -2, 33, -8, -56, 7, 3, -9, -7, 41, 20, 33, 98, -4, 18, 32, -3, -2, -25, 16, 5, 11, -10, -1, 1, -29, 13, 18, 55, -2, -14, 23, -34, 0, 14, 68, 0, -5, 10, 3, 8, 0, -16, 22, -7, -20, 43, -9, -1, 32, 6, -40, -127, 13, -31, -26, 86, -11, -22, -17, 58, 16, 24, 12, 2, -18, -15, 10, -4, 9, -8, -127, 10, 15, 12, -2, 14, 1, 10, -21, 16, 8, 2, 11, -11, -34, 6, -5, 27, 7, -22, -17, 2, -4, 2, 17, 4, -36, -11, 8, 19, 0, -2, -3, 29, 1, -3, 21, 1, 26, -2, -60, 38, 1, -109, 2, 59, 25, -8, -37, -3, 9, 17, 75, 1, 8, 29, 39, 7, -71, -35, -20, 32, 66, 10, -18, 24, -127, -3, -11, 11, 3, 5, -45, 2, -4, 5, -12, 0, -10, -11, 0, 27, -44, -17, 39, 19, -87, 10, 26, -42, 18, -18, 24, 70, -20, -6, 37, 23, -107, 0, -43, 2, 1, -10, 14, 33, -10, -7, 10, -108, 7, 23, -26, -102, 127, 23, 45, -74, 111, -37, 23, -11, -1, 18, -18, -61, 77, -38, -39, 23, 25, -12, 15, -18, 41, -70, 1, -19, 13, -62, -124, 56, -2, 8, -31, 48, 26, 47, 12, -2, -46, 20, -6, -122, -114, -5, -10, -93, 127, 8, 4, -41, -30, 10, -17, 49, -127, 94, 16, -22, 124, 26, 19, -10, -15, 5, -7, 9, 32, 127, -13, -11, 121, 0, 4, 127, 16, 4, -127, 31, 127, 8, -60, 18, -24, -38, -127, 7, 127, -17, -44, -24, -25, -3, -70, 34, -3, 127, -16, -62, -25, -48, 127, 12, -27, -40, -35, -9, -73, -17, 8, -23, 6, -43, 127, -17, 127, -3, 20, 127, -30, -1, 34, -89, 16, -127, -69, 4, 1, -60, 10, 98, -15, -11, -7, 127, -127, 9, 1, -36, -3, 19, -8, -29, -20, 44, 12, -4, 12, 127, -21, 52, -1, 36, 37, 29, -27, -85, -127, -36, -66, -72, 11, -45, -75, -4, 0, 65, -38, 8, 26, -61, 20, -14, -108, 127, -69, 23, 11, -24, 24, -6, 127, 18, 127, 32, -47, 25, 23, 11, -2, 58, 15, -33, -8, 16, 1, 14, 21, -10, -116, -7, -20, -25, 28, -45, 23, -127, -35, -14, 6, 11, 79, -65, -84, 54, -38, 26, 13, -48, 54, 11, 0, -86, -82, 127, -62, -38, 3, -75, 25, 12, -5, 123, 12, -83, 29, -13, 127, -6, 2, -17, 2, 95, -11, 82, 32, -37, 28, 6, 30, 5, -23, 3, -59, 127, 37, 26, 108, 31, -33, -52, -11, -10, -19, -9, -29, 46, -23, -49, -59, 3, 10, -79, 7, -127, -116, -18, -10, -66, -57, -127, -45, 10, -16, 12, -8, 98, 85, 109, 6, -116, 7, 127, -25, 127, 127, 23, 11, -33, 40, -127, -7, 85, -87, 11, 29, 127, -21, 27, 8, -48, -5, 127, -89, -85, -65, -66, -14, -20, -26, 15, 30, 10, -70, -11, -30, 91, -23, -3, -28, -41, -18, 29, -30, -12, -22, -14, -5, -7, 127, 18, 64, 31, -8, 25, 0, -13, -22, -17, 6, -5, -127, -66, -6, 127, -38, -5, -15, -73, 0, -92, -68, -127, -3, -25, 13, -37, 9, 20, -1, -37, -6, -42, 35, -25, -21, 127, 10, -8, 127, 11, -108, -89, 34, -95, -57, 90, -28, -20, -24, 107, 9, 10, 10, 18, 27, 37, 115, -12, -16, -105, -71, 127, 11, 36, -42, 17, -17, -9, -104, 127, -46, 9, 18, -127, -36, 100, -34, -19, 127, -5, -65, 127, -8, 15, 46, 16, -52, -94, 21, 10, 58, 1, 35, 111, -3, -80, 25, -72, -116, -17, -16, 8, 42, -36, -7, -10, 127, -91, -68, 127, -55, 50, 127, 127, 3, -127, -32, 6, -127, 53, -64, 23, -75, 14, -127, -1, -57, -31, -35, 16, -24, 15, 17, -8, 16, 8, -37, 5, -21, -59, 8, -94, 30, 11, 87, -14, -102, -113, 19, -45, 127, -124, 23, 115, -63, -7, -5, 33, -53, 50, -48, 20, 40, 1, 1, 13, -17, 3, 56, -41, 1, 14, -10, -63, -45, 13, 26, -6, -51, -11, 10, 19, 41, 19, 26, 7, -69, 3, -2, -64, 9, -13, 7, 17, 13, -5, 20, 1, 77, 76, -93, 29, -1, 30, 35, 67, 7, -6, 2, 3, 21, 6, 21, -34, -28, 0, -11, -101, 21, 9, 13, 7, 8, -38, 11, 29, -31, 83, -1, -52, 44, 4, 20, -4, -1, 13, 1, -28, 24, 49, -2, 2, 81, -1, 8, 8, -2, -3, -30, -2, 99, 5, -26, 9, 34, -5, -8, 1, 17, 25, 2, 87, -4, 2, 39, 13, 8, 98, -4, -63, -7, -12, 13, 47, 10, -44, -21, 11, 19, 2, 5, -7, 12, -38, 31, 30, -19, 4, 8, -6, 4, -9, 6, 24, 27, -64, -127, 2, 3, -11, -7, 89, 38, 18, 3, 15, -23, 1, 3, -6, 6, -7, 6, -4, -4, 22, 100, 10, 3, 34, 11, 44, 27, -40, 11, 3, -8, -49, -23, -6, 13, 36, -51, -17, -43, 3, 11, -54, -3, -5, 2, -26, 12, 5, -27, 19, -13, 6, 16, -27, 11, 92, 37, -18, 22, -23, -3, 19, 49, 78, -3, 24, 8, 7, -1, -1, -5, 49, 13, 8, -68, -3, -3, 9, -3, -47, 16, -88, -8, -1, -2, 7, 29, -9, -46, 52, -59, 9, 12, -21, 14, -17, 2, -44, -47, 61, -13, -38, 7, -27, 1, 12, 7, 83, 6, -41, 0, 3, 26, 0, -36, 10, 22, 58, -6, 15, 3, -23, 18, 15, 12, 23, 4, 8, -2, -15, 45, 11, 44, 18, -4, 7, 2, 1, 11, -7, -41, 50, -36, 6, -1, 12, -3, 25, -11, -68, -105, -3, -11, -71, 1, 14, -19, -34, 36, 29, -2, 90, -8, 97, 24, -68, 13, 72, -16, 28, -3, -2, 9, 5, -45, -45, -7, -5, -34, 2, 5, 53, -26, -9, -11, -10, -5, 18, -23, -18, -45, -4, 0, -48, 48, 12, 15, 9, -54, -15, -2, -21, -13, -3, -9, -3, -3, 26, 27, 88, 3, -28, -11, -2, 20, 5, 27, -7, -6, 11, -67, 2, 28, -29, 15, 5, 19, -31, 1, 58, 50, 6, 14, -10, 11, -9, 20, -23, 2, -43, -18, -6, -7, 9, 1, 7, 4, -20, 15, -4, 18, 106, -8, 15, 31, 5, -127, -112, 9, -36, -22, 34, -4, 127, 68, 20, 0, 9, -1, 3, 1, 19, 19, -5, -9, 1, -120, 14, 10, 2, -19, -1, 2, -2, -59, 6, 7, 1, 10, -38, -67, 1, 14, 34, 40, 17, -22, 7, 13, 4, -6, -1, -45, -22, 8, 13, 10, 0, -4, 25, -7, -51, 18, 5, -41, 3, 40, -20, 6, -64, -16, 6, 31, 13, -38, 1, -14, 49, 67, 7, 3, -21, -36, 19, -30, -41, 41, 30, -74, -2, -26, 27, -110, -38, -5, 9, 9, 13, 6, 4, 15, 4, 0, 2, -8, -11, 6, 18, -47, 23, 61, 16, -36, -127, 23, -30, 48, -25, 14, -70, 3, -7, 15, 22, -108, 0, 55, 2, 59, 3, 2, 14, 8, -2, -10, -68, 2, -1, 127, -107, -14, 10, 26, -28, -41, -2, 34, 14, -50, -104, -48, 25, -30, 5, -75, 8, -108, -19, 11, -32, 25, -44, 16, 94, -82, -19, -127, -58, -13, 127, 42, -37, -21, -28, -13, 127, -29, 13, -13, -43, -116, 4, -54, -72, -10, 25, 75, -16, -13, -25, -16, 8, -10, 88, 11, -114, -96, 24, -127, -1, 10, -127, -10, 34, 12, 87, -12, -12, -15, -12, 16, 10, 16, -10, 87, 127, 17, 20, -100, 4, 15, 111, -87, 26, 15, 29, -127, 14, -15, -10, 33, 24, 33, -83, -17, 106, 17, 15, 23, 85, 32, -45, -108, -95, 26, -19, -47, -21, 34, -73, 47, 77, -25, -3, 26, -15, 35, 25, -9, -114, 11, -104, 41, 1, 11, -56, -10, -3, -34, 23, -3, 35, -14, 7, -41, -127, 14, -47, -3, -14, -16, 23, -18, 7, 127, 48, 127, 101, 127, 16, 17, -2, -30, -63, -20, 30, -25, 50, 82, -96, -2, -5, 127, 103, 23, 55, 5, -31, 20, 39, -109, -36, -90, 2, 47, 97, 127, 33, -1, -49, 52, 0, -21, 18, -27, -60, 0, 25, 36, 3, 2, -10, -19, 39, -48, -23, -75, -3, -2, 38, 2, -55, 32, -95, -30, 0, 16, 17, 17, -22, -34, 24, -29, 15, -2, -41, 22, 21, 4, 127, -87, -2, 77, -46, 71, -82, 7, 4, -8, -40, 127, -78, -22, -22, 53, -9, -28, 14, 15, -42, -26, 83, 6, 38, 41, 2, 45, -62, -66, 4, -45, -23, 47, 21, 127, 34, -23, 33, -25, -1, -7, -30, -78, 43, -30, 74, -43, 10, 26, -65, -8, -80, -103, 3, 127, -98, -79, -17, -63, 127, -39, -85, -8, 127, 127, 105, -30, -119, 10, 125, -6, -72, 0, -6, -6, -7, 40, -39, -2, 127, 127, 7, 13, 22, 26, 5, 10, -9, 113, 9, -35, -77, -115, -55, -58, -23, 14, 27, 32, 1, 62, -23, 49, 95, 127, -10, 112, -24, 7, 34, -127, -82, 121, -11, -11, -25, 9, 21, 41, 127, -12, 8, 127, 22, -7, 88, 3, 4, -74, -75, -3, -60, 31, 21, -26, 110, -32, -23, -19, -120, -12, -30, 127, 24, 24, 27, -14, 8, 1, -41, 12, -27, 4, -12, -13, -57, -3, 7, 43, -62, 59, -23, -127, 127, -114, -72, 23, 52, 5, -3, -28, -5, -34, 36, 46, 1, -4, -8, -70, -17, 6, 39, 9, 127, -17, 24, 23, -65, 18, 4, 11, 1, -127, -1, 127, 52, 35, 10, -38, -2, -60, 0, 66, 28, -12, 31, 12, 127, 22, 41, 23, 36, -20, 66, 16, -3, 122, -10, -9, 127, 37, 63, -28, 6, -9, 94, -77, 0, -38, 59, 50, 12, -30, -114, 111, 61, -2, -35, 31, 10, 127, 11, -71, 35, -59, 127, 18, 19, -7, 16, -6, 15, 7, 4, -36, 20, -27, -24, -19, -20, -96, 10, -73, 100, 47, -19, 24, -127, -23, -104, -8, 78, -4, 52, 127, 32, -72, 7, -43, 0, -50, 12, 127, 127, -127, 127, 127, -127, 127, 127, 2, -127, -38, 127, 127, 127, 127, 6, 127, 127, -127, 127, -127, 127, 20, 127, 127, -127, 127, 42, -127, 127, 127, 127, 127, -127, -39, -76, 29, 127, 127, 47, -9, 108, 127, 127, 127, -42, 127, 127, -127, -127, -127, -127, -127, -76, -7, 127, 127, 91, -109, 127, -127, 127, 46, -127, 127, -127, -21, 127, -47, -127, 127, -26, 127, 127, 127, 2, 127, 127, -39, -127, 127, -8, 127, 127, 36, -73, -119, 127, -127, 127, 127, -127, -122, 127, -62, -63, -55, 22, -127, -127, 127, 127, -39, -43, -127, -91, 127, -127, 61, -127, 127, -95, -127, -127, 127, 127, 127, 127, 127, -127, 65, -127, -88, 127, 127, -69, -127, 127, -127, -28, 127, -49, -3, 127, 127, -127, 127, -127, -127, -28, 127, 19, -109, 127, 127, 56, 127, 127, -127, 127, -127, 127, -30, 127, -69, 92, -8, 127, 22, -127, 127, 127, -127, -127, -109, -127, 127, 107, 127, -127, -127, 127, 52, 127, 127, 127, 127, -127, 127, -127, -127, -85, 127, 127, 127, -127, -89, -27, -33, 127, 121, 127, -127, 127, -3, -65, 127, 127, 127, 127, 127, 127, 127, 127, -53, 127, -127, 127, 127, 127, 127, -97, 127, -103, -72, 127, 127, 127, 127, -101, -127, 127, -127, 127, -34, 51, 127, -56, 127, -90, -127, -24, 127, -127, 91, -127, 127, 127, -50, -127, -11, -127, 127, 127, 73, 127, -26, 127, -11, -127, -127, -127, 127, 127, 127, 127, 127, -127, 75, 127, -127, 20, 127, 127, 98, 127, 127, 94, 127, -127, 127, 127, -127, 127, -127, 127, -127, 127, 127, -127, -127, -113, -109, 56, -99, -127, -127, 108, 127, 15, 127, -113, 127, 85, 92, -123, -127, -127, 127, 83, -78, -120, 41, 127, -17, -127, 115, -121, -127, -87, -33, 127, 127, -61, 127, 127, 127, 127, -127, 15, -123, 127, -127, -127, 127, -39, 89, 127, 127, 127, -124, 127, 127, 127, -69, 127, -127, 127, 127, 127, 6, -49, 127, 127, -127, -127, -49, 127, 127, -68, 127, 127, -28, 127, 53, 127, 127, 127, -115, -127, 127, 63, 35, 127, 127, -127, -1, 127, -127, -95, 127, -127, -39, 127, 127, 127, 127, 127, -12, 127, 127, 127, 127, -8, -127, -127, -39, 127, 30, -2, 127, -127, 38, -107, -127, -34, -6, 127, 127, -57, 127, 127, 127, 127, 127, -127, 127, -127, -28, -74, 127, 127, -57, -40, -127, 127, 127, -74, 127, 127, 127, 28, -64, -43, -40, 73, -48, 127, -127, 2, -80, 127, 127, 127, -121, 127, 127, 96, -127, 127, 127, -127, 127, -127, 127, 127, -40, 127, 127, -102, 127, -64, -127, 127, -123, -42, -127, 6, -127, 127, -10, 24, 127, 114, -127, 127, 9, 127, 127, 127, -121, 127, -119, 127, 17, -59, 127, 127, -127, 127, 127, -127, 127, 127, -78, 127, 127, -127, -127, -111, -127, 127, -42, 63, -75, -84, 127, -112, 86, -127, 127, 127, -127, 127, -6, 127, -94, 127, -127, 127, 125, 0, 11, 9, -2, -5, 31, -59, -15, -7, -1, -96, 3, 10, 10, -29, 60, -5, 32, 16, 69, 106, -44, 20, 127, 5, 17, 28, 47, 127, 32, -28, 18, 98, 9, 86, 127, 127, -104, 23, -9, 3, 54, 127, 19, -30, 2, 15, 46, 4, 11, -34, -122, 5, -55, -59, -8, 19, -41, -17, 16, 13, -4, 34, 75, 74, 23, -88, 127, 25, 121, 1, 5, 68, -5, -118, 25, 84, -15, -13, 14, -6, 4, 4, -2, -41, -10, -26, 16, 0, -51, 5, 14, -81, -96, 10, -69, 33, -1, 73, -4, -14, 21, 17, 127, 98, -14, 15, 17, -21, 21, -10, 17, -21, -63, -57, -27, -2, -13, -22, 5, -57, 41, 21, -15, 1, 20, -13, 20, -11, -23, 80, 2, -95, 36, -20, 2, -26, -32, 55, 81, 24, -14, 34, 7, 6, -36, 121, -10, -43, -4, -12, -7, 65, 127, 1, -25, 39, -2, 65, -9, -25, 18, -6, 52, -58, -28, 59, 16, 51, 74, -80, 7, -8, 16, -122, 10, 41, -1, -31, 15, 25, -108, -37, 49, 11, 40, -48, -52, 127, 2, -36, 32, -60, 1, 10, 127, 127, -8, -5, 8, 3, -4, -70, -13, 10, 127, 55, -52, -7, 1, -12, -84, -127, 33, -90, -21, 4, 8, 15, 18, -10, -19, -122, -26, 2, -8, 127, 17, 127, -2, -48, -80, 12, 21, -41, 127, -66, 16, 4, -8, 75, -7, -73, -19, -27, 44, -8, -127, 11, 17, 100, -16, 7, 15, -17, 26, -1, 32, -28, 100, 12, -40, -9, -3, 12, -37, 25, -20, -8, -23, -1, 15, -26, -58, 38, -30, -63, -28, 7, 11, 7, -4, -88, -78, 0, -22, -88, -66, -28, -61, -58, 47, 127, -6, 124, -19, 127, 86, -99, 10, 110, 127, -65, -3, 11, 127, 4, -127, -23, 1, -86, 0, 15, 18, 12, 8, -12, 6, 34, -4, 15, 30, 20, -94, -42, 31, 127, 81, 27, 0, -1, -42, -109, 27, -60, -23, -12, 6, -21, 3, 25, 119, 127, -4, -9, -10, -19, 5, 23, 21, -37, -16, 8, -96, -19, 127, -39, -2, -10, -80, -28, -11, 56, -34, 22, 54, -61, 127, 50, -15, -117, -3, 68, -2, 32, 17, 19, -10, 16, 7, -5, 14, 2, 71, 58, -12, 127, 11, 3, -105, -57, 41, -26, 26, -19, -109, 51, 127, 17, 12, -4, -23, 14, -19, 10, 27, 5, 19, 20, -77, -19, 3, 37, -36, -74, -11, -11, -56, 17, 15, 8, 4, -2, 17, 1, -18, 127, -23, 35, -45, -3, 127, 5, -17, 29, -47, 44, 17, 71, 11, 39, 25, 38, 64, -6, 13, -8, 112, -10, 66, -52, 28, -127, -62, -30, -7, -93, -66, -2, -40, 27, 42, 15, -24, -1, -80, 16, -5, -48, -4, 9, -86, 30, -71, 33, -72, -20, 12, 30, 104, 4, -34, 19, 27, -17, 12, 17, -26, -15, -22, 127, -79, 3, 127, -16, -127, -93, 16, -41, 45, -79, 3, 6, 32, 30, 14, 29, -52, 15, 117, -2, 127, 20, 9, -12, -23, 3, 14, -40, -5, 11, 3, -67, 2, 7, 25, -2, 18, 42, 15, 16, -2, -18, 7, -39, 0, 9, -20, -47, 47, 5, -1, 3, 17, 10, 13, 1, -29, -34, -94, -20, 1, 47, 66, 3, 15, -6, 0, 9, 26, 13, 28, -23, -51, 0, -15, -89, 5, 7, 23, 10, 44, -16, 17, 19, 1, 62, 0, -44, -71, -4, -92, -1, 1, -30, 1, -5, 8, 60, -3, -10, -28, -2, 10, 9, -1, 1, 71, 13, -8, 14, -18, 11, 28, 55, 0, 7, 4, 46, 1, 43, 12, 19, 13, 17, -1, 26, -3, 114, 6, 1, 47, 64, 16, -69, -101, -30, -25, 3, 8, -7, 11, -34, -12, 52, 1, 1, 15, -7, 3, -27, 27, 43, 16, -30, 32, -5, 17, -4, -2, -19, 15, 36, -4, 4, -8, 7, 8, -102, 18, -22, 4, 4, -5, 19, 9, 7, 21, 1, 21, -32, 33, -29, 17, 19, -3, -35, -26, -4, 8, 50, 67, -27, 0, 4, 17, -31, 17, 5, 6, -42, 8, 0, -10, -9, -25, 1, -5, 18, 94, 46, -1, 7, 10, 1, 4, 19, 5, -5, -6, -3, -4, 10, 1, -1, -11, 34, -4, 22, -35, -1, 1, 22, 3, -24, 8, -79, 23, 16, 13, 6, 14, 28, -35, 85, -17, 2, 5, -28, 24, 25, 6, 26, -47, -3, 54, 6, 17, -47, -1, 7, -20, -43, 22, -6, -1, 2, 29, -1, -30, 20, 73, -5, 0, 22, 10, 69, 27, 11, 17, -2, 8, -8, 4, 1, 23, 3, -9, 5, 0, 47, 2, 2, 16, -6, -30, 19, -17, -31, -1, 2, 6, 13, 4, -50, -93, 18, 0, -51, -13, -9, -20, 30, 20, -24, -2, 93, 63, 73, 2, -44, 9, 83, -10, 3, -5, 10, 3, 12, -34, -39, 0, 82, 20, 1, -2, -9, -15, 2, 0, 25, 45, 5, -8, -15, -48, -5, 2, -13, 55, 23, 13, 7, 34, 11, 17, -5, -29, 1, 4, -5, 15, 17, 12, 15, 7, -23, -16, 1, 12, 2, 16, 67, -2, 6, 17, 3, 8, 61, 11, 6, 6, -36, 1, 8, 93, 15, 6, 50, 3, 18, 11, -43, 0, -19, 6, 1, 7, 7, -5, 7, 17, -14, 14, -2, 15, 27, -3, -12, -13, 6, -32, -122, 13, -64, -26, 54, 31, -10, -29, -35, -5, 127, 13, -7, -5, 22, 25, 4, -2, 21, -115, -9, 10, 16, 15, 1, -2, 4, 22, -9, 5, -2, 9, 42, -21, -13, 1, 19, -11, 18, -23, 8, 9, -27, -13, 7, 23, 7, -11, 19, -11, 6, -4, 26, 12, 43, 19, 15, 82, 6, 54, 52, 12, -74, -17, -72, -13, 25, -50, 9, -21, 5, 9, 12, 5, -8, 46, -3, 19, -4, -4, 25, 8, 10, -65, 30, -97, 36, 2, 19, -4, 3, 13, 4, 7, -4, 14, 3, -9, 4, -11, -46, -2, 23, -6, -97, 11, -38, 25, -48, 1, -46, 11, 3, 25, 14, 11, 2, -107, 1, 24, -1, -8, 127, 26, -52, 4, -3, 24, -100, -27, -16, 36, -90, -17, 10, 6, -11, -25, 127, 8, 22, -65, -6, -58, -88, -17, -38, -15, 19, 36, 43, 2, -2, -12, 5, 13, -28, 5, -83, -121, -89, -13, 14, 127, -48, -9, 42, -16, -9, 62, 18, 2, -100, -90, 6, -96, -62, 16, 1, 23, 127, 127, -42, 109, 43, 49, 61, 12, -21, -117, 4, 39, 5, -21, 19, -11, -28, 0, 46, -19, -39, -127, -8, 7, 84, 18, 2, 42, -13, 10, 14, -59, 3, 86, 70, -125, 33, -20, 127, 2, 124, -37, 111, 33, 20, -8, 23, -23, -48, 47, 19, 25, 64, -4, -127, -9, -60, -19, -11, 10, -18, 6, -52, 4, 96, 14, -5, 9, -19, -18, 24, 93, 127, -3, -76, 46, -20, 20, -8, -7, -59, 52, 127, 3, 9, -76, 15, 2, -20, -27, 11, -6, -8, -6, 58, 38, -11, -50, -30, 8, -13, 15, -31, 13, 15, -10, -66, -101, -47, -18, 127, -93, -85, 29, 0, 8, -108, 106, 21, 13, -62, 3, -26, -57, -40, 23, 11, 12, 68, 102, 48, -3, -5, -25, 17, 0, 12, 7, 28, -16, 14, 11, -9, -11, 13, -22, 18, 34, 4, -102, -2, -8, 39, 18, -25, 31, -108, 127, 27, 1, 9, -28, 127, -64, 74, -80, -19, 127, 49, 21, -20, 4, -16, -63, -11, 122, -60, -10, -63, 19, -8, 127, -67, 3, -71, 16, -20, -65, -6, -16, -2, 127, -8, -2, -13, -8, 94, 30, 5, 22, -48, 127, -64, -47, -1, 9, 12, -96, 49, 1, 127, -27, -2, 3, -19, -25, 2, -28, 19, -62, 9, -1, 7, -23, -76, -93, 127, -1, -95, -36, -31, -57, 12, 93, -1, -5, -100, -37, 96, 30, -73, 3, -9, 4, -22, -27, 2, -13, -2, -86, -88, -3, 6, 51, 6, 22, -85, 37, 35, 19, -33, -41, 21, 127, 16, -119, 0, 11, -42, 127, 29, 2, -4, 127, -11, 16, -44, -38, -16, -16, -20, 33, -5, -27, -14, -7, -18, -28, -37, 29, -1, 16, -11, -22, -17, -31, -14, 11, 44, -5, -3, -74, -22, -2, -31, 127, 5, -4, -64, -15, 90, -49, -116, -9, 88, -23, -35, 33, 24, -39, -17, 127, -7, 9, -4, 71, 18, -10, -15, 11, 8, 23, 7, 72, -39, -4, -32, -75, -13, -29, -42, 0, 104, 6, 33, -6, 11, -30, 16, 50, 37, -67, -14, 7, 5, 127, 5, 0, 22, 29, -20, 75, 7, 2, 118, -33, -127, -4, -12, 28, 34, -64, 34, 9, -100, -22, 23, 127, -21, -7, 5, -29, 69, 27, 98, 27, 64, 33, -5, 127, -9, 60, 83, 9, -86, 3, 51, -20, 127, -88, 7, -32, 37, -12, 4, 19, 14, 44, -20, 51, 10, 8, 2, 37, 5, -112, 67, -51, 26, -34, 22, -9, 2, -28, 17, -9, 23, 127, 32, -22, 17, -35, 27, -47, 3, -21, 127, 16, -3, 10, -50, 6, -91, 30, 53, 104, 21, 11, -5, -75, -14, 78, -15, 46, 22, 11, -13, 16, 3, -20, -41, -5, 12, 8, -40, -1, 7, 29, -2, 37, 31, 8, 16, 25, 11, -29, -29, 10, 12, 8, 27, 12, -5, -22, 9, 15, 23, 14, 6, 51, 35, -85, -27, 2, 37, 83, 22, 12, -16, -2, 0, 7, 10, -27, -31, -59, 0, -17, -58, 10, 6, 5, 19, 33, 44, 1, 27, 58, 49, 3, -65, 22, 1, 51, 4, 0, 6, -1, -30, 2, 65, -3, -6, 17, -3, 7, 7, -4, -9, -3, -23, 5, 7, -22, 11, 29, 12, -5, 5, -13, 41, -4, 127, 17, 19, 18, 15, 4, 68, -7, -65, 3, -2, 35, 62, 14, -59, -20, -56, 10, 4, 8, -5, 5, -5, -9, 40, 0, 1, 10, -11, -3, 5, 30, 15, 16, -28, 30, -8, 14, -6, -4, 12, 29, 32, -1, 3, -19, 11, 14, -10, -9, 6, 4, 4, 1, 34, 29, 4, -5, 2, -1, -8, 29, 46, 13, 15, -12, -26, -35, 16, -14, 32, 48, -31, -14, 5, 7, -104, 20, 19, 9, -40, 8, 2, -6, -11, 44, 8, 3, 7, 43, 83, 3, 0, 8, -18, 4, 18, 15, 69, -6, 0, 6, 8, -2, 0, 3, 33, 66, 15, -31, -2, -1, 15, 57, -81, 17, -86, 17, 19, 8, 6, 14, 17, -33, 22, -13, 2, 6, 122, 16, -32, 7, -32, -36, 5, 47, -1, 50, -16, 4, 7, -20, 20, 14, -44, -8, 0, 26, -2, -28, 13, 70, 51, 1, -5, -8, 74, 19, 9, 6, -11, 25, -6, 3, 7, 9, 2, 27, 1, 0, 22, 3, 2, -10, -7, -44, 8, -36, 8, 7, -1, 3, -25, 3, -39, -106, 4, -3, -73, -43, -8, -12, -12, -79, 30, -2, 101, -11, 74, 0, -50, 9, 91, 29, -2, -10, 12, 4, 16, -56, -35, 0, -39, -12, -3, 0, -17, 11, 4, 6, -24, -15, 7, -9, 20, -37, -11, 18, 19, 58, 19, 9, 6, 48, -28, 15, -10, -8, 3, -5, -4, 13, 14, 5, 18, -2, 16, -6, 7, 8, 5, 12, 2, -5, 4, -34, -4, 47, 16, 11, 6, 13, -30, 2, -15, -37, 14, -22, -20, 14, 64, 12, -13, 2, 36, 9, -12, 7, 8, -7, 4, 9, -3, 10, 7, 45, 39, 1, 21, -14, 6, -35, -113, 8, -69, 12, -29, 22, -5, 77, -26, 6, 66, -3, -5, 0, -10, 32, 4, 21, 25, -97, -11, 10, 11, 16, -7, 1, 18, -6, -1, 2, 4, 9, 57, -18, -10, -5, 19, 50, 25, -23, 8, -17, -28, -23, 11, 36, 7, -1, 7, -11, -3, -12, 28, 18, 39, 22, 17, 53, 9, -22, 49, 21, -55, -17, -16, -13, 16, -42, 10, 3, 29, 7, 18, 7, -1, 3, 5, 2, 2, 9, 20, 9, 2, -63, 24, -94, -15, -4, 15, 7, 3, 10, 1, 0, -19, 10, 1, -7, 7, -12, 31, 13, 0, 54, 52, -42, -6, 18, -27, 22, -54, 13, -21, 18, 7, 2, -11, -127, 5, 52, 2, 71};

static const int32_t L015_dw_bias[512] = {-136, 400, -9144, 15763, 99, -8704, 24161, 765, -3255, -2968, 33033, 12606, -8306, -8546, 15124, -2416, 7094, -12381, -7423, 8845, 12918, 20766, 171, -943, -7817, 17911, 5934, -3775, -450, 10156, -6402, -9667, 8356, 605, 3912, 22775, -1164, 17746, -619, 967, -14468, -1410, -4319, -1005, -11113, 318, 2582, -4034, -5852, 8119, 30130, 35951, 12863, 26214, 23309, -7139, -6530, -797, -485, 14372, -10517, 8043, -14399, -496, 2598, -6856, 31346, -2618, -2578, -3638, 13924, -7448, 27871, 1441, -297, -5404, -5198, 3522, -5532, 12702, 13405, -6707, -1166, -232, -7361, -736, 13502, 9942, -9720, 25388, -5535, -17210, -1418, 45212, -7786, -1890, 6428, 21512, -4280, 15862, 3218, -7501, -10597, 4087, -4051, 15589, 4709, -5492, 16193, -21455, 25978, -5157, 36599, 33675, 23690, -4868, 4055, -6573, 10335, -7529, 22785, -12513, 14138, -416, -397, -9852, 13869, 6877, -381, -2515, -3526, -6884, 21274, -915, 5353, -8053, 23959, -5942, 8483, 23926, -1158, 743, -3306, 14120, -9926, -6544, 41472, -5859, -3352, 14964, 3437, 12429, -12251, 5670, 258, -300, -3575, -5729, 349, 1836, 9278, -13076, -6016, 10443, 22169, 22732, 5074, -3480, -4280, -139, 21678, 34674, -551, -14297, 1698, -7176, -15998, -4492, 26739, -6686, 6906, 37566, 2172, 13745, -975, -5747, 31996, 21856, -7028, -3400, -4905, -3615, -6143, 13736, -12184, -8793, 17905, 2288, -1945, -3445, -7668, 630, -7271, -7018, -7318, 8805, -32, 39083, 1253, 710, -2885, -9244, 29121, -8183, 30792, -2551, -15678, -4217, -19113, -7849, 3338, 21911, -5732, 18556, -2991, 518, 3506, -3602, 6277, -3128, 1166, 20655, -6375, -5900, 20588, -14599, 24070, -3179, -4694, 7030, 25004, -4912, 16214, -8185, 5939, -2136, 1453, 37629, -5220, -2386, -10484, 14060, 21642, -4894, -5018, -8039, -8280, -13053, 16877, -4681, -5702, 20156, -3542, -6940, -7117, -1659, -8664, 8128, -2485, 3641, 14886, -7654, 5824, 25443, -9946, 23513, -4564, 19197, -4563, -4921, 16515, 9583, 34000, 43982, -3664, 1705, 20784, 23571, 17692, 26801, 10125, -2565, 18618, 1707, -3697, -2824, -3454, 27630, 21583, -4584, -3237, 8580, 2252, -3248, -8721, -3104, 11892, 2551, 28603, 16954, 17479, -10396, -11297, -14286, 21097, -9661, -6850, -5732, -7257, 4025, -6221, 28009, 19227, 25441, 18666, 7058, 4689, -12553, -11673, -7852, -7269, 15963, 2516, -1132, -497, 7834, 1793, 477, 9258, -631, -9153, 1960, 14233, -7493, -4512, 16065, 11858, 632, -10890, -12263, 15897, 5438, -6600, 2284, 624, -2165, -697, -5455, -1227, 26442, 23959, -454, 1877, 4744, -6772, -3540, 13825, 631, -1859, 16325, 24533, 678, 1439, -275, -7548, -7400, -11061, 4846, -8666, -1891, 9997, -12900, -1054, -977, -2366, 12996, 4468, -4864, -13120, 36712, 32136, -7719, 22337, 10688, 3838, 26843, -2028, -11489, -3868, -6088, 8482, -7762, -7017, -5933, -8939, -8705, 19522, -4787, 7480, 30326, 1242, -3002, -10231, -1314, -3055, 14154, -12707, -804, -1616, -7905, -5797, -5097, -2754, 22243, 22357, 6668, -19536, 1397, -13075, 23505, -8699, 527, -2736, -2137, -14601, 908, -6427, -1599, -22869, 18142, -1606, -9813, -12328, -1030, 25775, -11012, 11036, -1751, 5340, -12364, -1888, -8303, 34287, 18230, -3019, -129, -4470, 27868, -2335, 21373, -8598, 741, -12024, -8731, 5050, 22728, -9361, 22111, -250, -6695, -6925, 10508, -3797, 20976, -9832, 40647, 25121, -5444, -7881, 2841, -9100, -4581, 15644, -2062, -7662, -629, -2873, 1126, 14176, 13815, 2366, 30652, -8102, 16922, -2397, 28739, 21471, -8428, 17935, -11878, 32418, -13041, -6684, 16911, -6760, -7102, -10234, 31963, -1545, -658, -3675, 1465};

static const int32_t L015_dw_output_multiplier[512] = {1727399680, 1453103872, 1424823808, 1651503744, 1139861504, 1394100608, 1203233792, 1226916864, 1178555520, 1222204928, 1115654784, 1076859520, 2022378496, 1180444800, 1765629696, 1878232704, 1468309760, 1513991424, 1328317184, 1749507968, 2128151168, 1244890496, 1191388416, 2122408320, 1806992256, 1546578560, 2087780224, 1469619456, 1825491712, 2147483520, 1284323072, 1139959808, 1971416960, 1487019136, 1751136384, 1723253632, 1353241984, 1969205888, 1989963904, 1746978176, 1476158976, 1194227328, 1232259456, 1113241216, 1628038656, 1683029632, 1699405696, 1451006208, 1148110464, 1874160896, 1182020480, 2102162048, 1347241088, 1850224896, 1667854208, 1324286976, 2131711744, 1960336256, 2051471104, 1688421504, 1475754752, 1693633024, 1707225984, 1233758976, 1488068096, 1258581888, 1415086720, 1716644096, 2017824256, 1806510464, 2118659968, 1808642688, 1262609664, 2029749504, 1125025920, 1198358272, 1676713728, 1992050432, 1342861696, 1477298560, 1762865280, 1268004352, 1492407552, 1942014592, 1157851520, 1290917632, 1292322944, 1163758848, 1598042752, 1502176000, 1177968896, 1301107072, 1334895488, 2075717120, 1228237952, 1703786112, 1343292032, 1697063552, 1529041024, 1449654656, 2042672256, 1418921472, 1226222080, 1850040064, 1242351232, 1468554368, 1098902016, 1997995136, 1355000832, 2147251712, 1662742272, 1115768704, 1396006528, 1628835712, 1955105280, 1400657920, 2040986112, 1403076480, 2080212224, 1354894208, 1758420864, 1328860928, 1426517632, 1735540608, 1790074112, 1100884480, 1132416384, 1120115328, 2072301824, 1668100096, 1146501632, 1154248064, 1351797376, 1081262080, 1093645440, 1518947968, 1999811712, 1786162176, 1687035264, 1408791424, 1324876544, 1461459968, 2046946688, 1860930176, 1352002944, 2109795712, 1776536192, 1490445952, 1784208896, 1179519104, 1690797184, 1196494976, 1376125184, 1174870272, 1283027968, 1188178944, 1639248256, 1125929472, 1706760960, 1172537216, 1863271424, 1771091840, 1253077888, 1344566144, 1441856512, 1210460416, 1262041600, 1985833344, 1904162048, 1548564992, 1771161344, 1873363712, 1433291264, 1497420288, 1953988736, 1757809408, 2111767680, 2109022720, 1474641280, 1625135488, 1375891200, 1997857280, 2103759360, 1535192832, 1936569600, 1169533952, 2048325120, 1912642176, 1857639168, 1283734144, 1912061440, 2083105152, 1094782336, 1516787712, 1875050240, 2138520064, 2070441088, 1318259072, 1860202752, 1825185536, 1079687680, 1672349824, 1305845120, 1555915904, 1478047872, 1564795392, 1516765312, 1097054080, 1603515648, 1745076736, 1847046144, 1439805696, 1965885696, 2055380096, 1887151744, 1133040896, 1807381632, 1098076416, 1780766336, 1781008512, 1873842048, 1337868928, 1944401664, 1780089728, 2069458048, 1765860864, 1250297856, 1289592320, 1299593728, 1095994368, 1319626496, 1852120704, 2001912832, 1591570176, 1791460480, 1330719744, 1460866176, 1142281216, 2143885440, 1345052160, 1579803776, 1321796480, 1293182848, 1921160704, 1390348160, 1647815040, 1915911680, 1254645504, 1232571264, 1209470592, 2103385088, 1806894336, 1327963776, 1076986240, 1388782720, 1159508096, 1473030528, 1449661312, 1204847616, 1199741056, 1735314176, 1367949824, 1111421824, 1315880704, 1389719296, 1827906688, 1810980608, 1907450368, 1242983296, 1577789184, 1945369472, 1473217664, 1652728448, 1549427072, 1393078272, 1651057024, 1210216576, 1668518400, 1891195264, 1114216576, 1350432896, 1454426880, 1350494720, 2123398784, 2010985344, 1681737216, 1707280640, 1953900160, 1219989504, 1774366592, 1280085120, 2013965568, 2053295616, 1706399744, 1360821120, 1194563200, 1864762496, 1470225408, 1995373312, 2003124608, 1500350592, 1086630144, 1571178752, 1618565248, 1488416000, 1370142208, 2025748096, 1897847040, 1784780160, 2096108032, 1350262400, 2119124224, 1625507328, 1478884608, 2119131520, 1438484864, 1341955200, 1168301440, 1510051840, 2128935040, 1800092160, 1866468608, 1534383616, 1602873728, 1422450304, 1726485120, 1841973632, 1926485376, 1638905472, 1447298560, 1715894784, 1826913024, 2094126720, 1780415616, 1223332992, 1626835328, 1765254656, 1136707584, 1232656256, 2062930944, 1731068672, 1079795584, 1185743488, 1535502720, 2115463296, 1869464448, 1298241408, 1318734976, 1220714240, 1618009600, 2014021120, 1227561856, 1354940288, 1703930112, 1131394688, 1673622400, 1254658560, 2089555584, 1245723648, 1174296064, 1864718080, 1483679616, 1232002688, 1355402624, 1129715200, 1139199360, 1117466496, 1098173312, 1751089408, 1545912832, 1827827456, 1564502272, 1740805632, 1750906624, 1167399680, 1218710016, 1903057024, 2002700800, 1161143168, 1123406720, 1926355200, 1291103744, 1416125440, 1208475904, 1109007744, 1780035968, 1335387904, 1191142528, 1795625600, 1493914368, 1785130880, 1893653760, 1208202752, 1815157504, 1302557824, 2107904128, 1687401088, 1811892608, 1188926592, 1272401792, 1637906432, 1095943424, 1219256960, 2033697792, 1813472896, 1482790272, 1677941760, 1248569472, 1228652800, 1648981504, 1122566656, 1920294272, 2093763584, 2126018304, 1409926528, 1962066560, 1414821760, 2127288576, 1816877568, 1466797312, 1239780864, 1823418752, 1602648832, 1616664448, 1352840832, 1113187456, 1395029888, 1177528064, 1429811712, 1304609280, 1648312704, 1351245312, 1199147776, 1518183040, 1854556800, 1462568320, 1239838592, 1839999104, 1849819904, 1832098304, 1811231360, 1238344192, 1408472192, 1733446272, 1149911680, 1089725696, 1689988096, 1335531136, 1708770944, 1915833728, 2000868864, 1272640768, 1465977728, 1298155520, 1207713280, 1155134208, 1589553024, 1497241472, 1177769088, 1267018112, 1602995072, 1996925568, 1602932992, 1702357504, 1341446656, 1449517824, 2099042944, 1470823296, 1443191808, 1317146368, 2089241088, 1493762048, 2001310848, 1277745920, 1187135488, 1777965184, 1244851712, 2086763136, 1147650432, 1261938432, 1616021888, 1480911232, 1801639296, 1963464320, 1952776192, 1949555200, 1429476224, 2042788736, 1768467968, 1971012608, 1860192256, 1674862080, 1983628672, 1872456576, 1562995328, 1656778624, 1973379328, 1230615552, 1267563520, 1251039616, 1288209920, 1525659008, 1341827200, 1285569408, 1343315712, 1574911872, 1250546304, 1360222336, 1823308416, 1498190720, 1439771776, 1190639488};
static const int32_t L015_dw_output_shift[512] = {-7, -6, -6, -7, -5, -6, -7, -6, -6, -6, -7, -6, -7, -6, -7, -7, -7, -6, -6, -7, -8, -7, -6, -7, -6, -7, -5, -6, -7, -6, -5, -6, -8, -7, -7, -8, -6, -8, -7, -6, -7, -7, -6, -6, -6, -6, -6, -7, -6, -5, -7, -8, -5, -7, -8, -6, -7, -7, -7, -7, -6, -7, -7, -6, -7, -6, -7, -7, -7, -7, -6, -6, -7, -6, -6, -6, -8, -6, -5, -7, -6, -6, -6, -7, -5, -6, -7, -7, -6, -8, -6, -6, -6, -7, -6, -6, -7, -7, -8, -5, -7, -6, -6, -6, -7, -6, -6, -7, -7, -7, -8, -6, -8, -8, -7, -5, -7, -6, -7, -6, -7, -6, -7, -6, -6, -6, -6, -5, -7, -6, -6, -6, -6, -6, -6, -6, -8, -6, -7, -7, -7, -6, -7, -7, -6, -6, -8, -5, -6, -5, -6, -5, -6, -7, -6, -5, -7, -6, -7, -7, -6, -6, -6, -5, -7, -7, -5, -6, -7, -7, -8, -8, -6, -6, -8, -7, -7, -7, -7, -7, -5, -7, -6, -7, -7, -6, -8, -8, -8, -6, -6, -8, -6, -6, -6, -7, -8, -6, -7, -7, -5, -6, -6, -6, -7, -7, -7, -8, -6, -6, -7, -6, -8, -7, -8, -5, -6, -6, -6, -7, -6, -7, -7, -7, -7, -7, -7, -7, -6, -6, -6, -8, -7, -6, -7, -7, -8, -6, -7, -6, -8, -6, -7, -6, -6, -7, -6, -7, -6, -7, -7, -6, -7, -6, -7, -6, -6, -6, -6, -6, -6, -6, -6, -6, -6, -8, -7, -7, -6, -6, -6, -6, -6, -7, -6, -7, -6, -6, -7, -6, -7, -5, -8, -9, -7, -6, -8, -8, -6, -7, -7, -7, -8, -6, -6, -6, -8, -7, -8, -7, -8, -6, -6, -7, -6, -6, -6, -7, -8, -6, -8, -7, -6, -6, -8, -6, -6, -6, -6, -6, -7, -8, -7, -8, -7, -7, -7, -8, -6, -6, -6, -8, -7, -7, -6, -7, -6, -5, -6, -7, -7, -6, -7, -7, -6, -7, -5, -7, -6, -6, -8, -6, -6, -7, -6, -7, -6, -7, -6, -6, -8, -6, -7, -7, -6, -6, -7, -6, -8, -4, -8, -6, -6, -7, -5, -6, -6, -7, -5, -6, -7, -6, -6, -6, -7, -6, -6, -6, -6, -8, -8, -7, -7, -7, -7, -8, -6, -6, -6, -6, -8, -5, -6, -6, -7, -7, -6, -6, -6, -8, -5, -7, -7, -6, -6, -6, -6, -7, -6, -6, -6, -7, -7, -7, -7, -6, -6, -6, -6, -7, -6, -5, -6, -6, -6, -6, -6, -7, -7, -7, -7, -6, -7, -7, -7, -6, -7, -7, -7, -7, -7, -6, -8, -6, -6, -5, -6, -8, -6, -7, -7, -8, -6, -6, -6, -7, -7, -7, -6, -6, -7, -7, -7, -7, -6, -8, -7, -6, -6, -5, -6, -6, -6, -7, -6, -6, -7, -6, -6, -6, -6, -8, -6, -8, -7, -8, -8, -6, -7, -7, -8, -6, -6, -7, -6, -6, -6, -7, -7, -6, -6, -6};

#endif  // LAYER_015_DEPTHWISE_CONV_2D_H_
